node_20	0.1579888015985489 -0.07869889587163925 0.1469247043132782 0.22627276182174683 0.5808850526809692 -0.397962749004364 -0.05865485966205597 0.17213919758796692 -0.14067141711711884 -0.4142003655433655 -0.06087175011634827 0.5304799675941467 0.3682692050933838 -0.2714226245880127 0.3578692376613617 -0.6730517745018005 0.9392142295837402 0.06033479422330856 0.131301149725914 0.06902514398097992 0.13823717832565308 -0.05915573239326477 0.22325670719146729 0.31209689378738403 -0.40011176466941833 -0.05518736690282822 0.4291720986366272 0.14878544211387634 0.13067898154258728 0.21020102500915527 -0.2969501316547394 0.22928428649902344 0.1500912308692932 0.31467193365097046 -0.09850351512432098 -0.10563751310110092 -0.3570230007171631 0.1345432996749878 0.3134002685546875 0.009027431719005108 -0.18741457164287567 0.18289314210414886 0.4602928161621094 -0.3631322383880615 0.24240319430828094 0.1364416629076004 -0.04998178780078888 0.32994183897972107 0.31347259879112244 0.07874777168035507 -0.0005056014051660895 -0.2599357068538666 -0.15355108678340912 0.31187736988067627 -0.08028613030910492 0.09401299804449081 -0.3949250876903534 0.08479705452919006 0.3809342086315155 0.16211974620819092 0.1049012765288353 0.34140682220458984 0.05626418814063072 -0.3615260124206543 -0.10423734039068222 0.3092610836029053 -0.25793007016181946 -0.36739248037338257 -0.024376390501856804 0.06052584573626518 -0.17226600646972656 -0.15968793630599976 0.029664313420653343 0.04505404084920883 0.030347898602485657 -0.11019410192966461 0.38966870307922363 -2.1279075145721436 0.12587322294712067 0.4716467261314392 -0.04881363734602928 -0.35455164313316345 0.3950924873352051 -0.07195721566677094 -0.050376228988170624 -0.8054760694503784 0.19659170508384705 -0.33042848110198975 0.02680346928536892 0.29755449295043945 0.3150290250778198 0.3219603896141052 -0.3143131136894226 0.19844266772270203 0.03786272928118706 0.2160617560148239 -0.3622235059738159 -0.10013654828071594 -0.4060128629207611 0.08819732069969177 0.015519894659519196 -0.11907345056533813 0.19915902614593506 -0.18657605350017548 0.2069481611251831 0.054966073483228683 -0.15132920444011688 -0.24147310853004456 0.2086028754711151 0.10784585773944855 0.23785090446472168 0.12008257210254669 0.01286311261355877 0.03955721855163574 -0.16763177514076233 0.2670733332633972 -0.01898830756545067 -0.025571420788764954 0.11857996881008148 0.21788951754570007 0.28362876176834106 -0.13961562514305115 0.03127893805503845 -0.09225630760192871 0.08386301249265671 0.4508075714111328 0.3661937713623047 -0.022270556539297104 -0.015008678659796715 -0.284173846244812 -0.34657371044158936 -0.8621214628219604 -0.09167151153087616 0.21258658170700073 0.14707408845424652 0.03970982879400253 0.012781677767634392 -0.04543043300509453 -0.03666466102004051 0.034100525081157684 -0.07996778190135956 -0.013167205266654491 0.03700420632958412 0.16980555653572083 0.8154520988464355 -0.00048714381409808993 0.09729241579771042 -0.26009243726730347 0.006206323858350515 0.4070519208908081 -0.18705981969833374 0.40117865800857544 -0.0080293333157897 0.2370738983154297 0.12810774147510529 0.7821415662765503 -0.19425666332244873 -0.049045369029045105 -0.07230135798454285 0.7286651134490967 0.01177883893251419 0.08656536787748337 0.35347065329551697 0.16124913096427917 -0.11296217143535614 0.07062935829162598 -0.1328924298286438 -0.1309744268655777 -0.10853070020675659 0.7202810645103455 -0.16145871579647064 -0.10536296665668488 0.04694220423698425 -0.1731540858745575 -0.2298981249332428 -0.04842713475227356 -0.027094189077615738 -0.057859621942043304 0.15523701906204224 0.14449411630630493 0.12491346895694733 0.06817993521690369 0.17569009959697723 -0.07992306351661682 -0.08553437888622284 0.3371706008911133 0.12456130981445312 0.045394062995910645 -0.4012853801250458 0.11843110620975494 -0.36735498905181885 0.14063870906829834 0.18233579397201538 -0.3160828948020935 0.1563166081905365 0.22970819473266602 0.2571554183959961 -0.02121247723698616 0.16810719668865204 -0.09541381895542145 -0.4665561616420746 -0.15836799144744873 0.5264270305633545 -0.028462711721658707 0.0410941056907177 0.1988263577222824 -0.1462302803993225 -0.2248058021068573 -0.2575588822364807 0.2760699391365051 -0.3208456039428711 0.7854062914848328 -0.08710694313049316 -0.14347021281719208 0.47631892561912537 0.13789111375808716 -0.3085619807243347 -0.24594545364379883 -0.19839052855968475 -1.1502785682678223 0.29623496532440186 -0.0843292698264122 0.10723462700843811 -0.6752642393112183 0.39684030413627625 0.20638053119182587 0.11028283834457397 -0.02136867307126522 0.4985438287258148 -0.021818002685904503 -0.07914561033248901 -0.2947753667831421 -0.700283408164978 -0.22229623794555664 0.20976750552654266 0.2695602774620056 -0.496321439743042 0.2655482292175293 -0.001319902716204524 0.09590117633342743 -0.46916866302490234 0.19085513055324554 -0.2037140429019928 0.298075795173645 -0.26152917742729187 -0.3056749701499939 0.11601732671260834 -0.06664706766605377 -0.24715928733348846 -0.29054713249206543 -0.07078417390584946 0.01605771854519844 0.01684291660785675 0.10260846465826035 0.4137345254421234 -0.20785711705684662 0.03807692974805832 -0.08384884893894196 -0.33149778842926025 -0.641758143901825 -0.047326795756816864 -0.09513162076473236 0.09641329944133759 -0.35545238852500916 -0.2623165249824524 -0.42307886481285095 -0.06609201431274414 -0.06645286083221436 -0.21171948313713074 0.2703709304332733 0.1281968057155609 0.2620861232280731 0.24212853610515594 0.21514181792736053 -0.07416462153196335 0.11075031012296677 -0.07635284960269928 0.0911078006029129 -0.12427576631307602 -0.10509960353374481 0.23018132150173187 -0.01521414052695036 -0.1479683518409729 -0.5749033689498901 0.2472064197063446 0.005144059658050537 0.2028205692768097 -0.32246947288513184 -0.06822375953197479 0.04984058067202568 -0.16062307357788086 0.25868940353393555 -0.07083989679813385 0.24441561102867126 -0.3631123900413513 0.2178739756345749 0.009280204772949219 0.35924220085144043 0.08890848606824875 0.3038066327571869 0.05032122880220413 0.32536399364471436 -0.10675303637981415 -0.055027157068252563 0.20791170001029968 0.004807181656360626 0.22293107211589813 -0.1931680291891098 -0.14580926299095154 0.20941810309886932 -0.19024300575256348 0.2361597716808319 -0.09419941157102585 0.0259443037211895 0.14031724631786346 0.050174780189991 0.29698264598846436 -0.26969558000564575 0.3788534104824066 0.04207349941134453 0.038188036531209946 -0.17233538627624512 -0.18045423924922943 -0.12394018471240997 -0.10535978525876999 0.3656895160675049 0.002257843967527151 -0.004880468361079693 0.2638975977897644 0.2882229685783386 1.2462900876998901 1.471799612045288 0.3847944736480713 0.5682814717292786 0.0018721595406532288 -0.03352286294102669 -0.14555810391902924 -0.2189127504825592 0.08785095810890198 -0.22154352068901062 0.19563905894756317 -0.4697840213775635 0.11788319051265717 -0.030772170051932335 0.11984511464834213 0.033530525863170624 0.7156006097793579 0.13060462474822998 0.18068556487560272 -0.4889712929725647 0.16148504614830017 -0.26268935203552246 0.04871106892824173 -0.4621981978416443 0.3307868242263794 0.0830422043800354 0.1869252324104309 -0.17266422510147095 -0.03483753651380539 0.17092439532279968 -0.36241286993026733 0.7082265615463257 -0.08154251426458359 -0.374435156583786 -0.05567976087331772 -0.35043519735336304 -0.9631297588348389 0.03522619232535362 0.19156700372695923 0.14772793650627136 0.033329449594020844 0.011219700798392296 0.25952911376953125 -0.22353562712669373 0.19511568546295166 -0.019451308995485306 0.519443929195404 0.38621628284454346 0.2782972455024719 -0.2636304795742035 -0.23025023937225342 0.36223936080932617 -0.037546493113040924 0.2807243764400482 -0.09888019412755966 -0.2575199604034424 -0.15181003510951996 0.0217055045068264 0.2782781422138214 -0.16494479775428772 -0.024067215621471405 -0.025534261018037796 0.08560940623283386 0.3222351372241974 -0.36063116788864136 0.1588497757911682 0.2188848853111267 0.8198297023773193 -0.040302373468875885 0.0406024195253849 0.16862237453460693 -0.17993173003196716 -0.23366078734397888 0.5325152277946472 0.2778623104095459 -0.0528322272002697 0.0025320749264210463 0.20437514781951904 -0.10871054977178574 -0.6348856687545776 -0.1128411516547203 -0.30932414531707764 -0.36606234312057495 -0.20388898253440857 0.08287851512432098 -0.1410188376903534 0.2080400437116623 -0.2682742476463318 -0.5361060500144958 0.09931036829948425 0.08929233998060226 -0.12222369015216827 0.5403339862823486 -0.1505555510520935 0.15270695090293884 0.09916915744543076 -0.18370279669761658 -0.07488368451595306 -0.5215568542480469 0.2136959433555603 0.0018951892852783203 0.05782913416624069 0.21853576600551605 0.055920928716659546 0.0334506630897522 -0.09515713900327682 -0.0630469098687172 -0.036589331924915314 -0.20886358618736267 0.07145139575004578 -0.1706072986125946 0.19644038379192352 -0.21618054807186127 0.09864132106304169 0.21924293041229248 0.4345329701900482 -0.32704707980155945 -0.2615301311016083 -0.1949218213558197 0.09926210343837738 -0.03384154662489891 0.21689598262310028 -0.43409642577171326 -2.9365954399108887 0.402202844619751 -0.0006228511920198798 0.15334264934062958 -0.02683386765420437 0.09371499717235565 0.08555497974157333 -0.26689547300338745 0.32762157917022705 0.29112088680267334 0.2517268657684326 0.05134207010269165 0.16211597621440887 0.0168180912733078 -0.09471961110830307 0.25687313079833984 -0.02272457629442215 0.2944347858428955 0.1985529363155365 -0.024952124804258347 0.01717526838183403 0.14889968931674957 0.19110965728759766 -0.02605190873146057 0.08735348284244537 0.1790110468864441 0.12880821526050568 0.22626850008964539 -0.025765124708414078 -0.025043023750185966 -0.05675427243113518 0.026650384068489075 -0.08822645992040634 -0.33811959624290466 0.1016082763671875 0.5327326655387878 -0.5201884508132935 -0.3453896939754486 0.23629073798656464 -0.3764530122280121 0.5015518665313721 0.0862140879034996 0.12883102893829346 -1.7372864484786987 -0.24722442030906677 -0.518134593963623 -0.09992935508489609 -0.14491893351078033 0.11995476484298706 0.17830334603786469 -0.00987418182194233 0.22823934257030487 0.05528686195611954 -0.15987545251846313 -0.06505297124385834 -0.08951660245656967 -0.05543120205402374 0.06990181654691696 0.0749521255493164 0.11614122241735458 0.0883583053946495 -0.036917611956596375 -0.23509502410888672 0.00846936833113432 0.32858806848526 -0.2262170910835266 -0.6990384459495544 -0.06324156373739243 0.3573436141014099 -0.1599205583333969 -0.049016695469617844 0.13418756425380707 -0.09630042314529419 0.2314622402191162 0.09356077760457993 -0.08180953562259674 -0.38007575273513794 0.3062175512313843 -0.11840172857046127 0.2968897223472595 0.048741333186626434 0.7285251617431641 0.15100081264972687 -0.34352564811706543 -0.06881724298000336 0.06290360540151596 -0.27828752994537354 -0.10468848049640656 0.6343377828598022 -0.3442891538143158 0.040615759789943695 0.2651240825653076 0.1924598217010498 0.012606526724994183 0.026076069101691246 -0.10278114676475525 0.1732059121131897 -0.0939328521490097 2.612372398376465 0.44917070865631104 -0.04220227524638176 -0.14628440141677856 0.019046545028686523 0.09254627674818039 0.005391846410930157 -0.06062641367316246 -0.07102732360363007 0.11526276916265488 -0.014706721529364586 0.17505024373531342 0.008071111515164375 -0.3208962678909302 0.04910542070865631 0.49466603994369507 -0.24484053254127502 0.20933246612548828 0.043865084648132324 0.3986058235168457 0.09774421900510788 -0.06875930726528168 0.4033796191215515 -0.02347066067159176 -0.1258472502231598 0.09315221011638641 -0.09493492543697357 0.33055949211120605 0.3981471061706543 0.3427774906158447 -0.09472373127937317 0.053781427443027496 -0.10748410224914551 0.3480571508407593 -0.0009753009071573615 0.41414493322372437 -0.22354081273078918 9.251626014709473 -0.09671752154827118 0.04417271912097931 0.2284344881772995 0.18988266587257385 0.061207037419080734 0.0767592340707779 0.012886582873761654 -0.4446278214454651 -0.04055066034197807 -0.22681204974651337 0.012216256931424141 0.18984417617321014 -0.43802183866500854 -0.00314176082611084 0.2420809268951416 0.4850100874900818 0.5021883249282837 0.06197933852672577 0.09413619339466095 -0.2242487370967865 -0.03871489688754082 0.08083407580852509 0.4106293320655823 -0.17040465772151947 0.0944148525595665 -0.649523913860321 0.08930149674415588 -0.059842877089977264 0.11944305896759033 0.2741989493370056 0.12514054775238037 -0.10742410272359848 -0.11591093242168427 -0.042992234230041504 0.009505292400717735 -1.1912872791290283 -0.04313477873802185 0.21397778391838074 -0.1926310658454895 0.012634990736842155 -0.23221129179000854 0.05526543781161308 0.1485205888748169 0.17136704921722412 0.3495742976665497 -0.26264578104019165 0.08615832030773163 0.38562533259391785 -0.023962032049894333 0.10269634425640106 0.23679202795028687 -0.06619951128959656 -0.4678766131401062 0.06536951661109924 -0.26510974764823914 0.20210473239421844 -0.022130656987428665 -0.08185921609401703 -0.60910964012146 0.17124933004379272 -0.07850321382284164 -0.14561870694160461 0.34883540868759155 0.32504791021347046 -0.27576884627342224 0.48933839797973633 0.041051607578992844 0.21347975730895996 -0.0668109804391861 -0.16767637431621552 0.14389120042324066 0.060220785439014435 0.1692201793193817 -0.27196401357650757 0.018540482968091965 -0.27484962344169617 -0.1331302523612976 -0.314888060092926 -0.31647002696990967 -0.036569930613040924 0.3746657073497772 0.023449178785085678 0.1419319361448288 -0.5543286204338074 0.22795459628105164 0.21870091557502747 0.12948673963546753 -0.057829082012176514 0.031203318387269974 0.06541628390550613 -0.07858187705278397 0.06769480556249619 -0.04607135057449341 0.23183324933052063 0.054772600531578064 0.020541196689009666 0.1834162473678589 0.07474112510681152 -0.30765706300735474 -0.24764272570610046 0.37029561400413513 -0.08895137161016464 0.23078423738479614 0.10114559531211853 0.07047662138938904 0.09588566422462463 -0.6399827599525452 -0.07911547273397446 0.04754875227808952 -0.01056482270359993 0.3713108003139496 0.14838168025016785 0.379373162984848 0.08428268134593964 -0.42292582988739014 -0.10227697342634201 0.030562177300453186 0.3025072515010834 0.37270587682724 -0.16406598687171936 0.1259206384420395 0.22627989947795868 -0.4337240159511566 0.0031685656867921352 0.04606955498456955 -0.10265716165304184 0.34535571932792664 0.2043527066707611 -0.0730726569890976 -0.10961353778839111 -0.05074909329414368 0.08646300435066223 0.124144546687603 0.02885366603732109 -0.41267281770706177 0.14709535241127014 0.03683498129248619 -0.10188810527324677 0.21016959846019745 0.03720186650753021 0.16334199905395508 -0.1866929531097412 0.10802146047353745 -0.07467082142829895 -0.28715741634368896 -0.5903781652450562 -0.4156663119792938 0.14397196471691132 -0.12777961790561676 -0.04192832112312317 -0.12731830775737762 -0.1435443013906479 0.11778324842453003 -0.07662054896354675 0.27037864923477173 0.06304579228162766 0.33193087577819824 0.06754417717456818 -0.0178192351013422 -0.1879887580871582 -1.2122907638549805 -0.48785871267318726 -0.980553150177002 -0.05288994312286377 -0.008284883573651314 -0.11171309649944305 -0.025413334369659424 0.31003713607788086 -0.19627729058265686 0.1444961130619049 -0.1027192771434784 0.08735920488834381 -0.13167986273765564 0.31073814630508423 -0.1695542335510254 -0.32939884066581726 -0.3061800003051758 0.2047158181667328 0.012777703814208508
node_23	0.04682997986674309 0.031100954860448837 0.1311049461364746 0.09574878215789795 0.9890702962875366 -0.5729977488517761 0.040106549859046936 0.21165335178375244 -0.10526002943515778 -0.3432391881942749 -0.12456268072128296 0.11467262357473373 0.42470166087150574 -0.06784074008464813 0.23241108655929565 -0.9851408004760742 1.1318529844284058 0.20346835255622864 0.12265393137931824 0.25626179575920105 0.12756803631782532 -0.08744986355304718 0.23614999651908875 0.3311125636100769 -0.3528580367565155 -0.004415036644786596 0.4827520549297333 0.1448061466217041 0.12761172652244568 0.23716560006141663 -0.2984645366668701 0.275931715965271 0.194863960146904 0.24475842714309692 -0.10982714593410492 -0.1877860277891159 -0.45301181077957153 0.11865364760160446 0.2752901613712311 0.07990845292806625 -0.1881811022758484 0.25022265315055847 0.42187079787254333 -0.4106510579586029 0.20704013109207153 0.1722901463508606 -0.12086053937673569 0.1075507402420044 0.3382086157798767 0.0824044942855835 0.04329951852560043 -0.2286648005247116 -0.07943597435951233 0.37670785188674927 -0.08381198346614838 0.17847244441509247 -0.33486807346343994 -0.05630180239677429 0.4059842824935913 0.07844319194555283 0.04948719963431358 0.8574910163879395 0.22942808270454407 0.07839548587799072 -0.19070719182491302 0.31657785177230835 -0.3117395341396332 -0.4988379180431366 -0.016069848090410233 0.00791429728269577 -0.15615025162696838 -0.11655215919017792 0.08532452583312988 -0.09385368227958679 -0.03479910269379616 0.09598840773105621 0.4374076724052429 -2.018306255340576 -0.04774101823568344 0.4934024214744568 -0.0735362097620964 -0.38250064849853516 0.21266159415245056 -0.1299382895231247 -0.11458393186330795 -0.7053002119064331 0.18075010180473328 -0.35277602076530457 0.11629941314458847 0.25027933716773987 0.22371962666511536 0.24661776423454285 -0.3142133951187134 0.4055352807044983 -0.045084476470947266 0.18717233836650848 -0.33564722537994385 -0.1794593781232834 -0.3238658308982849 0.06487232446670532 -0.058768197894096375 -0.01697395369410515 0.06559937447309494 -0.12463027238845825 0.20273010432720184 0.01176670752465725 -0.1377243995666504 -0.20371520519256592 0.323409765958786 0.20319202542304993 0.2263859510421753 0.23804780840873718 0.011498729698359966 0.06065976619720459 -0.17885276675224304 0.33497852087020874 -0.059396758675575256 -0.017459318041801453 0.07626521587371826 0.24073466658592224 0.3273090124130249 -0.2050527036190033 0.1136823445558548 0.061824508011341095 0.015008678659796715 0.4515042304992676 0.3603505790233612 -0.0656823217868805 -0.0855516791343689 -0.31091010570526123 -0.3378986120223999 -0.6384257078170776 -0.11082445085048676 0.26521778106689453 0.18429820239543915 0.0707140564918518 -0.04457668215036392 -0.040689852088689804 -0.09811930358409882 0.02941768430173397 -0.008590768091380596 0.08855452388525009 0.06819628179073334 0.1592855304479599 0.5176576375961304 0.03154300898313522 0.048184774816036224 -0.2182045876979828 -0.055177878588438034 0.49172911047935486 -0.1279875636100769 0.28778836131095886 0.0063163526356220245 0.23704448342323303 -0.03163362666964531 0.6702544093132019 -0.2632294297218323 -0.1275225579738617 -0.13746300339698792 0.7772073149681091 0.07782148569822311 0.21655264496803284 0.3586547374725342 0.07402630150318146 -0.06164286658167839 0.07977663725614548 -0.14456167817115784 0.014131998643279076 -0.05392631143331528 0.8720673322677612 -0.21701079607009888 -0.10297095030546188 0.01659923791885376 -0.1296464055776596 -0.14224404096603394 0.029925908893346786 -0.07601292431354523 -0.05346592888236046 0.10535061359405518 0.12580877542495728 0.13071474432945251 -0.0017894457560032606 0.18241575360298157 -0.10472477972507477 -0.054795846343040466 0.17175227403640747 0.08846598118543625 0.01682441495358944 -0.2110380232334137 0.0426410436630249 -0.4024978578090668 0.07354129105806351 0.10169517248868942 -0.4915807247161865 0.0594794824719429 0.2626933455467224 0.20219263434410095 -0.0671301856637001 0.1441413164138794 -0.09164044260978699 -0.4680348336696625 -0.21202537417411804 0.3731846511363983 -0.02932390570640564 -0.03770498186349869 0.21720054745674133 0.12433028221130371 -0.3134762942790985 -0.2723199725151062 0.19797226786613464 -0.21182498335838318 0.5425763726234436 -0.10511421412229538 -0.1681899130344391 0.2608388066291809 0.22801554203033447 -0.30413973331451416 -0.07374753803014755 -0.31623074412345886 -0.9893101453781128 0.24629317224025726 -0.11205616593360901 -0.09887067973613739 -0.7566840052604675 0.20744869112968445 0.2392357587814331 -0.0026594612281769514 -0.04918442666530609 0.46455901861190796 0.12988078594207764 -0.010715365409851074 -0.11764426529407501 -0.7943910360336304 -0.2067238688468933 0.29031309485435486 0.1274203062057495 -0.5264209508895874 0.21512512862682343 0.00273697217926383 0.09878116846084595 -0.28998422622680664 0.10432126373052597 -0.245056614279747 0.2686138153076172 -0.22306272387504578 -0.29927676916122437 0.08988696336746216 0.29391753673553467 -0.16397720575332642 -0.30238038301467896 0.05026862025260925 0.04727361723780632 0.06580515205860138 0.14204396307468414 0.5251500606536865 -0.12456130236387253 0.12057922780513763 -0.06520595401525497 -0.2624756693840027 -0.6180152893066406 -0.06216031312942505 -0.12003924697637558 0.09458993375301361 -0.38490936160087585 -0.2380044162273407 -0.22078624367713928 -0.032400019466876984 -0.010545565746724606 -0.17505228519439697 0.3430006504058838 0.11606059968471527 0.19705091416835785 0.2560114860534668 0.21790844202041626 -0.05402340739965439 0.10945986956357956 -0.005987395998090506 0.15574565529823303 -0.2114025354385376 -0.1554907113313675 0.3689499497413635 -0.012195463292300701 -0.25121939182281494 -0.6046102643013 0.2422606348991394 -0.04192040488123894 0.13630369305610657 -0.3969491720199585 -0.08468019962310791 0.13998126983642578 -0.1413581371307373 0.25311505794525146 -0.04116196185350418 0.1468978375196457 -0.3058622479438782 0.1740197241306305 0.007787489797919989 0.3575012683868408 0.04993126541376114 0.19549106061458588 0.036790378391742706 0.2574153542518616 -0.024452626705169678 -0.06742039322853088 0.20487964153289795 0.010463286191225052 0.1633046269416809 -0.23550161719322205 -0.16059193015098572 0.13200202584266663 -0.23657703399658203 0.2204223871231079 -0.09884291887283325 0.0394432358443737 0.11434697359800339 0.02114357054233551 0.21427671611309052 -0.23689542710781097 0.4241400361061096 0.07390349358320236 0.0397087037563324 -0.2396315336227417 -0.13954365253448486 -0.12805303931236267 -0.14740896224975586 0.2585890293121338 0.1566658765077591 0.0675966739654541 0.3269069790840149 0.3214811086654663 1.1157197952270508 1.6000795364379883 0.32325828075408936 0.3872278928756714 0.0415257066488266 -0.07516437768936157 -0.21390829980373383 -0.2239980697631836 0.0636257603764534 -0.28060993552207947 0.2697489261627197 -0.43927133083343506 0.13511912524700165 -0.08724705874919891 0.11516638100147247 0.06305509805679321 0.7412742376327515 0.10599692910909653 0.11930312216281891 -0.5776070356369019 0.12322913855314255 -0.2624548077583313 0.07706929743289948 -0.41170620918273926 0.31794506311416626 0.181821808218956 0.13641789555549622 -0.10627488791942596 -0.05441409349441528 0.45031261444091797 -0.3610473871231079 0.5935744047164917 -0.07335866242647171 -0.46523556113243103 -0.03776002675294876 -0.30265864729881287 -1.0447953939437866 0.13529802858829498 0.2079179733991623 0.11645638197660446 0.011611765250563622 -0.0496634766459465 0.28888437151908875 -0.338101327419281 0.2518594264984131 -0.057435981929302216 0.49805694818496704 0.34436464309692383 0.2032388150691986 -0.2626498341560364 -0.11186664551496506 0.3590967655181885 -0.058427393436431885 0.3511066436767578 -0.0704534575343132 -0.22675524652004242 -0.13079965114593506 0.07162397354841232 0.1596078723669052 -0.19790926575660706 -0.08996579051017761 0.030778905376791954 -0.015127289108932018 0.31068408489227295 -0.33024466037750244 0.17424997687339783 0.25413140654563904 0.6461441516876221 -0.048326537013053894 0.0205957293510437 0.18179795145988464 -0.16118934750556946 -0.24533146619796753 0.33224305510520935 0.2913019061088562 0.057836394757032394 0.06274690479040146 0.16501502692699432 -0.25511544942855835 -0.6845401525497437 -0.23110465705394745 -0.40477102994918823 -0.32166969776153564 -0.14510560035705566 0.05902903899550438 -0.12135311216115952 0.15504267811775208 -0.03133675083518028 -0.4882848262786865 0.09718511998653412 0.18293671309947968 -0.07371973246335983 0.562087893486023 -0.1901957094669342 -0.060566872358322144 0.09048448503017426 -0.14479196071624756 -0.08471831679344177 -0.19323036074638367 0.1630241572856903 0.03612994775176048 0.1117657721042633 0.3063672184944153 0.009590407833456993 0.11322983354330063 -0.10049131512641907 0.012759530916810036 -0.021701067686080933 -0.15131522715091705 0.15893980860710144 -0.10359299182891846 0.10123510658740997 -0.19889025390148163 0.19874511659145355 0.20877420902252197 0.45587533712387085 -0.3775704801082611 -0.16629651188850403 -0.21531304717063904 0.08620907366275787 -0.12680429220199585 0.25516730546951294 -0.38033831119537354 -2.9658737182617188 0.3964027762413025 -0.039876170456409454 0.014229941181838512 -0.04536978527903557 0.08667033910751343 0.08613234013319016 -0.22285646200180054 0.2085675448179245 0.3312232494354248 0.1661418229341507 0.12743285298347473 0.14518439769744873 0.04399249702692032 0.013898510485887527 0.17836976051330566 -0.02278347685933113 0.18171744048595428 0.20553039014339447 -0.06566362082958221 0.00677897036075592 0.04294538125395775 0.22483158111572266 -0.10486090183258057 -0.010672567412257195 0.19322256743907928 0.17477989196777344 0.2359447479248047 0.01984468847513199 -0.008222632110118866 -0.014247557148337364 0.0070341406390070915 -0.12752166390419006 -0.21394489705562592 0.040192585438489914 0.495115727186203 -0.5339959263801575 -0.33120495080947876 0.17322824895381927 -0.38155198097229004 0.4450363516807556 0.08488865941762924 0.14288131892681122 -1.7212027311325073 -0.20478978753089905 -0.280732125043869 -0.0585843026638031 -0.11330853402614594 0.10718543827533722 0.2175198793411255 0.11611538380384445 0.29203131794929504 0.10831569135189056 -0.22937384247779846 -0.1116868406534195 -0.11955000460147858 -0.009604677557945251 0.13089822232723236 0.04356278479099274 0.09558689594268799 0.06791434437036514 -0.0771096870303154 -0.273769736289978 -0.0265266802161932 0.3765011429786682 -0.2987577021121979 -0.7520790100097656 -0.09737267345190048 0.31411561369895935 -0.20198467373847961 -0.12931860983371735 0.01988145522773266 -0.11245223879814148 0.2837393581867218 -0.04747696965932846 -0.08943057060241699 -0.3759911060333252 0.29461634159088135 -0.1405821293592453 0.27942031621932983 0.07084556668996811 0.6076345443725586 0.12243419140577316 -0.35166892409324646 -0.10678234696388245 0.06572374701499939 -0.26407429575920105 -0.1001225933432579 0.5298068523406982 -0.3263428509235382 0.05436374992132187 0.2157755345106125 0.1413387656211853 0.24281291663646698 0.04349641129374504 -0.05766148120164871 0.12246726453304291 -0.067214235663414 2.8267104625701904 0.4102349877357483 -0.07698146253824234 -0.12296032160520554 0.043881915509700775 0.10966791212558746 0.02856096252799034 0.0185411237180233 -0.11849262565374374 0.09460832178592682 -0.1692763864994049 0.15235579013824463 0.05696050450205803 -0.3551582992076874 0.06776417046785355 0.5132533311843872 -0.23335687816143036 0.19742470979690552 0.107444629073143 -0.14901968836784363 0.12375882267951965 -0.11825431883335114 0.1249549388885498 0.08277222514152527 -0.06768885999917984 0.11062939465045929 0.24130623042583466 0.42378872632980347 0.4053449034690857 0.26607200503349304 -0.06520048528909683 0.032870080322027206 -0.007357130758464336 0.2489609718322754 0.013066716492176056 0.4336779713630676 -0.2832833528518677 9.169178009033203 -0.14027008414268494 0.05391981825232506 0.15467607975006104 0.18089453876018524 -0.07877536118030548 0.1496066451072693 0.003556815441697836 -0.4996945858001709 -0.03672393783926964 -0.15087591111660004 -0.030164241790771484 0.15171551704406738 -0.32416462898254395 -0.03234076127409935 0.221697136759758 0.3522418141365051 0.46082648634910583 0.06791553646326065 0.05988113582134247 -0.15803901851177216 -0.006171227898448706 0.07238540798425674 0.7021770477294922 -0.17770010232925415 0.0713580772280693 -0.5412012934684753 0.16068661212921143 -0.03234044834971428 0.048213016241788864 0.17384427785873413 0.030610527843236923 -0.11612707376480103 -0.2745460271835327 -0.09781020879745483 -0.1332252025604248 -0.9125784635543823 -0.09491366147994995 0.21077167987823486 -0.15539565682411194 0.02814839594066143 -0.22198620438575745 0.10766154527664185 0.1718759834766388 0.18199321627616882 0.40850624442100525 -0.2552148699760437 0.08256061375141144 0.2970049977302551 0.027527322992682457 0.1535826325416565 0.17910590767860413 -0.10252302139997482 -0.6139761209487915 -0.011084417812526226 -0.22919104993343353 0.11379950493574142 -0.05692192167043686 -0.07502981275320053 -0.49171286821365356 0.1355620175600052 -0.010856765322387218 -0.16237963736057281 0.26306065917015076 0.1806037276983261 -0.20842713117599487 0.4495665729045868 0.23917406797409058 0.27267345786094666 -0.005095389671623707 -0.09197133779525757 0.14271272718906403 0.05664728209376335 0.1343148648738861 -0.30248308181762695 0.07123652845621109 0.017088066786527634 -0.136301651597023 -0.2804761230945587 -0.37529629468917847 0.05223218724131584 0.44309645891189575 -0.0233432836830616 0.20021876692771912 -0.4750598669052124 0.23074768483638763 0.21693488955497742 0.130600243806839 -0.19826599955558777 -0.024554183706641197 0.1004316508769989 -0.18547400832176208 0.043956588953733444 -0.0020905330311506987 0.33575963973999023 0.05789387226104736 -0.0441402792930603 0.20867346227169037 0.08092331886291504 -0.3788696229457855 -0.2695651054382324 0.3884891867637634 -0.10619592666625977 0.2672341763973236 0.10073605179786682 -0.0983119010925293 0.20186856389045715 -0.48739761114120483 -0.12057050317525864 0.07467734068632126 0.016508961096405983 0.44298872351646423 0.15160194039344788 0.4277338981628418 0.006021643988788128 -0.46664953231811523 -0.0634036511182785 -0.0031411475501954556 0.3273855447769165 0.363585889339447 -0.13795772194862366 0.05153375864028931 0.21258997917175293 -0.37999629974365234 -0.007576613686978817 0.0806482583284378 -0.1274353414773941 0.3998810648918152 0.26616817712783813 0.01613309048116207 -0.2714168131351471 -0.11323633044958115 -0.3370148539543152 0.1865241527557373 0.048811376094818115 -0.33495983481407166 0.06772653758525848 0.019104011356830597 -0.03003411553800106 0.15933442115783691 0.024547677487134933 0.2392469346523285 -0.15834681689739227 -0.19439134001731873 0.016172438859939575 -0.4896392822265625 -0.529098629951477 0.04839025437831879 0.15926949679851532 -0.17504996061325073 0.05305059254169464 -0.10606824606657028 -0.10244646668434143 0.14314891397953033 0.042780112475156784 0.25712764263153076 0.00820908509194851 0.25592705607414246 0.11462443321943283 0.03322506695985794 0.008435875177383423 -1.7385368347167969 -0.49963292479515076 -0.8294777870178223 0.12968696653842926 -0.08315710723400116 -0.09035494923591614 -0.08123372495174408 0.23655015230178833 -0.15255650877952576 0.2105175256729126 -0.09628771245479584 0.1589893102645874 -0.08557641506195068 0.309381902217865 -0.20301005244255066 -0.2509838044643402 -0.5049378871917725 0.16511133313179016 -0.006316339131444693
node_10	0.07901464402675629 -0.007288528140634298 0.1779811829328537 0.21438275277614594 0.5493447184562683 -0.5380627512931824 -0.014245076104998589 0.19778701663017273 -0.1581844985485077 -0.33014705777168274 -0.20977304875850677 0.5150571465492249 0.3609660565853119 -0.0938900038599968 0.1840473711490631 -0.5626116991043091 1.0236148834228516 0.12168261408805847 0.16483399271965027 0.04087764769792557 0.15331564843654633 -0.06189189851284027 0.13193482160568237 0.3696134090423584 -0.3571866452693939 -0.08011183142662048 0.49810725450515747 0.16067993640899658 0.2751258611679077 0.3422287702560425 -0.36651724576950073 0.25940871238708496 0.19606219232082367 0.29012835025787354 -0.11594228446483612 -0.13583028316497803 -0.41043978929519653 0.10009962320327759 -0.06857599318027496 0.06288206577301025 -0.21364788711071014 0.10414915531873703 0.3852871060371399 -0.3752104640007019 0.23257887363433838 0.061417192220687866 0.0215188916772604 0.05241042375564575 0.34956344962120056 0.06282255053520203 -0.04363323375582695 -0.2620618939399719 -0.17034971714019775 0.3833743929862976 -0.112603098154068 0.20908896625041962 -0.3875875174999237 0.0015361260157078505 0.39277204871177673 0.18976885080337524 0.10147949308156967 0.8166559934616089 0.09763441979885101 -0.21817271411418915 -0.189165398478508 0.34135088324546814 -0.2531614303588867 -0.20347027480602264 -0.0988917201757431 0.0739050954580307 -0.14693297445774078 -0.18139366805553436 0.10290928184986115 -0.05576257035136223 0.021202033385634422 -0.015429350547492504 0.4292205274105072 -1.701981782913208 0.02818983606994152 0.4882294535636902 -0.11821897327899933 -0.2744140028953552 0.29905933141708374 -0.1654745191335678 0.0007240896811708808 -0.8964986205101013 0.23972582817077637 -0.2764313519001007 0.10038163512945175 0.2927315831184387 0.3873741030693054 0.3122212886810303 -0.31754252314567566 0.05471613258123398 -0.023519296199083328 0.22192129492759705 -0.3082291781902313 0.021901747211813927 -0.3318477272987366 0.10926135629415512 -0.09539918601512909 -0.05977649241685867 0.1599421352148056 -0.21000215411186218 0.22968536615371704 0.14307469129562378 -0.16578614711761475 -0.2438921183347702 0.22999343276023865 0.18182960152626038 0.25328025221824646 0.1305328607559204 0.04873380810022354 0.023218294605612755 -0.23821046948432922 0.34247422218322754 -0.01778297685086727 -0.023736029863357544 0.004787902347743511 0.004672379698604345 0.2565573453903198 -0.09747111052274704 -0.12057781219482422 0.01783129945397377 0.12879154086112976 0.4541622996330261 0.419888436794281 -0.07972627133131027 -0.004264564719051123 -0.33141016960144043 -0.3086799383163452 -0.7938591241836548 -0.10938825458288193 -0.04703470319509506 0.12379851192235947 0.05014798790216446 0.04408874735236168 -0.05416777729988098 0.0036532036028802395 0.07035410404205322 -0.10207804292440414 0.04230962321162224 0.10302495956420898 0.20755013823509216 0.6062359809875488 -0.08251161128282547 0.1220092624425888 -0.2712920308113098 -0.1405588984489441 0.41585826873779297 -0.1591014564037323 0.33919763565063477 0.05643590912222862 0.15803226828575134 0.15719012916088104 0.7552589178085327 -0.17449939250946045 -0.05891072377562523 -0.1540168970823288 0.8736131191253662 0.024604376405477524 0.21797840297222137 0.3775804042816162 0.17637857794761658 -0.028261756524443626 0.04593455791473389 -0.10396840423345566 -0.1345447301864624 -0.041942860931158066 0.7022044658660889 -0.2051299810409546 -0.09543859213590622 0.021548043936491013 -0.11900242418050766 -0.2432721108198166 -0.029238102957606316 -0.005143257789313793 -0.05888907611370087 0.15987294912338257 0.11877313256263733 0.12024471163749695 -0.01114516519010067 0.06572672724723816 -0.06684324890375137 -0.08240257203578949 0.26375770568847656 0.13545772433280945 -0.10876130312681198 -0.3318178653717041 0.15477889776229858 -0.4374823272228241 0.12097315490245819 0.2090023010969162 -0.32227823138237 0.09778301417827606 0.03338019549846649 0.17284516990184784 -0.044442176818847656 0.2263302505016327 -0.17399701476097107 -0.4549393653869629 -0.2928083539009094 0.3511877954006195 -0.0363045409321785 -0.10022902488708496 0.21322283148765564 -0.07344009727239609 -0.2437654435634613 -0.36581939458847046 0.4070705771446228 -0.2901650667190552 0.691684365272522 -0.0291743203997612 0.0004657407698687166 0.4087882936000824 0.1793745756149292 -0.38259315490722656 0.058284517377614975 -0.320314884185791 -1.0608420372009277 0.2855669856071472 -0.12052031606435776 0.035015903413295746 -0.6954516768455505 0.3498833179473877 0.31405314803123474 0.07809045910835266 -0.0370037704706192 0.44463908672332764 0.0076508671045303345 -0.08899369090795517 -0.21822896599769592 -0.6622911691665649 -0.2253558337688446 0.27916279435157776 0.11913567781448364 -0.5967892408370972 0.18063704669475555 0.00021666847169399261 0.12462753057479858 -0.36586207151412964 0.11781720817089081 -0.2722594141960144 0.2730725407600403 -0.2587173581123352 -0.27072858810424805 0.05778820440173149 0.2249796986579895 -0.2618684768676758 -0.3159351944923401 -0.018265610560774803 0.10905124992132187 -0.006078056991100311 0.1285376101732254 0.22479693591594696 -0.21838615834712982 0.12184237688779831 -0.10377129167318344 -0.35086512565612793 -0.3086298108100891 -0.08212548494338989 -0.12392696738243103 0.07513897866010666 -0.3920745253562927 -0.21912932395935059 -0.2325398176908493 -0.07053863257169724 -0.016472162678837776 -0.27369388937950134 0.2547430098056793 0.08588733524084091 0.23300378024578094 0.27291139960289 0.19950678944587708 -0.10928964614868164 0.19531184434890747 -0.07270116358995438 0.05270897597074509 -0.11501976102590561 -0.16209110617637634 0.2304004430770874 -0.007797797676175833 -0.17819087207317352 -0.5977126359939575 0.28154200315475464 0.022430751472711563 0.1926831305027008 -0.22897088527679443 -0.030403411015868187 0.12838345766067505 -0.16092972457408905 0.24692845344543457 -0.046641718596220016 0.19673757255077362 -0.3044775426387787 0.1594424992799759 0.022842254489660263 0.3748122453689575 0.07692908495664597 0.2772129476070404 0.06592078506946564 0.2582699954509735 -0.1815904825925827 -0.03924956172704697 0.14793440699577332 0.04538493603467941 0.22042426466941833 -0.2799745798110962 -0.1436305046081543 0.15479382872581482 -0.20078270137310028 0.2644227147102356 -0.05991461127996445 0.012713329866528511 0.0508025586605072 0.04431149363517761 0.3039175570011139 -0.2702001929283142 0.43378281593322754 0.039385683834552765 -0.009671266190707684 -0.13711628317832947 -0.18969987332820892 -0.12221983075141907 -0.0858675092458725 0.3244541585445404 0.06092608720064163 0.158575177192688 0.3025912940502167 0.2862853705883026 1.5369267463684082 1.2465872764587402 0.3621920943260193 0.4871395528316498 -0.043605364859104156 -0.04688842222094536 -0.17021164298057556 -0.23755231499671936 0.047040533274412155 -0.17396220564842224 0.19848118722438812 -0.4625019431114197 0.1294838786125183 -0.05335239693522453 0.14196452498435974 0.049749232828617096 0.7058269381523132 0.07445970177650452 0.28449147939682007 -0.5460043549537659 0.23143529891967773 -0.224013090133667 -0.0009658517083153129 -0.4279068410396576 0.3389354646205902 0.05010015517473221 0.17062722146511078 -0.13119350373744965 -0.02060035988688469 0.19811785221099854 -0.34319591522216797 0.5435507297515869 -0.07216344773769379 -0.40920647978782654 0.009098058566451073 -0.2523952126502991 -0.9708633422851562 0.11570929735898972 0.20261383056640625 0.11035552620887756 0.053105585277080536 -0.0189011599868536 0.2739764153957367 -0.16892419755458832 0.23362861573696136 -0.012140090577304363 0.5059480667114258 0.33699020743370056 0.318098247051239 -0.2924761176109314 -0.2447413057088852 0.37828803062438965 -0.0012167668901383877 0.27590638399124146 -0.13240890204906464 -0.28939294815063477 -0.21920260787010193 0.07991568744182587 0.25742292404174805 -0.1745038628578186 0.03263531252741814 -0.039036527276039124 0.030958574265241623 0.3303680419921875 -0.29498788714408875 0.10778071731328964 0.2916938364505768 0.7232367396354675 0.04256012663245201 0.02605282887816429 0.18330156803131104 -0.056208424270153046 -0.23690210282802582 0.3945966958999634 0.3689396381378174 0.07281818240880966 -0.07555845379829407 0.22309741377830505 -0.23253920674324036 -0.4237847924232483 -0.14738181233406067 -0.3932250440120697 -0.3515690267086029 -0.14125877618789673 0.0990440845489502 -0.10941704362630844 0.09992662072181702 -0.1551114171743393 -0.467763751745224 0.15569166839122772 0.12725892663002014 -0.16260406374931335 0.48744291067123413 -0.14565050601959229 0.008138000965118408 0.13206705451011658 -0.18330912292003632 -0.04552323743700981 -0.4104836881160736 0.15426227450370789 0.07288378477096558 0.06033223122358322 0.26819896697998047 0.013302875682711601 0.08106734603643417 -0.03417070209980011 -0.010032393038272858 -0.09064771980047226 -0.14064621925354004 0.17377762496471405 -0.10601156949996948 0.20268023014068604 -0.21532666683197021 0.148605614900589 0.14558324217796326 0.41185542941093445 -0.3016814589500427 -0.22432748973369598 -0.2419087141752243 0.013218313455581665 -0.02941802889108658 0.13395115733146667 -0.4828032851219177 -3.2101097106933594 0.37951064109802246 -0.04751376062631607 0.10864163935184479 -0.03523195534944534 0.11200132220983505 0.11086343228816986 -0.1844441145658493 0.3218154311180115 0.2760699391365051 0.2559061646461487 0.04059303551912308 0.11020391434431076 0.09071215242147446 -0.0719846710562706 0.23869308829307556 0.02452315017580986 0.28445547819137573 0.19895118474960327 -0.020039144903421402 -0.0655980110168457 0.1014142632484436 0.13196931779384613 0.016937339678406715 0.06311385333538055 0.121568463742733 0.21650736033916473 0.15705904364585876 0.012170933187007904 -0.004978388547897339 -0.09694158285856247 0.007482883986085653 -0.16451913118362427 -0.26112037897109985 0.09937889873981476 0.5870248079299927 -0.448764443397522 -0.23980586230754852 0.30107852816581726 -0.34285831451416016 0.5202373266220093 0.08830177038908005 0.2017441689968109 -2.1003737449645996 -0.0283002108335495 -0.5401557087898254 -0.10459542274475098 -0.11342410743236542 0.14161373674869537 0.26228708028793335 0.050000958144664764 0.2681242823600769 0.15240982174873352 -0.12660954892635345 -0.018834315240383148 -0.12105338275432587 -0.09932728856801987 0.09661941230297089 0.10730312764644623 0.17101514339447021 0.10762697458267212 -0.04913361370563507 -0.24570336937904358 0.017248302698135376 0.3190506398677826 -0.018250558525323868 -0.500403881072998 -0.11680091917514801 0.2794153690338135 -0.21917974948883057 -0.17536042630672455 0.10402196645736694 -0.05885516107082367 0.16914644837379456 0.14269918203353882 -0.06683174520730972 -0.4784078598022461 0.40944451093673706 -0.16939562559127808 0.16153648495674133 0.04545721411705017 0.7939434051513672 0.046573132276535034 -0.29281097650527954 -0.11532214283943176 -0.00784222036600113 -0.28274399042129517 -0.0009244779939763248 0.5414513349533081 -0.3326181173324585 0.04614574462175369 0.292863130569458 0.252519816160202 0.04931049048900604 0.011093835346400738 -0.019418952986598015 0.10588018596172333 -0.16096752882003784 2.4149112701416016 0.4184759855270386 -0.12977617979049683 -0.036981672048568726 -0.06893537938594818 0.09946012496948242 0.015980523079633713 0.033777713775634766 -0.18036019802093506 0.08444078266620636 -0.333254337310791 0.11958631128072739 0.006390114780515432 -0.3142152726650238 0.027988456189632416 0.45354995131492615 -0.22348836064338684 0.1688060611486435 0.051363639533519745 -0.25058215856552124 -0.011611062102019787 -0.11485352367162704 0.27907800674438477 -0.06330065429210663 -0.12212785333395004 0.16565504670143127 0.04137668013572693 0.2677723169326782 0.3451880216598511 0.35219377279281616 -0.019861843436956406 -0.04293923079967499 -0.10463444888591766 0.322590708732605 0.011080585420131683 0.3663763999938965 -0.35614293813705444 9.643829345703125 -0.02380703017115593 0.06753385066986084 0.2132919430732727 0.22527150809764862 -0.0007598052616231143 0.15146534144878387 -0.020078949630260468 -0.3726954460144043 -0.050949957221746445 -0.19114059209823608 0.022472795099020004 0.2028435468673706 -0.4947046637535095 -0.049385588616132736 0.2990141808986664 0.73212730884552 0.41298192739486694 0.05586579442024231 0.07424744963645935 -0.22938577830791473 -0.003095789346843958 0.02847602777183056 0.5456200838088989 -0.1607889086008072 0.12154975533485413 -0.4917066991329193 0.17943857610225677 0.0059489174745976925 0.07998380064964294 0.1905394047498703 0.08774995058774948 -0.06078282743692398 -0.17655543982982635 -0.08679206669330597 -0.09387263655662537 -0.9859880208969116 -0.015148992650210857 0.19375906884670258 -0.10982086509466171 -0.008123679086565971 -0.19444817304611206 0.06293481588363647 0.1207663044333458 0.13855379819869995 0.37862056493759155 -0.2818479537963867 0.10225746035575867 0.37382811307907104 -0.040624991059303284 0.07447701692581177 0.23681621253490448 -0.07406552881002426 -0.4532378613948822 0.038191452622413635 -0.20496249198913574 0.19952289760112762 0.07204210013151169 -0.11933525651693344 -0.6823095679283142 0.1742209643125534 -0.06827689707279205 -0.14194396138191223 0.28782254457473755 0.45488041639328003 -0.26235663890838623 0.45414575934410095 0.13079360127449036 -0.002157882321625948 -0.04791200906038284 -0.180771142244339 0.14212104678153992 0.03466290980577469 0.22588007152080536 -0.3750215470790863 0.07984340190887451 -0.36061105132102966 -0.20357638597488403 -0.2759268879890442 -0.2695964574813843 0.006713856011629105 0.3985869884490967 -0.10949015617370605 0.08470140397548676 -0.5487918853759766 0.26963192224502563 0.28693103790283203 0.130711629986763 0.0432797335088253 -0.07093781232833862 0.08374516665935516 -0.10809631645679474 -0.04087323695421219 -0.015880823135375977 0.22295646369457245 0.07139699161052704 0.014458520337939262 0.1963208019733429 0.028808817267417908 -0.3384440839290619 -0.235495924949646 0.43032413721084595 -0.10909798741340637 0.22532570362091064 0.0889427661895752 0.025920987129211426 0.11043604463338852 -0.6122106909751892 -0.17990604043006897 0.04972057789564133 -0.05233196169137955 0.30105194449424744 0.04652685672044754 0.3938868045806885 0.10518975555896759 -0.4555930495262146 -0.07989580929279327 0.023384874686598778 0.23769859969615936 0.49226170778274536 -0.16919544339179993 0.15083256363868713 0.2449989765882492 -0.3994084298610687 -0.018225163221359253 0.1307435929775238 -0.1352752447128296 0.3405861258506775 0.25703126192092896 -0.028684016317129135 -0.10227528214454651 -0.029029814526438713 0.12533670663833618 0.13966186344623566 0.03313375636935234 -0.3660324215888977 0.1999366730451584 0.07248707115650177 -0.13279247283935547 0.17875996232032776 -0.055426087230443954 0.17358148097991943 -0.21915385127067566 -0.5120550990104675 -0.07460315525531769 -0.21082663536071777 -0.6942152380943298 -0.25562387704849243 0.17026107013225555 -0.14783455431461334 -0.0014624909963458776 -0.1406291127204895 -0.07615497708320618 0.13349740207195282 -0.027751898393034935 0.343744695186615 0.07687394320964813 0.37504279613494873 0.06525453180074692 -0.009348159655928612 -0.14382100105285645 -1.3552069664001465 -0.42905887961387634 -0.7421042323112488 0.2676830291748047 0.041294243186712265 -0.1937187910079956 -0.01622588187456131 0.3441077172756195 -0.2187962383031845 0.18684600293636322 -0.07937496900558472 0.1455935537815094 -0.12074875086545944 0.3205808103084564 -0.1439051628112793 -0.2643526494503021 -0.5132009983062744 0.1572926938533783 -0.00010436525190016255
node_29	0.09290280193090439 -0.03458297252655029 0.14411914348602295 0.1252642124891281 0.8664552569389343 -0.47955259680747986 0.04340072721242905 0.2030503749847412 -0.0997314453125 -0.28821855783462524 -0.06764547526836395 0.3635689616203308 0.34274864196777344 -0.25635576248168945 0.343062162399292 -0.889101505279541 0.9670450687408447 0.18103423714637756 0.14288315176963806 0.08251315355300903 0.1605410873889923 -0.06580530107021332 0.19925568997859955 0.3613733947277069 -0.32354873418807983 -0.03831794857978821 0.5038886070251465 0.15107128024101257 0.22851362824440002 0.3815191984176636 -0.2625576853752136 0.2920432686805725 0.17556294798851013 0.24310073256492615 -0.1736472249031067 -0.16383014619350433 -0.42783185839653015 0.14940649271011353 0.09281915426254272 -0.01710982248187065 -0.2533375322818756 0.20967358350753784 0.45322760939598083 -0.4504556655883789 0.2348458468914032 0.11737988889217377 0.07400841265916824 0.25582724809646606 0.3176744282245636 0.02527356706559658 0.056053854525089264 -0.32833969593048096 -0.12819765508174896 0.3516765534877777 -0.14581598341464996 0.10116580128669739 -0.3941783308982849 0.04100984334945679 0.422787070274353 0.14830109477043152 0.010466481558978558 0.3915708065032959 0.21241657435894012 -0.11115356534719467 -0.20988979935646057 0.3553866147994995 -0.3053428530693054 -0.4232003092765808 0.0007458329200744629 0.034872639924287796 -0.1539164036512375 -0.15779756009578705 0.08895596116781235 -0.23215773701667786 -0.06898460537195206 -0.03318047896027565 0.39618128538131714 -1.926916480064392 0.0029624677263200283 0.4604266583919525 -0.11405836790800095 -0.4429311752319336 0.3384737968444824 -0.0683271735906601 -0.07842649519443512 -0.8263494968414307 0.19088298082351685 -0.3267368972301483 0.16162879765033722 0.2830201983451843 0.35173436999320984 0.2724243998527527 -0.2859732210636139 0.14058427512645721 -0.03700222820043564 0.15907472372055054 -0.32884952425956726 -0.20915335416793823 -0.3920411765575409 0.01766996644437313 0.05260014161467552 -0.043303824961185455 0.12589463591575623 -0.09949664771556854 0.23255430161952972 0.14187508821487427 -0.08841752260923386 -0.2543712258338928 0.2713643014431 0.19541355967521667 0.24371927976608276 0.006098330020904541 0.05642827972769737 0.014969873242080212 -0.2576627731323242 0.33040091395378113 -0.038655150681734085 0.006603340618312359 -0.019399162381887436 0.13194625079631805 0.34392935037612915 -0.15717454254627228 -0.07463899254798889 0.07720240950584412 0.07133056968450546 0.39082837104797363 0.3829970061779022 -0.11797841638326645 -0.09717634320259094 -0.31068915128707886 -0.31738799810409546 -0.7032082080841064 -0.09236954897642136 0.14769497513771057 0.1417982429265976 0.04711891710758209 -0.00849138479679823 -0.0571918785572052 0.03106006793677807 0.07128855586051941 0.053796373307704926 0.07109429687261581 0.08011511713266373 0.19985154271125793 0.5273587703704834 -0.04832761734724045 0.04676502197980881 -0.24904131889343262 -0.12764108180999756 0.5217370986938477 -0.14138787984848022 0.349174827337265 -0.015274260193109512 0.1479945182800293 0.08467617630958557 0.6811610460281372 -0.26767498254776 0.0042650154791772366 -0.1344032734632492 0.7890514135360718 0.0372871495783329 0.14855554699897766 0.305359810590744 0.07212725281715393 -0.05928460881114006 0.06301042437553406 -0.10119488090276718 -0.031952887773513794 -0.04791002720594406 0.8385217189788818 -0.2229611575603485 -0.059304386377334595 0.024043362587690353 -0.18397454917430878 -0.15358063578605652 0.015452221035957336 0.07010084390640259 -0.12466996908187866 0.109414242208004 0.11995794624090195 0.03734544664621353 0.0008121595601551235 0.08465814590454102 -0.14521518349647522 -0.05981874093413353 0.15318337082862854 0.1370231807231903 0.04284454137086868 -0.23489676415920258 0.167494535446167 -0.38623496890068054 0.08683174848556519 0.19998888671398163 -0.5541388988494873 0.07060381770133972 0.1125936433672905 0.21980524063110352 -0.02684951201081276 0.11955201625823975 -0.06317131221294403 -0.46989136934280396 -0.11665579676628113 0.402696818113327 -0.07302869856357574 -0.0844598263502121 0.24848726391792297 -0.026531856507062912 -0.3058517277240753 -0.30725499987602234 0.4020598828792572 -0.2583184838294983 0.47567281126976013 -0.04998665675520897 -0.1667175143957138 0.19450867176055908 0.1716359257698059 -0.2727091312408447 -0.31442227959632874 -0.30777519941329956 -1.1302173137664795 0.26704198122024536 -0.057860083878040314 0.03386850282549858 -0.6829546689987183 0.3167138397693634 0.22146813571453094 0.08220075815916061 5.748867988586426e-05 0.4746253490447998 0.0026133060455322266 -0.024842869490385056 -0.18344299495220184 -0.8145979642868042 -0.24423041939735413 0.2549843192100525 -0.005157890729606152 -0.5678317546844482 0.2667964696884155 -0.025494879111647606 0.044135987758636475 -0.617339551448822 0.11768698692321777 -0.25756537914276123 0.22056949138641357 -0.26422619819641113 -0.24038760364055634 0.11586320400238037 0.4097824990749359 -0.14676272869110107 -0.15353178977966309 0.10184627771377563 -0.13142439723014832 0.06772439181804657 0.17031100392341614 0.3681705892086029 -0.16303500533103943 0.1309172362089157 -0.08340883255004883 -0.3163211941719055 -0.5949960947036743 -0.0917341336607933 -0.10964956134557724 0.12464968860149384 -0.43785804510116577 -0.14615647494792938 -0.15375295281410217 -0.008402652107179165 0.010793760418891907 -0.19933396577835083 0.2656138837337494 0.03286624699831009 0.22403118014335632 0.26211780309677124 0.16017058491706848 -0.03357141464948654 0.13382276892662048 -0.15653739869594574 0.09594812989234924 -0.18228456377983093 -0.11084815114736557 0.31196630001068115 0.04523550719022751 -0.18713191151618958 -0.6077734231948853 0.3008391857147217 -0.029772724956274033 0.17992165684700012 -0.29587826132774353 -0.03901516646146774 0.1224886029958725 -0.11157020181417465 0.21635890007019043 -0.03175406903028488 0.19434329867362976 -0.25204306840896606 0.17691485583782196 0.025807350873947144 0.3099008798599243 0.10140524804592133 0.26041990518569946 0.1039636954665184 0.18543408811092377 -0.18586868047714233 -0.01856198161840439 0.21733230352401733 0.02723190188407898 0.22202524542808533 -0.26402777433395386 -0.1714080274105072 0.08664441108703613 -0.22426888346672058 0.16412267088890076 -0.039913587272167206 -0.055032774806022644 0.02637891285121441 0.06273393332958221 0.3050002455711365 -0.28534361720085144 0.4432552754878998 0.08051835000514984 0.061025090515613556 -0.3038511872291565 -0.09474347531795502 -0.09864389151334763 -0.054482199251651764 0.23262779414653778 -0.034394048154354095 0.01899840496480465 0.26620134711265564 0.3225448429584503 1.2176060676574707 1.5058088302612305 0.34211868047714233 0.5361458659172058 0.07501020282506943 -0.05953782796859741 -0.21377289295196533 -0.21387538313865662 0.06218467280268669 -0.22862963378429413 0.25518569350242615 -0.42893752455711365 0.18168187141418457 -0.011007910594344139 0.18713168799877167 0.059854619204998016 0.6978909373283386 0.20475444197654724 0.11991619318723679 -0.5013031959533691 0.194240003824234 -0.26919108629226685 -0.05144435912370682 -0.3650582432746887 0.26409485936164856 0.06424318999052048 0.1606975644826889 -0.08955295383930206 -0.037448473274707794 0.15865880250930786 -0.45481014251708984 0.6049287915229797 -0.04159827530384064 -0.4604671001434326 0.008833302184939384 -0.3072451055049896 -1.0567405223846436 0.05472757667303085 0.18914112448692322 0.09919382631778717 0.016021478921175003 -0.013022571802139282 0.2848685085773468 -0.44499021768569946 0.2804787755012512 -0.054905276745557785 0.4997687339782715 0.37527400255203247 0.427813857793808 -0.19343432784080505 -0.12277146428823471 0.4038209915161133 -0.044561296701431274 0.3302876651287079 -0.09577791392803192 -0.290048211812973 -0.1403672844171524 0.0508883111178875 0.2483053058385849 -0.2028961181640625 -0.04867255315184593 0.00264503201469779 0.10432794690132141 0.25396060943603516 -0.33523067831993103 0.10386316478252411 0.2668514847755432 0.969330906867981 0.020912300795316696 0.10387006402015686 0.18356798589229584 -0.07372388243675232 -0.16202598810195923 0.2126290500164032 0.2611905038356781 0.024661805480718613 -0.006150505505502224 0.19222760200500488 -0.14299270510673523 -0.42890509963035583 -0.23940043151378632 -0.36548349261283875 -0.3104085922241211 -0.18726801872253418 0.15285223722457886 -0.1598145216703415 0.09078802913427353 0.052926041185855865 -0.467857301235199 0.13308051228523254 0.21207818388938904 -0.16156315803527832 0.5085362792015076 -0.20825716853141785 -0.05025475472211838 0.059906747192144394 -0.18828824162483215 -0.0404713936150074 -0.2329704761505127 0.200261652469635 0.059460535645484924 0.10217887163162231 0.33781033754348755 0.029069818556308746 0.08707883208990097 -0.05445461720228195 -0.06322555989027023 -0.055840641260147095 -0.14011691510677338 0.20158502459526062 -0.11623352020978928 0.07878782600164413 -0.2090427279472351 0.24656955897808075 0.171517014503479 0.45697999000549316 -0.47710275650024414 -0.14791958034038544 -0.21306154131889343 0.09476713836193085 -0.0411994643509388 0.20380446314811707 -0.28837645053863525 -3.0738463401794434 0.3234729468822479 -0.02279999479651451 0.08216443657875061 -0.05290144309401512 0.07097974419593811 0.08507393300533295 -0.28288453817367554 0.2527795433998108 0.29666048288345337 0.17134493589401245 0.08065127581357956 0.12881121039390564 0.004926977213472128 0.004584045149385929 0.07827528566122055 0.008731449022889137 0.1590641438961029 0.11523087322711945 0.011632274836301804 0.06617872416973114 0.1361558735370636 0.1907312124967575 -0.16415002942085266 0.12652912735939026 0.22544372081756592 0.18489336967468262 0.18823465704917908 -0.00917927548289299 0.010280212387442589 -0.014325808733701706 -0.008779091760516167 -0.127123162150383 -0.22041958570480347 0.11719220876693726 0.5495508909225464 -0.4753093421459198 -0.4589371085166931 0.2016870677471161 -0.24288517236709595 0.4061514139175415 0.09261645376682281 0.2528095245361328 -1.8684237003326416 -0.14127321541309357 -0.07820069789886475 -0.11109130084514618 -0.0873102992773056 0.1299467384815216 0.17995142936706543 0.10259505361318588 0.30491137504577637 0.06667806953191757 -0.2147947996854782 -0.10141053050756454 -0.17080283164978027 -0.013154914602637291 0.14109951257705688 -0.021861305460333824 0.14886392652988434 0.08367067575454712 -0.13233782351016998 -0.17692093551158905 0.009097273461520672 0.35791632533073425 -0.11051821708679199 -0.5158185958862305 -0.14841923117637634 0.3306150436401367 -0.21608051657676697 -0.16744646430015564 0.059920571744441986 -0.12551459670066833 0.2629513740539551 -0.0051921335980296135 -0.07946033775806427 -0.26852673292160034 0.3382599949836731 -0.14667156338691711 0.2102481573820114 0.0452708825469017 0.6109338998794556 0.17684334516525269 -0.3080674409866333 -0.03461717441678047 0.1270885467529297 -0.2549482583999634 -0.10195283591747284 0.49075180292129517 -0.30309733748435974 0.09923376888036728 0.288321316242218 0.15338736772537231 0.1805056780576706 0.028672119602560997 -0.052328359335660934 0.11894305050373077 -0.05737763270735741 2.4137461185455322 0.39294421672821045 -0.11117488145828247 -0.036977652460336685 -0.033131860196590424 0.07645857334136963 -0.009908178821206093 -0.02706112526357174 -0.07700061798095703 0.041557636111974716 -0.39296311140060425 0.10414505004882812 0.08458849042654037 -0.1788872480392456 -0.006176730152219534 0.5323211550712585 -0.16869759559631348 0.17640900611877441 0.06228834390640259 0.0066834986209869385 0.09912025183439255 -0.04780558869242668 0.1677113175392151 0.054937392473220825 -0.04163431376218796 0.12892362475395203 0.12077592313289642 0.36520278453826904 0.37265631556510925 0.32671189308166504 -0.027914000675082207 0.020657818764448166 0.06959089636802673 0.2776721715927124 -0.0803348645567894 0.3269117474555969 -0.31166693568229675 9.279751777648926 -0.1668221801519394 0.051772743463516235 0.19684463739395142 0.2219836562871933 -0.020491361618041992 0.13591177761554718 -0.001177621423266828 -0.49158844351768494 -0.01900297962129116 -0.1851576268672943 0.07346033304929733 0.21818958222866058 -0.4210381507873535 0.045154035091400146 0.172917902469635 0.4452720284461975 0.4653092324733734 0.010889205150306225 0.07417330145835876 -0.17177769541740417 -0.15912370383739471 0.01954326592385769 0.4071633219718933 -0.17450706660747528 0.03859148174524307 -0.6496008038520813 0.28861188888549805 -0.09313272684812546 0.07045210152864456 0.21638409793376923 0.09785812348127365 -0.10361824929714203 -0.24774473905563354 -0.08159961551427841 -0.09085725247859955 -0.8491030931472778 -0.07776010036468506 0.2127346247434616 -0.20727388560771942 0.03646896779537201 -0.23822826147079468 0.12022262811660767 0.1404554843902588 0.18906269967556 0.37848687171936035 -0.27771633863449097 0.16158100962638855 0.2934863567352295 0.02143912762403488 0.13480345904827118 0.21879169344902039 -0.08664600551128387 -0.5604255199432373 -0.0020896694622933865 -0.18142929673194885 0.15027156472206116 -0.0367775559425354 -0.12800012528896332 -0.5997219085693359 0.1367419958114624 -0.03310459852218628 -0.07558757066726685 0.25676876306533813 0.10211354494094849 -0.25467097759246826 0.4694940745830536 0.06786257028579712 0.1364566534757614 -0.09042870998382568 -0.08439870178699493 0.12590406835079193 -0.03620351478457451 0.1853383630514145 -0.24206042289733887 0.12360499799251556 -0.3627105951309204 -0.08466079831123352 -0.310467004776001 -0.34599941968917847 0.03408312425017357 0.3842470049858093 -0.051790546625852585 0.14744940400123596 -0.25312358140945435 0.26006805896759033 0.17763057351112366 0.08613928407430649 -0.02193833515048027 -0.0021831935737282038 0.10381811857223511 -0.09415368735790253 0.07505068928003311 -0.06839442253112793 0.3172522783279419 0.11945637315511703 -0.026196865364909172 0.278053343296051 0.034859657287597656 -0.2721782922744751 -0.2761308550834656 0.29914242029190063 -0.08511098474264145 0.2265058010816574 0.052559636533260345 -0.031211208552122116 0.011076858267188072 -0.5972511172294617 -0.10751907527446747 0.07218468189239502 -0.0015196658205240965 0.35252636671066284 0.20080235600471497 0.4005560278892517 0.02327791601419449 -0.45701131224632263 -0.10954079031944275 0.06289544701576233 0.28597527742385864 0.3630436062812805 -0.14116941392421722 0.0884464904665947 0.15327590703964233 -0.3994922339916229 -0.004057447426021099 0.058439891785383224 -0.1583126038312912 0.33644169569015503 0.2656331956386566 -0.045414380729198456 -0.13798154890537262 -0.06631524860858917 0.0492960624396801 0.12054672092199326 0.034596409648656845 -0.3986639678478241 0.14529332518577576 0.07562003284692764 -0.06922417134046555 0.12401416897773743 -0.10526397824287415 0.23873397707939148 -0.22187671065330505 0.16658656299114227 -0.07815179973840714 -0.23581098020076752 -0.5750218629837036 -0.31398218870162964 0.16349491477012634 -0.09050965309143066 -0.02939564548432827 -0.12104257196187973 -0.01150068175047636 0.1471199244260788 0.08036878705024719 0.32151761651039124 0.030100882053375244 0.33085164427757263 0.12205849587917328 0.0509951189160347 -0.2051072120666504 -1.4439904689788818 -0.29791414737701416 -0.7592952251434326 -0.020708363503217697 -0.017570089548826218 -0.16717056930065155 -0.06095876544713974 0.24205413460731506 -0.21999993920326233 0.16486907005310059 0.016370583325624466 0.20672768354415894 -0.06672023236751556 0.3872992992401123 -0.1724526584148407 -0.10744159668684006 -0.5655972957611084 0.13523872196674347 0.0483710840344429
node_43	0.09322258830070496 0.042542338371276855 0.2533904016017914 0.08007960021495819 0.8268124461174011 -0.5425025820732117 0.009338933043181896 0.19727054238319397 -0.23164087533950806 -0.3293392062187195 -0.019313622266054153 0.22434529662132263 0.39656874537467957 -0.05210363119840622 0.29822665452957153 -0.6436135768890381 1.1802642345428467 0.12819340825080872 0.1729796826839447 0.2786262035369873 0.2089655101299286 -0.05954686924815178 0.2526051700115204 0.40384596586227417 -0.3631483018398285 -0.06727159023284912 0.39699751138687134 0.1437743604183197 0.09045565128326416 0.3416788578033447 -0.2204066962003708 0.2622058391571045 0.19065341353416443 0.3078119456768036 -0.199871227145195 -0.10594853013753891 -0.5431872606277466 0.18135134875774384 0.024110957980155945 0.12642791867256165 -0.2645319700241089 0.02585281804203987 0.4657948911190033 -0.3760572671890259 0.14555349946022034 0.1328977793455124 -0.008542465977370739 0.15476545691490173 0.35451072454452515 0.0760045275092125 -0.003739516017958522 -0.26573047041893005 -0.14709381759166718 0.42541560530662537 -0.10238497704267502 0.17175565659999847 -0.30194079875946045 0.04836934804916382 0.43486130237579346 0.21857309341430664 -0.005652415566146374 0.7134718894958496 0.15021133422851562 -0.13728249073028564 -0.11532364785671234 0.3218171000480652 -0.3014359772205353 -0.34217405319213867 -0.06695021688938141 0.0336163155734539 -0.06480322778224945 -0.05107317492365837 0.03866228461265564 -0.10600122064352036 -0.0014892419567331672 -0.121111199259758 0.4139134883880615 -1.4872210025787354 -0.05365028232336044 0.47239887714385986 -0.06247616931796074 -0.3005499839782715 -0.4313524663448334 -0.09385663270950317 0.058103568851947784 -0.7587450742721558 0.13328038156032562 -0.29818353056907654 0.1400187909603119 0.24106517434120178 0.2962864637374878 0.3208763599395752 -0.26855599880218506 0.057372838258743286 -0.05436716601252556 0.05620017275214195 -0.3250705599784851 -0.13592803478240967 -0.35079479217529297 0.1533776968717575 0.012201905250549316 -0.02718310058116913 -0.038075827062129974 -0.19185656309127808 0.16223378479480743 0.09732675552368164 -0.15686534345149994 -0.19879905879497528 0.3373193144798279 0.1733434647321701 0.3402300477027893 0.12841328978538513 -0.006158545613288879 -0.07239425182342529 -0.15272964537143707 0.22976601123809814 0.07571019977331161 -0.022915203124284744 -0.049918126314878464 0.056312620639801025 0.3263750374317169 -0.1662207692861557 -0.14677655696868896 0.051902227103710175 0.09743666648864746 0.48132166266441345 0.4486028552055359 -0.12414243817329407 -0.08525136113166809 -0.2605801224708557 -0.3276976943016052 -0.8353020548820496 -0.09122659265995026 0.02900199219584465 0.15842531621456146 0.05306180566549301 0.008638468571007252 -0.08072341978549957 -0.05784839019179344 0.11570408195257187 0.007614339701831341 0.1906808316707611 0.11983277648687363 0.19827046990394592 0.4469080865383148 -0.046385493129491806 0.07894536852836609 -0.24661359190940857 -0.1159481629729271 0.38495707511901855 -0.1726481318473816 0.3401505649089813 0.06557716429233551 0.1641710102558136 0.040674954652786255 0.5782656669616699 -0.20796887576580048 -0.18712985515594482 -0.19305574893951416 0.6751095056533813 -0.003925025463104248 0.07966318726539612 0.3374902606010437 0.13631775975227356 -0.049984272569417953 0.0008200556039810181 -0.07201212644577026 0.038085393607616425 -0.09528031945228577 0.7545558214187622 -0.15723685920238495 -0.1835629940032959 0.06701336801052094 -0.12356525659561157 -0.21624629199504852 0.09703421592712402 -0.03912849351763725 0.01361781544983387 0.14124086499214172 0.07188151776790619 0.07953079044818878 -0.018132619559764862 0.11528518050909042 -0.10568340122699738 -0.020187025889754295 0.12064003199338913 0.18929100036621094 -0.006136016454547644 -0.20848844945430756 0.09679582715034485 -0.3656582236289978 0.12958800792694092 0.24648484587669373 -0.5042667984962463 0.11257509887218475 0.21765410900115967 0.19143657386302948 -0.1145501583814621 0.2347596287727356 -0.08784254640340805 -0.5003589391708374 -0.2572256326675415 0.3072342276573181 0.04212113842368126 0.13984315097332 0.19223332405090332 -0.10149650275707245 -0.2809092402458191 -0.296181857585907 0.2708703875541687 -0.29445701837539673 0.7040786743164062 0.04995136708021164 -0.14094863831996918 0.29738327860832214 0.3256194591522217 -0.36403173208236694 -0.3576379418373108 -0.2790045738220215 -0.9815001487731934 0.2231881022453308 -0.12119458615779877 -0.08614613115787506 -0.7813214659690857 0.3231090307235718 0.3120328187942505 0.033745698630809784 0.0354110449552536 0.4286918342113495 0.09324057400226593 -0.04069632664322853 -0.12658369541168213 -0.688542366027832 -0.2422768771648407 0.27827346324920654 -0.034191280603408813 -0.5653477907180786 0.2546558678150177 0.03346589207649231 0.14999350905418396 -0.4177978038787842 0.062161337584257126 -0.3014404773712158 0.20810547471046448 -0.21186691522598267 -0.28200286626815796 0.10104715824127197 0.4010544419288635 -0.21558824181556702 -0.2007310390472412 0.08834780752658844 0.1397615671157837 0.064559705555439 0.18287315964698792 0.37941861152648926 -0.18856605887413025 0.14771424233913422 -0.07100281119346619 -0.26216214895248413 -0.4941893517971039 -0.08723825216293335 -0.07336939871311188 0.039502933621406555 -0.3909298777580261 -0.1958417296409607 -0.2929767668247223 -0.05765029788017273 0.00342579442076385 -0.22998473048210144 0.36066317558288574 0.17745935916900635 0.18378132581710815 0.24927054345607758 0.2033545970916748 -0.009281964972615242 0.22956709563732147 -0.04859904944896698 0.11016645282506943 -0.17950335144996643 -0.1963827908039093 0.31585830450057983 0.11961905658245087 -0.22875849902629852 -0.44210824370384216 0.28336554765701294 0.03814642131328583 0.11437749862670898 -0.3093417286872864 -0.07806598395109177 0.11827268451452255 -0.09837517142295837 0.21882061660289764 -0.06690683960914612 0.1870565116405487 -0.27852481603622437 0.18490199744701385 0.04514984413981438 0.36095893383026123 0.05184459313750267 0.2526261806488037 0.12157883495092392 0.2405937761068344 -0.08297766745090485 -0.0776996910572052 0.2180255651473999 0.03050488606095314 0.24893271923065186 -0.27958977222442627 -0.14429441094398499 0.1389913558959961 -0.16346421837806702 0.24308103322982788 0.013991676270961761 0.0012932656100019813 0.12368937581777573 -0.03630047291517258 0.2044283002614975 -0.32520613074302673 0.390491247177124 0.05077535659074783 0.0394643135368824 -0.18606209754943848 -0.20391562581062317 -0.10301434993743896 -0.17017903923988342 0.25976353883743286 0.132364422082901 0.027505768463015556 0.3314749002456665 0.3519462049007416 1.3443372249603271 1.2724837064743042 0.25556862354278564 0.35920125246047974 0.0006960838800296187 -0.030486058443784714 -0.19505202770233154 -0.24788789451122284 0.06763027608394623 -0.27201148867607117 0.14012038707733154 -0.4991576075553894 0.10636942088603973 -0.07087226957082748 0.11222564429044724 0.056092869490385056 0.7188166379928589 0.14174988865852356 0.10267341136932373 -0.5606136322021484 0.14903320372104645 -0.2812466621398926 0.009607445448637009 -0.410039484500885 0.3220251798629761 0.17725473642349243 0.09374918043613434 -0.1542762666940689 -0.008883430622518063 0.22430923581123352 -0.4455505311489105 0.5078372359275818 -0.05124244838953018 -0.5177505016326904 -0.007374738808721304 -0.3325185477733612 -1.2119139432907104 0.11312495172023773 0.1923002004623413 0.1388995349407196 -0.008930484764277935 0.028765201568603516 0.25379103422164917 -0.4203619658946991 0.22159117460250854 -0.0032122409902513027 0.4188084304332733 0.33559879660606384 0.3327734172344208 -0.2716388702392578 -0.1490268111228943 0.31976279616355896 -0.058005787432193756 0.30566805601119995 -0.07473962008953094 -0.2908281087875366 -0.14757539331912994 0.18162725865840912 0.31947121024131775 -0.1887839138507843 0.040129803121089935 -0.04386419057846069 -0.002305892761796713 0.33598577976226807 -0.42645084857940674 0.1596226990222931 0.2659950852394104 0.6620834469795227 -0.09752246737480164 0.03729815036058426 0.12991125881671906 -0.20059262216091156 -0.20150765776634216 0.3359065055847168 0.3488585650920868 0.1350058913230896 0.0016319839050993323 0.17431919276714325 -0.2646128535270691 -0.697390079498291 -0.24365250766277313 -0.4038528800010681 -0.4253964424133301 -0.13713088631629944 0.15289843082427979 -0.17868101596832275 0.23332679271697998 -0.011227872222661972 -0.5381906032562256 0.12057515233755112 0.18570756912231445 -0.15523529052734375 0.4566180109977722 -0.12974300980567932 -0.3225630521774292 0.07707566022872925 -0.20174770057201385 -0.05312086641788483 -0.1808851957321167 0.17723217606544495 0.008854935877025127 0.10396833717823029 0.3168315291404724 -0.01640436053276062 0.14734190702438354 -0.04389684647321701 -0.03339678794145584 -0.04129980877041817 -0.14564469456672668 0.2511575520038605 -0.13684144616127014 0.0819614976644516 -0.2926061153411865 0.18820105493068695 0.16919033229351044 0.4794824719429016 -0.37435516715049744 -0.17772643268108368 -0.3246825039386749 0.12602703273296356 -0.018311403691768646 0.28302666544914246 -0.3641362190246582 -3.1892917156219482 0.3612707257270813 0.07213892042636871 0.018452709540724754 0.0009476070990785956 0.08328323811292648 0.07687345892190933 -0.2629343867301941 0.21543024480342865 0.29375264048576355 0.1137201189994812 0.10879167914390564 0.01340278796851635 0.019508078694343567 -0.03363871946930885 0.05829146131873131 0.0263839028775692 0.2915228307247162 0.2021327018737793 -0.04993410035967827 0.10231133550405502 0.13959555327892303 0.16226854920387268 -0.10030841827392578 -0.05570724233984947 0.20104819536209106 0.20005957782268524 0.3019838035106659 -0.08736135065555573 0.036276645958423615 -0.08648335933685303 0.019030170515179634 -0.08762132376432419 -0.2996668219566345 0.030776185914874077 0.4865831732749939 -0.47997722029685974 -0.41488295793533325 0.22023776173591614 -0.3366261422634125 0.45532870292663574 0.08548343181610107 0.25991690158843994 -1.6518995761871338 -0.11911426484584808 -0.39566415548324585 -0.03331531584262848 -0.12772193551063538 0.05936725437641144 0.19331447780132294 0.10289936512708664 0.2622947096824646 0.02535477839410305 -0.20516322553157806 -0.09710570424795151 -0.1498093456029892 -0.04246057569980621 0.05135495588183403 0.14636360108852386 0.12335318326950073 0.12481445074081421 -0.0927874967455864 -0.20385989546775818 -0.01547009777277708 0.3678224980831146 -0.14904534816741943 -0.725397527217865 -0.12951190769672394 0.34570425748825073 -0.18957877159118652 -0.05588068813085556 0.04624614864587784 -0.020933721214532852 0.27765655517578125 -0.028440475463867188 -0.15561185777187347 -0.26567915081977844 0.31266117095947266 -0.09211412072181702 0.14473994076251984 0.03720219060778618 0.527480959892273 0.010649209842085838 -0.37539875507354736 -0.05228365212678909 0.08778252452611923 -0.25966042280197144 -0.08424531668424606 0.36527296900749207 -0.41734933853149414 -0.03916625306010246 0.22968530654907227 0.12357990443706512 0.14126065373420715 0.07438496500253677 0.03712645545601845 0.03159504383802414 -0.1269112229347229 2.8667173385620117 0.3520657420158386 -0.21831989288330078 -0.1463490128517151 -0.07817888259887695 0.10913825035095215 0.006337312515825033 -0.017145689576864243 -0.11466701328754425 0.10728226602077484 -0.07580816000699997 0.10482122004032135 -0.004655869212001562 -0.2475002259016037 0.07390990853309631 0.5262845754623413 -0.1648463010787964 0.24563293159008026 0.05616378411650658 -0.07873501628637314 0.060151971876621246 -0.037920378148555756 0.08844812959432602 -0.0043518878519535065 -0.027517883107066154 0.10829044878482819 0.11932571977376938 0.3880513608455658 0.3701874017715454 0.3348887860774994 -0.06178315728902817 0.039601754397153854 -0.09323173761367798 0.20327810943126678 -0.030908804386854172 0.5088142156600952 -0.2487303912639618 10.145306587219238 -0.015491276979446411 0.10878469794988632 0.1521487534046173 0.19613313674926758 0.064671590924263 0.15903997421264648 0.051074400544166565 -0.4545169770717621 -0.06367863714694977 -0.12807972729206085 -0.024840664118528366 0.22316031157970428 -0.32107171416282654 0.04283581301569939 0.2503916621208191 0.4887840747833252 0.4034348130226135 0.06782221794128418 0.1518256962299347 -0.2163948267698288 -0.03863832354545593 0.03635082021355629 0.28545957803726196 -0.12488530576229095 0.11682890355587006 -0.46046337485313416 0.21917006373405457 -0.034030087292194366 0.057088881731033325 0.1399407684803009 0.09826113283634186 -0.10963372886180878 -0.14444071054458618 -0.0730057805776596 -0.08122078329324722 -0.6285904049873352 0.039833396673202515 0.1267814338207245 -0.20063528418540955 0.062310270965099335 -0.2601550817489624 0.13788224756717682 0.11815312504768372 0.13554318249225616 0.4489169120788574 -0.2538107633590698 0.0953470766544342 0.3498414158821106 -0.05710531026124954 0.11192166805267334 0.19562165439128876 -0.050154250115156174 -0.560915470123291 0.026922062039375305 -0.2255086898803711 0.1958131045103073 -0.01475607417523861 -0.18591955304145813 -0.4850862920284271 0.22640833258628845 -0.1308111995458603 -0.14495211839675903 0.1999959945678711 0.32432812452316284 -0.27507883310317993 0.5051902532577515 0.15692909061908722 0.35348448157310486 -0.010156999342143536 -0.06004098802804947 0.08281193673610687 0.0441974401473999 0.0996638834476471 -0.3926292359828949 0.022593822330236435 -0.12378322333097458 -0.15251129865646362 -0.20267340540885925 -0.3450331389904022 0.00715930899605155 0.450848788022995 -0.058882009238004684 0.11583586782217026 -0.45261260867118835 0.24270276725292206 0.14963747560977936 0.10680186748504639 -0.03329155221581459 0.006673301570117474 0.10306491702795029 -0.1517919898033142 0.012486561201512814 0.0351385623216629 0.37208497524261475 0.08407794684171677 -0.025547845289111137 0.3803304433822632 -0.0067564500495791435 -0.3368837833404541 -0.30331870913505554 0.3079646825790405 -0.17524173855781555 0.26992058753967285 -0.015877127647399902 0.05150156468153 0.28810054063796997 -0.4881325960159302 -0.18991361558437347 0.054437991231679916 0.041650306433439255 0.32329845428466797 0.015502559952437878 0.44442903995513916 0.04703700169920921 -0.47502821683883667 -0.1697770059108734 0.024898668751120567 0.2707655131816864 0.38335615396499634 -0.16679859161376953 0.1083621084690094 0.14576193690299988 -0.42066463828086853 -0.05369427055120468 0.2152966558933258 -0.055919207632541656 0.26713094115257263 0.30096668004989624 -0.07655192911624908 -0.12984643876552582 -0.045498382300138474 0.017832189798355103 0.18674103915691376 -0.07330599427223206 -0.32053467631340027 0.17600415647029877 -0.010704340413212776 -0.008201959542930126 0.20754584670066833 -0.017827600240707397 0.26294419169425964 -0.17439711093902588 -0.16304601728916168 -0.024550786241889 -0.3514033257961273 -0.622607946395874 -0.06224659085273743 0.13029612600803375 -0.15914326906204224 0.03237917646765709 -0.08484350889921188 -0.05938790738582611 0.02488730102777481 -0.0684063583612442 0.28556185960769653 0.0639454647898674 0.25317537784576416 0.10690351575613022 0.06297477334737778 -0.10404815524816513 -1.467247724533081 -0.5102214813232422 -0.812279224395752 0.1434968113899231 -0.048238933086395264 -0.11287140846252441 -0.0838940292596817 0.3831976056098938 -0.15421171486377716 0.11250325292348862 -0.02363574132323265 0.1375948041677475 -0.048227693885564804 0.34441372752189636 -0.26931652426719666 -0.11451064050197601 -0.5874967575073242 0.15714579820632935 -0.030925150960683823
node_31	0.06661007553339005 0.02949444204568863 0.24206018447875977 0.12880948185920715 0.8394052386283875 -0.5659633874893188 -0.015795458108186722 0.19932524859905243 -0.1164388507604599 -0.3431415259838104 -0.042027443647384644 0.31758594512939453 0.34865614771842957 -0.20573529601097107 0.28468218445777893 -0.5389249324798584 0.9344107508659363 0.1283634454011917 0.19666433334350586 0.22377556562423706 0.1571633368730545 -0.03705328330397606 0.2175830900669098 0.40782737731933594 -0.4348386526107788 -0.0272612776607275 0.42015767097473145 0.11447791755199432 0.14069221913814545 0.30526360869407654 -0.2586158514022827 0.25783154368400574 0.12003584951162338 0.27198442816734314 -0.1480281949043274 -0.12300163507461548 -0.4058958888053894 0.14217357337474823 0.17994509637355804 -0.00546895619481802 -0.2440188229084015 -0.09794946014881134 0.3987966775894165 -0.3640282154083252 0.18181848526000977 0.1585627794265747 0.047021087259054184 0.27407050132751465 0.35041701793670654 0.020963121205568314 -0.02131897211074829 -0.21892201900482178 -0.16901454329490662 0.42990514636039734 -0.1535811424255371 0.11257012188434601 -0.29289624094963074 -0.0038278899155557156 0.35771483182907104 0.20706748962402344 -0.006536840461194515 0.35622793436050415 0.11800643801689148 -0.14716912806034088 -0.09298925846815109 0.2627267837524414 -0.2535746693611145 -0.30716902017593384 -0.027606144547462463 0.10571703314781189 -0.045497454702854156 -0.10202883183956146 0.0879034623503685 -0.04672059044241905 0.0480535589158535 -0.050039514899253845 0.42152780294418335 -1.6190791130065918 0.0315503254532814 0.3886575400829315 -0.07419795542955399 -0.3616633117198944 0.08824249356985092 0.04677869379520416 0.0003251197631470859 -0.7209537029266357 0.16612569987773895 -0.25763171911239624 0.16493898630142212 0.31061407923698425 0.3508186340332031 0.26149576902389526 -0.30211353302001953 0.005632101558148861 -0.06311073154211044 0.16033966839313507 -0.22910699248313904 -0.30513936281204224 -0.34213560819625854 0.15171870589256287 -0.10254634916782379 -0.05268799886107445 0.007859919220209122 -0.17649106681346893 0.241169735789299 0.14422158896923065 -0.22335205972194672 -0.19315427541732788 0.31038546562194824 0.23396384716033936 0.31381088495254517 0.07787495851516724 0.02904348634183407 -0.07033833861351013 -0.12107183039188385 0.2626788318157196 0.07170940935611725 -0.02941427007317543 -0.07600145041942596 0.03167007863521576 0.29557621479034424 -0.16292154788970947 -0.11006759852170944 0.019069232046604156 0.23522290587425232 0.3872084617614746 0.46533697843551636 -0.07409001141786575 -0.05313488841056824 -0.2781018316745758 -0.27604615688323975 -0.6731562614440918 -0.08585291355848312 -0.07885925471782684 0.11739341914653778 0.09836672246456146 -0.024199388921260834 -0.07058069109916687 -0.019512739032506943 0.06113472580909729 -0.0796908289194107 0.1333083212375641 0.11818945407867432 0.1586834192276001 0.5488730072975159 -0.10516104102134705 0.1331670582294464 -0.20725786685943604 -0.13422071933746338 0.45577776432037354 -0.23736664652824402 0.3597230911254883 0.08446817100048065 0.20623070001602173 0.03399723395705223 0.5682770013809204 -0.2181161344051361 -0.241361603140831 -0.21826061606407166 0.6273590326309204 0.026128916069865227 0.09226876497268677 0.3513682782649994 0.13846194744110107 0.002129013417288661 0.010523637756705284 -0.10896998643875122 -0.06056179851293564 0.009166589006781578 0.725913405418396 -0.270763635635376 -0.15879254043102264 0.11380511522293091 -0.10983159393072128 -0.20869660377502441 0.0763314813375473 -0.08164089173078537 -0.09586035460233688 0.19399186968803406 0.10212206840515137 -0.011607125401496887 0.04348660260438919 0.10306670516729355 -0.05636028200387955 0.0110319247469306 0.24104563891887665 0.10093309730291367 -0.12352126836776733 -0.2024347484111786 0.03953252360224724 -0.36422693729400635 0.16013583540916443 0.21852563321590424 -0.43760013580322266 0.09905903041362762 0.1647590696811676 0.21991311013698578 -0.05059824138879776 0.16862420737743378 -0.10491840541362762 -0.4947701096534729 -0.302888959646225 0.23972950875759125 -0.006143597420305014 0.08985370397567749 0.1778355836868286 -0.1176050454378128 -0.2768757939338684 -0.3664401173591614 0.3593093752861023 -0.27862411737442017 0.7460646629333496 0.023285692557692528 -0.06108498573303223 0.15198823809623718 0.2408115267753601 -0.28942060470581055 -0.015863394364714622 -0.23268559575080872 -0.9025396704673767 0.22794169187545776 -0.07371489703655243 -0.0617743581533432 -0.7404899597167969 0.3044605553150177 0.2386542558670044 0.08347216248512268 -0.029697947204113007 0.37414681911468506 0.0714322105050087 -0.08038663864135742 -0.08509816229343414 -0.7103368639945984 -0.30260273814201355 0.20511656999588013 0.05931134149432182 -0.5377969145774841 0.14837750792503357 0.00047273802920244634 0.18587860465049744 -0.8740919828414917 0.07450081408023834 -0.3173331618309021 0.165479838848114 -0.2365419566631317 -0.3182072341442108 0.12855032086372375 0.277302086353302 -0.1941799521446228 -0.2071053683757782 0.09643061459064484 0.04500887542963028 0.05708951875567436 0.2411138266324997 0.23073139786720276 -0.2226659059524536 0.16993361711502075 -0.04751810058951378 -0.27606117725372314 -0.49737972021102905 -0.08129002898931503 -0.060106806457042694 0.12645208835601807 -0.4294150769710541 -0.041050370782613754 -0.24212859570980072 0.012848814949393272 0.00015890102076809853 -0.20240287482738495 0.29670050740242004 0.12107383459806442 0.1900571882724762 0.29215866327285767 0.18833880126476288 0.011701589450240135 0.1884281039237976 -0.11674937605857849 0.04267888888716698 -0.1437615603208542 -0.20214848220348358 0.2887941598892212 -0.013546016067266464 -0.24699780344963074 -0.48908719420433044 0.27065348625183105 0.05588347837328911 0.18275701999664307 -0.32539045810699463 -0.006553015671670437 0.10398750007152557 -0.15482553839683533 0.2286793440580368 0.027802787721157074 0.2054971158504486 -0.21605180203914642 0.16001427173614502 0.007976451888680458 0.267459511756897 0.024209529161453247 0.3146935701370239 0.10045819729566574 0.26733797788619995 -0.12376807630062103 -0.10711972415447235 0.17865395545959473 -0.06115201115608215 0.10535649955272675 -0.3016063868999481 -0.17608779668807983 0.12096457183361053 -0.22059595584869385 0.2737587094306946 0.020064394921064377 -0.011206105351448059 0.05673770233988762 0.05385217070579529 0.25600722432136536 -0.3039126396179199 0.4104563593864441 0.1081056147813797 -0.013955121859908104 -0.16393807530403137 -0.19656795263290405 -0.06374818086624146 -0.19692587852478027 0.2767093777656555 0.07605284452438354 0.043007977306842804 0.32095643877983093 0.39610588550567627 1.7271380424499512 1.1141753196716309 0.3063030242919922 0.5029181241989136 0.0032111480832099915 -0.04460030794143677 -0.18062399327754974 -0.21531037986278534 0.00536759477108717 -0.2086382508277893 0.19197051227092743 -0.45457395911216736 0.12953786551952362 -0.007652069441974163 0.12260842323303223 0.007409184705466032 0.694628119468689 0.1217046007514 0.11872528493404388 -0.4452962577342987 0.22326260805130005 -0.31351739168167114 -0.11332141607999802 -0.41142305731773376 0.2699076533317566 0.18864965438842773 0.05070596933364868 -0.1293005347251892 0.0036926865577697754 0.10842767357826233 -0.3665716350078583 0.588485062122345 -0.06799548119306564 -0.526883602142334 -0.022392667829990387 -0.3577147424221039 -1.0844917297363281 0.1340855062007904 0.16683706641197205 0.11530347913503647 -0.0003157829341944307 0.024486666545271873 0.2486986517906189 -0.3924673795700073 0.26872116327285767 0.020795634016394615 0.41893383860588074 0.36137598752975464 0.3849186301231384 -0.31750208139419556 -0.20448845624923706 0.3904154300689697 -0.00746835395693779 0.2669881284236908 -0.06472839415073395 -0.2836197316646576 -0.1707116961479187 0.2012631744146347 0.343192458152771 -0.21476130187511444 -0.023959096521139145 -0.05858974903821945 0.009758259169757366 0.38319727778434753 -0.30784153938293457 0.13276159763336182 0.29389628767967224 0.8957927227020264 -0.06533263623714447 0.025671016424894333 0.17047208547592163 -0.10314984619617462 -0.27942395210266113 0.3072877526283264 0.31322503089904785 -0.011829197406768799 0.04893841966986656 0.1698542833328247 -0.1791626662015915 -0.47014355659484863 -0.22425591945648193 -0.3096561133861542 -0.36562225222587585 -0.17807231843471527 0.09843206405639648 -0.08095639944076538 0.28934580087661743 0.12556269764900208 -0.4718553423881531 0.12071424722671509 0.12392070889472961 -0.17497000098228455 0.4716939330101013 -0.16176877915859222 -0.2734321355819702 0.032371990382671356 -0.1364326775074005 -0.03000357374548912 -0.23377612233161926 0.1890448033809662 0.0416998565196991 0.0345647968351841 0.3022499084472656 0.020789166912436485 0.10679130256175995 -0.0707704946398735 0.006496429443359375 -0.09473854303359985 -0.13462936878204346 0.2190861701965332 -0.14447811245918274 0.1349848508834839 -0.3330448865890503 0.20341014862060547 0.1204969584941864 0.4358759820461273 -0.36539268493652344 -0.17698387801647186 -0.2640456557273865 0.07387816160917282 0.0030045858584344387 0.2993268370628357 -0.3719792366027832 -3.2808895111083984 0.2760394811630249 0.009597870521247387 0.04934170842170715 0.020876219496130943 0.07478593289852142 0.07650913298130035 -0.2428526133298874 0.3168101906776428 0.2932264506816864 0.13916584849357605 0.03316899389028549 0.028779301792383194 -0.014520829543471336 0.01415463536977768 0.07621191442012787 -0.052488237619400024 0.221511110663414 0.1623622477054596 0.006812734063714743 0.043489500880241394 0.16578218340873718 0.18890559673309326 -0.03332684189081192 -0.004187889397144318 0.09601714462041855 0.17988112568855286 0.2277708649635315 -0.09946012496948242 0.009644141420722008 -0.08821773529052734 0.0044065602123737335 -0.1386035680770874 -0.29730895161628723 0.03462095186114311 0.515781044960022 -0.45235905051231384 -0.38880085945129395 0.231072336435318 -0.3049325942993164 0.5014541149139404 0.09314049780368805 0.2068418711423874 -1.8828723430633545 -0.07147389650344849 -0.024684801697731018 -0.10611315816640854 -0.06170269474387169 0.09264835715293884 0.23156052827835083 0.08369988203048706 0.2987911105155945 0.11082315444946289 -0.1549178957939148 -0.07510988414287567 -0.14844243228435516 -0.027723804116249084 0.07549451291561127 0.06353863328695297 0.17468224465847015 0.06455410271883011 -0.09410396218299866 -0.24531982839107513 -0.05608504265546799 0.3369036614894867 -0.13276009261608124 -0.533613920211792 -0.16345450282096863 0.3559182584285736 -0.15665015578269958 -0.13537989556789398 0.034140728414058685 -0.058905284851789474 0.23273715376853943 -0.0009271527524106205 -0.05891688913106918 -0.16754190623760223 0.3003069758415222 -0.13913559913635254 0.137701615691185 -0.04030907154083252 0.6573470830917358 0.018138838931918144 -0.35178691148757935 -0.10460004210472107 0.19335269927978516 -0.270685076713562 0.03215031325817108 0.4192924201488495 -0.36427041888237 -0.04440268501639366 0.2583404779434204 0.21654455363750458 0.16080690920352936 0.06051292270421982 -0.0025673459749668837 0.11851505935192108 -0.11465568840503693 2.5618724822998047 0.41373366117477417 -0.21032719314098358 -0.08161023259162903 -0.043827544897794724 0.013145536184310913 -0.027325492352247238 -0.04827439785003662 -0.22239604592323303 0.09026168286800385 -0.1673787534236908 0.08456628769636154 0.03118867054581642 -0.29245778918266296 0.05011109262704849 0.5321004986763 -0.18250398337841034 0.21663224697113037 -0.007098113652318716 -0.11914782226085663 0.017066698521375656 -0.1251414716243744 0.31902045011520386 0.025126008316874504 -0.06634670495986938 0.1348409205675125 0.02995096705853939 0.3857753276824951 0.36450454592704773 0.3165976405143738 -0.056683775037527084 -0.028912803158164024 -0.04087921231985092 0.2910386025905609 -0.04703206568956375 0.417794793844223 -0.18160369992256165 9.869220733642578 -0.006906738039106131 0.07933317869901657 0.20556245744228363 0.1534782350063324 0.012707020156085491 0.2368280589580536 -0.024105936288833618 -0.4155811667442322 -0.04040573537349701 -0.18733707070350647 0.03321070596575737 0.25596022605895996 -0.2917783558368683 0.05660893768072128 0.23105287551879883 0.5040590763092041 0.4214766025543213 0.016964491456747055 0.11199317872524261 -0.16503210365772247 -0.14816460013389587 0.007375764660537243 0.41529151797294617 -0.11994805186986923 0.12309204041957855 -0.5084018707275391 0.23139040172100067 -0.035896483808755875 0.0633879229426384 0.16548462212085724 0.1778218001127243 -0.07115872204303741 -0.1746789515018463 -0.049198370426893234 -0.13867953419685364 -0.921419620513916 0.034003015607595444 0.20504480600357056 -0.1345020979642868 0.03901902958750725 -0.2701188027858734 0.11492930352687836 0.15328967571258545 0.13951747119426727 0.39208993315696716 -0.2971878945827484 0.11809267103672028 0.23534220457077026 -0.015991728752851486 0.10021114349365234 0.12902626395225525 -0.11269307136535645 -0.5215792655944824 -0.023583194240927696 -0.2841508686542511 0.1546458601951599 0.08018721640110016 -0.16240501403808594 -0.4412399232387543 0.26493602991104126 -0.17921337485313416 -0.13030526041984558 0.1600811630487442 0.27342766523361206 -0.26901066303253174 0.4387529790401459 0.16278782486915588 0.20376275479793549 -0.02256491407752037 -0.07952648401260376 0.10294636338949203 0.04132998734712601 0.16218344867229462 -0.4413098692893982 0.15333019196987152 -0.39593765139579773 -0.13825316727161407 -0.2712056040763855 -0.33362311124801636 0.007644142955541611 0.4437626302242279 -0.05442628264427185 0.11384501308202744 -0.4865194261074066 0.26318681240081787 0.19616788625717163 0.09673354029655457 -0.051108550280332565 0.0061072492972016335 0.04914480447769165 -0.14461717009544373 -0.0476488433778286 0.028409350663423538 0.3663291931152344 0.0657440796494484 -0.049395542591810226 0.33776387572288513 0.10436056554317474 -0.31355518102645874 -0.309052050113678 0.3399147689342499 -0.09922698140144348 0.3128088712692261 0.027891574427485466 0.010936994105577469 0.13889417052268982 -0.5309078097343445 -0.1383468061685562 0.06851315498352051 0.036479704082012177 0.4710828959941864 -0.016980331391096115 0.4292600154876709 0.03275081142783165 -0.4628068804740906 -0.127134770154953 0.06504927575588226 0.16140228509902954 0.416172593832016 -0.1659587174654007 0.14433541893959045 0.16919797658920288 -0.4200736880302429 -0.06488752365112305 0.22565416991710663 -0.11938907951116562 0.34076809883117676 0.2650918662548065 -0.13215738534927368 -0.1845635175704956 -0.028891174122691154 0.0731835812330246 0.16767439246177673 -0.06351368129253387 -0.28139179944992065 0.22510063648223877 0.01744627021253109 0.025626419112086296 0.2211357206106186 -0.06726281344890594 0.23583054542541504 -0.21845385432243347 -0.06263488531112671 0.048555053770542145 -0.25366687774658203 -0.5676150918006897 -0.18693241477012634 0.1051681637763977 -0.1817573755979538 0.01965082809329033 -0.09550251066684723 -0.004488354083150625 0.0709332823753357 -0.12168671935796738 0.33316725492477417 0.04964865371584892 0.4572445750236511 0.09336712211370468 0.020855002105236053 -0.27757352590560913 -1.261118769645691 -0.34476232528686523 -0.5778787136077881 -0.020118575543165207 -0.008173620328307152 -0.19225087761878967 -0.06370950490236282 0.3416767716407776 -0.22015735507011414 0.10514841973781586 -0.05287904664874077 0.13317234814167023 -0.050183601677417755 0.2554982900619507 -0.19313675165176392 -0.05867614597082138 -0.5929938554763794 0.1801847219467163 0.045942600816488266
