node_20	0.042791664600372314 0.031726762652397156 0.19888430833816528 0.2422981709241867 0.4228394031524658 -0.4758034348487854 8.03669354354497e-06 0.1298397183418274 -0.06955203413963318 -0.30260762572288513 -0.14071568846702576 0.6049414873123169 0.33385905623435974 -0.324594110250473 0.3789990544319153 -0.11532049626111984 0.5835144519805908 -0.08510655164718628 -0.05423692613840103 0.02509089559316635 -0.07755448669195175 -0.026313092559576035 0.012564225122332573 0.14975807070732117 -0.5924195647239685 -0.03411056473851204 0.4039957523345947 -0.09649034589529037 0.0380961112678051 -0.06409402191638947 -0.16093499958515167 0.27244821190834045 0.041680268943309784 0.18208983540534973 -0.18175074458122253 0.12207901477813721 -0.3023865222930908 0.0603075735270977 0.5042510628700256 0.15401217341423035 -0.48339080810546875 -0.06975201517343521 0.1728535294532776 -0.013746753334999084 0.1346617490053177 0.007111738435924053 -0.07035378366708755 -0.10363499820232391 0.11321895569562912 -0.037506673485040665 0.14488527178764343 -0.23656581342220306 -0.16391831636428833 0.28661733865737915 -0.1442195177078247 0.016625970602035522 -0.3353610038757324 -0.012342493049800396 0.22555971145629883 -0.151733860373497 0.12128008902072906 0.6202784776687622 0.3086603283882141 -0.3153398633003235 0.08686625957489014 0.08381174504756927 -0.07720702141523361 -0.4077730178833008 0.15384037792682648 0.03868672996759415 -0.001647143391892314 -0.1065492182970047 0.09749704599380493 -0.018866589292883873 -0.037170421332120895 0.18834292888641357 0.29032808542251587 -1.976809024810791 0.16324935853481293 0.6323487758636475 0.15189915895462036 -0.23020386695861816 1.1380069255828857 -0.14614945650100708 -0.0058423904702067375 -0.7087897062301636 0.34206971526145935 -0.11112689971923828 0.13549065589904785 0.26708880066871643 0.26880335807800293 0.28132787346839905 -0.30275198817253113 0.19093087315559387 -0.13215114176273346 0.36945730447769165 -0.23122577369213104 0.041380107402801514 -0.33998793363571167 -0.027879126369953156 -0.14244665205478668 -0.07038514316082001 0.140953928232193 -0.15642616152763367 0.22519700229167938 -0.06110939010977745 -0.12448450177907944 -0.2755228579044342 0.22913233935832977 0.3913724422454834 0.020594825968146324 0.17976513504981995 0.036284007132053375 0.08773284405469894 -0.017221584916114807 0.21859674155712128 0.05508539080619812 0.07095246762037277 0.3722327649593353 0.38787442445755005 0.11648799479007721 -0.1118706464767456 0.029769813641905785 -0.3046410381793976 0.059751205146312714 0.5345754623413086 0.39133962988853455 -0.018123524263501167 -0.12165283411741257 -0.2987106740474701 -0.2938934564590454 -1.115946650505066 -0.09183932840824127 0.04262296482920647 0.030250877141952515 0.2583253085613251 0.13820688426494598 -0.10342760384082794 0.08014819025993347 0.12132647633552551 -0.058530546724796295 0.028809180483222008 0.14320454001426697 0.2777647376060486 0.734405517578125 -0.1690090298652649 -0.012466607615351677 -0.15106043219566345 0.0996289849281311 0.12720482051372528 0.027685340493917465 0.4576098620891571 -0.0854615792632103 0.3354773223400116 -0.19499890506267548 0.8331142663955688 -0.08005449175834656 0.052431803196668625 -0.11203216016292572 0.529241681098938 0.16962653398513794 -0.013797367922961712 0.6246224045753479 0.18858173489570618 0.04265041649341583 0.06035739183425903 -0.16587036848068237 -0.1574297547340393 -0.09355619549751282 0.6812076568603516 -0.1728176325559616 -0.035451240837574005 -0.18046647310256958 -0.18854889273643494 -0.09929785132408142 0.010559448972344398 -0.22422119975090027 -0.16319970786571503 0.10792874544858932 0.18649797141551971 0.16746923327445984 -0.04103667289018631 0.16238950192928314 -0.294109582901001 -0.1237635463476181 0.44030046463012695 0.21506409347057343 -0.1639864146709442 -0.3031914234161377 0.012999597005546093 -0.3026207387447357 0.08706945180892944 0.23408567905426025 -0.23244720697402954 0.04715050011873245 0.40825939178466797 -0.04721672460436821 0.013220052234828472 0.23165735602378845 -0.040974296629428864 -0.2814273238182068 -0.14771398901939392 0.5527772903442383 0.015329505316913128 0.02453034184873104 0.03848528861999512 -0.40328070521354675 -0.2328454703092575 -0.2647187113761902 0.3033030033111572 -0.18702898919582367 0.8758344650268555 -0.06982250511646271 -0.15547232329845428 0.3938673734664917 0.01221830677241087 -0.14230065047740936 -0.3206254243850708 -0.23421266674995422 -1.6806037425994873 0.3689810633659363 -0.05786634609103203 -0.1691824048757553 -0.5149970650672913 0.24887357652187347 0.20958828926086426 0.2286708652973175 0.09180635213851929 0.20263954997062683 -0.022756680846214294 0.13592813909053802 0.002040088176727295 -0.5341209173202515 -0.05248868092894554 0.2545393705368042 0.31244245171546936 -0.3352895975112915 0.22820177674293518 0.090913325548172 0.20868444442749023 -0.34327560663223267 0.21421405673027039 -0.11034801602363586 0.19093960523605347 -0.07402515411376953 -0.18979749083518982 0.12925994396209717 -0.23468175530433655 -0.3630480170249939 -0.025903863832354546 -0.24259668588638306 0.006311181932687759 0.16128267347812653 0.10453642904758453 0.29846760630607605 -0.22008904814720154 0.09378602355718613 -0.0016456234734505415 -0.2651306092739105 -0.20890705287456512 0.0015279054641723633 0.039398130029439926 0.2131883203983307 -0.3117367625236511 -0.197965607047081 -0.17434173822402954 -0.06974020600318909 0.06617054343223572 -0.353301465511322 -0.00162593275308609 0.19377854466438293 0.18188367784023285 0.05826951563358307 0.25676456093788147 -0.022433293983340263 0.188404381275177 -0.15482191741466522 0.1352689564228058 -0.16888919472694397 -0.04815240949392319 0.24556133151054382 0.007975995540618896 -0.20271217823028564 -0.4919634759426117 0.10628678649663925 -0.1592530459165573 -0.0019206032156944275 -0.3337622880935669 0.09664885699748993 -0.002315054414793849 -0.09590079635381699 0.15718507766723633 -0.4817659258842468 0.17904973030090332 -0.28000786900520325 0.21344268321990967 -0.00649976497516036 0.29555368423461914 0.22580480575561523 0.14239858090877533 -0.053731173276901245 0.22367040812969208 0.029495349153876305 -0.15855181217193604 0.17106208205223083 -0.039058417081832886 0.11426027119159698 -0.057130128145217896 0.07890152931213379 0.34602493047714233 -0.212697833776474 0.20161329209804535 -0.08456104248762131 0.2307463139295578 0.12462910264730453 0.30939483642578125 0.2691124677658081 -0.3053247928619385 0.41998061537742615 0.054028384387493134 -0.07347412407398224 -0.13824328780174255 -0.3364409804344177 0.028985124081373215 0.026551758870482445 0.19945412874221802 -0.2098359912633896 -0.09235632419586182 0.40888214111328125 0.1799812912940979 1.2542898654937744 0.7622326612472534 0.2727266550064087 0.6258485317230225 0.23544304072856903 0.11162185668945312 0.0034217610955238342 -0.10750343650579453 0.08621373772621155 -0.04269563406705856 -0.06659601628780365 -0.3847586512565613 0.19923309981822968 0.055280834436416626 0.2700621485710144 -0.0243364404886961 0.4688384234905243 -0.08452199399471283 0.3199059069156647 -0.2664249539375305 0.2959079146385193 -0.22247442603111267 0.1030321940779686 -0.5542940497398376 0.2869126796722412 0.23287853598594666 0.10113279521465302 -0.263319194316864 0.004862852394580841 0.4387873113155365 -0.5500117540359497 0.8929588198661804 -0.08637484163045883 -0.34727805852890015 -0.23523378372192383 -0.47145771980285645 -1.1271681785583496 0.009048446081578732 0.14303332567214966 0.035872042179107666 -0.043022047728300095 0.0431259423494339 0.14247924089431763 -0.0438137911260128 0.024830443784594536 0.04560541734099388 0.7116712331771851 0.31667953729629517 0.0785820409655571 -0.25926345586776733 -0.21643149852752686 0.3853476643562317 -0.00908534973859787 0.29331570863723755 -0.10834460705518723 -0.07174545526504517 -0.15876394510269165 -0.032869286835193634 0.021914169192314148 0.028521277010440826 0.1782197654247284 -0.009988417848944664 0.3946908116340637 0.39847561717033386 -0.0004901948268525302 0.22444868087768555 0.1059725433588028 0.30089205503463745 -0.12072502076625824 0.2117690145969391 0.14289072155952454 -0.07362522929906845 -0.33776432275772095 0.4021688401699066 0.4484268128871918 -0.130549356341362 -0.14854839444160461 0.088752381503582 -0.15876200795173645 -0.5140129327774048 -0.23942439258098602 -0.14633864164352417 -0.3301975727081299 -0.19392012059688568 -0.07121312618255615 -0.00220639631152153 0.16004371643066406 -0.49629244208335876 -0.5956704020500183 0.2802109122276306 0.22797226905822754 -0.09842817485332489 0.31149524450302124 0.019830793142318726 0.10869193077087402 0.04248568043112755 -0.2152787297964096 -0.19180426001548767 -0.6714767217636108 -0.11021067947149277 0.1015765517950058 0.025088295340538025 0.4897836446762085 0.050759539008140564 0.047830816358327866 -0.10999643802642822 -0.02120443992316723 -0.028521155938506126 -0.023007359355688095 0.16604050993919373 -0.18277516961097717 -0.014631902799010277 -0.11810358613729477 0.1570499688386917 0.015328317880630493 0.27845147252082825 -0.2683008313179016 -0.12198309600353241 -0.16522663831710815 0.24516481161117554 -0.13847652077674866 0.25232094526290894 -0.5627413988113403 -2.956684112548828 0.43483400344848633 -0.009851972572505474 0.07654942572116852 0.15494373440742493 0.07954442501068115 0.17206299304962158 -0.19273972511291504 -0.00541588943451643 0.22277867794036865 0.25272029638290405 0.02163226529955864 0.03322194516658783 -0.03508687764406204 -0.007516845129430294 -0.051443904638290405 -0.02576254867017269 0.2641407251358032 0.47568950057029724 0.11561413109302521 0.06485475599765778 0.16945455968379974 0.1916799396276474 -0.23227322101593018 -0.08472919464111328 0.13178235292434692 0.09791162610054016 0.03356113284826279 0.09349814057350159 -0.21584682166576385 -0.11496266722679138 -0.012078074738383293 -0.17870059609413147 -0.44746097922325134 -0.12582382559776306 0.45783135294914246 -0.3364664316177368 -0.24403968453407288 0.004881223198026419 -0.20736847817897797 0.7038588523864746 0.08946546912193298 0.09895241260528564 -1.30692458152771 -0.1619884967803955 -0.6764528155326843 -0.022457305341959 0.19345736503601074 0.08632045984268188 0.19584140181541443 -0.000978047726675868 0.1734098643064499 0.029774576425552368 -0.14907024800777435 -0.04337003827095032 -0.21144424378871918 -0.13065212965011597 -0.09441281855106354 0.09222076833248138 0.01728486642241478 0.10711409896612167 0.05091746151447296 -0.21475371718406677 0.0913715586066246 0.09781678766012192 -0.31172266602516174 -0.6863798499107361 -0.20805665850639343 0.2563275694847107 -0.24907247722148895 0.15814433991909027 0.0794074758887291 -0.08346188068389893 0.21211878955364227 0.09856575727462769 -0.02191079780459404 -0.2896537482738495 0.1714984029531479 -0.2394513487815857 0.30424124002456665 0.10689058899879456 0.5752509832382202 0.043087419122457504 -0.017393458634614944 0.028427407145500183 0.3792901933193207 -0.3302461802959442 -0.1881297528743744 0.5180079340934753 -0.41706687211990356 -0.04136991500854492 0.3039190471172333 0.0865161269903183 0.04439359903335571 0.011724373325705528 0.08344893902540207 0.2680944502353668 -0.09625395387411118 3.5456552505493164 0.222504124045372 -0.08465823531150818 -0.29205450415611267 0.1984630823135376 0.09268708527088165 -0.07036593556404114 -0.15017510950565338 -0.28613191843032837 0.021883336827158928 -0.12989218533039093 -0.030836347490549088 -0.0010956823825836182 -0.5972083210945129 0.2520630955696106 0.4324720501899719 -0.17223119735717773 0.18909606337547302 0.07650364935398102 -0.14641624689102173 0.25269433856010437 -0.07234731316566467 0.523155152797699 -0.11183050274848938 -0.04846860095858574 0.12036861479282379 -0.2172677218914032 0.23911331593990326 0.2992740869522095 0.26767203211784363 -0.04793640226125717 0.06131105124950409 -0.30428507924079895 0.34870749711990356 -0.04915196821093559 0.2566336989402771 -0.246477410197258 7.54306697845459 -0.2694166898727417 -0.06770925968885422 0.22946304082870483 0.22672507166862488 0.18399326503276825 0.014783571474254131 0.22769460082054138 -0.23041626811027527 0.11353915184736252 -0.21007470786571503 -0.16442537307739258 0.3024654984474182 -0.3921460509300232 0.05035873502492905 0.30229687690734863 0.4895676374435425 0.46484869718551636 -0.06089065223932266 -0.05462081357836723 0.030136264860630035 -0.3119524121284485 0.1605377495288849 0.6237410306930542 -0.33673685789108276 0.16295194625854492 -0.5661787986755371 0.14086009562015533 -0.08460597693920135 0.10057352483272552 0.3150620460510254 0.057160258293151855 0.1108836755156517 -0.04984341561794281 0.09043459594249725 0.23348137736320496 -1.3260705471038818 -0.04384680837392807 0.1351701319217682 0.1892593950033188 -0.19558130204677582 -0.29822808504104614 -0.09115801751613617 0.04140979051589966 0.27250349521636963 0.08703868091106415 -0.5719320774078369 0.29289376735687256 0.36483097076416016 -0.026481490582227707 0.0734764039516449 0.21409915387630463 0.03636212274432182 -0.2927769422531128 0.023905588313937187 -0.4201521873474121 0.18778584897518158 0.12814581394195557 -0.1452057957649231 -0.5296128988265991 0.007598706521093845 0.1576036512851715 -0.20200476050376892 0.3492289185523987 0.5605341196060181 -0.08386550843715668 0.30408307909965515 -0.29933401942253113 0.3617825508117676 0.0010022985516116023 -0.12466053664684296 0.08834641426801682 -0.06646037846803665 0.0050802635960280895 -0.33173996210098267 -0.07662291824817657 -0.3030083179473877 -0.11290870606899261 -0.2305830717086792 -0.056778959929943085 0.022837743163108826 0.3210495114326477 0.062229033559560776 0.01657623052597046 -0.5246383547782898 0.04450320452451706 0.21556499600410461 0.2361382246017456 -0.13120736181735992 -0.017239946871995926 0.02988049015402794 -0.1308199167251587 -0.060944586992263794 -0.4524718225002289 0.3158382177352905 0.11519980430603027 -0.19282150268554688 0.14075502753257751 0.2433585375547409 -0.10983701795339584 -0.21515004336833954 0.36098480224609375 -0.2917301654815674 0.27919498085975647 0.0927852913737297 0.2894067168235779 0.09308778494596481 -0.428963840007782 -0.129599466919899 -0.03755269944667816 0.09679277241230011 0.4716857373714447 0.17216810584068298 0.15641938149929047 0.043492935597896576 -0.4550846815109253 0.017256975173950195 0.04606557637453079 0.20037326216697693 0.6502034664154053 -0.26940345764160156 0.024347912520170212 0.19828426837921143 -0.3226989209651947 -0.03402514010667801 -0.08309633284807205 -0.020308196544647217 0.43846654891967773 0.2201591432094574 -0.06248539313673973 -0.040215712040662766 -0.2125900238752365 0.3131667673587799 0.15115347504615784 0.16982817649841309 -0.4039556682109833 0.15637418627738953 -0.15669110417366028 -0.17473511397838593 0.2175346314907074 -0.02539004012942314 0.09508441388607025 -0.07238617539405823 -0.42326027154922485 -0.12679073214530945 -0.1998048722743988 -0.42651233077049255 -0.12652592360973358 0.19339093565940857 -0.0884908139705658 -0.10616706311702728 -0.10525219142436981 -0.19156253337860107 0.09373583644628525 -0.11985358595848083 0.19276762008666992 0.08581569045782089 0.4503943920135498 0.04812350496649742 0.06329222023487091 -0.09015905857086182 -0.5218676924705505 -0.22254905104637146 -0.806050181388855 -0.14499825239181519 -0.10625636577606201 -0.0710381492972374 -0.11255332082509995 0.3645276427268982 0.05899166315793991 0.01237467210739851 -0.1258748173713684 -0.17137384414672852 0.13613207638263702 0.5072222948074341 -0.06627506017684937 -0.1167747899889946 -0.5118260383605957 0.19566521048545837 0.18222463130950928
node_23	0.022110214456915855 0.12883590161800385 0.17797903716564178 0.14829957485198975 0.8398526906967163 -0.5529685020446777 0.131755992770195 0.1992577761411667 0.026580339297652245 -0.18523070216178894 -0.29252877831459045 0.31068721413612366 0.38480135798454285 -0.13503283262252808 0.19659554958343506 -0.6297382116317749 0.7771207690238953 0.072151318192482 0.04112471640110016 0.19373834133148193 -0.057379186153411865 0.0029119006358087063 0.011669954285025597 0.16559270024299622 -0.4766688942909241 0.006683722138404846 0.44164904952049255 -0.0764819085597992 0.06446503102779388 0.013149078004062176 -0.19673195481300354 0.34740251302719116 0.022887494415044785 0.16240182518959045 -0.18524257838726044 0.009088505059480667 -0.401058554649353 -0.013970211148262024 0.4278165102005005 0.21334174275398254 -0.522720992565155 -0.14400602877140045 0.08289970457553864 -0.04784277826547623 0.2124386876821518 0.12653039395809174 -0.16471980512142181 -0.213437020778656 0.167577862739563 0.06205783411860466 0.11934079974889755 -0.15235179662704468 -0.1750066727399826 0.3204718232154846 -0.050668343901634216 0.04628962278366089 -0.2839892506599426 -0.2826167345046997 0.2791094481945038 -0.16531085968017578 0.08914653956890106 1.113592267036438 0.4020908772945404 0.1327594518661499 0.02816491201519966 0.033872224390506744 -0.08399337530136108 -0.4942689836025238 0.17298981547355652 -0.007756104227155447 -0.005052975378930569 -0.14141899347305298 0.20331788063049316 -0.024771202355623245 -0.09455879032611847 0.41230544447898865 0.3891372084617615 -2.0676827430725098 0.07860173285007477 0.6691440343856812 -0.03314175084233284 -0.35969507694244385 0.9390661120414734 -0.2831191420555115 -0.14510461688041687 -0.6162248253822327 0.2656174600124359 -0.1986740082502365 0.1776299923658371 0.2827468812465668 0.21669331192970276 0.22789447009563446 -0.28278136253356934 0.3733533024787903 -0.18478113412857056 0.4054168164730072 -0.18803247809410095 -0.0893370658159256 -0.3162378966808319 -0.0427541583776474 -0.1520254909992218 0.0004895403981208801 0.1117742508649826 -0.056037537753582 0.15864813327789307 -0.1096474677324295 -0.17950424551963806 -0.2465071678161621 0.22745931148529053 0.5249039530754089 0.13929705321788788 0.2505247890949249 0.08731778711080551 0.09392880648374557 0.001620231894776225 0.3105483949184418 -0.03385014086961746 0.06436857581138611 0.30164992809295654 0.38514646887779236 0.0784088671207428 -0.1728247106075287 0.08848356455564499 -0.18080201745033264 0.0233573317527771 0.4826797842979431 0.37820541858673096 -0.10297821462154388 -0.18609794974327087 -0.3554762601852417 -0.22351489961147308 -0.821908175945282 -0.16970619559288025 0.3000173568725586 0.10203810781240463 0.3033064305782318 0.04678860306739807 -0.10910769551992416 0.06568381190299988 0.04153920337557793 -0.09011214971542358 0.09425776451826096 0.20373758673667908 0.19652080535888672 0.5288126468658447 -0.08778172731399536 -0.0885341465473175 -0.08207989484071732 0.05493975430727005 0.2942662239074707 0.12799620628356934 0.2651880085468292 -0.00360497971996665 0.38927707076072693 -0.3194865584373474 0.8330681324005127 -0.19084863364696503 0.12419506162405014 -0.1719008982181549 0.48508185148239136 0.26206105947494507 0.10578259825706482 0.4954245090484619 0.07569323480129242 0.04403173178434372 0.041243892163038254 -0.19565746188163757 0.01770656369626522 -0.018550312146544456 0.7322001457214355 -0.25772055983543396 -0.004187592770904303 -0.1771060675382614 -0.10120736807584763 -0.06894038617610931 0.12604889273643494 -0.25303471088409424 -0.12618738412857056 0.0027450479101389647 0.162518709897995 0.27695024013519287 -0.10039661824703217 0.09815853834152222 -0.287246435880661 -0.04454801604151726 0.3260970413684845 0.13833147287368774 -0.020105544477701187 -0.1069716140627861 0.02303922176361084 -0.3504529595375061 0.11506780982017517 0.17012368142604828 -0.33700940012931824 -0.09434445947408676 0.39277660846710205 -0.04221556708216667 -0.022494781762361526 0.09021564573049545 0.03337447717785835 -0.16129477322101593 -0.2489650845527649 0.4760473966598511 -0.04046512767672539 -0.08312639594078064 0.08440276980400085 -0.03379696235060692 -0.18752358853816986 -0.2573587894439697 0.20753443241119385 -0.120386503636837 0.4828876256942749 -0.03594113141298294 -0.1191205382347107 0.17440752685070038 0.11544939875602722 -0.11166077852249146 0.038610927760601044 -0.30110999941825867 -1.498253345489502 0.31484127044677734 -0.06269712746143341 -0.43305715918540955 -0.5325218439102173 -0.043151285499334335 0.12858709692955017 0.1227777823805809 0.10151812434196472 0.1437917947769165 0.12903501093387604 0.21029865741729736 0.1453084796667099 -0.6255608201026917 0.025687796995043755 0.3281634747982025 0.29002222418785095 -0.30741599202156067 0.26112163066864014 0.09681981801986694 0.2340225875377655 -0.05727493762969971 0.10532592236995697 -0.20057588815689087 0.21416211128234863 -0.11127837747335434 -0.24196432530879974 0.15027877688407898 -0.07375786453485489 -0.35299989581108093 0.0032281815074384212 -0.10869081318378448 -0.07698347419500351 0.2837601602077484 0.17033523321151733 0.4167437255382538 -0.1454792320728302 0.14247086644172668 0.022343065589666367 -0.09358708560466766 -0.5340249538421631 -0.05850168317556381 0.0629032701253891 0.1573256552219391 -0.48474130034446716 -0.23706305027008057 0.12435269355773926 -0.04852033779025078 0.1509729027748108 -0.20952670276165009 -0.014236822724342346 0.15872766077518463 0.09734651446342468 0.1587795466184616 0.1773093193769455 0.0015579413156956434 0.09696795791387558 -0.07334189862012863 0.09875418990850449 -0.17067930102348328 -0.0015201357891783118 0.3361538350582123 -0.07977692782878876 -0.26396074891090393 -0.5182217359542847 0.11880381405353546 -0.10190315544605255 0.02150050550699234 -0.423808217048645 0.15244753658771515 0.056388236582279205 -0.02072497084736824 0.16138240694999695 -0.4014050364494324 0.056129127740859985 -0.13848784565925598 0.1322719305753708 -0.017734743654727936 0.056110918521881104 0.10407955944538116 0.10202737897634506 -0.12024836242198944 0.17627505958080292 0.042423538863658905 -0.15929409861564636 0.06776832044124603 -0.03869427368044853 0.06647361814975739 -0.19194501638412476 0.053220294415950775 0.28474491834640503 -0.2585103511810303 0.13992711901664734 -0.05039225518703461 0.2808278203010559 0.08799487352371216 0.3107213079929352 0.19852477312088013 -0.38585203886032104 0.44600433111190796 0.14145854115486145 -0.026724819093942642 -0.2526755928993225 -0.2722358703613281 -0.007775742560625076 -0.0853525847196579 0.14513711631298065 -0.14224380254745483 -0.07365486025810242 0.4641190767288208 0.33155685663223267 1.0120561122894287 0.8558053970336914 0.15857000648975372 0.47332534193992615 0.348567932844162 0.017580939456820488 -0.000753318308852613 -0.11559346318244934 0.00725997518748045 -0.18685340881347656 0.04380641505122185 -0.3642881512641907 0.2332872599363327 -0.03716310113668442 0.2918068766593933 -0.05195861682295799 0.5379989147186279 -0.15663418173789978 0.2842358946800232 -0.3073028028011322 0.24693667888641357 -0.2664610743522644 -0.010987198911607265 -0.5314832925796509 0.25001198053359985 0.32554537057876587 0.11012982577085495 -0.2220749706029892 -0.08340510725975037 0.550433874130249 -0.5172212719917297 0.8843967318534851 -0.01923576183617115 -0.4409547448158264 -0.23464953899383545 -0.37330684065818787 -1.2074434757232666 0.07762634009122849 0.056357428431510925 -0.08445548266172409 -0.042877983301877975 -0.03380177915096283 0.22270143032073975 -0.22870682179927826 0.062222182750701904 0.06288405507802963 0.6109612584114075 0.19535236060619354 -0.07801671326160431 -0.24988150596618652 -0.0113819045946002 0.4370849132537842 -0.02261386811733246 0.3031414747238159 -0.16489773988723755 0.03170473501086235 -0.07001381367444992 0.08030916005373001 0.07253730297088623 -0.1269565224647522 0.1472523808479309 0.027035411447286606 0.3248221278190613 0.414156049489975 0.025616373866796494 0.2732316851615906 0.12742562592029572 0.2996419370174408 -0.014406248927116394 0.13818077743053436 0.1786951869726181 -0.12246875464916229 -0.36905592679977417 0.015583043918013573 0.35001808404922485 -0.06637072563171387 -0.13862740993499756 0.06783232092857361 -0.2287643849849701 -0.5773113965988159 -0.37565359473228455 -0.1433892697095871 -0.24103990197181702 -0.2609173059463501 -0.05545993149280548 -0.04215456172823906 0.25080984830856323 -0.21827149391174316 -0.4618639349937439 0.2391931116580963 0.29063183069229126 -0.09655660390853882 0.253124475479126 -0.008472865447402 0.009541869163513184 0.0017003293614834547 -0.26522696018218994 -0.24332170188426971 -0.3039417862892151 -0.08151863515377045 0.06552991271018982 0.08129105716943741 0.554013729095459 0.05265386030077934 0.1536215841770172 -0.18615573644638062 -0.004660234786570072 -0.041666433215141296 0.01486319862306118 0.2520890533924103 -0.13026636838912964 0.0038126062136143446 -0.07994094491004944 0.3042467534542084 0.007499225437641144 0.24719910323619843 -0.41392311453819275 -0.06603923439979553 -0.06617309898138046 0.1365763247013092 -0.2468848079442978 0.26059722900390625 -0.532955527305603 -3.4421679973602295 0.3959187865257263 -0.10550940036773682 -0.04168475419282913 0.17146795988082886 0.08703327178955078 0.19824783504009247 -0.09397818893194199 -0.13694798946380615 0.27312690019607544 0.167053684592247 0.09785567224025726 -0.012599766254425049 0.023994959890842438 0.218968003988266 -0.15820035338401794 -0.029293183237314224 0.09352730959653854 0.5011640787124634 0.08974111080169678 0.04869207367300987 0.048811398446559906 0.2835247814655304 -0.14811916649341583 -0.14624913036823273 0.149847149848938 0.06955885142087936 0.05434904992580414 0.13303136825561523 -0.2719534635543823 -0.050093747675418854 -0.012684613466262817 -0.19049978256225586 -0.3489614427089691 -0.16226892173290253 0.46264714002609253 -0.32230401039123535 -0.26735919713974 0.007169291377067566 -0.17806297540664673 0.758762538433075 0.09282705187797546 0.13849496841430664 -1.3818525075912476 -0.14983630180358887 -0.24375396966934204 -0.03963875398039818 0.17458590865135193 0.096702441573143 0.16633307933807373 0.22934657335281372 0.26204797625541687 0.1488640010356903 -0.2586914598941803 0.006715153809636831 -0.26874297857284546 -0.10625144094228745 0.018224060535430908 0.06157593056559563 -0.10292229056358337 0.09632585942745209 0.06295289099216461 -0.2862083315849304 0.040434420108795166 0.15101860463619232 -0.3406781554222107 -0.6992926597595215 -0.26610249280929565 0.1880798190832138 -0.27660682797431946 0.07502271980047226 0.011007670313119888 -0.13444623351097107 0.17535817623138428 -0.07179060578346252 0.01535357441753149 -0.2991698682308197 0.18205559253692627 -0.19720880687236786 0.25854384899139404 0.08420582860708237 0.4002246856689453 0.0192588921636343 -0.06071055680513382 -0.08652639389038086 0.4392966032028198 -0.1375178098678589 -0.18699035048484802 0.4170822501182556 -0.31816956400871277 -0.022517770528793335 0.30590516328811646 -0.05428072065114975 0.21687975525856018 0.021276071667671204 0.17608468234539032 0.2675318717956543 0.03244052454829216 3.167579412460327 0.24881696701049805 -0.0615488700568676 -0.27423039078712463 0.22269770503044128 0.016887128353118896 -0.0829087495803833 -0.07682818174362183 -0.3401191234588623 -0.07698466628789902 -0.3049395680427551 -0.03846060112118721 0.04969259724020958 -0.4811570644378662 0.2938326299190521 0.5133888125419617 -0.1290426254272461 0.25916916131973267 0.14733651280403137 -0.6498923301696777 0.36796778440475464 -0.20169520378112793 0.1324138343334198 0.13684791326522827 -0.06061475723981857 0.0286792553961277 0.0953330546617508 0.2800409197807312 0.2710694670677185 0.20729844272136688 -0.06952784955501556 -0.02295837365090847 -0.14457744359970093 0.2530628442764282 -0.0961359292268753 0.24790005385875702 -0.27229487895965576 7.425305366516113 -0.31731611490249634 -0.08162181079387665 0.17418263852596283 0.27759283781051636 -0.0045446655713021755 0.02982320450246334 0.14455340802669525 -0.2560536563396454 0.0977836474776268 -0.15993401408195496 -0.1895592212677002 0.18872496485710144 -0.2903430461883545 -0.0465821735560894 0.23178188502788544 0.3956703543663025 0.5210150480270386 -0.040471211075782776 -0.1021612286567688 -0.032497771084308624 -0.2388259619474411 0.20908384025096893 0.7769012451171875 -0.33918091654777527 0.17160539329051971 -0.38668081164360046 0.1839250773191452 4.6929966629249975e-05 -0.005027572624385357 0.13722974061965942 -0.10216479003429413 0.07291524857282639 -0.1593180149793625 0.03366817161440849 0.21449744701385498 -1.1303808689117432 -0.036162376403808594 0.1882127821445465 0.1548231840133667 -0.2695957124233246 -0.37484726309776306 -0.07374048978090286 -0.0117822689935565 0.16947200894355774 0.12968872487545013 -0.598220705986023 0.27952462434768677 0.23539042472839355 0.02363651804625988 0.12209904193878174 0.14183388650417328 0.036973051726818085 -0.4146054685115814 -0.029553692787885666 -0.43831491470336914 0.20411759614944458 0.12834271788597107 -0.11205385625362396 -0.4957379102706909 0.03263935446739197 0.2961862087249756 -0.14765664935112 0.18407998979091644 0.28177154064178467 -0.11577251553535461 0.3214261531829834 -0.1536494791507721 0.33969077467918396 0.0015509352087974548 -0.025857113301753998 0.05031856521964073 -0.02557443641126156 0.031014150008559227 -0.43346652388572693 0.022304855287075043 0.03633350878953934 -0.14420364797115326 -0.17165575921535492 -0.08820783346891403 0.1573585867881775 0.32161134481430054 0.05426982790231705 0.019623305648565292 -0.3296518623828888 0.1412712186574936 0.2329944372177124 0.18027982115745544 -0.3503072261810303 -0.04622389003634453 0.10242300480604172 -0.16035950183868408 0.002688484964892268 -0.4492323398590088 0.4339379668235779 0.05229104310274124 -0.2981356084346771 0.06779104471206665 0.20416852831840515 -0.11422519385814667 -0.253780722618103 0.38706982135772705 -0.2780735194683075 0.41959628462791443 0.15077978372573853 0.09174442291259766 0.10102101415395737 -0.3391798138618469 -0.026242733001708984 0.04386128485202789 0.13510259985923767 0.5834403038024902 0.24463126063346863 0.036812152713537216 0.08521445840597153 -0.6000553369522095 0.07833553850650787 0.08337074518203735 0.22468404471874237 0.7188929319381714 -0.24228274822235107 -0.056422412395477295 0.14298054575920105 -0.3046128749847412 0.12647797167301178 0.022904664278030396 -0.10364089906215668 0.44858261942863464 0.3052489459514618 0.052796490490436554 -0.11835970729589462 -0.14832574129104614 -0.2582944631576538 0.14420250058174133 0.20913910865783691 -0.3688035011291504 0.16244739294052124 -0.11954377591609955 -0.16141782701015472 0.08913400024175644 -0.057725828140974045 0.18469956517219543 -0.06571084260940552 -0.7292715907096863 -0.14173953235149384 -0.3279624879360199 -0.3478693962097168 0.46277889609336853 0.2001948356628418 -0.15818488597869873 -0.09926139563322067 -0.059260934591293335 -0.12894001603126526 0.08724438399076462 -0.03321842849254608 0.20561483502388 0.06730154156684875 0.5139204859733582 0.16933947801589966 0.07933751493692398 0.22584550082683563 -0.7990753054618835 -0.2793220579624176 -0.6648949980735779 -0.10231141746044159 -0.03082495555281639 -0.06851658225059509 -0.2322474718093872 0.30526649951934814 0.009405210614204407 0.0038352012634277344 -0.11526917666196823 -0.13437071442604065 0.18233183026313782 0.5598102807998657 -0.12716002762317657 0.03661571070551872 -0.5518195629119873 0.1490105837583542 0.24548731744289398
node_10	0.010399585589766502 0.09554611891508102 0.21336990594863892 0.23433642089366913 0.45752188563346863 -0.5696792006492615 0.03252558037638664 0.21851687133312225 -0.0615418367087841 -0.21817907691001892 -0.2743943929672241 0.6414709091186523 0.37591439485549927 -0.1376505345106125 0.1440386325120926 -0.10854916274547577 0.6439321041107178 -0.12422353029251099 -0.0032916541676968336 -0.33974123001098633 0.00985965970903635 -0.10110265016555786 -0.14278995990753174 0.17212073504924774 -0.5098602771759033 -0.09750179946422577 0.40873461961746216 -0.12383629381656647 0.1640348732471466 0.10011567175388336 -0.27912431955337524 0.3384971022605896 0.03381922096014023 0.1573573350906372 -0.19197392463684082 0.04056106507778168 -0.34657058119773865 0.010325692594051361 0.10153932869434357 0.3084561824798584 -0.47678765654563904 -0.04506006836891174 0.15819931030273438 0.010376151651144028 0.17347097396850586 0.005125740077346563 0.05770736187696457 -0.24403004348278046 0.14520759880542755 -0.048071231693029404 0.11690306663513184 -0.2860143184661865 -0.0884888619184494 0.3663666248321533 -0.17121213674545288 0.09081406891345978 -0.43560338020324707 -0.07241135835647583 0.2721521556377411 -0.07999694347381592 0.18771600723266602 1.221348524093628 0.2903190851211548 -0.05978431925177574 -0.04728802293539047 0.17965929210186005 -0.10837678611278534 -0.28124773502349854 0.05322832986712456 -0.04095516353845596 -0.07998453825712204 -0.13491791486740112 0.24952688813209534 -0.1471954584121704 -0.10706248134374619 0.29354962706565857 0.32366859912872314 -1.6906192302703857 -0.007638335227966309 0.6461780071258545 0.08485089987516403 -0.12142457067966461 1.2317969799041748 -0.34009766578674316 -0.015523712150752544 -0.9054040312767029 0.3569659888744354 -0.07008427381515503 0.14935454726219177 0.2788049578666687 0.3629642724990845 0.31589871644973755 -0.2233307808637619 0.023447901010513306 -0.12034408748149872 0.4098014235496521 -0.20853263139724731 0.13506454229354858 -0.30705875158309937 -0.06247714161872864 -0.16424569487571716 -0.08043728768825531 0.13137108087539673 -0.1606125831604004 0.23307490348815918 0.01418127678334713 -0.11421708762645721 -0.32671672105789185 0.1708446443080902 0.3842296004295349 0.12057057023048401 0.0409298911690712 0.0905688926577568 0.09910240024328232 -0.11179980635643005 0.22867020964622498 0.013231753371655941 0.05025911331176758 0.22314447164535522 0.13063861429691315 0.11350720375776291 -0.11976252496242523 0.01990416646003723 -0.15396545827388763 0.07298174500465393 0.5206302404403687 0.46035104990005493 -0.1286039650440216 -0.07306505739688873 -0.303955614566803 -0.3286585211753845 -0.9036325216293335 -0.1384541094303131 -0.09343334287405014 0.0063872067257761955 0.2940328121185303 0.1722390353679657 -0.08789067715406418 0.13748635351657867 0.10485970228910446 -0.039838965982198715 0.10138243436813354 0.23949596285820007 0.23302841186523438 0.47074148058891296 -0.1716058850288391 -0.022813010960817337 -0.18925581872463226 -0.14082744717597961 0.1249975860118866 0.07031174004077911 0.39817923307418823 -0.037146955728530884 0.247319757938385 -0.11693823337554932 0.8509217500686646 -0.1221752017736435 0.06390760093927383 -0.23301097750663757 0.7127017378807068 0.23744390904903412 0.1265081763267517 0.612357497215271 0.14640074968338013 0.10467980802059174 -0.001547804451547563 -0.16366414725780487 -0.13904789090156555 -0.11242607235908508 0.6274466514587402 -0.22942286729812622 0.006003715097904205 -0.23057906329631805 -0.08971306681632996 -0.13629043102264404 0.046760182827711105 -0.1604074239730835 -0.15382647514343262 0.1407890021800995 0.1410033404827118 0.270609587430954 -0.0180527251213789 0.021120866760611534 -0.2441282719373703 -0.18205253779888153 0.444016695022583 0.19281427562236786 -0.21442720293998718 -0.2911869287490845 0.17251339554786682 -0.3367654085159302 0.1743861436843872 0.2131883203983307 -0.3288997411727905 -0.046517264097929 0.10283161699771881 -0.08582821488380432 -0.011727511882781982 0.24414587020874023 -0.1356360912322998 -0.2295660674571991 -0.2245507687330246 0.42703866958618164 -0.024397149682044983 -0.18629150092601776 0.09765318036079407 -0.23249244689941406 -0.24886789917945862 -0.3069772720336914 0.331792950630188 -0.23641562461853027 0.7549707293510437 -0.04586518928408623 0.03794022649526596 0.2589869797229767 0.02866387367248535 -0.2597789764404297 0.09437065571546555 -0.35757213830947876 -1.5163911581039429 0.2899373471736908 -0.10430948436260223 -0.22947147488594055 -0.5446708798408508 0.15097932517528534 0.2811763286590576 0.230459064245224 0.0917433649301529 0.17062883079051971 -0.06195157766342163 -0.007301744073629379 0.026057273149490356 -0.50203537940979 -0.06135065481066704 0.28183647990226746 0.08850471675395966 -0.46055659651756287 0.2708927392959595 0.03740697354078293 0.22168481349945068 -0.2796202301979065 0.19101056456565857 -0.10738964378833771 0.2844279408454895 -0.12992453575134277 -0.2730875313282013 0.07878263294696808 0.18718639016151428 -0.37792450189590454 -0.0028765760362148285 -0.19108855724334717 0.025859318673610687 0.1087360605597496 0.0922316163778305 0.25367245078086853 -0.168352410197258 0.1729753464460373 -0.03627699613571167 -0.3057212829589844 0.06630206108093262 -0.02170368656516075 0.08185222744941711 0.1197885200381279 -0.3649267554283142 -0.14776664972305298 -0.0013104479294270277 -0.08499189466238022 0.09718664735555649 -0.32870304584503174 0.0012175689917057753 0.10683855414390564 0.1385745406150818 0.13245753943920135 0.22983357310295105 -0.10544656962156296 0.19649499654769897 -0.1136658638715744 0.06345535814762115 -0.22684714198112488 -0.05481533333659172 0.24463948607444763 0.028231751173734665 -0.16009050607681274 -0.5727577209472656 0.21955811977386475 -0.1926664561033249 0.04831960052251816 -0.2379724234342575 0.1407911777496338 0.05735744535923004 -0.14239564538002014 0.18555013835430145 -0.5163238048553467 0.17570285499095917 -0.24047303199768066 0.10747142881155014 0.052405692636966705 0.25440311431884766 0.24036824703216553 0.16796612739562988 0.01236654818058014 0.17789089679718018 -0.17804917693138123 -0.11456602066755295 0.14400582015514374 -0.03215113282203674 0.2484791874885559 -0.12098747491836548 0.03588107228279114 0.22598373889923096 -0.25102347135543823 0.12959744036197662 -0.14687317609786987 0.2196897268295288 0.055632226169109344 0.28851452469825745 0.3041580617427826 -0.3250844478607178 0.424305260181427 0.14676597714424133 -0.050626035779714584 -0.09976667165756226 -0.43714162707328796 0.04591643810272217 0.02809501811861992 0.23700790107250214 -0.19236227869987488 0.07640424370765686 0.41912350058555603 0.25011688470840454 1.4899001121520996 0.5468651056289673 0.25724637508392334 0.6621206998825073 0.25654834508895874 -0.019247964024543762 -0.06889235973358154 -0.06304322928190231 0.1082727238535881 0.0033983688335865736 -0.046624451875686646 -0.39925190806388855 0.23173671960830688 -0.009359944611787796 0.2714160084724426 -0.018604684621095657 0.4671151638031006 -0.13262563943862915 0.4080187678337097 -0.3193073570728302 0.4175302982330322 -0.17151717841625214 0.07713457942008972 -0.5391606092453003 0.2639573812484741 0.1985706388950348 0.09909775108098984 -0.19442901015281677 -0.004403307102620602 0.4321309030056 -0.4994576871395111 0.7579740285873413 -0.0030381507240235806 -0.3845694065093994 -0.1945016235113144 -0.30205148458480835 -1.1871299743652344 0.11065474152565002 0.16011777520179749 -0.017572056502103806 -0.037815503776073456 -0.09408550709486008 0.23279103636741638 -0.014299055561423302 0.0689481571316719 0.019764183089137077 0.7132153511047363 0.21006803214550018 0.04726161062717438 -0.2293606996536255 -0.17779621481895447 0.3960687518119812 -0.051954399794340134 0.2318941354751587 -0.08670490980148315 -0.09648999571800232 -0.18000170588493347 0.03650888055562973 -0.0350964218378067 -0.023573873564600945 0.16028594970703125 0.05541255325078964 0.33980876207351685 0.3808608055114746 0.017274660989642143 0.18568848073482513 0.2007620930671692 0.3987473249435425 0.02561613917350769 0.14083537459373474 0.2195301502943039 0.007924306206405163 -0.23826710879802704 0.23712411522865295 0.5358209609985352 -0.026881059631705284 -0.20130988955497742 0.10681001842021942 -0.34073394536972046 -0.39016443490982056 -0.22314290702342987 -0.22994911670684814 -0.3657855987548828 -0.14636747539043427 0.11324048042297363 0.038892894983291626 0.08012276142835617 -0.37594544887542725 -0.520409345626831 0.3935379981994629 0.2950434982776642 -0.07750675082206726 0.2792062759399414 -0.004669468849897385 0.005254785530269146 0.0937311053276062 -0.229950413107872 -0.17847613990306854 -0.5385792255401611 -0.16911554336547852 0.1280415952205658 -0.009926894679665565 0.5506569147109985 -0.02729084901511669 0.13019412755966187 -0.05963423103094101 -0.0047737956047058105 -0.1244591698050499 0.007007472217082977 0.2034841626882553 -0.10865437984466553 0.004351387731730938 -0.06841488927602768 0.18170033395290375 -0.03927301988005638 0.2870410084724426 -0.316226065158844 -0.14783629775047302 -0.2581198215484619 0.1908436119556427 -0.02445419505238533 0.10410784184932709 -0.6415050029754639 -3.358396530151367 0.36409902572631836 -0.09578677266836166 0.07766284793615341 0.18093642592430115 0.1581999808549881 0.19087091088294983 -0.12888090312480927 0.01181485690176487 0.1585945338010788 0.25288593769073486 0.05233864113688469 0.08720298856496811 0.0921487957239151 0.0706469714641571 -0.04485461860895157 0.009515561163425446 0.2612423300743103 0.5113110542297363 0.07042845338582993 0.04424121975898743 0.09697388112545013 0.21071688830852509 -0.03013385832309723 -0.11316850781440735 0.09797792136669159 0.1318819224834442 -0.08027882128953934 0.1313333809375763 -0.1898750513792038 -0.09971228241920471 -0.016631854698061943 -0.2436680793762207 -0.3818807303905487 -0.04241099953651428 0.4832484722137451 -0.307880163192749 -0.2920788526535034 0.06544071435928345 -0.15418782830238342 0.6745706796646118 0.09328799694776535 0.15557706356048584 -1.500862956047058 -0.01851721666753292 -0.633119523525238 -0.018677663058042526 0.15008370578289032 0.1045846939086914 0.21323458850383759 0.14608585834503174 0.29362034797668457 0.14035597443580627 -0.24233657121658325 -0.010246951133012772 -0.2687309682369232 -0.11500804126262665 -0.06329040229320526 0.0992286205291748 0.06972317397594452 0.17925652861595154 0.043598853051662445 -0.19823645055294037 0.02556769922375679 0.1626276969909668 -0.014229362830519676 -0.522869884967804 -0.26298660039901733 0.1500280648469925 -0.2556527256965637 0.054636575281620026 0.03786670044064522 -0.05962545424699783 0.18486234545707703 0.07985538244247437 0.0061746081337332726 -0.49206745624542236 0.34683936834335327 -0.20480619370937347 0.10316064953804016 0.11187227070331573 0.5985861420631409 -0.06422796845436096 -0.02362336963415146 -0.02087586745619774 0.32919466495513916 -0.2910330891609192 -0.02447531744837761 0.4643206298351288 -0.3840574622154236 0.00881831906735897 0.37116584181785583 0.07272379845380783 0.14694847166538239 -0.07030145823955536 0.1163531243801117 0.09954046458005905 -0.19010260701179504 3.005847930908203 0.25349363684654236 -0.14147190749645233 -0.14619825780391693 0.10058441013097763 0.12196549028158188 0.017133411020040512 -0.023453591391444206 -0.41658949851989746 -0.030781909823417664 -0.48117923736572266 -0.1579645574092865 0.06791506707668304 -0.5271438956260681 0.19886955618858337 0.47302621603012085 -0.1216747984290123 0.1310298889875412 0.09415712207555771 -0.7167468070983887 0.1497715413570404 -0.09185060113668442 0.34603533148765564 -0.10573103278875351 -0.04246675968170166 0.16281260550022125 0.05495055764913559 0.21537789702415466 0.20389096438884735 0.3723897337913513 -0.07689008116722107 -0.036432646214962006 -0.3052442669868469 0.376642107963562 0.039658866822719574 0.27571970224380493 -0.3847678601741791 7.8562774658203125 -0.24739214777946472 -0.010430976748466492 0.1837414801120758 0.36294692754745483 0.14216138422489166 0.041802436113357544 0.17027467489242554 -0.18813446164131165 0.10031227767467499 -0.14590010046958923 -0.16210806369781494 0.20904529094696045 -0.49164149165153503 -0.007263469509780407 0.30072474479675293 0.7214285731315613 0.36301693320274353 0.017486393451690674 -0.05685992166399956 -0.020584261044859886 -0.2722768187522888 0.12695634365081787 0.7658300399780273 -0.266644686460495 0.18059401214122772 -0.4049365222454071 0.21820804476737976 -0.05158458277583122 0.09432782232761383 0.23224017024040222 -0.00396572332829237 0.17013579607009888 -0.10835200548171997 0.023941025137901306 0.18712064623832703 -0.9841296076774597 -0.07825198024511337 0.08761905878782272 0.24817824363708496 -0.2406073659658432 -0.2576504349708557 -0.1101720780134201 0.0036903023719787598 0.2285366952419281 0.11656951904296875 -0.5352621078491211 0.20836102962493896 0.3469172418117523 -0.053428035229444504 0.08531561493873596 0.2224632352590561 -0.0010510708671063185 -0.2839440107345581 0.038823436945676804 -0.3315061926841736 0.17722555994987488 0.0972386822104454 -0.20591959357261658 -0.6267827749252319 -0.016985800117254257 0.22879451513290405 -0.1932421773672104 0.3163689374923706 0.5844168066978455 -0.06282912194728851 0.2910686135292053 -0.14462971687316895 0.10917256772518158 0.010420313104987144 -0.11541081964969635 -0.01829433999955654 -0.031237926334142685 0.050167202949523926 -0.31343042850494385 -0.024115215986967087 -0.3907289505004883 -0.1600574254989624 -0.2857956886291504 -0.038518231362104416 0.026281334459781647 0.3285825848579407 -0.008395499549806118 -0.10902439057826996 -0.34784138202667236 0.20662721991539001 0.30418550968170166 0.220016211271286 0.0018786763539537787 -0.19345545768737793 0.0750347375869751 -0.0021390668116509914 -0.05925649404525757 -0.4306076169013977 0.25938332080841064 0.09865754097700119 -0.20896214246749878 0.14750854671001434 0.2109626978635788 -0.17105960845947266 -0.10058130323886871 0.48076802492141724 -0.2899264693260193 0.21210215985774994 0.07373374700546265 0.15770547091960907 0.07833873480558395 -0.5010204315185547 -0.16184762120246887 0.035541556775569916 0.06738249212503433 0.3489859700202942 0.16028574109077454 0.18710081279277802 0.17962968349456787 -0.43093642592430115 0.027121499180793762 0.01749449595808983 0.2020924985408783 0.7289351224899292 -0.22597378492355347 0.009570164605975151 0.22999343276023865 -0.3027954697608948 -0.03224053606390953 -0.015922432765364647 -0.057421550154685974 0.4571084976196289 0.21870505809783936 0.06836631149053574 -0.011290851049125195 -0.12997281551361084 0.24319812655448914 0.1729266494512558 0.18905572593212128 -0.4149622321128845 0.22649411857128143 -0.1266995072364807 -0.16790282726287842 0.1262611448764801 -0.19022095203399658 0.07276755571365356 -0.10014530271291733 -1.096038579940796 -0.18313084542751312 0.03901184722781181 -0.45904016494750977 0.007230818271636963 0.1965928077697754 -0.1534794270992279 -0.052785299718379974 -0.1370764672756195 -0.05710587650537491 0.1032952293753624 -0.07195409387350082 0.30297932028770447 0.11343022435903549 0.5511292219161987 0.05355896055698395 0.026453878730535507 -0.0007088383426889777 -0.6812788248062134 -0.21781593561172485 -0.6417304277420044 0.252411425113678 -0.04397366940975189 -0.14094600081443787 -0.18528775870800018 0.4085075855255127 0.024589747190475464 0.011375783942639828 -0.04584762081503868 -0.20585034787654877 0.11308907717466354 0.5218782424926758 -0.09275337308645248 -0.18383195996284485 -0.686480700969696 0.16841596364974976 0.07454782724380493
node_29	0.05741780251264572 0.13369128108024597 0.1706380844116211 0.09155841916799545 0.7780697345733643 -0.48462292551994324 0.1399020254611969 0.24620789289474487 -0.06542935967445374 -0.17998658120632172 -0.16029080748558044 0.48320722579956055 0.25533968210220337 -0.3510342240333557 0.2459057867527008 -0.6041369438171387 0.554731011390686 0.19720837473869324 0.027923583984375 0.03887051343917847 -0.056819528341293335 0.070493683218956 -0.0376618430018425 0.1929125189781189 -0.4363197982311249 0.1077980324625969 0.5488089323043823 -0.0410408079624176 0.2783137261867523 0.24116353690624237 -0.1139967143535614 0.36719655990600586 -0.0022641606628894806 0.17635223269462585 -0.21885830163955688 0.08866868913173676 -0.4175795912742615 0.019320949912071228 0.19244877994060516 0.07734571397304535 -0.5701152086257935 -0.19824731349945068 0.11780517548322678 -0.11218482255935669 0.15503208339214325 0.05644786357879639 0.015259291045367718 -0.013284365646541119 0.21269333362579346 -0.0353841707110405 0.16332677006721497 -0.19702091813087463 -0.2105393409729004 0.25047874450683594 -0.09216704219579697 -0.06447693705558777 -0.31537339091300964 -0.1380748152732849 0.3279312252998352 -0.1060134768486023 0.09181772917509079 0.5704585313796997 0.40901321172714233 -0.05367656797170639 -0.04215420410037041 0.13127391040325165 -0.07294752448797226 -0.5162612199783325 0.22493335604667664 0.07059882581233978 -0.023844145238399506 -0.14042899012565613 0.19721642136573792 -0.2182910442352295 -0.17765121161937714 0.2572312355041504 0.3058520555496216 -1.7271528244018555 0.052815310657024384 0.6726611852645874 -0.04110627993941307 -0.409233421087265 1.1634684801101685 -0.2038881480693817 -0.2169351428747177 -0.6516379117965698 0.280387282371521 -0.15467333793640137 0.2060719132423401 0.3340293765068054 0.33375605940818787 0.20018558204174042 -0.24846075475215912 0.1151258572936058 -0.18791133165359497 0.3776181638240814 -0.24855124950408936 -0.04886631295084953 -0.33928847312927246 -0.0846552848815918 -0.07651688903570175 0.005168783478438854 0.1299271136522293 -0.05214186757802963 0.23787140846252441 0.027742058038711548 -0.07862897217273712 -0.31294772028923035 0.2198222577571869 0.49682673811912537 0.1250932514667511 0.0002490878105163574 0.1684468388557434 0.025843707844614983 -0.14831173419952393 0.2631121277809143 -0.0007759928703308105 0.06990450620651245 0.21409907937049866 0.3506633937358856 0.09170415252447128 -0.14883343875408173 -0.05847351998090744 -0.1125422939658165 0.03414864465594292 0.42501622438430786 0.3572571873664856 -0.08691167831420898 -0.2144954651594162 -0.3875645399093628 -0.20136666297912598 -0.9275106191635132 -0.212083637714386 0.13882189989089966 0.03719786927103996 0.263502836227417 0.03906799852848053 -0.0652947872877121 0.19705288112163544 0.013604363426566124 -0.03135116025805473 0.03474406152963638 0.21878457069396973 0.1933523416519165 0.5901568531990051 -0.1748206615447998 -0.09585581719875336 -0.16164813935756683 -0.029287200421094894 0.3097575306892395 0.13746745884418488 0.41031622886657715 0.025986675173044205 0.36453816294670105 -0.31089550256729126 0.7202372550964355 -0.2158724069595337 0.14536532759666443 -0.15774662792682648 0.473575234413147 0.2142891138792038 -0.02973925694823265 0.47307729721069336 0.0775943249464035 0.012204567901790142 0.04757397994399071 -0.12959125638008118 -0.008091732859611511 -0.05419633910059929 0.7989539504051208 -0.26487991213798523 0.0667157769203186 -0.1772918701171875 -0.12283098697662354 -0.07593665271997452 0.11938662827014923 -0.15393389761447906 -0.22820191085338593 0.035950273275375366 0.15641716122627258 0.1041882336139679 -0.12579013407230377 0.03966965898871422 -0.2954992651939392 -0.003986199852079153 0.34841522574424744 0.12265007942914963 -0.03418602794408798 -0.12438371777534485 0.058095790445804596 -0.3626480996608734 0.1850399672985077 0.21461743116378784 -0.3983909487724304 -0.03714446723461151 0.24804382026195526 -0.010754026472568512 0.040440987795591354 0.19757801294326782 0.08904600143432617 -0.19528332352638245 -0.2399788796901703 0.571962833404541 -0.07683119177818298 -0.19979128241539001 0.1745642125606537 -0.1870439052581787 -0.21557804942131042 -0.30672675371170044 0.4442921578884125 -0.1474301517009735 0.24242208898067474 -0.005197569727897644 -0.17193129658699036 0.05686485022306442 0.059240758419036865 -0.08734532445669174 -0.18225061893463135 -0.3258092999458313 -1.5971753597259521 0.3352072238922119 0.04316779598593712 -0.17640623450279236 -0.5232784152030945 0.07404931634664536 0.19845597445964813 0.18985164165496826 0.15136617422103882 0.07770989835262299 0.056261613965034485 0.1806536167860031 0.1374046802520752 -0.7662874460220337 0.0733867734670639 0.328016459941864 0.07586564868688583 -0.3241898715496063 0.2617466151714325 0.055764563381671906 0.14424991607666016 -0.5111509561538696 0.15344110131263733 -0.20206597447395325 0.08785180747509003 -0.14510542154312134 -0.02307102084159851 0.21608702838420868 0.2762783169746399 -0.4201538562774658 0.1039876937866211 -0.029791656881570816 -0.35884997248649597 0.277771919965744 0.20273534953594208 0.310102641582489 -0.13759809732437134 0.14823400974273682 0.005300740711390972 -0.0577884316444397 -0.5159633755683899 -0.12347643077373505 0.0433928482234478 0.2007213532924652 -0.5261521339416504 -0.11108294129371643 0.19697949290275574 -0.04983106255531311 0.2080727070569992 -0.20773009955883026 -0.0625515803694725 0.07198575139045715 0.18692676723003387 0.18509399890899658 0.08387931436300278 0.04582997411489487 0.1018834114074707 -0.19319075345993042 0.1494467854499817 -0.19362148642539978 -0.06361959874629974 0.3799837827682495 0.006469078361988068 -0.22896365821361542 -0.5421894788742065 0.12491949647665024 -0.1608460545539856 0.048948805779218674 -0.31746989488601685 0.15757209062576294 0.04014850780367851 -0.018227241933345795 0.10224082320928574 -0.38050076365470886 0.12329636514186859 -0.04709530994296074 0.23608683049678802 -0.03856680169701576 0.025564059615135193 0.15598857402801514 0.09642352163791656 -0.10322543978691101 0.16795943677425385 -0.16278842091560364 -0.1455385535955429 0.11724156141281128 -0.138398677110672 0.14821138978004456 -0.17189282178878784 0.033798154443502426 0.24217912554740906 -0.3152245879173279 0.09094454348087311 -0.0011030882596969604 0.09259644150733948 0.03423825651407242 0.27743667364120483 0.29453182220458984 -0.42852920293807983 0.43928152322769165 0.09372304379940033 -0.0699213370680809 -0.3556271195411682 -0.26131492853164673 0.011620311997830868 0.030761748552322388 0.13705043494701385 -0.2555121183395386 -0.20064610242843628 0.4294114112854004 0.3395844101905823 1.0119514465332031 0.5866612792015076 0.12275920808315277 0.7237547636032104 0.3637722134590149 -0.020589066669344902 0.005148331634700298 -0.18177399039268494 -0.004187276121228933 -0.0772058367729187 0.01470041275024414 -0.33364662528038025 0.302212119102478 -0.00713927811011672 0.3240371346473694 -0.043738700449466705 0.5336291193962097 -0.11135023087263107 0.19130924344062805 -0.2741720378398895 0.34409165382385254 -0.32273608446121216 -0.10979197919368744 -0.46461719274520874 0.18348413705825806 0.23820632696151733 0.15907365083694458 -0.18995046615600586 -0.08525983989238739 0.36691880226135254 -0.6407673358917236 0.8604923486709595 -0.013916894793510437 -0.5183827877044678 -0.038179680705070496 -0.41411134600639343 -1.169028639793396 0.010355077683925629 0.01965474896132946 -0.07524827867746353 -0.08010222762823105 -0.01691974326968193 0.20118825137615204 -0.3310281038284302 0.15849930047988892 0.08010417222976685 0.6510668992996216 0.1881987750530243 0.17194008827209473 -0.13161197304725647 -0.06504133343696594 0.3787713646888733 -0.09368797391653061 0.3659454584121704 -0.21663829684257507 -0.047429464757442474 -0.12805597484111786 0.11920907348394394 0.12520885467529297 -0.02918890118598938 0.16965839266777039 -0.016738655045628548 0.41286787390708923 0.3196936249732971 0.0712939202785492 0.2345862090587616 0.16509029269218445 0.5247642993927002 -0.034306615591049194 0.19799606502056122 0.146494060754776 -0.05121799558401108 -0.2766011953353882 -0.18033228814601898 0.33664941787719727 -0.19324931502342224 -0.15822559595108032 0.14075854420661926 -0.21518728137016296 -0.29946956038475037 -0.39949333667755127 -0.10610657930374146 -0.24604402482509613 -0.2705088257789612 0.08293679356575012 -0.039250440895557404 0.11218336224555969 -0.05121990665793419 -0.5269719958305359 0.28177666664123535 0.3973710238933563 -0.1520477682352066 0.2627398371696472 -0.04081573337316513 -0.01886451244354248 -0.011465031653642654 -0.302094429731369 -0.22978565096855164 -0.3640825152397156 -0.07545596361160278 0.00899099837988615 0.052875131368637085 0.5851621627807617 0.11359521001577377 0.10301120579242706 -0.1770506501197815 -0.08914198726415634 -0.07349741458892822 -0.013606846332550049 0.2654780149459839 -0.11233343929052353 0.01637018844485283 -0.09318096935749054 0.34551557898521423 -0.0008273891871795058 0.23053118586540222 -0.5167722702026367 -0.03220679238438606 -0.08304839581251144 0.20240527391433716 -0.22683227062225342 0.31132206320762634 -0.4039786756038666 -3.6504311561584473 0.41745004057884216 -0.024390531703829765 0.09171970933675766 0.15103982388973236 0.1285131871700287 0.21182279288768768 -0.1855507493019104 -0.0906200110912323 0.28871092200279236 0.1727970689535141 0.023514216765761375 0.016221454367041588 -0.1004488468170166 0.16567732393741608 -0.2823835015296936 -0.02553768828511238 -0.012075131759047508 0.390048086643219 0.1935916393995285 0.09939207881689072 0.13300126791000366 0.2772544026374817 -0.1987479031085968 -0.011119415983557701 0.17264387011528015 0.10000046342611313 0.015609107911586761 0.1101255938410759 -0.15458524227142334 -0.021598882973194122 -0.005010153166949749 -0.14002960920333862 -0.27980905771255493 -0.16793733835220337 0.5154391527175903 -0.31152433156967163 -0.44347983598709106 -0.0016128619899973273 -0.08186143636703491 0.6891152262687683 0.09359853714704514 0.253294438123703 -1.3224248886108398 -0.11401709169149399 0.0386001393198967 -0.05764881521463394 0.21173714101314545 0.1503557562828064 0.16406336426734924 0.18790201842784882 0.31453853845596313 0.07179207354784012 -0.1449180245399475 0.050439100712537766 -0.3190336227416992 -0.0741182267665863 0.028927495703101158 -0.01885724626481533 0.03724222630262375 0.10030634701251984 -0.05049091577529907 -0.14589843153953552 0.08649903535842896 0.1295824646949768 -0.22749827802181244 -0.4715021848678589 -0.2733282744884491 0.24258840084075928 -0.27748316526412964 0.04111529514193535 0.01305877324193716 -0.17431092262268066 0.2008216381072998 -0.03615478053689003 0.0444941520690918 -0.2594718039035797 0.24858364462852478 -0.22036151587963104 0.16098158061504364 0.1254364252090454 0.4988536536693573 0.1208394318819046 0.021293384954333305 -0.028122534975409508 0.4569111466407776 -0.16893625259399414 -0.16848818957805634 0.2907829284667969 -0.31218859553337097 0.06776309758424759 0.332640141248703 -0.041435837745666504 0.2637852132320404 -0.015407850965857506 0.16628026962280273 0.2939196228981018 0.02706136368215084 2.8928027153015137 0.2942376732826233 -0.13193698227405548 -0.18816989660263062 0.1580403447151184 0.0010524094104766846 -0.049985386431217194 -0.13528035581111908 -0.34932637214660645 -0.04132985696196556 -0.6781017184257507 -0.07691209018230438 0.13456760346889496 -0.44105100631713867 0.10837674140930176 0.5067214369773865 -0.07486845552921295 0.13837240636348724 0.12026256322860718 -0.345120906829834 0.2883710265159607 -0.021880824118852615 0.11732853949069977 0.0014250229578465223 -0.05789375305175781 0.10135583579540253 0.03933297097682953 0.2235632985830307 0.2651973366737366 0.23451291024684906 0.013442954048514366 0.04865287244319916 -0.07759851962327957 0.2718219757080078 -0.12394313514232635 0.22808733582496643 -0.20445561408996582 7.871793746948242 -0.3239549398422241 -0.04821813851594925 0.1727243959903717 0.3799266815185547 0.04916725307703018 -0.02703031152486801 0.04208947718143463 -0.21055364608764648 0.1625317931175232 -0.1865534484386444 -0.1353660374879837 0.24925529956817627 -0.31074339151382446 0.016701074317097664 0.18268495798110962 0.3762540817260742 0.5115715265274048 -0.14101524651050568 -0.13092049956321716 -0.021919962018728256 -0.36214160919189453 0.14494389295578003 0.6894868612289429 -0.3220832943916321 0.15626603364944458 -0.5068447589874268 0.30575621128082275 -0.015556924045085907 -0.007087036967277527 0.15952368080615997 -0.08600069582462311 0.03695569932460785 -0.13952679932117462 -0.005222762934863567 0.10310681909322739 -1.1165261268615723 -0.12850332260131836 0.15230342745780945 0.1512310951948166 -0.1953708380460739 -0.36462563276290894 -0.07078775018453598 -0.03520764410495758 0.2248469442129135 0.1284167468547821 -0.5950852036476135 0.35692524909973145 0.31149983406066895 0.048135578632354736 0.23066210746765137 0.20906758308410645 0.026643771678209305 -0.4228810667991638 -0.06919627636671066 -0.4036184549331665 0.20464853942394257 0.14940860867500305 -0.16063812375068665 -0.5973836183547974 -0.036481983959674835 0.3489399552345276 -0.07274186611175537 0.1464419662952423 0.11814360320568085 -0.08325795829296112 0.2715511918067932 -0.3035588264465332 0.10182669758796692 -0.041412536054849625 -0.0524926595389843 0.18275853991508484 -0.15872855484485626 0.11892344802618027 -0.3382834196090698 0.13400918245315552 -0.46781298518180847 -0.05440547317266464 -0.2309025526046753 -0.05735893175005913 0.157884418964386 0.2553155720233917 0.051468707621097565 0.07318910211324692 -0.08360517024993896 0.15776953101158142 0.18306705355644226 0.2503352165222168 -0.20281046628952026 -0.10193460434675217 0.10563912242650986 -0.08302951604127884 -0.0019453715067356825 -0.48959285020828247 0.451721727848053 0.12753926217556 -0.23193441331386566 0.1305186152458191 0.1945773810148239 -0.09625428915023804 -0.28966808319091797 0.2600642442703247 -0.2155815213918686 0.3992587924003601 0.04326342046260834 0.12244276702404022 -0.018499497324228287 -0.47348159551620483 -0.07190151512622833 -0.01529622357338667 0.09119345992803574 0.43649357557296753 0.29314661026000977 0.08345730602741241 0.037147920578718185 -0.6055225729942322 -0.007309849839657545 0.09868256747722626 0.1962757110595703 0.7387003898620605 -0.2725551724433899 0.06925897300243378 0.08592750877141953 -0.34355807304382324 0.10745452344417572 -0.035371460020542145 -0.09950898587703705 0.44682836532592773 0.4013299345970154 0.027175847440958023 -0.0873359739780426 -0.16803711652755737 0.12137435376644135 0.06811727583408356 0.1484258472919464 -0.4603157937526703 0.17001795768737793 -0.10447942465543747 -0.16605964303016663 0.04969716817140579 -0.13345204293727875 0.18468865752220154 -0.00736111169680953 -0.406383216381073 -0.20381377637386322 -0.17712156474590302 -0.2897568345069885 0.13286004960536957 0.15963248908519745 -0.08946450054645538 -0.12167977541685104 -0.08359312266111374 0.00647685956209898 0.13939186930656433 0.02971917949616909 0.29541194438934326 0.04115273058414459 0.5248937606811523 0.15267375111579895 0.05924927815794945 -0.02883198671042919 -0.5946455001831055 -0.08385346829891205 -0.581545352935791 -0.1618378758430481 0.02779136225581169 -0.19438396394252777 -0.202069491147995 0.28388404846191406 -0.029361866414546967 0.028744598850607872 -0.006468018516898155 -0.026378590613603592 0.20418421924114227 0.6632185578346252 -0.07187008112668991 0.20026537775993347 -0.6619033813476562 0.10888921469449997 0.19425839185714722
node_43	0.05184388905763626 0.18085244297981262 0.31010836362838745 0.09548759460449219 0.5804626941680908 -0.5239739418029785 0.14108803868293762 0.26151224970817566 -0.26299431920051575 -0.11106006801128387 -0.21661166846752167 0.3581361770629883 0.4572523236274719 0.09715056419372559 0.4138680100440979 -0.47434157133102417 0.753825843334198 -0.1877126693725586 0.0830482542514801 0.19045811891555786 0.09631465375423431 -0.020576130598783493 0.09054335206747055 0.2922792136669159 -0.5117904543876648 -0.022914383560419083 0.4627913236618042 -0.05469135567545891 0.16861552000045776 0.0342133454978466 -0.128714919090271 0.27496418356895447 0.13918918371200562 0.22924993932247162 -0.2051427811384201 -0.09168271720409393 -0.5062574148178101 0.047825079411268234 0.2534544765949249 0.2786753177642822 -0.34510159492492676 -0.20769928395748138 0.18184225261211395 0.001727196155115962 0.1578768938779831 0.0980726107954979 -0.010581379756331444 -0.1940913200378418 0.1259918063879013 0.0742747038602829 -0.007582587655633688 -0.2202955186367035 -0.15353088080883026 0.3158874213695526 -0.052317649126052856 0.08850406110286713 -0.2886115312576294 0.007464488502591848 0.350796639919281 -0.026783419772982597 0.050091858953237534 1.012324333190918 0.3045668303966522 0.061371397227048874 0.0640893429517746 0.1361396312713623 -0.19837145507335663 -0.32924580574035645 -0.08634715527296066 0.05000744387507439 -0.016386104747653008 0.060707464814186096 0.08546947687864304 -0.14015816152095795 -0.10305559635162354 0.11499442905187607 0.3181571960449219 -1.7252922058105469 0.009702494367957115 0.7139203548431396 0.04259560629725456 -0.21883802115917206 0.4570907950401306 -0.3901386260986328 0.1306200623512268 -0.48346221446990967 0.32756757736206055 -0.07668682187795639 0.11322899162769318 0.20245163142681122 0.23161131143569946 0.2674904465675354 -0.283466637134552 0.013043581508100033 -0.07090934365987778 0.2203555405139923 -0.2584155797958374 0.23959660530090332 -0.3462070822715759 0.09520234912633896 -0.1139022558927536 0.03236880898475647 -0.005533176474273205 -0.19074688851833344 0.19261977076530457 -0.08583977073431015 -0.13849477469921112 -0.21478532254695892 0.25402653217315674 0.386141300201416 0.38599610328674316 0.02378411591053009 0.057657189667224884 0.058003347367048264 0.008602850139141083 0.08581620454788208 0.025972064584493637 0.011072593741118908 0.2450336217880249 0.1632779836654663 0.20868083834648132 -0.17169825732707977 -0.06652431190013885 -0.2078220546245575 -0.007760688662528992 0.5236544609069824 0.3050709068775177 -0.2672935128211975 -0.1534820795059204 -0.22312426567077637 -0.24815504252910614 -0.907641589641571 -0.14571863412857056 0.06338876485824585 0.11102396249771118 0.32074639201164246 -0.00042465454316698015 -0.16473448276519775 0.12051370739936829 0.12588348984718323 -0.060912296175956726 0.2619924247264862 0.15079444646835327 0.12889406085014343 0.5212373733520508 -0.054093800485134125 -0.06060400605201721 -0.1688811033964157 0.007243601605296135 0.1060018390417099 0.15435542166233063 0.41094672679901123 0.004776462912559509 0.37656116485595703 -0.32193511724472046 0.8788022994995117 -0.13301855325698853 0.18035034835338593 -0.19084012508392334 0.42943036556243896 0.1284286379814148 0.04251846298575401 0.6074506640434265 0.15341095626354218 0.04574429243803024 0.021588783711194992 -0.1890536993741989 0.060089170932769775 -0.12144623696804047 0.7514860033988953 -0.18847888708114624 -0.09715388715267181 -0.23310725390911102 -0.021261602640151978 -0.19297663867473602 0.19897565245628357 -0.3023872375488281 -0.10604333877563477 -0.06471116840839386 0.16330161690711975 0.2512596845626831 -0.11002504080533981 -0.023505810648202896 -0.2944464087486267 -0.03639815002679825 0.13966292142868042 0.25395214557647705 0.0007760723819956183 -0.1981937289237976 0.12397249042987823 -0.42250022292137146 0.14363431930541992 0.14904513955116272 -0.4857461452484131 -0.020484773442149162 0.32858821749687195 -0.05425392836332321 -0.024394085630774498 0.27742063999176025 0.04681434854865074 -0.06068423390388489 -0.300304114818573 0.5535925626754761 0.1139022707939148 -0.06745004653930664 0.164789080619812 -0.22712671756744385 -0.14515994489192963 -0.24590426683425903 0.16696318984031677 -0.2607533633708954 0.4559910297393799 0.02770083025097847 -0.07315441220998764 0.09375395625829697 0.27756717801094055 -0.33776649832725525 -0.060893431305885315 -0.3521380126476288 -1.4343867301940918 0.2940942645072937 -0.27136844396591187 -0.32608556747436523 -0.6869325637817383 0.030335692688822746 0.27077358961105347 0.0001796334981918335 0.022092824801802635 0.03060256689786911 0.06404852122068405 0.10481377691030502 0.1198449581861496 -0.5959213972091675 0.04191971942782402 0.4592709541320801 0.11529277265071869 -0.4671088457107544 0.30387991666793823 0.09411399066448212 0.22201499342918396 -0.13662898540496826 0.09568732976913452 -0.08599542826414108 0.12673194706439972 -0.07039132714271545 -0.3828791379928589 0.05521654337644577 0.5282158255577087 -0.25702834129333496 0.0767916887998581 -0.19445237517356873 0.07177606225013733 0.20702289044857025 0.11751901358366013 0.4388539791107178 -0.011715146712958813 0.12692658603191376 0.005697846412658691 -0.04516883194446564 -0.5278398394584656 -0.15431353449821472 -0.022893428802490234 0.14950498938560486 -0.5127397775650024 -0.2777790129184723 -0.027564480900764465 -0.030155999585986137 0.17881077527999878 -0.3254450857639313 0.08101465553045273 0.1837979555130005 0.08325235545635223 0.07469433546066284 0.18658575415611267 0.0644766241312027 0.19888699054718018 0.028599634766578674 0.09129661321640015 -0.10058500617742538 0.0066368780098855495 0.3962060809135437 0.04003863036632538 -0.04703889414668083 -0.3289961814880371 0.17650583386421204 0.08166858553886414 0.03484440967440605 -0.3091561794281006 0.19452697038650513 -0.013253427110612392 -0.11030494421720505 0.16236895322799683 -0.6149530410766602 0.08708247542381287 -0.11827737092971802 0.15593619644641876 0.04355796426534653 0.22670309245586395 0.04878917336463928 0.06272772699594498 -0.03501344472169876 0.07267484068870544 -0.16990607976913452 -0.21039395034313202 0.04406864196062088 0.05636422336101532 0.18967609107494354 -0.2775355577468872 0.1561092734336853 0.39026960730552673 -0.30003926157951355 0.35536855459213257 -0.0319029800593853 0.275302529335022 0.16541317105293274 0.13182854652404785 0.2624945342540741 -0.44969722628593445 0.4551578462123871 0.1674598902463913 -0.02382233366370201 -0.16912692785263062 -0.3877837061882019 0.00429204385727644 -0.1031801626086235 0.24147474765777588 -0.09637220948934555 -0.06391357630491257 0.486375093460083 0.359561026096344 1.1036536693572998 0.6487712860107422 0.18631170690059662 0.39450520277023315 0.25134605169296265 -0.03281370922923088 -0.07143203914165497 -0.19415250420570374 -0.012139080092310905 -0.19214439392089844 -0.04875965043902397 -0.5148113369941711 0.23267674446105957 -0.009911651723086834 0.3070824146270752 -0.055290352553129196 0.5169723033905029 -0.05405030772089958 0.207195445895195 -0.25386863946914673 0.23191460967063904 -0.29281502962112427 0.1156342476606369 -0.5439120531082153 0.36388763785362244 0.30724018812179565 0.11467989534139633 -0.25359484553337097 -0.05872324854135513 0.45280998945236206 -0.3378862738609314 0.7992584109306335 -0.0683993473649025 -0.5001808404922485 -0.06420614570379257 -0.24936896562576294 -1.345940351486206 0.16177695989608765 0.1310669481754303 0.05611243471503258 -0.0664840042591095 -0.12599071860313416 0.17998334765434265 -0.20316949486732483 0.07307228446006775 -0.016231443732976913 0.5696226358413696 0.18505403399467468 0.1655171662569046 -0.28167593479156494 0.03581470251083374 0.3377110958099365 -0.012530744075775146 0.2709331214427948 -0.2674410343170166 -0.02385556697845459 -0.14443160593509674 0.13727353513240814 0.12883900105953217 -0.10003407299518585 0.21962368488311768 -0.09269031137228012 0.2400292456150055 0.3661847710609436 -0.06250738352537155 0.2469066083431244 0.1178121417760849 0.2829775810241699 -0.18050828576087952 0.18074211478233337 0.11559643596410751 -0.23165123164653778 -0.20756959915161133 0.25778546929359436 0.4322021007537842 0.023731812834739685 -0.01088042464107275 0.0665053129196167 -0.32814058661460876 -0.6099710464477539 -0.30777934193611145 -0.2428479790687561 -0.27754223346710205 -0.2491418421268463 0.0886407122015953 -0.1145319789648056 0.30958452820777893 -0.26821523904800415 -0.4467846155166626 0.23545965552330017 0.38897642493247986 -0.031564246863126755 0.3418446481227875 -0.025909341871738434 -0.20516572892665863 0.04192810505628586 -0.26069387793540955 -0.3422377109527588 -0.2116619348526001 -0.13212256133556366 -0.015478159300982952 -0.022782370448112488 0.6536008715629578 0.012594129890203476 0.09195127338171005 -0.032365720719099045 -0.013558606617152691 -0.062060557305812836 -0.026353292167186737 0.3120338022708893 -0.02545536682009697 -0.09228093922138214 -0.17116251587867737 0.20494487881660461 -0.07094019651412964 0.44161614775657654 -0.5235941410064697 -0.024028580635786057 -0.2875075936317444 0.25230124592781067 -0.04988463222980499 0.25588810443878174 -0.5679455995559692 -3.3134772777557373 0.341170996427536 -0.1326933205127716 -0.06894709169864655 0.16575755178928375 -0.05663071200251579 0.2246352732181549 -0.18363583087921143 -0.11774682253599167 0.23506572842597961 0.17774009704589844 0.1371942162513733 -0.08442972600460052 -0.047034189105033875 0.08785172551870346 -0.24274632334709167 0.08149366080760956 0.21034768223762512 0.5258533954620361 0.08735974878072739 0.15254619717597961 0.1926126480102539 0.1990044116973877 -0.0853516012430191 -0.08759409189224243 0.2810482084751129 0.1597779095172882 0.0656673014163971 0.16238412261009216 -0.2793421745300293 -0.077965147793293 0.029173439368605614 -0.227672278881073 -0.3994489908218384 -0.20537933707237244 0.4553849697113037 -0.38740795850753784 -0.31941840052604675 0.07801863551139832 -0.1883423626422882 0.7148351669311523 0.08906744420528412 0.26836901903152466 -1.4667994976043701 -0.15028570592403412 -0.3553621768951416 0.08667851984500885 0.1506860852241516 0.1150299534201622 0.09970977157354355 0.23389539122581482 0.19718246161937714 0.1367480754852295 -0.34166619181632996 -0.07960741221904755 -0.33196794986724854 -0.06832873821258545 0.05567100644111633 0.2071070671081543 0.07030969858169556 0.06598662585020065 0.033478427678346634 -0.14768868684768677 0.005909888073801994 0.2022886723279953 -0.21597132086753845 -0.7473484873771667 -0.3284214437007904 0.1853751391172409 -0.28700777888298035 0.058376144617795944 -0.006687491666525602 -0.15275651216506958 0.2409997582435608 -0.08840815722942352 -0.13689564168453217 -0.15187211334705353 0.07899165153503418 -0.17959599196910858 0.1571187824010849 0.11542614549398422 0.2969949245452881 -0.06686472147703171 -0.12659713625907898 -0.09270098060369492 0.3790505528450012 -0.05095576494932175 -0.32504189014434814 0.40455612540245056 -0.3883989453315735 -0.03678704798221588 0.32858458161354065 -0.06151527166366577 0.020997604355216026 -0.15432992577552795 0.07928623259067535 0.06655231863260269 -0.12261730432510376 2.649580955505371 0.35677570104599 -0.25574249029159546 -0.13573408126831055 0.025790080428123474 0.04550185427069664 -0.04902585968375206 -0.11840405315160751 -0.2985559403896332 -0.017269153147935867 -0.16563862562179565 0.005207484122365713 0.15773090720176697 -0.5156737565994263 0.3387559652328491 0.6399157047271729 -0.08406271785497665 0.16878944635391235 0.06391248106956482 -0.7716338038444519 0.23408740758895874 -0.03422190248966217 -0.19503405690193176 0.08706023544073105 -0.042240336537361145 0.13064295053482056 0.1530384123325348 0.23575690388679504 0.24821226298809052 0.18537402153015137 0.07503359019756317 -0.05018322914838791 -0.2438734769821167 0.20832166075706482 0.0025817877613008022 0.2599838376045227 -0.2668716609477997 9.2881441116333 -0.14915995299816132 -0.13252726197242737 0.18781805038452148 0.2720823884010315 0.14461351931095123 0.04284292459487915 0.213188037276268 -0.15765729546546936 0.1171782836318016 -0.03476344048976898 -0.2121988832950592 0.09919586032629013 -0.35423731803894043 -0.07345885038375854 0.3138364255428314 0.4038406014442444 0.3624657094478607 -0.025537846609950066 -0.06704360246658325 -0.1135733351111412 -0.24520418047904968 0.18262961506843567 0.6885868310928345 -0.19665956497192383 0.3065587282180786 -0.13580577075481415 0.28479671478271484 -0.06320556253194809 0.008736856281757355 0.041563134640455246 -0.005950301885604858 0.08637776225805283 0.06951871514320374 0.14417175948619843 0.12880204617977142 -0.754653811454773 0.10020899027585983 0.010256201960146427 0.09154137223958969 -0.27572423219680786 -0.19997267425060272 -0.07239280641078949 0.05248080939054489 0.16247886419296265 0.13509121537208557 -0.4278790354728699 0.23973560333251953 0.17906391620635986 0.12323544919490814 0.03948482498526573 0.0589946024119854 0.09126541018486023 -0.5117286443710327 0.043968021869659424 -0.30198925733566284 0.11715550720691681 -0.0025880634784698486 -0.15280041098594666 -0.4977087378501892 0.0078083425760269165 0.11802835762500763 -0.20824043452739716 0.3240405023097992 0.3092968463897705 -0.18763552606105804 0.3304443359375 -0.18289002776145935 0.4376024007797241 0.04002804309129715 -0.07588602602481842 0.08483728021383286 -0.12011881172657013 0.048343777656555176 -0.3999338150024414 -0.04401582106947899 0.30664393305778503 -0.14713940024375916 -0.10188747942447662 -0.22572097182273865 0.13949735462665558 0.39365649223327637 -0.03997696936130524 -0.05834478139877319 -0.23309051990509033 0.1560477614402771 0.1570514291524887 0.09116377681493759 -0.03592361509799957 0.05054863542318344 0.10925909876823425 -0.15274488925933838 -0.07326896488666534 -0.3538539409637451 0.4474981725215912 0.05734844505786896 -0.14028623700141907 0.3214620351791382 0.1701001524925232 -0.10476788133382797 -0.2779289484024048 0.23563405871391296 -0.30090516805648804 0.39468619227409363 0.16070860624313354 0.08759449422359467 0.16329628229141235 -0.4526745676994324 -0.19509658217430115 0.06922435760498047 0.01674221083521843 0.3398957848548889 0.010978713631629944 0.11983954161405563 0.06434944272041321 -0.5113057494163513 -0.0009635476162657142 0.10671979188919067 0.18850982189178467 0.6985213160514832 -0.23162071406841278 -0.0723918080329895 0.17439410090446472 -0.4540507197380066 0.08156903833150864 0.14049385488033295 -0.10987474024295807 0.24228137731552124 0.3197055459022522 -0.007372944615781307 -0.05745091289281845 -0.06742514669895172 -0.0073450407944619656 0.15709371864795685 0.12303885072469711 -0.42012202739715576 0.0876840204000473 -0.17855748534202576 -0.09547597169876099 0.10568542778491974 -0.06002923473715782 0.0890529602766037 -0.13813716173171997 -0.7878033518791199 0.004721830599009991 -0.3504672646522522 -0.4678414762020111 0.5753653049468994 0.28896069526672363 -0.08337828516960144 0.005361609160900116 -0.04117713123559952 -0.029959440231323242 -0.04127388447523117 -0.2080528736114502 0.2771686017513275 0.04765984043478966 0.5130019187927246 0.0550699308514595 0.017659014090895653 0.08134683221578598 -0.6726808547973633 -0.2862474322319031 -0.8222009539604187 0.03814973682165146 -0.07538191974163055 0.062054138630628586 -0.16800718009471893 0.4444344937801361 0.05884787067770958 0.1234872043132782 -0.1389257311820984 -0.17034345865249634 0.15699711441993713 0.6129388213157654 -0.17448076605796814 0.047789350152015686 -0.781600832939148 0.11403229087591171 0.07695215940475464
node_31	0.017514735460281372 0.16935303807258606 0.2009550780057907 0.09019004553556442 0.4514915347099304 -0.4787557125091553 0.03882715851068497 0.19552204012870789 -0.18236321210861206 -0.2997515797615051 -0.1264493763446808 0.42003363370895386 0.3299749493598938 -0.21813035011291504 0.33477815985679626 -0.061685383319854736 0.6517122387886047 -0.07112929224967957 0.11522295325994492 0.15809158980846405 0.022015005350112915 0.07164470851421356 0.013712487183511257 0.33320778608322144 -0.35797303915023804 0.07050417363643646 0.4966774880886078 -0.07509882003068924 0.12882673740386963 0.1461857110261917 -0.1735154241323471 0.2248920053243637 0.03731891140341759 0.16254960000514984 -0.18069812655448914 0.020740758627653122 -0.2730189561843872 0.07480814307928085 0.29209715127944946 0.043788887560367584 -0.3675483167171478 -0.3699199855327606 0.2187175750732422 -0.11118953675031662 0.17402979731559753 0.17329838871955872 0.12025147676467896 0.051104675978422165 0.16766101121902466 0.059509433805942535 0.05477508530020714 -0.11902695149183273 -0.20361153781414032 0.3368356227874756 -0.23152735829353333 0.09385751187801361 -0.2255164235830307 -0.05798378586769104 0.2036460041999817 -0.04997732862830162 0.05751648545265198 0.4113982319831848 0.21018391847610474 0.003015037626028061 0.005239774938672781 0.15011821687221527 -0.02506416104733944 -0.3257583975791931 0.07333099097013474 0.13592706620693207 -0.024502389132976532 -0.1348620355129242 0.14095039665699005 -0.07805466651916504 0.0432300828397274 0.3158687353134155 0.2627755105495453 -1.8791470527648926 -0.008703559637069702 0.39880284667015076 0.050189223140478134 -0.3060731887817383 0.6383858919143677 -0.02004159986972809 -0.023418618366122246 -0.7189497947692871 0.30963611602783203 -0.06190044432878494 0.11690521240234375 0.2630651891231537 0.31626906991004944 0.18988393247127533 -0.25772982835769653 -0.04231119155883789 -0.15264907479286194 0.2695028483867645 -0.07325407862663269 -0.20916098356246948 -0.3205200731754303 -0.06760355830192566 -0.19637936353683472 0.007095581851899624 -0.04250256344676018 -0.14318470656871796 0.25432848930358887 -0.018686138093471527 -0.15350773930549622 -0.24763016402721405 0.19629327952861786 0.42039328813552856 0.25079089403152466 0.14074456691741943 0.0914573222398758 -0.047615379095077515 -0.07854736596345901 0.08619184792041779 0.14603671431541443 0.005585478153079748 0.17175421118736267 0.33727091550827026 0.09494806826114655 -0.1407991647720337 -0.11040276288986206 -0.13652876019477844 0.24036085605621338 0.36818355321884155 0.4387575089931488 -0.09987171739339828 -0.10139351338148117 -0.23970457911491394 -0.17867180705070496 -0.6740166544914246 -0.2272634506225586 -0.22695176303386688 -0.07299625873565674 0.32130658626556396 0.051322728395462036 -0.1094953864812851 0.13639846444129944 -0.0072853839956223965 -0.2686113119125366 0.11503751575946808 0.24212810397148132 0.19524064660072327 0.6679381132125854 -0.17279724776744843 0.0702095776796341 -0.0978183001279831 -0.10384444892406464 0.13332293927669525 -0.02311079204082489 0.39183562994003296 0.035516347736120224 0.4175451695919037 -0.31200847029685974 0.9634321928024292 -0.200004443526268 -0.0363168902695179 -0.2546223998069763 0.1877283751964569 0.1609772890806198 -0.13089759647846222 0.539510190486908 0.2184755802154541 0.0953419953584671 -0.04574614018201828 -0.20382022857666016 -0.06585399061441422 0.082701176404953 0.6858512163162231 -0.2638251483440399 -0.1090630516409874 0.010467546992003918 -0.07721194624900818 -0.1800801157951355 0.12759260833263397 -0.33250412344932556 -0.15840394794940948 0.10849954932928085 -0.02502405270934105 -0.023753847926855087 0.009873095899820328 0.07470199465751648 -0.24816259741783142 0.04787210375070572 0.2890218496322632 0.225652813911438 -0.20910243690013885 -0.1079581007361412 0.04343777522444725 -0.2207798957824707 0.2888874113559723 0.18492799997329712 -0.3046680688858032 0.03641115874052048 0.3334737718105316 0.010479184798896313 0.08262346684932709 0.18448756635189056 -0.03766211122274399 -0.21615827083587646 -0.3710162043571472 0.5168496370315552 -0.1027727723121643 -0.15607094764709473 0.0405777208507061 -0.2870326340198517 -0.28445643186569214 -0.30010461807250977 0.30513089895248413 -0.3296264111995697 0.5391867756843567 -0.031048191711306572 -0.03560355678200722 0.08853476494550705 0.18123409152030945 -0.22214631736278534 0.11305943131446838 -0.38527652621269226 -1.1140458583831787 0.3140224814414978 0.024026667699217796 -0.2972264885902405 -0.6533563137054443 -0.026045065373182297 0.25311702489852905 0.11590992659330368 0.058213602751493454 0.20338937640190125 0.08124233037233353 0.02858315408229828 0.14057990908622742 -0.507724940776825 0.08574838936328888 0.15088914334774017 2.03909985430073e-05 -0.14861246943473816 0.18661141395568848 0.018875695765018463 0.1919769048690796 -0.49376222491264343 0.06446519494056702 -0.20316074788570404 0.04467033967375755 -0.05686962231993675 -0.15691696107387543 0.1590544879436493 0.07453164458274841 -0.3291444182395935 0.08005701005458832 -0.104733906686306 -0.20593369007110596 0.14518585801124573 0.14613698422908783 0.15386435389518738 -0.08858271688222885 0.17252390086650848 -0.014296755194664001 -0.08303965628147125 -0.26489153504371643 -0.10924183577299118 0.03678441047668457 0.13875755667686462 -0.4658859372138977 -0.06724319607019424 -0.01367906667292118 -0.024867240339517593 0.019602518528699875 -0.13262557983398438 -0.021857555955648422 0.12352066487073898 0.13039563596248627 0.18654124438762665 0.011132928542792797 -0.007297883741557598 0.021166399121284485 -0.3174402415752411 2.1470710635185242e-05 -0.03924917057156563 -0.10002582520246506 0.2452315092086792 0.14726203680038452 -0.32782503962516785 -0.47850000858306885 -0.014726480469107628 -0.011947746388614178 0.10448797792196274 -0.30645751953125 0.1171770915389061 0.044082604348659515 -0.09380559623241425 0.11499976366758347 -0.2811853289604187 0.19656817615032196 -0.07992054522037506 0.11032384634017944 0.06828828155994415 0.04775004833936691 0.0884416326880455 0.13434652984142303 0.06392844766378403 0.2847977876663208 -0.16006383299827576 -0.09903539717197418 0.05369728058576584 -0.08721642941236496 -0.10565122216939926 -0.1743302047252655 0.075716033577919 0.2698635458946228 -0.18203887343406677 0.21274659037590027 0.04996379464864731 0.09249240159988403 0.04170664772391319 0.31043267250061035 0.31217843294143677 -0.3818228244781494 0.4778417944908142 0.11842214316129684 -0.03815092891454697 -0.2513027787208557 -0.39270731806755066 0.01098785363137722 -0.11460106074810028 0.23138749599456787 -0.14672823250293732 -0.1382235437631607 0.3253093957901001 0.485602468252182 0.8760043978691101 0.36685335636138916 0.15083518624305725 0.42995601892471313 0.1611529439687729 -0.13529549539089203 -0.04920369014143944 -0.1969931423664093 -0.11692434549331665 -0.007626444101333618 -0.0231194868683815 -0.31479912996292114 0.29434168338775635 0.08322930335998535 0.24839630722999573 -0.030941657721996307 0.4818454682826996 -0.15687640011310577 0.2929339110851288 -0.18942146003246307 0.2632818818092346 -0.3904206156730652 -0.054736703634262085 -0.540658175945282 0.23798006772994995 0.252282977104187 -0.028809500858187675 -0.17134106159210205 -0.04120037704706192 0.08346176147460938 -0.4306662082672119 0.6694655418395996 -0.03898019343614578 -0.49317777156829834 -0.1353815495967865 -0.3885805606842041 -0.9333989024162292 0.07193310558795929 0.023316584527492523 -0.016989830881357193 -0.01673026569187641 0.05470407009124756 0.21188697218894958 -0.1040639728307724 0.21402296423912048 0.18575219810009003 0.5030801892280579 0.11292056739330292 0.10956387221813202 -0.42265889048576355 -0.18018655478954315 0.38312825560569763 -0.034897394478321075 0.3323402404785156 -0.10797423124313354 -0.10142415761947632 -0.1670023649930954 0.2804890275001526 0.1281924545764923 -0.08402445912361145 0.09136347472667694 -0.0157309677451849 0.2987077832221985 0.42563721537590027 -0.0009849593043327332 0.25299766659736633 0.2337348759174347 0.4310544729232788 0.057060688734054565 0.08957497775554657 0.2113865464925766 0.08519360423088074 -0.3665998578071594 0.027572747319936752 0.33519405126571655 -0.17452499270439148 -0.014790719375014305 0.13249436020851135 -0.1554928421974182 -0.5335671901702881 -0.2942134737968445 -0.08699218928813934 -0.24685625731945038 -0.2869146168231964 -0.04832610487937927 -0.05782078951597214 0.3598005175590515 -0.006992131471633911 -0.36052268743515015 0.23995959758758545 0.38606926798820496 -0.08577826619148254 0.2295326441526413 0.009521253407001495 -0.28788241744041443 -0.027544062584638596 -0.2705608010292053 -0.21328803896903992 -0.4520293176174164 0.012734155170619488 0.010030041448771954 -0.041343625634908676 0.48530685901641846 0.06454397737979889 0.05299260467290878 -0.13073745369911194 0.03355253487825394 -0.14559286832809448 0.06779511272907257 0.29768627882003784 -0.20231644809246063 -0.007304586470127106 -0.20643079280853271 0.22180026769638062 -0.07404017448425293 0.2248750776052475 -0.3356306552886963 -0.027957577258348465 -0.1704915463924408 0.04914186894893646 -0.16826194524765015 0.3182675540447235 -0.49205833673477173 -2.4617831707000732 0.24200008809566498 0.07808274030685425 -0.00303349900059402 0.07949262857437134 0.04523949325084686 0.19793227314949036 -0.1565893441438675 0.09976314753293991 0.15553562343120575 0.15201212465763092 0.019944433122873306 -0.010726625099778175 -0.042828671634197235 0.2038261890411377 -0.12641757726669312 0.0424111932516098 0.23270070552825928 0.3555094599723816 0.0949113592505455 0.0840986892580986 0.2592273950576782 0.30960747599601746 -0.07144973427057266 -0.0969470739364624 0.03510146588087082 0.10293225944042206 0.022922774776816368 0.029718805104494095 -0.11408033967018127 -0.08258986473083496 0.07624216377735138 -0.13327035307884216 -0.3624669909477234 -0.0793549194931984 0.4719774127006531 -0.1882936805486679 -0.2657034993171692 0.1898709386587143 -0.1702265441417694 0.7176918983459473 0.10872404277324677 0.22199249267578125 -1.0499802827835083 -0.06578037142753601 0.10371673107147217 -0.02864878624677658 0.1480409801006317 0.0816565752029419 0.2693065404891968 0.08989822864532471 0.2512931823730469 0.05467476695775986 -0.2028861939907074 0.07167808711528778 -0.24321159720420837 -0.0950283408164978 0.04560825228691101 0.150840163230896 0.15004566311836243 0.04755634814500809 0.014647753909230232 -0.2654778063297272 -0.06360164284706116 0.1774015873670578 0.014852735213935375 -0.4519531726837158 -0.2637001872062683 0.2655501365661621 -0.30991482734680176 0.055223725736141205 0.07390884310007095 -0.1690414994955063 0.1474684327840805 -0.014057646505534649 -0.07123490422964096 -0.024040227755904198 0.31928592920303345 -0.2094925493001938 0.1538693606853485 0.016432277858257294 0.48533424735069275 -0.05165506526827812 -0.11545751988887787 -0.11924684047698975 0.3695238530635834 -0.14324158430099487 -0.135312020778656 0.28244125843048096 -0.24923351407051086 -0.14835742115974426 0.32701146602630615 0.14163091778755188 0.11558198928833008 -0.09651031345129013 0.1205441951751709 0.10968925803899765 -0.11360065639019012 1.1748769283294678 0.42491406202316284 -0.2170230597257614 -0.21485358476638794 0.1960502564907074 -0.0228129830211401 -0.15832647681236267 -0.23590892553329468 -0.3635588586330414 0.0592946819961071 -0.2792135775089264 0.027231840416789055 0.11326240003108978 -0.3252788782119751 0.2466340959072113 0.5785267949104309 -0.10174015164375305 0.16659288108348846 0.0466415137052536 -0.2788485884666443 0.19342975318431854 -0.12480094283819199 0.3317902684211731 -0.19811034202575684 -0.10222223401069641 0.045691944658756256 0.12267963588237762 0.23760472238063812 0.21221086382865906 0.21858274936676025 -0.040145739912986755 -0.014147973619401455 -0.2892162799835205 0.2925156354904175 -0.07311391830444336 0.31969648599624634 -0.12309983372688293 10.374481201171875 -0.14092423021793365 0.06813239306211472 0.10263548791408539 0.1539124846458435 0.1742074191570282 0.08940650522708893 0.05967366695404053 -0.10948436707258224 0.0027019258122891188 -0.1955849975347519 -0.12112929672002792 0.2772999703884125 -0.23138651251792908 0.017591776326298714 0.13950803875923157 0.5083091259002686 0.35986196994781494 -0.06410878896713257 -0.14906398952007294 0.0074224695563316345 -0.17699669301509857 0.1693861484527588 0.46667060256004333 -0.192758247256279 0.12861183285713196 -0.3751523494720459 0.18420952558517456 -0.021814970299601555 0.11924457550048828 0.10360538214445114 -0.024538680911064148 0.20802152156829834 -0.011160409078001976 0.06014030799269676 -0.026798222213983536 -0.6821938753128052 0.014460086822509766 0.15270428359508514 0.10816844552755356 -0.21514326333999634 -0.18979412317276 -0.13536503911018372 -0.0769939050078392 0.17140106856822968 0.08771449327468872 -0.44501954317092896 0.28212106227874756 0.16425049304962158 0.027287719771265984 0.03248049318790436 0.046975478529930115 -0.016665294766426086 -0.3269728422164917 -0.062420666217803955 -0.5408264398574829 0.1844048798084259 0.14972592890262604 -0.15712419152259827 -0.47295039892196655 0.08503995835781097 0.10488506406545639 -0.10912810266017914 0.20729488134384155 0.2596338987350464 -0.009971966966986656 0.3359545171260834 -0.16586145758628845 0.057408612221479416 -0.07015829533338547 -0.12205839157104492 0.10785470902919769 -0.0731479823589325 0.06639255583286285 -0.36190158128738403 -0.008983244188129902 0.03390725329518318 -0.20680002868175507 -0.16960673034191132 -0.2899462580680847 0.07645910978317261 0.2950536608695984 0.10104640573263168 -0.06560880690813065 -0.23961040377616882 0.1358022391796112 0.08167870342731476 0.14659205079078674 -0.03434837982058525 -0.01348298043012619 -0.030287936329841614 -0.1668154001235962 -0.2008599042892456 -0.22094331681728363 0.38514071702957153 0.05286524444818497 -0.13187097012996674 0.29636627435684204 0.17872115969657898 -0.08433543890714645 -0.38418495655059814 0.23306918144226074 -0.22041484713554382 0.38541707396507263 0.021987050771713257 0.0895223468542099 0.09779849648475647 -0.29436609148979187 -0.16095012426376343 0.06302204728126526 0.07299505919218063 0.5570525527000427 0.24181807041168213 0.1884876787662506 -0.03818514198064804 -0.40557605028152466 0.09605328738689423 0.06407676637172699 0.08110837638378143 0.7807124853134155 -0.18160128593444824 0.0500817596912384 0.22501933574676514 -0.35023200511932373 -0.0312048327177763 0.06503015756607056 0.005792540963739157 0.305036336183548 0.2934468984603882 -0.11512027680873871 -0.18345260620117188 -0.05840018019080162 0.2845380902290344 0.019592303782701492 0.0075431629084050655 -0.3367118537425995 0.2593938112258911 -0.11559092253446579 0.012027214281260967 0.15938036143779755 -0.08495919406414032 0.13436757028102875 -0.2445724904537201 -0.5081558227539062 -0.09994953125715256 -0.18649211525917053 -0.25971269607543945 0.13089081645011902 0.18269912898540497 -0.13697749376296997 -0.13436804711818695 0.0743083581328392 -0.09533654898405075 0.05382693558931351 -0.11020515859127045 0.40467071533203125 0.02900264412164688 0.5529192686080933 0.05268697440624237 -0.0186904426664114 -0.26892325282096863 -0.4305911958217621 -0.11605262011289597 -0.42997559905052185 -0.0912303477525711 0.046273909509181976 -0.2526063621044159 -0.1315089911222458 0.29631277918815613 -0.09183286130428314 0.15574681758880615 -0.15966662764549255 -0.31008219718933105 0.13801732659339905 0.46410417556762695 -0.16586318612098694 0.04261466860771179 -0.6098345518112183 0.2270958423614502 0.1696344017982483
