node_20	0.10515930503606796 0.06815748661756516 0.09778793901205063 0.10300783812999725 0.7066624164581299 -0.3936304450035095 0.026482179760932922 0.24108348786830902 -0.06743547320365906 -0.33185985684394836 0.028197087347507477 0.5697256326675415 0.48627370595932007 -0.17671886086463928 0.1616814136505127 -0.17093637585639954 0.8430830240249634 0.01333307009190321 0.11380847543478012 0.19997593760490417 -0.043811213225126266 0.09336813539266586 0.1909991204738617 0.25550004839897156 -0.25041139125823975 -0.1201714500784874 0.42156362533569336 -0.015307857654988766 -0.12505367398262024 0.12867620587348938 -0.14270706474781036 0.3185458779335022 -0.12863077223300934 0.10048949718475342 -0.13937893509864807 0.06456616520881653 -0.37276002764701843 0.05783572420477867 0.12176307290792465 0.235552117228508 -0.3632032573223114 -0.011980697512626648 0.2757953405380249 -0.23786458373069763 -0.02066081389784813 0.04453222081065178 0.1446762979030609 0.10218340158462524 0.29409095644950867 0.01761709153652191 0.3077815771102905 -0.46357542276382446 -0.3888522982597351 0.28715795278549194 -0.18447640538215637 0.2170187085866928 -0.24088792502880096 -0.15981918573379517 0.17038290202617645 -0.0008331518620252609 0.05078750103712082 0.6088051795959473 0.05155092105269432 -0.12596498429775238 -0.13124164938926697 0.21775256097316742 0.004471614956855774 -0.31118059158325195 0.14315716922283173 -0.049153029918670654 0.12383099645376205 0.02446967363357544 0.12441488355398178 -0.14466792345046997 -0.002800295827910304 0.03567524999380112 0.44772762060165405 -1.7525877952575684 -0.28761136531829834 0.4432733654975891 0.15618818998336792 -0.23047250509262085 0.5101412534713745 -0.10049616545438766 0.03327937051653862 -0.9612764120101929 0.20182782411575317 -0.11269769072532654 0.2391439974308014 0.21383783221244812 0.3175806403160095 0.197044238448143 -0.14566192030906677 0.07805714011192322 -0.09171917289495468 0.19956588745117188 0.06324876844882965 -0.8224587440490723 -0.2830614745616913 -0.10615446418523788 0.006422114558517933 -0.14702455699443817 0.05081408843398094 -0.20526230335235596 0.21126648783683777 -0.10488143563270569 -0.14681246876716614 -0.1758788526058197 0.29926371574401855 0.33841192722320557 0.20427846908569336 0.3588147759437561 -0.106692373752594 -0.08823110163211823 0.008351888507604599 0.3563724756240845 0.2258889377117157 0.10562228411436081 0.1783105731010437 0.3508307635784149 0.22944632172584534 -0.15424960851669312 -0.005819790065288544 0.0005222882027737796 0.3183865249156952 0.500855565071106 0.48068946599960327 0.0010127326240763068 -0.08819584548473358 -0.2233506441116333 -0.22637039422988892 -0.8860821723937988 -0.17982512712478638 -0.36141714453697205 0.017814863473176956 0.2106715440750122 0.04815506935119629 0.0761217325925827 -0.0036550587974488735 0.005825810134410858 -0.2592858672142029 0.20507100224494934 0.24009525775909424 0.17229428887367249 0.3928026854991913 -0.2841021418571472 0.08578473329544067 -0.27176034450531006 -0.09099828451871872 0.1493140161037445 -0.12513050436973572 0.606072187423706 0.06540045887231827 0.273193895816803 -0.035756684839725494 0.9245947599411011 -0.1335221827030182 -0.2787371277809143 -0.4006367623806 0.3196011781692505 0.0615973174571991 -0.40783900022506714 0.4249759614467621 0.13601048290729523 0.08106580376625061 -0.14694321155548096 -0.11862393468618393 -0.10411813110113144 0.012458791956305504 0.46037936210632324 -0.18716156482696533 -0.0934450551867485 0.11470680683851242 -0.09179188311100006 -0.086737260222435 -0.051144521683454514 -0.25269508361816406 -0.2032804787158966 0.24086150527000427 -0.030627571046352386 0.24030357599258423 -0.10989826172590256 0.20101767778396606 -0.20468805730342865 0.11529548466205597 0.30419236421585083 0.17369775474071503 0.04824458807706833 -0.13125765323638916 -0.0016251604538410902 -0.4761520326137543 0.21551865339279175 0.2526419758796692 -0.2970244288444519 -0.007602847181260586 0.2916194200515747 -0.1601950228214264 -0.08010923862457275 0.3227316439151764 -0.01164097897708416 -0.2899797558784485 -0.191501185297966 0.4752914309501648 -0.12199299037456512 0.06208980828523636 0.0919155701994896 -0.12170574069023132 -0.35036659240722656 -0.41750919818878174 0.20630347728729248 -0.10241572558879852 0.6597590446472168 -0.07273725420236588 -0.04893679544329643 0.20677527785301208 0.14973275363445282 -0.317226380109787 -0.14297246932983398 -0.16201180219650269 -1.0548350811004639 0.3404505252838135 0.15206843614578247 -0.14878949522972107 -0.5751657485961914 0.06313730031251907 0.41413697600364685 -0.021951725706458092 0.0406884029507637 0.44868767261505127 0.1869613528251648 0.1118297278881073 0.06720735877752304 -0.603753387928009 -0.08270786702632904 0.3617137670516968 -0.3281886577606201 -0.15547987818717957 0.264046847820282 0.32689642906188965 0.27640101313591003 -0.16940447688102722 0.058786820620298386 -0.14281485974788666 0.27441489696502686 -0.14541734755039215 -0.34944671392440796 0.11442046612501144 -0.1340840458869934 -0.318126380443573 -0.13633482158184052 -0.18673817813396454 0.13970302045345306 -0.038717836141586304 0.12175272405147552 0.166215717792511 -0.07214188575744629 0.14496544003486633 0.0232586320489645 -0.24951183795928955 -0.03127583488821983 -0.019461356103420258 0.014736255630850792 -0.027158332988619804 -0.26041489839553833 -0.2287750244140625 -0.03796377778053284 0.0268718209117651 0.07919217646121979 -0.2156408131122589 0.11761939525604248 0.22968856990337372 0.26203227043151855 0.12983720004558563 0.31497180461883545 0.09496495127677917 0.12261461466550827 -0.38331061601638794 0.21489006280899048 -0.35605892539024353 -0.33352917432785034 -0.05689895153045654 -0.023437637835741043 -0.3447655141353607 -0.4238511919975281 0.13967666029930115 -0.06908276677131653 -0.19155919551849365 -0.16673889756202698 0.12365761399269104 0.0333249494433403 -0.20531301200389862 0.08637423813343048 -0.14029982686042786 0.22827646136283875 -0.3000112473964691 0.19905559718608856 0.09013816714286804 0.1434633433818817 0.09789707511663437 0.199105367064476 -0.09890535473823547 0.3257617950439453 -0.2003481090068817 0.0314050018787384 0.10059031844139099 -0.19569095969200134 -0.03973543271422386 -0.17082014679908752 -0.04844849556684494 0.1332675665616989 -0.08662458509206772 0.18000656366348267 0.15164786577224731 0.07842448353767395 0.043668895959854126 0.16906780004501343 0.2193737030029297 -0.26265132427215576 0.3912157714366913 0.04353610426187515 -0.024838875979185104 -0.21545931696891785 -0.42634522914886475 -0.19261804223060608 -0.18416953086853027 0.18401788175106049 0.08277921378612518 -0.12196750938892365 0.37327075004577637 0.4030334949493408 0.6659738421440125 0.29693734645843506 -0.0690552294254303 0.16721832752227783 0.30735695362091064 0.0028114046435803175 -0.07912667095661163 -0.2905428111553192 -0.0632157027721405 -0.3206019997596741 0.006659402512013912 -0.4599625766277313 0.34745991230010986 0.10962361097335815 0.09614501893520355 -0.17516474425792694 0.39049214124679565 -0.07097359746694565 0.28536126017570496 -0.47105106711387634 0.08370548486709595 -0.333773672580719 0.02230728045105934 -0.4931334853172302 0.11797486990690231 0.3774760961532593 -0.17073975503444672 -0.07069121301174164 0.060010701417922974 -0.013055617921054363 -0.5115865468978882 0.42936691641807556 0.06118343770503998 -0.36882147192955017 -0.15563051402568817 -0.3954715132713318 -0.5320920348167419 -0.3039402365684509 0.12268540263175964 0.16805097460746765 0.07441933453083038 0.14073693752288818 0.26501548290252686 -0.32940050959587097 0.1795642077922821 0.021067088469862938 0.4529258906841278 0.22271329164505005 0.14188838005065918 -0.3996914327144623 -0.23640185594558716 0.3277987539768219 0.14977389574050903 0.3538977801799774 -0.16243448853492737 -0.2584940791130066 -0.20120804011821747 0.11471879482269287 0.19134293496608734 0.03025219216942787 0.2206422984600067 0.02590184286236763 0.18325737118721008 0.5063235759735107 -0.14198210835456848 0.19493067264556885 0.40358972549438477 0.221858412027359 -0.13100098073482513 0.2139599323272705 0.1369704157114029 0.0653688907623291 -0.1364961564540863 0.42432793974876404 0.3515799939632416 0.1429239809513092 -0.05255616456270218 0.31814882159233093 -0.11173516511917114 -0.759122371673584 -0.17814886569976807 -0.010944212786853313 -0.23874974250793457 -0.24176836013793945 -0.04607468098402023 -0.17838715016841888 0.19937440752983093 -0.26072561740875244 -0.489840030670166 0.2503586709499359 0.24482856690883636 -0.10180775821208954 0.2810649573802948 0.05012674257159233 -0.18819008767604828 -0.06722186505794525 -0.3142755925655365 0.054840557277202606 -0.5471901893615723 -0.09246450662612915 -0.09499804675579071 0.010397632606327534 0.41347748041152954 -0.030090894550085068 0.15728038549423218 0.06821338832378387 0.12899242341518402 -0.19929593801498413 0.006751666776835918 0.36526045203208923 -0.252500981092453 -0.1585237681865692 -0.3119357228279114 0.23651063442230225 0.11157228797674179 0.1726098656654358 -0.1000884398818016 -0.06791038811206818 -0.4497855305671692 0.1384044587612152 -0.21819496154785156 0.3157169818878174 -0.47308167815208435 -2.204026937484741 0.3198845088481903 0.23069767653942108 0.1605246365070343 0.1379161775112152 0.10238690674304962 0.24677905440330505 -0.08649547398090363 0.14116565883159637 0.32920917868614197 0.0721495971083641 0.11723896116018295 0.20049260556697845 0.062325846403837204 0.04109281674027443 -0.043087489902973175 0.08481764048337936 0.1682341992855072 0.5058926343917847 -0.029659118503332138 0.1386970430612564 0.11038424074649811 0.18527206778526306 -0.2695627212524414 -0.22933244705200195 0.08975391089916229 0.07824605703353882 0.03918572887778282 0.06189842149615288 0.09141480922698975 -0.12782150506973267 0.0693010538816452 -0.004195038229227066 -0.374343603849411 -0.005160176660865545 0.24668368697166443 -0.30563634634017944 -0.2985965311527252 0.08517144620418549 -0.3223114013671875 0.5564284324645996 0.09999482333660126 0.23419027030467987 -0.8004640340805054 -0.0769522488117218 -0.16900387406349182 0.03044079802930355 0.07465590536594391 0.11531998962163925 0.11231249570846558 0.1342570185661316 0.07950207591056824 -0.24513030052185059 -0.01762956753373146 0.07979889959096909 -0.22847428917884827 -0.06021016836166382 0.1734883040189743 0.22216907143592834 -0.01857069879770279 0.14938640594482422 0.0034920424222946167 -0.26426321268081665 0.01855006441473961 0.40556788444519043 -0.08118975907564163 -0.31457769870758057 -0.16772405803203583 0.15671759843826294 -0.19471704959869385 0.030758609995245934 0.15451353788375854 -0.06823456287384033 0.13498052954673767 -0.07962518185377121 -0.04553027078509331 -0.2622494697570801 0.37352773547172546 -0.23244905471801758 0.09351267665624619 0.009326271712779999 0.44147905707359314 -0.07558589428663254 -0.07073056697845459 -0.06162084639072418 0.14786140620708466 -0.16779296100139618 0.0166826993227005 0.3443072438240051 -0.21028178930282593 -0.16142134368419647 0.36369848251342773 -0.006405654363334179 0.0715731531381607 0.13872289657592773 0.24210989475250244 0.06887577474117279 -0.28770288825035095 1.5649398565292358 0.2516781985759735 -0.23080269992351532 -0.2888413369655609 0.21581026911735535 0.22470007836818695 0.13348649442195892 -0.11912930011749268 0.04383116215467453 0.07156022638082504 0.022722389549016953 0.2605516016483307 0.13511350750923157 -0.42718786001205444 0.40097638964653015 0.47784385085105896 -0.2525789737701416 0.15565945208072662 0.09439613670110703 -0.20426377654075623 0.15286147594451904 -0.13603883981704712 0.3310520052909851 -0.2799012064933777 -0.09222352504730225 -0.09937615692615509 0.011500741355121136 0.3285175561904907 -0.029495149850845337 0.5053837299346924 -0.05623923987150192 0.13845562934875488 -0.4169001579284668 0.19693315029144287 -0.33537226915359497 0.28811660408973694 -0.1201668232679367 11.099576950073242 -0.04763151705265045 0.07814127206802368 0.06333177536725998 0.15243616700172424 -0.04425574466586113 0.09414058923721313 0.0941796526312828 -0.08891236037015915 -0.12321578711271286 -0.2767314910888672 -0.10684283822774887 0.390420138835907 -0.29796361923217773 0.022198569029569626 0.26109978556632996 0.377524197101593 0.29655522108078003 -0.043824758380651474 -0.06076793372631073 -0.060820095241069794 -0.1661483496427536 0.11782172322273254 0.46345919370651245 -0.2569934129714966 0.21267227828502655 -0.5858402252197266 0.3062651753425598 0.17988598346710205 0.20015886425971985 0.24065697193145752 0.29930853843688965 0.22994200885295868 0.09798312187194824 -0.11543761938810349 0.10573214292526245 -0.5841100811958313 -0.003566314931958914 0.15439096093177795 0.0011785540264099836 -0.23296773433685303 -0.2407972514629364 0.01802758499979973 -0.07732154428958893 0.11573062837123871 0.08905696123838425 -0.5150529146194458 0.18572106957435608 0.21258947253227234 -0.003711200086399913 0.14582642912864685 0.18253850936889648 -0.08451958000659943 -0.43654537200927734 0.16432633996009827 -0.6164776682853699 0.38422268629074097 0.12299542129039764 -0.1275370717048645 -0.39836323261260986 0.12320348620414734 0.057018354535102844 -0.12350710481405258 0.27065736055374146 0.12326431274414062 -0.06445339322090149 0.36945247650146484 -0.02102738246321678 0.10602043569087982 0.10528441518545151 -0.1213427186012268 -0.04940212517976761 -0.08227938413619995 -0.08491349220275879 -0.5338122844696045 -0.21648500859737396 -0.08793070167303085 -0.2339538037776947 0.007555261254310608 -0.20100557804107666 0.011463815346360207 0.2931004464626312 0.220192551612854 -0.0568108968436718 -0.7245440483093262 0.16458085179328918 0.05591317266225815 0.17595791816711426 -0.0315232127904892 0.010111959651112556 -0.12441977113485336 -0.1948627531528473 -0.18063098192214966 0.10210707038640976 0.1873701512813568 0.23749998211860657 -0.28912264108657837 0.167373925447464 0.05208764597773552 0.02401503548026085 -0.4115881323814392 0.3691541850566864 -0.2933584153652191 0.3479264974594116 -0.11476048827171326 0.17494532465934753 0.23466140031814575 -0.2816077172756195 -0.2574143409729004 0.14596562087535858 0.13380208611488342 0.2431136816740036 0.056271087378263474 0.2919039726257324 -0.2111070454120636 -0.5138546824455261 -0.004905763082206249 0.036051951348781586 0.0648815706372261 0.4661369025707245 -0.17412340641021729 0.25607264041900635 0.03861043602228165 -0.4017384946346283 -0.10782885551452637 0.059692345559597015 -0.002251021098345518 0.4877842366695404 0.26255854964256287 0.0388120636343956 -0.1309642195701599 -0.04828266426920891 0.2869831919670105 0.30808281898498535 0.05289289355278015 -0.30695271492004395 0.2584401071071625 -0.23487672209739685 0.0062004579231143 0.20163589715957642 -0.07957477867603302 0.16827253997325897 -0.010729807429015636 -0.18596738576889038 -0.21068453788757324 -0.009582365863025188 -0.32161983847618103 -0.28864094614982605 0.015110793523490429 -0.13664153218269348 -0.21456977725028992 -0.05089899152517319 -0.27032822370529175 -0.28081846237182617 0.1315535306930542 0.1716437041759491 0.16883602738380432 0.4173430800437927 0.12808918952941895 -0.0367426872253418 -0.18902228772640228 -0.7491601705551147 -0.40710604190826416 -0.5306152105331421 -0.05289439857006073 -0.19197770953178406 0.1012464389204979 -0.15912717580795288 0.35227498412132263 -0.08535526692867279 0.1702774167060852 -0.22141198813915253 -0.04844408482313156 0.036296337842941284 0.24078670144081116 -0.26605868339538574 -0.050665102899074554 -0.6328009366989136 0.14572834968566895 0.3147902488708496
node_23	0.02685561776161194 0.062444090843200684 0.14951130747795105 0.10212846845388412 0.7600656747817993 -0.5059962272644043 0.0022107227705419064 0.34244149923324585 0.06331442296504974 -0.29182761907577515 0.015391796827316284 0.5389405488967896 0.46718186140060425 -0.2196657657623291 0.13803964853286743 -0.21813485026359558 0.9247245788574219 0.11584734916687012 0.11065416783094406 0.33351048827171326 -0.03773656487464905 0.1461019366979599 0.2558518052101135 0.2670070230960846 -0.19598016142845154 -0.034558750689029694 0.546671986579895 -0.08239366859197617 -0.060039669275283813 0.12924012541770935 -0.15209445357322693 0.29933565855026245 -0.18960058689117432 0.16673937439918518 -0.1509285867214203 -0.0828332006931305 -0.4645029902458191 0.04818659648299217 0.022543011233210564 0.21418547630310059 -0.36681848764419556 -0.15493039786815643 0.3584657907485962 -0.1761467456817627 -0.040209878236055374 0.06909529119729996 0.1429833173751831 0.12981030344963074 0.28793591260910034 0.14750516414642334 0.3151327967643738 -0.4157741069793701 -0.29638898372650146 0.34732314944267273 -0.1597939133644104 0.34751710295677185 -0.18074403703212738 -0.2607567310333252 0.16897448897361755 0.09410088509321213 0.038434915244579315 0.5767964124679565 0.04699943959712982 0.04225783795118332 -0.19035664200782776 0.1702823042869568 0.02028607204556465 -0.6214258074760437 0.09371187537908554 -0.03486509621143341 0.07323678582906723 0.07746508717536926 0.1335383951663971 -0.058362238109111786 -0.06316299736499786 0.01814757101237774 0.6159770488739014 -1.8553144931793213 -0.20261752605438232 0.49710845947265625 0.10684674978256226 -0.2979550361633301 0.29553091526031494 -0.12378445267677307 0.08289961516857147 -0.9931895732879639 0.1570516675710678 -0.18049636483192444 0.2383401095867157 0.32473787665367126 0.32221806049346924 0.19413310289382935 -0.23525121808052063 0.11553815007209778 -0.13260608911514282 0.2527933716773987 0.08691665530204773 -1.0229778289794922 -0.2661193311214447 -0.10880234092473984 0.04727504774928093 -0.11084762215614319 -0.029330626130104065 -0.1938512772321701 0.32738298177719116 -0.012291951104998589 -0.06833731383085251 -0.18663416802883148 0.26682591438293457 0.4356100261211395 0.267172247171402 0.23360244929790497 -0.0604899637401104 -0.10302432626485825 -0.09044947475194931 0.42349979281425476 0.26044774055480957 0.08847557753324509 0.09310728311538696 0.48743313550949097 0.23739996552467346 -0.2724367082118988 0.051951341331005096 0.12828229367733002 0.2609390616416931 0.5137841701507568 0.5398715138435364 -0.10886915773153305 -0.18503491580486298 -0.2629319429397583 -0.253944993019104 -0.8565604090690613 -0.3132958710193634 -0.20678967237472534 0.04618950933218002 0.14768901467323303 -0.041585758328437805 0.018966015428304672 0.018095366656780243 -0.03945639356970787 -0.3624863624572754 0.2420635223388672 0.3451370596885681 0.1891259253025055 0.3659071624279022 -0.2651248872280121 0.053315095603466034 -0.24404630064964294 -0.18569175899028778 0.28537487983703613 -0.16987614333629608 0.4590266942977905 0.06332269310951233 0.34553951025009155 -0.15642818808555603 0.8152607679367065 -0.1167510375380516 -0.3085979223251343 -0.4901617169380188 0.3213890790939331 0.05681392550468445 -0.357410192489624 0.4598868787288666 0.06210930272936821 0.10825686156749725 -0.12821301817893982 -0.14586585760116577 -0.06551505625247955 0.08983539044857025 0.5614063739776611 -0.26877686381340027 -0.07124325633049011 0.09444129467010498 0.012744409963488579 -0.0865107998251915 -0.0023219797294586897 -0.3236093819141388 -0.12940527498722076 0.16829082369804382 -0.13342687487602234 0.3131501078605652 -0.1302890032529831 0.2123940885066986 -0.3095746636390686 0.27587246894836426 0.19151858985424042 0.18717271089553833 0.05425047129392624 -0.08376245945692062 0.012026260606944561 -0.5609359741210938 0.2867427468299866 0.2461906522512436 -0.37773531675338745 -0.0013490704586729407 0.20842066407203674 -0.06607981771230698 -0.10234646499156952 0.3399384915828705 -0.020763851702213287 -0.25728824734687805 -0.25342419743537903 0.36552894115448 -0.24122294783592224 -0.17243461310863495 0.07071129977703094 -0.10075892508029938 -0.4034753739833832 -0.5846618413925171 0.16915929317474365 -0.15907233953475952 0.5341283082962036 -0.14634455740451813 -0.15282604098320007 0.25716885924339294 0.26253029704093933 -0.36698681116104126 -0.16129690408706665 -0.179873526096344 -0.9889375567436218 0.3369142413139343 0.1922084391117096 -0.3551301956176758 -0.7153644561767578 0.04729750379920006 0.4725862443447113 -0.12792102992534637 0.02361934259533882 0.4892663359642029 0.3795185983181 0.10293334722518921 0.20232312381267548 -0.8139612078666687 -0.00995810516178608 0.31044700741767883 -0.4458085894584656 -0.1451719105243683 0.30533310770988464 0.3159658908843994 0.2590622305870056 -0.25779208540916443 0.07569151371717453 -0.2278367280960083 0.2789059579372406 -0.10886033624410629 -0.35489898920059204 -0.005809894762933254 -0.15451842546463013 -0.3644964098930359 -0.16926561295986176 -0.06587010622024536 0.1556607484817505 0.011810503900051117 0.18515217304229736 0.2726909816265106 0.026785364374518394 0.24570326507091522 0.04232371598482132 -0.10999345779418945 0.02586985193192959 0.015377884730696678 0.06086774170398712 0.06666125357151031 -0.42993518710136414 -0.23978185653686523 0.01833193004131317 0.07653871178627014 0.049248844385147095 -0.17177413403987885 0.11693105101585388 0.1747010201215744 0.2186335027217865 0.3348175287246704 0.29739606380462646 0.11922945827245712 0.137947678565979 -0.3478744924068451 0.06737217307090759 -0.38246047496795654 -0.37007081508636475 0.0344114676117897 0.001009629457257688 -0.3927956521511078 -0.5277245044708252 0.04231354221701622 -0.1131356805562973 -0.05860060080885887 -0.14285016059875488 0.09494099020957947 0.0688258707523346 -0.20212261378765106 0.06171935051679611 -0.15230253338813782 0.22915291786193848 -0.26759952306747437 0.14596691727638245 0.056025318801403046 -0.026378443464636803 0.10447614639997482 0.2500041723251343 -0.04886665940284729 0.4067884087562561 -0.2572578191757202 0.07512539625167847 0.1635226458311081 -0.19413650035858154 -0.06582015752792358 -0.2272145003080368 -0.006832723971456289 0.01905944012105465 -0.08681841939687729 0.1602649688720703 0.219650536775589 0.10469385981559753 0.040672723203897476 0.342862069606781 0.1284022182226181 -0.24886755645275116 0.457131564617157 0.12095469236373901 0.022825852036476135 -0.30663609504699707 -0.38170236349105835 -0.24429765343666077 -0.32273775339126587 0.12499348819255829 0.2473050355911255 -0.22286759316921234 0.3296314775943756 0.5260276794433594 0.5246849060058594 0.34380286931991577 -0.07519069314002991 0.2651748061180115 0.20322684943675995 -0.07395884394645691 -0.06724512577056885 -0.21473006904125214 -0.12441112846136093 -0.37758350372314453 -0.034794196486473083 -0.5790674090385437 0.3380855917930603 0.10772936046123505 0.05978794023394585 -0.10346519947052002 0.4103597104549408 -0.10384683310985565 0.3691864609718323 -0.5262422561645508 0.08721347898244858 -0.2722277343273163 -0.0751599371433258 -0.6248149275779724 0.14216302335262299 0.44901522994041443 -0.290435254573822 -0.0949249267578125 0.03834248334169388 -0.1107354387640953 -0.5209367275238037 0.452467679977417 -0.0007508322596549988 -0.4742145538330078 -0.10100209712982178 -0.404593825340271 -0.6333968639373779 -0.16699913144111633 0.09606745094060898 0.017676038667559624 0.10288083553314209 0.050867967307567596 0.31057366728782654 -0.4116709232330322 0.3125147223472595 0.08442357182502747 0.4430764615535736 0.22555291652679443 0.05638705939054489 -0.5335094928741455 -0.13675841689109802 0.36140188574790955 0.0877218097448349 0.44244152307510376 -0.08738812059164047 -0.2981594502925873 -0.1386631429195404 0.2243913859128952 0.304573655128479 0.009099191054701805 0.07832757383584976 0.0322333462536335 0.22701244056224823 0.6156156063079834 -0.12411923706531525 0.2610401511192322 0.3872547149658203 0.28665411472320557 -0.07493974268436432 0.10986735671758652 0.1311243176460266 0.037020325660705566 -0.11508654057979584 0.2767189145088196 0.2793240249156952 0.25739461183547974 0.01697390526533127 0.3268643319606781 -0.04758043587207794 -0.800142765045166 -0.211991548538208 0.049057379364967346 -0.2086852639913559 -0.2952060103416443 -0.01939506083726883 -0.15048953890800476 0.2903106212615967 -0.27811312675476074 -0.510118842124939 0.22237664461135864 0.3435733914375305 -0.15308606624603271 0.24141496419906616 0.025968477129936218 -0.35205429792404175 -0.009421372786164284 -0.3834373950958252 -0.008445496670901775 -0.45942720770835876 -0.01905699446797371 -0.09869846701622009 0.060558613389730453 0.38555607199668884 -0.003956381231546402 0.2476419061422348 0.008961092680692673 0.16606281697750092 -0.28049778938293457 0.10806243866682053 0.4899929463863373 -0.3149885833263397 -0.15004776418209076 -0.35800987482070923 0.37892577052116394 0.0833684504032135 0.15164512395858765 -0.22841477394104004 0.02740544080734253 -0.3584994077682495 0.12422357499599457 -0.31046658754348755 0.4029472768306732 -0.3849461078643799 -2.111236333847046 0.24123916029930115 0.2191745489835739 0.10746219009160995 0.12196514010429382 0.15926310420036316 0.3002617657184601 -0.02214699052274227 0.15499374270439148 0.3831840455532074 0.10977959632873535 0.11070051044225693 0.16816477477550507 0.07833516597747803 0.13334283232688904 -0.23795251548290253 0.08229611068964005 0.16363945603370667 0.5539430975914001 -0.029096504673361778 0.24632808566093445 0.024035003036260605 0.29478341341018677 -0.2868722677230835 -0.2935021221637726 0.08287327736616135 0.10299523174762726 0.08055012673139572 0.022768229246139526 0.08515425771474838 -0.12124896049499512 0.07807715982198715 0.029370157048106194 -0.3402031362056732 0.06641923636198044 0.33353182673454285 -0.31940582394599915 -0.3839125633239746 0.14989666640758514 -0.32319971919059753 0.5032946467399597 0.08239549398422241 0.30033066868782043 -0.8123533129692078 -0.1243712529540062 -0.11295764893293381 0.018345382064580917 0.09300988912582397 0.13865213096141815 0.19879388809204102 0.22363410890102386 0.09547756612300873 -0.10831769555807114 -0.034370534121990204 0.12543915212154388 -0.26882582902908325 -0.10065814107656479 0.28109773993492126 0.16843265295028687 -0.04301179200410843 0.15775327384471893 -0.06549137830734253 -0.23141789436340332 -0.060816869139671326 0.35458672046661377 -0.10809914767742157 -0.28701722621917725 -0.17237232625484467 0.16428805887699127 -0.17853468656539917 -0.018465310335159302 0.14748737215995789 -0.04162886366248131 0.16506052017211914 -0.17391705513000488 -0.03769993036985397 -0.2773735523223877 0.4357806146144867 -0.2297096699476242 0.038151323795318604 0.006893241312354803 0.3353605270385742 -0.0834968090057373 -0.22865960001945496 -0.13131940364837646 0.1577349454164505 -0.13697674870491028 0.11201643943786621 0.28380754590034485 -0.14689266681671143 -0.22332561016082764 0.3706921935081482 -0.08306813985109329 0.0695817694067955 0.15985921025276184 0.2802385091781616 0.09332163631916046 -0.16525143384933472 1.2074930667877197 0.32246559858322144 -0.18177366256713867 -0.333608478307724 0.1731487214565277 0.17811672389507294 0.1645401567220688 -0.135406956076622 0.059536587446928024 0.016437850892543793 -0.006450267042964697 0.19124069809913635 0.17696160078048706 -0.3221209645271301 0.43943333625793457 0.5052587985992432 -0.2005305141210556 0.18916796147823334 0.2252555936574936 -0.18017885088920593 0.14650633931159973 -0.1612863838672638 0.26722192764282227 -0.197291761636734 -0.1243559941649437 -0.08247219771146774 0.06229301914572716 0.42619094252586365 -0.03697121888399124 0.41821083426475525 -0.12949037551879883 0.08303697407245636 -0.33057665824890137 0.1889696568250656 -0.34125667810440063 0.35330480337142944 -0.08159337937831879 11.819087028503418 -0.13895854353904724 0.07594754546880722 -0.09035267680883408 0.07686103880405426 -0.12511613965034485 0.13574764132499695 0.12125548720359802 -0.10258861631155014 -0.16675901412963867 -0.24961644411087036 -0.16667354106903076 0.3673837184906006 -0.23688451945781708 0.08804544806480408 0.21035978198051453 0.39739570021629333 0.2781057357788086 0.03194626420736313 -0.06621867418289185 0.05265745520591736 -0.1697038859128952 0.19162940979003906 0.2976633310317993 -0.14183847606182098 0.09249361604452133 -0.5705769062042236 0.3549773693084717 0.16539770364761353 0.18203014135360718 0.12655827403068542 0.24750494956970215 0.2273426055908203 -0.02341737225651741 -0.25623175501823425 0.09603729099035263 -0.6531221270561218 0.021771252155303955 0.2547547221183777 -0.04696916788816452 -0.24693408608436584 -0.21408456563949585 0.026455208659172058 -0.13611185550689697 0.08558796346187592 0.06613674759864807 -0.6113232970237732 0.1449371874332428 0.14519952237606049 -0.09915737807750702 0.15584509074687958 0.1850745528936386 -0.0877094715833664 -0.5718061327934265 0.13356664776802063 -0.6300040483474731 0.35673364996910095 0.09801796078681946 -0.08658699691295624 -0.3743739128112793 0.14297586679458618 -0.013457558117806911 -0.05344989895820618 0.12390534579753876 -0.10928469896316528 -0.03094634786248207 0.3725569248199463 0.0054676709696650505 0.11179809272289276 0.1325775682926178 -0.07190189510583878 0.016339652240276337 -0.059435710310935974 -0.044943422079086304 -0.6015125513076782 -0.21991825103759766 0.22769689559936523 -0.3369942307472229 0.004063915926963091 -0.2469078004360199 0.06584852933883667 0.32671675086021423 0.21690744161605835 -0.039448775351047516 -0.901252269744873 0.18091408908367157 -0.06499816477298737 0.19119244813919067 -0.05641677975654602 0.06657899916172028 -0.25749194622039795 -0.20681330561637878 -0.23910364508628845 0.16346700489521027 0.31221163272857666 0.22166410088539124 -0.2618793249130249 0.2630484998226166 0.09678154438734055 0.0048446981236338615 -0.4575527608394623 0.2517841160297394 -0.34178051352500916 0.38455164432525635 -0.06499810516834259 0.04087989777326584 0.2745654582977295 -0.1460292786359787 -0.17574942111968994 0.1616930067539215 0.1327405571937561 0.3440733850002289 0.11839030683040619 0.2800463140010834 -0.28017860651016235 -0.47200125455856323 0.09854279458522797 0.06657333672046661 0.09735798835754395 0.5200649499893188 -0.13459691405296326 0.232625812292099 -0.02736622653901577 -0.4024878740310669 -0.03987389802932739 0.15561401844024658 0.025779392570257187 0.4316125810146332 0.33157408237457275 0.03251386433839798 -0.08416309207677841 -0.009381850250065327 0.21805992722511292 0.28252995014190674 -0.11415090411901474 -0.2650022804737091 0.2663249969482422 -0.22995422780513763 0.061777323484420776 0.1632133424282074 -0.10256602615118027 0.2754913568496704 -0.06144767254590988 -0.39632362127304077 -0.2935662865638733 0.014034125953912735 -0.18158584833145142 -0.14237670600414276 0.03209240734577179 -0.19279217720031738 -0.16303089261054993 -0.03721753507852554 -0.1107100397348404 -0.20084848999977112 0.19348900020122528 0.22888022661209106 0.09947540611028671 0.4551967978477478 0.13997173309326172 0.02955789491534233 -0.002522636903449893 -0.8957704901695251 -0.4523164927959442 -0.6290956735610962 -0.15759706497192383 -0.12778829038143158 0.05615586042404175 -0.213718980550766 0.2768680453300476 -0.09460380673408508 0.24584919214248657 -0.2253640741109848 -0.048175595700740814 -0.03489556163549423 0.19794303178787231 -0.29113343358039856 0.025075357407331467 -0.7194328308105469 0.12854424118995667 0.2919761538505554
node_10	0.03185035660862923 0.14263664186000824 0.10632102191448212 0.12186852097511292 0.6999319791793823 -0.4542029798030853 0.049076974391937256 0.29389333724975586 -0.17068099975585938 -0.3098071217536926 -0.07093869894742966 0.6666607856750488 0.47942671179771423 -0.09377413988113403 0.06612098962068558 -0.2125510275363922 0.9110538363456726 -0.026966925710439682 0.11441370099782944 0.07071450352668762 -0.04131316766142845 0.08297225087881088 0.13928352296352386 0.31193703413009644 -0.2599286437034607 -0.2021145522594452 0.43986353278160095 0.011383852921426296 -0.02232486568391323 0.1855534017086029 -0.19850322604179382 0.3331083655357361 -0.09401579946279526 0.089019775390625 -0.12721112370491028 0.053553517907857895 -0.41274166107177734 0.019877713173627853 -0.045150529593229294 0.3045121133327484 -0.4193821847438812 -0.04947357624769211 0.27271580696105957 -0.21801945567131042 -0.013933800160884857 0.023913977667689323 0.1901961863040924 0.13608676195144653 0.2665182948112488 0.04265960305929184 0.27728816866874695 -0.45271095633506775 -0.3184288740158081 0.3102443516254425 -0.18736279010772705 0.27102357149124146 -0.3289143741130829 -0.14610075950622559 0.1583765149116516 0.11695106327533722 0.16966471076011658 0.8265438079833984 0.017723096534609795 0.039476241916418076 -0.23605510592460632 0.20426170527935028 -0.023037202656269073 -0.23576843738555908 0.04932231828570366 -0.08560392260551453 0.11983665078878403 -0.031404800713062286 0.16895048320293427 -0.19481158256530762 -0.035811878740787506 0.08375300467014313 0.4302339553833008 -1.6588839292526245 -0.3723087012767792 0.4805251955986023 0.10219641029834747 -0.2265101671218872 0.6293238997459412 -0.18843713402748108 0.060900576412677765 -0.9940778613090515 0.24128501117229462 -0.17684242129325867 0.2633497714996338 0.1924477070569992 0.40519875288009644 0.17721983790397644 -0.21735277771949768 -0.042358219623565674 -0.09262625873088837 0.2072213888168335 0.045843206346035004 -0.7473515272140503 -0.287983775138855 -0.0373767651617527 -0.053716786205768585 -0.13869892060756683 0.07288680970668793 -0.14127084612846375 0.20255610346794128 -0.007938852533698082 -0.14241574704647064 -0.12508365511894226 0.2743183374404907 0.3524061143398285 0.20165549218654633 0.3410249650478363 -0.03369997814297676 -0.09287457168102264 -0.03626381605863571 0.36838555335998535 0.21309888362884521 0.09125210344791412 0.12218527495861053 0.23960654437541962 0.24043850600719452 -0.20023152232170105 -0.0482499822974205 0.1024775505065918 0.2928761839866638 0.4938572347164154 0.5211374759674072 -0.05720324069261551 -0.05744874104857445 -0.18913158774375916 -0.2663555145263672 -0.8530578017234802 -0.12162701785564423 -0.416962593793869 -0.03551512956619263 0.22088217735290527 0.07594167441129684 0.015975017100572586 0.035369984805583954 0.031719643622636795 -0.24487915635108948 0.2489047646522522 0.2692175507545471 0.2273094356060028 0.43100643157958984 -0.2628970742225647 0.05440807342529297 -0.20126807689666748 -0.20061692595481873 0.13432888686656952 -0.08614083379507065 0.6020711660385132 0.09305857121944427 0.23972022533416748 0.08077453821897507 0.8971042037010193 -0.1308252215385437 -0.34616753458976746 -0.4403010606765747 0.4527721405029297 0.07818501442670822 -0.30009564757347107 0.45505866408348083 0.12939125299453735 0.10480090230703354 -0.17583248019218445 -0.1001380905508995 -0.06297776103019714 -0.03800097107887268 0.41901135444641113 -0.21058861911296844 -0.03998588025569916 0.06726527214050293 -0.011326748877763748 -0.05790100246667862 0.02698197029531002 -0.2384311407804489 -0.17853528261184692 0.26629868149757385 -0.05393160507082939 0.2942022681236267 -0.07666841894388199 0.09449421614408493 -0.20030924677848816 0.09058557450771332 0.3208829164505005 0.13473644852638245 0.06774166226387024 -0.13219189643859863 0.024755319580435753 -0.5154551267623901 0.25717586278915405 0.27682921290397644 -0.3812386393547058 -0.023492848500609398 0.14461946487426758 -0.13585779070854187 -0.11685232818126678 0.3946235775947571 -0.07044445723295212 -0.2897855043411255 -0.2668078541755676 0.3219703435897827 -0.11405976861715317 -0.011346027255058289 0.13286268711090088 -0.09701108187437057 -0.3534505069255829 -0.4238642156124115 0.23367512226104736 -0.13905227184295654 0.6012288331985474 -0.06127260625362396 -0.021673103794455528 0.23580729961395264 0.14645005762577057 -0.41832464933395386 -0.02919604443013668 -0.18174117803573608 -1.0498504638671875 0.3059404492378235 0.11878089606761932 -0.20880421996116638 -0.6218274831771851 0.0524836890399456 0.4369302988052368 -0.05069852992892265 0.11159217357635498 0.5273656845092773 0.22520500421524048 0.08563277125358582 0.022138794884085655 -0.5643094778060913 -0.0854615792632103 0.35509735345840454 -0.35609087347984314 -0.1991087645292282 0.2886979877948761 0.3097798228263855 0.27467331290245056 -0.15440243482589722 0.10528135299682617 -0.1504107564687729 0.28775933384895325 -0.1656055450439453 -0.352980375289917 0.1335957944393158 0.04398445039987564 -0.34529978036880493 -0.12656231224536896 -0.13153278827667236 0.20842766761779785 -0.047231338918209076 0.09263928979635239 0.1758567988872528 -0.01667531579732895 0.20679156482219696 0.0009504221379756927 -0.28327369689941406 0.08894436061382294 -0.03960787504911423 -0.01425231248140335 -0.06173660606145859 -0.3038893938064575 -0.29459595680236816 0.004491716623306274 0.03519566357135773 0.05678749084472656 -0.20549967885017395 0.10476960986852646 0.249301478266716 0.20478719472885132 0.16695541143417358 0.30223995447158813 0.02762085571885109 0.11561331152915955 -0.34920281171798706 0.18454182147979736 -0.4109107255935669 -0.3387868404388428 -0.055166177451610565 -0.02382797561585903 -0.3620166778564453 -0.5172227621078491 0.17367073893547058 -0.04357970878481865 -0.16145414113998413 -0.12505707144737244 0.17579518258571625 0.042630892246961594 -0.18785636126995087 0.13307511806488037 -0.18631485104560852 0.18989664316177368 -0.2999473214149475 0.18670198321342468 0.045504212379455566 0.12854082882404327 0.020462650805711746 0.2144988775253296 -0.03796309977769852 0.3015516996383667 -0.29365795850753784 0.023248717188835144 0.014665776863694191 -0.1879635751247406 -0.03203166276216507 -0.19542431831359863 0.0015016946708783507 0.11603957414627075 -0.06859078258275986 0.21058063209056854 0.16972534358501434 0.033167190849781036 0.04145212471485138 0.16377359628677368 0.23611488938331604 -0.3017457127571106 0.42876458168029785 0.10157926380634308 -0.05064285919070244 -0.19752326607704163 -0.508080005645752 -0.19487015902996063 -0.17147056758403778 0.16469672322273254 0.05553482472896576 -0.14071789383888245 0.368009090423584 0.36919745802879333 0.8919069170951843 0.2911360263824463 -0.09675294160842896 0.2611890733242035 0.28103673458099365 -0.048948101699352264 -0.08591662347316742 -0.25616365671157837 -0.09617754817008972 -0.2854892909526825 0.013089649379253387 -0.5094096660614014 0.3300863802433014 0.057001274079084396 0.08799603581428528 -0.17268264293670654 0.37581270933151245 -0.13132700324058533 0.3286632299423218 -0.4688250422477722 0.12181225419044495 -0.30005380511283875 -0.022368058562278748 -0.4949520528316498 0.14454346895217896 0.3384802043437958 -0.1730387806892395 -0.06077565997838974 0.002840612083673477 -0.006368724163621664 -0.47898781299591064 0.36235174536705017 0.07743453234434128 -0.38531312346458435 -0.11081621050834656 -0.34047335386276245 -0.5786973834037781 -0.2567509114742279 0.12522640824317932 0.14308150112628937 0.0969199389219284 0.11020039021968842 0.31307893991470337 -0.346279501914978 0.21427254378795624 0.0044857412576675415 0.4722285866737366 0.14266256988048553 0.09140535444021225 -0.4077470004558563 -0.21989838778972626 0.3624894618988037 0.16587623953819275 0.3219913840293884 -0.15529726445674896 -0.272800087928772 -0.2033381164073944 0.16019080579280853 0.19727253913879395 0.04206383228302002 0.2062208354473114 -0.050443582236766815 0.15760129690170288 0.5176891088485718 -0.1351584941148758 0.19878822565078735 0.43294066190719604 0.33976659178733826 -0.04405904933810234 0.19520798325538635 0.18443505465984344 0.13635317981243134 -0.05553783103823662 0.2671351432800293 0.43171656131744385 0.2680767774581909 -0.09611903131008148 0.33696597814559937 -0.18781881034374237 -0.6927077174186707 -0.1892690658569336 -0.022922515869140625 -0.2976251244544983 -0.24729041755199432 -0.02429407462477684 -0.13661694526672363 0.18737058341503143 -0.3296218514442444 -0.49411576986312866 0.26751649379730225 0.33942243456840515 -0.06275859475135803 0.25134629011154175 -0.01608683541417122 -0.1810220330953598 -0.029977362602949142 -0.3301427364349365 0.0839185118675232 -0.5154672861099243 -0.07940599322319031 -0.1026751920580864 0.020537735894322395 0.47155261039733887 -0.012578681111335754 0.15542156994342804 0.061815451830625534 0.12172240018844604 -0.18317574262619019 -0.004390413872897625 0.3879598081111908 -0.18815910816192627 -0.16734741628170013 -0.27700579166412354 0.27860257029533386 0.07270634919404984 0.21032695472240448 -0.1229475885629654 -0.07985128462314606 -0.5195465683937073 0.1481855809688568 -0.20159094035625458 0.2979612946510315 -0.5420297384262085 -2.446112632751465 0.3893103003501892 0.16720691323280334 0.16015726327896118 0.20536188781261444 0.1432730257511139 0.2636929154396057 -0.07944804430007935 0.18913614749908447 0.22613529860973358 0.08582773059606552 0.18662890791893005 0.18574945628643036 0.12826818227767944 0.07286130636930466 -0.04481833428144455 0.0710747241973877 0.21042148768901825 0.5178219676017761 -0.03971048817038536 0.1764904260635376 0.12475447356700897 0.165705606341362 -0.15663352608680725 -0.32571184635162354 0.07326941192150116 0.12133480608463287 0.05230679363012314 0.06138288974761963 0.09309278428554535 -0.18150115013122559 0.0628887265920639 -0.06868568062782288 -0.28430289030075073 0.031100478023290634 0.28728148341178894 -0.3378964066505432 -0.2960352599620819 0.14370712637901306 -0.2663447856903076 0.5283432006835938 0.09459342062473297 0.26647913455963135 -0.9649240374565125 0.005521915853023529 -0.21727189421653748 0.007720861583948135 0.0630568191409111 0.13121797144412994 0.08626779168844223 0.1790866106748581 0.17530469596385956 -0.11473733186721802 -0.08920686691999435 0.14591892063617706 -0.2944648265838623 -0.13492856919765472 0.22748836874961853 0.26588645577430725 0.0422741174697876 0.13030162453651428 -0.02584844082593918 -0.2841354310512543 0.041339412331581116 0.344756543636322 0.09413701295852661 -0.21939429640769958 -0.2315404862165451 0.1780788153409958 -0.2371547669172287 -0.08428405225276947 0.11285766214132309 -0.060456469655036926 0.14211325347423553 -0.11097244918346405 -0.05883042514324188 -0.3283776640892029 0.4069657027721405 -0.17709015309810638 0.0037916440051048994 0.004740525037050247 0.549665629863739 -0.1248713955283165 -0.07835704833269119 -0.08372600376605988 0.11378847062587738 -0.13714280724525452 0.09050589054822922 0.38852494955062866 -0.18279680609703064 -0.16011127829551697 0.39169734716415405 -0.02312193624675274 0.14813058078289032 0.11015545576810837 0.30916982889175415 -0.015961647033691406 -0.34421736001968384 1.6605279445648193 0.1872854232788086 -0.26360082626342773 -0.19620957970619202 0.17059195041656494 0.24858087301254272 0.14598718285560608 -0.05530247837305069 -0.05194796249270439 0.030048493295907974 -0.14408409595489502 0.20600222051143646 0.13529250025749207 -0.4044039845466614 0.3401801288127899 0.42326220870018005 -0.17914560437202454 0.11555778980255127 0.1317182183265686 -0.37559017539024353 0.1164904460310936 -0.10375998914241791 0.3188464343547821 -0.2966387867927551 -0.09640252590179443 -0.07767356187105179 0.10191046446561813 0.30289649963378906 -0.027275633066892624 0.5708739757537842 -0.02753153257071972 0.09630070626735687 -0.49843108654022217 0.1585002839565277 -0.30837151408195496 0.40068483352661133 -0.12428842484951019 11.309870719909668 -0.024344906210899353 0.07547622919082642 0.030308222398161888 0.17915008962154388 -0.06815308332443237 0.14024583995342255 0.20130130648612976 -0.12790296971797943 -0.10687687247991562 -0.2402079999446869 -0.13124772906303406 0.37085843086242676 -0.3768882751464844 0.00016729286289773881 0.2392476499080658 0.4742755889892578 0.28080958127975464 -0.037234704941511154 -0.0720890536904335 -0.09115898609161377 -0.10009085386991501 0.10910709947347641 0.4787975251674652 -0.17593950033187866 0.1325072944164276 -0.4718286395072937 0.37009966373443604 0.1683870255947113 0.2305840700864792 0.17637541890144348 0.2759954333305359 0.2557681202888489 0.1521942913532257 -0.11067422479391098 0.1097806915640831 -0.5476149916648865 0.012435561046004295 0.1526608169078827 0.02890414372086525 -0.2777731418609619 -0.24987350404262543 0.01960265263915062 -0.08143880218267441 0.12844860553741455 0.09516578912734985 -0.4664951264858246 0.15692541003227234 0.2119286060333252 -0.05568724870681763 0.14517253637313843 0.16707003116607666 -0.0729568600654602 -0.34807515144348145 0.14836347103118896 -0.618078351020813 0.4552006125450134 0.1625673919916153 -0.1927747130393982 -0.5020385980606079 0.16629301011562347 0.06383562088012695 -0.15806260704994202 0.26715147495269775 0.08475212752819061 -0.052148282527923584 0.36632484197616577 0.026616280898451805 -0.022464271634817123 0.14075879752635956 -0.15449649095535278 -0.09770558774471283 -0.040972135961055756 -0.029007812961935997 -0.4777601659297943 -0.1517462134361267 -0.17380079627037048 -0.2607913017272949 0.010909585282206535 -0.11896435916423798 -0.009004876017570496 0.2818398177623749 0.1388901174068451 -0.11622487753629684 -0.6971301436424255 0.29366612434387207 0.14476975798606873 0.17644427716732025 0.004427667707204819 -0.06850287318229675 -0.10557255148887634 -0.15961457788944244 -0.27250373363494873 0.12609682977199554 0.19047755002975464 0.2241441011428833 -0.28214865922927856 0.15590612590312958 -0.007370646111667156 -0.041583213955163956 -0.38580048084259033 0.34920117259025574 -0.3441818356513977 0.28348308801651 -0.12441059947013855 0.10976992547512054 0.2691246271133423 -0.33097249269485474 -0.27750590443611145 0.1468680500984192 0.08688827604055405 0.18594369292259216 0.09079968929290771 0.3025583326816559 -0.14258357882499695 -0.47972366213798523 0.07075788825750351 0.009052565321326256 0.0260947123169899 0.5680468082427979 -0.17257773876190186 0.28973492980003357 0.07775016129016876 -0.37070614099502563 -0.13084819912910461 0.0720900222659111 -0.09645043313503265 0.5093263387680054 0.2920079529285431 0.09440284222364426 -0.1419607400894165 -0.007368514314293861 0.2368171215057373 0.3230809271335602 -0.009011579677462578 -0.284362256526947 0.2915278375148773 -0.22908011078834534 0.021808717399835587 0.1150769591331482 -0.15362662076950073 0.1812681257724762 -0.003978344611823559 -0.45989298820495605 -0.3202073574066162 0.07267460227012634 -0.3450964689254761 -0.24199539422988892 0.04246408864855766 -0.1368485391139984 -0.15622380375862122 -0.06320857256650925 -0.20045171678066254 -0.25127798318862915 0.12550857663154602 0.18055586516857147 0.1555650532245636 0.5095000267028809 0.11134529113769531 -0.012553427368402481 -0.18833541870117188 -0.8763327598571777 -0.41247138381004333 -0.5246164798736572 0.016469066962599754 -0.1790849268436432 0.07764646410942078 -0.17315934598445892 0.4279153347015381 -0.07922916114330292 0.17891272902488708 -0.28442758321762085 -0.027880338951945305 0.024105053395032883 0.32829323410987854 -0.28143298625946045 -0.13504812121391296 -0.7676601409912109 0.07985071837902069 0.17078857123851776
node_29	0.05835620313882828 0.08871792256832123 0.1235809177160263 0.0522579662501812 0.5730285048484802 -0.3997405469417572 -0.009045126847922802 0.2729565501213074 -0.012269577942788601 -0.22288769483566284 -0.000984378159046173 0.5910395383834839 0.39935505390167236 -0.24376331269741058 0.15027746558189392 -0.12216373533010483 0.7948400974273682 0.13060341775417328 0.1447107195854187 0.1436835080385208 -0.0027942671440541744 0.1300981342792511 0.21148823201656342 0.3109006881713867 -0.22921058535575867 -0.04626999422907829 0.5224817991256714 -0.03365912288427353 0.02101850137114525 0.2595205307006836 -0.07349090278148651 0.2864440977573395 -0.15276968479156494 0.1718093454837799 -0.10949979722499847 -0.06491153687238693 -0.3925297260284424 0.054434165358543396 -0.08836310356855392 0.14430078864097595 -0.32798463106155396 -0.1028280109167099 0.34533804655075073 -0.2328043431043625 -0.04006242752075195 0.06134600192308426 0.18770933151245117 0.2002299427986145 0.2848818302154541 0.044980697333812714 0.32127824425697327 -0.4813339114189148 -0.3035848140716553 0.24210993945598602 -0.20958608388900757 0.2220015525817871 -0.23616860806941986 -0.17999231815338135 0.24387165904045105 0.07413556426763535 0.01938171684741974 0.5538038015365601 0.04593121260404587 0.021502837538719177 -0.2629416286945343 0.21939896047115326 -0.0031846463680267334 -0.4365972876548767 0.14705653488636017 0.00030606240034103394 0.07387849688529968 0.09558717906475067 0.10826920717954636 -0.26984041929244995 -0.06974247843027115 -0.010696674697101116 0.4641803205013275 -1.6482772827148438 -0.1675879806280136 0.4964335858821869 0.07213275134563446 -0.3189944624900818 0.3681785464286804 -0.07909291237592697 0.035433538258075714 -0.9833046793937683 0.14366666972637177 -0.21540644764900208 0.14846065640449524 0.2682325839996338 0.36099252104759216 0.15583759546279907 -0.33246251940727234 0.08137726783752441 -0.17111480236053467 0.13566741347312927 -0.005137021653354168 -0.9891518354415894 -0.30377840995788574 -0.1810247153043747 0.11567425727844238 -0.14028894901275635 -0.09442168474197388 -0.1639529913663864 0.33193522691726685 0.0930040180683136 -0.042510561645030975 -0.2087545245885849 0.2315617799758911 0.3774661421775818 0.24146489799022675 0.18716363608837128 -0.05662773177027702 -0.13776546716690063 -0.13828276097774506 0.34535330533981323 0.2778399586677551 0.14404332637786865 0.040677908807992935 0.39717134833335876 0.29109734296798706 -0.2295932173728943 0.04731656238436699 0.20407870411872864 0.298911988735199 0.4298672378063202 0.5417079925537109 -0.06148219108581543 -0.1966986060142517 -0.28091859817504883 -0.2773734927177429 -0.8199876546859741 -0.22451815009117126 -0.32777148485183716 0.06495046615600586 0.11469240486621857 0.01584119349718094 0.002486949320882559 0.02016441896557808 0.008297024294734001 -0.3241038918495178 0.24243482947349548 0.349504292011261 0.1832839697599411 0.39126214385032654 -0.29627102613449097 -0.05557664483785629 -0.26530495285987854 -0.2441425919532776 0.1994519829750061 -0.10357972234487534 0.5601661801338196 0.009047159925103188 0.3254724144935608 -0.0870392769575119 0.8472188711166382 -0.27628880739212036 -0.2632244825363159 -0.4435262680053711 0.40409064292907715 0.022224364802241325 -0.3581688404083252 0.4490000009536743 0.142353817820549 0.07100135087966919 -0.1453481763601303 -0.16963565349578857 -0.06925240159034729 0.04887981340289116 0.5401037931442261 -0.27231043577194214 -0.016797661781311035 0.040717702358961105 -0.027895232662558556 -0.05049155279994011 -0.04616767168045044 -0.1835315227508545 -0.18715286254882812 0.19108280539512634 -0.0847485288977623 0.1986474245786667 -0.0715513825416565 0.15450836718082428 -0.3088632822036743 0.1753772348165512 0.2192920297384262 0.1596127152442932 0.057232048362493515 -0.13328462839126587 0.0661463588476181 -0.5002543926239014 0.28385403752326965 0.2560216188430786 -0.38180238008499146 -0.016238277778029442 0.14955830574035645 -0.052009403705596924 -0.07067321240901947 0.33564600348472595 -0.005304649006575346 -0.290292352437973 -0.1954137086868286 0.4336134195327759 -0.20050403475761414 -0.06860052794218063 0.13477757573127747 -0.06664454191923141 -0.380487322807312 -0.5279262661933899 0.2519676089286804 -0.1958351582288742 0.42208850383758545 -0.14381444454193115 -0.1863761842250824 0.14341777563095093 0.24794143438339233 -0.392135351896286 -0.2022557258605957 -0.2652295231819153 -0.9832103252410889 0.3473232686519623 0.16808024048805237 -0.2024565190076828 -0.7013403177261353 0.0416359007358551 0.4450189471244812 -0.0985155925154686 0.0738435611128807 0.4324418902397156 0.3222578465938568 0.15262365341186523 0.13016991317272186 -0.7579571604728699 -0.0026068594306707382 0.3333013951778412 -0.4832081198692322 -0.19453534483909607 0.30849137902259827 0.21741783618927002 0.1802821159362793 -0.30596843361854553 0.062101732939481735 -0.15710589289665222 0.14760799705982208 -0.08960842341184616 -0.23669692873954773 0.0874880999326706 0.10442596673965454 -0.314719557762146 -0.10944177210330963 -0.03641301393508911 0.06265266984701157 0.06202443689107895 0.19827388226985931 0.2008681744337082 0.06724230945110321 0.2213147133588791 0.012679040431976318 -0.10107894241809845 -0.02582528255879879 0.006118330173194408 0.1006716638803482 0.009969528764486313 -0.3451527953147888 -0.19856712222099304 0.1056397557258606 0.0770769938826561 0.06545160710811615 -0.13192863762378693 0.08514483273029327 0.16412514448165894 0.2801457941532135 0.3007619380950928 0.2445124089717865 0.12035717070102692 0.15511785447597504 -0.40219828486442566 0.14343230426311493 -0.3386654257774353 -0.3491297960281372 0.0762706845998764 -0.007921112701296806 -0.3148799538612366 -0.5000075697898865 0.06470957398414612 -0.08994825184345245 -0.054707616567611694 -0.09865729510784149 0.08624401688575745 0.10289536416530609 -0.12714622914791107 0.05137079954147339 -0.13673949241638184 0.2646043002605438 -0.22642599046230316 0.185187429189682 0.03341473266482353 0.02709883078932762 0.1382899284362793 0.1922914683818817 -0.05048443004488945 0.2938883900642395 -0.23289582133293152 0.08008934557437897 0.16164660453796387 -0.22212909162044525 -0.04056956246495247 -0.19913366436958313 -0.01770656183362007 0.024949898943305016 -0.07940103858709335 0.0361756831407547 0.20228472352027893 0.028664885088801384 0.005694369785487652 0.26357579231262207 0.16342446208000183 -0.26398369669914246 0.3872036933898926 0.13554197549819946 -0.011207169853150845 -0.3102967143058777 -0.33009177446365356 -0.14038527011871338 -0.17195641994476318 0.04471807926893234 0.11603730916976929 -0.25383803248405457 0.3565790057182312 0.5304216146469116 0.4345734715461731 0.29627060890197754 -0.054544609040021896 0.28375130891799927 0.3177168369293213 -0.059420146048069 -0.10636317729949951 -0.1985890120267868 -0.061604198068380356 -0.31394097208976746 -0.03158221393823624 -0.48946207761764526 0.35390445590019226 0.16920390725135803 0.14609137177467346 -0.11121883243322372 0.3854801654815674 -0.01033056527376175 0.2710619568824768 -0.4819739758968353 0.1442359983921051 -0.33693188428878784 -0.09639253467321396 -0.5200960636138916 0.12378912419080734 0.335812509059906 -0.17817020416259766 -0.0816396176815033 0.043416984379291534 -0.03920597955584526 -0.5831012725830078 0.47938093543052673 0.00041216117097064853 -0.5263496041297913 -0.06191963702440262 -0.31249818205833435 -0.5566596984863281 -0.18015477061271667 0.06860211491584778 0.02477317303419113 0.08045990020036697 0.030761893838644028 0.27127790451049805 -0.41318997740745544 0.3185892701148987 0.04833574593067169 0.4451296329498291 0.23347678780555725 0.19496826827526093 -0.35899242758750916 -0.17904093861579895 0.2886742949485779 0.0658266544342041 0.4499586224555969 -0.10171377658843994 -0.27689164876937866 -0.13487718999385834 0.3204455077648163 0.2976069152355194 0.008395854383707047 0.13056114315986633 0.0806088075041771 0.2704157829284668 0.5121010541915894 -0.07799017429351807 0.1926436722278595 0.43682998418807983 0.3425450026988983 -0.03274936601519585 0.14601770043373108 0.09999901056289673 0.07775858789682388 -0.010359699837863445 0.16336160898208618 0.22049260139465332 0.12259998172521591 0.034093424677848816 0.40147480368614197 -0.05371630936861038 -0.745722234249115 -0.2615512013435364 -0.0009748094598762691 -0.22689124941825867 -0.22626662254333496 0.021705850958824158 -0.12831969559192657 0.2386765331029892 -0.16906337440013885 -0.5071773529052734 0.20765511691570282 0.3211730718612671 -0.1696341335773468 0.20722506940364838 0.031932197511196136 -0.34462106227874756 0.005490805953741074 -0.37276214361190796 0.008169363252818584 -0.3636091649532318 0.022371754050254822 -0.0917968600988388 0.09314769506454468 0.33538398146629333 0.016855569556355476 0.2382637858390808 -0.008190155029296875 0.09227224439382553 -0.3024718761444092 0.09207754582166672 0.47100815176963806 -0.2886006236076355 -0.18742148578166962 -0.30760324001312256 0.4182659983634949 0.04650014638900757 0.17890720069408417 -0.26132985949516296 -0.019319308921694756 -0.3464798927307129 0.25588858127593994 -0.301899790763855 0.332167387008667 -0.3921276926994324 -2.134838104248047 0.3053031265735626 0.22398003935813904 0.12086983025074005 0.16098511219024658 0.1891031265258789 0.3274461627006531 -0.01888738013803959 0.11927825212478638 0.3596671223640442 0.08190299570560455 0.07693957537412643 0.1311464160680771 0.02989780530333519 0.10507173836231232 -0.2434629201889038 0.10762568563222885 0.06389898806810379 0.5403221845626831 -0.0052123237401247025 0.272256076335907 0.07314836233854294 0.24518156051635742 -0.31554675102233887 -0.15787184238433838 0.15046420693397522 0.0714542418718338 0.03428000211715698 -0.007518065627664328 0.13036714494228363 -0.06653110682964325 0.046330228447914124 -0.02158145233988762 -0.247222900390625 0.051434218883514404 0.2848024368286133 -0.2884778380393982 -0.419116735458374 0.08980588614940643 -0.3125785291194916 0.46660035848617554 0.09201346337795258 0.2945462167263031 -0.738379180431366 -0.04562702029943466 -0.004390744026750326 -0.016199927777051926 0.06403806805610657 0.14567774534225464 0.1654198169708252 0.17852935194969177 0.1655733287334442 -0.11631445586681366 -0.030048683285713196 0.10816454887390137 -0.238723486661911 -0.1398971974849701 0.25088250637054443 0.19754032790660858 -0.030124511569738388 0.13264960050582886 -0.07553598284721375 -0.12713554501533508 -0.05396910011768341 0.307659775018692 0.12319490313529968 -0.2691500186920166 -0.11880399286746979 0.1661604940891266 -0.1868213713169098 -0.038673460483551025 0.1129346489906311 -0.0890015959739685 0.1897149682044983 -0.15142355859279633 -0.08906012773513794 -0.21701131761074066 0.38433754444122314 -0.26597246527671814 0.05756206437945366 0.010416412726044655 0.36450597643852234 0.03171474486589432 -0.19313441216945648 -0.08585993945598602 0.1142989844083786 -0.1447460949420929 0.041167646646499634 0.25830772519111633 -0.1550627052783966 -0.13956120610237122 0.3033161759376526 -0.03730641305446625 0.07501515746116638 0.16462492942810059 0.3342089354991913 0.08504518866539001 -0.12935027480125427 0.8254494071006775 0.25579240918159485 -0.1586974412202835 -0.27978894114494324 0.18164408206939697 0.17229220271110535 0.12191268801689148 -0.13736772537231445 0.011063063517212868 -0.004698367789387703 -0.06025524437427521 0.19338634610176086 0.13167504966259003 -0.38947388529777527 0.3174712061882019 0.5538643002510071 -0.1134815663099289 0.20718418061733246 0.15679144859313965 -0.21039080619812012 0.1857314109802246 -0.0301390178501606 0.19791565835475922 -0.21007923781871796 -0.14927862584590912 -0.0680641382932663 0.09528994560241699 0.30717477202415466 0.04112818464636803 0.4251815676689148 -0.06554307043552399 0.10768149793148041 -0.3493412435054779 0.2039719521999359 -0.3266645669937134 0.2832632064819336 -0.05229022353887558 11.569122314453125 -0.09349548816680908 0.07476568967103958 -0.05274456739425659 0.15039750933647156 -0.08157526701688766 0.1166299507021904 0.052591145038604736 -0.08344385027885437 -0.1334460973739624 -0.2623155117034912 -0.13083034753799438 0.3444291055202484 -0.24205529689788818 0.09020118415355682 0.19076232612133026 0.3892521858215332 0.27001306414604187 -0.022190731018781662 -0.12688060104846954 -0.02639824151992798 -0.2144397497177124 0.0905211791396141 0.3193637430667877 -0.14802134037017822 0.03946494311094284 -0.6491026282310486 0.37388452887535095 0.130294069647789 0.16958317160606384 0.19097575545310974 0.21254776418209076 0.2084110975265503 -0.05245188996195793 -0.2755851745605469 0.016087746247649193 -0.6172508001327515 -0.029529940336942673 0.19706599414348602 -0.05215807259082794 -0.17380595207214355 -0.20579099655151367 0.06159219890832901 -0.10079966485500336 0.11304941028356552 0.12474538385868073 -0.48636722564697266 0.2665950655937195 0.1858469694852829 -0.010430006310343742 0.21483883261680603 0.21502356231212616 -0.05321071669459343 -0.564882218837738 0.03764624148607254 -0.582321047782898 0.32213887572288513 0.08091719448566437 -0.08521054685115814 -0.44055819511413574 0.07072507590055466 0.010841382667422295 -0.055435776710510254 0.14483390748500824 -0.023769211024045944 -0.08850529044866562 0.36263948678970337 0.05515776202082634 0.029144596308469772 0.13193506002426147 -0.05881547927856445 0.03711141645908356 -0.14235468208789825 0.03228871151804924 -0.5176682472229004 -0.16076664626598358 -0.02943934127688408 -0.28498685359954834 -0.05639295279979706 -0.20383763313293457 0.018827619031071663 0.260795921087265 0.19928447902202606 -0.01056439708918333 -0.7015811800956726 0.1589721441268921 -0.07456604391336441 0.2090899646282196 -0.0538475327193737 0.05411914736032486 -0.1237512156367302 -0.18050822615623474 -0.24261026084423065 0.1442340612411499 0.2696099877357483 0.20744654536247253 -0.26370692253112793 0.27540215849876404 0.10357435792684555 0.040310658514499664 -0.4633830189704895 0.17606273293495178 -0.3018403649330139 0.3665052354335785 -0.07390286028385162 0.07768650352954865 0.16517500579357147 -0.1792275756597519 -0.2506776452064514 0.14694173634052277 0.09631164371967316 0.22495180368423462 0.1715633124113083 0.3131279945373535 -0.27378976345062256 -0.45943257212638855 0.029067974537611008 0.08950559794902802 0.111813984811306 0.4842889904975891 -0.16055631637573242 0.2728275954723358 0.013404931873083115 -0.38992398977279663 -0.08865650743246078 0.1098448857665062 0.00633624941110611 0.41662031412124634 0.32467252016067505 -0.0025745283346623182 -0.15568473935127258 -0.022966764867305756 0.24174192547798157 0.2976713180541992 -0.07292961329221725 -0.3031616806983948 0.2274051159620285 -0.17298471927642822 0.06525219231843948 0.1582854986190796 -0.1471063792705536 0.2657698392868042 -0.1108950525522232 -0.3264084458351135 -0.26854002475738525 -0.07408200204372406 -0.19503253698349 -0.19506964087486267 0.0337279736995697 -0.12467144429683685 -0.17555008828639984 -0.08345817774534225 -0.1115783154964447 -0.18760529160499573 0.1976965069770813 0.17532160878181458 0.10211972892284393 0.4419791102409363 0.09595777839422226 0.010133206844329834 -0.08581950515508652 -0.7753691077232361 -0.34710758924484253 -0.5971291661262512 -0.1369049847126007 -0.14752303063869476 -0.010468348860740662 -0.14674422144889832 0.33108651638031006 -0.10932746529579163 0.21958725154399872 -0.1432715803384781 0.055827897042036057 0.00824449211359024 0.31177401542663574 -0.22070352733135223 0.09969715774059296 -0.8125481605529785 0.11691732704639435 0.24300968647003174
node_43	0.06512635201215744 0.10046659409999847 0.1821383684873581 0.06070495396852493 0.5858907103538513 -0.4372773766517639 -0.0073782517574727535 0.33965373039245605 -0.02203431725502014 -0.27855491638183594 0.04277592524886131 0.6129523515701294 0.5104808211326599 -0.04994510859251022 0.24212782084941864 -0.24840961396694183 0.9160605669021606 -0.07739674299955368 0.13050922751426697 0.20673821866512299 -0.011122830212116241 0.15640667080879211 0.23945513367652893 0.31646838784217834 -0.26612547039985657 -0.09834522008895874 0.4783068597316742 -0.05037015303969383 -0.011936692520976067 0.1100555807352066 -0.1555255949497223 0.23144035041332245 -0.0637267455458641 0.18971088528633118 -0.16601230204105377 -0.06914529204368591 -0.3245336413383484 0.09637132287025452 -0.05118389055132866 0.1847696751356125 -0.3086353540420532 -0.16630679368972778 0.3488195836544037 -0.13188552856445312 -0.006874935235828161 0.09395281970500946 0.22132530808448792 0.11085044592618942 0.24892692267894745 0.07073234021663666 0.22009879350662231 -0.4242376685142517 -0.32332760095596313 0.3183158338069916 -0.17732930183410645 0.2998693883419037 -0.2803122103214264 -0.09683458507061005 0.1948595941066742 0.0947342962026596 0.06877892464399338 0.5536937117576599 -0.003937634639441967 0.019093511626124382 -0.19506821036338806 0.19324466586112976 -0.0930437296628952 -0.4605507254600525 0.014834493398666382 -0.04702351242303848 0.12681254744529724 0.13883565366268158 0.05427982658147812 -0.155535489320755 -0.04327300190925598 -0.06951107829809189 0.4705199599266052 -1.684636116027832 -0.14684705436229706 0.49794507026672363 0.15100407600402832 -0.2577800452709198 0.2407476305961609 -0.14840203523635864 0.13501623272895813 -0.8507347106933594 0.20304393768310547 -0.16458767652511597 0.2233692705631256 0.21449735760688782 0.35214507579803467 0.21568691730499268 -0.32893380522727966 -0.02493096888065338 -0.08565126359462738 0.08512154221534729 0.01672600768506527 -0.8351671695709229 -0.27915796637535095 -0.02980267070233822 0.0326620414853096 -0.08735939115285873 -0.027318349108099937 -0.17401644587516785 0.3260744512081146 -0.008445958606898785 -0.0842740461230278 -0.13511785864830017 0.23291108012199402 0.33952242136001587 0.3092678487300873 0.11094294488430023 -0.1062212809920311 -0.09900974482297897 -0.05437198281288147 0.31657955050468445 0.22748616337776184 0.04930760711431503 0.1053389459848404 0.29007452726364136 0.2219831645488739 -0.2139391303062439 -0.048778824508190155 0.11295029520988464 0.22372476756572723 0.4764972925186157 0.428510844707489 -0.17469999194145203 -0.16702882945537567 -0.2190380096435547 -0.2937847077846527 -0.864998996257782 -0.19801756739616394 -0.32559722661972046 0.1107625812292099 0.16121427714824677 0.04325791820883751 -0.07660117745399475 0.03573428839445114 0.07725565880537033 -0.2616024911403656 0.2831168472766876 0.20173899829387665 0.21795974671840668 0.33420759439468384 -0.2166295051574707 0.07450933009386063 -0.14888893067836761 -0.20096150040626526 0.19240528345108032 -0.11829426139593124 0.5264430642127991 0.02391551248729229 0.2963225245475769 -0.046936869621276855 0.9463183283805847 -0.11918941140174866 -0.22970792651176453 -0.471538245677948 0.3135239779949188 0.05051390826702118 -0.340690940618515 0.5040146708488464 0.13779906928539276 0.12097840756177902 -0.06191639229655266 -0.16108369827270508 -0.12131114304065704 0.009891016408801079 0.5496660470962524 -0.21654844284057617 -0.046362124383449554 -0.006495398934930563 0.005898068659007549 -0.14247456192970276 0.014943964779376984 -0.19840717315673828 -0.10725503414869308 0.046086907386779785 -0.12160523235797882 0.24305421113967896 -0.04130292683839798 0.15653538703918457 -0.2843421697616577 0.1484338641166687 0.12689529359340668 0.1556132286787033 0.13565567135810852 -0.14915749430656433 0.05758070945739746 -0.5008766651153564 0.23204034566879272 0.2555394768714905 -0.4973389506340027 0.01555783674120903 0.18906228244304657 -0.035485364496707916 -0.10513728857040405 0.37953513860702515 -0.0004636235535144806 -0.2906033396720886 -0.19263198971748352 0.3817712664604187 -0.1498267650604248 -0.10556551069021225 0.15336617827415466 -0.11666272580623627 -0.3768514394760132 -0.468239963054657 0.18047335743904114 -0.1965673863887787 0.5495008230209351 -0.1250591278076172 -0.06563008576631546 0.2003227174282074 0.2506178617477417 -0.41261863708496094 -0.2003840059041977 -0.17229482531547546 -0.964362382888794 0.3069753348827362 0.024591004475951195 -0.24712702631950378 -0.7411076426506042 0.08363994210958481 0.40087389945983887 -0.09617111086845398 0.003410894423723221 0.4410977363586426 0.2911284267902374 0.05483062565326691 0.10897916555404663 -0.6791912913322449 -0.06044219061732292 0.43344879150390625 -0.4699862003326416 -0.25046658515930176 0.3279581665992737 0.30043092370033264 0.21429704129695892 -0.29316502809524536 0.0537518672645092 -0.1119765043258667 0.20483720302581787 -0.10169167816638947 -0.4414058327674866 -0.031618859618902206 0.09613111615180969 -0.28501638770103455 -0.1060510128736496 -0.10799150168895721 0.212132066488266 0.018225030973553658 0.16195353865623474 0.23505985736846924 -0.012122332118451595 0.2603641748428345 0.04039442911744118 -0.08488079905509949 -0.009617984294891357 -0.026330601423978806 -0.06815394014120102 0.023186584934592247 -0.37532854080200195 -0.23877963423728943 -0.040051862597465515 0.04895981773734093 0.006751346401870251 -0.17829559743404388 0.19429433345794678 0.20375663042068481 0.21413654088974 0.1758701056241989 0.26792842149734497 0.11705829203128815 0.13454297184944153 -0.34885260462760925 0.10017947852611542 -0.323587566614151 -0.31897521018981934 0.10162429511547089 -0.023049041628837585 -0.20582501590251923 -0.43927067518234253 0.07070551067590714 0.07087735831737518 -0.06484435498714447 -0.05222463235259056 0.07360196113586426 0.08469550311565399 -0.16481971740722656 0.06662902981042862 -0.2753177881240845 0.22136592864990234 -0.25255298614501953 0.15696488320827484 0.10888080298900604 0.10686004161834717 0.09167041629552841 0.17317382991313934 -0.033288247883319855 0.3265911042690277 -0.3170931339263916 0.014669569209218025 0.15621279180049896 -0.19300667941570282 -0.031963467597961426 -0.21344128251075745 0.0982416421175003 0.09987374395132065 -0.07807128131389618 0.15918461978435516 0.15084463357925415 0.15852653980255127 0.09589063376188278 0.21288959681987762 0.21685843169689178 -0.2926529049873352 0.4348471164703369 0.09668038785457611 0.0024283910170197487 -0.2159184068441391 -0.3509650230407715 -0.19093406200408936 -0.19652336835861206 0.18426989018917084 0.17197662591934204 -0.18114039301872253 0.35897010564804077 0.47526058554649353 0.3987523913383484 0.17496299743652344 0.023586800321936607 0.16983425617218018 0.2031606137752533 -0.0866701602935791 -0.12324150651693344 -0.19353079795837402 -0.016327261924743652 -0.36461660265922546 -0.059800416231155396 -0.5336258411407471 0.32676106691360474 0.15817926824092865 0.10458771884441376 -0.10427367687225342 0.40236493945121765 -0.046524904668331146 0.29670897126197815 -0.38606297969818115 0.11706047505140305 -0.33780306577682495 -0.03520948439836502 -0.456897109746933 0.1651761680841446 0.30701518058776855 -0.19648687541484833 -0.1377234160900116 0.06160975620150566 -0.20954173803329468 -0.4545578360557556 0.4090566039085388 0.02297799289226532 -0.47885727882385254 -0.08889758586883545 -0.2359391152858734 -0.6828271150588989 -0.051388487219810486 0.056360285729169846 0.09131181240081787 0.08160989731550217 0.06375493109226227 0.29073864221572876 -0.31606191396713257 0.2925735414028168 0.12940376996994019 0.37006664276123047 0.28735923767089844 0.1027490422129631 -0.4620177745819092 -0.1452234387397766 0.25418415665626526 0.11341705918312073 0.40111061930656433 -0.12688645720481873 -0.30044931173324585 -0.18974487483501434 0.2680078148841858 0.3526465594768524 0.037217818200588226 0.1501922607421875 -0.00028709074831567705 0.20376792550086975 0.5762864351272583 -0.17125853896141052 0.15208546817302704 0.3734022080898285 0.2375529259443283 -0.1023581326007843 0.09967034310102463 0.1349588930606842 0.07986284792423248 -0.03512720763683319 0.2876390218734741 0.308047890663147 0.2881297469139099 0.052731700241565704 0.3018452525138855 -0.07355567812919617 -0.8330065011978149 -0.16564114391803741 0.00830286554992199 -0.2592051923274994 -0.2340097427368164 -0.059526216238737106 -0.17598526179790497 0.28181320428848267 -0.32393524050712585 -0.4544091820716858 0.21168577671051025 0.3186584413051605 -0.14174696803092957 0.2912517488002777 -0.010194119065999985 -0.27958691120147705 0.011938085779547691 -0.35418233275413513 -0.012341944500803947 -0.3664594888687134 -0.05958282947540283 -0.09819307178258896 -0.029589956626296043 0.42963266372680664 0.03848732262849808 0.14320525527000427 0.051332056522369385 0.16223463416099548 -0.27959245443344116 0.05090054124593735 0.43527060747146606 -0.23304760456085205 -0.20467537641525269 -0.332244336605072 0.2877553701400757 0.004083411302417517 0.23756007850170135 -0.2644975185394287 -0.03772936388850212 -0.4552178978919983 0.13226193189620972 -0.19038760662078857 0.325093150138855 -0.40363264083862305 -1.9473588466644287 0.2861888110637665 0.20204374194145203 0.09217160195112228 0.20314167439937592 0.03429707884788513 0.300907164812088 -0.10896475613117218 0.13022466003894806 0.3413545787334442 0.07146584242582321 0.15139582753181458 0.10021841526031494 0.031940653920173645 0.11550029367208481 -0.21724829077720642 0.11241345852613449 0.2488611340522766 0.5215247273445129 0.029975950717926025 0.23880034685134888 0.14813612401485443 0.19214805960655212 -0.20968088507652283 -0.1962643712759018 0.13638530671596527 0.1739426553249359 0.051544856280088425 0.003082712646573782 0.08120548725128174 -0.10728024691343307 0.07485812902450562 -0.019793963059782982 -0.2943582236766815 0.0725788027048111 0.27795013785362244 -0.3607860505580902 -0.28064677119255066 0.14354997873306274 -0.26245224475860596 0.4468953311443329 0.0862886905670166 0.28893035650253296 -0.7071148753166199 -0.01113157533109188 -0.1659347414970398 0.060746949166059494 0.08493655920028687 0.1435779333114624 0.0768105611205101 0.18274831771850586 0.10697558522224426 -0.056994639337062836 -0.13093242049217224 0.08761130273342133 -0.22408705949783325 -0.059054624289274216 0.2118598073720932 0.20865997672080994 0.07670750468969345 0.12013977020978928 -0.006391732953488827 -0.14746765792369843 -0.04148127883672714 0.3218437135219574 0.03963476046919823 -0.35216647386550903 -0.2563289999961853 0.19986800849437714 -0.24972021579742432 -0.0517805777490139 0.07619674503803253 -0.1038876622915268 0.20702803134918213 -0.09951192140579224 -0.14561697840690613 -0.2133568823337555 0.3324463367462158 -0.14954039454460144 0.0077420007437467575 0.04873735457658768 0.2645442485809326 -0.10258810967206955 -0.22300991415977478 -0.13755014538764954 0.1116972491145134 -0.1755378544330597 -0.01137430127710104 0.3448556363582611 -0.25430476665496826 -0.20246511697769165 0.3467843532562256 -0.04307838901877403 -0.012782638892531395 0.13090327382087708 0.22229930758476257 0.016510291025042534 -0.19212928414344788 0.7728134393692017 0.2835601568222046 -0.24590611457824707 -0.2342241108417511 0.1366036832332611 0.15140876173973083 0.14816062152385712 -0.1109374612569809 0.03828418254852295 -0.010136540047824383 -0.03047458454966545 0.23184800148010254 0.16185912489891052 -0.3083389699459076 0.40343570709228516 0.47687849402427673 -0.14033764600753784 0.16829387843608856 0.15118351578712463 -0.2474689781665802 0.13339737057685852 -0.04140492528676987 0.11176258325576782 -0.23013870418071747 -0.08190252631902695 -0.06978487968444824 0.1039176881313324 0.3211970329284668 -0.006599192973226309 0.4463566541671753 -0.032481126487255096 0.07395997643470764 -0.38289403915405273 0.14158712327480316 -0.32026201486587524 0.27581077814102173 -0.06757461279630661 12.196012496948242 -0.08700869977474213 0.019729778170585632 -0.05781995877623558 0.05238073319196701 -0.0016182016115635633 0.12423528730869293 0.20922081172466278 -0.14316034317016602 -0.11492994427680969 -0.15308819711208344 -0.14007318019866943 0.35016101598739624 -0.2920254170894623 0.06030048057436943 0.18688884377479553 0.4407467842102051 0.2755841910839081 -0.0017618164420127869 -0.04121693968772888 0.023092996329069138 -0.0965561717748642 0.13340377807617188 0.2943054437637329 -0.179457426071167 0.0727614164352417 -0.45894086360931396 0.2983975112438202 0.12061285227537155 0.25034207105636597 0.12945137917995453 0.19826917350292206 0.25058674812316895 0.05841556191444397 -0.18820732831954956 0.13170142471790314 -0.49231481552124023 0.010488264262676239 0.174546480178833 -0.05981352552771568 -0.20011061429977417 -0.17148879170417786 0.047996602952480316 -0.09666132926940918 0.13246199488639832 0.12249167263507843 -0.5132397413253784 0.16296929121017456 0.1346130669116974 -0.022277487441897392 0.1007223129272461 0.11673210561275482 -0.033919092267751694 -0.5442250967025757 0.15147815644741058 -0.4668845534324646 0.2962925434112549 0.03895551338791847 -0.059698980301618576 -0.3971371650695801 0.09461697190999985 -0.04623899981379509 -0.13292086124420166 0.19667260348796844 -0.026599477976560593 -0.12700852751731873 0.34154173731803894 0.00998605228960514 0.20624935626983643 0.11452307552099228 -0.14103063941001892 0.018341420218348503 -0.0970252975821495 -0.05075403302907944 -0.4608481526374817 -0.29747480154037476 0.14739975333213806 -0.26705020666122437 -0.01336753647774458 -0.22024106979370117 0.033308759331703186 0.3333645761013031 0.1728714108467102 -0.0809699147939682 -0.6444577574729919 0.17531925439834595 -0.055001504719257355 0.06422023475170135 0.08334225416183472 0.0886867344379425 -0.16723796725273132 -0.1886187195777893 -0.2707766890525818 0.17943482100963593 0.25985318422317505 0.1405736654996872 -0.22717416286468506 0.33442795276641846 0.08885246515274048 0.01858316734433174 -0.4626333713531494 0.19565090537071228 -0.29963430762290955 0.2638547420501709 -0.028537068516016006 0.12073256820440292 0.24933460354804993 -0.24051502346992493 -0.221494659781456 0.1692141890525818 0.050694789737463 0.17634233832359314 0.004226508550345898 0.30994316935539246 -0.24867211282253265 -0.37784621119499207 0.016594409942626953 0.09765319526195526 0.11352871358394623 0.46020978689193726 -0.04461396858096123 0.19420579075813293 0.04346609115600586 -0.4051949679851532 -0.05771288275718689 0.15914642810821533 0.04651094228029251 0.4023504853248596 0.2500789761543274 -0.012974369339644909 -0.08511710166931152 0.03285712003707886 0.29847294092178345 0.2666909098625183 -0.04706341028213501 -0.29623207449913025 0.1894427239894867 -0.1961672604084015 0.07427921891212463 0.21839986741542816 -0.10911023616790771 0.17045865952968597 -0.11225612461566925 -0.389915406703949 -0.13478949666023254 -0.049110278487205505 -0.23877906799316406 -0.08507248759269714 0.0953550860285759 -0.147454172372818 -0.17285019159317017 -0.10918357223272324 -0.19046428799629211 -0.23901048302650452 0.12884129583835602 0.23321084678173065 0.13083544373512268 0.4376178979873657 0.09938010573387146 0.010266403667628765 -0.1263306438922882 -0.8232809901237488 -0.4006032943725586 -0.5983894467353821 -0.03699434548616409 -0.13421642780303955 0.07252126932144165 -0.12915530800819397 0.36780500411987305 -0.029404062777757645 0.25593215227127075 -0.22136233747005463 -0.10483893752098083 0.002943479921668768 0.27550292015075684 -0.22254592180252075 -0.019342243671417236 -0.8472514152526855 0.09010821580886841 0.24155205488204956
node_31	0.06312565505504608 0.14721307158470154 0.11636213958263397 0.04015377536416054 0.4299986958503723 -0.36361151933670044 -0.022086292505264282 0.2609041929244995 -0.07764552533626556 -0.31119242310523987 0.00040091079426929355 0.4757850170135498 0.450242817401886 -0.048450153321027756 0.20341986417770386 -0.03538539260625839 0.7943531274795532 -0.04401014372706413 0.21005254983901978 0.24633920192718506 -0.003163500688970089 0.08033038675785065 0.22068798542022705 0.29713669419288635 -0.25891897082328796 -0.08312628418207169 0.44428443908691406 -0.01713968627154827 -0.10217843949794769 0.08258165419101715 -0.1166708692908287 0.16698771715164185 -0.058388687670230865 0.15553072094917297 -0.13757294416427612 0.05807425081729889 -0.2202954888343811 0.09300927817821503 -0.0004433039575815201 0.11999650299549103 -0.2370339334011078 -0.11902420222759247 0.32296451926231384 -0.142137348651886 0.01697925478219986 0.1283130943775177 0.1689341962337494 0.2481149435043335 0.24807235598564148 0.04186028242111206 0.23410364985466003 -0.37934884428977966 -0.31720954179763794 0.34402546286582947 -0.24700003862380981 0.30026018619537354 -0.19275307655334473 -0.1307661235332489 0.18088756501674652 0.03795509785413742 0.036102402955293655 0.2748841345310211 -0.03235047310590744 0.03538445383310318 -0.19490908086299896 0.19846490025520325 -0.03346782177686691 -0.3697974383831024 0.03316796198487282 0.04459085315465927 0.15045718848705292 0.01399553008377552 0.06684765964746475 -0.09268897771835327 0.018406707793474197 0.050318650901317596 0.39746004343032837 -0.9846401214599609 -0.1349596381187439 0.3301053047180176 0.16597029566764832 -0.2674611508846283 0.22475555539131165 -0.006970301270484924 0.0401911698281765 -0.8059658408164978 0.22143475711345673 -0.16170302033424377 0.1798209398984909 0.1852099597454071 0.302679181098938 0.11273800581693649 -0.3146706521511078 -0.05101589113473892 -0.14692029356956482 0.10974070429801941 0.03661883994936943 -0.7897753119468689 -0.2834687829017639 -0.14138862490653992 -0.04123161733150482 -0.08554338663816452 -0.1291670799255371 -0.11108457297086716 0.29844456911087036 -0.038720469921827316 -0.11145704984664917 -0.13808409869670868 0.1710113137960434 0.3949165940284729 0.2259940356016159 0.15751603245735168 -0.03172909840941429 -0.12673506140708923 -0.08334127068519592 0.22307555377483368 0.25828760862350464 0.06451962888240814 0.03753388300538063 0.23876559734344482 0.2105187028646469 -0.1931810975074768 -0.010498235933482647 0.04031014069914818 0.2782190144062042 0.3450184762477875 0.4234132170677185 -0.034473568201065063 -0.1202746033668518 -0.20402252674102783 -0.24261990189552307 -0.6979889869689941 -0.17759858071804047 -0.4277442693710327 0.012383060529828072 0.18180082738399506 0.07811616361141205 -0.03944927453994751 0.07760661840438843 0.010188980959355831 -0.3757883310317993 0.21117261052131653 0.29820388555526733 0.2095412015914917 0.32384976744651794 -0.2326202690601349 0.07618352025747299 -0.1719675064086914 -0.17871586978435516 0.22336193919181824 -0.13136997818946838 0.48610803484916687 0.03708061948418617 0.35062846541404724 -0.05802292376756668 1.0251431465148926 -0.16068026423454285 -0.24408498406410217 -0.4067191481590271 0.19072841107845306 0.03390824794769287 -0.35041970014572144 0.4516850411891937 0.20263740420341492 0.08545485138893127 -0.1202554702758789 -0.1874293088912964 -0.060890864580869675 0.035514622926712036 0.4555039405822754 -0.20292478799819946 -0.03979925811290741 0.07582099735736847 -0.0021083299070596695 -0.10884350538253784 -0.0030266083776950836 -0.1837502419948578 -0.15764836966991425 0.16216960549354553 -0.20301681756973267 0.14816240966320038 0.0383230559527874 0.19279387593269348 -0.2347758412361145 0.15742957592010498 0.19003862142562866 0.19224946200847626 0.0323471799492836 -0.0890527218580246 0.012680523097515106 -0.37263092398643494 0.2819056212902069 0.17064684629440308 -0.3662474751472473 0.01642794907093048 0.2049250602722168 -0.06671249866485596 -0.06700116395950317 0.29975658655166626 0.01445432286709547 -0.2813166677951813 -0.27503424882888794 0.4109375476837158 -0.1599263697862625 -0.056876178830862045 0.044839419424533844 -0.12132041156291962 -0.32589590549468994 -0.44680947065353394 0.1791338175535202 -0.21727876365184784 0.4363531768321991 -0.1005171462893486 -0.07519017159938812 0.135158509016037 0.23466205596923828 -0.31081274151802063 0.1161440908908844 -0.19716215133666992 -0.5767450332641602 0.275053471326828 0.13333863019943237 -0.24572323262691498 -0.6151635050773621 0.07154620438814163 0.3312777280807495 -0.059369515627622604 0.09263589233160019 0.46766313910484314 0.2062927484512329 0.0027603073976933956 0.08706241846084595 -0.4988076090812683 -0.017783308401703835 0.22110703587532043 -0.40162110328674316 -0.12450401484966278 0.24684731662273407 0.23132173717021942 0.20300206542015076 -0.3623373210430145 0.05999382957816124 -0.16879557073116302 0.17549452185630798 -0.033636897802352905 -0.3172771632671356 0.08983757346868515 -0.01957143098115921 -0.27408143877983093 -0.052910834550857544 -0.04265934228897095 0.04160001128911972 0.051537200808525085 0.16317415237426758 0.06258967518806458 -0.06773778796195984 0.19508467614650726 0.033936530351638794 -0.08185549080371857 -0.04710289090871811 0.0037658538203686476 0.0008981339633464813 0.06157117336988449 -0.2694019377231598 -0.09078595042228699 0.010030888020992279 0.04760618507862091 -0.028449054807424545 -0.08101190626621246 0.034634001553058624 0.142441987991333 0.19286614656448364 0.22797906398773193 0.1552167683839798 0.09714871644973755 0.044677846133708954 -0.4678288698196411 0.1221059188246727 -0.17455755174160004 -0.289981484413147 0.04141257330775261 -0.07694551348686218 -0.3112350404262543 -0.42484915256500244 0.04409196972846985 0.056033313274383545 -0.12333884835243225 -0.06331884860992432 0.04729524254798889 0.09114076942205429 -0.14714351296424866 0.03579268604516983 -0.11947454512119293 0.20610260963439941 -0.20018844306468964 0.10976545512676239 0.07470867037773132 0.030744031071662903 0.08648382127285004 0.14235661923885345 -0.005185606889426708 0.3314376473426819 -0.20426838099956512 0.025158032774925232 0.11927962303161621 -0.17643265426158905 -0.1149664968252182 -0.19737336039543152 0.05830908939242363 0.087252676486969 -0.03375128656625748 0.1271308958530426 0.20047366619110107 0.04817269369959831 0.02760903537273407 0.2047964334487915 0.2273915410041809 -0.2687481641769409 0.41330716013908386 0.09297232329845428 -0.03722642362117767 -0.24978002905845642 -0.3344050347805023 -0.07152321189641953 -0.15816444158554077 0.1410515010356903 0.010054640471935272 -0.19151031970977783 0.3563186526298523 0.6561652421951294 0.16806630790233612 0.02665633335709572 0.02682909183204174 0.1695273518562317 0.22072148323059082 -0.11806653439998627 -0.09282194077968597 -0.19774338603019714 -0.09633498638868332 -0.22269785404205322 -0.04761702939867973 -0.37047117948532104 0.3539646863937378 0.16918262839317322 0.13639484345912933 -0.10941143333911896 0.3937942385673523 -0.03842976689338684 0.21985575556755066 -0.32100510597229004 0.12656757235527039 -0.3588680028915405 -0.0725814700126648 -0.4232290983200073 0.11897189915180206 0.28504496812820435 -0.15451836585998535 -0.11058247089385986 0.0568414032459259 -0.1709294319152832 -0.48503798246383667 0.3085007071495056 0.044265225529670715 -0.48561128973960876 -0.11014720052480698 -0.29536697268486023 -0.4275006055831909 -0.10272740572690964 0.03446715325117111 0.011893613263964653 0.06785288453102112 0.12350374460220337 0.30150076746940613 -0.2145719975233078 0.2724508047103882 0.11229167878627777 0.3484419286251068 0.1288188099861145 0.06851496547460556 -0.46682673692703247 -0.1790914535522461 0.2581285834312439 0.07468533515930176 0.3704308271408081 -0.10848700255155563 -0.3364942967891693 -0.15359355509281158 0.2969540059566498 0.2547461986541748 -0.0027541774325072765 0.12104897201061249 0.027328409254550934 0.15945088863372803 0.5354548096656799 -0.10199204087257385 0.16114471852779388 0.3679717183113098 0.13887780904769897 -0.04738323390483856 0.10041611641645432 0.08446802943944931 0.09714452922344208 -0.1662369668483734 0.16249701380729675 0.1840691864490509 0.06949980556964874 -0.030076779425144196 0.3633148670196533 -0.024421419948339462 -0.6427344083786011 -0.19852003455162048 0.06641364097595215 -0.22990682721138 -0.2509252429008484 -0.043095603585243225 -0.1691562533378601 0.3500136137008667 -0.19472484290599823 -0.3843759298324585 0.15498898923397064 0.2693626284599304 -0.08951763808727264 0.23674194514751434 0.004117454402148724 -0.2721485495567322 -0.01676451973617077 -0.28176403045654297 0.021177124232053757 -0.3835519254207611 -0.013017597608268261 -0.08845367282629013 -0.05629213899374008 0.3299269676208496 0.05890932306647301 0.08624675124883652 -0.001935754669830203 0.12232571095228195 -0.2556392550468445 0.06009553000330925 0.36073124408721924 -0.2912538945674896 -0.1814699023962021 -0.24703757464885712 0.27493011951446533 -0.03132488578557968 0.14625097811222076 -0.14806902408599854 -0.061227332800626755 -0.3344413936138153 0.0563499890267849 -0.16643106937408447 0.23584771156311035 -0.4465247094631195 -1.4581388235092163 0.2795405387878418 0.23317645490169525 0.059026457369327545 0.12013479322195053 0.058181650936603546 0.26420122385025024 -0.05567186698317528 0.1679937094449997 0.2552485764026642 0.0366375558078289 0.09783020615577698 0.11300460994243622 -0.012471867725253105 0.17944054305553436 -0.14434562623500824 0.05651702731847763 0.18336747586727142 0.4379236698150635 -0.03934346139431 0.15368591248989105 0.1842741221189499 0.2794208526611328 -0.22341099381446838 -0.08911098539829254 0.06568127870559692 0.14228098094463348 -0.005774039309471846 -0.062407057732343674 0.09714990109205246 -0.0886717140674591 0.05342813581228256 -0.056207071989774704 -0.2830072343349457 0.11545585095882416 0.20229139924049377 -0.19468969106674194 -0.267341673374176 0.16263671219348907 -0.2524369955062866 0.5048569440841675 0.09645488113164902 0.2691485583782196 -0.5204966068267822 0.031047485768795013 -0.038694076240062714 -0.038971103727817535 0.04588734358549118 0.10090598464012146 0.1512259989976883 0.12799882888793945 0.15310052037239075 -0.09263607114553452 -0.10139170289039612 0.07487386465072632 -0.22450801730155945 -0.10221946239471436 0.1798415631055832 0.2417372316122055 0.08472921699285507 0.07790914922952652 -0.0032359908800572157 -0.20273512601852417 -0.04391934722661972 0.24794046580791473 0.1812748908996582 -0.2796620726585388 -0.1637534201145172 0.26613348722457886 -0.2111489474773407 0.020354393869638443 0.14264661073684692 -0.09125127643346786 0.060166582465171814 -0.05177675932645798 -0.13122418522834778 -0.19392111897468567 0.28947731852531433 -0.16471566259860992 0.014781835488975048 -0.013404913246631622 0.3414125144481659 -0.051478311419487 -0.160126730799675 -0.18184447288513184 0.157496839761734 -0.21703080832958221 0.02101164124906063 0.28160807490348816 -0.22185763716697693 -0.26306602358818054 0.35191261768341064 0.102306067943573 0.022953908890485764 0.06606864929199219 0.26203787326812744 0.05981101840734482 -0.11870243400335312 0.20934617519378662 0.24349193274974823 -0.19535386562347412 -0.2634579837322235 0.22869811952114105 0.09625126421451569 0.07514283061027527 -0.215416818857193 -0.07399618625640869 -0.003551310393959284 -0.07964678108692169 0.195219025015831 0.18626008927822113 -0.2216508686542511 0.30294254422187805 0.45422273874282837 -0.14900042116641998 0.16722039878368378 0.07422798871994019 -0.1880522221326828 0.12118607759475708 -0.08904393762350082 0.28012752532958984 -0.2531663179397583 -0.10126318782567978 -0.05762527137994766 0.1512507200241089 0.25427424907684326 0.048613935708999634 0.36489570140838623 -0.048221465200185776 0.06199383735656738 -0.35836443305015564 0.18117670714855194 -0.2952583432197571 0.283783882856369 0.05890657752752304 13.26460075378418 0.017080605030059814 0.12638252973556519 -0.057096581906080246 0.11686305701732635 0.028048377484083176 0.1462368667125702 0.09304728358983994 -0.03259586915373802 -0.11646201461553574 -0.21927568316459656 -0.1108175739645958 0.398149311542511 -0.188552588224411 0.07079862058162689 0.11353959143161774 0.3791315257549286 0.22584275901317596 -0.008309805765748024 -0.11789022386074066 0.006487861275672913 -0.05123789608478546 0.1287020593881607 0.1604786515235901 -0.13959653675556183 0.005835920572280884 -0.41346725821495056 0.2842763066291809 0.11626263707876205 0.25737351179122925 0.15313734114170074 0.16551357507705688 0.24521243572235107 0.05266802757978439 -0.16276180744171143 0.01903671771287918 -0.40032249689102173 0.003566522616893053 0.15707191824913025 0.017972586676478386 -0.13989472389221191 -0.16029374301433563 -0.004436410032212734 -0.051048096269369125 0.09631746262311935 0.07035165280103683 -0.4867824912071228 0.2349967360496521 0.14191937446594238 0.014959113672375679 0.07579910010099411 0.057809632271528244 -0.10120180249214172 -0.405697762966156 0.09955619275569916 -0.5534578561782837 0.318712055683136 0.12605158984661102 -0.05994395911693573 -0.3257494568824768 0.09551821649074554 -0.027313467115163803 -0.0814514085650444 0.09848517179489136 0.06705964356660843 -0.05443249270319939 0.31469911336898804 0.040970683097839355 0.05575183033943176 0.026644056662917137 -0.2142181396484375 0.00047963846009224653 -0.12702009081840515 -0.03974911570549011 -0.4396851062774658 -0.24861876666545868 0.006911572068929672 -0.30353909730911255 -0.02111978828907013 -0.25445836782455444 -0.024077726528048515 0.2941480576992035 0.1962369680404663 -0.09479417651891708 -0.4969385266304016 0.08391278237104416 -0.06693281978368759 0.07966522872447968 0.017627829685807228 0.07453231513500214 -0.1327088177204132 -0.16114993393421173 -0.24641625583171844 0.2324998825788498 0.23661929368972778 0.12086325138807297 -0.2338503897190094 0.2649882137775421 0.1285342425107956 0.10217408835887909 -0.5203911066055298 0.19466674327850342 -0.31664860248565674 0.28023773431777954 -0.06697652488946915 0.11596904695034027 0.1976163238286972 -0.16241934895515442 -0.17966847121715546 0.15527601540088654 0.0644044280052185 0.2833367586135864 0.07290847599506378 0.29381752014160156 -0.2473476380109787 -0.3730923533439636 0.04778437316417694 0.1236482486128807 0.05888763815164566 0.45887911319732666 -0.11474432796239853 0.2335866540670395 0.10954009741544724 -0.35638055205345154 -0.11834051460027695 0.1705465316772461 -0.004752784501761198 0.4111593961715698 0.25164973735809326 -0.10883967578411102 -0.13805268704891205 -0.0022290064953267574 0.23180505633354187 0.2190142571926117 -0.07411046326160431 -0.25294655561447144 0.2379773110151291 -0.1572573184967041 0.12418469786643982 0.2187805473804474 -0.10458331555128098 0.13718098402023315 -0.15571920573711395 -0.36533161997795105 -0.19509010016918182 -0.08471649140119553 -0.23474451899528503 -0.1723049134016037 0.1020219624042511 -0.18981069326400757 -0.20783501863479614 -0.03408496454358101 -0.16193965077400208 -0.1873902529478073 0.17751899361610413 0.23699256777763367 0.09602346271276474 0.5053423047065735 0.030043546110391617 0.016315072774887085 -0.21250836551189423 -0.6221243143081665 -0.27482402324676514 -0.3879528045654297 -0.1264926642179489 -0.06698762625455856 -0.03574704751372337 -0.14824800193309784 0.2756511867046356 -0.09464220702648163 0.2422645539045334 -0.22763049602508545 -0.11660604178905487 -0.02793710306286812 0.22761057317256927 -0.2242119163274765 0.04115065187215805 -0.6452305912971497 0.14976420998573303 0.17793801426887512
