node_20	0.1742808073759079 0.26175934076309204 0.24897632002830505 -0.1468474566936493 0.828110933303833 -0.33678266406059265 0.0746736153960228 0.1603470742702484 -0.16887319087982178 -0.3674515187740326 0.1725466251373291 0.7130000591278076 0.30942097306251526 -0.20425891876220703 0.20958386361598969 -0.30390310287475586 0.4277575612068176 0.12070044875144958 0.03248076140880585 0.39021310210227966 -0.04852607101202011 0.061019837856292725 -0.017611734569072723 0.14616993069648743 -0.1866779774427414 0.10547845810651779 0.4396704435348511 -0.0070485398173332214 0.06721233576536179 -0.011625280603766441 -0.0859186202287674 0.28289085626602173 0.07015810906887054 0.25860318541526794 -0.39857086539268494 0.02007155865430832 -0.29672861099243164 0.20239102840423584 0.3096827268600464 0.05490240454673767 -0.8235725164413452 0.3827463984489441 0.19029158353805542 -0.030999373644590378 0.09754025936126709 -0.021291162818670273 -0.06977015733718872 0.02124287746846676 0.17151042819023132 0.10601481795310974 0.2719675898551941 -0.37172651290893555 -0.20861952006816864 0.3006020784378052 -0.09295620769262314 0.10546748340129852 -0.03613770753145218 -0.013623486272990704 0.3856894373893738 0.01529625989496708 0.17473706603050232 -0.038931917399168015 0.16512249410152435 -0.3422256410121918 0.12199678272008896 0.13175556063652039 0.04205075651407242 -0.33151960372924805 0.17747077345848083 0.195022314786911 -0.03566538915038109 -0.08883603662252426 0.29569536447525024 0.2362285554409027 0.2183513641357422 -0.04706072434782982 0.4783239960670471 -3.069157600402832 -0.11674171686172485 0.5768334865570068 0.20622074604034424 -0.44333523511886597 0.4055856466293335 0.1229410171508789 0.1480184644460678 -0.5346184968948364 0.2556946575641632 -0.31701672077178955 0.28462180495262146 0.49592292308807373 0.4904482364654541 -0.03824493661522865 -0.25275442004203796 0.025872081518173218 -0.0030898484401404858 0.4348657727241516 0.021843237802386284 -0.08486735820770264 -0.36549144983291626 -0.04116068780422211 0.14249661564826965 0.04157540202140808 0.3206503391265869 -0.4056147038936615 0.3121543824672699 0.03347468003630638 -0.3451389670372009 -0.35104990005493164 0.3960433602333069 0.37694546580314636 -0.006560683250427246 -0.07067795097827911 -0.05585525557398796 -0.1562155783176422 -0.16970357298851013 0.12167409062385559 0.24872295558452606 0.1932353675365448 0.1897556036710739 0.5442580580711365 0.13664165139198303 -0.36066290736198425 -0.1047993153333664 -0.3255932331085205 0.06088508293032646 0.886195182800293 0.30460846424102783 0.04490077123045921 -0.09428967535495758 -0.2886044383049011 -0.26836520433425903 -1.4873409271240234 -0.05649954080581665 -0.12982779741287231 0.13178320229053497 0.32652556896209717 -0.22815614938735962 0.021264322102069855 0.0327177457511425 -0.0652771145105362 -0.26557275652885437 -0.048687584698200226 0.06386971473693848 0.14587920904159546 0.62175452709198 -0.22572961449623108 0.19040200114250183 -0.2128840684890747 -0.0881657525897026 0.16459618508815765 -0.20548397302627563 0.4422391653060913 0.034749701619148254 0.5231777429580688 -0.2696020305156708 0.6734957098960876 -0.09962978214025497 -0.18182486295700073 -0.436724990606308 0.5285369753837585 0.09785330295562744 -0.13425502181053162 0.6062570214271545 0.18309101462364197 0.08148318529129028 -0.039306577295064926 0.06470789760351181 0.036276452243328094 0.06547516584396362 0.7538338899612427 -0.18756741285324097 -0.14391659200191498 -0.05354311689734459 -0.03517782315611839 -0.14192068576812744 0.23557314276695251 -0.29119396209716797 -0.004537525586783886 0.2538830041885376 -0.14072230458259583 0.18725880980491638 -0.032748740166425705 0.08805873245000839 -0.3645983338356018 0.32469412684440613 0.7859081029891968 0.15035924315452576 -0.1713496297597885 -0.08939453959465027 -0.039607416838407516 -0.4346892833709717 -0.06832270324230194 0.34996575117111206 0.03664075955748558 0.1867060363292694 0.2920364737510681 -0.16372692584991455 -0.0841531902551651 0.5713388919830322 -0.13708601891994476 -0.3830435872077942 -0.48693740367889404 0.4979155957698822 -0.1314176321029663 0.40330904722213745 0.0865572914481163 -0.4636114239692688 -0.29095691442489624 -0.35666531324386597 0.1404232382774353 -0.2248774766921997 1.0626118183135986 -0.2807829976081848 -0.1849593222141266 0.4689403772354126 0.38787364959716797 -0.46534597873687744 0.2578909993171692 -0.19337444007396698 -1.053359866142273 0.20538341999053955 0.2064913511276245 -0.120216004550457 -0.6562464237213135 0.30545204877853394 0.40943098068237305 0.16255906224250793 0.11282267421483994 0.44606468081474304 0.04300781339406967 0.06799054145812988 -0.3724548816680908 -0.4489954113960266 -0.203684002161026 0.11242665350437164 0.18667015433311462 -0.10553038120269775 0.39901822805404663 0.11727457493543625 0.31113582849502563 -0.10427834838628769 0.21363584697246552 -0.24006563425064087 0.22043296694755554 0.006727824918925762 -0.45537543296813965 0.1374993920326233 -0.8546377420425415 -0.3067719638347626 -0.2528489828109741 -0.04824993759393692 -0.2914988398551941 -0.08761816471815109 0.13283371925354004 0.29011136293411255 -0.26957064867019653 0.1411401629447937 -0.08496461808681488 -0.14177238941192627 -0.5123592615127563 -0.013918707147240639 -0.1287626326084137 0.15443578362464905 -0.2514115869998932 -0.26781201362609863 -0.3389056324958801 0.10271870344877243 -0.19085407257080078 -0.18758553266525269 0.27805081009864807 0.19177895784378052 0.10138438642024994 0.2949446141719818 0.11982458084821701 0.10171665996313095 0.085004523396492 -0.3312883973121643 0.26438772678375244 -0.3718608319759369 -0.5086134076118469 0.38270020484924316 0.06937503069639206 -0.31367477774620056 -0.3494599461555481 0.08131957054138184 -0.07158547639846802 0.08361851423978806 -0.30276525020599365 0.14025680720806122 0.12817829847335815 -0.29144901037216187 0.20842769742012024 -0.1663302183151245 0.1757650375366211 -0.3783110976219177 0.24916121363639832 0.16577327251434326 0.11755642294883728 0.2866235673427582 0.12469562143087387 -0.01891409419476986 0.42139506340026855 0.06320645660161972 0.05686582252383232 0.22609727084636688 -0.2683764696121216 -0.1016259640455246 -0.3010950982570648 -0.040167178958654404 0.4318975806236267 -0.01751914620399475 0.40951794385910034 -0.04133959114551544 0.15315020084381104 0.14690056443214417 -0.011037752032279968 0.24119655787944794 -0.11018575727939606 0.4207358956336975 0.0365416593849659 -0.15247943997383118 -0.02266770415008068 -0.3410900831222534 0.13281983137130737 -0.17648062109947205 0.34782037138938904 -0.11673720926046371 -0.43583083152770996 0.43030402064323425 0.09369049966335297 1.5771163702011108 0.8275933265686035 0.246840238571167 0.8378033638000488 0.08838354796171188 -0.06052407622337341 -0.07812483608722687 -0.0992489904165268 -0.20360207557678223 -0.1547814905643463 -0.17963562905788422 -0.6414883732795715 0.28876012563705444 0.03945859149098396 0.21344612538814545 -0.09636135399341583 0.3201316297054291 -0.1510375440120697 0.1172695979475975 -0.5347692966461182 -0.1374097466468811 -0.2478601634502411 0.03454826399683952 -0.566196084022522 0.2681782841682434 0.23730206489562988 -0.4019039273262024 -0.2739656865596771 0.03547586500644684 0.2590334415435791 -0.630342423915863 1.0479629039764404 -0.13854795694351196 -0.3700650632381439 -0.271450400352478 -0.4287889897823334 -0.804377019405365 -0.08091723918914795 -0.0025762866716831923 -0.19568553566932678 -0.07071877270936966 0.26241248846054077 0.4438857436180115 -0.1287524700164795 0.2765003442764282 0.12460543215274811 0.486863374710083 0.4474424719810486 0.21357756853103638 -0.3847090005874634 -0.34016674757003784 0.5784608721733093 0.07876530289649963 0.3831113278865814 0.08377836644649506 -0.4226468503475189 -0.18481849133968353 0.3659864664077759 0.6396710872650146 -0.07963061332702637 0.21376971900463104 0.009071653708815575 0.340803325176239 0.7048417329788208 -0.2008606195449829 0.2856377959251404 0.1358821988105774 0.5317511558532715 -0.3986468017101288 0.3024561405181885 0.3221167027950287 0.14904296398162842 -0.18504810333251953 0.17078787088394165 0.34636828303337097 0.012002537958323956 -0.10318656265735626 0.14550505578517914 -0.05936267226934433 -0.689232587814331 -0.19688497483730316 -0.027532193809747696 -0.3866381049156189 -0.21357354521751404 -0.08555901050567627 -0.25904354453086853 0.2874535918235779 -0.38142919540405273 -0.5735886096954346 0.24551674723625183 0.34866198897361755 -0.0009978836169466376 0.2435440719127655 -0.03738819807767868 0.20933011174201965 0.12800541520118713 -0.3239601254463196 0.04615534096956253 -0.7650803327560425 0.03802059590816498 -0.13071273267269135 0.12054097652435303 0.5539044141769409 0.2481168508529663 0.27897489070892334 -0.08087645471096039 0.17600689828395844 -0.026239147409796715 -0.015377260744571686 0.392641544342041 -0.37917065620422363 -0.08725200593471527 -0.3999270796775818 0.2850971519947052 0.00209392374381423 0.13987967371940613 -0.26712554693222046 -0.21370892226696014 -0.39069080352783203 -0.004817142151296139 -0.24723482131958008 0.5160189867019653 -0.5112267732620239 -2.3846025466918945 0.23599287867546082 0.09250368922948837 0.0980587750673294 0.17053841054439545 0.1913379430770874 0.19836127758026123 -0.1858195960521698 0.11119846999645233 0.4403051733970642 0.15353649854660034 0.07049763202667236 0.19901876151561737 0.04900417849421501 -0.038818083703517914 -0.19212882220745087 0.09368692338466644 0.3131079375743866 0.33030107617378235 -0.006960087921470404 0.4554177224636078 0.16832700371742249 0.287284255027771 -0.09680365025997162 -0.48252710700035095 -0.000537703454028815 0.08972902595996857 0.07662777602672577 -0.09165889024734497 0.009815318509936333 -0.1563994288444519 0.02350623905658722 0.0706930011510849 -0.39949631690979004 -0.07241091877222061 0.29162460565567017 -0.3175315260887146 -0.2676513195037842 -0.13851255178451538 -0.4728066325187683 0.7073637843132019 0.09061914682388306 0.3026340901851654 -1.0006169080734253 -0.23322269320487976 -0.537724494934082 -0.07618975639343262 -0.0026814392767846584 0.18837285041809082 0.3130367398262024 0.0765683501958847 0.1925084888935089 -0.3269094228744507 -0.17722126841545105 0.06076296418905258 -0.03129559010267258 -0.0863950103521347 0.10793950408697128 0.2497127503156662 0.014384349808096886 0.22954830527305603 0.12456059455871582 -0.2547665536403656 -0.1836671233177185 0.19929777085781097 -0.40189939737319946 -0.1999761164188385 -0.13659343123435974 0.40369972586631775 -0.13328003883361816 0.07542874664068222 0.17483386397361755 0.10407131910324097 0.019740328192710876 0.11388641595840454 0.09428851306438446 -0.0527062714099884 0.4977879226207733 -0.07811537384986877 0.08162983506917953 -0.0073207346722483635 0.7022567987442017 -0.040695104748010635 -0.11149339377880096 -0.15546557307243347 0.354448139667511 -0.18480902910232544 -0.3288221061229706 0.4000822901725769 -0.07253112643957138 -0.3515821099281311 0.21387916803359985 0.09148748964071274 0.06296547502279282 -0.06706109642982483 0.20314310491085052 0.26744818687438965 -0.4747113585472107 3.8896894454956055 0.19949260354042053 -0.14016574621200562 -0.1003449559211731 0.16263212263584137 0.2196795642375946 -0.33151400089263916 -0.26925474405288696 -0.1785280555486679 0.0788925290107727 -0.2555605471134186 -0.13602757453918457 0.2026970088481903 -0.36476242542266846 0.1811383068561554 0.5000030398368835 -0.23323240876197815 0.04036595672369003 0.21011614799499512 -0.08652004599571228 0.2990299165248871 -0.08182862401008606 0.5388606786727905 -0.5151561498641968 -0.15750467777252197 -0.11942287534475327 0.1337001621723175 0.2955131232738495 0.21993115544319153 0.5067731142044067 0.041084855794906616 0.018882930278778076 -0.37737542390823364 0.1893014907836914 -0.27867263555526733 0.3113272488117218 0.11052106320858002 8.65252685546875 0.07888630777597427 0.19268004596233368 0.01296025887131691 0.021814778447151184 0.03039664402604103 0.0816478505730629 0.5435203909873962 -0.015578518621623516 0.055878959596157074 -0.15527354180812836 -0.24125230312347412 0.13145151734352112 -0.48763760924339294 -0.24405203759670258 0.07974031567573547 0.6366792321205139 0.25383877754211426 0.009969376027584076 -0.07737070322036743 -0.10549014806747437 -0.019277777522802353 -0.03736058622598648 0.10588894784450531 -0.3108736276626587 0.2553033232688904 -0.5302265882492065 0.0698266476392746 -0.009602701291441917 0.3863426148891449 0.12421303242444992 0.1583918333053589 -0.03305599093437195 0.15919558703899384 0.20453791320323944 0.43440574407577515 -1.1702193021774292 0.03485887497663498 0.17693862318992615 -0.13475066423416138 -0.2093600481748581 -0.4357670545578003 0.040345557034015656 -0.09800788015127182 0.16432131826877594 -0.0811404436826706 -0.5193271636962891 0.12957033514976501 0.08052044361829758 -0.13141614198684692 0.08676289767026901 0.1517617553472519 -0.08046219497919083 -0.28847354650497437 -0.05576244741678238 -0.6214815378189087 0.35910552740097046 0.06137343868613243 0.007235324941575527 -0.5325525999069214 0.32340526580810547 0.11194627732038498 -0.16375640034675598 0.014052319340407848 0.7990179061889648 -0.023952683433890343 0.33713018894195557 -0.14252465963363647 0.06519290804862976 0.13224127888679504 -0.15783832967281342 -0.14881819486618042 0.11554872989654541 -0.1783134788274765 -0.5883463025093079 -0.5004401206970215 -0.06825828552246094 -0.34035858511924744 -0.08880166709423065 -0.027101879939436913 0.01289319060742855 0.3748633563518524 0.21946442127227783 -0.15303847193717957 -0.7449833750724792 0.1270294487476349 0.039045773446559906 0.020122725516557693 -0.02532060071825981 -0.006720251869410276 -0.07959888875484467 -0.1394711136817932 -0.16202601790428162 -0.004845261573791504 0.3546498417854309 0.025448959320783615 -0.11347659677267075 -0.00516491150483489 -0.07589755952358246 -0.013997882604598999 -0.6589145064353943 0.12409915030002594 -0.25777101516723633 0.22843053936958313 -0.03227218985557556 0.6068754196166992 0.536774754524231 -0.5704829096794128 -0.12568853795528412 -0.033453237265348434 0.18725453317165375 0.41792863607406616 0.1066366657614708 0.17988304793834686 -0.2734830975532532 -0.3264293074607849 0.15416699647903442 0.17506030201911926 0.044620320200920105 0.674184262752533 -0.2920719087123871 0.3908064365386963 0.1128007024526596 -0.3743557333946228 -0.17959360778331757 -0.010240930132567883 -0.045027296990156174 0.489957332611084 0.13152919709682465 -0.13693496584892273 -0.5344998240470886 -0.1405809372663498 0.319372296333313 0.13360440731048584 -0.15016016364097595 -0.39658889174461365 0.3942525088787079 -0.09470440447330475 -0.16222158074378967 0.16459104418754578 0.08381953835487366 0.09899189323186874 0.020679302513599396 -0.34864872694015503 -0.19825343787670135 -0.16580240428447723 -0.150440514087677 -0.28637266159057617 0.11317527294158936 -0.29854679107666016 -0.19949772953987122 -0.0017346988897770643 -0.28809207677841187 0.04861164093017578 0.03037724457681179 0.2763609290122986 -0.00022400854504667222 0.6807422637939453 0.10931690037250519 0.09612388908863068 -0.15278160572052002 -0.9234830141067505 -0.4236503839492798 -0.6370244026184082 -0.4265873432159424 -0.1547149419784546 -0.1254870891571045 -0.29499351978302 0.3192773461341858 0.03831587731838226 0.20328257977962494 -0.1606537401676178 -0.2322484701871872 -0.2937612533569336 0.32046371698379517 -0.1658892035484314 -0.2501526176929474 -0.38841336965560913 0.13729582726955414 0.27566781640052795
node_23	0.09371703863143921 0.33468592166900635 0.1886412799358368 -0.20286999642848969 1.2531324625015259 -0.4278002977371216 0.11167856305837631 0.19733312726020813 -0.13178615272045135 -0.28616246581077576 0.04352692514657974 0.3114294707775116 0.37178274989128113 -0.010710706934332848 0.04610314592719078 -0.6784815788269043 0.5686854124069214 0.2609916627407074 0.05022934824228287 0.6211625337600708 -0.03402161970734596 0.10947282612323761 -0.10787582397460938 0.15709689259529114 -0.08261619508266449 0.13881245255470276 0.46331340074539185 0.030386656522750854 0.12572234869003296 0.11153291165828705 -0.030287278816103935 0.24449387192726135 0.07860332727432251 0.23525285720825195 -0.39615440368652344 0.006183607038110495 -0.4210888743400574 0.14561501145362854 0.3278878331184387 0.15693026781082153 -0.77724689245224 0.3194690942764282 0.1916595697402954 -0.10399192571640015 0.1151677817106247 -0.008768221363425255 -0.16649964451789856 -0.19281789660453796 0.1876019686460495 0.13299183547496796 0.2891327142715454 -0.3484833240509033 -0.21034473180770874 0.34001657366752625 -0.07626640796661377 0.22387492656707764 -0.009869322180747986 -0.10501544922590256 0.40700432658195496 0.020784232765436172 0.07144302129745483 0.5604491829872131 0.26749297976493835 0.07831614464521408 0.07190601527690887 0.12556737661361694 0.0660296380519867 -0.33008137345314026 0.1626412570476532 0.1374010443687439 -0.03428637236356735 -0.15928223729133606 0.33687061071395874 0.005453559570014477 0.18605327606201172 0.2154006063938141 0.5347439646720886 -2.8097357749938965 -0.30534589290618896 0.5292903184890747 0.14908650517463684 -0.4895326495170593 0.33383500576019287 -0.04415762424468994 0.053701385855674744 -0.4198095500469208 0.2635365426540375 -0.31465646624565125 0.27249690890312195 0.4626561999320984 0.27674344182014465 -0.06106095016002655 -0.18730281293392181 0.1997329294681549 0.01428224891424179 0.33011794090270996 0.020408621057868004 -0.11827526986598969 -0.30729109048843384 -0.013731132261455059 0.11026911437511444 0.09714319556951523 0.2692805230617523 -0.22542497515678406 0.32546326518058777 -0.06087838113307953 -0.3205774426460266 -0.29900604486465454 0.4607663154602051 0.4630635678768158 0.01640453189611435 0.009649078361690044 -0.08087673783302307 -0.13801248371601105 -0.18642354011535645 0.15028534829616547 0.19751904904842377 0.1405385434627533 0.15849420428276062 0.5643899440765381 0.1292402148246765 -0.3298965096473694 0.028857529163360596 -0.2128816843032837 -0.04403885453939438 0.781200110912323 0.34648919105529785 -0.027379145845770836 -0.10524865239858627 -0.31246712803840637 -0.2125900387763977 -1.1646572351455688 -0.14527198672294617 -0.019359907135367393 0.1429263949394226 0.3348131775856018 -0.2040342092514038 0.031741686165332794 -0.05907926708459854 -0.13141869008541107 -0.2831651270389557 -0.033992208540439606 0.06948539614677429 0.09709757566452026 0.4121525287628174 -0.17855632305145264 0.1571352481842041 -0.15471406280994415 -0.0825434997677803 0.2402353584766388 -0.14855095744132996 0.31098470091819763 0.07714157551527023 0.5346569418907166 -0.30103862285614014 0.6157452464103699 -0.17693142592906952 -0.18023636937141418 -0.48422980308532715 0.5606483221054077 0.10591918230056763 0.032611459493637085 0.5707191824913025 0.16490092873573303 0.11444830894470215 -0.026220612227916718 0.032681480050086975 0.1358669102191925 0.06299231946468353 0.815576434135437 -0.16987811028957367 -0.13144773244857788 -0.1220475435256958 -0.005280827637761831 -0.14467594027519226 0.2547623813152313 -0.3134281039237976 -0.043655455112457275 0.2293291538953781 -0.09766565263271332 0.1955864429473877 -0.0015563418855890632 0.04251134395599365 -0.3346249461174011 0.29917675256729126 0.613181471824646 0.12309078872203827 -0.17410384118556976 0.03695712238550186 -0.09598241746425629 -0.5256347060203552 -0.07403302192687988 0.29730328917503357 -0.12901227176189423 0.15453651547431946 0.3529615104198456 -0.14651046693325043 -0.15266351401805878 0.5453327298164368 -0.1657259464263916 -0.39110273122787476 -0.5539817810058594 0.4311310648918152 -0.16838222742080688 0.21386298537254333 0.016340546309947968 -0.1663816273212433 -0.31455233693122864 -0.32856738567352295 0.08176896721124649 -0.15598011016845703 0.7644866704940796 -0.2872605323791504 -0.16316623985767365 0.26025232672691345 0.5255284309387207 -0.3859127163887024 0.3222605586051941 -0.3175148367881775 -0.9249836802482605 0.11073879897594452 0.22164466977119446 -0.21335773169994354 -0.6830872297286987 0.09944488108158112 0.3969308137893677 0.10541105270385742 0.09800612926483154 0.3701518774032593 0.13195408880710602 0.025534197688102722 -0.21652261912822723 -0.6112997531890869 -0.11850383132696152 0.164010152220726 0.08500927686691284 -0.1194002628326416 0.37636715173721313 0.16393396258354187 0.3283390700817108 0.17888973653316498 0.20605580508708954 -0.24720875918865204 0.2347739040851593 -0.026318540796637535 -0.3751153349876404 0.06791684776544571 -0.5319567918777466 -0.2750306725502014 -0.24660548567771912 0.0002840856905095279 -0.30836278200149536 -0.04595615714788437 0.12676379084587097 0.35752448439598083 -0.15630464255809784 0.17084026336669922 -0.10686682164669037 -0.06660249829292297 -0.5126017332077026 -0.07568950951099396 -0.15133552253246307 0.13639888167381287 -0.2538224160671234 -0.23447385430335999 -0.022063225507736206 0.060758933424949646 -0.2525062561035156 -0.18486326932907104 0.22163140773773193 0.13918733596801758 0.09689396619796753 0.31912192702293396 0.12674909830093384 0.09338907897472382 0.03930271416902542 -0.3551015853881836 0.28285011649131775 -0.36439988017082214 -0.5406670570373535 0.4188627004623413 0.08707316219806671 -0.34508031606674194 -0.40254923701286316 0.1358949840068817 -0.09748905152082443 0.04976987466216087 -0.36479759216308594 0.15284761786460876 0.20108044147491455 -0.2204657793045044 0.14307048916816711 -0.19801752269268036 0.0667341873049736 -0.2565249502658844 0.2070789337158203 0.18739597499370575 0.05531824752688408 0.19464430212974548 0.058625608682632446 -0.04096151515841484 0.3287476897239685 0.07718126475811005 0.042273201048374176 0.19432315230369568 -0.2407894730567932 -0.1396629363298416 -0.33977603912353516 -0.04691554605960846 0.3896975517272949 -0.1424105018377304 0.3306610584259033 -0.05070798844099045 0.16191408038139343 0.11679618805646896 -0.03296215087175369 0.19411465525627136 -0.030288580805063248 0.4694240987300873 0.06045268103480339 -0.13153640925884247 -0.11773954331874847 -0.32946524024009705 0.07927891612052917 -0.25968000292778015 0.3221225440502167 -0.021980246528983116 -0.3013523519039154 0.3998502194881439 0.14255233108997345 1.4862092733383179 0.775662899017334 0.18759755790233612 0.6286517381668091 0.11523102223873138 -0.09184771031141281 -0.1415996253490448 -0.054652996361255646 -0.15050718188285828 -0.25754135847091675 -0.04800529405474663 -0.6042481660842896 0.2751550078392029 -0.007021009922027588 0.21510152518749237 -0.09153749793767929 0.36075517535209656 -0.18845096230506897 0.0677577406167984 -0.5339545011520386 -0.11484968662261963 -0.20304179191589355 0.004941185470670462 -0.5174580812454224 0.19712458550930023 0.35570698976516724 -0.31602394580841064 -0.20238453149795532 0.008929360657930374 0.4474810063838959 -0.6367189884185791 0.9911082983016968 -0.09242931008338928 -0.38557931780815125 -0.2605739235877991 -0.3047685921192169 -0.8031928539276123 0.048805683851242065 0.0031623593531548977 -0.17570285499095917 -0.052175432443618774 0.22816500067710876 0.5036318302154541 -0.31498807668685913 0.3130267560482025 0.11351659893989563 0.43042072653770447 0.36213159561157227 0.15943817794322968 -0.4064815938472748 -0.1986483633518219 0.5586291551589966 0.0351526141166687 0.40848153829574585 0.10832947492599487 -0.3996008634567261 -0.2005348652601242 0.41656774282455444 0.43274086713790894 -0.10577011108398438 0.10517159104347229 0.057372331619262695 0.2569202780723572 0.7116050720214844 -0.16611337661743164 0.3041321933269501 0.2344055026769638 0.27257490158081055 -0.3135952651500702 0.2617301642894745 0.29676151275634766 0.13547082245349884 -0.15165118873119354 -0.03244622424244881 0.36137741804122925 0.08545010536909103 -0.10258182138204575 0.132005512714386 -0.12433790415525436 -0.7191355228424072 -0.2845676839351654 -0.10994028300046921 -0.2853420376777649 -0.22983711957931519 -0.04580458626151085 -0.26673781871795654 0.24228262901306152 -0.10375478118658066 -0.49540457129478455 0.25173866748809814 0.391201913356781 0.04829701781272888 0.24477899074554443 -0.08928321301937103 0.14196553826332092 0.12423907220363617 -0.29628658294677734 -0.0038274365942925215 -0.36749666929244995 -0.012747595086693764 -0.08321984112262726 0.12062421441078186 0.5741592645645142 0.2423478364944458 0.3253411054611206 -0.11062868684530258 0.20277594029903412 -0.021749943494796753 0.017022620886564255 0.4562467336654663 -0.2945422828197479 -0.09505686163902283 -0.32147762179374695 0.32422637939453125 0.018010001629590988 0.09084086120128632 -0.37923094630241394 -0.13231483101844788 -0.41000473499298096 -0.12411900609731674 -0.23821958899497986 0.46109217405319214 -0.466234415769577 -2.6227757930755615 0.2203862965106964 0.03455293923616409 0.03952525556087494 0.12882575392723083 0.21615931391716003 0.20356625318527222 -0.1566769778728485 0.09581011533737183 0.45133957266807556 0.04927139729261398 0.05831531435251236 0.17679300904273987 0.09238921105861664 0.12644405663013458 -0.30752259492874146 0.0938115268945694 0.18605665862560272 0.28194063901901245 0.0006325412541627884 0.37248915433883667 0.09337030351161957 0.30623143911361694 -0.11749335378408432 -0.5078717470169067 0.03956246376037598 0.03285369277000427 0.06710980832576752 -0.03482572361826897 0.024001434445381165 -0.09129539132118225 0.004729033913463354 0.05877096578478813 -0.2760220766067505 -0.11340993642807007 0.28041791915893555 -0.3199995160102844 -0.30509448051452637 -0.1483898013830185 -0.4979120194911957 0.707294225692749 0.09736955165863037 0.3239975869655609 -1.126112937927246 -0.11995862424373627 -0.22195744514465332 -0.07183489203453064 0.0013664017897099257 0.17212003469467163 0.382371187210083 0.17584078013896942 0.21234163641929626 -0.2136651575565338 -0.21746985614299774 0.0940650925040245 -0.12281453609466553 -0.022154470905661583 0.22213535010814667 0.19715464115142822 0.021634120494127274 0.22282952070236206 0.14323225617408752 -0.28957945108413696 -0.2129933089017868 0.2024361789226532 -0.4645082354545593 -0.23960661888122559 -0.1630394458770752 0.33492207527160645 -0.0991327315568924 0.03696863353252411 0.0718734934926033 0.05733770132064819 -0.06935685127973557 0.026073303073644638 0.06470634043216705 -0.044518932700157166 0.4738294780254364 -0.12316002696752548 0.061100490391254425 -0.03634493052959442 0.5546750426292419 -0.012804734520614147 -0.12221485376358032 -0.26004621386528015 0.4542003571987152 -0.08606800436973572 -0.39046263694763184 0.3327087461948395 -0.036124005913734436 -0.3347403407096863 0.23418931663036346 0.02415643446147442 0.26469001173973083 -0.054941289126873016 0.22266468405723572 0.25930121541023254 -0.3844415843486786 4.274552345275879 0.2015198916196823 -0.09847249835729599 -0.011552463285624981 0.19868004322052002 0.22164326906204224 -0.330285906791687 -0.17775849997997284 -0.24968886375427246 0.10849302262067795 -0.270927369594574 -0.09283725917339325 0.19398793578147888 -0.2890111207962036 0.14558733999729156 0.4750697612762451 -0.2154283970594406 0.016760284081101418 0.23270587623119354 -0.5379014015197754 0.2525368928909302 -0.14639131724834442 0.17082279920578003 -0.3819780945777893 -0.17530469596385956 -0.06823732703924179 0.452120840549469 0.33450162410736084 0.23206055164337158 0.391873300075531 0.10508427023887634 -0.009559902362525463 -0.29599088430404663 0.16101129353046417 -0.3260946571826935 0.32908982038497925 -0.022377997636795044 8.057893753051758 0.08822883665561676 0.178320974111557 0.008981877937912941 0.05131002515554428 -0.07538507878780365 0.07591833919286728 0.5524715185165405 -0.05654368922114372 0.08164386451244354 -0.12816216051578522 -0.22326454520225525 0.15481947362422943 -0.4102560877799988 -0.2778598666191101 -0.013876537792384624 0.5176255702972412 0.3007860481739044 0.04573410004377365 -0.05505092069506645 -0.0298604816198349 -0.019955851137638092 0.02911105751991272 0.38426265120506287 -0.3266840875148773 0.24260228872299194 -0.411712110042572 0.11176730692386627 -0.01813056692481041 0.3336159586906433 0.01275576651096344 0.05561291426420212 -0.03678480535745621 0.10993565618991852 0.15039460361003876 0.26591283082962036 -0.8073573112487793 0.005041179712861776 0.17543844878673553 -0.05411691591143608 -0.20318245887756348 -0.413659930229187 0.022864682599902153 -0.03578443080186844 0.10271517932415009 -0.06481502205133438 -0.46769601106643677 0.10586826503276825 0.02472975105047226 -0.09640758484601974 0.11221349239349365 0.10951650142669678 -0.12828989326953888 -0.3844830393791199 -0.09095223993062973 -0.5619096755981445 0.27622976899147034 0.07277408242225647 0.025123870000243187 -0.4864046573638916 0.27344346046447754 0.19558164477348328 -0.14135175943374634 -0.0015349711757153273 0.6237670183181763 -0.012507980689406395 0.29022157192230225 0.04034696891903877 0.0489262118935585 0.08251047134399414 -0.11730115115642548 -0.08473725616931915 0.05775424838066101 -0.19340068101882935 -0.6101629734039307 -0.39017730951309204 0.2548171877861023 -0.3645095229148865 -0.0849393829703331 -0.1557476818561554 -0.0047005340456962585 0.39131712913513184 0.24893760681152344 -0.08944538235664368 -0.5725482702255249 0.16643273830413818 0.04177284240722656 0.04835174232721329 -0.22229856252670288 -0.029105370864272118 -0.019724693149328232 -0.2370941936969757 -0.176470085978508 0.09656375646591187 0.4311677813529968 -0.05453917384147644 -0.1400376856327057 0.03142193704843521 -0.05281561613082886 -0.021508468315005302 -0.6325618028640747 0.19519023597240448 -0.19834795594215393 0.2142893522977829 0.037314143031835556 0.4350130558013916 0.6414462924003601 -0.46690142154693604 -0.15094798803329468 0.007217172533273697 0.16294720768928528 0.5478209853172302 0.17595422267913818 0.19261673092842102 -0.3080482482910156 -0.39620646834373474 0.19396410882472992 0.1407267302274704 0.027921682223677635 0.6874250173568726 -0.2687259316444397 0.2829195261001587 0.11060085147619247 -0.38446757197380066 -0.12190030515193939 0.034390613436698914 -0.09126169979572296 0.48031529784202576 0.08962009847164154 -0.0635111927986145 -0.7093779444694519 -0.17875348031520844 -0.19219520688056946 0.16756290197372437 -0.1312679946422577 -0.32388365268707275 0.34775424003601074 -0.10514634847640991 -0.17047101259231567 0.11782519519329071 0.07639362663030624 0.1544758826494217 -0.018722813576459885 -0.6454517841339111 -0.13867881894111633 -0.31102705001831055 -0.15388499200344086 0.1855163872241974 0.10712774842977524 -0.31096991896629333 -0.1192401871085167 0.020437374711036682 -0.3186787962913513 0.14896278083324432 0.0961594209074974 0.2818266749382019 -0.02328229509294033 0.657352864742279 0.06234322488307953 0.09369735419750214 0.04818692058324814 -1.285942554473877 -0.4370245933532715 -0.5171798467636108 -0.24261626601219177 -0.1127716526389122 -0.12619665265083313 -0.3049267530441284 0.18166682124137878 0.06795452535152435 0.21927551925182343 -0.21471604704856873 -0.20242910087108612 -0.28142833709716797 0.3046683669090271 -0.16157200932502747 -0.11640167236328125 -0.5005723834037781 0.06703606992959976 0.284187376499176
node_10	0.14694303274154663 0.2993171215057373 0.22969983518123627 -0.13014546036720276 0.876522421836853 -0.35106122493743896 0.09089198708534241 0.19139568507671356 -0.18150000274181366 -0.29788631200790405 0.01734083890914917 0.6406418085098267 0.3325119614601135 -0.05736105144023895 0.034033533185720444 -0.22086922824382782 0.5196052193641663 0.11365149915218353 0.052625514566898346 0.2293938249349594 -0.005962434224784374 0.06476222723722458 -0.18390832841396332 0.23348936438560486 -0.11947678029537201 0.030822016298770905 0.4701860547065735 0.005656990222632885 0.18485145270824432 0.144895538687706 -0.14575918018817902 0.3239670395851135 0.0867534726858139 0.2551134526729584 -0.38955697417259216 0.040878184139728546 -0.37506335973739624 0.2009885609149933 -0.045590560883283615 0.17240290343761444 -0.8373579978942871 0.3209689259529114 0.19092148542404175 -0.08700111508369446 0.11044608056545258 -0.02535201609134674 -0.021900665014982224 -0.2302330732345581 0.17832422256469727 0.0761619433760643 0.22790825366973877 -0.3712557256221771 -0.2194075584411621 0.3120587468147278 -0.07619474828243256 0.19509413838386536 -0.06305543333292007 -0.09209834784269333 0.3742726743221283 0.02395954355597496 0.16289016604423523 0.5139556527137756 0.1711231917142868 -0.12432113289833069 0.0003960728645324707 0.16702090203762054 0.03611493110656738 -0.14370062947273254 0.1383722424507141 0.16828593611717224 -0.05383887141942978 -0.12417438626289368 0.38236331939697266 0.13667061924934387 0.20456567406654358 0.08627849817276001 0.5509331226348877 -2.630964756011963 -0.3087690472602844 0.564539909362793 0.1683855950832367 -0.4023261070251465 0.3046119213104248 -0.054790955036878586 0.19703409075737 -0.6624093055725098 0.2600422203540802 -0.25793641805648804 0.33647674322128296 0.4873681962490082 0.46088045835494995 -0.019491614773869514 -0.18491914868354797 -0.11052875220775604 -0.00032195387757383287 0.4078487157821655 0.06230621784925461 -0.049301862716674805 -0.33378732204437256 -0.003224417567253113 0.07030965387821198 0.05975016579031944 0.2884986400604248 -0.3389556407928467 0.3056047558784485 0.09440486878156662 -0.3125494420528412 -0.3615022599697113 0.4114930033683777 0.40381646156311035 0.0649971216917038 -0.11456864327192307 -0.057573579251766205 -0.15350130200386047 -0.20246779918670654 0.20471768081188202 0.24973922967910767 0.18103641271591187 0.09514622390270233 0.36512669920921326 0.12510034441947937 -0.3367048501968384 -0.1568216234445572 -0.2001335620880127 0.05664033815264702 0.7636432647705078 0.34357547760009766 -0.0435546450316906 -0.10223522037267685 -0.2820279896259308 -0.21638379991054535 -1.2631003856658936 -0.13043317198753357 -0.35325926542282104 0.10041775554418564 0.3247634172439575 -0.16988641023635864 0.009291110560297966 0.019362740218639374 -0.09449543058872223 -0.28021150827407837 -0.03667518496513367 0.08095264434814453 0.1558772176504135 0.3631383776664734 -0.24265484511852264 0.175044983625412 -0.24274984002113342 -0.23860256373882294 0.1573658585548401 -0.17540889978408813 0.4140101671218872 0.03206661343574524 0.4574747681617737 -0.2773391902446747 0.6598082184791565 -0.07757529616355896 -0.13826611638069153 -0.5142263770103455 0.6589388847351074 0.08644993603229523 -0.005050867795944214 0.6322330236434937 0.13319537043571472 0.07343128323554993 -0.04701831936836243 0.07149063050746918 0.022570079192519188 0.12651383876800537 0.7234999537467957 -0.21748916804790497 -0.10552450269460678 -0.1294010430574417 0.004204561468213797 -0.17494547367095947 0.2438051402568817 -0.2078922986984253 -0.07867801934480667 0.3091467618942261 -0.1398414820432663 0.16301171481609344 -0.02935880981385708 -0.004491391591727734 -0.31814855337142944 0.28609028458595276 0.7442293167114258 0.14351290464401245 -0.2948475480079651 -0.05153503268957138 0.01518065482378006 -0.519562840461731 -0.05586189031600952 0.3658778667449951 -0.00622471934184432 0.1048717051744461 0.09664449095726013 -0.18926554918289185 -0.09873515367507935 0.6623894572257996 -0.13173812627792358 -0.40189847350120544 -0.5568889379501343 0.39056405425071716 -0.14565300941467285 0.222823828458786 0.09538277983665466 -0.3779985308647156 -0.282522976398468 -0.3932994604110718 0.2263677567243576 -0.17149512469768524 0.9882778525352478 -0.19370099902153015 -0.1242586225271225 0.3605256974697113 0.4451734721660614 -0.4798949658870697 0.3265617787837982 -0.2505843937397003 -0.9605554342269897 0.17377786338329315 0.16350391507148743 -0.1770462840795517 -0.6987078189849854 0.22764930129051208 0.5029211044311523 0.15024515986442566 0.09213825315237045 0.39552658796310425 0.06537427008152008 0.027607880532741547 -0.26280856132507324 -0.4837018847465515 -0.23335395753383636 0.13455568253993988 0.03804958984255791 -0.1899470090866089 0.4074668288230896 0.18148231506347656 0.29529815912246704 -0.01583433896303177 0.16930124163627625 -0.26679009199142456 0.23091956973075867 -0.002466095145791769 -0.41853007674217224 0.1326143741607666 -0.48716068267822266 -0.274031400680542 -0.23914723098278046 -0.033599793910980225 -0.1198783665895462 -0.09513723105192184 0.1282680183649063 0.13066914677619934 -0.2448832094669342 0.20319953560829163 -0.09490969032049179 -0.12620262801647186 -0.05832335352897644 -0.04803314059972763 -0.12801681458950043 0.09644310921430588 -0.2468046396970749 -0.20128744840621948 -0.17057034373283386 0.07406874001026154 -0.18658709526062012 -0.2130824327468872 0.24767091870307922 0.13155901432037354 0.11017096042633057 0.25319746136665344 0.09157072752714157 0.05776892229914665 0.13691848516464233 -0.3199910521507263 0.2850920855998993 -0.37077540159225464 -0.5451078414916992 0.34051451086997986 0.07483093440532684 -0.31459933519363403 -0.4053409993648529 0.1875731348991394 -0.11115783452987671 0.0025061469059437513 -0.2493717521429062 0.154912531375885 0.16180986166000366 -0.2605551481246948 0.1863616704940796 -0.20471903681755066 0.09495042264461517 -0.29381176829338074 0.17571114003658295 0.1855773627758026 0.12364189326763153 0.2756190896034241 0.14868944883346558 -0.027375301346182823 0.31469327211380005 -0.07337617874145508 0.06006293743848801 0.21084646880626678 -0.24622881412506104 -0.05541371554136276 -0.32277798652648926 -0.05141175910830498 0.3599667549133301 -0.03601992130279541 0.38275668025016785 -0.05473586916923523 0.0999174565076828 0.07661619782447815 0.011308452114462852 0.2534370422363281 -0.08031895756721497 0.43183451890945435 0.04733610153198242 -0.12465314567089081 -0.009158237837255001 -0.3606965243816376 0.08227770775556564 -0.1702166199684143 0.3540973663330078 -0.05656289681792259 -0.23052296042442322 0.4409162402153015 0.11587169021368027 1.7829570770263672 0.659956693649292 0.1788862943649292 0.7266461253166199 0.07617264986038208 -0.06383141130208969 -0.11948633193969727 -0.04272551089525223 -0.17975914478302002 -0.13718044757843018 -0.13691797852516174 -0.6465200781822205 0.3150293231010437 0.017496991902589798 0.23056715726852417 -0.08557891845703125 0.33484625816345215 -0.15774960815906525 0.21195098757743835 -0.5335454344749451 -0.07336003333330154 -0.17825287580490112 0.01151101291179657 -0.5202714800834656 0.21712616086006165 0.1808236539363861 -0.372952938079834 -0.22907686233520508 0.03388240188360214 0.23190443217754364 -0.6405506134033203 0.9329882860183716 -0.0909218117594719 -0.44582515954971313 -0.2279510796070099 -0.25597110390663147 -0.7379728555679321 0.019073650240898132 -0.04622262716293335 -0.21738559007644653 -0.041466616094112396 0.18098753690719604 0.4790608882904053 -0.11331337690353394 0.2670983672142029 0.11024291813373566 0.42401885986328125 0.3526489734649658 0.24657121300697327 -0.40773749351501465 -0.3251364231109619 0.5948846936225891 0.043828126043081284 0.3510478436946869 0.10999566316604614 -0.41200101375579834 -0.2489350289106369 0.4063084125518799 0.5386519432067871 -0.08859781920909882 0.19488975405693054 0.02035457454621792 0.2649949789047241 0.693877100944519 -0.17783626914024353 0.2439160794019699 0.184065580368042 0.5518127679824829 -0.2572622299194336 0.3103700876235962 0.34057626128196716 0.17407278716564178 -0.1383097767829895 0.059919893741607666 0.42363858222961426 0.09993341565132141 -0.18593744933605194 0.14706259965896606 -0.22189943492412567 -0.5563068389892578 -0.25246697664260864 -0.16623201966285706 -0.33817872405052185 -0.1899634301662445 -0.023496553301811218 -0.21754926443099976 0.1917664110660553 -0.2563033699989319 -0.5635955333709717 0.29583942890167236 0.37630271911621094 -0.011103431694209576 0.1949198693037033 -0.0733763724565506 0.0343184694647789 0.13894899189472198 -0.309683620929718 0.05552111193537712 -0.6536992788314819 -0.02016345039010048 -0.09570425003767014 0.1390271931886673 0.5659677982330322 0.2238127887248993 0.3262156844139099 -0.014331845566630363 0.20069752633571625 -0.04977012425661087 0.02222754806280136 0.4365158975124359 -0.3037051260471344 -0.014144296757876873 -0.32463347911834717 0.29121994972229004 0.02239496074616909 0.12704481184482574 -0.2959335744380951 -0.2108471393585205 -0.45550379157066345 -0.06684419512748718 -0.20613084733486176 0.32106316089630127 -0.5480748414993286 -2.7745065689086914 0.23471561074256897 0.02141893468797207 0.05794168636202812 0.15688225626945496 0.2056570053100586 0.21343055367469788 -0.16266906261444092 0.1383177638053894 0.4383082389831543 0.13831987977027893 0.11213161051273346 0.20351432263851166 0.10327528417110443 0.00645582377910614 -0.1716163158416748 0.09510016441345215 0.24942514300346375 0.3276256322860718 0.014801809564232826 0.4602854251861572 0.11341935396194458 0.28069549798965454 -0.0849798321723938 -0.45341891050338745 -0.03579693287611008 0.1212151050567627 0.04475168138742447 0.031202659010887146 0.03503144904971123 -0.18416699767112732 0.019351903349161148 0.0065649934113025665 -0.3179622292518616 -0.042398370802402496 0.28685861825942993 -0.30708205699920654 -0.28267237544059753 -0.06685967743396759 -0.40591007471084595 0.7219820022583008 0.09980817884206772 0.34361934661865234 -1.1749305725097656 -0.04963386803865433 -0.5229024291038513 -0.04953436180949211 -0.001661362824961543 0.18019863963127136 0.3739173412322998 0.16812843084335327 0.17954567074775696 -0.24709439277648926 -0.18314234912395477 0.08071920275688171 -0.08394728600978851 -0.06307385861873627 0.14491569995880127 0.26832467317581177 0.04710419103503227 0.2661322057247162 0.11263346672058105 -0.2531890571117401 -0.21305212378501892 0.21686826646327972 -0.14657235145568848 -0.034292370080947876 -0.16714751720428467 0.3377106189727783 -0.1804458498954773 0.055772121995687485 0.09815298020839691 0.1267930567264557 -0.10073661804199219 0.10541647672653198 0.0930895209312439 -0.20067358016967773 0.5594624876976013 -0.13394537568092346 -0.002452141372486949 0.004615603946149349 0.658327579498291 -0.08313184976577759 -0.07983970642089844 -0.19759932160377502 0.351977676153183 -0.18867835402488708 -0.1844993531703949 0.3698420226573944 -0.07005796581506729 -0.3527933359146118 0.251315176486969 0.09710614383220673 0.09376700967550278 -0.07984688133001328 0.23335616290569305 0.21343573927879333 -0.48655784130096436 3.731898784637451 0.16104282438755035 -0.18118023872375488 0.045239921659231186 0.09783952683210373 0.22109690308570862 -0.3410484790802002 -0.17338421940803528 -0.26543253660202026 0.049903519451618195 -0.49823856353759766 -0.13516202569007874 0.19054868817329407 -0.3075302541255951 0.15298250317573547 0.4794350564479828 -0.19914114475250244 -0.005162017419934273 0.18702355027198792 -0.6531924605369568 0.1816001832485199 -0.14030657708644867 0.401425838470459 -0.41897448897361755 -0.14658227562904358 -0.055954717099666595 0.26723822951316833 0.23138640820980072 0.16231271624565125 0.561677098274231 0.05240963026881218 -0.06146436929702759 -0.4132283627986908 0.20750927925109863 -0.2734784185886383 0.2973896861076355 -0.02675698697566986 8.68624496459961 0.07339614629745483 0.19714781641960144 0.042508505284786224 0.08040231466293335 -0.020636072382330894 0.13644275069236755 0.5048723220825195 0.009284062311053276 0.05318944901227951 -0.1818408966064453 -0.266875684261322 0.1339827924966812 -0.49690890312194824 -0.2114410102367401 0.06646344065666199 0.7991374731063843 0.1948411911725998 0.06401126086711884 -0.04715758562088013 -0.1166190430521965 -0.003212515963241458 -0.031712088733911514 0.19098889827728271 -0.2517199218273163 0.29582589864730835 -0.4068331718444824 0.12981906533241272 0.038409214466810226 0.3620705306529999 0.04567927122116089 0.13136109709739685 0.023579444736242294 0.1253492832183838 0.10640640556812286 0.3187260627746582 -0.7785629034042358 0.03641272336244583 0.18333713710308075 -0.07260818034410477 -0.1799728125333786 -0.3785696029663086 -0.0036698952317237854 -0.07116171717643738 0.07364450395107269 -0.048732489347457886 -0.49469441175460815 0.10236291587352753 0.11665500700473785 -0.137425035238266 0.07495390623807907 0.1854642927646637 -0.10086419433355331 -0.30502673983573914 -0.025336718186736107 -0.5661981105804443 0.36032772064208984 0.10332926362752914 -0.052350424230098724 -0.6382409334182739 0.28724026679992676 0.14464470744132996 -0.15475909411907196 0.016781210899353027 0.8935936689376831 0.016111275181174278 0.35017603635787964 0.0018814902286976576 -0.12090449035167694 0.11653038114309311 -0.10761392116546631 -0.1702878773212433 0.03364897146821022 -0.09436018764972687 -0.6377072334289551 -0.4445694386959076 -0.047835808247327805 -0.3615309000015259 -0.054651565849781036 -0.051495905965566635 -0.005207700189203024 0.3810408115386963 0.2164735198020935 -0.17348119616508484 -0.6723102331161499 0.21136736869812012 0.05471064895391464 0.02311583422124386 -0.005554884672164917 -0.07338608801364899 -0.04743415117263794 -0.16654953360557556 -0.20289479196071625 0.0663960874080658 0.33024394512176514 0.021503573283553123 -0.1174924373626709 -0.001455068588256836 -0.13003569841384888 -0.01928212307393551 -0.6109041571617126 0.2335183322429657 -0.20455515384674072 0.19006416201591492 -0.06205403059720993 0.4766552448272705 0.4837045669555664 -0.5549393892288208 -0.18397074937820435 -0.03216145187616348 0.16696366667747498 0.3568609952926636 0.10423195362091064 0.2045712172985077 -0.2206711620092392 -0.3512481153011322 0.18283723294734955 0.1610180139541626 0.0342569537460804 0.7869048118591309 -0.31653809547424316 0.36722657084465027 0.13206008076667786 -0.40827322006225586 -0.19543235003948212 0.045896124094724655 -0.08338731527328491 0.4568241238594055 0.1531255692243576 -0.03777618706226349 -0.49805307388305664 -0.12749573588371277 0.261873722076416 0.16094127297401428 -0.09592761844396591 -0.381541907787323 0.4159790873527527 -0.09151482582092285 -0.14984790980815887 0.09268786013126373 -0.009397625923156738 0.09931603074073792 -0.045019760727882385 -0.8301102519035339 -0.19836938381195068 -0.05909394472837448 -0.25170546770095825 -0.20212838053703308 0.14659331738948822 -0.2974526882171631 -0.18913660943508148 -0.050119511783123016 -0.22690224647521973 0.03261758014559746 0.10077434033155441 0.3238021731376648 0.048118628561496735 0.6914936900138855 0.07605452835559845 0.09554576873779297 -0.0472448468208313 -1.1294403076171875 -0.36114931106567383 -0.30787813663482666 -0.0950307846069336 -0.1076108068227768 -0.19319415092468262 -0.2967059016227722 0.3298049867153168 0.017212282866239548 0.1662779450416565 -0.16321854293346405 -0.20409546792507172 -0.314929723739624 0.323294460773468 -0.13605058193206787 -0.25296270847320557 -0.5597051382064819 0.06438124179840088 0.2365051954984665
node_29	0.1290305107831955 0.3063078224658966 0.2025277465581894 -0.22007566690444946 1.2717535495758057 -0.43712013959884644 0.09236382693052292 0.14914608001708984 -0.19131681323051453 -0.28451067209243774 0.1901785135269165 0.5436875820159912 0.3069179654121399 -0.23523804545402527 0.14254149794578552 -0.5999436378479004 0.4232880473136902 0.21630093455314636 0.056445635855197906 0.4739639163017273 -0.0282543133944273 0.21382737159729004 -0.16475284099578857 0.21218910813331604 -0.023272749036550522 0.12569347023963928 0.5000265836715698 0.056675609201192856 0.2152014672756195 0.3150137662887573 0.009028310887515545 0.19761422276496887 0.04245169460773468 0.2413807213306427 -0.4454224109649658 0.04901137575507164 -0.4070030152797699 0.19059967994689941 0.13098031282424927 0.0728980153799057 -0.8358919620513916 0.31730538606643677 0.20820067822933197 -0.1381589025259018 0.07652994990348816 -0.07448165118694305 0.003918451722711325 -0.06516693532466888 0.22055700421333313 0.07307220250368118 0.3388741910457611 -0.41109392046928406 -0.27238112688064575 0.3151130676269531 -0.12010234594345093 0.15648965537548065 -0.05154326558113098 -0.05067630857229233 0.4132012724876404 0.046682070940732956 0.08031808584928513 0.012182196602225304 0.3243001103401184 -0.16939470171928406 0.04065860062837601 0.17903918027877808 0.0743611752986908 -0.32921552658081055 0.19776836037635803 0.13681001961231232 -0.04404532164335251 -0.12079201638698578 0.3723735213279724 -0.11902695894241333 0.12078772485256195 0.034221164882183075 0.4683659076690674 -2.811440944671631 -0.329439252614975 0.5196467638015747 0.1361340880393982 -0.5417144298553467 0.5695587396621704 0.01577790081501007 0.0640513002872467 -0.5407969355583191 0.23357614874839783 -0.28940385580062866 0.28945615887641907 0.49443110823631287 0.47738856077194214 -0.07072294503450394 -0.20971781015396118 -0.025324879214167595 0.011107919737696648 0.30945903062820435 0.030233096331357956 -0.19996391236782074 -0.3386874198913574 -0.06780387461185455 0.10766482353210449 0.081753671169281 0.3065398335456848 -0.30697110295295715 0.34910911321640015 0.005937430076301098 -0.2656911313533783 -0.32375606894493103 0.46525537967681885 0.4927999973297119 0.03240493685007095 -0.24484437704086304 -0.016929468140006065 -0.16868023574352264 -0.24156366288661957 0.18977606296539307 0.23164743185043335 0.16647127270698547 0.13216978311538696 0.5186974406242371 0.1295899599790573 -0.27620255947113037 -0.1485619693994522 -0.19060300290584564 0.03210844844579697 0.7012831568717957 0.36638134717941284 -0.09802260249853134 -0.11284399032592773 -0.3310317397117615 -0.19191372394561768 -1.2880678176879883 -0.11322053521871567 -0.20313236117362976 0.10450457036495209 0.3320388197898865 -0.2037207931280136 0.007514521479606628 -0.0067489719949662685 -0.07975593209266663 -0.2534223794937134 -0.0038197659887373447 0.06025682017207146 0.11075849831104279 0.4558812081813812 -0.24807462096214294 0.1540132313966751 -0.21104121208190918 -0.18460194766521454 0.256538987159729 -0.17117838561534882 0.3996739983558655 0.06282976269721985 0.5178922414779663 -0.26034384965896606 0.5549650192260742 -0.20832429826259613 -0.09976392984390259 -0.4658885598182678 0.5087710618972778 0.10954069346189499 -0.13155385851860046 0.5771749019622803 0.18532127141952515 0.06005227193236351 -0.013374686241149902 0.021921565756201744 0.11499276012182236 0.04907499998807907 0.8772063255310059 -0.19807058572769165 -0.0746648833155632 -0.09995079040527344 -0.015973469242453575 -0.17953746020793915 0.2640354633331299 -0.2077541947364807 -0.07684743404388428 0.24602016806602478 -0.13630527257919312 0.08116602897644043 -0.03765992820262909 0.0039644017815589905 -0.42796143889427185 0.2727164328098297 0.6908866763114929 0.14211875200271606 -0.1901850551366806 0.036146380007267 -0.01631907746195793 -0.506229043006897 -0.06835168600082397 0.378187894821167 -0.19631165266036987 0.15952864289283752 0.18357281386852264 -0.1894315779209137 -0.09876435995101929 0.5611348748207092 -0.15853773057460785 -0.45032328367233276 -0.491079181432724 0.4658738374710083 -0.1653483361005783 0.19301944971084595 0.029747022315859795 -0.36029231548309326 -0.35017332434654236 -0.34303054213523865 0.23848776519298553 -0.16664092242717743 0.7300337553024292 -0.2443786859512329 -0.17545628547668457 0.21449944376945496 0.45091766119003296 -0.40856635570526123 0.06412722915410995 -0.2735856771469116 -1.066894292831421 0.14262652397155762 0.2694461941719055 -0.07932372391223907 -0.6526802778244019 0.28119662404060364 0.44781622290611267 0.15491250157356262 0.17958995699882507 0.4343569874763489 0.09705093502998352 0.009265037253499031 -0.284791499376297 -0.6802752017974854 -0.10429232567548752 0.09415566176176071 -0.09260082244873047 -0.12127751111984253 0.37600845098495483 0.15670478343963623 0.3043287694454193 -0.16158828139305115 0.212628573179245 -0.25023239850997925 0.20838932693004608 -0.02681787684559822 -0.34219497442245483 0.10346800088882446 -0.4075697362422943 -0.28390413522720337 -0.1110232025384903 0.029808035120368004 -0.43614912033081055 -0.04927755892276764 0.1385275274515152 0.2592717707157135 -0.1787777543067932 0.22045312821865082 -0.14986096322536469 -0.07985293120145798 -0.36687278747558594 -0.0837533101439476 -0.18816010653972626 0.16677986085414886 -0.320278137922287 -0.15466541051864624 0.02385292574763298 0.07536289095878601 -0.1915110945701599 -0.17219136655330658 0.236721932888031 0.1103547066450119 0.1471557319164276 0.2888622283935547 0.055088043212890625 0.11456725001335144 0.03547185659408569 -0.4829849600791931 0.2904849648475647 -0.34658631682395935 -0.5311291217803955 0.3791136145591736 0.11588900536298752 -0.26649799942970276 -0.43022021651268005 0.15040862560272217 -0.07478398084640503 0.11518342792987823 -0.25683844089508057 0.12740278244018555 0.15207795798778534 -0.20808033645153046 0.09129976481199265 -0.2167380452156067 0.10810481011867523 -0.2086925506591797 0.21688757836818695 0.17390111088752747 0.030483661219477654 0.24503454566001892 0.07005663216114044 0.060542281717061996 0.30503273010253906 -0.06923726201057434 0.1110459417104721 0.2450534552335739 -0.21522574126720428 -0.0770120695233345 -0.3869559168815613 -0.07063886523246765 0.3571356236934662 -0.10167019814252853 0.34787580370903015 -0.03325700759887695 0.07882562279701233 0.03793921321630478 -0.061460815370082855 0.2718137502670288 -0.10748378932476044 0.46771177649497986 0.04133325070142746 -0.1559790074825287 -0.08999123424291611 -0.32191789150238037 0.09007436037063599 -0.15456223487854004 0.280631959438324 -0.16021661460399628 -0.3937550485134125 0.40922248363494873 0.11507847160100937 1.5603431463241577 0.6650629043579102 0.15527184307575226 0.8838539123535156 0.1441805064678192 -0.13148833811283112 -0.11507432162761688 -0.08405989408493042 -0.16386237740516663 -0.19422060251235962 -0.04835788160562515 -0.5697705745697021 0.3461983799934387 0.039013758301734924 0.2641511559486389 -0.09231968224048615 0.35263901948928833 -0.12680743634700775 0.10550962388515472 -0.5412817597389221 -0.06598510593175888 -0.28703880310058594 -0.04078322649002075 -0.435885488986969 0.21407060325145721 0.2749081552028656 -0.3561672568321228 -0.17228615283966064 0.007632365450263023 0.2088555097579956 -0.7766841650009155 1.0061428546905518 -0.1123439371585846 -0.39635783433914185 -0.18952248990535736 -0.3807530403137207 -0.8357968330383301 -0.04413384199142456 -0.027364403009414673 -0.16911332309246063 -0.033834777772426605 0.2579265236854553 0.49824583530426025 -0.37252169847488403 0.3929344117641449 0.12596535682678223 0.5093939304351807 0.35448604822158813 0.3512659966945648 -0.3430284261703491 -0.26406940817832947 0.5724970698356628 -0.005549256689846516 0.3542114198207855 0.064653679728508 -0.4737883508205414 -0.20040413737297058 0.3813190460205078 0.5290676355361938 -0.06735172867774963 0.16310250759124756 0.011221012100577354 0.3394349217414856 0.706450343132019 -0.21184301376342773 0.2736671566963196 0.23901912569999695 0.5854042768478394 -0.23722538352012634 0.2989269495010376 0.3282511830329895 0.2457609623670578 -0.12547904253005981 -0.1444728970527649 0.3388305902481079 0.04565134271979332 -0.11944325268268585 0.16093425452709198 -0.11750942468643188 -0.38728612661361694 -0.29732444882392883 -0.10237014293670654 -0.25371068716049194 -0.2600068151950836 0.012015864253044128 -0.25959038734436035 0.1735098958015442 -0.030533697456121445 -0.575722336769104 0.2408568263053894 0.44470104575157166 -0.020980214700102806 0.20741382241249084 -0.12583911418914795 0.18485920131206512 0.10974239557981491 -0.35028618574142456 0.027908548712730408 -0.5393438339233398 -0.02806827798485756 -0.11091440171003342 0.1387706995010376 0.7437629103660583 0.2995426654815674 0.27927500009536743 -0.04787371680140495 0.17802147567272186 -0.050393711775541306 -0.01669633947312832 0.5438145995140076 -0.2561759650707245 -0.0574943833053112 -0.3250587284564972 0.3516998887062073 -0.027670517563819885 0.09777288138866425 -0.45958685874938965 -0.12137925624847412 -0.4161754548549652 -0.0857074111700058 -0.13970015943050385 0.4027857184410095 -0.40498480200767517 -2.684521198272705 0.2045639455318451 0.11402203887701035 0.0972183495759964 0.11016925424337387 0.24341623485088348 0.2473982274532318 -0.21741728484630585 0.14688721299171448 0.45732030272483826 0.07027509808540344 0.09611029922962189 0.14593559503555298 0.05421429127454758 0.0784728080034256 -0.4334922432899475 0.09659053385257721 0.13993778824806213 0.27701863646507263 0.018915031105279922 0.3719496428966522 0.1723136156797409 0.27808278799057007 -0.1185637041926384 -0.43242716789245605 0.05910668522119522 0.026743529364466667 0.04601077735424042 -0.013326354324817657 0.03310605138540268 -0.12472757697105408 0.050724856555461884 0.06495621800422668 -0.3103470206260681 -0.0786927342414856 0.3526425361633301 -0.33139264583587646 -0.36656397581100464 -0.12601110339164734 -0.3426021337509155 0.724190354347229 0.09451718628406525 0.35506367683410645 -1.075836420059204 -0.07215259224176407 -0.05977027118206024 -0.07922422885894775 -0.023521197959780693 0.18803465366363525 0.34867578744888306 0.15137867629528046 0.2546314597129822 -0.24224945902824402 -0.24420452117919922 0.12110696732997894 -0.1301284283399582 -0.022761352360248566 0.18226978182792664 0.1575509011745453 0.1096682995557785 0.2006607949733734 0.08686310052871704 -0.2639263868331909 -0.18326745927333832 0.18446795642375946 -0.41631457209587097 -0.015139679424464703 -0.18247774243354797 0.3297743499279022 -0.14626042544841766 0.049495480954647064 0.09812776744365692 0.04447733983397484 -0.07234843075275421 0.08599811047315598 0.08373760432004929 0.021155521273612976 0.49442166090011597 -0.14016443490982056 0.055996768176555634 -0.01704898476600647 0.6041354537010193 0.031565021723508835 -0.05893317610025406 -0.23863434791564941 0.5345454216003418 -0.0885830745100975 -0.3171401619911194 0.2980939447879791 -0.03810323774814606 -0.32364457845687866 0.2927704453468323 0.029298288747668266 0.19487059116363525 -0.07408656924962997 0.23713110387325287 0.22139489650726318 -0.3766056299209595 4.056188106536865 0.17590901255607605 -0.17673155665397644 0.07957834005355835 0.16464613378047943 0.26341551542282104 -0.31400784850120544 -0.23798434436321259 -0.2704745829105377 0.08568745851516724 -0.7731644511222839 -0.1299150139093399 0.24881502985954285 -0.14442208409309387 0.13751766085624695 0.4923052191734314 -0.16895949840545654 -0.0053269765339791775 0.20489530265331268 -0.3017921447753906 0.2568711042404175 -0.10170998424291611 0.31346529722213745 -0.4551629424095154 -0.1587216556072235 -0.045178018510341644 0.33947962522506714 0.3050656020641327 0.2177019566297531 0.5207562446594238 0.12528306245803833 -0.015511050820350647 -0.20986154675483704 0.16976302862167358 -0.3693167567253113 0.20147685706615448 -0.02260970138013363 8.557804107666016 0.023686986416578293 0.22441565990447998 -0.027517331764101982 0.10212017595767975 -0.012692540884017944 0.1368875503540039 0.5286996364593506 -0.049196865409612656 0.05484127253293991 -0.1610347032546997 -0.13054856657981873 0.1664450615644455 -0.4632842540740967 -0.2077612578868866 -0.021520396694540977 0.5794554948806763 0.2600245475769043 -0.02706662192940712 -0.05870348960161209 -0.061499230563640594 -0.11326593160629272 0.01598174124956131 0.15362054109573364 -0.3179478049278259 0.18958549201488495 -0.5240949988365173 0.22979609668254852 -0.02895027957856655 0.3951665759086609 0.06466923654079437 0.0774667039513588 -0.031971514225006104 0.1387479305267334 0.16157177090644836 0.310118168592453 -0.8270975351333618 -0.017605945467948914 0.15835395455360413 -0.04998848959803581 -0.15759311616420746 -0.41568219661712646 0.0031815345864742994 -0.1013803482055664 0.10864802449941635 -0.03560824692249298 -0.5140430927276611 0.13337522745132446 0.1294327676296234 -0.1460002064704895 0.13959580659866333 0.1511276811361313 -0.15410032868385315 -0.3512374758720398 -0.039089128375053406 -0.5696907043457031 0.3680708408355713 0.042809080332517624 -0.02188890241086483 -0.5432809591293335 0.23832213878631592 0.22367386519908905 -0.08430906385183334 0.00928426068276167 0.4442192018032074 0.05484195798635483 0.2738190293312073 -0.12859147787094116 -0.09434916824102402 0.06814441084861755 -0.14087717235088348 -0.09739860892295837 0.016232995316386223 -0.12186774611473083 -0.6222199201583862 -0.35099372267723083 -0.13655924797058105 -0.29515641927719116 -0.09288112819194794 -0.10820095986127853 0.0004929776187054813 0.36899322271347046 0.16779664158821106 -0.0783461257815361 -0.4465234875679016 0.14373986423015594 -0.033683933317661285 0.032901912927627563 -0.015825171023607254 -0.0389191135764122 -0.04558563232421875 -0.17585399746894836 -0.18124638497829437 0.08626578748226166 0.447563499212265 -0.004508599638938904 -0.2266482561826706 0.08029469847679138 -0.05694512277841568 0.02907760813832283 -0.6546843647956848 0.09764954447746277 -0.1832406371831894 0.2519213557243347 0.0006758496165275574 0.5029895305633545 0.5142658948898315 -0.5618679523468018 -0.17270271480083466 -0.014731812290847301 0.18787118792533875 0.4385845363140106 0.1505974382162094 0.20335781574249268 -0.3157760202884674 -0.42371639609336853 0.15998224914073944 0.15081073343753815 -0.033553753048181534 0.7170454859733582 -0.29040849208831787 0.36501240730285645 0.08740642666816711 -0.398570716381073 -0.1428007185459137 0.05879919230937958 -0.07912397384643555 0.4196041524410248 0.1296476572751999 -0.1228988990187645 -0.5318728685379028 -0.1421068161725998 0.2024109661579132 0.0980856865644455 -0.14248180389404297 -0.3499387204647064 0.38402318954467773 -0.0992116928100586 -0.19233998656272888 0.12875166535377502 -0.05529505014419556 0.11090322583913803 -0.0289902426302433 -0.35643208026885986 -0.1963939666748047 -0.07655834406614304 -0.17927849292755127 -0.14262275397777557 0.14303052425384521 -0.2783646285533905 -0.19142812490463257 0.027900753542780876 -0.2049071043729782 0.11605705320835114 0.13316135108470917 0.2848590612411499 -0.008919631130993366 0.6813251376152039 0.0830036848783493 0.08442863821983337 -0.19981324672698975 -1.1233147382736206 -0.237935408949852 -0.41798996925354004 -0.39858829975128174 -0.1103636845946312 -0.2090524286031723 -0.3048936128616333 0.1745607703924179 0.029468845576047897 0.1958293318748474 -0.12037079781293869 -0.1205052062869072 -0.2600255012512207 0.441482275724411 -0.16115432977676392 0.12768511474132538 -0.622341513633728 0.09016089886426926 0.2952294945716858
node_44	0.12269970029592514 0.29530149698257446 0.21548716723918915 -0.23824936151504517 0.888202428817749 -0.39032697677612305 0.10926374047994614 0.20561866462230682 -0.2065904587507248 -0.2747061848640442 0.12810122966766357 0.5239822268486023 0.33943554759025574 -0.07808568328619003 0.15696991980075836 -0.6512340307235718 0.5710320472717285 0.15909844636917114 0.06437601894140244 0.4041045606136322 -0.021915292367339134 0.18455898761749268 -0.09859496355056763 0.21550139784812927 -0.10175573825836182 0.10986622422933578 0.4766571521759033 0.055516622960567474 0.13607287406921387 0.18204419314861298 -0.0662761777639389 0.20705243945121765 0.09858330339193344 0.20628947019577026 -0.48876285552978516 -0.020983247086405754 -0.398991197347641 0.13334357738494873 0.029153048992156982 0.1587279736995697 -0.790573239326477 0.24049249291419983 0.20790158212184906 -0.12915372848510742 0.07424020767211914 -0.04736464470624924 0.06514051556587219 -0.2289799302816391 0.21184003353118896 0.12113039195537567 0.2782082259654999 -0.3937252461910248 -0.19180035591125488 0.31726062297821045 -0.10094930231571198 0.1555744707584381 -0.014226171188056469 0.0319247767329216 0.37061643600463867 0.06505194306373596 0.0924549251794815 0.2559245824813843 0.2637691795825958 -0.3088296353816986 0.06108584254980087 0.19276568293571472 0.059367191046476364 -0.29978692531585693 0.10823345184326172 0.1145329624414444 -0.028333526104688644 -0.11162284016609192 0.3161731958389282 0.09611266851425171 0.1317562609910965 0.024996057152748108 0.5013124346733093 -2.626939535140991 -0.30906912684440613 0.5274823904037476 0.1282396912574768 -0.4728158712387085 0.1404835432767868 0.03070422075688839 0.20382770895957947 -0.5118221640586853 0.23095357418060303 -0.3557969331741333 0.3407636880874634 0.4417465329170227 0.4914179742336273 -0.06406992673873901 -0.269233763217926 0.002230147598311305 0.040951088070869446 0.24210011959075928 0.000643861829303205 0.05654863640666008 -0.26611098647117615 -0.029622508212924004 0.006688038818538189 0.0818650871515274 0.25805366039276123 -0.3299826383590698 0.3075370788574219 0.06339361518621445 -0.3338276743888855 -0.2979227304458618 0.4763932228088379 0.4130750596523285 0.05709159001708031 -0.14041361212730408 -0.12363074719905853 -0.1955949068069458 -0.17559784650802612 0.17238399386405945 0.2367984652519226 0.14064620435237885 0.07774049043655396 0.390536904335022 0.10176169127225876 -0.33912572264671326 -0.11330515146255493 -0.2148418128490448 0.13723212480545044 0.819573163986206 0.30532053112983704 -0.10989712178707123 -0.10356496274471283 -0.3193003535270691 -0.23048409819602966 -1.2907196283340454 -0.1257631480693817 -0.24123476445674896 0.12956590950489044 0.35442957282066345 -0.17956608533859253 -0.03267497569322586 -0.07126663625240326 -0.08363984525203705 -0.26975569128990173 -0.015224793925881386 0.011494900099933147 0.10321580618619919 0.4221805930137634 -0.21281766891479492 0.1588379144668579 -0.1905369758605957 -0.17516377568244934 0.19997332990169525 -0.17175361514091492 0.38516876101493835 0.06588112562894821 0.5091015100479126 -0.26059338450431824 0.6823758482933044 -0.04898105189204216 -0.16895441710948944 -0.49922776222229004 0.4588375985622406 0.11849009990692139 -0.03323950991034508 0.6044437289237976 0.1555653214454651 0.08239284157752991 0.0008814583416096866 0.02816871553659439 0.07485741376876831 0.0796898603439331 0.7222880721092224 -0.14996430277824402 -0.12833520770072937 -0.12972454726696014 0.0180661678314209 -0.18331962823867798 0.270100861787796 -0.16246961057186127 -0.017552388831973076 0.2805260121822357 -0.12286587059497833 0.08771443367004395 -0.04667114466428757 0.00401777308434248 -0.3513598144054413 0.32007837295532227 0.6304134726524353 0.11197712272405624 -0.10230052471160889 -0.010220170021057129 0.019247345626354218 -0.46634984016418457 -0.10511569678783417 0.3897167444229126 -0.16134050488471985 0.17227670550346375 0.20296689867973328 -0.18603460490703583 -0.11944722384214401 0.6212519407272339 -0.13568587601184845 -0.37380918860435486 -0.5218673944473267 0.33720701932907104 -0.15254166722297668 0.25414758920669556 0.09076128900051117 -0.17341844737529755 -0.28006261587142944 -0.32596367597579956 0.22080014646053314 -0.22171100974082947 0.8858281970024109 -0.24970558285713196 -0.15473893284797668 0.16698496043682098 0.4280387759208679 -0.4305568337440491 0.13702978193759918 -0.3542843461036682 -0.9048696756362915 0.11235330998897552 0.2231568545103073 -0.11701653897762299 -0.7114831805229187 0.3467797040939331 0.5378197431564331 0.15808746218681335 0.118075430393219 0.40931445360183716 0.1583404839038849 0.02532866597175598 -0.276741087436676 -0.5659186244010925 -0.13656644523143768 0.1320396363735199 -0.06385259330272675 -0.12005667388439178 0.3904038369655609 0.15547069907188416 0.31572309136390686 -0.08555580675601959 0.20467743277549744 -0.24254533648490906 0.15051184594631195 0.02400590293109417 -0.3927757143974304 0.027195807546377182 -0.3875128924846649 -0.2589797079563141 -0.16434746980667114 0.05113561078906059 -0.26318809390068054 -0.03213269263505936 0.11237040162086487 0.24777710437774658 -0.19575285911560059 0.2710150182247162 -0.13837581872940063 -0.049336954951286316 -0.31930071115493774 -0.06777872890233994 -0.1506062000989914 0.1668911874294281 -0.3012322187423706 -0.14722582697868347 0.027896493673324585 0.048250772058963776 -0.1734805405139923 -0.1999828815460205 0.19165216386318207 0.15544936060905457 0.1420079469680786 0.249343141913414 0.10734748840332031 0.10343550145626068 0.07484769821166992 -0.4658434987068176 0.23271045088768005 -0.4116917550563812 -0.529446005821228 0.3294840455055237 0.1412167251110077 -0.3044968843460083 -0.3740575313568115 0.20230764150619507 -0.041895560920238495 0.07568947970867157 -0.191127210855484 0.13911250233650208 0.14375117421150208 -0.22263434529304504 0.1154378280043602 -0.2495339810848236 0.08325962722301483 -0.20070801675319672 0.2157084196805954 0.23250125348567963 0.004463106393814087 0.21431224048137665 0.15378765761852264 -0.09319649636745453 0.32023268938064575 -0.059932731091976166 0.04517463967204094 0.24862584471702576 -0.2253943681716919 -0.05464748293161392 -0.38344353437423706 -0.047088872641325 0.35922378301620483 -0.07742361724376678 0.3266702890396118 -0.037262290716171265 0.13542555272579193 0.08787381649017334 -0.08750372380018234 0.20702281594276428 -0.04388710856437683 0.46728187799453735 0.021054884418845177 -0.12254105508327484 -0.029619388282299042 -0.33631858229637146 0.060992028564214706 -0.15783827006816864 0.30349743366241455 0.03849957883358002 -0.3379545211791992 0.3596239984035492 0.1462065428495407 1.6730865240097046 0.6494076251983643 0.15421319007873535 0.7099518775939941 0.16218337416648865 -0.10456206649541855 -0.12001864612102509 -0.07431647181510925 -0.13226492702960968 -0.17549757659435272 -0.15006493031978607 -0.6108655333518982 0.40509599447250366 0.03206707537174225 0.2130761593580246 -0.10852666944265366 0.29668763279914856 -0.13040728867053986 0.15670499205589294 -0.5463369488716125 -0.019156256690621376 -0.2288861721754074 -0.037697408348321915 -0.5021889209747314 0.19605550169944763 0.2770780324935913 -0.3559870719909668 -0.18167898058891296 0.029496334493160248 0.28702837228775024 -0.662257194519043 0.9083925485610962 -0.10439716279506683 -0.4286159873008728 -0.20051209628582 -0.3835275173187256 -0.9521896243095398 0.014478127472102642 -0.05747392773628235 -0.19809886813163757 -0.04203398525714874 0.19524025917053223 0.44627314805984497 -0.31071874499320984 0.29537174105644226 0.0970524400472641 0.3797992169857025 0.4150417745113373 0.37735241651535034 -0.40019306540489197 -0.26111650466918945 0.5622866153717041 0.016046497970819473 0.3718162178993225 0.007279982324689627 -0.44804608821868896 -0.1674027442932129 0.45736023783683777 0.5373682975769043 -0.08859114348888397 0.19323787093162537 0.029977455735206604 0.19843284785747528 0.7242434024810791 -0.16613441705703735 0.2877328395843506 0.19787859916687012 0.5726840496063232 -0.26295801997184753 0.2789243161678314 0.3281960189342499 0.14736151695251465 -0.11268933862447739 0.11350709199905396 0.3347611129283905 0.1963270604610443 -0.1750795841217041 0.1280304491519928 -0.08921497315168381 -0.6067338585853577 -0.27913182973861694 -0.03341207653284073 -0.3048069477081299 -0.2769491374492645 -0.04844478517770767 -0.24564456939697266 0.27196043729782104 -0.11294054985046387 -0.46881839632987976 0.28413158655166626 0.4238780736923218 0.007437880150973797 0.17637360095977783 -0.06507214903831482 0.0775056704878807 0.07112254202365875 -0.3318248987197876 -0.0032828859984874725 -0.5662445425987244 -0.007903119549155235 -0.06706355512142181 0.14203739166259766 0.5591763257980347 0.2817648649215698 0.34594881534576416 -0.01167468260973692 0.22285710275173187 -0.058151863515377045 -0.022074958309531212 0.5498148202896118 -0.2715718448162079 -0.09953594207763672 -0.3352676331996918 0.29614564776420593 -0.004916171543300152 0.06636162102222443 -0.26944249868392944 -0.15861967206001282 -0.4549260139465332 -0.09657075256109238 -0.0726899802684784 0.43848705291748047 -0.5553408861160278 -2.796278953552246 0.2511076033115387 0.074459969997406 0.05957302451133728 0.10630090534687042 0.1940261572599411 0.18032251298427582 -0.22905251383781433 0.11507638543844223 0.44929563999176025 0.11021702736616135 0.07307843863964081 0.08381634950637817 0.05878790467977524 0.05534885823726654 -0.3779553771018982 0.12372754514217377 0.1832178682088852 0.3061743378639221 0.005524094216525555 0.38181599974632263 0.16371987760066986 0.28741344809532166 -0.09203153103590012 -0.396298885345459 0.08113986998796463 0.0984654575586319 0.06485744565725327 0.027287550270557404 0.036366648972034454 -0.16468822956085205 0.0556240975856781 0.02075212076306343 -0.27204665541648865 -0.11386960744857788 0.2706958055496216 -0.343461811542511 -0.2751598656177521 0.05199773237109184 -0.42879924178123474 0.7016983032226562 0.10247467458248138 0.31417033076286316 -1.1304385662078857 -0.019849136471748352 -0.39022529125213623 -0.054659079760313034 0.019832570105791092 0.18755285441875458 0.34100109338760376 0.18079881370067596 0.20001576840877533 -0.2582954168319702 -0.24554553627967834 0.0999520942568779 -0.11432814598083496 -0.019460290670394897 0.1773904263973236 0.2579649090766907 0.045842498540878296 0.21862193942070007 0.09721030294895172 -0.22355227172374725 -0.1896716058254242 0.18160884082317352 -0.3707495629787445 -0.13939490914344788 -0.1657640039920807 0.3245459794998169 -0.09812097996473312 0.014243416488170624 0.09200716018676758 0.044931810349226 -0.0597626194357872 0.05677453801035881 0.10712671279907227 -0.02483951300382614 0.4934839904308319 -0.09457238763570786 0.06285403668880463 -0.010327408090233803 0.5312497615814209 -0.054731279611587524 -0.08387719094753265 -0.22885513305664062 0.29256126284599304 -0.14278069138526917 -0.19594290852546692 0.28909388184547424 -0.10682588070631027 -0.34406647086143494 0.22360846400260925 0.05192983150482178 0.06119314953684807 -0.08240146934986115 0.20941996574401855 0.24915418028831482 -0.4739529490470886 3.8079681396484375 0.1875830888748169 -0.14112664759159088 -0.0035423790104687214 0.18467020988464355 0.20851168036460876 -0.33409184217453003 -0.19827836751937866 -0.18739184737205505 0.0459526889026165 -0.4439869821071625 -0.08284410834312439 0.23141002655029297 -0.10361029952764511 0.1338527649641037 0.5243533849716187 -0.1754406988620758 -0.004019076935946941 0.1917167752981186 -0.5477309226989746 0.22437497973442078 -0.12625275552272797 0.1044483482837677 -0.4580259919166565 -0.18370217084884644 -0.06023334711790085 0.35553795099258423 0.29404425621032715 0.20243242383003235 0.5068764090538025 0.050583429634571075 0.00843040645122528 -0.3312532901763916 0.12188210338354111 -0.3927288055419922 0.3221224248409271 0.01732468605041504 8.543319702148438 0.07287625223398209 0.22208437323570251 0.05393674597144127 0.03281563147902489 -0.010481089353561401 0.11986212432384491 0.4671317934989929 -0.027274619787931442 0.052897825837135315 -0.14837956428527832 -0.13758060336112976 0.11472096294164658 -0.4048102796077728 -0.20607182383537292 -0.006376336328685284 0.5967978239059448 0.2572869062423706 0.042174674570560455 -0.002339344471693039 -0.041770242154598236 0.019754070788621902 0.07623939216136932 0.21196798980236053 -0.2679189145565033 0.2464505285024643 -0.43436211347579956 0.23790131509304047 -0.01818663440644741 0.34935975074768066 0.053562235087156296 0.12665514647960663 -0.041672028601169586 0.17709913849830627 0.1052350401878357 0.29740428924560547 -0.4825875163078308 0.0543706938624382 0.13533060252666473 -0.09290775656700134 -0.16069498658180237 -0.4201885163784027 0.00991260539740324 -0.07112585008144379 0.1502995491027832 -0.04926864057779312 -0.42768657207489014 0.11376731097698212 0.08038373291492462 -0.11649157106876373 0.13563404977321625 0.14230145514011383 -0.12321312725543976 -0.34212085604667664 -0.04821573197841644 -0.5297852754592896 0.3337700366973877 0.06559516489505768 -0.02390403114259243 -0.5554949045181274 0.25077831745147705 0.1338219791650772 -0.1586204171180725 0.0458509624004364 0.5528430938720703 0.03414311632514 0.3521727919578552 -0.09708191454410553 0.046993404626846313 0.09385325759649277 -0.09271886199712753 -0.1730254888534546 -0.0012560810428112745 -0.15589182078838348 -0.6829892992973328 -0.5183384418487549 -0.024354424327611923 -0.2840377688407898 -0.08791272342205048 -0.18509189784526825 0.01883089356124401 0.3719506859779358 0.20438462495803833 -0.16866153478622437 -0.5552886724472046 0.15480615198612213 -0.03368886560201645 0.02079678326845169 0.14971384406089783 0.002146925777196884 -0.014954040758311749 -0.16181285679340363 -0.22464844584465027 0.0745350643992424 0.43529996275901794 -0.01693672686815262 -0.06818514317274094 0.06412661075592041 -0.15134504437446594 0.07191334664821625 -0.6272973418235779 0.08798497915267944 -0.1655530035495758 0.25879281759262085 0.03720976039767265 0.47929033637046814 0.46466612815856934 -0.5229353904724121 -0.18654504418373108 0.0011990604689344764 0.19736626744270325 0.4340779185295105 0.1230667233467102 0.1807081401348114 -0.32898592948913574 -0.3730626106262207 0.17914187908172607 0.1823747158050537 -0.00413533067330718 0.7106934785842896 -0.22767572104930878 0.33952999114990234 0.12272761762142181 -0.40206509828567505 -0.13953742384910583 0.07992635667324066 -0.07118753343820572 0.4057163596153259 0.09730466455221176 -0.028607672080397606 -0.530211329460144 -0.15372250974178314 0.18927648663520813 0.1478458046913147 -0.16321581602096558 -0.3641001582145691 0.3363812565803528 -0.15172332525253296 -0.1075710654258728 0.10671550035476685 0.016743235290050507 0.08994479477405548 -0.04750245437026024 -0.5259899497032166 -0.17206847667694092 -0.2545852065086365 -0.21304497122764587 0.13070251047611237 0.1406974196434021 -0.2938002347946167 -0.19220364093780518 -0.04141691327095032 -0.3268890976905823 0.07076829671859741 0.03482485190033913 0.27249300479888916 0.01741417869925499 0.6655762195587158 0.06630443036556244 0.1307176649570465 -0.059192217886447906 -1.0800244808197021 -0.5068501234054565 -0.3247325122356415 -0.0871468037366867 -0.11171652376651764 -0.13810525834560394 -0.25936779379844666 0.276353657245636 -0.0009193172445520759 0.1499631255865097 -0.18145102262496948 -0.17131125926971436 -0.3407999277114868 0.37451428174972534 -0.16859793663024902 -0.047104235738515854 -0.614888608455658 0.06913250684738159 0.25376278162002563
node_28	0.07095284759998322 0.3020184636116028 0.19513201713562012 -0.2787854075431824 0.9709374308586121 -0.44934672117233276 0.11790639162063599 0.1258554309606552 -0.26664507389068604 -0.3640243709087372 0.06177850067615509 0.4248895049095154 0.33839958906173706 -0.32639262080192566 0.11984025686979294 -0.6371307373046875 0.4501267373561859 0.0638020858168602 0.0733923614025116 0.24366047978401184 -0.03412472456693649 0.1780792474746704 -0.07220049947500229 0.23004189133644104 -0.13810986280441284 0.150766983628273 0.4264202117919922 0.04622414708137512 0.09214700758457184 0.13916072249412537 -0.008531620725989342 0.1755341738462448 0.08817287534475327 0.24006663262844086 -0.38018321990966797 0.05192602425813675 -0.38000059127807617 0.16185830533504486 0.1932428777217865 0.0738467127084732 -0.737541139125824 0.5689688324928284 0.2082546204328537 -0.08416464179754257 0.12588097155094147 -0.09844215959310532 -0.025886325165629387 0.0371670238673687 0.23764555156230927 0.11095987260341644 0.2777259647846222 -0.43280988931655884 -0.2833116948604584 0.33625149726867676 -0.12287245690822601 0.08570167422294617 -0.02256063185632229 -0.013775408267974854 0.39118069410324097 0.01666347309947014 0.05878757685422897 0.4736407995223999 0.34540313482284546 -0.2795487344264984 0.09411756694316864 0.139623761177063 0.013577759265899658 -0.21492686867713928 0.12822258472442627 0.17182520031929016 -0.028243057429790497 -0.06821950525045395 0.33348870277404785 -0.09591959416866302 0.14223593473434448 0.045773766934871674 0.4573183059692383 -2.9493541717529297 -0.33436256647109985 0.6058313250541687 0.16659478843212128 -0.42676061391830444 0.5944408178329468 0.0785432755947113 0.15099391341209412 -0.49354442954063416 0.226453959941864 -0.40434297919273376 0.3446916341781616 0.5172234773635864 0.5397230386734009 -0.07614264637231827 -0.2038496732711792 0.17023812234401703 0.027344172820448875 0.3228023648262024 0.020912757143378258 0.09052805602550507 -0.30413204431533813 -0.01500230934470892 0.04197722300887108 0.08988010883331299 0.25392717123031616 -0.34805628657341003 0.3820778727531433 0.20622330904006958 -0.3669471740722656 -0.3376476764678955 0.42823225259780884 0.47135257720947266 -0.006447941064834595 -0.1499226987361908 -0.01937481388449669 -0.11707477271556854 -0.21298037469387054 0.06821151822805405 0.19730590283870697 0.1651170253753662 0.12027230113744736 0.471866250038147 0.16304022073745728 -0.30828964710235596 -0.17040008306503296 -0.19289764761924744 0.1619662344455719 0.7124055624008179 0.32315510511398315 -0.09148695319890976 -0.0874900370836258 -0.35395547747612 -0.20085321366786957 -1.0817676782608032 -0.09911167621612549 -0.2731073498725891 0.13369551301002502 0.3553960919380188 -0.2480698525905609 0.0018579810857772827 -0.05784858390688896 -0.08405651152133942 -0.23552803695201874 -0.05984699726104736 0.09227689355611801 0.06932598352432251 0.5200822353363037 -0.16509456932544708 0.18853789567947388 -0.16873018443584442 -0.14622347056865692 0.14989547431468964 -0.19076210260391235 0.3445121943950653 0.06570054590702057 0.5482406616210938 -0.21489617228507996 0.614883542060852 -0.16897529363632202 -0.293934166431427 -0.5536462664604187 0.5823886394500732 0.08682664483785629 -0.08627399802207947 0.5792511701583862 0.241815984249115 0.09428475797176361 -0.0007623558631166816 0.03171292692422867 0.099384605884552 0.11913146823644638 0.6502776741981506 -0.13754507899284363 -0.13236403465270996 -0.11724752187728882 -0.0744505524635315 -0.18089449405670166 0.24755053222179413 -0.26867860555648804 -0.04049532860517502 0.23414242267608643 -0.13603483140468597 0.09226076304912567 0.0013008068781346083 0.024232327938079834 -0.36550402641296387 0.3043811023235321 0.6227240562438965 0.1587989777326584 -0.10979956388473511 0.03166145086288452 -0.046248909085989 -0.47816914319992065 -0.030779307708144188 0.3586024045944214 -0.017333105206489563 0.19248580932617188 0.1910521686077118 -0.16225799918174744 -0.0907573327422142 0.6086921691894531 -0.19171279668807983 -0.3976389169692993 -0.5019010901451111 0.37692511081695557 -0.2209707796573639 0.23382991552352905 -0.02071971260011196 -0.17866820096969604 -0.3158055543899536 -0.3760828375816345 0.16786204278469086 -0.18831050395965576 0.852249026298523 -0.30692821741104126 -0.22065064311027527 0.24716639518737793 0.44141873717308044 -0.4867111146450043 0.42878925800323486 -0.34894245862960815 -0.8724861145019531 0.1433706283569336 0.2600317597389221 -0.04146789759397507 -0.7367834448814392 0.30078384280204773 0.4932774305343628 0.1312059611082077 0.16240395605564117 0.3563976287841797 0.07610418647527695 -0.02801121398806572 -0.3496769368648529 -0.47096723318099976 -0.059683382511138916 0.1528940200805664 -0.08564099669456482 -0.12132300436496735 0.3349224925041199 0.13860049843788147 0.3024161756038666 -0.20192331075668335 0.26373323798179626 -0.25513744354248047 0.1937962770462036 -0.00570919131860137 -0.27295514941215515 0.06633709371089935 -0.11560352891683578 -0.26845675706863403 -0.21215513348579407 -0.021536316722631454 -0.4802578389644623 -0.081460140645504 0.1288386881351471 0.4611227512359619 -0.2039506435394287 0.08425821363925934 -0.11017920076847076 -0.07157305628061295 -0.4411865472793579 -0.1149308979511261 -0.15478843450546265 0.17402905225753784 -0.25061142444610596 -0.23362867534160614 -0.07545196264982224 0.0795365422964096 -0.20243725180625916 -0.1429205983877182 0.2809039056301117 0.15936480462551117 0.09226015210151672 0.2865714430809021 0.17321565747261047 0.08309336751699448 0.06547719240188599 -0.4045882821083069 0.2673810124397278 -0.19106590747833252 -0.5791323184967041 0.3490073084831238 0.11458350718021393 -0.17911581695079803 -0.45769092440605164 0.1144845113158226 -0.050963692367076874 -0.014658084139227867 -0.18144778907299042 0.15767306089401245 0.1603776514530182 -0.20797106623649597 0.11393656581640244 -0.22250217199325562 0.12987156212329865 -0.27334877848625183 0.2581096589565277 0.22121530771255493 0.07875841856002808 0.1881462186574936 0.007162938825786114 0.11138269305229187 0.3697861135005951 -0.03289575129747391 0.09635543078184128 0.17319181561470032 -0.22441081702709198 -0.11947977542877197 -0.3260824680328369 -0.027206934988498688 0.4200980067253113 -0.10106655210256577 0.4010049104690552 -0.05476852506399155 0.07967764139175415 0.04496341571211815 -0.031240936368703842 0.2666022777557373 -0.01435271929949522 0.5018380284309387 0.04032141715288162 -0.10453909635543823 -0.03281397372484207 -0.34294113516807556 0.09489677846431732 -0.3229658007621765 0.3050273060798645 -0.10173287242650986 -0.4877670705318451 0.46104687452316284 0.15747058391571045 1.7171380519866943 0.7252032160758972 0.16036689281463623 0.5611011385917664 0.15600113570690155 -0.14687800407409668 -0.11014437675476074 -0.05647511035203934 -0.1767907440662384 -0.2103486955165863 -0.028613582253456116 -0.5248792171478271 0.2382335513830185 -0.006101439706981182 0.23353450000286102 -0.10160410404205322 0.3268588185310364 -0.18729344010353088 0.11524342745542526 -0.5290651321411133 -0.17175686359405518 -0.1944112777709961 -0.032315030694007874 -0.4781016707420349 0.22427432239055634 0.30842074751853943 -0.2753424644470215 -0.23042726516723633 -0.026833485811948776 0.4370976686477661 -0.7053388357162476 0.8867515325546265 -0.1075793206691742 -0.4485083520412445 -0.19244641065597534 -0.31610721349716187 -0.6950759887695312 0.02097405306994915 -0.041541364043951035 -0.15745706856250763 -0.06956032663583755 0.22417864203453064 0.5233216285705566 -0.3790334165096283 0.3584166467189789 0.04662243649363518 0.446746289730072 0.40742191672325134 0.2139604687690735 -0.3744930922985077 -0.1997986137866974 0.5692077875137329 -0.037377528846263885 0.3608599901199341 0.05818038433790207 -0.4474274814128876 -0.19065210223197937 0.5148807168006897 0.5767251253128052 -0.08240967988967896 0.1571614146232605 0.09506092965602875 0.2528477609157562 0.7853058576583862 -0.16213396191596985 0.29223835468292236 0.2146988809108734 0.36938735842704773 -0.36242160201072693 0.31735432147979736 0.2815447747707367 0.2682972550392151 -0.15015792846679688 0.017683541402220726 0.35500937700271606 0.06826196610927582 -0.07156752049922943 0.1743476688861847 -0.18988138437271118 -0.7279602885246277 -0.34493762254714966 -0.19976167380809784 -0.25674182176589966 -0.204251229763031 -0.022581269964575768 -0.2725297212600708 0.23415134847164154 -0.19440957903862 -0.5486122369766235 0.369492769241333 0.4332227110862732 0.07364321500062943 0.2694348990917206 -0.06642775237560272 0.06727689504623413 0.08756290376186371 -0.33344852924346924 0.004404726903885603 -0.4697718024253845 -0.020872939378023148 -0.10444119572639465 0.111711785197258 0.6919772624969482 0.21371665596961975 0.32814285159111023 -0.029904663562774658 0.21044576168060303 -0.09507223218679428 0.04046443849802017 0.4917667806148529 -0.2329760044813156 -0.09481223672628403 -0.32595163583755493 0.25709664821624756 -0.02478860877454281 0.09195558726787567 -0.4215322434902191 -0.11569034308195114 -0.4388126730918884 -0.11490479111671448 -0.12556558847427368 0.46257543563842773 -0.4626116156578064 -2.725767135620117 0.22573807835578918 0.06399539113044739 0.01962403580546379 0.0996796041727066 0.2709413766860962 0.22283431887626648 -0.2278691977262497 0.0804348960518837 0.4294477105140686 0.07445120811462402 0.07429902255535126 0.17277109622955322 0.02775203250348568 0.054034244269132614 -0.4042339324951172 0.12749925255775452 0.18364745378494263 0.3064727783203125 0.017970925197005272 0.33667752146720886 0.1539873480796814 0.28007906675338745 -0.08459056913852692 -0.34160685539245605 0.07140301913022995 0.031672101467847824 0.018409527838230133 -0.07775033265352249 0.01190890185534954 -0.10437845438718796 0.01176535151898861 0.03692571446299553 -0.29894569516181946 -0.06543971598148346 0.3366020917892456 -0.30988961458206177 -0.32427889108657837 -0.08397382497787476 -0.36247873306274414 0.7396237254142761 0.09253443777561188 0.29639655351638794 -1.0967702865600586 -0.1147347018122673 -0.19359895586967468 -0.11766673624515533 0.0010919943451881409 0.16147392988204956 0.34109634160995483 0.1696629524230957 0.23587751388549805 -0.22747313976287842 -0.24194085597991943 0.07738454639911652 -0.12132687866687775 -0.07777410745620728 0.1763824075460434 0.2592852711677551 0.11077569425106049 0.22516629099845886 0.11619476974010468 -0.253673791885376 -0.1273983269929886 0.189652681350708 -0.39090633392333984 -0.27301591634750366 -0.15115174651145935 0.28105926513671875 -0.08458021283149719 0.07910783588886261 0.060647159814834595 0.08043430745601654 -0.06263156980276108 0.10873811691999435 0.120414137840271 -0.012059795670211315 0.40175744891166687 -0.1055777370929718 0.09974774718284607 -0.019120626151561737 0.6119102239608765 0.012986263260245323 -0.06512591242790222 -0.25410982966423035 0.5659374594688416 -0.10366295278072357 -0.612128496170044 0.26533231139183044 -0.03206467628479004 -0.31013262271881104 0.22698697447776794 -0.027069106698036194 0.1223277673125267 -0.12117043137550354 0.21159955859184265 0.2401045560836792 -0.4071967601776123 4.051932334899902 0.19450728595256805 -0.11072470992803574 0.061907559633255005 0.15830326080322266 0.25351986289024353 -0.2778981924057007 -0.2506178915500641 -0.2751086354255676 0.10672565549612045 -0.285302996635437 -0.12786851823329926 0.25418955087661743 -0.26272052526474 0.17419728636741638 0.49691951274871826 -0.19502072036266327 0.031229695305228233 0.20495286583900452 -0.03474782034754753 0.2759142518043518 -0.11032842099666595 0.5055298805236816 -0.4537067115306854 -0.17953792214393616 -0.0494283065199852 0.3300231397151947 0.2202884554862976 0.219122052192688 0.49106454849243164 0.11456054449081421 0.014123186469078064 -0.3360735774040222 0.15428926050662994 -0.3380429446697235 0.36333340406417847 0.023527752608060837 8.465547561645508 0.05742987245321274 0.18048763275146484 -0.00782242976129055 0.019500181078910828 -0.01248963177204132 0.09104201197624207 0.531606137752533 -0.027577852830290794 0.1301802396774292 -0.13732296228408813 -0.19439983367919922 0.14935892820358276 -0.40770334005355835 -0.24827131628990173 0.010295648127794266 0.5782520771026611 0.27880316972732544 -0.013657495379447937 -0.07929833233356476 -0.07039882987737656 -0.01847587712109089 0.019634999334812164 0.386685848236084 -0.3636665940284729 0.23385709524154663 -0.5411876440048218 0.19679459929466248 -0.005313560366630554 0.3527944087982178 0.0945092961192131 0.1164286881685257 -0.03803432732820511 0.123296819627285 0.12049831449985504 0.2329789698123932 -0.9029674530029297 -0.014454330317676067 0.1636783927679062 -0.03864124417304993 -0.16426289081573486 -0.4623987078666687 -0.02215314283967018 -0.04407159984111786 0.15347054600715637 -0.0314989872276783 -0.5508165955543518 0.08083982020616531 0.08448710292577744 -0.094629667699337 0.12297167629003525 0.09722587466239929 -0.09834153950214386 -0.2927790880203247 -0.06499602645635605 -0.5806530714035034 0.35045623779296875 0.03869667276740074 -0.04353579878807068 -0.2797122001647949 0.2966524362564087 0.08203041553497314 -0.13536247611045837 0.005819886922836304 0.738481879234314 0.027999412268400192 0.2944130003452301 -0.13693927228450775 0.17886541783809662 0.11414500325918198 -0.14606750011444092 -0.1106976717710495 0.02297184430062771 -0.03736598417162895 -0.6318666934967041 -0.3569331765174866 0.08660680055618286 -0.3327511250972748 -0.09508087486028671 -0.13513827323913574 -0.03130541741847992 0.3871026635169983 0.19136786460876465 -0.0993935763835907 -0.7448946237564087 0.15372096002101898 -0.08356638997793198 0.04016682505607605 0.08241019397974014 -0.04635018855333328 0.06399991363286972 -0.18936121463775635 -0.2215486615896225 0.12129244208335876 0.38742315769195557 -0.049181804060935974 -0.13119450211524963 0.05810527503490448 -0.06475039571523666 -0.009802828542888165 -0.6813328266143799 0.06971537321805954 -0.17857226729393005 0.2378520965576172 0.08368979394435883 0.5087754130363464 0.4855618476867676 -0.60109543800354 -0.23383378982543945 -0.001430962234735489 0.16105833649635315 0.4053031802177429 0.13822230696678162 0.25391408801078796 -0.2899738550186157 -0.36654505133628845 0.1574941724538803 0.15147748589515686 0.010981406085193157 0.7005276679992676 -0.2607147693634033 0.3008469343185425 0.1270235776901245 -0.4184057116508484 -0.21035759150981903 0.02432003617286682 -0.12838944792747498 0.4928509593009949 0.1383061408996582 -0.12138783931732178 -0.65614253282547 -0.17489725351333618 -0.18788962066173553 0.05176820605993271 -0.16179002821445465 -0.3114820122718811 0.4134552478790283 -0.09271739423274994 -0.14821618795394897 0.14391835033893585 0.004080235026776791 0.13532748818397522 -0.04638100787997246 -0.5050113201141357 -0.18453538417816162 -0.1552339494228363 -0.15714327991008759 0.10591310262680054 0.17618799209594727 -0.31143245100975037 -0.17716318368911743 -0.02201959490776062 -0.27776777744293213 0.18816223740577698 0.07365140318870544 0.2506553530693054 0.023409489542245865 0.6928470134735107 0.05059050768613815 0.0760050117969513 -0.23096629977226257 -1.2270088195800781 -0.3547319769859314 -0.7000036239624023 0.047557931393384933 -0.15643924474716187 -0.2032846063375473 -0.2969833016395569 0.19722896814346313 0.10550454258918762 0.3040095567703247 -0.18486931920051575 -0.22280947864055634 -0.2966659665107727 0.4003632962703705 -0.16964881122112274 0.03182400017976761 -0.6351280212402344 0.09509646892547607 0.2756916582584381
