node_20	-0.1452978253364563 0.1264479160308838 0.09255488961935043 0.2413569539785385 0.34092292189598083 -0.39895015954971313 0.05443817377090454 0.14123743772506714 -0.1748952865600586 -0.33168256282806396 0.3482888638973236 0.9435505867004395 0.31450197100639343 -0.04394328594207764 0.16192522644996643 -0.20863881707191467 0.7446290850639343 0.20150971412658691 -0.06814774870872498 -0.059976667165756226 -0.09177058935165405 0.47218137979507446 0.1646096110343933 0.08770005404949188 -0.319859117269516 0.15624970197677612 0.39268314838409424 -0.2545979917049408 -0.24063646793365479 0.009029647335410118 -0.11299076676368713 0.3040670156478882 0.025305215269327164 0.16707202792167664 -0.006656927522271872 0.01983541250228882 -0.3405999541282654 0.19034701585769653 0.3132830560207367 0.1156742200255394 -0.6101220846176147 0.20083926618099213 0.12250415980815887 -0.06467673182487488 0.1586550921201706 0.1529109925031662 0.10395076870918274 0.16117368638515472 0.0606500469148159 -0.07314856350421906 0.19793710112571716 -0.45153021812438965 -0.2875722646713257 0.17627248167991638 -0.14570912718772888 0.13834956288337708 -0.2005077451467514 -0.20805040001869202 0.2537447214126587 0.10721363872289658 0.18372534215450287 0.27416279911994934 0.15742343664169312 -0.2798270583152771 -0.023248016834259033 0.15508610010147095 -0.17251050472259521 -0.4883244037628174 0.017879396677017212 0.07974761724472046 0.22799187898635864 -0.09129845350980759 -0.05913841351866722 -0.24965088069438934 0.050102829933166504 -0.09543682634830475 0.5297653079032898 -2.1548192501068115 -0.019311824813485146 0.6909054517745972 0.18829700350761414 -0.2001628279685974 1.125168800354004 -0.0640532523393631 0.20205232501029968 -0.5515700578689575 0.3093082308769226 -0.3482794761657715 0.15278685092926025 0.26939746737480164 0.6067032217979431 0.0868033766746521 -0.25995659828186035 0.10610473155975342 -0.22776679694652557 0.12829966843128204 -0.16631385684013367 -0.7952302694320679 -0.20668964087963104 -0.10165661573410034 -0.006183137651532888 -0.1682147979736328 0.1725095957517624 -0.2225974053144455 0.21907399594783783 -0.17820072174072266 -0.1911972463130951 -0.36831575632095337 0.09398460388183594 0.4237188696861267 -0.09815201163291931 0.22521816194057465 -0.11457931995391846 -0.06516443192958832 -0.09194742888212204 0.19300663471221924 0.1615566611289978 0.00938489567488432 0.18624085187911987 0.49472352862358093 0.2655107378959656 -0.21009330451488495 0.10487926006317139 -0.01535969041287899 -0.07915729284286499 0.511174201965332 0.508537769317627 -0.005288689397275448 -0.18081878125667572 -0.1417582482099533 -0.08351731300354004 -1.4793837070465088 0.004085128661245108 -0.036911915987730026 0.08019107580184937 0.20604589581489563 -0.24965022504329681 -0.0247939582914114 0.13206754624843597 0.13044790923595428 -0.032004665583372116 0.14995551109313965 0.14397723972797394 0.11020801961421967 1.076040506362915 -0.2424294650554657 -0.08057991415262222 -0.18482989072799683 -0.11174573749303818 0.08612392842769623 -0.13908226788043976 0.4478355348110199 -0.02204115316271782 0.20818081498146057 -0.5136836767196655 0.4551536738872528 0.21790066361427307 -0.6076323390007019 -0.2916311025619507 0.6914544105529785 -0.05062544345855713 -0.18867330253124237 0.6105533838272095 0.18929211795330048 0.2735651731491089 -0.14393743872642517 -0.20173464715480804 -0.09196925163269043 -0.0058537498116493225 0.5149546265602112 -0.18192052841186523 0.1495865136384964 -0.040080614387989044 -0.00782726239413023 0.048829346895217896 0.12715588510036469 -0.22769932448863983 -0.03525470942258835 0.3537730574607849 0.05198042094707489 0.33968162536621094 0.09482395648956299 0.37337765097618103 -0.23808901011943817 0.00341879203915596 0.4763023555278778 0.4097205102443695 -0.07308803498744965 -0.09868733584880829 -0.058945320546627045 -0.4760288894176483 -0.07687254250049591 0.3093547224998474 -0.0787184089422226 0.05720040947198868 0.335697740316391 0.025843888521194458 -0.119242362678051 0.2538468539714813 -0.1440771073102951 -0.2384132593870163 -0.24127113819122314 0.5765600204467773 -0.16173942387104034 0.23663261532783508 -0.0012577995657920837 -0.15571197867393494 -0.17907749116420746 -0.3940008580684662 0.10008683055639267 -0.22157451510429382 0.8815648555755615 -0.2593425512313843 -0.3748893439769745 0.5411259531974792 0.0906255766749382 -0.5026692152023315 -0.0009022107115015388 -0.2672193944454193 -1.4492900371551514 0.3488985002040863 0.2809981107711792 -0.12506413459777832 -0.6298089027404785 0.26564350724220276 0.38578498363494873 0.05665094777941704 0.06056755781173706 0.380972683429718 0.08174220472574234 0.19136393070220947 0.06945154070854187 -0.620334267616272 -0.04097529500722885 0.1306549310684204 0.03973259776830673 -0.002197394846007228 0.20301461219787598 -0.0353325717151165 0.18464580178260803 0.06043662875890732 0.20673605799674988 -0.11332696676254272 0.09556152671575546 0.009360738098621368 -0.21541324257850647 -0.04412020742893219 -1.2672626972198486 -0.326727032661438 -0.43972048163414 -0.06227099150419235 -0.2713845670223236 0.1056966707110405 0.09767138957977295 0.49790453910827637 -0.06582845002412796 0.07745780050754547 -0.03358248993754387 0.24330011010169983 -0.18460343778133392 0.12019049376249313 -0.06612859666347504 0.14348766207695007 -0.02892884612083435 -0.3921036720275879 -0.5171253085136414 0.15841764211654663 -0.03656444698572159 -0.14091001451015472 0.034730155020952225 0.18218988180160522 -0.040771715342998505 0.40030884742736816 0.3464886546134949 -0.08737055957317352 0.05664665624499321 -0.06978248059749603 0.1979312151670456 -0.2472163438796997 -0.27883729338645935 0.0469641350209713 -0.20937851071357727 -0.3281417489051819 -0.7031266093254089 -0.22128891944885254 -0.11757874488830566 -0.07027238607406616 -0.2510097026824951 0.04767785966396332 -0.04179515689611435 -0.04429331421852112 0.20383235812187195 -0.24901443719863892 0.5893551707267761 -0.40584832429885864 0.2717951536178589 0.1831102967262268 0.7462911605834961 0.1990199089050293 0.11743494123220444 -0.28660517930984497 0.35900282859802246 0.042061056941747665 0.006400726735591888 0.10797077417373657 -0.35599541664123535 0.06720884144306183 -0.12884266674518585 0.02179015800356865 0.21113137900829315 0.04224982485175133 0.1464727818965912 0.11698924005031586 -0.030836796388030052 0.09334741532802582 -0.15224041044712067 0.20244437456130981 -0.16448873281478882 0.23928537964820862 -0.054090481251478195 -0.18271121382713318 -0.020199742168188095 -0.43094080686569214 0.1450910121202469 -0.31167012453079224 0.19723737239837646 -0.08422639220952988 -0.2035762518644333 0.39114388823509216 0.4094080328941345 0.6692242622375488 0.6568613052368164 -0.02642263099551201 0.9041517972946167 0.06367108970880508 0.17268574237823486 -0.046543385833501816 -0.17903098464012146 -0.25044625997543335 0.23843997716903687 -0.15521806478500366 -0.4444969892501831 0.10635071247816086 -0.042629580944776535 0.17456069588661194 -0.05261228233575821 0.5893851518630981 -0.21138286590576172 0.3595044016838074 -0.3306719660758972 -0.12401743978261948 -0.14912202954292297 0.10020099580287933 -0.5426819324493408 0.26185089349746704 0.20163333415985107 -0.19677603244781494 -0.27845945954322815 -0.006332732737064362 -0.15400485694408417 -0.46202409267425537 0.6560750007629395 -0.03863973170518875 -0.24635788798332214 -0.32498860359191895 -0.3246169686317444 -0.704014241695404 -0.11859868466854095 -0.10459320992231369 0.0552884042263031 0.03315449506044388 0.18249015510082245 0.4903576076030731 -0.08747660368680954 0.22743690013885498 0.11146122217178345 0.42329344153404236 0.3732188642024994 0.17786753177642822 -0.3227826952934265 -0.2967461943626404 0.5061430931091309 0.09517288208007812 0.3059985041618347 0.00340180448256433 -0.5285108089447021 0.09132018685340881 0.30019819736480713 0.37247079610824585 0.3045647144317627 0.21588873863220215 -0.021779483184218407 0.13902878761291504 0.46039295196533203 -0.1693703532218933 0.05569227784872055 0.2022392749786377 0.6722548007965088 -0.044772397726774216 0.2576558291912079 0.2759195566177368 0.08327344059944153 0.0308980792760849 0.07663719356060028 0.36700862646102905 -0.15204457938671112 0.292701780796051 0.18685853481292725 -0.20780441164970398 -0.9736918210983276 -0.28455808758735657 -0.058002885431051254 -0.39670705795288086 -0.1828768104314804 -0.1957656741142273 -0.15209931135177612 0.33629247546195984 -0.5762069821357727 -0.6409652233123779 -0.03800483047962189 0.1854068636894226 -0.029857775196433067 0.38968729972839355 0.2601405382156372 0.010714709758758545 0.07667715847492218 -0.00897618941962719 -0.2065434455871582 -0.6665787100791931 -0.0937541052699089 0.07515288889408112 -0.09547676146030426 0.2763267159461975 0.03572048991918564 0.2548682391643524 -0.27605706453323364 0.09074550122022629 -0.16225260496139526 -0.14851760864257812 0.2994827628135681 -0.2559818923473358 -0.2618415355682373 -0.32401955127716064 0.5777699947357178 0.01853409968316555 0.12159599363803864 0.01831212267279625 -0.15579335391521454 -0.18975698947906494 -0.00047035515308380127 -0.3930490016937256 0.40318459272384644 -0.49429893493652344 -2.340304374694824 0.37015342712402344 0.36426305770874023 0.3065605163574219 0.18981759250164032 0.11084111034870148 0.39916497468948364 -0.018836578354239464 0.11709805577993393 0.3588869273662567 0.21213822066783905 0.05156286805868149 0.22313234210014343 0.04331202059984207 -0.016185609623789787 -0.038559120148420334 0.05134322866797447 0.35586410760879517 0.35366523265838623 0.07507564127445221 0.09060828387737274 0.09812204539775848 0.09789323061704636 -0.1616039127111435 -0.08307324349880219 0.02190564200282097 -0.20424067974090576 0.03783329576253891 0.13992410898208618 -0.015805138275027275 -0.26074373722076416 -0.01945631019771099 0.1044355258345604 -0.39138758182525635 0.26845255494117737 0.23999349772930145 -0.05270342156291008 -0.41398191452026367 -0.17876045405864716 -0.28107306361198425 0.6837420463562012 0.07254685461521149 0.3091786801815033 -1.3038122653961182 -0.20303373038768768 -0.5014667510986328 -0.20705798268318176 0.0366375669836998 0.052349336445331573 0.21959511935710907 0.014530202373862267 0.1260964274406433 -0.3129996359348297 -0.195362851023674 0.030901756137609482 -0.04405060410499573 -0.19520455598831177 0.07617996633052826 0.2817961871623993 -0.06528045982122421 0.10356202721595764 0.16901087760925293 -0.11371322721242905 -0.009492337703704834 0.20921853184700012 -0.17212873697280884 -0.3783584237098694 -0.16428031027317047 0.3156660497188568 -0.17556211352348328 0.26166850328445435 0.18587207794189453 -0.03690548986196518 0.17908483743667603 0.12887834012508392 -0.01740993931889534 -0.17238852381706238 0.30397120118141174 -0.2399226278066635 0.26949000358581543 -0.01498490571975708 0.6892876625061035 0.017915289849042892 0.028580591082572937 0.057654570788145065 0.10459613800048828 -0.3980090618133545 -0.16566839814186096 0.4965803623199463 0.048633500933647156 -0.198177307844162 0.48493891954421997 -0.09317468106746674 0.04415478929877281 0.15489420294761658 0.30607089400291443 0.5428268313407898 -0.41821393370628357 2.1189968585968018 0.2256387174129486 0.03665637969970703 -0.1465345025062561 0.34219080209732056 0.2156372368335724 0.012138277292251587 -0.2045428454875946 0.010144243948161602 0.004139691591262817 -0.19980143010616302 -0.05353111773729324 0.19602563977241516 -0.5335971117019653 0.4404381513595581 0.4432370066642761 -0.10921776294708252 0.26507335901260376 0.06410253047943115 0.06460297852754593 0.49294185638427734 -0.28337568044662476 0.6654508709907532 -0.4362981915473938 -0.04827602952718735 -0.0635562539100647 -0.011373619548976421 0.323533833026886 0.2875620722770691 0.5534356832504272 0.15601475536823273 0.04292330890893936 -0.33646267652511597 0.06753864884376526 -0.40117692947387695 0.4013964533805847 -0.031021632254123688 9.831424713134766 -0.10348069667816162 0.12915383279323578 -0.1753862500190735 0.2728360891342163 -0.16849318146705627 0.05061610788106918 0.1844603717327118 -0.20825383067131042 -0.025940537452697754 -0.13258817791938782 -0.23970913887023926 0.28082385659217834 -0.2046446055173874 -0.10166528075933456 0.18122804164886475 0.6420116424560547 0.276284396648407 0.08108992874622345 -0.2186187505722046 -0.21821776032447815 -0.4208317697048187 0.061792001128196716 0.4433879256248474 -0.2755548655986786 -0.06840872019529343 -0.6321625709533691 0.4789104461669922 -0.024336453527212143 0.28151342272758484 0.24009919166564941 0.20819315314292908 0.1789080798625946 0.10615649074316025 0.009981492534279823 0.21160607039928436 -1.3012123107910156 -0.27122411131858826 0.316389799118042 -0.24977289140224457 -0.1716344952583313 -0.18755730986595154 -0.03212188184261322 -0.11894941329956055 0.2709566354751587 -0.003525773761793971 -0.295230507850647 0.25320741534233093 0.2780079245567322 -0.14587867259979248 0.05724340304732323 0.021766312420368195 -0.06347033381462097 -0.37543225288391113 0.06279341876506805 -0.3415071964263916 0.7005833387374878 0.09872918576002121 -0.1850837767124176 -0.528616726398468 0.010306906886398792 -0.09546659886837006 -0.1990230679512024 0.08288808166980743 0.6081809997558594 0.019195985049009323 0.5637345314025879 0.19483280181884766 0.2554928660392761 0.060502078384160995 -0.10328322649002075 0.0028848275542259216 0.022842345759272575 -0.14891138672828674 -0.3493746221065521 -0.33040305972099304 -0.14775824546813965 -0.3685743510723114 -0.29298239946365356 -0.17305511236190796 -0.16190554201602936 0.314103901386261 0.007664534263312817 -0.06061949580907822 -0.5983257293701172 0.011854851618409157 -0.06331120431423187 0.2891126871109009 0.06402359902858734 -0.09483684599399567 -0.15289467573165894 -0.32161223888397217 -0.017467938363552094 0.1258050799369812 0.2781704068183899 0.1475745141506195 0.06057898327708244 0.10803849995136261 0.1035163551568985 -0.29460540413856506 -0.6571574211120605 0.10973170399665833 -0.4285787045955658 0.2010919153690338 0.14921674132347107 0.4209718406200409 0.42296260595321655 -0.1345941424369812 -0.16341271996498108 0.05786082148551941 -0.096901074051857 0.2971673607826233 0.08619379252195358 0.15889927744865417 -0.28452277183532715 -0.21962229907512665 0.026311200112104416 -0.15786521136760712 0.2582746744155884 0.6552011966705322 -0.018904460594058037 0.3390902280807495 0.11800312995910645 -0.5435618162155151 0.040357805788517 0.10707112401723862 -0.178663969039917 0.5135073661804199 0.4007352292537689 -0.0038680732250213623 -0.6611649990081787 -0.12878291308879852 0.4226233959197998 0.24727559089660645 -0.1455085724592209 0.01263492088764906 0.39433354139328003 -0.11966235935688019 0.10079188644886017 0.10633617639541626 -0.07413152605295181 -0.10268363356590271 -0.09394820779561996 -0.1293177455663681 -0.40566548705101013 -0.06577941030263901 -0.3258557915687561 -0.5779899954795837 0.43865662813186646 -0.16538137197494507 -0.2796967029571533 -0.22182559967041016 -0.2047410011291504 -0.20252776145935059 0.13593308627605438 0.058240726590156555 0.03382602706551552 0.5132176876068115 0.15023291110992432 -0.015963338315486908 -0.11894848197698593 -0.6411421895027161 -0.5348631143569946 -0.7738981246948242 -0.07930222153663635 -0.10038323700428009 -0.0028233430348336697 -0.21439604461193085 0.47428643703460693 -0.032614387571811676 0.36700114607810974 -0.15524797141551971 -0.3589820861816406 -0.014452624134719372 0.3808682858943939 -0.2797407805919647 -0.40515947341918945 -0.5465867519378662 0.21137666702270508 0.33893343806266785
node_23	-0.16605240106582642 0.229318305850029 0.07686781138181686 0.06274289637804031 0.9164959788322449 -0.5424402952194214 0.14764152467250824 0.1615428924560547 -0.11081215739250183 -0.25263065099716187 0.2567718029022217 0.4914865493774414 0.42908477783203125 0.19358377158641815 -0.1336721032857895 -0.6661089062690735 1.0149513483047485 0.4434160590171814 -0.06153794378042221 0.20510327816009521 -0.19436773657798767 0.47184503078460693 0.07670874893665314 0.05777163803577423 -0.1281730979681015 0.1461900770664215 0.44265127182006836 -0.17251846194267273 -0.28771135210990906 0.14647644758224487 -0.1320227086544037 0.33347901701927185 -0.01748260110616684 0.05365245044231415 -0.11209618300199509 -0.0715722069144249 -0.4302607476711273 0.1504882276058197 0.2991905212402344 0.24106387794017792 -0.6589524745941162 0.1459021419286728 0.13949881494045258 -0.06431639939546585 0.1493149697780609 0.2540210485458374 0.034777771681547165 0.0051265559159219265 0.10098175704479218 -0.06941744685173035 0.28587859869003296 -0.3096143901348114 -0.3901609778404236 0.2512126564979553 -0.0695997104048729 0.3316429853439331 -0.16885803639888763 -0.3691864013671875 0.3066744804382324 0.01464831829071045 0.1689506620168686 0.8429243564605713 0.2915068566799164 0.3683233857154846 -0.13635186851024628 0.15534839034080505 -0.05114000290632248 -0.7468006014823914 0.0536440908908844 0.020401526242494583 0.25486046075820923 -0.10974866151809692 0.026333367452025414 -0.4280796945095062 0.08115516602993011 0.24214796721935272 0.5718131065368652 -2.1284396648406982 -0.2749243974685669 0.6886386871337891 0.12764106690883636 -0.3221313953399658 1.1506317853927612 -0.254316508769989 0.025940805673599243 -0.45837223529815674 0.24375608563423157 -0.47814664244651794 0.18796400725841522 0.3280829191207886 0.42718029022216797 0.023000134155154228 -0.24380791187286377 0.35491907596588135 -0.21254834532737732 0.13058072328567505 -0.1349252462387085 -0.8767476081848145 -0.15816989541053772 -0.04475636035203934 -0.12001710385084152 -0.0997716411948204 0.12654823064804077 0.0074478983879089355 0.17114409804344177 -0.3200460970401764 -0.15554529428482056 -0.2695502042770386 0.18756155669689178 0.6279692053794861 0.02159239910542965 0.2865505814552307 -0.11299647390842438 -0.03562778979539871 -0.11169137805700302 0.2282610386610031 -0.0022164545953273773 -0.07719241082668304 0.14678218960762024 0.6089126467704773 0.2965639531612396 -0.23649680614471436 0.15390858054161072 -0.04435520991683006 -0.06065964326262474 0.5979137420654297 0.4783053398132324 0.011277126148343086 -0.1608293056488037 -0.2287863940000534 0.002565629780292511 -1.2727200984954834 -0.22320851683616638 0.15738946199417114 0.1576135903596878 0.2042633295059204 -0.2570818066596985 -0.02744806371629238 0.05320185422897339 0.12490807473659515 -0.22912949323654175 0.23421482741832733 0.243862122297287 0.13110379874706268 0.7118840217590332 -0.29398220777511597 -0.09980815649032593 -0.10998961329460144 -0.19323953986167908 0.2466352880001068 -0.060394078493118286 0.3917355537414551 0.091064453125 0.26226064562797546 -0.678959846496582 0.385235071182251 0.2117953896522522 -0.541426420211792 -0.43644869327545166 0.664108157157898 -0.05895724520087242 0.035961151123046875 0.5048935413360596 0.10226204246282578 0.16780081391334534 -0.10348840057849884 -0.2557481527328491 0.06042880937457085 0.09981337189674377 0.7083468437194824 -0.22241686284542084 0.1259065866470337 -0.12752684950828552 0.1281268149614334 0.038014043122529984 0.12509392201900482 -0.26622337102890015 -0.04613058269023895 0.3013555705547333 -0.027110299095511436 0.4951021671295166 0.09868311136960983 0.3871607184410095 -0.11665743589401245 -0.021767614409327507 0.3446624279022217 0.36598485708236694 -0.06254687160253525 0.07076910138130188 -0.1597117930650711 -0.6884075999259949 -0.06605836749076843 0.24057117104530334 -0.21701595187187195 0.01201388519257307 0.43511271476745605 0.07169663906097412 -0.14359354972839355 0.252593457698822 -0.09132266044616699 -0.22444459795951843 -0.4474705159664154 0.4944899082183838 -0.1658434271812439 -0.1003781408071518 0.011298279277980328 0.18653027713298798 -0.27192336320877075 -0.46216821670532227 0.0041991472244262695 -0.08780741691589355 0.4814274311065674 -0.2406449168920517 -0.42069992423057556 0.3005026876926422 0.39993011951446533 -0.5244628190994263 0.1458449363708496 -0.3453149199485779 -1.3592523336410522 0.27045679092407227 0.17359435558319092 -0.28281348943710327 -0.7225733995437622 0.044078342616558075 0.36801669001579285 0.0015550156822428107 0.02154867723584175 0.3708813190460205 0.28150686621665955 0.21882204711437225 0.3549458384513855 -0.8048467040061951 0.0437501035630703 0.24689137935638428 0.029491126537322998 -0.05886467546224594 0.14261993765830994 0.05922248587012291 0.24367424845695496 0.2985314726829529 0.14538055658340454 -0.15493296086788177 0.14776423573493958 -0.03514400124549866 -0.28976595401763916 -0.025397537276148796 -0.8377286791801453 -0.2801039218902588 -0.3419005572795868 -0.0032130132894963026 -0.3549306392669678 0.10900643467903137 0.08418318629264832 0.7862564325332642 -0.01623660884797573 0.16926661133766174 0.017212199047207832 0.38994044065475464 -0.3866211771965027 0.09505815804004669 -0.13567756116390228 0.19866853952407837 -0.10356798022985458 -0.2947336733341217 -0.10127571225166321 0.13720455765724182 -0.05779943987727165 -0.1887427568435669 0.09465052932500839 0.13828535377979279 -0.024105070158839226 0.45201700925827026 0.223086878657341 -0.048983022570610046 0.041187696158885956 -0.0053294748067855835 0.17115360498428345 -0.22704750299453735 -0.3622676730155945 0.2226935625076294 -0.24251028895378113 -0.49172329902648926 -0.6562425494194031 -0.20801648497581482 -0.2119101732969284 -0.09430639445781708 -0.3765102028846741 0.1324010193347931 0.011168125085532665 0.02899632416665554 0.16892343759536743 -0.19227461516857147 0.48220038414001465 -0.25427189469337463 0.17975758016109467 0.1277647465467453 0.6131507158279419 0.16445787250995636 0.056620728224515915 -0.41041630506515503 0.30048519372940063 0.03368881344795227 0.03675498068332672 0.036675646901130676 -0.36922669410705566 -0.014771213755011559 -0.13276159763336182 0.0722275823354721 0.21110057830810547 -0.09000253677368164 0.11920054256916046 0.12680163979530334 0.021803509443998337 0.11753426492214203 -0.0948423370718956 0.1848152130842209 -0.11256243288516998 0.363971084356308 0.021207217127084732 -0.1566980928182602 -0.17162778973579407 -0.4490054249763489 -0.007300331257283688 -0.539953887462616 0.22687391936779022 0.0746431052684784 -0.22928115725517273 0.35689765214920044 0.41064661741256714 0.605282187461853 0.6825820207595825 -0.059575386345386505 0.6972973346710205 0.006420135498046875 0.15546779334545135 -0.18776935338974 -0.2330709993839264 -0.27068114280700684 -0.06489531695842743 0.09174531698226929 -0.5028288960456848 0.1911013126373291 -0.068715900182724 0.23348641395568848 -0.12561139464378357 0.6961568593978882 -0.2936212718486786 0.3120306134223938 -0.5002164244651794 -0.14145222306251526 -0.12405528128147125 0.03423284739255905 -0.5122729539871216 0.08411064743995667 0.3766922950744629 -0.2027125060558319 -0.16743874549865723 -0.11478739976882935 -0.0633428767323494 -0.45984911918640137 0.7235158681869507 -0.020988469943404198 -0.27060389518737793 -0.3380895256996155 -0.3422439992427826 -0.8161811828613281 -0.030044829472899437 -0.0720772072672844 0.03046865016222 0.043990831822156906 0.09886413812637329 0.5328962802886963 -0.3159920573234558 0.30539974570274353 0.11261613667011261 0.4161461591720581 0.20595696568489075 -0.16923901438713074 -0.35110172629356384 -0.19726935029029846 0.5056291818618774 0.09544640779495239 0.3741151988506317 0.1133357584476471 -0.577847957611084 0.12993547320365906 0.45758479833602905 0.20877358317375183 0.22325603663921356 0.0658060759305954 0.01612144336104393 0.10783594846725464 0.46785467863082886 -0.17431561648845673 0.06644537299871445 0.32844415307044983 0.5419225692749023 0.02154316008090973 0.17581889033317566 0.140589639544487 -0.0065596140921115875 -0.03260498493909836 -0.18982677161693573 0.3910275101661682 0.011569867841899395 0.1523357331752777 0.1476408839225769 -0.26696354150772095 -0.9907917976379395 -0.30185142159461975 -0.029795046895742416 -0.2839331328868866 -0.26977163553237915 -0.20524179935455322 -0.11361066997051239 0.446166455745697 -0.3120814263820648 -0.701342761516571 -0.1781318187713623 0.32997405529022217 0.0749836415052414 0.42507410049438477 0.1790149211883545 -0.22342443466186523 0.06061118096113205 0.0505542978644371 -0.2596626281738281 -0.12849144637584686 -0.04049592465162277 0.03963885456323624 -0.08331741392612457 0.42268475890159607 0.07164443284273148 0.3019947111606598 -0.37709757685661316 0.18889406323432922 -0.15564200282096863 -0.2313222885131836 0.3703870475292206 -0.13905848562717438 -0.26970526576042175 -0.24309369921684265 0.6706099510192871 0.024778110906481743 0.15528272092342377 -0.20147916674613953 -0.09838151186704636 -0.16631348431110382 -0.1135588139295578 -0.526231050491333 0.4300854206085205 -0.44849368929862976 -2.587745428085327 0.34096869826316833 0.2875528037548065 0.24312536418437958 0.182099387049675 0.06986134499311447 0.43279656767845154 0.08549629896879196 0.1366695612668991 0.36856481432914734 0.11637820303440094 0.07765939831733704 0.3146633803844452 0.07562081515789032 0.11987393349409103 -0.29851144552230835 0.004233434796333313 0.20636789500713348 0.3053652048110962 0.06722690165042877 0.050458915531635284 0.006154246162623167 0.15169218182563782 -0.21759220957756042 -0.26448220014572144 0.09590445458889008 -0.246677428483963 -0.0030167526565492153 0.16550680994987488 0.009560997597873211 -0.25103574991226196 -0.01228388398885727 0.15318486094474792 -0.2769732177257538 0.15169067680835724 0.153858482837677 -0.14615553617477417 -0.3865547180175781 -0.020579669624567032 -0.3706662356853485 0.6851463317871094 0.06361844390630722 0.33035415410995483 -1.3708919286727905 -0.09897398203611374 -0.07013791799545288 -0.18807345628738403 0.05374794453382492 0.06925243884325027 0.39999163150787354 0.19135570526123047 0.2753044068813324 -0.1793665587902069 -0.17215149104595184 0.027296744287014008 -0.15198197960853577 -0.1490899622440338 0.2172705978155136 0.22652265429496765 4.262477159500122e-05 0.04067884385585785 0.21258002519607544 -0.28062233328819275 0.05004628747701645 0.26868245005607605 -0.3337932229042053 -0.40025052428245544 -0.23862087726593018 0.22590899467468262 -0.181135892868042 0.1911347210407257 0.06560403853654861 -0.05097357928752899 0.19426670670509338 -0.027370095252990723 -0.05288206785917282 -0.11113866418600082 0.30472129583358765 -0.26273757219314575 0.1951092779636383 -0.029602378606796265 0.5371366739273071 0.02666740119457245 -0.014276331290602684 -0.12846124172210693 0.2822488248348236 -0.30359840393066406 -0.15431925654411316 0.41299504041671753 -0.0449538491666317 -0.1522407829761505 0.5265930891036987 -0.0982070192694664 0.3022250533103943 0.21652112901210785 0.37170514464378357 0.4896078109741211 -0.30459901690483093 2.2964224815368652 0.11612829566001892 0.021098991855978966 -0.22017505764961243 0.3891464173793793 0.16406473517417908 0.14850085973739624 -0.12431757152080536 0.049789637327194214 0.02986840531229973 -0.4346904754638672 0.04078659415245056 0.1593439280986786 -0.331503689289093 0.5015036463737488 0.5374215841293335 -0.1351373791694641 0.16525135934352875 0.19000065326690674 -0.6113255620002747 0.4996860921382904 -0.281369686126709 0.252449631690979 -0.3694075345993042 -0.027738448232412338 -0.05600110813975334 0.5067980289459229 0.5080856084823608 0.2609504461288452 0.4912768304347992 0.2011423408985138 0.05356857180595398 -0.2245982587337494 0.056409746408462524 -0.4064527750015259 0.5842351913452148 -0.10441121459007263 10.110735893249512 -0.057568103075027466 0.0805911049246788 -0.24711185693740845 0.2956872582435608 -0.26908618211746216 0.0558168962597847 0.1603841632604599 -0.25778812170028687 -0.01877543330192566 -0.07186846435070038 -0.22867822647094727 0.23829805850982666 -0.1737905740737915 -0.09384693950414658 0.05608399957418442 0.48392897844314575 0.3286587595939636 0.09897711127996445 -0.17745986580848694 -0.08976654708385468 -0.21570631861686707 0.1459961086511612 0.5502334833145142 -0.19891414046287537 -0.09958577156066895 -0.516451358795166 0.5344325304031372 0.016448449343442917 0.1371358335018158 0.0828499048948288 0.029790734872221947 0.21572451293468475 0.003793796058744192 -0.01377053838223219 0.1697138547897339 -1.1164401769638062 -0.27523502707481384 0.3342418670654297 -0.20806650817394257 -0.17096500098705292 -0.2093653529882431 0.010140886530280113 -0.17367622256278992 0.19394004344940186 0.047307685017585754 -0.47211718559265137 0.22317931056022644 0.27339327335357666 -0.09440361708402634 0.15071623027324677 -0.011614084243774414 -0.15418602526187897 -0.6191562414169312 0.00771041214466095 -0.397719144821167 0.7225302457809448 0.15912747383117676 -0.1770995557308197 -0.6162470579147339 -0.017253568395972252 0.0012875448446720839 -0.1841551512479782 -0.07216425985097885 0.22110262513160706 0.06569535285234451 0.4343503713607788 0.38952669501304626 0.2695421874523163 0.01297086663544178 -0.07184989750385284 -0.05975988507270813 0.05805044621229172 -0.14820484817028046 -0.38099369406700134 -0.29683825373649597 0.1673252284526825 -0.3860031068325043 -0.1549197882413864 -0.31825095415115356 -0.16087429225444794 0.38865363597869873 -0.051073264330625534 0.02024954929947853 -0.5530506372451782 0.03014576993882656 -0.09342437237501144 0.31045353412628174 -0.20768052339553833 -0.20311221480369568 -0.053053118288517 -0.36165374517440796 0.03424486145377159 0.12642808258533478 0.3642018735408783 0.07486939430236816 -0.06687425076961517 0.09084244072437286 0.09745471924543381 -0.3921286463737488 -0.7493089437484741 0.1874012053012848 -0.4181278944015503 0.2865253984928131 0.1744215190410614 0.32085520029067993 0.6693960428237915 0.011197641491889954 -0.22266308963298798 0.09530746191740036 -0.1321970820426941 0.42444539070129395 0.23036299645900726 0.11876712739467621 -0.3387265205383301 -0.30363819003105164 0.08995821326971054 -0.17336717247962952 0.20966506004333496 0.7317174673080444 0.007883208803832531 0.22653642296791077 0.03717599809169769 -0.5055805444717407 0.15389689803123474 0.11950451135635376 -0.14121833443641663 0.5193600654602051 0.4202859103679657 0.048697806894779205 -0.7808469533920288 -0.204076886177063 -0.28200390934944153 0.37387189269065857 -0.15413855016231537 0.04595120996236801 0.29782208800315857 -0.1949540674686432 0.1680665910243988 0.019216354936361313 -0.046832188963890076 -0.05236896127462387 -0.1378922462463379 -0.5230306386947632 -0.43843191862106323 -0.09309951961040497 -0.22597822546958923 0.06425359100103378 0.41298234462738037 -0.2765038013458252 -0.1986418068408966 -0.18429231643676758 -0.25472861528396606 -0.06347495317459106 0.26915043592453003 0.06463074684143066 0.0031280170660465956 0.47826215624809265 0.23660382628440857 -0.024549638852477074 0.08683270215988159 -1.0109626054763794 -0.584270715713501 -0.7040778398513794 0.016311127692461014 -0.0996851921081543 -0.03817417845129967 -0.3232898414134979 0.3772737383842468 0.044615089893341064 0.40070363879203796 -0.16765543818473816 -0.40656352043151855 -0.012917093932628632 0.37032073736190796 -0.3533640503883362 -0.020494770258665085 -0.6733595132827759 0.17181456089019775 0.29731255769729614
node_39	-0.13410156965255737 0.28457778692245483 0.07050298154354095 0.019915860146284103 0.7189735174179077 -0.5390443205833435 0.14982692897319794 0.3319365084171295 -0.2187722623348236 -0.30737635493278503 0.36634379625320435 0.5183664560317993 0.31076741218566895 -0.022818468511104584 0.04439762234687805 -0.8440569639205933 0.8305625915527344 0.4814545512199402 -0.16962793469429016 0.28165459632873535 -0.04240124672651291 0.42520877718925476 -0.023108065128326416 0.3285818099975586 -0.07763316482305527 0.20602381229400635 0.4893563985824585 -0.28047528862953186 -0.05972444266080856 0.18248045444488525 -0.12898153066635132 0.3080573081970215 0.05141530930995941 -0.0008712112903594971 -0.12502628564834595 -0.06415777653455734 -0.4072052836418152 0.09917279332876205 0.13012808561325073 0.11192397773265839 -0.6056612730026245 0.18550996482372284 0.2410847395658493 -0.09990119934082031 0.1318838745355606 0.09998391568660736 0.39501363039016724 0.12142813205718994 0.07095575332641602 -0.02557048760354519 0.2536331117153168 -0.43153294920921326 -0.4600297808647156 0.13077424466609955 -0.06794355064630508 0.198503777384758 -0.11777003109455109 -0.12449483573436737 0.2862876355648041 0.09292498230934143 0.17466752231121063 0.8139806985855103 0.3268201947212219 -0.09195850789546967 -0.037147413939237595 0.14093142747879028 -0.00034771859645843506 -0.47689566016197205 -0.02033834159374237 0.05953603237867355 0.22081634402275085 0.009077541530132294 -0.019106073305010796 -0.6058513522148132 0.021264193579554558 -0.1413458287715912 0.6149430274963379 -1.8696575164794922 -0.3281366229057312 0.7488845586776733 0.1551508754491806 -0.42918020486831665 1.3602336645126343 0.026224475353956223 0.09511879086494446 -0.46472546458244324 0.32357990741729736 -0.28239354491233826 0.18789534270763397 0.2371709942817688 0.6107191443443298 -0.07197299599647522 -0.17111019790172577 -0.043415218591690063 -0.14447572827339172 -0.020835882052779198 -0.021286366507411003 -1.2109302282333374 -0.12530890107154846 -0.14251390099525452 0.06023957580327988 -0.13264712691307068 0.07810276746749878 -0.10835482180118561 0.23263335227966309 -0.42317065596580505 -0.0919409915804863 -0.24607980251312256 0.1701478809118271 0.5582679510116577 0.13737154006958008 -0.021629970520734787 0.11280234158039093 -0.02743871510028839 -0.12773481011390686 0.42203718423843384 0.056986790150403976 0.007559549994766712 0.15571631491184235 0.4676637649536133 0.21603207290172577 -0.10086594521999359 0.11487062275409698 0.06857827305793762 -0.22736847400665283 0.5004445910453796 0.5286394357681274 -0.20307116210460663 -0.3237181603908539 -0.15334847569465637 -0.06685376912355423 -0.937354564666748 -0.17821550369262695 -0.10769527405500412 0.006352484226226807 0.12289338558912277 -0.02174488827586174 -0.02533009462058544 0.00809866189956665 0.0800255835056305 -0.11374975740909576 0.23695656657218933 0.19901403784751892 0.13297109305858612 0.6457213163375854 -0.2570914030075073 -0.12681907415390015 -0.2196180820465088 -0.347326397895813 0.11372064799070358 -0.21293765306472778 0.4095090627670288 0.05075666308403015 0.3398473858833313 -0.7378802299499512 0.3742426335811615 0.16484272480010986 -0.5483427047729492 -0.3504655361175537 0.594157338142395 -0.01120095606893301 0.04852744936943054 0.593487024307251 0.1709308922290802 0.16002079844474792 -0.07501184940338135 -0.0863208994269371 0.06431359052658081 0.117884062230587 0.7712016105651855 -0.32151445746421814 0.17277853190898895 -0.042510323226451874 0.1719384640455246 0.004270101897418499 0.1216331273317337 -0.18468356132507324 -0.15308664739131927 0.24600040912628174 -0.057335905730724335 0.3329561650753021 0.10833460092544556 0.27952778339385986 -0.2956165373325348 0.06920623034238815 0.5120940208435059 0.269679993391037 -0.22623670101165771 0.06784819066524506 -0.16571341454982758 -0.5987148284912109 -0.07793222367763519 0.40518832206726074 -0.2703492045402527 -0.13326823711395264 0.1576882004737854 0.03126218542456627 -0.14998535811901093 0.2371043562889099 -0.0788668841123581 -0.19223928451538086 -0.43984493613243103 0.6827205419540405 -0.21506433188915253 0.04169328138232231 0.023974526673555374 -0.05062389001250267 -0.28846514225006104 -0.5805169343948364 0.3043721318244934 -0.15204106271266937 0.15902112424373627 -0.16965940594673157 -0.3354841470718384 0.3240346908569336 0.21892935037612915 -0.4615050256252289 0.12397855520248413 -0.29684513807296753 -1.347914218902588 0.2770615220069885 0.2454838752746582 -0.15381991863250732 -0.8587057590484619 0.24078595638275146 0.45226937532424927 0.03349225968122482 0.08518210053443909 0.36997005343437195 0.3245544135570526 0.24057647585868835 0.16583222150802612 -0.9107106924057007 0.040071748197078705 0.1171468123793602 -0.22553621232509613 -0.10084591805934906 0.15341424942016602 0.05742250382900238 0.22114825248718262 0.03556138649582863 0.18278996646404266 -0.10907033085823059 0.02907392755150795 -0.021282223984599113 -0.23350588977336884 0.10359247773885727 -0.4461368918418884 -0.33215248584747314 -0.1776435673236847 0.00186460604891181 -0.3428703546524048 0.03295879811048508 0.029162906110286713 0.5016161203384399 -0.010470859706401825 0.18123511970043182 -0.029326625168323517 0.3264448046684265 -0.12607547640800476 0.03766138106584549 -0.1476231813430786 -0.12800948321819305 -0.16811105608940125 -0.2787827253341675 -0.15870293974876404 0.1443704217672348 -0.047426916658878326 -0.16991126537322998 0.11431916803121567 0.1599579155445099 0.03128702938556671 0.3813275694847107 0.16192051768302917 0.017624368891119957 0.152757927775383 -0.07960329204797745 0.06119157001376152 -0.1730024218559265 -0.4114089608192444 0.07879357039928436 -0.2175208181142807 -0.5857719779014587 -0.6944494247436523 -0.16657297313213348 -0.172704815864563 0.09919048845767975 -0.09423431009054184 0.18354395031929016 -0.1736571490764618 0.043876416981220245 0.1374823898077011 -0.2068749964237213 0.5894980430603027 -0.18365967273712158 0.33865106105804443 0.08410376310348511 0.36351633071899414 0.19160477817058563 0.19603151082992554 -0.34532326459884644 0.3523697853088379 -0.3065229654312134 0.06528331339359283 0.16738510131835938 -0.320290744304657 0.021290551871061325 -0.19266512989997864 -0.08947210013866425 0.1869719922542572 -0.04639751464128494 0.32246145606040955 0.189489483833313 -0.16224482655525208 0.02975068800151348 -0.11986953020095825 0.2799103558063507 -0.1283521056175232 0.43478283286094666 0.007208897732198238 -0.0948372334241867 -0.164476215839386 -0.35806095600128174 0.08887419104576111 -0.4448162019252777 0.22039619088172913 -0.053077250719070435 -0.27951332926750183 0.4134126603603363 0.42253392934799194 0.8488690257072449 0.3506816327571869 -0.12831348180770874 1.0077024698257446 0.11590266227722168 0.11697940528392792 -0.26380956172943115 -0.1689719259738922 -0.23021245002746582 -0.03725006803870201 -0.04580792784690857 -0.505893349647522 0.18512681126594543 -0.012038035318255424 0.29705187678337097 0.022693833336234093 0.6180902719497681 -0.19752565026283264 0.30009064078330994 -0.4273037910461426 -0.03700707107782364 -0.27032291889190674 0.020979207009077072 -0.4096178710460663 0.11452090740203857 0.2523595094680786 -0.22335174679756165 -0.13115952908992767 -0.028152113780379295 -0.09870374202728271 -0.46249037981033325 0.4370179772377014 -0.015629732981324196 -0.36433523893356323 -0.21292702853679657 -0.3959643542766571 -1.0373706817626953 -0.19633960723876953 -0.19020527601242065 0.07897178828716278 0.027721291407942772 0.0874560996890068 0.4648521840572357 -0.37993431091308594 0.33407527208328247 0.12373685836791992 0.40326887369155884 0.37261900305747986 0.2277042716741562 -0.3537822663784027 -0.20976737141609192 0.5609826445579529 -0.02919924259185791 0.29857391119003296 0.17296865582466125 -0.49812453985214233 -0.04279018193483353 0.6847198009490967 0.3852250576019287 0.18970273435115814 0.18616768717765808 -0.1620011329650879 0.09582611173391342 0.5030901432037354 -0.25185641646385193 0.01901211217045784 0.37021076679229736 0.48340556025505066 -0.15345412492752075 0.13012567162513733 0.18520629405975342 0.14934153854846954 -0.03144025057554245 -0.30382463335990906 0.3670331835746765 0.04066433012485504 0.23056411743164062 0.1569645255804062 -0.40078896284103394 -0.8127838969230652 -0.2981281280517578 -0.09305298328399658 -0.28019899129867554 -0.22648081183433533 -0.1855848729610443 -0.19436490535736084 0.45396846532821655 -0.2855597734451294 -0.651339054107666 -0.18364542722702026 0.38478004932403564 -0.010404601693153381 0.4186081290245056 0.1504003405570984 -0.2769748866558075 0.0828472375869751 -0.003656230866909027 -0.19352766871452332 -0.4389946162700653 -0.10473161190748215 0.00918281078338623 -0.07581642270088196 0.4901907444000244 0.14883342385292053 0.2560315728187561 -0.2936309576034546 0.21221312880516052 -0.2508600354194641 -0.16522613167762756 0.5204831957817078 -0.08062481135129929 -0.2658989429473877 -0.3563777804374695 0.627086341381073 0.04378015920519829 0.1316256821155548 -0.278972864151001 -0.14232496917247772 -0.25298160314559937 -0.12484043836593628 -0.4190745949745178 0.5699388980865479 -0.21896158158779144 -3.177241802215576 0.4559158682823181 0.3524101674556732 0.26034337282180786 0.20089948177337646 0.009536946192383766 0.4072269797325134 0.11924180388450623 0.09354355931282043 0.391239732503891 0.16295455396175385 -0.012232063338160515 0.14683441817760468 0.04953759163618088 0.019385553896427155 -0.47110891342163086 0.006739157252013683 0.2776881456375122 0.3308570981025696 0.10768197476863861 0.2624589800834656 0.07543070614337921 0.1335403323173523 -0.11059927940368652 -0.09939919412136078 0.03930126130580902 -0.23034928739070892 0.010420250706374645 0.18046054244041443 -0.011463131755590439 -0.23784004151821136 0.0684957206249237 0.09613349288702011 -0.27416953444480896 0.13205158710479736 0.21570360660552979 -0.08939041197299957 -0.4454492926597595 -0.14193186163902283 -0.17800891399383545 0.7086660861968994 0.06390927731990814 0.36850565671920776 -1.2282826900482178 -0.06163471192121506 -0.0010309964418411255 -0.2212693691253662 0.1254037767648697 0.018746212124824524 0.2536395788192749 0.12180008739233017 0.2648029923439026 -0.188255175948143 -0.12963472306728363 0.07922708988189697 -0.1664249300956726 -0.08906581997871399 0.20256391167640686 0.4055555760860443 0.12059392780065536 0.04188808426260948 0.11672966927289963 -0.1361059844493866 0.05398111045360565 0.1398414671421051 -0.30704161524772644 -0.640539288520813 -0.2556541860103607 0.22252139449119568 -0.20552238821983337 0.2945864200592041 0.06523306667804718 -0.048799701035022736 0.20382696390151978 0.12541648745536804 -0.01645139791071415 0.04510550945997238 0.233189195394516 -0.1334020495414734 0.15589755773544312 -0.038508087396621704 0.5680698156356812 0.005456787999719381 -0.007358757313340902 -0.09922593832015991 0.28345823287963867 -0.36280640959739685 -0.14611099660396576 0.32728374004364014 0.06620419025421143 -0.145817369222641 0.5102956295013428 -0.07690070569515228 0.18375369906425476 0.17801466584205627 0.30711597204208374 0.48349475860595703 -0.363496869802475 2.0157759189605713 0.19471316039562225 -0.04075973853468895 -0.05888545513153076 0.3609154224395752 0.09813395142555237 0.02862194925546646 -0.1656309813261032 0.0013983945827931166 -0.010597310960292816 -0.37402045726776123 0.0023566256277263165 0.15553757548332214 -0.5055694580078125 0.4383096694946289 0.5712847709655762 -0.04744669422507286 0.15058597922325134 0.16263486444950104 -0.28058281540870667 0.45950448513031006 -0.1925497055053711 0.12948229908943176 -0.4492611885070801 -0.12335406988859177 0.04270392283797264 0.26930925250053406 0.31953418254852295 0.2134043574333191 0.593669593334198 0.3555043935775757 0.06143101304769516 -0.4643377959728241 -0.004901538603007793 -0.5297718048095703 0.3720976710319519 -0.0016538308700546622 10.315797805786133 -0.03912278264760971 0.13968414068222046 -0.13618086278438568 0.2298351526260376 -0.13496063649654388 0.0406416617333889 0.1362677365541458 -0.21932421624660492 -0.07351449877023697 -0.09990271925926208 -0.02384365163743496 0.3005184531211853 -0.14841845631599426 -0.14515218138694763 0.020720480009913445 0.6074197292327881 0.3067464530467987 -0.0044181086122989655 -0.21056139469146729 -0.10847018659114838 -0.49613165855407715 0.1698082983493805 0.44734078645706177 -0.1952807754278183 -0.05105763301253319 -0.5479413866996765 0.6984531283378601 -0.05038391053676605 0.17622321844100952 0.08545131981372833 0.13212850689888 0.37181633710861206 0.09609206020832062 -0.07871370762586594 0.1286028027534485 -0.975798487663269 -0.28041738271713257 0.29898542165756226 -0.2903875410556793 -0.1420179307460785 -0.25187456607818604 0.03548683971166611 -0.2585534453392029 0.2559736967086792 0.015780583024024963 -0.41067278385162354 0.24887719750404358 0.429262638092041 -0.12210320681333542 0.15461941063404083 0.014056967571377754 -0.041841860860586166 -0.6232092380523682 -0.024220015853643417 -0.31953465938568115 0.6546555757522583 0.11568839848041534 -0.21475479006767273 -0.674596905708313 0.01775207556784153 -0.1598726212978363 -0.116379514336586 -0.01988428458571434 0.23785731196403503 0.0554974190890789 0.4449593424797058 0.28633958101272583 0.14712323248386383 -0.10487812757492065 -0.01858973130583763 -0.15760193765163422 -0.0657706931233406 -0.21923494338989258 -0.5217425227165222 -0.2927618622779846 -0.3427264094352722 -0.37999099493026733 -0.1767807900905609 -0.3743540048599243 -0.17597733438014984 0.30536291003227234 -0.05006389319896698 0.013132033869624138 -0.072856605052948 0.03844412416219711 -0.17313635349273682 0.3072226345539093 0.351622998714447 -0.11010720580816269 -0.21320080757141113 -0.3088495135307312 -0.03440902382135391 0.24707137048244476 0.3360423445701599 0.11939476430416107 0.15768995881080627 0.1175396665930748 0.02679578773677349 -0.4514719843864441 -0.7036137580871582 0.005444638431072235 -0.31759196519851685 0.3112305998802185 0.18885770440101624 0.2935769557952881 0.47938162088394165 -0.1612701714038849 -0.2831493020057678 0.07233117520809174 -0.10815437883138657 0.28422805666923523 0.1441652476787567 0.18014878034591675 -0.30774086713790894 -0.3630901277065277 0.17543117702007294 -0.18197286128997803 0.12676429748535156 0.8445925712585449 0.017574213445186615 0.3122180998325348 0.10484319925308228 -0.5845414400100708 0.1812724769115448 0.175775945186615 -0.1823887676000595 0.4816376566886902 0.49596959352493286 -0.033406682312488556 -0.5436530113220215 -0.10663540661334991 0.7563585042953491 0.1901169717311859 -0.19059282541275024 -0.04904071241617203 0.5359343886375427 -0.09684161841869354 0.24444632232189178 0.1901911497116089 -0.2641950249671936 -0.14049476385116577 -0.1810927391052246 -0.5541735291481018 -0.34391874074935913 -0.33281391859054565 -0.26543375849723816 0.255126029253006 0.35475954413414 -0.30334389209747314 -0.27337318658828735 -0.33388906717300415 -0.12154613435268402 0.009702677838504314 0.2286055088043213 0.1306036412715912 -0.03028964065015316 0.6064528226852417 0.1757025569677353 -0.0611828975379467 -0.059312473982572556 -1.413020133972168 -0.3488720655441284 -0.3581866919994354 0.1588664948940277 -0.1297501027584076 -0.19972346723079681 -0.16429845988750458 0.3966815173625946 -0.05838121473789215 0.41004395484924316 -0.11483930051326752 -0.34678396582603455 0.10186445713043213 0.4761417806148529 -0.28277134895324707 -0.014979111962020397 -0.7596139311790466 0.20519539713859558 0.3501852750778198
node_14	-0.21763376891613007 0.19456395506858826 0.13738197088241577 0.2051713913679123 0.6484628319740295 -0.6449506282806396 0.15106724202632904 0.15035372972488403 -0.19846861064434052 -0.3467705249786377 0.4765278697013855 0.6685590147972107 0.2673395276069641 -0.1300300806760788 0.14022983610630035 -0.5034012794494629 0.7867945432662964 0.2936953902244568 -0.07200635969638824 -0.33957362174987793 -0.11455061286687851 0.3764195442199707 0.10273187607526779 0.2414427101612091 -0.3251349925994873 0.1396632343530655 0.429610013961792 -0.25309133529663086 -0.1150253415107727 0.38572320342063904 -0.08788809180259705 0.42125457525253296 0.07482486963272095 0.10549786686897278 -0.18587307631969452 -0.09700953960418701 -0.3959061801433563 0.21895013749599457 -0.016847465187311172 0.12596966326236725 -0.6404938101768494 0.26112788915634155 0.19608478248119354 -0.12305308878421783 0.14576208591461182 0.12299256026744843 0.17741307616233826 0.17432057857513428 0.15471011400222778 -0.19626063108444214 0.2497350424528122 -0.3913285732269287 -0.4234914183616638 0.18638436496257782 -0.1749519556760788 0.07217689603567123 -0.18397533893585205 -0.385467529296875 0.26576346158981323 0.00013117492198944092 0.2177567481994629 0.6278884410858154 0.24752375483512878 -0.031558696180582047 -0.18230697512626648 0.17651385068893433 -0.10558056086301804 -0.6148432493209839 0.11606275290250778 -0.0011611804366111755 0.10334160178899765 -0.026297403499484062 0.004763094242662191 -0.3954056203365326 -0.04385426640510559 -0.15185004472732544 0.5774025917053223 -1.9454630613327026 -0.2561192214488983 0.6257519721984863 0.09227811545133591 -0.21473363041877747 1.0540823936462402 -0.05640578269958496 0.19337961077690125 -0.5688380599021912 0.28921887278556824 -0.5130802392959595 0.2648351788520813 0.3005772531032562 0.5394506454467773 -0.02171497605741024 -0.17388850450515747 -0.07391921430826187 -0.17411094903945923 0.225314199924469 -0.16117432713508606 -0.5385264754295349 -0.1605081558227539 0.025085490196943283 -0.22847622632980347 -0.1482384204864502 0.1076427549123764 -0.11563622206449509 0.29760095477104187 -0.17689034342765808 -0.217117041349411 -0.4411002993583679 0.049816764891147614 0.5574601888656616 0.019569609314203262 0.05060864984989166 -0.2979089617729187 -0.08367296308279037 -0.20018160343170166 0.18393371999263763 0.11377771943807602 0.09147097915410995 0.07516369223594666 0.39280077815055847 0.30942270159721375 -0.1172214150428772 -0.4173215329647064 0.04111415892839432 0.11453855037689209 0.48746174573898315 0.575360119342804 -0.09682810306549072 -0.10111445188522339 -0.2428123652935028 -0.05964625999331474 -1.4384088516235352 -0.11418698728084564 -0.33561891317367554 0.05123104155063629 0.1056220531463623 -0.16971814632415771 -0.08271621912717819 0.16285596787929535 0.16949814558029175 -0.07057338207960129 0.2075406312942505 0.1333993822336197 0.1913791000843048 0.7242255210876465 -0.3197493553161621 -0.0006536375731229782 -0.1737954318523407 -0.34032368659973145 0.18869392573833466 -0.2233254760503769 0.5554862022399902 0.07153317332267761 0.17009499669075012 -0.42153865098953247 0.4125116467475891 0.19406259059906006 -0.37914788722991943 -0.43330058455467224 0.7619121074676514 -0.10711215436458588 -0.10340847820043564 0.4852558374404907 0.19380715489387512 0.09563484787940979 -0.18166646361351013 -0.3192949891090393 -0.11626233905553818 0.08722177147865295 0.6361188888549805 -0.19217509031295776 0.20261025428771973 -0.07265105098485947 -0.004269495606422424 -0.12168912589550018 0.01749027706682682 -0.08145727962255478 -0.11007829010486603 0.3778800964355469 0.025235101580619812 0.2906731367111206 0.06361538916826248 0.2643872797489166 -0.14164476096630096 0.019091589376330376 0.4302787780761719 0.40883320569992065 0.1672379970550537 -0.16762040555477142 -0.0038912370800971985 -0.5290489196777344 -0.021503295749425888 0.25594890117645264 -0.33656591176986694 0.013147406280040741 0.1563238799571991 0.10428927838802338 -0.08695881068706512 0.5516324043273926 -0.08188994228839874 -0.18638893961906433 -0.28126320242881775 0.4287472367286682 -0.19921648502349854 -0.028278466314077377 0.06779467314481735 0.1967214047908783 -0.21324840188026428 -0.45949864387512207 0.19219934940338135 -0.20787662267684937 0.731763482093811 -0.1595400720834732 -0.3501743972301483 0.6255572438240051 0.11604266613721848 -0.4845331907272339 -0.1591782569885254 -0.37373560667037964 -1.4980440139770508 0.34324145317077637 0.2834290862083435 -0.07191145420074463 -0.6601804494857788 0.24309641122817993 0.5177314281463623 0.085352823138237 0.053303979337215424 0.462024062871933 0.06923156976699829 0.16866129636764526 0.06063833832740784 -0.5652836561203003 0.07136839628219604 0.06923837959766388 -0.42152899503707886 -0.10540318489074707 0.28143730759620667 0.08336497843265533 0.24645528197288513 -0.18890444934368134 0.15068739652633667 -0.177327960729599 0.1711677610874176 0.00686740642413497 -0.19293132424354553 0.0028437923174351454 -0.14842486381530762 -0.31661126017570496 -0.06674863398075104 -0.040672075003385544 -0.2764892578125 0.06170901283621788 0.1288863718509674 0.5314550995826721 -0.08579015731811523 0.1252399981021881 -0.0010616574436426163 0.21464845538139343 -0.3931822180747986 0.03951231762766838 -0.12564682960510254 0.10560371726751328 -0.09358015656471252 -0.2621648609638214 -0.32896608114242554 0.16670379042625427 -0.00045637041330337524 -0.08751492202281952 0.14000049233436584 0.12144750356674194 -0.03240536153316498 0.29824528098106384 0.25079771876335144 -0.039556581526994705 0.17318736016750336 -0.060217004269361496 0.19248811900615692 -0.04728257656097412 -0.38997364044189453 0.035050444304943085 -0.08764570206403732 -0.28551730513572693 -0.6834222078323364 -0.15197990834712982 -0.16314242780208588 -0.06907476484775543 -0.01594497822225094 0.17549335956573486 0.019806519150733948 0.07541918754577637 0.1301465481519699 -0.29302942752838135 0.5992381572723389 -0.30056148767471313 0.15836840867996216 0.25521260499954224 0.7840466499328613 0.22929033637046814 0.1685127466917038 -0.14013323187828064 0.28716450929641724 -0.3225904703140259 0.015971340239048004 0.09867183864116669 -0.34585508704185486 0.030668821185827255 -0.1159883439540863 0.015745270997285843 0.14625000953674316 0.017267655581235886 0.144378662109375 0.17476677894592285 -0.08431361615657806 -0.036715321242809296 -0.17416006326675415 0.3378579318523407 -0.16479533910751343 0.33261537551879883 0.07823377102613449 -0.1079804003238678 0.005469094030559063 -0.36673039197921753 0.09335210174322128 -0.6164430379867554 0.19383251667022705 -0.1277066469192505 -0.3083019256591797 0.3902631998062134 0.4005393385887146 0.9046818614006042 0.6181927919387817 -0.18145033717155457 0.6510803699493408 0.03426915779709816 0.1223112940788269 -0.19400744140148163 -0.1938113570213318 -0.24166254699230194 0.16337445378303528 0.0522015243768692 -0.46617138385772705 0.26326584815979004 -0.08281039446592331 0.3545644283294678 -0.09770622849464417 0.5567972660064697 -0.18298763036727905 0.35645541548728943 -0.4570925831794739 -0.13582219183444977 -0.1944487988948822 -0.016782766208052635 -0.4708218574523926 0.1849886178970337 0.06401290744543076 -0.11952978372573853 -0.18203513324260712 -0.09362360090017319 -0.2631414830684662 -0.5702584981918335 0.5398675203323364 -0.026090702041983604 -0.2970552444458008 -0.25564509630203247 -0.29922187328338623 -0.7666903734207153 -0.1740451455116272 -0.12200292944908142 0.07746469229459763 0.03708541393280029 0.10375209152698517 0.48944181203842163 -0.2982901930809021 0.2703355550765991 0.01221398077905178 0.49388402700424194 0.24173639714717865 0.24608604609966278 -0.2701146900653839 -0.31351909041404724 0.5046072006225586 0.10619550943374634 0.29549646377563477 0.0694153755903244 -0.7021559476852417 0.09534915536642075 0.5627651810646057 0.28742191195487976 0.3118572533130646 0.15316835045814514 0.015673551708459854 0.16925853490829468 0.36955690383911133 -0.13118547201156616 0.0651363879442215 0.32695919275283813 1.0906953811645508 -0.024316413328051567 0.17388924956321716 0.1679168939590454 0.05913172662258148 0.008748347871005535 0.1621679961681366 0.4055175185203552 0.11591599881649017 0.0895589217543602 0.2321665734052658 -0.18120214343070984 -0.7466833591461182 -0.3288610577583313 -0.23354332149028778 -0.3035280704498291 -0.22238150238990784 -0.2728598117828369 -0.16293120384216309 0.2437288463115692 -0.3210209012031555 -0.6505639553070068 -0.0033931757789105177 0.2825542986392975 -0.06056658923625946 0.42714589834213257 0.11044199764728546 -0.44540151953697205 0.12118197977542877 -0.11078526079654694 -0.18929412961006165 -0.4348985552787781 -0.06822480261325836 0.06142222508788109 -0.07651613652706146 0.24681344628334045 0.08252818882465363 0.24262380599975586 -0.29253479838371277 0.18049882352352142 -0.26170772314071655 -0.1776137351989746 0.3575044572353363 -0.10231374949216843 -0.32405245304107666 -0.3397834300994873 0.49439606070518494 -0.020566169172525406 0.14966456592082977 -0.09402533620595932 -0.19757871329784393 -0.29985660314559937 -0.19351474940776825 -0.4466913342475891 0.3822876811027527 -0.4053191542625427 -2.455855369567871 0.31836846470832825 0.2657167911529541 0.35387885570526123 0.1698853075504303 0.028801001608371735 0.4633380174636841 -0.0690106600522995 0.10254614055156708 0.31068548560142517 0.26385462284088135 0.014963967725634575 0.20303277671337128 -0.04622095823287964 0.04844396933913231 -0.12913058698177338 -0.0026297173462808132 0.2598762512207031 0.32480210065841675 0.10988327115774155 0.16608601808547974 0.07368814945220947 0.0726156234741211 -0.16978329420089722 -0.14909932017326355 0.06521870940923691 -0.1908736526966095 0.0473749153316021 0.14510683715343475 -0.0012823930010199547 -0.26224440336227417 -0.032995015382766724 0.12488668411970139 -0.28248462080955505 0.18481121957302094 0.2802024185657501 -0.15506474673748016 -0.3124255836009979 0.08441492170095444 -0.06316152215003967 0.6017400026321411 0.07366596162319183 0.2645609676837921 -1.2675517797470093 0.2684873640537262 -0.12163036316633224 -0.19919297099113464 0.005664019845426083 0.047965653240680695 0.3614835739135742 0.08417712152004242 0.18868200480937958 -0.18949779868125916 -0.22536170482635498 0.04072082042694092 -0.042794741690158844 -0.08906523883342743 0.18519195914268494 0.2094016671180725 0.05989069864153862 0.07939337939023972 0.07525160163640976 -0.039291124790906906 0.15900975465774536 0.21009986102581024 -0.09892379492521286 -0.3169940710067749 -0.19498483836650848 0.17443744838237762 -0.22924278676509857 0.1511203646659851 0.2007705420255661 -0.05087503790855408 0.2986021041870117 0.00934899877756834 0.03295072168111801 -0.24135790765285492 0.20265164971351624 -0.17828254401683807 0.2001793384552002 -0.018803060054779053 0.5879093408584595 0.07311995327472687 -0.005179703235626221 -0.1149698793888092 0.20139062404632568 -0.29382455348968506 -0.2598639726638794 0.23940935730934143 0.02161668799817562 -0.07746195793151855 0.5078597068786621 -0.08311035484075546 0.03142804652452469 0.18657422065734863 0.38379228115081787 0.34533143043518066 -0.20332255959510803 1.8233565092086792 0.10265833139419556 -0.09189359843730927 -0.06282637268304825 0.3140506446361542 0.15757030248641968 0.05552715063095093 -0.1303919106721878 0.08421628922224045 -0.043596453964710236 -0.4156196713447571 0.005676937755197287 0.1581210494041443 -0.43745559453964233 0.46298325061798096 0.5330789089202881 -0.1298019289970398 0.20922285318374634 0.11156478524208069 -0.520133912563324 0.505337119102478 -0.21340593695640564 0.4584900140762329 -0.4009746015071869 -0.014115773141384125 -0.018778348341584206 0.22832176089286804 0.42397505044937134 0.10254066437482834 0.4982733726501465 0.2989511489868164 0.0628306195139885 -0.3207014203071594 0.07316391170024872 -0.550887942314148 0.4900350570678711 -0.19033943116664886 10.285041809082031 0.013439705595374107 0.1812724471092224 -0.19120481610298157 0.3026328980922699 -0.1808149814605713 0.05731729418039322 0.1724289357662201 -0.2335365265607834 -0.026281386613845825 -0.07549550384283066 -0.1638137400150299 0.24957101047039032 -0.3476111590862274 -0.07099732756614685 0.03872540593147278 0.4742274284362793 0.2520716190338135 -0.11003485321998596 -0.11225645989179611 -0.11039304733276367 -0.26263198256492615 0.10087468475103378 0.30410048365592957 -0.21725699305534363 0.012940024957060814 -0.46922287344932556 0.6554436087608337 -0.0223649051040411 0.18814703822135925 0.11964355409145355 0.16790960729122162 0.17668776214122772 -0.01559196226298809 -0.09645453095436096 -0.010734973475337029 -1.1548351049423218 -0.25498077273368835 0.27438050508499146 -0.19028621912002563 -0.13693955540657043 -0.20144233107566833 0.001876569353044033 -0.2362384796142578 0.2853766977787018 0.14283278584480286 -0.6315993070602417 0.2645522952079773 0.4285751283168793 -0.14162342250347137 0.1347055286169052 0.13252991437911987 -0.04690152406692505 -0.34156501293182373 0.12579458951950073 -0.35067421197891235 0.7564839124679565 0.11740599572658539 -0.22487366199493408 -0.39128178358078003 0.02675824984908104 -0.12436044216156006 -0.1309579610824585 0.14710775017738342 0.2515230178833008 0.21266624331474304 0.4807779788970947 0.24275432527065277 0.17768558859825134 0.0743466466665268 -0.012956416234374046 -0.12013285607099533 -0.017738856375217438 -0.012715345248579979 -0.47713392972946167 -0.3111128509044647 -0.4079762101173401 -0.31162190437316895 -0.19889292120933533 -0.2958431839942932 -0.17841440439224243 0.31503957509994507 -0.02490408532321453 -0.13534772396087646 -0.6525877118110657 0.09259514510631561 -0.10217113792896271 0.33759862184524536 0.3217220604419708 -0.18397164344787598 -0.11329621076583862 -0.26241376996040344 -0.034155186265707016 0.08897208422422409 0.21148638427257538 0.17302148044109344 0.06372150778770447 0.1533576250076294 -0.03566689416766167 -0.31975412368774414 -0.6713522672653198 0.01998048648238182 -0.3701629638671875 0.22306081652641296 0.16381129622459412 0.29446491599082947 0.5314035415649414 -0.2815580368041992 -0.29460078477859497 0.09401656687259674 -0.08809828758239746 0.13472196459770203 0.23907814919948578 -0.00041379532194696367 -0.31588488817214966 -0.2997988164424896 0.03817184269428253 -0.09823345392942429 0.1483323723077774 0.7949588298797607 -0.007797792553901672 0.32106471061706543 0.017756223678588867 -0.5814541578292847 0.10659903287887573 0.02629968896508217 -0.1150890588760376 0.4504023492336273 0.5245458483695984 0.010428950190544128 -0.4464680552482605 -0.14336591958999634 0.37905019521713257 0.23169180750846863 -0.14119063317775726 -0.015977490693330765 0.31736642122268677 -0.10351674258708954 0.20333299040794373 0.02032683789730072 -0.12768784165382385 -0.11590033769607544 -0.2798008322715759 -0.39308327436447144 -0.3733689785003662 0.06295915693044662 -0.2844008207321167 -0.2584686279296875 0.45385390520095825 -0.13162320852279663 -0.3223719596862793 -0.36661824584007263 -0.16114585101604462 -0.08091428875923157 0.3845101594924927 0.12499253451824188 0.09068333357572556 0.4771643579006195 0.23973289132118225 -0.05677445977926254 -0.23366954922676086 -0.7523270845413208 -0.5254533886909485 -0.640286922454834 0.30919578671455383 -0.06211952865123749 -0.08734922856092453 -0.20340842008590698 0.4965866804122925 -0.03852298483252525 0.21315959095954895 0.005903586745262146 -0.3065485954284668 -0.0070999315939843655 0.5934568047523499 -0.31017014384269714 0.34502142667770386 -0.779658317565918 0.14161384105682373 0.29051515460014343
node_43	-0.12802354991436005 0.20437932014465332 0.1258215606212616 0.0031706891022622585 0.7436606287956238 -0.5042135715484619 0.18004314601421356 0.2407984584569931 -0.2078332155942917 -0.19505727291107178 0.35154303908348083 0.5018959045410156 0.36171478033065796 0.26157626509666443 0.02060861513018608 -0.5308083295822144 0.964195728302002 0.22852513194084167 -0.1181335300207138 0.006232927553355694 -0.13537518680095673 0.3518049120903015 0.15484188497066498 0.10074816644191742 -0.1358400583267212 0.18130134046077728 0.40179771184921265 -0.26301541924476624 -0.0493241548538208 0.20973080396652222 -0.14355477690696716 0.3579114079475403 0.10397300124168396 0.11670322716236115 -0.07493110746145248 -0.11266404390335083 -0.3434458374977112 0.09990043938159943 0.0810873880982399 0.21331283450126648 -0.5670270919799805 -0.04408003389835358 0.22583596408367157 -0.08249014616012573 0.13537178933620453 0.14007985591888428 0.23969948291778564 -0.16377881169319153 0.10424673557281494 -0.05794800445437431 0.09818899631500244 -0.37001609802246094 -0.29098349809646606 0.25706392526626587 -0.09226250648498535 0.22268478572368622 -0.16262751817703247 -0.22833244502544403 0.1756102293729782 0.11355994641780853 0.022742711007595062 0.9077498912811279 0.2481817901134491 0.11159119009971619 -0.11344226449728012 0.13768766820430756 -0.11690466105937958 -0.3148174583911896 0.023463165387511253 0.07238679379224777 0.28226596117019653 0.009090570732951164 -6.264510739129037e-05 -0.5412611961364746 0.03978761285543442 -0.06583930552005768 0.565887451171875 -2.187577247619629 -0.20177918672561646 0.7669829726219177 0.1748933047056198 -0.2882898449897766 0.8594455718994141 -0.16780440509319305 0.26660794019699097 -0.48583921790122986 0.3481407165527344 -0.44332069158554077 0.2172074317932129 0.17882868647575378 0.5811417102813721 0.03561708331108093 -0.23939113318920135 -0.07989112287759781 -0.17349986732006073 0.006152232643216848 -0.06451848894357681 -0.47777387499809265 -0.09113346040248871 0.018507879227399826 -0.07730692625045776 -0.08191118389368057 0.10667148232460022 -0.10950728505849838 0.21897131204605103 -0.3101753890514374 -0.18308988213539124 -0.33137473464012146 0.18930058181285858 0.514553964138031 0.11051461100578308 0.16327278316020966 -0.1302117556333542 -0.07745762169361115 -0.10808476060628891 0.18578778207302094 0.02418769896030426 -0.07524487376213074 0.0879286453127861 0.4554901123046875 0.24786093831062317 -0.1738482117652893 -0.029240325093269348 0.023693159222602844 -0.0654454380273819 0.5696790218353271 0.4657312333583832 -0.16249053180217743 -0.19454148411750793 -0.11767100542783737 -0.08565141260623932 -1.3087307214736938 -0.14903447031974792 -0.05402926355600357 0.05005083233118057 0.11828403174877167 -0.18230989575386047 -0.10019239038228989 0.07561062276363373 0.19634626805782318 -0.14953604340553284 0.16283243894577026 0.0845230221748352 0.1550653874874115 0.6377708911895752 -0.2893613576889038 -0.0790812224149704 -0.21854834258556366 -0.2890392541885376 0.11845885217189789 -0.17766880989074707 0.45973604917526245 0.09082525968551636 0.21647319197654724 -0.4564673900604248 0.5317260026931763 0.1694970577955246 -0.48441505432128906 -0.4478268623352051 0.5858172178268433 -0.044430509209632874 -0.02508140169084072 0.5763446092605591 0.1332366168498993 0.18813911080360413 -0.07326386123895645 -0.17411689460277557 -0.012170910835266113 0.12322652339935303 0.7296096682548523 -0.20381268858909607 0.020483192056417465 -0.06780914962291718 0.0706055611371994 -0.01601463556289673 0.2381431758403778 -0.17630909383296967 -0.04470161348581314 0.2873231768608093 0.010000566951930523 0.37356871366500854 0.11425119638442993 0.27758699655532837 -0.2507581412792206 0.01185829471796751 0.16531741619110107 0.35159358382225037 -0.06251861155033112 0.06197437271475792 -0.07802372425794601 -0.5702787637710571 -0.06174391508102417 0.3023626208305359 -0.42458853125572205 -0.018042586743831635 0.32263076305389404 0.030329793691635132 -0.2070527970790863 0.3953600525856018 -0.10825470089912415 -0.18605226278305054 -0.4842258095741272 0.48701950907707214 -0.10203056037425995 0.051394399255514145 0.06503085047006607 0.017583360895514488 -0.18156352639198303 -0.48351186513900757 0.11077233403921127 -0.2015991061925888 0.5601734519004822 -0.19383792579174042 -0.27772992849349976 0.236342653632164 0.37073835730552673 -0.6059417128562927 0.2598988711833954 -0.4574880301952362 -1.3823556900024414 0.312204509973526 0.14198990166187286 -0.1571534425020218 -0.7361464500427246 0.19950544834136963 0.46176475286483765 0.03322908282279968 0.03551974147558212 0.342663049697876 0.1851201355457306 0.19699496030807495 0.2559497356414795 -0.7211459875106812 0.01811343990266323 0.2431846261024475 -0.12028016895055771 -0.1568770408630371 0.26396453380584717 0.10849307477474213 0.21029791235923767 0.28662043809890747 0.12595930695533752 -0.1425677239894867 0.07934966683387756 -0.03655578941106796 -0.3686356246471405 -0.09105372428894043 -0.12337180227041245 -0.26150256395339966 -0.1829129457473755 -0.06084498018026352 -0.05465875193476677 0.08053096383810043 0.0449167937040329 0.5846565961837769 0.01909100078046322 0.18226215243339539 -0.01345403864979744 0.28790515661239624 -0.4571537375450134 -0.004790452774614096 -0.23501567542552948 0.16705676913261414 -0.12490761280059814 -0.32910865545272827 -0.25897344946861267 0.1483900547027588 -0.0635555237531662 -0.22228053212165833 0.15438911318778992 0.11093990504741669 -0.042345624417066574 0.3612390458583832 0.22612705826759338 0.02590211294591427 0.16051892936229706 -0.050112031400203705 0.17631042003631592 -0.15292471647262573 -0.3495088517665863 0.14887377619743347 -0.21455314755439758 -0.27664846181869507 -0.5536537170410156 -0.06571238487958908 -0.07936661690473557 -0.07171378284692764 -0.2745380699634552 0.12414692342281342 -0.023500075563788414 0.0031545560341328382 0.04739673063158989 -0.2920844256877899 0.39659184217453003 -0.24152764678001404 0.2570897340774536 0.17781047523021698 0.6935054063796997 0.05503624677658081 0.10303659737110138 -0.2522267699241638 0.1841500997543335 -0.17723950743675232 0.021229341626167297 0.03735068440437317 -0.3557359576225281 0.1498449742794037 -0.17429277300834656 0.12504848837852478 0.2834279537200928 -0.07180352509021759 0.22581546008586884 0.16889624297618866 0.015563977882266045 0.12464363873004913 -0.19406269490718842 0.26425063610076904 -0.19005708396434784 0.30349886417388916 -0.006798577960580587 -0.09546183049678802 -0.08287402242422104 -0.3603200316429138 0.06343822181224823 -0.4957508444786072 0.21313929557800293 -0.07648187130689621 -0.17722460627555847 0.35527047514915466 0.39214152097702026 0.832990825176239 0.4915405511856079 -0.023608174175024033 0.45646485686302185 -0.008948100730776787 0.11914628744125366 -0.1501142382621765 -0.26139044761657715 -0.1995447725057602 -0.07055755704641342 -0.014741095714271069 -0.528115451335907 0.1942604035139084 -0.035984963178634644 0.23875479400157928 -0.0950368195772171 0.5401853322982788 -0.2423238456249237 0.352023184299469 -0.31766292452812195 -0.08930700272321701 -0.15217804908752441 0.044169288128614426 -0.5224103331565857 0.15821713209152222 0.2576870620250702 -0.16844764351844788 -0.2008102834224701 -0.0841526985168457 0.16055753827095032 -0.37976908683776855 0.5436310172080994 0.042713411152362823 -0.4082857072353363 -0.3198201060295105 -0.2511915862560272 -1.093247652053833 -0.01773957349359989 -0.08846789598464966 0.01295824721455574 0.04411495849490166 0.07439325749874115 0.5210464000701904 -0.37096959352493286 0.25654399394989014 0.058706387877464294 0.30630993843078613 0.2860240340232849 0.06594881415367126 -0.28438273072242737 -0.17420125007629395 0.5042516589164734 0.0913524255156517 0.27160096168518066 0.03444924205541611 -0.40328216552734375 0.028152670711278915 0.619930624961853 0.22438189387321472 0.1881226897239685 0.14737676084041595 0.01287018321454525 0.1429559588432312 0.4644227623939514 -0.255651593208313 0.03926366567611694 0.26423031091690063 0.5194094777107239 -0.10215358436107635 0.1957414150238037 0.20204250514507294 -0.04577810689806938 0.05932416766881943 -0.19283078610897064 0.3895821273326874 0.06148554012179375 0.14679507911205292 0.13316449522972107 -0.3785594403743744 -0.9572124481201172 -0.258014053106308 -0.14888525009155273 -0.32383912801742554 -0.2611153721809387 -0.11060734838247299 -0.19331392645835876 0.42015570402145386 -0.41630789637565613 -0.5693063139915466 -0.07054403424263 0.31000202894210815 -0.015925168991088867 0.3688625693321228 0.10449110716581345 -0.3427763879299164 0.08842431753873825 0.01933278888463974 -0.3104054629802704 -0.14429296553134918 -0.0709136575460434 0.022881850600242615 -0.06245666742324829 0.3847924470901489 0.0807374119758606 0.3735789656639099 -0.18656858801841736 0.18627971410751343 -0.19089579582214355 -0.13126730918884277 0.40615248680114746 -0.0012104213237762451 -0.27649152278900146 -0.35235780477523804 0.5411946773529053 -0.005476169288158417 0.2240980863571167 -0.04854869097471237 -0.10035934299230576 -0.31221267580986023 -0.10321925580501556 -0.47341388463974 0.3766830861568451 -0.5109771490097046 -2.888833999633789 0.3557421863079071 0.25346940755844116 0.16948562860488892 0.16800062358379364 0.031251318752765656 0.4664768576622009 0.003408297896385193 0.05445912107825279 0.3587779998779297 0.11665624380111694 0.0473555289208889 0.16384494304656982 0.07658156007528305 0.0642913281917572 -0.41253218054771423 0.09162990748882294 0.22346004843711853 0.3289160132408142 0.05872199684381485 0.15710905194282532 0.0954204648733139 0.0510832816362381 -0.11424487829208374 -0.18568745255470276 0.07379335165023804 -0.10590394586324692 0.015151375904679298 0.09821748733520508 -0.03398291766643524 -0.24695605039596558 0.0012129973620176315 0.09419985115528107 -0.1839231252670288 0.170854851603508 0.19618050754070282 -0.10403284430503845 -0.34889790415763855 0.05664856731891632 -0.25391465425491333 0.6768192648887634 0.0792808085680008 0.3039781451225281 -1.4884157180786133 -0.04052852839231491 -0.35028767585754395 -0.14418509602546692 0.056853096932172775 0.05120965093374252 0.30986806750297546 0.2144274115562439 0.1850893199443817 -0.14416614174842834 -0.242848202586174 0.06820489466190338 -0.1326466053724289 -0.11752693355083466 0.21475881338119507 0.31309574842453003 0.02255484089255333 0.05978988856077194 0.2007351815700531 -0.14540010690689087 0.0708957239985466 0.23122087121009827 -0.07222076505422592 -0.4757833480834961 -0.29075491428375244 0.2407202422618866 -0.20228540897369385 0.1592547744512558 0.010996164754033089 -0.02630116045475006 0.3687480092048645 -0.0010707676410675049 -0.014891466125845909 -0.04664170742034912 0.14165376126766205 -0.2083100527524948 0.16926783323287964 -0.007274637930095196 0.4555651545524597 -0.060066189616918564 -0.009238772094249725 -0.1608027219772339 0.23090189695358276 -0.3136212229728699 -0.41274720430374146 0.42224031686782837 -0.029521826654672623 -0.19237813353538513 0.4501238763332367 0.0021151690743863583 -0.008727580308914185 0.16157376766204834 0.2943192720413208 0.4360598921775818 -0.3117392659187317 2.544055461883545 0.1926194727420807 -0.12785574793815613 0.019357917830348015 0.29250025749206543 0.12835444509983063 0.09638068079948425 -0.14367030560970306 0.12220808118581772 0.06718062609434128 -0.07881756871938705 0.0152220968157053 0.11096058785915375 -0.4509808421134949 0.46876025199890137 0.5630508661270142 -0.07879162579774857 0.22407488524913788 0.09289795160293579 -0.7328017950057983 0.48387545347213745 -0.2268606424331665 0.05839496850967407 -0.3826156556606293 -0.10090591758489609 -0.07304145395755768 0.37766537070274353 0.2931712567806244 0.21397575736045837 0.6440216302871704 0.23395679891109467 0.025617003440856934 -0.38623547554016113 0.08896316587924957 -0.444075345993042 0.40655064582824707 -0.07520051300525665 9.72462272644043 -0.023321181535720825 0.08016210794448853 -0.14673006534576416 0.22479240596294403 -0.09869389235973358 0.06186644360423088 0.24947719275951385 -0.25426602363586426 -0.014920219779014587 -0.053427454084157944 -0.11370757222175598 0.255781352519989 -0.17981767654418945 -0.06826382130384445 0.15237492322921753 0.5770696997642517 0.2816570997238159 0.06177335977554321 -0.1415156126022339 -0.11915083974599838 -0.1387225240468979 0.1879396140575409 0.4181433916091919 -0.2030918002128601 0.07566703855991364 -0.33925938606262207 0.6098932027816772 -0.05603576451539993 0.2061183899641037 0.15619689226150513 0.08210976421833038 0.23815655708312988 0.03810955584049225 -0.031946852803230286 -0.06995578110218048 -0.6993076801300049 -0.1853957623243332 0.3382734954357147 -0.2655269503593445 -0.2263740748167038 -0.2007933259010315 0.006755252368748188 -0.19290494918823242 0.14655081927776337 -0.049937278032302856 -0.30117183923721313 0.19285932183265686 0.2603595554828644 -0.029380235821008682 0.09984143823385239 -0.0026284605264663696 -0.0336163267493248 -0.4649399518966675 0.09158194065093994 -0.3071625828742981 0.5909394025802612 0.07632672041654587 -0.15896959602832794 -0.6288313269615173 0.008846661075949669 -0.09097873419523239 -0.20541533827781677 0.12311946600675583 0.5455983281135559 0.021908795461058617 0.4899587631225586 0.314433753490448 0.31086838245391846 0.0048050424084067345 -0.08989818394184113 -0.030216071754693985 0.017128754407167435 -0.13467086851596832 -0.3461882472038269 -0.3559127449989319 0.28470438718795776 -0.3928285539150238 -0.1446254551410675 -0.33868420124053955 -0.09848766028881073 0.3865175247192383 -0.012551198713481426 -0.10334683954715729 -0.43103456497192383 0.06052427738904953 -0.06497089564800262 0.28419798612594604 0.1303730607032776 -0.19827930629253387 -0.01489121001213789 -0.3390296697616577 -0.03850311040878296 0.21259824931621552 0.39564287662506104 0.06446992605924606 -0.036201030015945435 0.12760978937149048 0.03498926758766174 -0.3860907554626465 -0.6943193674087524 0.10799901187419891 -0.28255122900009155 0.22949270904064178 0.23379015922546387 0.3718792200088501 0.5649778842926025 -0.18705105781555176 -0.3211844861507416 0.03733226656913757 -0.1304515302181244 0.2351991832256317 0.1901983916759491 0.1759452521800995 -0.2874440550804138 -0.28278639912605286 0.019162055104970932 -0.09541159868240356 0.13468031585216522 0.7103261947631836 0.0376904234290123 0.24058234691619873 0.1012401133775711 -0.5601672530174255 0.11994673311710358 0.13781023025512695 -0.1287681758403778 0.43327951431274414 0.4603140354156494 0.09353044629096985 -0.6030668616294861 -0.1341211497783661 0.15992474555969238 0.2632864713668823 -0.13363654911518097 -0.027176139876246452 0.36256012320518494 -0.10513582080602646 0.07913341373205185 0.10051533579826355 -0.0783364400267601 -0.07824265956878662 -0.18692836165428162 -0.5556830167770386 -0.3357541263103485 -0.2419593632221222 -0.2576413154602051 0.09681805223226547 0.4319954514503479 -0.2603968679904938 -0.18889635801315308 -0.25827646255493164 -0.18006092309951782 -0.03692559152841568 0.12364619970321655 0.12207480520009995 0.08253242820501328 0.4535994529724121 0.1868620365858078 -0.023449627682566643 0.19485226273536682 -0.75136798620224 -0.6002187132835388 -0.7083183526992798 0.011684315279126167 -0.07677620649337769 -0.11700688302516937 -0.20450656116008759 0.4807005822658539 0.021325377747416496 0.28048640489578247 -0.14279143512248993 -0.3655022978782654 0.039454519748687744 0.5367730855941772 -0.26969096064567566 -0.08765124529600143 -0.840731143951416 0.11935631930828094 0.29743894934654236
node_31	-0.15310952067375183 0.21138636767864227 0.11648719012737274 0.11238707602024078 0.732484757900238 -0.4798605442047119 0.0628470778465271 0.12313001602888107 -0.29664087295532227 -0.3047384023666382 0.3216193914413452 0.710808277130127 0.30132290720939636 -0.06496776640415192 0.056507717818021774 -0.24688968062400818 0.7608965635299683 0.1406642198562622 -0.05637972801923752 0.04842399060726166 -0.03781513497233391 0.31738701462745667 0.14757606387138367 0.21858346462249756 -0.2500286102294922 0.22587446868419647 0.4309832453727722 -0.19246479868888855 -0.16415676474571228 0.24945560097694397 -0.16921691596508026 0.2406667321920395 -0.009529536589980125 0.055972617119550705 -0.09654136747121811 -0.07621695846319199 -0.40622949600219727 0.10637333244085312 0.3377354145050049 0.13978460431098938 -0.6569730043411255 -0.16680577397346497 0.21648579835891724 -0.08854958415031433 0.16385672986507416 0.11670424789190292 0.3328333795070648 0.35949909687042236 0.01177641749382019 -0.034339647740125656 0.142763152718544 -0.3579366207122803 -0.4273974299430847 0.15529882907867432 -0.2194008082151413 0.21262186765670776 -0.18073642253875732 -0.2678215205669403 0.22410987317562103 0.0758633241057396 0.1351611167192459 0.4394242763519287 0.323917031288147 0.07951660454273224 -0.08811695873737335 0.1923597753047943 -0.014704014174640179 -0.4246581494808197 0.03349356725811958 0.11812659353017807 0.28478044271469116 -0.0445154532790184 -0.014707046560943127 -0.5209326148033142 0.07076644152402878 0.10951125621795654 0.4417662024497986 -1.8637326955795288 -0.21863268315792084 0.5087769031524658 0.14946088194847107 -0.32717597484588623 1.6046088933944702 0.02659965306520462 0.0610196590423584 -0.5710040330886841 0.34117263555526733 -0.39914941787719727 0.12942081689834595 0.29959654808044434 0.6240038275718689 -0.024096226319670677 -0.2622877061367035 -0.002478335052728653 -0.19391918182373047 0.09987287223339081 0.011974362656474113 -0.8551791906356812 -0.17408263683319092 -0.06651708483695984 -0.23195390403270721 -0.10757352411746979 0.08751928061246872 -0.12651722133159637 0.31768977642059326 -0.2507473826408386 -0.10131576657295227 -0.2557811737060547 0.1134171113371849 0.6203596591949463 0.08350883424282074 0.21187210083007812 -0.08175832778215408 -0.06739124655723572 -0.14448216557502747 0.13281622529029846 0.10202522575855255 -0.13308066129684448 0.0897076353430748 0.4013935327529907 0.2373448610305786 -0.15354196727275848 -0.045740943402051926 0.07694433629512787 0.184967041015625 0.393755167722702 0.5670758485794067 -0.06296280026435852 -0.2638949453830719 -0.10968436300754547 -0.08372941613197327 -1.004657506942749 -0.18222086131572723 -0.3381168246269226 0.006736740469932556 0.14475500583648682 -0.1442651003599167 -0.03972771391272545 0.10947632789611816 0.20396201312541962 -0.17051225900650024 0.19232980906963348 0.22008809447288513 0.10929092764854431 0.7985906004905701 -0.30591103434562683 0.029109720140695572 -0.22049467265605927 -0.260303258895874 0.15763917565345764 -0.2214086502790451 0.5437763333320618 0.06052246317267418 0.3433048129081726 -0.6693902015686035 0.4191567897796631 0.16988323628902435 -0.5527294278144836 -0.44788452982902527 0.5548270344734192 -0.043375592678785324 -0.10175687074661255 0.5730461478233337 0.182313472032547 0.19251170754432678 -0.11612584441900253 -0.1563374400138855 -0.03316901996731758 0.1262393295764923 0.6341066360473633 -0.3125210404396057 0.11327096819877625 -0.08876639604568481 0.15372048318386078 -0.05001114308834076 0.2446904480457306 -0.1970158815383911 -0.1971721351146698 0.33429595828056335 -0.06297250837087631 0.23518070578575134 0.1665026843547821 0.18143349885940552 -0.1503404676914215 -0.037077948451042175 0.45395421981811523 0.3859114646911621 -0.23434066772460938 0.10455752909183502 -0.07613720744848251 -0.5754191279411316 0.012233635410666466 0.25976067781448364 -0.20883701741695404 0.031585484743118286 0.31445956230163574 0.04544038698077202 -0.1499742567539215 0.30801165103912354 -0.07964029908180237 -0.188595712184906 -0.47707390785217285 0.4408811032772064 -0.15403106808662415 -0.14428852498531342 -0.021618306636810303 -0.03787197172641754 -0.2870670557022095 -0.5152757167816162 0.19839279353618622 -0.25707054138183594 0.6475867033004761 -0.19935332238674164 -0.24132494628429413 0.01996631920337677 0.26914262771606445 -0.5036329627037048 0.3891422152519226 -0.3829854428768158 -1.1413533687591553 0.3150326609611511 0.26204627752304077 -0.23221270740032196 -0.8024853467941284 0.1537076085805893 0.4797179400920868 0.0859898030757904 0.03620228171348572 0.3225625455379486 0.11145594716072083 0.187278151512146 0.2773735225200653 -0.7384920120239258 0.04327147454023361 0.1142529845237732 -0.08379378169775009 -0.0023350841365754604 0.17594918608665466 0.023507162928581238 0.29778069257736206 -0.28288763761520386 0.13969290256500244 -0.15843798220157623 0.01944613829255104 -0.06450772285461426 -0.3415752351284027 0.052155159413814545 -0.5182541608810425 -0.24812817573547363 -0.26421862840652466 -0.057316701859235764 -0.36912378668785095 0.02039836160838604 0.10852666199207306 0.38747844099998474 -0.07761336863040924 0.18536882102489471 -0.05221865698695183 0.33183908462524414 -0.437122642993927 0.01838318072259426 -0.10005433857440948 0.1624186933040619 -0.08790039271116257 -0.285387247800827 -0.13689476251602173 0.10708974301815033 -0.08039771765470505 -0.15736794471740723 0.04848393052816391 0.10381442308425903 -0.05066587030887604 0.3776613473892212 0.1843683421611786 -0.06313259899616241 0.12466821074485779 -0.11038008332252502 0.056429892778396606 -0.12419186532497406 -0.4075238108634949 0.07542812079191208 -0.1603718400001526 -0.36164039373397827 -0.692123532295227 -0.24564704298973083 -0.09652245044708252 -0.045086123049259186 -0.2719147205352783 0.09936016798019409 0.0011927392333745956 0.005605921149253845 0.06249329447746277 -0.26104962825775146 0.5740422010421753 -0.13969777524471283 0.25049251317977905 0.1573738306760788 0.47156018018722534 0.16326068341732025 0.16489410400390625 -0.20227496325969696 0.2749401330947876 -0.25495418906211853 0.07039786875247955 0.03644605726003647 -0.2769935727119446 -0.12151341140270233 -0.18316376209259033 -0.02090713195502758 0.26876387000083923 -0.12249107658863068 0.22386854887008667 0.17506453394889832 -0.17472517490386963 0.07212625443935394 -0.10456647723913193 0.30234989523887634 -0.1559123694896698 0.31385958194732666 0.0385403037071228 -0.15606504678726196 -0.16470091044902802 -0.3873794674873352 0.03961646556854248 -0.5560652017593384 0.22249792516231537 -0.1924494504928589 -0.21073149144649506 0.3512290418148041 0.48254212737083435 1.3039315938949585 0.20494484901428223 -0.12455374002456665 0.7867954969406128 0.005118201486766338 0.1213054209947586 -0.15738141536712646 -0.12861204147338867 -0.3026708960533142 0.1014944463968277 0.024291491135954857 -0.4331621527671814 0.1825537085533142 -0.036901723593473434 0.27366241812705994 0.009290806949138641 0.5898648500442505 -0.25403979420661926 0.2950631380081177 -0.3061269223690033 -0.010703309439122677 -0.3054708242416382 0.0031999514903873205 -0.5042001605033875 0.1289774775505066 0.3875492811203003 -0.225798100233078 -0.18325500190258026 -0.11194203794002533 -0.18921181559562683 -0.5547443628311157 0.7374182939529419 -0.05755743011832237 -0.45525750517845154 -0.20767568051815033 -0.24430671334266663 -0.8470024466514587 -0.11979645490646362 -0.12673220038414001 0.09063015878200531 -0.008778076618909836 0.053687684237957 0.446041464805603 -0.31256961822509766 0.24752667546272278 0.10605061054229736 0.3620757460594177 0.21085911989212036 0.04822498559951782 -0.3194423317909241 -0.18063394725322723 0.49158233404159546 0.05123598501086235 0.2964896559715271 0.16216132044792175 -0.49621105194091797 -0.055363141000270844 0.6548418998718262 0.3038996756076813 0.17030686140060425 0.10489936172962189 0.0017863214015960693 0.05796896666288376 0.5580273866653442 -0.1985459327697754 0.03318382799625397 0.19978275895118713 0.9508287906646729 -0.005996125750243664 0.14290492236614227 0.24075286090373993 0.17908751964569092 -0.08663621544837952 -0.20887136459350586 0.42425140738487244 -0.23685729503631592 0.26305410265922546 0.19678747653961182 -0.22983956336975098 -0.7317290306091309 -0.29109102487564087 -0.0633140504360199 -0.40358519554138184 -0.3411545157432556 -0.14288310706615448 -0.16776299476623535 0.5656774044036865 -0.0177940484136343 -0.6033462285995483 -0.10877903550863266 0.3142947554588318 -0.03951963409781456 0.30863749980926514 0.23514871299266815 -0.45382437109947205 0.049884043633937836 0.1070442721247673 -0.17263244092464447 -0.31174784898757935 -0.058601751923561096 0.058945443481206894 -0.12026302516460419 0.3920813500881195 0.04900220036506653 0.2575126886367798 -0.297890305519104 0.14359289407730103 -0.262093722820282 -0.15767040848731995 0.38614052534103394 -0.12302859127521515 -0.23588411509990692 -0.289664626121521 0.5730469226837158 -0.12070228159427643 0.14155638217926025 -0.06802985817193985 -0.09998255968093872 -0.2437882423400879 -0.21688316762447357 -0.45346736907958984 0.4887814521789551 -0.5977540016174316 -3.2648444175720215 0.3778538107872009 0.2398645579814911 0.25368010997772217 0.16250532865524292 0.0876835435628891 0.4527878165245056 -0.019809138029813766 0.18853633105754852 0.3721435070037842 0.1749633401632309 -0.02600763365626335 0.21446023881435394 0.053078602999448776 0.05042608827352524 -0.36576539278030396 0.03499259799718857 0.3012509047985077 0.30404922366142273 0.06365220248699188 0.09656839817762375 0.14738428592681885 0.16796526312828064 -0.16850805282592773 -0.07406016439199448 0.04526904225349426 -0.2351440191268921 0.07619413733482361 0.15173766016960144 -0.01666807010769844 -0.2344328612089157 0.03560277819633484 0.030031420290470123 -0.35276252031326294 0.15174391865730286 0.23842595517635345 -0.026837652549147606 -0.4414413869380951 0.03616628423333168 -0.3202615976333618 0.6479305028915405 0.06845484673976898 0.32819148898124695 -1.2325056791305542 -0.009763114154338837 0.36318883299827576 -0.160572811961174 0.08506002277135849 0.05656084418296814 0.39334583282470703 0.09808877110481262 0.27649757266044617 -0.09591241925954819 -0.14871196448802948 0.11012034863233566 -0.15374180674552917 -0.08967404812574387 0.1415214240550995 0.27252432703971863 -0.001142989844083786 0.0034308372996747494 0.16478021442890167 -0.18780766427516937 0.0657854676246643 0.13315361738204956 0.027156885713338852 -0.19253993034362793 -0.18204444646835327 0.25595927238464355 -0.19244593381881714 0.20376861095428467 0.07294633239507675 -0.10258927196264267 0.3055781424045563 0.12341197580099106 0.026892324909567833 0.19035613536834717 0.143557608127594 -0.1940535604953766 0.2315644919872284 0.061905115842819214 0.7101187705993652 0.01828986033797264 0.0043957955203950405 -0.1372692883014679 0.3632907271385193 -0.3423648476600647 -0.03610604256391525 0.22563283145427704 0.03986329585313797 -0.16062681376934052 0.5069020986557007 -0.031447168439626694 0.2335904836654663 0.13046206533908844 0.3398066759109497 0.463891863822937 -0.349542498588562 1.6682202816009521 0.27718406915664673 -0.1556675285100937 -0.0063196346163749695 0.36533015966415405 0.0733385980129242 0.03376538306474686 -0.1843344271183014 -0.23193833231925964 0.02755831740796566 -0.1938968300819397 -0.055941443890333176 0.12438619136810303 -0.32028868794441223 0.4506921172142029 0.5924701690673828 -0.046735119074583054 0.17565813660621643 0.0633835569024086 -0.4954673647880554 0.48010990023612976 -0.2721375823020935 0.50041264295578 -0.4034136235713959 -0.114948570728302 -0.060116421431303024 0.41323941946029663 0.4167554974555969 0.3759987950325012 0.653483510017395 0.23031584918498993 -0.02998417243361473 -0.4394744336605072 0.11488019675016403 -0.3748224377632141 0.4083898067474365 0.047125160694122314 10.871322631835938 -0.008378520607948303 0.1287187784910202 -0.1995670199394226 0.26025018095970154 -0.13624753057956696 0.09202960133552551 0.1794915646314621 -0.17499211430549622 -0.05007604882121086 -0.14076322317123413 -0.12376104295253754 0.2527584731578827 -0.1821652501821518 -0.10721373558044434 -0.07249896973371506 0.6067423820495605 0.21696579456329346 0.04273254796862602 -0.1638387143611908 -0.092678964138031 -0.44094622135162354 0.11499089002609253 0.46073469519615173 -0.14512094855308533 -0.04808438941836357 -0.4543188512325287 0.6106557846069336 -0.0301960539072752 0.1834190934896469 0.1353963315486908 0.1290164440870285 0.3027854859828949 0.15300974249839783 -0.03282225504517555 -0.09945365786552429 -1.0222647190093994 -0.2133844941854477 0.24960947036743164 -0.19019465148448944 -0.17196038365364075 -0.23354598879814148 0.0006658341735601425 -0.20058171451091766 0.19237643480300903 0.10647114366292953 -0.4313090443611145 0.2501797080039978 0.2917776107788086 -0.04839573800563812 0.12049238383769989 -0.004581134766340256 -0.1299617886543274 -0.4332587718963623 0.06660725921392441 -0.4165787696838379 0.6770784854888916 0.05443858355283737 -0.14740708470344543 -0.5673646926879883 -0.07847592234611511 -0.07579103857278824 -0.097679004073143 -0.03901226446032524 0.5711392164230347 -0.13128623366355896 0.4474896192550659 0.3198912739753723 0.06852744519710541 -0.10263046622276306 -0.061735205352306366 -0.12234589457511902 -0.015536217018961906 -0.14177152514457703 -0.44578465819358826 -0.27929314970970154 -0.02888503298163414 -0.4222848415374756 -0.22653284668922424 -0.3919553756713867 -0.17815035581588745 0.3661571145057678 0.015122312121093273 -0.0353916697204113 -0.5177721977233887 0.018045175820589066 -0.05571072921156883 0.33546966314315796 0.14429551362991333 -0.20783743262290955 -0.11417099088430405 -0.32355397939682007 -0.02299724891781807 0.15479318797588348 0.32967525720596313 0.0812363550066948 0.047811172902584076 0.21423646807670593 0.12563064694404602 -0.2681713104248047 -0.7105896472930908 0.08553768694400787 -0.3253379166126251 0.3741503953933716 0.08005687594413757 0.257188618183136 0.44253772497177124 -0.055425114929676056 -0.19030247628688812 0.10290345549583435 -0.1455221176147461 0.5067923069000244 0.16304102540016174 0.26476630568504333 -0.30215808749198914 -0.24708446860313416 0.08238771557807922 -0.12800943851470947 0.05974747985601425 0.8744131922721863 0.004308497067540884 0.26512420177459717 0.12247104942798615 -0.5712940096855164 0.11829128116369247 0.12802842259407043 -0.14346271753311157 0.42988306283950806 0.4471903443336487 -0.06876873224973679 -0.7570947408676147 -0.17572307586669922 0.4991665780544281 0.20116260647773743 -0.1316782832145691 -0.015632590278983116 0.4671502113342285 -0.09886012971401215 0.22542952001094818 0.10163139551877975 -0.28045186400413513 -0.06585058569908142 -0.31644320487976074 -0.418997585773468 -0.321149617433548 -0.0431942418217659 -0.2493734210729599 -0.13703320920467377 0.33808785676956177 -0.24334248900413513 -0.25759756565093994 -0.27306514978408813 -0.1997804045677185 -0.02472570352256298 0.08354112505912781 0.19561165571212769 0.05864766985177994 0.6819227933883667 0.15289941430091858 -0.08887406438589096 -0.24653947353363037 -0.5728127956390381 -0.3715265393257141 -0.23935727775096893 -0.00971945933997631 -0.09311815351247787 -0.1796731948852539 -0.23528794944286346 0.2913939356803894 -0.043273523449897766 0.3653547763824463 -0.07630479335784912 -0.5263451337814331 0.05410371348261833 0.3924333453178406 -0.2850303053855896 0.11862349510192871 -0.6655191779136658 0.2624877691268921 0.35408538579940796
