node_20	0.14873680472373962 0.38038548827171326 0.40064844489097595 -0.004368496593087912 0.5701666474342346 -0.28372374176979065 -0.006595346610993147 0.06218358129262924 0.02371148020029068 -0.4213338792324066 0.13304677605628967 0.3572189211845398 0.3499870300292969 -0.6303854584693909 0.4536066949367523 -0.3515775799751282 0.8273274302482605 0.3301151990890503 0.03262191638350487 -0.043834201991558075 -0.018347639590501785 -0.276226669549942 0.3035891354084015 0.07340255379676819 -0.40255028009414673 0.17806033790111542 0.33847808837890625 -0.06811089813709259 0.10418915748596191 0.13484802842140198 -0.46358737349510193 0.6311323046684265 0.12749481201171875 0.04849208518862724 -0.3986155688762665 -0.0033459272235631943 -0.5994479656219482 0.31619691848754883 0.42419204115867615 0.11335863173007965 -0.5026043653488159 0.4739799499511719 0.19395089149475098 -0.18523216247558594 0.1362355798482895 -0.15168866515159607 -0.09472035616636276 0.20303934812545776 0.34039223194122314 -0.06703334301710129 0.16330885887145996 -0.2394624948501587 -0.14759528636932373 0.28012633323669434 0.010105982422828674 0.1784088909626007 -0.2679372727870941 0.27055802941322327 0.4438130855560303 -0.16096436977386475 0.28229913115501404 0.33529895544052124 0.079679474234581 -0.16277185082435608 0.10174941271543503 0.04817473888397217 -0.07752595096826553 -0.3451721668243408 0.2876618504524231 -0.07084216177463531 -0.10871114581823349 0.09064766019582748 0.07011726498603821 -0.2183760404586792 -0.05746367573738098 -0.08013402670621872 0.4776057004928589 -1.9636139869689941 -0.2341051548719406 0.5527588725090027 0.02872217819094658 -0.1333065778017044 0.5876070261001587 -0.20318466424942017 -0.01648940145969391 -0.6704500913619995 0.36818569898605347 -0.06335029006004333 -0.05755535885691643 0.3642317056655884 0.23954319953918457 0.3244743347167969 0.020273057743906975 0.0569603256881237 -0.3330420255661011 0.3315485119819641 -0.19536566734313965 0.3020710051059723 -0.3052513599395752 0.13838765025138855 0.1036643385887146 -0.04880751296877861 0.2772158980369568 -0.09958966821432114 0.04064733162522316 -0.26526856422424316 -0.04700223729014397 -0.23923036456108093 0.3886091411113739 0.32264482975006104 0.1856115311384201 0.22953572869300842 -0.06762285530567169 -0.08718127012252808 -0.10834844410419464 0.4188394546508789 -0.10787766426801682 0.1739572286605835 0.17985191941261292 0.6050311923027039 0.0889807939529419 -0.2735508978366852 0.38103288412094116 -0.20004862546920776 0.37285590171813965 0.7847764492034912 0.46760687232017517 -0.1336396336555481 -0.18581804633140564 -0.24150864779949188 -0.3607676029205322 -1.2213046550750732 -0.16796903312206268 0.014198641292750835 0.37320324778556824 0.27367281913757324 -0.06003175303339958 0.09821268916130066 0.00038461232907138765 -0.02729877457022667 -0.2500911355018616 0.11472916603088379 0.4161813259124756 0.23458407819271088 0.7576769590377808 -0.21696922183036804 0.0762060210108757 -0.26919496059417725 -0.1313454955816269 0.4235066771507263 -0.20352542400360107 0.7197732329368591 -0.24499855935573578 0.33657872676849365 -0.26568642258644104 0.9761545062065125 -0.33868032693862915 -0.2646551728248596 -0.24387428164482117 0.5303827524185181 0.06493964046239853 -0.26402777433395386 0.45196494460105896 -0.006215239875018597 0.24044983088970184 0.09836374223232269 -0.05969810485839844 -0.21754953265190125 0.13589546084403992 0.6111403703689575 -0.1053992509841919 -0.2641819417476654 -0.07453261315822601 -0.4814577102661133 0.02246805652976036 -0.08554904907941818 -0.07373932003974915 -0.18854045867919922 0.2663061022758484 0.06752298772335052 0.25798600912094116 0.14613066613674164 0.21857035160064697 -0.2529923617839813 -0.05582159385085106 0.45680850744247437 0.23085497319698334 0.15130504965782166 -0.21428385376930237 -0.09333986043930054 -0.42801591753959656 0.054252177476882935 0.3375585079193115 -0.1277192085981369 0.15191294252872467 0.22817906737327576 0.1038103699684143 0.16241654753684998 0.39334750175476074 -0.16275900602340698 -0.5443220734596252 -0.23247000575065613 0.6824550628662109 -0.23128573596477509 0.2267206311225891 0.1692102551460266 -0.4124819040298462 -0.4324912428855896 -0.4435909688472748 0.2570905387401581 -0.025380786508321762 0.8583754301071167 -0.15265008807182312 -0.1817377656698227 0.5291227102279663 0.13489848375320435 -0.15071836113929749 -0.2454225867986679 -0.2644813060760498 -1.0630342960357666 0.2992396950721741 0.05878600478172302 0.01629231870174408 -0.8177658915519714 0.39096206426620483 0.0744631439447403 -0.05979546532034874 -0.10381907224655151 0.4157572388648987 0.11044438183307648 0.1879088282585144 -0.09649401158094406 -0.4274159371852875 -0.16610386967658997 0.2890525162220001 0.33355721831321716 -0.4846034049987793 0.390368789434433 -0.004273387603461742 0.0864906758069992 -0.5884990096092224 0.28658998012542725 -0.16164647042751312 0.2842296361923218 -0.09892364591360092 -0.17717979848384857 -0.047270517796278 -0.23566608130931854 -0.05316164344549179 0.12369602918624878 -0.06630592048168182 0.15299269556999207 0.14594970643520355 0.2305820882320404 0.24358956515789032 -0.006726385559886694 0.06618031114339828 -0.06301339715719223 -0.20065228641033173 -0.30819594860076904 -0.04716316983103752 0.06539872288703918 0.09108103811740875 -0.5077680945396423 -0.0396026149392128 -0.44526636600494385 0.004874930717051029 0.12992531061172485 -0.33223840594291687 0.02592821978032589 0.24525916576385498 0.2711074948310852 0.13911615312099457 0.24626116454601288 0.15445643663406372 0.4310544431209564 -0.09041856229305267 0.044743865728378296 -0.06638345122337341 -0.26412665843963623 0.10538248717784882 -0.0971914753317833 -0.35861122608184814 -0.4013441801071167 0.13231810927391052 -0.39755377173423767 0.09576913714408875 -0.5139192938804626 -0.14784394204616547 -0.016216417774558067 -0.18874049186706543 0.30266091227531433 -0.4035647511482239 0.20646145939826965 -0.4081413149833679 0.2818548381328583 -0.0034380059223622084 0.5749636888504028 0.629403293132782 0.5442825555801392 -0.2987540662288666 0.05943611264228821 -0.0737651064991951 -0.04869535565376282 0.25570595264434814 -0.3851512670516968 0.1789032518863678 -0.03961747884750366 0.04726746678352356 0.14231647551059723 0.04986974596977234 0.17692196369171143 -0.27710577845573425 0.4711928367614746 0.10617854446172714 0.05463651940226555 0.12109899520874023 -0.13764797151088715 0.36451956629753113 -0.07839655131101608 -0.08590611070394516 -0.29471930861473083 -0.4169251620769501 -0.1294671893119812 -0.11925932765007019 0.2733861804008484 0.012118250131607056 -0.040618978440761566 0.28538650274276733 0.25187429785728455 1.4015693664550781 1.1120103597640991 0.08455131947994232 0.5066202878952026 0.3181988596916199 -0.037792451679706573 0.008497605100274086 -0.11957639455795288 -0.33546513319015503 0.040021203458309174 -0.015717601403594017 -0.5118042230606079 0.13282248377799988 -0.020019052550196648 0.028032785281538963 -0.14853374660015106 0.47007036209106445 -0.16725251078605652 0.3646845817565918 -0.5070248246192932 0.2158423364162445 -0.11917831003665924 -0.003881613491103053 -0.5995471477508545 0.27202463150024414 0.47012537717819214 -0.04745575040578842 -0.13379153609275818 -0.13165460526943207 0.23737850785255432 -0.33119723200798035 0.8230986595153809 -0.07460322976112366 -0.35427558422088623 -0.27854418754577637 -0.376131534576416 -1.1987093687057495 -0.29479527473449707 0.022495856508612633 -0.03599820286035538 0.015727363526821136 0.14168158173561096 0.49118518829345703 -0.41107791662216187 0.029659390449523926 0.11626115441322327 0.6142311096191406 0.41165217757225037 0.2501496970653534 -0.3101152777671814 -0.3452892303466797 0.38133716583251953 0.1657789945602417 0.45602354407310486 0.053730130195617676 -0.45118385553359985 -0.17784827947616577 0.06902264058589935 0.3565813899040222 0.011463682167232037 0.23137545585632324 0.27615293860435486 0.3354041576385498 0.32367759943008423 -0.2796860933303833 0.2648056149482727 0.1239725798368454 -0.09014499187469482 -0.4130442142486572 0.27806439995765686 0.20594677329063416 -0.2570433020591736 -0.1616385132074356 0.6043332815170288 0.28124743700027466 -0.235906720161438 -0.21624234318733215 0.13959923386573792 -0.13891452550888062 -0.7323963046073914 -0.2008133828639984 -0.2287541627883911 -0.47768622636795044 -0.39226144552230835 -0.20938174426555634 -0.0647529810667038 0.1041627749800682 -0.6880087852478027 -0.6474201083183289 0.19273237884044647 0.4599517583847046 -0.17574593424797058 0.6010898351669312 0.011627484112977982 -0.22053730487823486 0.06266092509031296 -0.4121437072753906 0.00802004337310791 -0.6270366311073303 -0.1417548954486847 -0.019293874502182007 -0.05185466632246971 0.5528013706207275 0.1357012838125229 0.032108329236507416 0.07050609588623047 -0.13751155138015747 -0.06519605219364166 -0.05051526427268982 0.16295473277568817 -0.45073291659355164 0.025041263550519943 -0.2829272747039795 0.321851909160614 0.301481157541275 0.35340023040771484 -0.3084360957145691 -0.11173582077026367 -0.17513787746429443 0.2060592621564865 -0.189285010099411 0.46436429023742676 -0.4949469566345215 -2.861130714416504 0.23111538589000702 -0.14584672451019287 0.017831288278102875 0.14024990797042847 0.15978072583675385 0.180180162191391 -0.1725684106349945 -0.154089093208313 0.21445274353027344 0.28760796785354614 0.04694478213787079 0.2506478428840637 -0.0974387526512146 -0.061622750014066696 0.2917146682739258 -0.025580450892448425 0.19800734519958496 0.46650800108909607 0.12192147970199585 0.06775964051485062 0.16449330747127533 0.166182279586792 0.003887082217261195 -0.20590218901634216 -0.0421329066157341 0.06918013840913773 0.3220698833465576 0.02826015278697014 -0.1142115592956543 -0.016107290983200073 -0.0075625828467309475 -0.005558921955525875 -0.42647430300712585 -0.024741072207689285 0.5685413479804993 -0.43162858486175537 -0.42990607023239136 0.05667726695537567 -0.2637347877025604 0.8017052412033081 0.03653082996606827 0.11497336626052856 -1.6779916286468506 -0.45708298683166504 -0.7903562784194946 0.019474370405077934 0.0969235822558403 0.042657457292079926 0.3190855383872986 0.06101628765463829 0.24106693267822266 -0.23488113284111023 -0.2074575424194336 -0.054305147379636765 -0.2139827460050583 -0.16312846541404724 0.13670483231544495 0.38638219237327576 0.0907907783985138 0.2728946805000305 -0.16635063290596008 -0.11613550782203674 -0.1764473170042038 0.5808861255645752 -0.2769046723842621 -0.46767592430114746 -0.31864720582962036 0.07598736882209778 -0.14345400035381317 0.010513986460864544 0.17702099680900574 0.0596865639090538 0.2020094096660614 0.018721897155046463 0.02234969101846218 -0.17959627509117126 0.5285071730613708 -0.19321899116039276 0.16893672943115234 0.0690905898809433 0.833624541759491 0.11809473484754562 0.035081006586551666 0.16183340549468994 0.4708314538002014 -0.44017571210861206 -0.035589709877967834 0.3683168590068817 -0.1524016112089157 -0.26674696803092957 0.43295153975486755 -0.1379290521144867 0.1548198014497757 0.004021403845399618 0.22974954545497894 0.2154594361782074 -0.1373233050107956 2.331125020980835 0.24404296278953552 0.10146640241146088 -0.3614678382873535 0.18105283379554749 0.3168264329433441 0.01130262017250061 0.01286567933857441 0.0667428970336914 -0.03902298957109451 0.21986675262451172 0.09000635147094727 -0.16337834298610687 -0.6761475801467896 0.3654012084007263 0.5829510688781738 -0.2757456302642822 0.13872095942497253 0.18289493024349213 0.11585595458745956 0.3392735719680786 0.013448829762637615 0.7042185664176941 -0.4400878846645355 0.018111586570739746 0.05355463922023773 0.07230783253908157 0.22460034489631653 0.2830491065979004 0.42187175154685974 -0.14178615808486938 0.17826339602470398 -0.4084429144859314 0.1811855137348175 0.07091546058654785 0.6565843820571899 -0.21879684925079346 11.687602996826172 -0.1689494103193283 -0.16214051842689514 0.23265938460826874 -0.0909401997923851 0.0828036218881607 0.0011726270895451307 0.12916989624500275 -0.42683231830596924 0.14904266595840454 -0.221539705991745 -0.18996958434581757 0.3262576460838318 -0.4439641833305359 -0.1306731104850769 0.298145592212677 0.32221677899360657 0.25540387630462646 0.0362810343503952 -0.03971655294299126 0.09152261912822723 -0.25256845355033875 -0.15986359119415283 0.6371387243270874 -0.10785907506942749 0.29599976539611816 -0.8637923002243042 0.210114523768425 0.22710180282592773 0.2101568877696991 0.20040297508239746 0.04556892439723015 -0.061023809015750885 -0.2879593074321747 -0.1748925894498825 0.24065116047859192 -0.9089464545249939 -0.06665492802858353 0.051251497119665146 -0.4589713513851166 -0.15780168771743774 -0.39236074686050415 0.13741740584373474 -0.10772879421710968 0.1545553356409073 0.17813317477703094 -0.8624267578125 0.14314839243888855 0.27525144815444946 0.05361775681376457 0.15225404500961304 0.2520652711391449 0.12732002139091492 -0.3524741530418396 0.13043302297592163 -0.480118989944458 0.4238429069519043 -0.010230807587504387 -0.16870276629924774 -0.6236276626586914 0.0670480877161026 -0.06707388907670975 -0.21255022287368774 0.09066727012395859 0.11167822778224945 -0.17013029754161835 0.5464229583740234 -0.31797996163368225 0.029994621872901917 0.0839773640036583 -0.06647833436727524 -0.12950800359249115 0.13707172870635986 0.04886886104941368 -0.6066662073135376 -0.41424211859703064 -0.31300514936447144 -0.19737355411052704 -0.28117263317108154 -0.32780012488365173 -0.14806267619132996 0.43609118461608887 0.23533043265342712 0.08709847927093506 -0.45946162939071655 -0.025022272020578384 0.1554897427558899 0.09180746972560883 -0.3524089753627777 -0.26163119077682495 0.13396909832954407 0.1913394182920456 -0.059530556201934814 -0.3802676796913147 0.35090172290802 0.2893105149269104 -0.20700225234031677 -0.15654981136322021 0.16182011365890503 -0.4495229721069336 -0.3999409079551697 0.19748429954051971 -0.5121951103210449 0.36703330278396606 -0.00325465458445251 0.3123130798339844 0.572793185710907 -0.4226515293121338 -0.07172659039497375 0.040600888431072235 0.11662343144416809 0.09605833142995834 0.03396410867571831 0.43558451533317566 0.02405538037419319 -0.5953956842422485 0.07806035131216049 -0.014430515468120575 0.19706642627716064 0.5494496822357178 -0.2676140069961548 0.23484501242637634 0.061480626463890076 -0.3494757413864136 -0.04617958515882492 0.13905249536037445 -0.10918176174163818 0.41981109976768494 0.30146345496177673 -0.04240876063704491 -0.14610016345977783 0.08358433097600937 0.14297184348106384 0.22276610136032104 0.20284494757652283 -0.24100932478904724 0.20391862094402313 -0.19605807960033417 -0.0853656530380249 0.15729773044586182 -0.06577947735786438 0.29815393686294556 0.042818840593099594 -0.30797266960144043 -0.13656988739967346 0.03956795856356621 -0.2764214873313904 -0.3029584288597107 0.0860850065946579 -0.17292653024196625 -0.21466319262981415 -0.2215752899646759 -0.225514218211174 -0.08258374035358429 0.16115008294582367 0.37360236048698425 0.038938969373703 0.2881637513637543 0.215929314494133 -0.0013582706451416016 0.029082631692290306 -0.995517909526825 -0.34225592017173767 -0.7765456438064575 -0.015632133930921555 -0.10046856105327606 0.2211904227733612 -0.0978500247001648 0.49372339248657227 -0.12041430920362473 0.1494797319173813 -0.2036469280719757 -0.2681728005409241 -0.09674027562141418 0.15352405607700348 -0.3206169307231903 -0.7134871482849121 -0.23029375076293945 0.22018998861312866 0.23887717723846436
node_23	0.06583414226770401 0.4759158790111542 0.310566782951355 -0.1350826919078827 1.004560947418213 -0.513862133026123 0.07320038974285126 0.16747185587882996 0.023700501769781113 -0.2963259816169739 -0.08700220286846161 0.09910361468791962 0.37502479553222656 -0.44055208563804626 0.23744633793830872 -0.5957277417182922 0.8528114557266235 0.5064706206321716 0.08890986442565918 0.1761992871761322 -0.004036332480609417 -0.21048912405967712 0.2151222825050354 0.02755323424935341 -0.23718182742595673 0.19822578132152557 0.5220941305160522 -0.058165691792964935 0.14975200593471527 0.20160596072673798 -0.45886731147766113 0.5795615911483765 0.11035507917404175 0.02703152969479561 -0.3780374228954315 -0.027077853679656982 -0.7859286665916443 0.272134006023407 0.41115817427635193 0.19736650586128235 -0.46425801515579224 0.4319847822189331 0.22165870666503906 -0.22694671154022217 0.12106236815452576 -0.10550358146429062 -0.15279695391654968 0.012408554553985596 0.3029298186302185 -0.0009462867747060955 0.15581825375556946 -0.19119423627853394 -0.11390485614538193 0.33512601256370544 0.10040831565856934 0.251096248626709 -0.23989348113536835 0.0905798003077507 0.4959263503551483 -0.10526373237371445 0.14289408922195435 0.8185874819755554 0.15047116577625275 0.28059351444244385 0.037934184074401855 -0.003757171332836151 -0.11143888533115387 -0.49091631174087524 0.1499183028936386 -0.05604241415858269 -0.008625197224318981 0.06814825534820557 0.1550019234418869 -0.27483662962913513 -0.07252099364995956 0.018637171015143394 0.5824889540672302 -2.0640745162963867 -0.2944130301475525 0.5783268213272095 -0.10788469016551971 -0.2735966742038727 0.5012018084526062 -0.3378593325614929 -0.13820399343967438 -0.5262278318405151 0.27874282002449036 -0.09893433749675751 0.07110115140676498 0.3682350814342499 0.1388028860092163 0.2320476472377777 -0.00954815186560154 0.20191225409507751 -0.2907457947731018 0.32175177335739136 -0.12712308764457703 0.22321055829524994 -0.2521139979362488 0.06213027238845825 0.14814205467700958 0.08467870205640793 0.09786441177129745 0.03580392152070999 0.06714347004890442 -0.32664617896080017 -0.0774107426404953 -0.15673978626728058 0.4707661271095276 0.43101367354393005 0.28310179710388184 0.2239873856306076 0.005620181560516357 -0.042318180203437805 -0.20124638080596924 0.4175872802734375 -0.18707379698753357 0.10071228444576263 0.11209762096405029 0.716376006603241 0.23795191943645477 -0.4160188138484955 0.5266639590263367 0.02760322391986847 0.1750379204750061 0.6644894480705261 0.5392109751701355 -0.22721028327941895 -0.2470518797636032 -0.29788675904273987 -0.2865481972694397 -0.8620185852050781 -0.2338763177394867 0.25572195649147034 0.3521694839000702 0.302541583776474 -0.13272154331207275 0.13663995265960693 -0.04879175126552582 -0.08878304809331894 -0.282048761844635 0.20071689784526825 0.4432131052017212 0.17923715710639954 0.6567592024803162 -0.15285320580005646 0.03352649509906769 -0.13699758052825928 -0.24583837389945984 0.6102191209793091 -0.14736586809158325 0.5705328583717346 -0.06945555657148361 0.4267323613166809 -0.4186745584011078 0.9219173192977905 -0.4139939546585083 -0.15339067578315735 -0.3566775321960449 0.552444338798523 0.06877303868532181 -0.09521172940731049 0.4077061414718628 -0.1529969573020935 0.15614201128482819 0.10831329226493835 -0.0365859791636467 -0.011587093584239483 0.19971339404582977 0.7265521287918091 -0.13490134477615356 -0.1581563949584961 -0.02139052376151085 -0.3704565167427063 0.13251738250255585 0.047627728432416916 -0.198632150888443 -0.24431639909744263 0.23404210805892944 0.10843127965927124 0.28695034980773926 0.1379162073135376 0.19601774215698242 -0.25210297107696533 0.015814801678061485 0.19414252042770386 0.14004798233509064 0.20666877925395966 -0.034401871263980865 -0.11847089976072311 -0.5328497886657715 -0.0062852948904037476 0.37032264471054077 -0.244035005569458 0.0617208294570446 0.22932139039039612 0.19431595504283905 0.11587481200695038 0.26439452171325684 -0.09982891380786896 -0.49521881341934204 -0.4140649735927582 0.5675228834152222 -0.24787217378616333 0.13887789845466614 0.19633075594902039 -0.055060889571905136 -0.4430023431777954 -0.49156615138053894 0.24105945229530334 -0.021938186138868332 0.373975932598114 -0.15325923264026642 -0.26067960262298584 0.3676071763038635 0.24575340747833252 -0.18442323803901672 -0.19669267535209656 -0.3797360360622406 -0.8897260427474976 0.25002461671829224 0.03417152538895607 -0.2108447253704071 -1.0108671188354492 0.11663906276226044 0.09722673892974854 -0.19579820334911346 -0.04018847644329071 0.27500009536743164 0.29254814982414246 0.1923656463623047 0.05439778417348862 -0.594024658203125 -0.08593261241912842 0.42626136541366577 0.15788403153419495 -0.4054490029811859 0.4053694009780884 -0.018580062314867973 0.08204689621925354 -0.4328021705150604 0.1308010369539261 -0.2345713973045349 0.3401443362236023 -0.1471252739429474 -0.14710333943367004 0.05200766772031784 0.18753162026405334 -0.018967917189002037 0.08195127546787262 0.0010064691305160522 0.07466942071914673 0.21209120750427246 0.29396742582321167 0.3931512236595154 0.09216886013746262 0.1649884581565857 -0.042511142790317535 0.026490479707717896 -0.34342139959335327 -0.0904080718755722 0.14002138376235962 0.04010473191738129 -0.5877441763877869 -0.0986475870013237 -0.17986908555030823 0.05371321365237236 0.16220352053642273 -0.22428463399410248 -0.009669236838817596 0.21701779961585999 0.1312272548675537 0.13663367927074432 0.17587602138519287 0.11131340265274048 0.32651233673095703 -0.1349206268787384 0.023646347224712372 -0.03233467414975166 -0.2680729329586029 0.19522547721862793 -0.14187480509281158 -0.4881371855735779 -0.41461312770843506 0.07604165375232697 -0.4981583058834076 0.06687445938587189 -0.5966527462005615 -0.0779045820236206 0.09127549827098846 -0.08985157310962677 0.27526387572288513 -0.35562241077423096 0.12292765080928802 -0.2548621892929077 0.2492622435092926 -0.06807000190019608 0.3586232662200928 0.5604225993156433 0.3665531575679779 -0.3282271921634674 -0.02742064744234085 -0.0794299840927124 -0.10152357071638107 0.20378243923187256 -0.42042288184165955 0.06109267473220825 -0.13279712200164795 0.05790218710899353 0.08478282392024994 -0.01924174278974533 0.0883704423904419 -0.15283071994781494 0.4035656452178955 0.06653657555580139 0.10412358492612839 0.017516877502202988 -0.17200867831707 0.4882519245147705 0.08318717777729034 -0.09287896007299423 -0.38521212339401245 -0.30797383189201355 -0.17683172225952148 -0.27126604318618774 0.17259031534194946 0.1988358199596405 -0.01990816555917263 0.3083121180534363 0.4383777976036072 1.1408071517944336 0.9781438112258911 0.0983438715338707 0.2587262988090515 0.32943660020828247 -0.07841145992279053 -0.07475589215755463 -0.11019788682460785 -0.36152029037475586 -0.20595210790634155 0.10457408428192139 -0.5034212470054626 0.15514308214187622 -0.026833217591047287 0.015397503972053528 -0.09078109264373779 0.5456058382987976 -0.32484883069992065 0.30698829889297485 -0.571526050567627 0.14204218983650208 -0.11187949031591415 -0.1169852465391159 -0.586115837097168 0.20476365089416504 0.5529323816299438 -0.06632854044437408 -0.002027250826358795 -0.1664409041404724 0.3520364761352539 -0.40288370847702026 0.7901628017425537 -0.06681455671787262 -0.5159995555877686 -0.21124660968780518 -0.270679235458374 -1.2103475332260132 -0.17426329851150513 0.04820292815566063 -0.14813974499702454 0.0009449571371078491 0.047682709991931915 0.5018221139907837 -0.6359729766845703 0.1178075298666954 0.10391661524772644 0.5413607954978943 0.36103683710098267 0.14351966977119446 -0.3637036979198456 -0.09873753786087036 0.35381457209587097 0.1046084314584732 0.5311155319213867 0.13628581166267395 -0.2783028185367584 -0.030708840116858482 0.21222776174545288 0.2503665089607239 -0.06282489001750946 0.07117296755313873 0.255859375 0.1956007480621338 0.4006507396697998 -0.24074801802635193 0.303076833486557 0.21420250833034515 -0.08204516023397446 -0.32880574464797974 0.22359499335289001 0.2511953115463257 -0.2304784506559372 -0.14953219890594482 0.19674402475357056 0.16052572429180145 -0.08579254150390625 -0.09923413395881653 0.12339052557945251 -0.17087185382843018 -0.9041719436645508 -0.3979383409023285 -0.28651079535484314 -0.30402034521102905 -0.4665603041648865 -0.14130856096744537 -0.07032586634159088 0.18545103073120117 -0.31836438179016113 -0.4930625855922699 0.07251867651939392 0.49469536542892456 -0.1687438189983368 0.4722822606563568 0.03969655558466911 -0.413705050945282 0.05691170319914818 -0.41998490691185 -0.16074727475643158 -0.14990529417991638 -0.04239910840988159 -0.07962116599082947 -0.07024790346622467 0.452218234539032 0.15461237728595734 0.15382863581180573 0.02921309694647789 -0.006848494987934828 -0.10428603738546371 -0.039870407432317734 0.3664873540401459 -0.3719412684440613 0.04382839798927307 -0.23613521456718445 0.4603225588798523 0.21777057647705078 0.3190762400627136 -0.4721582531929016 0.05045662820339203 -0.19882124662399292 0.11039303988218307 -0.2721092104911804 0.5413005948066711 -0.3413383960723877 -2.989809989929199 0.166926771402359 -0.147337406873703 -0.12900753319263458 0.049282342195510864 0.14090824127197266 0.09807302802801132 -0.048811670392751694 -0.2242395281791687 0.24450618028640747 0.17819848656654358 0.06728169322013855 0.2087160050868988 -0.025338593870401382 0.11769881844520569 0.137960746884346 -0.035047393292188644 -0.04633378982543945 0.4686371684074402 0.1158234030008316 0.08264276385307312 0.01802428439259529 0.22464153170585632 -0.009706368669867516 -0.25065723061561584 0.0768396407365799 0.08792483806610107 0.3032624125480652 -0.040671803057193756 -0.10415153205394745 -0.006819566246122122 0.06411702930927277 -0.09945734590291977 -0.3169576823711395 -0.021677089855074883 0.6267263293266296 -0.46373653411865234 -0.49017900228500366 0.11151967942714691 -0.23343899846076965 0.6845414638519287 0.03215703368186951 0.14057224988937378 -1.6141345500946045 -0.3802092671394348 -0.3739585876464844 -0.09039052575826645 0.12096049636602402 0.017103761434555054 0.33390793204307556 0.31427663564682007 0.32721298933029175 -0.0984455794095993 -0.2885802388191223 0.031352147459983826 -0.36255931854248047 -0.19857990741729736 0.27548566460609436 0.43537527322769165 0.025149457156658173 0.17634734511375427 -0.19195517897605896 -0.06602917611598969 -0.21498924493789673 0.5668749213218689 -0.24395804107189178 -0.6133236289024353 -0.29218789935112 0.01049193274229765 -0.17631690204143524 -0.09098013490438461 0.03844694048166275 0.03707890957593918 0.14181387424468994 -0.2447448968887329 0.12417492270469666 -0.15268856287002563 0.5225167870521545 -0.16675804555416107 0.15608489513397217 0.011562680825591087 0.6343179941177368 0.17774292826652527 -0.03746173530817032 -0.04175559803843498 0.5910070538520813 -0.28719982504844666 0.0019292905926704407 0.22964510321617126 -0.11572905629873276 -0.21113646030426025 0.28783899545669556 -0.2037239968776703 0.4275091290473938 0.037271738052368164 0.25687646865844727 0.22429823875427246 -0.040364671498537064 2.050734758377075 0.3207622170448303 0.13113883137702942 -0.3435525894165039 0.20906245708465576 0.32976052165031433 0.037703413516283035 -0.06407614052295685 -0.031945209950208664 -0.02651205286383629 0.1310303807258606 0.08306317031383514 -0.08070116490125656 -0.5786311030387878 0.3353346288204193 0.7467057108879089 -0.2679537534713745 0.08629044145345688 0.2579432427883148 -0.2623441219329834 0.30368536710739136 -0.02517694979906082 0.37592095136642456 -0.31583577394485474 -0.06811422854661942 0.040824711322784424 0.408180832862854 0.3671610951423645 0.27140307426452637 0.3351963460445404 -0.01920405402779579 0.16067998111248016 -0.20961230993270874 0.15422946214675903 0.013738548383116722 0.5850514769554138 -0.2484845370054245 12.246478080749512 -0.18930810689926147 -0.20711903274059296 0.17543154954910278 -0.1223951205611229 -0.04807030409574509 0.07460001111030579 0.2330540269613266 -0.4553566873073578 0.1757173240184784 -0.11273884773254395 -0.2750314474105835 0.2178162932395935 -0.33950090408325195 -0.170200377702713 0.22752711176872253 0.23525309562683105 0.2458341121673584 0.050028979778289795 -0.12548832595348358 0.11928939819335938 -0.134019672870636 0.001002048491500318 0.7064520716667175 -0.10423415154218674 0.21677815914154053 -0.6891136169433594 0.2793880105018616 0.22259895503520966 0.14577731490135193 0.006518287118524313 -0.1504027545452118 -0.12088547646999359 -0.3881838321685791 -0.23157483339309692 0.12746265530586243 -0.6712030172348022 -0.12655887007713318 0.042795173823833466 -0.40716880559921265 -0.16639629006385803 -0.3656580448150635 0.24515292048454285 -0.048557668924331665 0.09033577889204025 0.24557089805603027 -0.8239163160324097 0.10837267339229584 0.11834468692541122 0.12398611009120941 0.2195824384689331 0.1676875650882721 0.13713344931602478 -0.5449960827827454 -0.060080282390117645 -0.43322476744651794 0.4861014485359192 -0.02857929840683937 -0.2032160609960556 -0.5762351751327515 0.015029969625175 0.008659152314066887 -0.14234301447868347 -0.13348433375358582 -0.03025151416659355 -0.16622710227966309 0.506965160369873 -0.014043359085917473 0.10645481199026108 0.034811899065971375 0.03595338389277458 -0.08939577639102936 0.1640596091747284 0.014809134416282177 -0.6692030429840088 -0.28863251209259033 0.10496068000793457 -0.2226310670375824 -0.3016446828842163 -0.2956928610801697 -0.018294207751750946 0.48652511835098267 0.23842203617095947 0.17352592945098877 -0.2833666503429413 -0.012558644637465477 0.03970964625477791 0.10210995376110077 -0.4956338405609131 -0.1782253384590149 0.1308879852294922 0.10419164597988129 -0.15206053853034973 -0.31480664014816284 0.5079707503318787 0.3213981091976166 -0.21109633147716522 -0.1244954988360405 0.14611542224884033 -0.5142111778259277 -0.42388200759887695 0.2100767195224762 -0.47976192831993103 0.42503809928894043 0.006722144782543182 0.0918506309390068 0.6252516508102417 -0.1410571187734604 -0.12709379196166992 0.07536961883306503 0.09158258140087128 0.19061708450317383 0.1154654249548912 0.3731578290462494 -0.06049841642379761 -0.7099799513816833 0.14633426070213318 -0.06868040561676025 0.22618886828422546 0.5118560194969177 -0.1319301873445511 0.1567394733428955 -0.03174552321434021 -0.44686266779899597 0.11160105466842651 0.23998188972473145 -0.1123143881559372 0.3764100670814514 0.38886675238609314 0.12787112593650818 -0.23768389225006104 0.060650911182165146 -0.4864327907562256 0.20604746043682098 0.13459151983261108 -0.15384255349636078 0.21329686045646667 -0.28132128715515137 -0.004079041536897421 0.05859529972076416 -0.006002941634505987 0.4017825722694397 -0.011555301956832409 -0.5861777663230896 -0.11860527843236923 -0.15166306495666504 -0.14597724378108978 0.2722531259059906 0.02006472647190094 -0.238731250166893 -0.11619239300489426 -0.22327181696891785 -0.09946662187576294 -0.028152108192443848 0.23835232853889465 0.4015657305717468 0.03547666594386101 0.2583346664905548 0.22680389881134033 0.0893043503165245 0.2965662181377411 -1.31168794631958 -0.4881104826927185 -0.7238126993179321 0.1271219253540039 -0.08141543716192245 0.2024565190076828 -0.21745090186595917 0.33203670382499695 -0.13782672584056854 0.27444177865982056 -0.2026260495185852 -0.171354740858078 -0.0613207146525383 0.2022700011730194 -0.38765281438827515 -0.5726141333580017 -0.36224600672721863 0.14907178282737732 0.3018009066581726
node_39	0.12500345706939697 0.4582117795944214 0.31189990043640137 -0.08366769552230835 0.6793991923332214 -0.43748170137405396 0.0834675282239914 0.30397242307662964 -0.02508375607430935 -0.3231029510498047 0.0727686733007431 0.13574956357479095 0.29703488945961 -0.4510854482650757 0.40549418330192566 -0.5328623652458191 0.6904397010803223 0.3863852918148041 0.124642513692379 0.14631536602973938 0.09180063009262085 -0.166432723402977 0.17729106545448303 0.23875683546066284 -0.16529478132724762 0.2752546966075897 0.5002450346946716 -0.07146470248699188 0.2720012366771698 0.26332375407218933 -0.41153550148010254 0.546673059463501 0.14053218066692352 0.05356140062212944 -0.35016798973083496 0.02696467936038971 -0.6023675203323364 0.21227633953094482 0.14564621448516846 0.002133602974936366 -0.3848254084587097 0.29417821764945984 0.29347413778305054 -0.18701879680156708 0.11388944089412689 -0.14179693162441254 0.20436108112335205 0.06367000937461853 0.3547101616859436 -0.02825349196791649 0.134113609790802 -0.2924271523952484 -0.18437126278877258 0.2510502338409424 -0.06864920258522034 0.13318246603012085 -0.15430031716823578 0.34211254119873047 0.5070401430130005 -0.03495390713214874 0.17581626772880554 0.49872732162475586 0.09286756813526154 -0.006064297165721655 0.06764902174472809 0.09244217723608017 -0.06501096487045288 -0.3475358188152313 0.11275427788496017 0.041992031037807465 -0.1531653255224228 0.17202195525169373 0.13119588792324066 -0.2750478982925415 -0.07177796959877014 -0.1347881555557251 0.45767897367477417 -1.7943029403686523 -0.24979621171951294 0.5699097514152527 0.09736894071102142 -0.4185238778591156 0.4013065695762634 -0.1326507180929184 -0.0447598397731781 -0.5175282955169678 0.3340640962123871 -0.00763710867613554 0.1514819860458374 0.32420870661735535 0.1968814581632614 0.20478779077529907 -0.13155041635036469 -0.17504392564296722 -0.13259702920913696 0.10078596323728561 -0.08495324850082397 -0.1473952978849411 -0.24291035532951355 -0.01299671083688736 0.21055439114570618 0.012048056349158287 -0.06665409356355667 -0.1311803162097931 0.2017013430595398 -0.15358351171016693 0.05809934064745903 -0.19549863040447235 0.41811901330947876 0.24745599925518036 0.38633450865745544 -0.052958857268095016 0.12053251266479492 -0.11079946160316467 -0.21158340573310852 0.31369930505752563 -0.02112995646893978 0.18658378720283508 0.03587494418025017 0.445565402507782 0.18732011318206787 -0.2709383964538574 0.3762030005455017 0.03967762738466263 0.05058247596025467 0.568356454372406 0.45580536127090454 -0.2699274718761444 -0.24564000964164734 -0.21391677856445312 -0.2946847677230835 -0.7117644548416138 -0.21696755290031433 -0.1021476686000824 0.19916574656963348 0.22799059748649597 -0.04512777552008629 0.0700308084487915 0.043300896883010864 -0.11991292238235474 -0.2618910074234009 0.28498703241348267 0.30390939116477966 0.10614102333784103 0.592767059803009 -0.09700092673301697 0.07114841043949127 -0.11759769916534424 -0.3696255087852478 0.3514406383037567 -0.12619681656360626 0.6111773252487183 -0.07029467821121216 0.3607748746871948 -0.3252519369125366 0.9477443695068359 -0.2689588665962219 -0.14203134179115295 -0.2902415990829468 0.44296082854270935 0.03136790543794632 -0.08921929448843002 0.42324358224868774 0.00250007351860404 0.114251047372818 0.042723268270492554 0.00826853048056364 0.01579662784934044 0.08452480286359787 0.6370755434036255 -0.1497383713722229 -0.11109691858291626 0.05590473860502243 -0.3791600465774536 0.14794418215751648 -0.03191855922341347 -0.14020316302776337 -0.26732710003852844 0.1763232797384262 -0.004957085009664297 0.10936905443668365 0.12750163674354553 0.14523592591285706 -0.403841495513916 0.018243340775370598 0.3935692012310028 0.1922503411769867 0.0009956422727555037 -0.03749634698033333 -0.10512682050466537 -0.45276492834091187 0.0406549833714962 0.3602002263069153 -0.26002997159957886 0.005839129444211721 0.07196496427059174 0.08987794816493988 0.08836045861244202 0.3093254268169403 -0.10161976516246796 -0.37887102365493774 -0.35604196786880493 0.5761991739273071 -0.35956859588623047 0.08496730774641037 0.3025490641593933 -0.3017019033432007 -0.3507625460624695 -0.5272883772850037 0.41451436281204224 -0.08698957413434982 0.23310640454292297 -0.006965808570384979 -0.1933738887310028 0.4623212218284607 0.18728062510490417 -0.14805424213409424 -0.28199589252471924 -0.25185662508010864 -0.8539912104606628 0.165930837392807 0.10170432180166245 -0.06117106229066849 -1.0386898517608643 0.20155787467956543 0.23708656430244446 -0.12455704808235168 -0.009631404653191566 0.22963008284568787 0.3155190348625183 0.1264258623123169 -0.009018247947096825 -0.528252124786377 0.02398325875401497 0.3362903296947479 -0.05984042212367058 -0.47096168994903564 0.4454767107963562 -0.06528262794017792 0.02399435266852379 -0.7328521013259888 0.1483711153268814 -0.23151397705078125 0.12863130867481232 -0.1270231157541275 -0.013623560778796673 -0.033168625086545944 0.18732504546642303 -0.05926692113280296 0.08864067494869232 0.04469229280948639 0.025306668132543564 0.10912847518920898 0.3001224398612976 0.17242245376110077 0.025022078305482864 0.16268190741539001 -0.09548322856426239 0.07709060609340668 -0.23689548671245575 -0.16085611283779144 0.010158061049878597 -0.07048675417900085 -0.5604583621025085 -0.06340815126895905 -0.2519022226333618 0.004061761312186718 0.13352932035923004 -0.19821158051490784 -0.0812138244509697 0.2327878326177597 0.25921398401260376 0.205309197306633 0.05953564494848251 0.13153809309005737 0.3637562394142151 -0.24170151352882385 -0.007406530436128378 0.024135341867804527 -0.30942559242248535 0.15208682417869568 0.08221162855625153 -0.627966582775116 -0.504788875579834 0.05830861255526543 -0.3715917766094208 0.26021426916122437 -0.3344798982143402 -0.06987453252077103 -0.003996680490672588 -0.15321731567382812 0.21399438381195068 -0.31428539752960205 0.20024442672729492 -0.2014358937740326 0.42981696128845215 -0.09200328588485718 0.18101993203163147 0.5390167236328125 0.3485240936279297 -0.22971779108047485 0.08015204966068268 -0.30872344970703125 -0.0817442238330841 0.18738847970962524 -0.35658782720565796 0.07957635074853897 -0.07125089317560196 0.049716122448444366 0.1336563527584076 0.03154383972287178 0.15295512974262238 -0.08587604761123657 0.23503756523132324 -0.011163812130689621 0.026079220697283745 0.17569127678871155 -0.23776184022426605 0.4145408570766449 0.00752416905015707 -0.003734412370249629 -0.36664414405822754 -0.31925052404403687 -0.060407452285289764 -0.13294366002082825 0.19979679584503174 0.13577817380428314 -0.06239530071616173 0.3083822727203369 0.4574735164642334 1.1121580600738525 0.5978490710258484 0.10191474854946136 0.5373944044113159 0.34209558367729187 -0.17776378989219666 -0.06389955431222916 -0.03742803633213043 -0.43650364875793457 -0.008301138877868652 -0.02569757215678692 -0.479287326335907 0.12565556168556213 -0.007557069417089224 0.09732349961996078 -0.03601352870464325 0.5274968147277832 -0.17286589741706848 0.27781498432159424 -0.4877879321575165 0.17713801562786102 -0.2119315266609192 -0.10239060968160629 -0.47416624426841736 0.2612757980823517 0.4283697009086609 -0.11053809523582458 -0.03836227208375931 -0.09574072062969208 0.06476602703332901 -0.36294013261795044 0.5636997222900391 -0.14299117028713226 -0.48280709981918335 -0.04126240313053131 -0.256708025932312 -1.1953703165054321 -0.17431366443634033 -0.018247097730636597 -0.08969169110059738 0.006115343421697617 0.10616372525691986 0.41441720724105835 -0.49627193808555603 0.20660918951034546 0.1534176915884018 0.44393014907836914 0.4113035202026367 0.4937296509742737 -0.30475914478302 -0.24512338638305664 0.31448182463645935 0.03141720965504646 0.4551948308944702 0.05455572530627251 -0.24579209089279175 -0.07976701855659485 0.3526405096054077 0.4168681800365448 0.0038703593891113997 0.08441217243671417 0.0703623816370964 0.16567450761795044 0.341689795255661 -0.27562397718429565 0.20250825583934784 0.23063650727272034 0.030931055545806885 -0.3578665852546692 0.180206760764122 0.24372653663158417 -0.01668829470872879 -0.11061245203018188 0.11932946741580963 0.20813590288162231 -0.028115157037973404 0.03638407588005066 0.18406188488006592 -0.194472074508667 -0.8141387701034546 -0.36808156967163086 -0.25663110613822937 -0.2521969974040985 -0.3331066966056824 -0.10248296707868576 -0.19587473571300507 0.14053037762641907 -0.3027893900871277 -0.48876819014549255 0.11958818137645721 0.5810083150863647 -0.17535988986492157 0.48364269733428955 -0.025171248242259026 -0.34005534648895264 0.07251111418008804 -0.4333415627479553 -0.072996586561203 -0.299112468957901 -0.001886283978819847 -0.12575149536132812 -0.1172909140586853 0.460968017578125 0.19975635409355164 0.14620666205883026 0.1333755999803543 0.020651092752814293 -0.05864521861076355 0.08858047425746918 0.41645288467407227 -0.3610791563987732 0.10169234126806259 -0.36202043294906616 0.38637956976890564 0.1510026454925537 0.30409520864486694 -0.5009275674819946 0.02486143819987774 -0.2668481767177582 0.10350632667541504 -0.07417231053113937 0.5992965698242188 -0.18954621255397797 -2.605119466781616 0.12415453791618347 -0.02562227100133896 -0.03747004270553589 0.09761542081832886 0.11352606862783432 0.05149473249912262 -0.10494953393936157 -0.21474537253379822 0.18078383803367615 0.20751862227916718 0.05248614400625229 0.062193624675273895 -0.16755932569503784 0.028018375858664513 0.045805856585502625 0.025951072573661804 0.0272552277892828 0.40772637724876404 0.22114408016204834 0.18993090093135834 0.2145324945449829 0.1667528748512268 0.09357982873916626 -0.12856394052505493 0.04781405255198479 0.0764930248260498 0.23489010334014893 -0.053417038172483444 -0.08746834844350815 -0.05464614927768707 0.14000368118286133 -0.07741377502679825 -0.31943419575691223 -0.03909990191459656 0.5592078566551208 -0.35080069303512573 -0.5296249389648438 0.07825535535812378 -0.11156674474477768 0.6761459112167358 0.05468286573886871 0.2606273293495178 -1.1972777843475342 -0.24754050374031067 -0.30993959307670593 -0.11187836527824402 0.16264836490154266 0.08147206902503967 0.1804269403219223 0.2024574875831604 0.28627002239227295 -0.20372891426086426 -0.21128332614898682 0.07407477498054504 -0.317420095205307 -0.18997442722320557 0.20280687510967255 0.4493458867073059 0.2729976773262024 0.11099271476268768 -0.21206358075141907 -0.04775596410036087 -0.19408953189849854 0.5336496233940125 -0.12153875827789307 -0.6542949676513672 -0.329923152923584 0.13644635677337646 -0.19223591685295105 -0.017319053411483765 0.026925384998321533 -0.03774109110236168 0.05731436610221863 -0.015313968062400818 -0.04342905804514885 -0.0003192226286046207 0.6078982949256897 -0.1350838840007782 0.010186590254306793 0.009337110444903374 0.6763812899589539 0.07850390672683716 -0.08954568952322006 0.09168839454650879 0.4208901822566986 -0.2312772274017334 -0.08373533189296722 0.20039276778697968 -0.1103786751627922 -0.21693694591522217 0.3869134783744812 -0.10924740880727768 0.296079158782959 -0.012014318257570267 0.21224260330200195 0.12669947743415833 -0.13516640663146973 1.1039643287658691 0.3797309994697571 -0.02766314707696438 -0.27645450830459595 0.16428963840007782 0.2799467146396637 -0.09935720264911652 -0.13780763745307922 0.014159086160361767 -0.0828850194811821 0.15773648023605347 0.11049480736255646 0.01533806324005127 -0.6407588720321655 0.22341260313987732 0.614672064781189 -0.11057603359222412 -0.03867759183049202 0.18837600946426392 0.03566005825996399 0.12567470967769623 0.12446705996990204 0.15070310235023499 -0.480569452047348 -0.12271984666585922 0.1236402690410614 0.104617640376091 0.20858803391456604 0.27402549982070923 0.3317074775695801 0.11644057929515839 0.11805414408445358 -0.30664676427841187 0.13208948075771332 -0.10616576671600342 0.42269691824913025 -0.10180206596851349 12.709739685058594 -0.06525973975658417 -0.05720655620098114 0.25649571418762207 -0.08699660003185272 0.08742263168096542 0.06316877901554108 0.16080644726753235 -0.328366756439209 0.11117987334728241 -0.12855254113674164 -0.0707288384437561 0.2515643239021301 -0.31976914405822754 -0.10275761783123016 0.20231053233146667 0.3372059762477875 0.1542637050151825 -0.050597887486219406 -0.17486432194709778 0.08448376506567001 -0.21311867237091064 -0.015017537400126457 0.4640499949455261 -0.13575232028961182 0.26077336072921753 -0.6984207630157471 0.37852227687835693 0.18518808484077454 0.21579012274742126 -0.046222247183322906 -0.07925858348608017 -0.010244306176900864 -0.2541833519935608 -0.2612402141094208 0.11565536260604858 -0.5257323980331421 -0.15635553002357483 0.03174964338541031 -0.44284528493881226 -0.1159079521894455 -0.33673280477523804 0.2666376829147339 -0.08750777691602707 0.09228961169719696 0.22461766004562378 -0.6352883577346802 0.10971297323703766 0.17668835818767548 0.14830459654331207 0.13570454716682434 0.07572703063488007 0.1546117067337036 -0.407931387424469 -0.05209965631365776 -0.35541972517967224 0.380334734916687 -0.016904570162296295 -0.15048900246620178 -0.45781612396240234 0.14977458119392395 -0.11536376923322678 -0.18767374753952026 -0.05392690747976303 -0.19923686981201172 -0.10420233011245728 0.5256990194320679 -0.05655547231435776 0.03150397166609764 0.07723534107208252 -0.0017918895464390516 -0.07222521305084229 -0.03084118664264679 0.011209382675588131 -0.6031481027603149 -0.3286876678466797 -0.3098747730255127 -0.21789881587028503 -0.2995731234550476 -0.32734835147857666 -0.1324601024389267 0.37486422061920166 0.1982739269733429 0.07808630168437958 -0.1857767403125763 -0.030291825532913208 -0.04762248694896698 0.0787871778011322 -0.016048643738031387 -0.09685423225164413 0.02050086110830307 0.12420609593391418 -0.22308658063411713 -0.117682546377182 0.41663795709609985 0.25207042694091797 -0.0660378560423851 -0.022089563310146332 0.018638283014297485 -0.4449318051338196 -0.47600895166397095 0.028280159458518028 -0.3601105213165283 0.38731348514556885 0.0008227365906350315 0.07490204274654388 0.4858182370662689 -0.2958671748638153 -0.2528645992279053 0.02677847445011139 0.06596939265727997 0.0673522874712944 0.06991758197546005 0.4273024797439575 -0.004540643654763699 -0.6429592370986938 0.20757213234901428 -0.06418801099061966 0.21390986442565918 0.5777153968811035 -0.13320392370224 0.28243881464004517 0.004866182338446379 -0.5288421511650085 0.0693049356341362 0.2121492475271225 -0.2305443286895752 0.2868407368659973 0.4009858965873718 -0.013829286210238934 -0.07034081220626831 0.07062752544879913 0.2395447939634323 0.06423588842153549 0.10458248853683472 -0.21121856570243835 0.30130600929260254 -0.1770065426826477 0.11895419657230377 0.09714303910732269 -0.12077941745519638 0.32621607184410095 -0.0852547287940979 -0.43716543912887573 -0.0931023359298706 -0.13898031413555145 -0.15650945901870728 0.3130456805229187 0.10896903276443481 -0.17411521077156067 -0.18832862377166748 -0.19831016659736633 0.02233785390853882 -0.030234530568122864 0.13881582021713257 0.49625882506370544 -0.02864070236682892 0.4091258943080902 0.1800966113805771 0.06145428121089935 -0.0023257634602487087 -1.3360354900360107 -0.30416080355644226 -0.52048659324646 0.14769041538238525 -0.03264125436544418 0.04939306899905205 -0.03883472830057144 0.4143924117088318 -0.2015838921070099 0.35837382078170776 -0.29145941138267517 -0.19564604759216309 -0.0729798898100853 0.23683230578899384 -0.3749789893627167 -0.5422284603118896 -0.45818230509757996 0.10941606014966965 0.1865745186805725
node_14	0.15065865218639374 0.405169814825058 0.40141353011131287 0.07113131880760193 0.7743105292320251 -0.6214519739151001 0.03891613706946373 0.10243689268827438 -0.05028364062309265 -0.5029435157775879 0.20979151129722595 0.13820159435272217 0.1871250569820404 -0.6113633513450623 0.45045894384384155 -0.5068643093109131 0.7419863939285278 0.42405399680137634 0.05263587832450867 -0.24162229895591736 -0.03190891072154045 -0.24219128489494324 0.12350904941558838 0.14697177708148956 -0.26663362979888916 0.10178039968013763 0.5188825726509094 -0.015348127111792564 0.2308981716632843 0.42191869020462036 -0.35873469710350037 0.6346695423126221 0.2296050488948822 0.05016416311264038 -0.6174647808074951 0.023089434951543808 -0.755378007888794 0.3867681920528412 0.14951013028621674 0.059671591967344284 -0.4598366916179657 0.5879077315330505 0.1815854012966156 -0.2702661454677582 0.20070341229438782 -0.2240646332502365 -0.0011309385299682617 0.1524219810962677 0.4884100556373596 -0.16529040038585663 0.17485806345939636 -0.3364735245704651 -0.31307029724121094 0.2712952494621277 -0.06451839208602905 0.008434755727648735 -0.33993491530418396 0.16878877580165863 0.55837082862854 -0.2472320795059204 0.31871339678764343 0.6199210286140442 0.20686966180801392 0.10012994706630707 0.00459055881947279 0.10410156846046448 -0.17508801817893982 -0.4562793970108032 0.17334914207458496 -0.10339971631765366 -0.2847175896167755 0.10571222007274628 0.0995197743177414 -0.21496842801570892 -0.11854580044746399 -0.1951574981212616 0.5561610460281372 -1.7039482593536377 -0.30864816904067993 0.49336355924606323 -0.07618283480405807 -0.1803576946258545 0.5189291834831238 -0.2181328386068344 -0.11839789152145386 -0.6555416584014893 0.18343834578990936 -0.16356194019317627 0.10153981298208237 0.37003135681152344 0.21402159333229065 0.27864670753479004 -0.08682628720998764 -0.12156789004802704 -0.3041979670524597 0.2923864722251892 -0.1928967833518982 0.5937812328338623 -0.16966794431209564 0.15621380507946014 -0.034800950437784195 0.05916585773229599 0.0945175513625145 -0.0018675451865419745 0.19066950678825378 -0.24382691085338593 0.02669357880949974 -0.2791251540184021 0.24800607562065125 0.3492847681045532 0.26945066452026367 -0.154875248670578 -0.2516794800758362 -0.12870289385318756 -0.3645066022872925 0.37884968519210815 -0.22364303469657898 0.22256365418434143 -0.02741353213787079 0.30196425318717957 0.20925748348236084 -0.3342078924179077 0.0024999778252094984 -0.048805415630340576 0.27911219000816345 0.47342485189437866 0.5353113412857056 -0.31902021169662476 -0.0640491470694542 -0.24151262640953064 -0.3902101218700409 -1.1084034442901611 -0.13851669430732727 -0.08458642661571503 0.17930912971496582 0.25435972213745117 -0.02971971407532692 0.03417669236660004 0.11321467161178589 0.10102367401123047 -0.035219185054302216 0.1942005157470703 0.41203320026397705 0.32105547189712524 0.4460626542568207 -0.3111010789871216 0.1502174437046051 -0.15355566143989563 -0.3518467843532562 0.48069024085998535 -0.21454857289791107 0.627196192741394 -0.2104068249464035 0.2567370533943176 -0.24937479197978973 0.7231978178024292 -0.1701381802558899 0.03197602555155754 -0.28178179264068604 0.7185499668121338 0.06142590567469597 -0.1840897649526596 0.3937799632549286 0.010324533097445965 -0.01726527139544487 0.004223093390464783 -0.1487138867378235 -0.1776469200849533 0.14316974580287933 0.630983829498291 -0.18628394603729248 -0.13987384736537933 -0.03329175338149071 -0.5442980527877808 -0.05403827875852585 -0.17003028094768524 0.07724955677986145 -0.3248593509197235 0.2645248770713806 0.10136264562606812 0.1678861677646637 0.131142258644104 0.05812081694602966 -0.20281296968460083 -0.015133759006857872 0.42282193899154663 0.22444820404052734 0.37891721725463867 -0.23584821820259094 0.03182230889797211 -0.45489203929901123 0.04707295447587967 0.4624396562576294 -0.4770604074001312 0.13806340098381042 0.015805399045348167 0.16222819685935974 0.12411075830459595 0.5364853143692017 -0.03851351514458656 -0.4028143882751465 -0.17373625934123993 0.4165441393852234 -0.22929346561431885 -0.08046568930149078 0.2713131904602051 -0.11711138486862183 -0.30432236194610596 -0.5128228068351746 0.32260724902153015 -0.10464554280042648 0.7688573598861694 -0.09300218522548676 -0.08573968708515167 0.5539072155952454 0.007137795444577932 0.0025863449554890394 -0.5984200835227966 -0.39818060398101807 -1.11671781539917 0.262795627117157 0.1627385914325714 0.08978001773357391 -0.7884650230407715 0.3907758593559265 0.22130493819713593 -0.02919597551226616 0.012034369632601738 0.41153955459594727 0.021253829821944237 0.025266556069254875 -0.1312895268201828 -0.3618752956390381 0.009307529777288437 0.23514267802238464 -0.14351920783519745 -0.5219340920448303 0.4616629481315613 0.06864214688539505 0.1090693399310112 -0.8238625526428223 0.14679957926273346 -0.2686917185783386 0.3655484616756439 -0.2259802669286728 -0.10843445360660553 -0.01990339159965515 0.5734757781028748 -0.13493403792381287 0.33322060108184814 0.006979793310165405 0.06664122641086578 0.0879497230052948 0.3324969708919525 0.0868372768163681 0.016115814447402954 0.08533667027950287 -0.06469138711690903 -0.09473639726638794 -0.32008999586105347 -0.06729676574468613 -0.027837445959448814 0.15038277208805084 -0.6122455596923828 -0.0011944044381380081 -0.14458414912223816 0.03888647258281708 0.17340926826000214 -0.23046982288360596 0.04024634510278702 0.25161099433898926 0.14373111724853516 0.06775593012571335 0.1346905678510666 0.054220255464315414 0.40879297256469727 -0.13056805729866028 0.018547583371400833 -0.02879590354859829 -0.2926187217235565 0.08113762736320496 0.029738789424300194 -0.26862165331840515 -0.4645746648311615 0.18487301468849182 -0.43637657165527344 0.04941045492887497 -0.2968186140060425 -0.04088255390524864 0.019256219267845154 -0.07153603434562683 0.2915390431880951 -0.5406753420829773 0.3029296100139618 -0.3093224763870239 0.1923217624425888 0.08122441172599792 0.5099970102310181 0.6113283038139343 0.40926194190979004 -0.21437034010887146 -0.010894810780882835 -0.36476463079452515 -0.06072206795215607 0.206404447555542 -0.38614150881767273 0.2031434029340744 -0.09342531859874725 0.06942344456911087 0.053026020526885986 0.03027595579624176 -0.04892639443278313 -0.15242867171764374 0.31161943078041077 -0.0684509202837944 -0.0002748469705693424 0.22873103618621826 -0.1412825584411621 0.4520570933818817 0.16301533579826355 -0.03105567954480648 -0.21913090348243713 -0.3669906556606293 -0.12697908282279968 -0.29652321338653564 0.14012110233306885 0.039267465472221375 -0.1591755449771881 0.24590492248535156 0.26895782351493835 1.6704251766204834 1.1056455373764038 0.03515489026904106 0.46262049674987793 0.39588722586631775 -0.08687084168195724 -0.05267825350165367 -0.16739754378795624 -0.2715612053871155 -0.012529745697975159 0.07327079027891159 -0.515595555305481 0.21698567271232605 -0.05632425844669342 0.19053667783737183 -0.19713978469371796 0.43234723806381226 -0.13159164786338806 0.356071799993515 -0.6074988842010498 0.2043536901473999 -0.16418050229549408 -0.12081311643123627 -0.5238630175590515 0.29281121492385864 0.2116716206073761 0.08769792318344116 -0.06942766904830933 -0.24903224408626556 -0.08694213628768921 -0.3300122618675232 0.7649087905883789 -0.17204532027244568 -0.3990268111228943 -0.18014931678771973 -0.317170649766922 -1.2181825637817383 -0.21148931980133057 0.05403860658407211 -0.01733626425266266 0.014196736738085747 0.08036275953054428 0.5225558280944824 -0.6025528907775879 0.07811686396598816 0.013637344352900982 0.7481454610824585 0.34315526485443115 0.4120720326900482 -0.23741880059242249 -0.36938247084617615 0.4454670548439026 0.0955578088760376 0.44615405797958374 0.1850678026676178 -0.6218905448913574 -0.16233335435390472 0.2288489043712616 0.3094325065612793 0.09622817486524582 0.13221226632595062 0.28008437156677246 0.3055078685283661 0.2283005565404892 -0.30250948667526245 0.1865173578262329 0.2577458620071411 0.431069016456604 -0.36112815141677856 0.20395514369010925 0.11407139152288437 -0.22575537860393524 -0.10829001665115356 0.4731512665748596 0.27905991673469543 0.14154091477394104 -0.3769988417625427 0.17863154411315918 -0.028701549395918846 -0.5484931468963623 -0.40911048650741577 -0.31132835149765015 -0.27847766876220703 -0.4926101863384247 -0.16668783128261566 0.05909010022878647 -0.020895004272460938 -0.5213866233825684 -0.6300737857818604 0.3063107430934906 0.5574979186058044 -0.19025878608226776 0.5866267085075378 -0.11996720731258392 -0.35970044136047363 0.11270876973867416 -0.498274564743042 -0.10414605587720871 -0.4147857129573822 -0.15474319458007812 -0.10372091829776764 -0.11077045649290085 0.4818306565284729 0.16722643375396729 -0.00822940468788147 0.06696568429470062 0.05051247775554657 -0.1478905826807022 -0.006307895295321941 0.29463204741477966 -0.29711243510246277 -0.12125518918037415 -0.20783385634422302 0.33397960662841797 0.07537241280078888 0.24106620252132416 -0.48603320121765137 -0.018194444477558136 -0.29174792766571045 0.07714460790157318 -0.08955126255750656 0.4870830774307251 -0.35738879442214966 -2.7733001708984375 0.21955081820487976 -0.15936096012592316 0.015671228989958763 0.06309066712856293 0.08456826210021973 0.22799789905548096 -0.20715861022472382 -0.18471261858940125 0.1649964153766632 0.3598753809928894 -0.040335968136787415 0.22830134630203247 -0.1406550407409668 0.08374350517988205 0.28276583552360535 -0.031300030648708344 0.1618330031633377 0.4484301507472992 0.22113069891929626 0.1914902627468109 0.08850975334644318 0.23415671288967133 -0.03706340119242668 0.02065129205584526 0.003158658742904663 0.10077457129955292 0.19497768580913544 -0.02237679436802864 -0.11105602979660034 -0.13614904880523682 -0.009570648893713951 -0.15410566329956055 -0.3484315872192383 -0.019672494381666183 0.6759583353996277 -0.4055585563182831 -0.4351211488246918 0.3013862669467926 0.12017323076725006 0.6386059522628784 0.037212491035461426 0.09139909595251083 -1.5566647052764893 -0.144415944814682 -0.4165595471858978 -0.043659280985593796 0.12802335619926453 0.016043078154325485 0.3489844799041748 0.22087621688842773 0.22600272297859192 -0.15953879058361053 -0.2593702971935272 0.06385527551174164 -0.10246481001377106 -0.16327866911888123 0.2669617533683777 0.2785252630710602 0.18112687766551971 0.21706508100032806 -0.35366448760032654 0.11867572367191315 0.009825090877711773 0.5649258494377136 -0.1857418715953827 -0.2714134752750397 -0.39800888299942017 -0.029585322365164757 -0.2702275216579437 -0.09838789701461792 0.061562538146972656 0.12197225540876389 0.284207284450531 -0.0898328647017479 0.0627652257680893 -0.3350690007209778 0.5480088591575623 -0.05234704166650772 0.08932001888751984 0.0695565938949585 0.6868494749069214 0.23608249425888062 -0.002722039818763733 0.047284986823797226 0.5171002745628357 -0.36748069524765015 -0.0030880942940711975 0.1677573323249817 -0.07692849636077881 -0.0831335186958313 0.5053954124450684 -0.06476958096027374 0.14514821767807007 -0.007596015930175781 0.32848840951919556 0.08691267669200897 -0.011342376470565796 1.971116542816162 0.13131025433540344 0.006265865173190832 -0.278666615486145 0.11647982895374298 0.33879971504211426 -0.009301889687776566 -0.017984211444854736 0.13939328491687775 -0.15020862221717834 0.024348072707653046 0.09401842206716537 -0.10264241695404053 -0.5085147619247437 0.2605923116207123 0.5734367370605469 -0.20908382534980774 0.00576868187636137 0.19612231850624084 -0.21047386527061462 0.3232697546482086 0.049577586352825165 0.521769642829895 -0.380288690328598 0.15203337371349335 0.1976012885570526 0.22236275672912598 0.3162812888622284 0.1325158327817917 0.40018337965011597 0.06599543988704681 0.17596058547496796 -0.1526631861925125 0.2634375989437103 -0.04260987043380737 0.6273009181022644 -0.4272755980491638 11.69757080078125 -0.1749866008758545 -0.10167112946510315 0.27973249554634094 0.039975591003894806 0.0866890549659729 -0.009661704301834106 0.1232512816786766 -0.37736886739730835 0.1941967010498047 -0.09720387309789658 -0.17126843333244324 0.07270565629005432 -0.6012855768203735 -0.05500694364309311 0.253596693277359 0.24245475232601166 0.23014330863952637 -0.18378594517707825 0.009186690673232079 0.11157297343015671 -0.17471282184123993 -0.03816311061382294 0.5164732933044434 -0.09485509246587753 0.2637854218482971 -0.7076131105422974 0.4549907147884369 0.16879510879516602 0.1643102765083313 0.12551406025886536 -0.16042685508728027 -0.03752642124891281 -0.27345073223114014 -0.3054232597351074 0.17122767865657806 -0.71685791015625 -0.14829930663108826 0.03133796900510788 -0.5299595594406128 -0.05963306128978729 -0.402126669883728 0.10344412177801132 -0.15050248801708221 0.23692002892494202 0.3694572448730469 -1.0825942754745483 0.22419604659080505 0.3324722349643707 0.04156988859176636 0.22571301460266113 0.21731553971767426 0.09680062532424927 -0.23557531833648682 0.20489954948425293 -0.4604695737361908 0.4981669783592224 0.09711461514234543 -0.22678372263908386 -0.37533316016197205 -0.02029641717672348 0.05030597746372223 -0.20378826558589935 -0.036244891583919525 -0.21647807955741882 -0.12166126817464828 0.5026140213012695 -0.15664342045783997 0.1454295814037323 0.1354871541261673 -0.020971596240997314 -0.16455692052841187 0.12435410916805267 0.17714330554008484 -0.7252072095870972 -0.35044193267822266 -0.5129700899124146 -0.11857973784208298 -0.3735145330429077 -0.29151642322540283 -0.11694739758968353 0.47547492384910583 0.1263822317123413 -0.0552155002951622 -0.4661538302898407 0.04036523029208183 0.21055230498313904 0.09961314499378204 0.07669952511787415 -0.35734984278678894 0.152540385723114 0.2824840545654297 -0.1228063702583313 -0.47248363494873047 0.2325381338596344 0.35199522972106934 -0.12098801136016846 -0.043167367577552795 0.018649056553840637 -0.44916221499443054 -0.4439506530761719 0.16343313455581665 -0.42176899313926697 0.24638687074184418 -0.020105011761188507 0.0873909443616867 0.5059971213340759 -0.529232919216156 -0.11707951873540878 0.04297099635004997 0.09530331939458847 -0.26346874237060547 0.15252843499183655 0.35013943910598755 0.0007453287835232913 -0.5978166460990906 0.06785546988248825 0.05721459910273552 0.11838268488645554 0.6009137630462646 -0.16288751363754272 0.24603509902954102 -0.0643664225935936 -0.4927183985710144 -0.025966715067625046 0.0921209454536438 -0.13416863977909088 0.35398611426353455 0.5171025991439819 -0.012902764603495598 0.1436590850353241 0.011242212727665901 0.13985475897789001 0.07774440944194794 0.17936328053474426 -0.20553064346313477 0.13487273454666138 -0.1377645581960678 0.20815172791481018 0.07300706952810287 -0.15731045603752136 0.30078551173210144 -0.13207489252090454 -0.4234236478805542 -0.17796894907951355 0.15719300508499146 -0.20825576782226562 -0.05938277766108513 0.17248815298080444 -0.007578134536743164 -0.22948896884918213 -0.3921085298061371 -0.11526178568601608 0.06867266446352005 0.3328137993812561 0.4091925323009491 0.027972519397735596 0.2929375171661377 0.23055756092071533 -0.07778435945510864 0.06170785054564476 -1.033111810684204 -0.4452201724052429 -0.6741203665733337 0.5277613401412964 0.030227189883589745 0.11446678638458252 -0.1313527673482895 0.4118773341178894 0.0023315749131143093 0.13954225182533264 0.02225947007536888 -0.02536097913980484 -0.06374575197696686 0.39136672019958496 -0.37252557277679443 -0.027798473834991455 -0.47498127818107605 0.1437864750623703 0.17305681109428406
node_44	0.06751265376806259 0.4505140781402588 0.4064767360687256 -0.22001329064369202 0.5941511392593384 -0.5139223337173462 0.12420623004436493 0.22570383548736572 -0.09824530780315399 -0.3045949339866638 0.0333184078335762 0.29609203338623047 0.2997368574142456 -0.41720050573349 0.29865309596061707 -0.6051253080368042 0.8680911064147949 0.352558434009552 0.013360172510147095 -0.09594899415969849 0.041353434324264526 -0.1443605273962021 0.13528680801391602 0.17482195794582367 -0.22104708850383759 0.1338975727558136 0.45469123125076294 0.02387668751180172 0.29026126861572266 0.329124391078949 -0.47682666778564453 0.591681957244873 0.21443980932235718 0.015106387436389923 -0.5460439324378967 -0.011125236749649048 -0.7698811292648315 0.29790401458740234 0.07762379199266434 0.1868370622396469 -0.4763435125350952 0.2906555235385895 0.21259132027626038 -0.17915642261505127 0.15808013081550598 -0.22394435107707977 0.08323995769023895 0.009465575218200684 0.3982376456260681 -0.009458689950406551 0.15486645698547363 -0.31719452142715454 -0.1578933298587799 0.30193421244621277 0.09393324702978134 0.06329098343849182 -0.24785113334655762 0.32765907049179077 0.5899480581283569 -0.1358942836523056 0.16291543841362 0.7193843722343445 0.10872703790664673 0.00026748431264422834 0.08164281398057938 0.10310322046279907 -0.17944025993347168 -0.42744582891464233 0.05435534566640854 -0.0962378978729248 -0.05984581634402275 0.10447786748409271 0.0869208574295044 -0.2455226480960846 -0.19917628169059753 -0.08868097513914108 0.5998505353927612 -1.8124885559082031 -0.29942983388900757 0.6166749000549316 -0.0880744457244873 -0.3295314908027649 0.41651326417922974 -0.21187244355678558 -0.008272423408925533 -0.5264183282852173 0.19548693299293518 -0.09696967899799347 0.1272248476743698 0.29772961139678955 0.32715487480163574 0.2914832532405853 -0.13138443231582642 -0.03354440629482269 -0.27417176961898804 0.19895780086517334 -0.17834918200969696 0.48746156692504883 -0.3067591190338135 0.09094041585922241 0.03833821043372154 0.07561260461807251 -0.053154200315475464 -0.1386948823928833 0.08600001782178879 -0.15998362004756927 0.08878671377897263 -0.22319316864013672 0.3323792815208435 0.2722547650337219 0.3159033954143524 -0.026676630601286888 -0.06326949596405029 -0.06459598988294601 -0.28547823429107666 0.29416707158088684 -0.12774859368801117 0.14262451231479645 0.0797702893614769 0.3984980583190918 0.2821525037288666 -0.41927123069763184 0.4286237359046936 0.04331349581480026 0.30768918991088867 0.6242803335189819 0.43012791872024536 -0.3446965217590332 -0.2362872213125229 -0.2634970545768738 -0.45569127798080444 -1.056903600692749 -0.15464180707931519 0.002686152933165431 0.31495970487594604 0.30649682879447937 -0.04137132316827774 0.0017675509443506598 0.007087595760822296 0.013875354081392288 -0.25045016407966614 0.21484223008155823 0.36603254079818726 0.17317889630794525 0.6345293521881104 -0.25229495763778687 0.09997062385082245 -0.18636541068553925 -0.20845377445220947 0.5154645442962646 -0.22226351499557495 0.7649472951889038 -0.061465442180633545 0.2786159813404083 -0.2827719449996948 0.7569721937179565 -0.29240745306015015 -0.06186739355325699 -0.3523406684398651 0.5332953929901123 -0.0015748590230941772 -0.05433806777000427 0.42426031827926636 -0.10647571086883545 0.08175086975097656 0.07664128392934799 0.029835935682058334 0.04668116569519043 0.15016117691993713 0.5842491388320923 -0.0845964103937149 -0.10484757274389267 -0.032765425741672516 -0.3533308207988739 0.19645190238952637 0.06340688467025757 0.04361569508910179 -0.282736599445343 0.22002583742141724 0.14735372364521027 0.2755579352378845 0.11176520586013794 0.09099242091178894 -0.3173068165779114 0.01816127821803093 0.2362847924232483 0.15422265231609344 0.2639099955558777 -0.08368315547704697 0.049476444721221924 -0.6032360792160034 -0.02653522416949272 0.4540216326713562 -0.3462139964103699 0.12143349647521973 0.09533083438873291 0.21369266510009766 0.0554271936416626 0.4226323068141937 -0.09026934206485748 -0.3918142318725586 -0.2331780046224594 0.4386732578277588 -0.2554245591163635 -0.019346898421645164 0.4192981719970703 -0.05016372725367546 -0.3196154236793518 -0.43688392639160156 0.47380924224853516 -0.07448303699493408 0.5473603010177612 -0.09099798649549484 -0.3365309238433838 0.30306488275527954 0.10104571282863617 -0.16820785403251648 -0.480670303106308 -0.4033207297325134 -1.0419278144836426 0.23068177700042725 0.0522923618555069 -0.008515780791640282 -1.1312979459762573 0.370087593793869 0.30960559844970703 -0.2096303403377533 -0.006704738363623619 0.2515549659729004 0.25577396154403687 0.1478797346353531 -0.08624967187643051 -0.5980660915374756 0.05098097771406174 0.431144654750824 0.01643211767077446 -0.5252766013145447 0.5200297236442566 -0.06604267656803131 0.02849154733121395 -0.7850661277770996 0.17295029759407043 -0.26051220297813416 0.2443184107542038 -0.1219949945807457 -0.21555094420909882 0.027570772916078568 0.35534924268722534 0.05613011121749878 0.19510862231254578 0.09337680041790009 0.14279797673225403 0.2199639081954956 0.3458516597747803 0.22634050250053406 0.11155125498771667 0.21489831805229187 -0.08637591451406479 0.04221704229712486 -0.3356635570526123 -0.03679441288113594 0.14926153421401978 0.08451595902442932 -0.5308535695075989 -0.14591261744499207 -0.08362843096256256 0.08210243284702301 0.20804011821746826 -0.22513887286186218 -0.08344920724630356 0.18204057216644287 0.222103089094162 0.0632142499089241 0.12775415182113647 0.09488175809383392 0.4604980945587158 -0.1388002336025238 -0.032209254801273346 -0.17691326141357422 -0.2565445005893707 0.2240208089351654 -0.09024481475353241 -0.42471665143966675 -0.3954845666885376 0.13436315953731537 -0.4249391555786133 0.06956781446933746 -0.5099431872367859 -0.0694524273276329 0.05691945180296898 -0.09506802260875702 0.25117939710617065 -0.43573784828186035 0.1744270771741867 -0.20681814849376678 0.376316636800766 0.04006054252386093 0.31821316480636597 0.5917256474494934 0.374959796667099 -0.4390546679496765 -0.0909653753042221 -0.2149491161108017 -0.1091967448592186 0.17746701836585999 -0.3201594948768616 0.20245644450187683 -0.18604466319084167 0.023876911029219627 0.06567410379648209 -0.04349253699183464 0.030269518494606018 -0.21950924396514893 0.3321254849433899 0.05149170756340027 -0.026901451870799065 -0.0014004111289978027 -0.23172667622566223 0.4696183204650879 0.08621054887771606 -0.09454255551099777 -0.26233381032943726 -0.29399001598358154 -0.16205590963363647 -0.12390436232089996 0.09384113550186157 0.199273943901062 -0.1031818836927414 0.28591132164001465 0.3793712556362152 1.3747780323028564 0.8270412683486938 0.08630095422267914 0.4396592080593109 0.4072299897670746 -0.006151105742901564 -0.1429760754108429 -0.03328685462474823 -0.32302895188331604 -0.13797292113304138 -0.08270039409399033 -0.5289880633354187 0.32002633810043335 -0.07162418961524963 0.07827992737293243 -0.09069818258285522 0.479839026927948 -0.1424010694026947 0.3355705440044403 -0.5892348289489746 0.15260374546051025 -0.16304424405097961 -0.049545612186193466 -0.4468182921409607 0.19672083854675293 0.44725513458251953 -0.05339859053492546 -0.0329187773168087 -0.15854394435882568 0.23931841552257538 -0.4115409851074219 0.8017086982727051 -0.046618781983852386 -0.506774365901947 -0.19936254620552063 -0.2926817834377289 -1.3983582258224487 -0.11413520574569702 0.0957561656832695 -0.0756542757153511 -0.013883828185498714 -0.02193397842347622 0.37922558188438416 -0.6210913062095642 0.1507316380739212 0.07187335193157196 0.49348530173301697 0.4912099242210388 0.3427567481994629 -0.27404844760894775 -0.2209950089454651 0.34177714586257935 0.059321679174900055 0.46261125802993774 0.08688491582870483 -0.22228489816188812 -0.041712187230587006 0.16169562935829163 0.46060866117477417 -0.039535075426101685 0.18352721631526947 0.15871399641036987 0.04586225003004074 0.3105340898036957 -0.25854289531707764 0.23368661105632782 0.192825585603714 0.3106710910797119 -0.4377070665359497 0.30083557963371277 0.2395009696483612 -0.28515276312828064 -0.10234634578227997 0.30733761191368103 0.16878658533096313 0.07902240008115768 -0.19128310680389404 0.1388666331768036 -0.05568460747599602 -0.8620747327804565 -0.2889981269836426 -0.26064616441726685 -0.3537418842315674 -0.49485549330711365 -0.06806507706642151 -0.05747056007385254 0.18560633063316345 -0.3242904543876648 -0.5420297384262085 0.25853821635246277 0.5782659649848938 -0.14676709473133087 0.3875703811645508 0.049264684319496155 -0.44057080149650574 0.05149278789758682 -0.45596617460250854 -0.1769399642944336 -0.34374725818634033 -0.05749961733818054 0.021791651844978333 -0.03618941456079483 0.3902645707130432 0.13824895024299622 0.09650875627994537 0.18763169646263123 0.020787740126252174 -0.16483744978904724 0.00021862487483303994 0.5189670920372009 -0.3145309090614319 0.0376509353518486 -0.2243644893169403 0.4080652594566345 0.16555744409561157 0.3312700390815735 -0.5195993185043335 -0.037933189421892166 -0.23708969354629517 0.1958635300397873 -0.10460028052330017 0.4972423017024994 -0.4991041123867035 -3.271569013595581 0.29001134634017944 -0.11645611375570297 -0.06011911481618881 0.10736530274152756 0.11258174479007721 0.036527249962091446 -0.26349613070487976 -0.28250381350517273 0.10658837854862213 0.23853670060634613 0.11258789151906967 0.138266921043396 -0.0714169591665268 0.1396332085132599 0.14286139607429504 0.005916900932788849 -0.026770006865262985 0.491606205701828 0.11850903928279877 0.14695137739181519 0.1453375667333603 0.17426042258739471 0.10182875394821167 -0.1410890817642212 0.14315348863601685 0.08069141209125519 0.22289660573005676 -0.04936511069536209 -0.12230672687292099 -0.13102947175502777 0.05710354447364807 -0.18795792758464813 -0.34265848994255066 -0.0957137793302536 0.6059210300445557 -0.45609474182128906 -0.4535922706127167 0.32301878929138184 -0.10018903017044067 0.6561270952224731 0.03473799675703049 0.14632317423820496 -1.5714406967163086 -0.1938573569059372 -0.5860193967819214 -0.08347617089748383 0.139709934592247 0.09014205634593964 0.30626702308654785 0.2899130582809448 0.2887464463710785 -0.14442729949951172 -0.34622979164123535 0.023782555013895035 -0.3259739279747009 -0.11813081800937653 0.28245288133621216 0.42158135771751404 0.02648739516735077 0.18739426136016846 -0.2067069411277771 0.04758886992931366 -0.19327175617218018 0.691254734992981 -0.12914404273033142 -0.460254043340683 -0.3620738387107849 0.02130279317498207 -0.2456171214580536 -0.1565794050693512 0.033238571137189865 0.010781258344650269 0.2229529470205307 -0.10350091755390167 0.055237941443920135 -0.06862042844295502 0.4961864650249481 -0.07900778949260712 0.0384506992995739 0.06738100945949554 0.6967014670372009 0.012637151405215263 -0.05712142586708069 0.0009267193963751197 0.43128907680511475 -0.37387344241142273 0.06495943665504456 0.1886339783668518 -0.2857363820075989 -0.15058593451976776 0.4123283326625824 -0.19105586409568787 0.22439616918563843 -0.042528919875621796 0.2894389033317566 0.19480648636817932 -0.19607549905776978 1.9491684436798096 0.3341469168663025 0.05328955873847008 -0.3963136076927185 0.1857682168483734 0.3251013457775116 -0.024595268070697784 -0.07274257391691208 0.03919244930148125 -0.1471645087003708 -0.06210912764072418 0.10673189163208008 -0.10476299375295639 -0.41265568137168884 0.3142086863517761 0.7154619097709656 -0.12649700045585632 0.060887545347213745 0.18391099572181702 -0.45621931552886963 0.19395384192466736 0.0750381126999855 0.12079319357872009 -0.359131395816803 -0.06931831687688828 0.0698639303445816 0.2820534110069275 0.23540732264518738 0.2820240557193756 0.43669649958610535 0.04043314605951309 0.18279871344566345 -0.16195663809776306 0.13352566957473755 -0.01564737968146801 0.5529398322105408 -0.2135733664035797 12.254528045654297 -0.20861497521400452 -0.13561242818832397 0.32859107851982117 -0.10696583241224289 0.06254112720489502 0.039941273629665375 0.04395001381635666 -0.43606215715408325 0.1878214329481125 0.009695458225905895 -0.1463141292333603 0.0912141427397728 -0.4606897830963135 -0.1302953064441681 0.25438594818115234 0.45091259479522705 0.27157825231552124 0.03547896072268486 -0.03173217922449112 0.13671648502349854 -0.10129496455192566 -0.06887923926115036 0.7235336303710938 -0.04206797480583191 0.29922324419021606 -0.6812453269958496 0.3822822570800781 0.2744229733943939 0.17611929774284363 0.032226044684648514 -0.07936151325702667 -0.1939675509929657 -0.3356352746486664 -0.22547587752342224 0.19351600110530853 -0.4820560812950134 -0.20396018028259277 -0.008995983749628067 -0.5304096341133118 -0.08895048499107361 -0.3380461633205414 0.27176380157470703 -0.08123026043176651 0.14633989334106445 0.2647258937358856 -0.7758868932723999 0.21050336956977844 0.20522773265838623 0.17407634854316711 0.20090119540691376 0.25096237659454346 0.13764287531375885 -0.36656948924064636 0.012348301708698273 -0.3746226727962494 0.49558109045028687 -0.04847971349954605 -0.2424645721912384 -0.7354753017425537 -0.01853693649172783 -0.018293090164661407 -0.21956884860992432 -0.05424300953745842 -0.07164572179317474 -0.13832704722881317 0.5868420600891113 -0.09706266224384308 0.11244508624076843 0.03329936042428017 0.05979841202497482 -0.17488044500350952 0.05308752506971359 -0.020427584648132324 -0.5649155974388123 -0.44471168518066406 -0.2168848216533661 -0.1612308919429779 -0.26506564021110535 -0.3439074456691742 0.07143920660018921 0.4903718829154968 0.3130946755409241 0.0721723884344101 -0.24645905196666718 -0.05080217123031616 0.005058902315795422 0.117311492562294 -0.09803983569145203 -0.21081814169883728 0.1849161833524704 0.33655446767807007 -0.10519690811634064 -0.3729533553123474 0.4309374690055847 0.2953718900680542 -0.10761739313602448 -0.08933033794164658 -0.04080185294151306 -0.3089251220226288 -0.4233364760875702 -0.025210324674844742 -0.4532165229320526 0.4247874915599823 0.05085514113306999 0.03856496512889862 0.4691929817199707 -0.3040899336338043 -0.19138877093791962 0.12060201168060303 0.16790169477462769 -0.09342813491821289 0.002261358080431819 0.394471138715744 -0.002890991745516658 -0.6603662371635437 0.085203155875206 -0.021518297493457794 0.2066936492919922 0.5290926694869995 -0.14501500129699707 0.14573857188224792 -0.045445941388607025 -0.5136286020278931 0.1431254744529724 0.2724870443344116 -0.14759096503257751 0.24426287412643433 0.4278653562068939 0.08149271458387375 -0.11245453357696533 -0.006711702793836594 -0.0958060473203659 0.22876816987991333 0.14221163094043732 -0.2717418670654297 0.12856000661849976 -0.23953233659267426 0.06821219623088837 0.0056405989453196526 -0.09854289144277573 0.3656574487686157 -0.10530637949705124 -0.508280336856842 -0.10427200049161911 -0.061585620045661926 -0.2579629123210907 0.21485494077205658 0.14320290088653564 -0.18510405719280243 -0.247168630361557 -0.2925184965133667 -0.04769258201122284 -0.07910250127315521 0.15683817863464355 0.4979838728904724 0.03772778809070587 0.365742027759552 0.22797706723213196 0.11063714325428009 0.26857370138168335 -1.119063138961792 -0.6486090421676636 -0.5250354409217834 0.4518619775772095 -0.04794464632868767 0.2704576253890991 -0.12933166325092316 0.4401610791683197 -0.17341944575309753 0.21395286917686462 -0.15020258724689484 -0.1569606363773346 -0.11783051490783691 0.34516972303390503 -0.33111804723739624 -0.4207534193992615 -0.5843151807785034 0.11111767590045929 0.23331701755523682
node_28	0.02778179571032524 0.39151453971862793 0.2644255757331848 -0.13894495368003845 0.6965619921684265 -0.6055330038070679 0.08367760479450226 0.1202501505613327 -0.1970960795879364 -0.5092895030975342 0.16459587216377258 0.15041126310825348 0.23509572446346283 -0.8853414058685303 0.3971186876296997 -0.42175528407096863 0.6322131156921387 0.3018997311592102 0.09849043190479279 -0.2720566391944885 -0.04302108287811279 -0.27325502038002014 0.25649499893188477 0.2660263478755951 -0.20366016030311584 0.19341695308685303 0.5474600791931152 0.06674053519964218 0.23804131150245667 0.3691433072090149 -0.3540329337120056 0.46532559394836426 0.16510561108589172 0.019087066873908043 -0.39748844504356384 0.08569113910198212 -0.7742601633071899 0.3007948398590088 0.14091087877750397 0.08271396905183792 -0.42557859420776367 0.720878005027771 0.3669630289077759 -0.18887975811958313 0.1629767268896103 -0.19455444812774658 0.20666682720184326 0.42732080817222595 0.38961800932884216 -0.0926748737692833 0.15335813164710999 -0.3558320701122284 -0.2130247950553894 0.28818702697753906 -0.0654771476984024 0.12107982486486435 -0.2662121653556824 0.17962482571601868 0.531524658203125 -0.147248312830925 0.14667658507823944 0.8083786964416504 0.12628546357154846 -0.03518984839320183 0.05766914039850235 0.07679541409015656 -0.20368647575378418 -0.37668073177337646 0.15041348338127136 -0.058651648461818695 -0.12580013275146484 0.34535059332847595 0.08781375735998154 -0.5703626871109009 -0.020219936966896057 -0.10572930425405502 0.41372784972190857 -1.8325656652450562 -0.2587309777736664 0.6285189390182495 -0.008299587294459343 -0.1988852471113205 0.5333132743835449 -0.18152622878551483 -0.05062898248434067 -0.6279318332672119 0.23827949166297913 -0.14418146014213562 0.13183769583702087 0.44434094429016113 0.37860220670700073 0.21708253026008606 -0.012296855449676514 0.15644386410713196 -0.1866995096206665 0.11343308538198471 -0.2625921368598938 0.10950861871242523 -0.24236378073692322 0.07711660861968994 0.17258863151073456 0.033259302377700806 0.08710648864507675 0.0076975650154054165 0.25900763273239136 0.06296226382255554 0.054497212171554565 -0.320908784866333 0.28395771980285645 0.41723406314849854 0.31930452585220337 -0.03160351887345314 -0.07299160957336426 -0.08119004964828491 -0.27834686636924744 0.1929316222667694 -0.15093430876731873 0.15471121668815613 0.11051663756370544 0.5403663516044617 0.33774739503860474 -0.3162074089050293 0.176082581281662 0.0061807334423065186 0.22308436036109924 0.702808141708374 0.5487568378448486 -0.3510931134223938 -0.19147834181785583 -0.30394768714904785 -0.308876633644104 -0.770465612411499 -0.1521824449300766 -0.08963179588317871 0.1447599232196808 0.2733372449874878 -0.13697877526283264 0.08154235780239105 0.07546202838420868 -0.018454784527420998 -0.14038172364234924 0.15332698822021484 0.49709925055503845 0.166426420211792 0.7396029233932495 -0.1056460291147232 0.10555963963270187 -0.21603670716285706 -0.3504273593425751 0.5026868581771851 -0.2364455908536911 0.7443313598632812 -0.127957284450531 0.38505321741104126 -0.18777082860469818 0.7320415377616882 -0.25034382939338684 -0.2802893817424774 -0.4550120234489441 0.8195270299911499 -0.05810171365737915 -0.17494837939739227 0.4112545847892761 0.047941889613866806 0.01103506051003933 -0.025750359520316124 -0.07672566175460815 -0.11269241571426392 0.1514897495508194 0.5839941501617432 -0.07818364351987839 -0.10035520792007446 -0.03857995569705963 -0.45296892523765564 0.0457027330994606 -0.08545543998479843 -0.05045643076300621 -0.3149568438529968 0.270918071269989 0.0641031265258789 0.1639237105846405 0.16557899117469788 0.16681133210659027 -0.19032731652259827 -0.1394147276878357 0.21005187928676605 0.24561485648155212 0.18391796946525574 -0.019498353824019432 -0.06893403828144073 -0.562495231628418 0.04332258552312851 0.42129358649253845 -0.28314876556396484 0.1790352761745453 0.05868919938802719 0.08817758411169052 0.08559005707502365 0.4611961841583252 -0.11662541329860687 -0.36075520515441895 -0.11172118037939072 0.5521199107170105 -0.2319219708442688 -0.024419303983449936 0.11995600908994675 -0.1880173683166504 -0.2915748357772827 -0.4914037883281708 0.42210158705711365 -0.07071774452924728 0.48033952713012695 -0.20784494280815125 -0.25587785243988037 0.4520409107208252 0.1522526741027832 -0.26227325201034546 -0.2587014436721802 -0.3993073105812073 -0.7928075194358826 0.3285720646381378 0.16918569803237915 0.020817846059799194 -1.0047906637191772 0.2912525534629822 0.3402986228466034 -0.21702134609222412 0.011658127419650555 0.2117900252342224 0.06478577107191086 0.03357023373246193 -0.09885534644126892 -0.4366621971130371 0.1548556387424469 0.3634900450706482 -0.24543344974517822 -0.5208088159561157 0.3825454115867615 -0.05791220813989639 -0.013789117336273193 -0.5770928263664246 0.1392834186553955 -0.17437410354614258 0.15431424975395203 -0.16312512755393982 0.06578784435987473 -0.02316231280565262 0.3962230384349823 -0.0866270586848259 0.13847075402736664 -0.051725707948207855 -0.10222584009170532 0.07801487296819687 0.2639898955821991 0.4553110599517822 0.013429845683276653 -0.025757398456335068 -0.031855642795562744 -0.06661525368690491 -0.1443522721529007 -0.09059842675924301 0.10548558086156845 0.014517671428620815 -0.445432186126709 -0.1486329883337021 -0.15026429295539856 0.008958356454968452 0.11426856368780136 -0.18359637260437012 0.07490047812461853 0.2174004167318344 0.1719786822795868 0.19403371214866638 0.16040772199630737 0.06856680661439896 0.22383952140808105 -0.23605571687221527 0.050961628556251526 0.14392419159412384 -0.3568066358566284 0.12752030789852142 0.09533621370792389 -0.25886261463165283 -0.5415477156639099 -0.040653858333826065 -0.4106447100639343 0.16947506368160248 -0.3491412103176117 -0.03538211062550545 -0.028049513697624207 -0.06814483553171158 0.17768529057502747 -0.46116262674331665 0.29380089044570923 -0.30961522459983826 0.2644463777542114 0.014349546283483505 0.4582592844963074 0.5604816675186157 0.1612023413181305 -0.17074716091156006 0.11474780738353729 -0.09966497868299484 0.0007965664262883365 0.12566055357456207 -0.2868468463420868 0.07282906025648117 0.022071421146392822 0.10876309126615524 0.10079599916934967 0.003936655819416046 0.12610584497451782 -0.08143140375614166 0.16321341693401337 -0.040904417634010315 0.1891094446182251 0.1364128142595291 -0.09002900123596191 0.5061994791030884 0.011701798997819424 -0.03778068721294403 -0.16363784670829773 -0.2877042293548584 -0.10779528319835663 -0.3028450608253479 0.22885891795158386 0.02614891156554222 -0.07265818864107132 0.2327067255973816 0.4244873523712158 1.2203612327575684 0.636742889881134 0.08222723007202148 0.3254697024822235 0.35998862981796265 -0.21623075008392334 -0.12045421451330185 -0.09935885667800903 -0.368952214717865 -0.02828252874314785 0.20912230014801025 -0.34954649209976196 0.11251188814640045 -0.03996125981211662 0.08132700622081757 0.03814588859677315 0.6709363460540771 -0.2663525342941284 0.2187419980764389 -0.5438966751098633 0.07717667520046234 -0.0908522754907608 -0.09451591223478317 -0.6672030687332153 0.3042145371437073 0.3435039520263672 0.020513517782092094 -0.047111328691244125 -0.24191826581954956 0.3549964129924774 -0.46027040481567383 0.6738747358322144 -0.14962610602378845 -0.5869481563568115 -0.13966268301010132 -0.35041505098342896 -1.0535799264907837 -0.20776455104351044 -0.010331274941563606 0.044611379504203796 -0.035685837268829346 0.12075293064117432 0.5462906360626221 -0.674301266670227 0.21434089541435242 -0.03135877475142479 0.6060320734977722 0.3532366156578064 0.3070926368236542 -0.38484567403793335 -0.1648658812046051 0.34486013650894165 0.08939580619335175 0.4092009663581848 0.26575884222984314 -0.4501665532588959 -0.12996727228164673 0.24913549423217773 0.2745252549648285 0.08301451802253723 0.09654349088668823 0.23648381233215332 0.2375311553478241 0.39253494143486023 -0.2892802357673645 0.21148961782455444 0.35384416580200195 -0.03128442168235779 -0.377826064825058 0.18364101648330688 0.218481183052063 -0.00011038283992093056 -0.06897926330566406 0.22011908888816833 0.27371835708618164 0.020153582096099854 0.08376310765743256 0.19338512420654297 -0.2672020196914673 -0.8893368244171143 -0.45973682403564453 -0.4192314147949219 -0.2775440216064453 -0.37872228026390076 -0.19840288162231445 -0.06554416567087173 0.14289718866348267 -0.3684529662132263 -0.6308352947235107 0.18210375308990479 0.5872178077697754 -0.08146999031305313 0.5848451852798462 0.05351846665143967 -0.4687109887599945 0.09745782613754272 -0.4143645167350769 -0.07965817302465439 -0.3376316726207733 -0.014788907021284103 -0.0701688677072525 -0.1370122879743576 0.521021842956543 0.09532703459262848 0.09425489604473114 0.023715918883681297 0.019918641075491905 -0.1530737578868866 0.0793568342924118 0.38368189334869385 -0.33426469564437866 -0.07421411573886871 -0.1976986825466156 0.28994739055633545 -0.01306285709142685 0.4296722114086151 -0.558789849281311 0.019287746399641037 -0.2454535961151123 0.060058556497097015 -0.1805221289396286 0.5013333559036255 -0.32192033529281616 -2.6889710426330566 0.13839410245418549 0.003613661974668503 -0.12090893089771271 0.054562654346227646 0.22854086756706238 0.19633090496063232 -0.11968658864498138 -0.22846883535385132 0.16197426617145538 0.25003379583358765 0.07982400059700012 0.27067625522613525 -0.11778897047042847 0.024747509509325027 0.009553631767630577 0.11343921720981598 0.14647305011749268 0.469777911901474 0.11628112196922302 0.1649302840232849 0.15694716572761536 0.22323274612426758 -0.12592363357543945 -0.037626009434461594 0.10742515325546265 0.01502128504216671 0.2178088128566742 0.0305014755576849 -0.07586465775966644 -0.002684710081666708 0.061280518770217896 -0.07041469216346741 -0.2144114226102829 -0.04436926171183586 0.536127507686615 -0.38100776076316833 -0.46344226598739624 0.23976314067840576 -0.05304818972945213 0.651282787322998 0.05130606144666672 0.1752542108297348 -1.4909614324569702 -0.38897761702537537 -0.2187255620956421 -0.1244439035654068 0.06947527080774307 -0.023430876433849335 0.16517552733421326 0.04925178736448288 0.26684463024139404 -0.2427116483449936 -0.28581976890563965 -0.026403050869703293 -0.1301734298467636 -0.24529632925987244 0.29471737146377563 0.3560437858104706 0.19241921603679657 0.12053310871124268 -0.31322458386421204 0.015166107565164566 -0.10502737015485764 0.5647855997085571 -0.13894504308700562 -0.5961250066757202 -0.36654895544052124 -0.07576698064804077 -0.13583117723464966 -0.08913271874189377 0.027203001081943512 0.044785939157009125 0.10257824510335922 -0.09924192726612091 -0.04419795796275139 -0.11233481764793396 0.5179149508476257 -0.09382276982069016 0.11866074055433273 0.021340971812605858 0.6984530687332153 0.16713914275169373 -0.023190421983599663 -0.008607027120888233 0.8003591299057007 -0.27557069063186646 -0.3058263659477234 0.12124787271022797 -0.03032243810594082 -0.04348001629114151 0.41888055205345154 -0.0886588841676712 0.15926405787467957 -0.008569374680519104 0.2509710192680359 0.1006430983543396 0.02456473931670189 1.7241581678390503 0.2120729386806488 0.0083042336627841 -0.19764655828475952 0.10750444233417511 0.36172473430633545 0.0055216578766703606 -0.08778294175863266 0.009686708450317383 0.013163715600967407 0.1558312624692917 0.15530428290367126 -0.06746497750282288 -0.5188187956809998 0.27513015270233154 0.6496137380599976 -0.15078437328338623 0.11525791138410568 0.16338276863098145 0.1856689453125 0.21119724214076996 0.07280758023262024 0.6102821826934814 -0.4701140820980072 -0.039217330515384674 0.09256522357463837 0.32752805948257446 0.18266916275024414 0.2606094777584076 0.37786540389060974 0.10276560485363007 0.16531908512115479 -0.35379719734191895 0.24369262158870697 0.021234845742583275 0.7198922038078308 -0.23455679416656494 11.922210693359375 -0.1906093955039978 -0.1142037957906723 0.11387573927640915 -0.09615540504455566 0.07084435969591141 -0.05796012282371521 0.13103514909744263 -0.37677425146102905 0.2821101248264313 -0.016377370804548264 -0.20382004976272583 0.14619837701320648 -0.3777678906917572 -0.08997593820095062 0.22478580474853516 0.24222040176391602 0.21425287425518036 -0.15490959584712982 -0.1586769074201584 0.10839903354644775 -0.08303293585777283 0.03194542974233627 0.5733517408370972 -0.12182097136974335 0.24558089673519135 -0.7450127601623535 0.4207267165184021 0.17376212775707245 0.2232682704925537 0.10546570271253586 -0.042059578001499176 -0.024179037660360336 -0.26199525594711304 -0.31649014353752136 0.09770713746547699 -0.8190317153930664 -0.19886821508407593 0.0227816104888916 -0.5217093825340271 -0.012606000527739525 -0.2907504737377167 0.12800657749176025 -0.02947879210114479 0.214322030544281 0.32195305824279785 -0.8218619227409363 0.05862162634730339 0.20052926242351532 0.14640240371227264 0.2115800678730011 0.10033451020717621 0.057398721575737 -0.44076889753341675 0.1228899210691452 -0.31576237082481384 0.45209646224975586 -0.11451103538274765 -0.20331597328186035 -0.31414347887039185 0.04550178349018097 -0.09049415588378906 -0.14223647117614746 -0.03838782012462616 0.014587449841201305 -0.08114806562662125 0.4743220806121826 -0.17834898829460144 0.3180310130119324 0.1705552339553833 -0.0694442167878151 -0.10802530497312546 0.03839147835969925 0.21349328756332397 -0.6412813067436218 -0.37766024470329285 -0.042117178440093994 -0.1813628375530243 -0.2903192639350891 -0.3293449580669403 -0.18148261308670044 0.4869398772716522 0.17457011342048645 0.09836026281118393 -0.5314801931381226 -0.05220794677734375 -0.0135714216157794 0.11107002198696136 0.07596999406814575 -0.1661706268787384 0.23619836568832397 0.12400873750448227 -0.17495952546596527 -0.22347204387187958 0.36318278312683105 0.25296780467033386 -0.20835652947425842 -0.007127811666578054 0.11078731715679169 -0.4470158517360687 -0.5223240256309509 0.010308290831744671 -0.45237499475479126 0.336414635181427 0.03964877501130104 0.16699525713920593 0.6445620059967041 -0.42385801672935486 -0.34934696555137634 0.14816629886627197 0.08285026252269745 -0.010910695418715477 0.14150694012641907 0.4367706775665283 -0.11278492212295532 -0.6051979064941406 0.06839774549007416 -0.05756494402885437 0.1936805248260498 0.5902682542800903 -0.1969665288925171 0.28432101011276245 -0.03738546743988991 -0.5762335658073425 0.04480251669883728 0.008251568302512169 -0.10116609185934067 0.36774617433547974 0.37392354011535645 -0.107447050511837 -0.22891807556152344 0.021859124302864075 -0.32040196657180786 0.08197920769453049 0.07838725298643112 -0.06701068580150604 0.221604585647583 -0.20103853940963745 0.22786717116832733 0.1287209540605545 -0.14261490106582642 0.40810710191726685 -0.11114181578159332 -0.3964792490005493 -0.2640189826488495 0.13527342677116394 -0.1432761251926422 0.23325958847999573 0.11926352232694626 -0.159157395362854 -0.19612395763397217 -0.2884325683116913 0.05722910165786743 0.09695138782262802 0.07446177303791046 0.4254661500453949 -0.08923009037971497 0.2266005277633667 0.13998214900493622 -0.038751862943172455 -0.06853726506233215 -1.221949577331543 -0.38886725902557373 -0.9611856341362 0.4141242504119873 -0.004602842032909393 0.034441687166690826 -0.12001310288906097 0.2575898766517639 -0.055846624076366425 0.40960654616355896 -0.21936190128326416 -0.15652620792388916 -0.14017760753631592 0.34133943915367126 -0.40273457765579224 -0.4199177622795105 -0.5856078863143921 0.1570550501346588 0.13571900129318237
