node_20	0.019702760502696037 0.1712874174118042 0.07696839421987534 -0.025184011086821556 0.6231839656829834 -0.34643489122390747 0.04507390409708023 0.2341243326663971 -0.1427725851535797 -0.4955235719680786 0.22049444913864136 0.7177473902702332 0.2861256003379822 -0.41135573387145996 0.3180360794067383 -0.009878166019916534 0.6069564819335938 0.21597862243652344 -0.011869996786117554 0.14425206184387207 -0.12169890105724335 0.11435025930404663 0.31702542304992676 0.02575010620057583 -0.28829479217529297 0.3449450135231018 0.3811485469341278 -0.09594570100307465 0.06675280630588531 -0.26756715774536133 -0.05805445834994316 0.2899359464645386 0.04972429201006889 0.24687962234020233 -0.24101272225379944 0.10090301930904388 -0.3608221411705017 0.21680204570293427 0.489199161529541 0.03041791543364525 -0.5355691313743591 0.5932289958000183 0.23247794806957245 -0.08233584463596344 0.1901991367340088 0.11690101027488708 -0.004188557621091604 0.10982634872198105 0.15288490056991577 0.08215585350990295 0.24087470769882202 -0.3438848853111267 -0.09243506193161011 0.3062184751033783 -0.15158280730247498 0.028655849397182465 -0.17171084880828857 0.5050567388534546 0.22928127646446228 0.07668282091617584 0.1619759052991867 0.2446068972349167 0.15503962337970734 -0.122897207736969 0.2752545177936554 0.18236999213695526 -0.1268858164548874 -0.26526182889938354 0.11880945414304733 0.05196747928857803 -0.014048818498849869 -0.08176492899656296 -0.025358334183692932 0.12786665558815002 0.16029557585716248 -0.25220879912376404 0.4384453296661377 -2.577523946762085 0.03412343189120293 0.7740838527679443 0.14406386017799377 -0.37066933512687683 1.0187036991119385 0.06174322962760925 0.05975394695997238 -0.5821378827095032 0.2526402473449707 -0.26854830980300903 0.08416832983493805 0.4475564956665039 0.36004841327667236 0.11002608388662338 -0.1503913253545761 0.008406184613704681 -0.1755741536617279 0.19958482682704926 -0.1063661202788353 -0.4497103691101074 -0.35078009963035583 -0.11291684955358505 0.1771167814731598 -0.09280920028686523 0.19183766841888428 -0.2189117670059204 0.13675445318222046 0.3196287751197815 -0.13322728872299194 -0.33627185225486755 0.23221813142299652 0.3364816904067993 -0.04254857823252678 0.3106257915496826 -0.3286250829696655 -0.12003376334905624 0.10164545476436615 0.14034980535507202 0.2515714764595032 0.10213184356689453 0.17824336886405945 0.5670156478881836 0.22911863029003143 -0.35529011487960815 0.28228050470352173 -0.1704763025045395 -0.06980837881565094 0.7083414793014526 0.43020087480545044 -0.06197631359100342 -0.06874831765890121 -0.281400591135025 -0.19775554537773132 -1.2196382284164429 -0.04759332537651062 0.14646032452583313 0.026386115700006485 0.2561962902545929 -0.25633662939071655 0.08772825449705124 -0.0906641036272049 0.008451646193861961 -0.1579134464263916 0.051652319729328156 0.06862720102071762 0.15395160019397736 0.7616680860519409 -0.2632704973220825 -0.1154501885175705 -0.08283287286758423 -0.1389952003955841 0.10419248044490814 -0.1806095689535141 0.5003601312637329 0.0002011309115914628 0.3972660005092621 -0.6251323819160461 0.5139128565788269 -0.0525284968316555 -0.12283024191856384 -0.24154525995254517 0.5528987646102905 0.077276811003685 -0.46643728017807007 0.44026491045951843 0.1641446053981781 0.04450470209121704 0.07009703665971756 -0.10081028193235397 -0.1815572828054428 0.023611649870872498 0.689720630645752 0.06232663616538048 0.01430171262472868 0.1583402454853058 -0.2902928590774536 0.08378618955612183 0.03250335156917572 -0.2047298550605774 0.10350270569324493 0.32161745429039 -0.10207473486661911 0.08392427861690521 0.07498646527528763 0.30095699429512024 -0.21233925223350525 0.05278640240430832 0.508298397064209 0.3778700530529022 -0.08997460454702377 -0.2818560302257538 -0.2922772765159607 -0.3689037561416626 0.017223631963133812 0.29230713844299316 0.08778120577335358 0.21356265246868134 0.2973037362098694 0.1315099000930786 -0.046519845724105835 0.22538521885871887 -0.0654572919011116 -0.5380241274833679 -0.30009400844573975 0.44861555099487305 -0.19480448961257935 0.7099974155426025 -0.01757059060037136 -0.34149473905563354 -0.2283116579055786 -0.1113533228635788 0.15715256333351135 -0.10268893837928772 0.7371116876602173 -0.07460548728704453 -0.030509203672409058 0.4004957377910614 0.009860674850642681 -0.38460826873779297 -0.17200547456741333 -0.11347761750221252 -1.1284656524658203 0.3858046233654022 0.20577165484428406 -0.04455261677503586 -0.736996054649353 0.4648204743862152 0.3784360885620117 0.15791359543800354 0.09166841953992844 0.4397408962249756 0.08827239274978638 0.05219494551420212 -0.17923572659492493 -0.5787366032600403 -0.15577375888824463 0.22621828317642212 -0.10616849362850189 0.09695185720920563 0.2948720157146454 -0.011985128745436668 0.23281513154506683 -0.29777830839157104 0.3304557502269745 0.054626017808914185 0.13937953114509583 -0.04102090746164322 -0.09861733019351959 0.15335926413536072 -1.094409465789795 -0.3707628846168518 -0.2539827525615692 -0.17337557673454285 -0.05638423562049866 -0.051076874136924744 0.16308115422725677 0.6153964400291443 -0.20571184158325195 0.07930079102516174 -0.006980558391660452 -0.2190500944852829 -0.47201478481292725 -0.13635554909706116 0.11767910420894623 0.005646619014441967 -0.16517597436904907 -0.29271501302719116 -0.6454372406005859 0.036482833325862885 -0.12803438305854797 -0.05064123123884201 0.15866321325302124 0.29466408491134644 -0.0050438446924090385 0.1485903561115265 0.32267439365386963 0.0037738471291959286 0.03388023376464844 -0.5366528034210205 0.11153288185596466 -0.3554654121398926 -0.3263839781284332 0.0636279284954071 -0.06419703364372253 -0.3524276614189148 -0.5603896379470825 -0.059055011719465256 -0.5042485594749451 0.11964427679777145 -0.4831206798553467 -0.009165626019239426 -0.04274488613009453 -0.1629524528980255 0.35532277822494507 -0.1734781563282013 0.5273888111114502 -0.32917654514312744 0.21202151477336884 0.08225442469120026 0.6576560735702515 0.1608084887266159 0.11424534022808075 -0.04195269197225571 0.248183012008667 0.18538600206375122 -0.04838225245475769 0.07046227157115936 -0.2756742238998413 0.27937623858451843 -0.13240833580493927 0.055492278188467026 0.25683844089508057 0.12358560413122177 0.2688771188259125 -0.012350110337138176 0.04365253448486328 0.09083376824855804 0.07003270834684372 0.1299748718738556 -0.15658020973205566 0.3899405002593994 0.01836429536342621 -0.05916439741849899 -0.11799007654190063 -0.47096431255340576 0.07854506373405457 -0.1416880190372467 0.4653746485710144 0.008688291534781456 -0.465542733669281 0.30616965889930725 0.3136628568172455 1.11271071434021 0.6906520128250122 0.09986760467290878 0.9120745658874512 0.08701319992542267 0.2433842271566391 0.010612359270453453 -0.1259324699640274 -0.3833394944667816 0.07743711769580841 -0.15707066655158997 -0.37251338362693787 0.12426655739545822 0.0797768086194992 0.1516101360321045 0.09664361923933029 0.42885518074035645 -0.14115433394908905 0.1772182434797287 -0.2764805257320404 -0.10044106096029282 -0.19827573001384735 0.1373603343963623 -0.7026602625846863 0.29828590154647827 0.33946913480758667 -0.17249950766563416 -0.2041216343641281 0.11073368787765503 -0.24667197465896606 -0.3708745837211609 0.7909218668937683 -0.12027433514595032 -0.5034629106521606 -0.13293145596981049 -0.45906028151512146 -0.8146142363548279 -0.14265277981758118 0.08060981333255768 -0.09396032989025116 -0.0751839280128479 0.20762644708156586 0.4085114002227783 -0.13607186079025269 0.2762064039707184 0.09114670753479004 0.4121706485748291 0.3190135657787323 0.17182175815105438 -0.10396258533000946 -0.08610700070858002 0.45234543085098267 0.0009647769620642066 0.3128008246421814 -0.02574152499437332 -0.35870251059532166 -0.1615501493215561 0.17889270186424255 0.22361326217651367 0.22659294307231903 0.2120843231678009 0.10229577124118805 0.3423423767089844 0.503554105758667 -0.2447664737701416 0.3406725823879242 0.035732679069042206 0.7913532257080078 -0.3202855587005615 0.22510533034801483 0.1907060593366623 0.15940754115581512 -0.26383012533187866 0.2919979989528656 0.2969679832458496 -0.07213525474071503 0.18236812949180603 0.13006410002708435 0.13495439291000366 -0.7174338698387146 -0.19070294499397278 0.056231942027807236 -0.4109121561050415 -0.40876349806785583 -0.2883314788341522 -0.25531163811683655 0.12104453146457672 -0.6053944826126099 -0.6293318271636963 -0.04720409959554672 0.15384268760681152 0.061762064695358276 0.3984328508377075 0.14727449417114258 -0.12396381795406342 0.12126971781253815 -0.3507501482963562 -0.04857739806175232 -1.034301519393921 -0.04145222157239914 -0.07075933367013931 0.1612403690814972 0.40812772512435913 0.26177600026130676 0.16558176279067993 -0.0689086988568306 0.13594824075698853 -0.06301061809062958 -0.1807287186384201 0.20978502929210663 -0.4630119800567627 -0.04949843883514404 -0.3739967942237854 0.44373711943626404 0.10003939270973206 0.2942843735218048 -0.20052942633628845 -0.09343346208333969 -0.17288921773433685 0.07343722134828568 -0.3414115309715271 0.5408434271812439 -0.4042280614376068 -1.7929033041000366 0.11920826137065887 0.24854418635368347 0.32576748728752136 0.28624987602233887 0.15274792909622192 0.16807405650615692 -0.16324254870414734 0.003829777240753174 0.2286316603422165 0.15273511409759521 -0.035166144371032715 0.21367739140987396 -0.07778574526309967 -0.2027987539768219 0.12373581528663635 -0.05906633660197258 0.48784804344177246 0.33089500665664673 -0.017551852390170097 0.07445719838142395 -0.009996447712182999 0.2269938886165619 -0.19588330388069153 -0.21962973475456238 0.16186299920082092 0.0265523549169302 0.014341805130243301 -0.027385473251342773 0.03840570151805878 -0.09998096525669098 -0.02176022157073021 0.28145936131477356 -0.34669458866119385 0.065222829580307 0.3805716037750244 -0.23057334125041962 -0.3816449046134949 0.021014830097556114 -0.48450514674186707 0.5289832353591919 0.08774955570697784 0.1472117155790329 -1.0552321672439575 -0.36268746852874756 -0.6808620691299438 -0.2849646210670471 0.055622391402721405 0.09453361481428146 0.19726699590682983 -0.02972991392016411 0.010429918766021729 -0.53419429063797 -0.18394312262535095 0.07940936088562012 0.0899178683757782 -0.16127176582813263 0.12917980551719666 0.05569438263773918 -0.1578318327665329 0.10417734831571579 0.0017192823579534888 -0.24088776111602783 0.05691572278738022 0.13578090071678162 -0.1691359281539917 -0.5483457446098328 -0.08165574818849564 0.33588290214538574 -0.03986126929521561 0.12249871343374252 0.2961016297340393 0.1664661020040512 0.13568750023841858 0.14906461536884308 -0.23801910877227783 -0.34396088123321533 0.48645228147506714 -0.04016396030783653 0.26492559909820557 -0.029009191319346428 0.8287609815597534 0.09551703929901123 0.11997748911380768 0.09509920328855515 0.5200819373130798 -0.3485649824142456 -0.2707129418849945 0.3011811673641205 -0.06119001656770706 -0.3547632396221161 0.324421763420105 -0.22154180705547333 0.14811550080776215 0.041206665337085724 0.210414856672287 0.15618014335632324 -0.46181413531303406 1.2788231372833252 0.16452348232269287 0.013341546058654785 -0.24756431579589844 0.12023817002773285 0.09872780740261078 -0.1877819150686264 -0.16543327271938324 0.17708444595336914 0.0526636466383934 -0.05656512826681137 -0.013055523857474327 0.1398162543773651 -0.7381379008293152 0.3473444879055023 0.3968353867530823 -0.3137488067150116 0.4051624536514282 0.19731037318706512 0.7232815027236938 0.3214413821697235 0.001665271818637848 0.7876089811325073 -0.6211476922035217 -0.14001940190792084 0.00783451460301876 -0.13286656141281128 0.22935394942760468 0.18642383813858032 0.4327473044395447 0.15100987255573273 -0.0930459052324295 -0.4789702892303467 0.2674064338207245 -0.26217207312583923 0.4324648380279541 0.1316751092672348 9.76736068725586 -0.02608811855316162 0.06515579670667648 -0.02819659560918808 0.010722903534770012 0.006096930708736181 -0.07787718623876572 0.07152964174747467 -0.07930069416761398 -0.00036829710006713867 -0.19415651261806488 -0.42703551054000854 0.32304906845092773 -0.3500153422355652 -0.1859653890132904 0.13436388969421387 0.6611008048057556 0.13047908246517181 0.10750633478164673 -0.17305099964141846 -0.10909422487020493 -0.11014964431524277 0.016954271122813225 -0.15886713564395905 -0.17957815527915955 0.1274329274892807 -0.7253327369689941 0.24968096613883972 0.01850823312997818 0.3998509347438812 0.3827819228172302 0.1911948025226593 0.05524556338787079 0.3528396487236023 0.04781649261713028 0.40735095739364624 -1.2582029104232788 -0.03512616083025932 0.36080402135849 -0.20938001573085785 -0.2575467824935913 -0.3751174807548523 -0.01007317379117012 0.11726560443639755 0.13484381139278412 0.10155069082975388 -0.3827025890350342 0.179213285446167 0.025392776355147362 -0.04432905837893486 0.20155106484889984 0.12121835350990295 0.0700795128941536 -0.3931118845939636 -0.10190492123365402 -0.48198795318603516 0.43533849716186523 0.08647825568914413 -0.11033555120229721 -0.522218644618988 -0.009578043594956398 -0.10334762185811996 -0.24116301536560059 0.08685299009084702 0.5690500736236572 -0.09817647188901901 0.5605869293212891 0.08692191541194916 0.38374242186546326 0.1871386170387268 -0.07089558988809586 -0.11639130115509033 0.15366646647453308 -0.11582024395465851 -0.3106241226196289 -0.35207507014274597 -0.12527981400489807 -0.1990937441587448 -0.22271446883678436 -0.19934438169002533 -0.09116997569799423 0.22474706172943115 0.33211275935173035 0.05517828091979027 -0.5078823566436768 0.011644754558801651 -0.147831529378891 0.2676963210105896 -0.16138291358947754 0.029877852648496628 -0.13303817808628082 -0.10807405412197113 -0.16367501020431519 -0.08365023136138916 0.3601756989955902 0.1131395548582077 -0.06725546717643738 -0.052920740097761154 0.1820034384727478 0.16526392102241516 -0.6565704345703125 0.09171130508184433 -0.3623654544353485 0.02762622758746147 -0.05475077033042908 0.30578386783599854 0.4368247389793396 -0.3029121160507202 -0.10624824464321136 0.03367006778717041 0.036944061517715454 0.2626881003379822 0.06441603600978851 0.06609275937080383 -0.36690768599510193 -0.1418595314025879 -0.08020269870758057 -0.03927852213382721 0.28735703229904175 0.6333893537521362 -0.1444464772939682 0.2873769700527191 0.0933210700750351 -0.545313835144043 -0.021557074040174484 -0.0511387437582016 -0.16512861847877502 0.35754621028900146 0.19349336624145508 -0.12622742354869843 -0.5651894807815552 -0.09047973155975342 0.555678129196167 -0.09327428042888641 -0.18934091925621033 -0.21329131722450256 0.3524859845638275 0.0021698761265724897 0.11600001156330109 0.3696955144405365 0.028902385383844376 0.08019087463617325 -0.0180269293487072 0.17931398749351501 -0.2904320955276489 0.1045956015586853 -0.2622370421886444 -0.4653345048427582 0.23226794600486755 -0.1858341097831726 -0.22715350985527039 -0.08498537540435791 -0.21509593725204468 0.05177239701151848 -0.08874141424894333 0.1338685005903244 -0.1269390881061554 0.49156659841537476 0.1482274979352951 -0.007049328647553921 -0.15624994039535522 -0.798576295375824 -0.4913226068019867 -0.4595728814601898 -0.15568390488624573 -0.14479213953018188 0.022290121763944626 -0.2222398966550827 0.26835209131240845 0.0236189067363739 0.30300605297088623 -0.24922893941402435 -0.2944045662879944 -0.2440083622932434 0.3773050308227539 -0.2826482951641083 -0.8127142190933228 -0.38167569041252136 0.1073356494307518 0.1804172247648239
node_23	-0.06945528835058212 0.2907128632068634 0.05857354402542114 -0.22325555980205536 1.2952550649642944 -0.5213402509689331 0.10499493777751923 0.2709464430809021 0.04509256035089493 -0.3520026206970215 0.10510113835334778 0.1237620934844017 0.4326492249965668 -0.08321404457092285 0.0012040486326441169 -0.5092049837112427 0.8834387063980103 0.6229479312896729 0.05835060775279999 0.48291873931884766 -0.2801053524017334 0.2233891785144806 0.23583534359931946 -0.0067341080866754055 0.009251843206584454 0.3328284025192261 0.49262142181396484 0.024153556674718857 0.08847074955701828 -0.0431063137948513 -0.09912185370922089 0.39393481612205505 0.04302098974585533 0.14861266314983368 -0.2605692744255066 0.10849612206220627 -0.55321204662323 0.19646891951560974 0.5405174493789673 0.21622630953788757 -0.6089445948600769 0.5054153800010681 0.21370188891887665 -0.08458229154348373 0.13915492594242096 0.2716357707977295 -0.09549057483673096 -0.19267946481704712 0.1506909430027008 0.08219583332538605 0.30801233649253845 -0.1596071422100067 -0.20304572582244873 0.36779865622520447 -0.03044072538614273 0.16861025989055634 -0.15680336952209473 0.1973026990890503 0.3075709939002991 -0.013531784527003765 0.1036260724067688 0.9351706504821777 0.2926033139228821 0.6612836718559265 0.18378078937530518 0.20855340361595154 -0.12620078027248383 -0.5521301627159119 0.08957864344120026 0.03185577690601349 0.012207813560962677 -0.13875186443328857 0.09076601266860962 -0.11713048070669174 0.20138120651245117 0.1712081879377365 0.47790810465812683 -2.4837088584899902 -0.20036032795906067 0.7796036601066589 0.08716731518507004 -0.42754027247428894 0.9714295268058777 -0.25586965680122375 -0.06301219761371613 -0.4811062514781952 0.2346920669078827 -0.29863840341567993 0.1525709480047226 0.5235087275505066 0.0713547021150589 0.0714641660451889 -0.12557919323444366 0.3897297978401184 -0.13964848220348358 0.2386969029903412 -0.1710721254348755 -0.7819597125053406 -0.26812732219696045 0.03603912517428398 0.09816177934408188 0.042189665138721466 0.11864949762821198 0.042246244847774506 0.06074809655547142 0.11273384094238281 -0.06658895313739777 -0.13333261013031006 0.432770699262619 0.565296471118927 0.02411597967147827 0.41800040006637573 -0.27256786823272705 -0.05132681876420975 0.0888548344373703 0.22385668754577637 0.06005620211362839 0.018749691545963287 0.11317682266235352 0.6145219802856445 0.3579537272453308 -0.41854211688041687 0.45625099539756775 -0.22418707609176636 -0.18463203310966492 0.7387084364891052 0.5054234266281128 -0.11084835976362228 -0.11066242307424545 -0.26532313227653503 -0.1461879163980484 -0.8545515537261963 -0.28292736411094666 0.34978705644607544 0.10916199535131454 0.25785523653030396 -0.36582136154174805 0.1611868143081665 -0.19214016199111938 -0.006339853163808584 -0.3415202796459198 0.14986230432987213 0.1987697333097458 0.1899818480014801 0.5297774076461792 -0.25434398651123047 -0.12489137053489685 0.022535115480422974 -0.2632574439048767 0.21982233226299286 -0.03483058139681816 0.30624595284461975 0.16162246465682983 0.41791999340057373 -0.7950097918510437 0.395099014043808 -0.16453537344932556 -0.10256093740463257 -0.5448641777038574 0.4775255620479584 -0.017533764243125916 -0.1673634946346283 0.38199037313461304 0.04145326837897301 -0.06331182271242142 0.13120469450950623 -0.09460723400115967 0.016248613595962524 0.07945021986961365 0.9266071319580078 0.024240873754024506 -0.030808623880147934 0.06404055655002594 -0.19372043013572693 0.11614256352186203 0.05065296217799187 -0.37224406003952026 0.05537150055170059 0.30937689542770386 -0.1462886929512024 0.30918675661087036 0.11349823325872421 0.22697529196739197 -0.1732732355594635 -0.058074891567230225 0.2793915271759033 0.27805763483047485 -0.13581329584121704 -0.13238024711608887 -0.43426164984703064 -0.5877737402915955 -0.014612682163715363 0.25560712814331055 -0.04769888147711754 0.06365815550088882 0.45050758123397827 0.2319028228521347 -0.09491191804409027 0.10168755054473877 -0.05287906527519226 -0.5878537893295288 -0.5002949237823486 0.39217609167099 -0.14836573600769043 0.4775509834289551 -0.018874812871217728 0.1790991723537445 -0.33538246154785156 -0.14484725892543793 0.042095258831977844 0.05243615806102753 0.0903724730014801 -0.06685735285282135 -0.057832591235637665 0.1592564731836319 0.3088315427303314 -0.352973073720932 0.11484547704458237 -0.227164626121521 -0.9425925016403198 0.26419779658317566 0.1653137058019638 -0.3453989028930664 -0.8709842562675476 0.0869181752204895 0.3656086325645447 0.05376335233449936 0.09446527808904648 0.3303479552268982 0.3028610944747925 0.06496685743331909 0.11832060664892197 -0.7831954956054688 -0.010199653916060925 0.46412357687950134 -0.35347995162010193 -0.031055724248290062 0.196054145693779 0.10131638497114182 0.33215320110321045 -0.1031661331653595 0.19234097003936768 0.04909570515155792 0.20620599389076233 -0.03883309289813042 -0.0057945651933550835 0.17027390003204346 -0.5789496898651123 -0.3051777184009552 -0.1697481870651245 -0.16070687770843506 -0.20967423915863037 0.014454152435064316 0.20149199664592743 0.9572063684463501 -0.04848659783601761 0.1288055032491684 0.0031341719441115856 0.005452454090118408 -0.5971593260765076 -0.10760796070098877 0.09078352153301239 -0.07586278766393661 -0.3146957755088806 -0.1708444356918335 -0.13053779304027557 0.01695825532078743 -0.1745930165052414 -0.04769489914178848 0.14162348210811615 0.24537181854248047 -0.035298384726047516 0.13402380049228668 0.2076500952243805 0.06051109358668327 0.08721022307872772 -0.44877541065216064 0.1215662807226181 -0.37642142176628113 -0.2764115631580353 0.27381929755210876 -0.2202785313129425 -0.5108163952827454 -0.44916078448295593 -0.003043403383344412 -0.6386939287185669 0.12233269214630127 -0.6931163668632507 -0.04116060584783554 0.06149258464574814 -0.16529017686843872 0.3103523254394531 -0.2211659997701645 0.29493823647499084 -0.11809899657964706 0.21777042746543884 0.027740158140659332 0.5014441013336182 0.11998274177312851 -0.009134238585829735 -0.19392037391662598 0.06530607491731644 0.25596195459365845 -0.07646877318620682 -0.05194501206278801 -0.39596208930015564 0.15233047306537628 -0.18410193920135498 -0.001773374155163765 0.311736524105072 -0.08938725292682648 0.14782029390335083 -0.004387883003801107 0.12610040605068207 0.1235591471195221 0.15717703104019165 0.05966457724571228 -0.14528459310531616 0.6098564863204956 0.18610048294067383 -0.06731930375099182 -0.2778007984161377 -0.5123047232627869 -0.06694826483726501 -0.26098334789276123 0.4017032980918884 0.2565869092941284 -0.39101850986480713 0.33733516931533813 0.3690248131752014 1.0394537448883057 0.7450244426727295 0.11756245791912079 0.6007010340690613 0.05057568848133087 0.1880244016647339 -0.08291638642549515 -0.13792100548744202 -0.38988327980041504 -0.3641359806060791 0.16373416781425476 -0.4649268090724945 0.23399542272090912 0.08936601877212524 0.19850033521652222 0.13973894715309143 0.5412211418151855 -0.22914020717144012 0.05546637624502182 -0.4965503215789795 -0.15924376249313354 -0.1547643542289734 -0.028982017189264297 -0.7501206398010254 0.10549545288085938 0.5751111507415771 -0.06633812189102173 -0.09656798839569092 -0.026542698964476585 -0.06106315553188324 -0.3024263381958008 0.9396721124649048 -0.15984933078289032 -0.6219645738601685 -0.1376725733280182 -0.39795494079589844 -1.0309438705444336 -0.01939542591571808 0.14878633618354797 -0.23625187575817108 -0.0325716994702816 0.16778802871704102 0.48965954780578613 -0.45074474811553955 0.3535687327384949 0.10350464284420013 0.38167083263397217 0.09229341149330139 -0.22560995817184448 -0.15572135150432587 0.13870860636234283 0.37401890754699707 0.03013300523161888 0.4371044635772705 0.0957322046160698 -0.3691602349281311 -0.056004151701927185 0.2554035186767578 0.027870338410139084 0.11433883756399155 0.005620589014142752 0.222471684217453 0.27250099182128906 0.5177489519119263 -0.2166103720664978 0.3329927921295166 0.09667415916919708 0.6339508891105652 -0.3180871307849884 0.12660975754261017 0.09953285753726959 0.022075464949011803 -0.2761249542236328 -0.13021788001060486 0.18840233981609344 0.1629047989845276 0.08168129622936249 0.0565272718667984 0.048827700316905975 -0.951339602470398 -0.24069470167160034 -0.0485757440328598 -0.2613006830215454 -0.5706878900527954 -0.23151275515556335 -0.24152974784374237 0.28428637981414795 -0.27658501267433167 -0.5687708854675293 -0.11118900775909424 0.28354179859161377 0.19459384679794312 0.46312469244003296 0.0695505365729332 -0.42890530824661255 0.23829405009746552 -0.3440694510936737 -0.19287613034248352 -0.30591437220573425 0.08355816453695297 -0.15771232545375824 0.27055811882019043 0.5824626684188843 0.30249035358428955 0.17903047800064087 -0.09152471274137497 0.2286113202571869 -0.09545749425888062 -0.31377774477005005 0.39546439051628113 -0.3742084205150604 -0.05751730129122734 -0.28781139850616455 0.573762059211731 0.014435887336730957 0.2926318049430847 -0.43432921171188354 0.06320831179618835 -0.2268446981906891 -0.08542647957801819 -0.5620237588882446 0.6505987644195557 -0.3379485011100769 -2.105696439743042 0.058952879160642624 0.20156559348106384 0.18834027647972107 0.17621056735515594 0.1190330982208252 0.17702043056488037 -0.08600194752216339 0.0176311656832695 0.3448290228843689 0.05257263779640198 -0.060779597610235214 0.24527160823345184 0.0009518340229988098 -0.007013383321464062 -0.13778017461299896 -0.13891670107841492 0.20912127196788788 0.29237693548202515 0.06131161004304886 0.02603287063539028 -0.20040655136108398 0.351261705160141 -0.2626796364784241 -0.3244875967502594 0.20205724239349365 -0.037528011947870255 -0.06892214715480804 -0.00020547460007946938 -0.003935056738555431 -0.08159825950860977 0.032929420471191406 0.3121027946472168 -0.19344276189804077 -0.016485705971717834 0.3523937165737152 -0.29107600450515747 -0.4452740550041199 0.0993131548166275 -0.6157040596008301 0.4994300603866577 0.07808897644281387 0.21654000878334045 -1.398596167564392 -0.27445733547210693 -0.02954517863690853 -0.2924579977989197 0.12212669849395752 0.05625653266906738 0.30054983496665955 0.2623642385005951 0.1989096701145172 -0.377142995595932 -0.16276800632476807 0.1075960025191307 -0.09011279791593552 -0.10755985230207443 0.3283511996269226 -0.010044140741229057 -0.1482143998146057 0.05140424892306328 0.03482286259531975 -0.3722761571407318 0.005514517426490784 0.10485061258077621 -0.373473584651947 -0.5362687110900879 -0.1427662968635559 0.16992448270320892 -0.13060645759105682 0.07329338043928146 0.12771011888980865 0.12535452842712402 0.07322079688310623 -0.22975091636180878 -0.22465042769908905 -0.23653703927993774 0.48832711577415466 -0.11518663167953491 0.19105026125907898 -0.0672045573592186 0.6274967193603516 0.16201059520244598 0.14013472199440002 -0.13360461592674255 0.7104314565658569 -0.18606965243816376 -0.2938553988933563 0.25724875926971436 -0.15994147956371307 -0.24313130974769592 0.3975217342376709 -0.27411648631095886 0.5885597467422485 0.08862531185150146 0.208577960729599 0.149725541472435 -0.380235880613327 1.4813997745513916 0.15871694684028625 -0.018537074327468872 -0.2704985737800598 0.16432379186153412 0.08132335543632507 -0.08771923184394836 -0.11048843711614609 0.24399173259735107 0.06545419991016388 -0.3913404941558838 0.09650882333517075 0.07946659624576569 -0.6557343006134033 0.3817250430583954 0.517494797706604 -0.349771112203598 0.21519595384597778 0.2997781038284302 -0.09572251886129379 0.31733232736587524 -0.027458809316158295 0.19882969558238983 -0.4306023120880127 -0.17597410082817078 -0.01402827724814415 0.5223450660705566 0.44361791014671326 0.21214669942855835 0.193418949842453 0.1674196422100067 -0.1425306797027588 -0.21518443524837494 0.19259044528007507 -0.25400403141975403 0.6685270667076111 -0.002395657356828451 9.935531616210938 -0.014976948499679565 -0.06252610683441162 -0.11556624621152878 0.0977044552564621 -0.16114258766174316 -0.10409083962440491 0.0787501335144043 -0.1123557910323143 0.11628270149230957 -0.04643028602004051 -0.5284651517868042 0.16219395399093628 -0.2861061990261078 -0.16174860298633575 -0.03722991794347763 0.4714890122413635 0.20855069160461426 0.12061881273984909 -0.15963958203792572 -0.008631093427538872 0.06298766285181046 0.16339880228042603 0.08813270926475525 -0.10754655301570892 0.07229846715927124 -0.5628147125244141 0.24133682250976562 0.09365478157997131 0.26062488555908203 0.19170741736888885 -0.03192036598920822 -0.0015830944757908583 0.17861273884773254 0.08588649332523346 0.2592221200466156 -0.9441171884536743 -0.005420629866421223 0.29597458243370056 -0.05840567871928215 -0.2969258725643158 -0.41557806730270386 0.12991803884506226 0.12305617332458496 -0.019456923007965088 0.2276526689529419 -0.48537135124206543 0.1278264820575714 -0.04325200617313385 0.06680878251791 0.34290391206741333 0.048005059361457825 0.03776564449071884 -0.6881975531578064 -0.2210843563079834 -0.5159385204315186 0.40421098470687866 0.1389281451702118 -0.15167519450187683 -0.5313671827316284 -0.042943939566612244 0.10100632905960083 -0.19327855110168457 -0.16993382573127747 0.20540869235992432 -0.02799099311232567 0.34750741720199585 0.3591640889644623 0.3799723982810974 0.11642096936702728 -0.027277257293462753 -0.08022332191467285 0.2863953113555908 -0.1538233757019043 -0.4656383693218231 -0.2597167491912842 0.3428727984428406 -0.21556413173675537 -0.14712151885032654 -0.28122204542160034 -0.024267513304948807 0.33199506998062134 0.23792263865470886 0.08984625339508057 -0.4151971936225891 0.01300430204719305 -0.19542191922664642 0.2482435405254364 -0.5730403661727905 -0.024312710389494896 -0.036976978182792664 -0.16901588439941406 -0.14044497907161713 -0.027948817238211632 0.5885034203529358 0.05717570334672928 -0.24239575862884521 0.03388465940952301 0.24715808033943176 0.11132656037807465 -0.7604977488517761 0.19859610497951508 -0.35122889280319214 0.19912122189998627 0.016808873042464256 0.12052780389785767 0.870255172252655 -0.07754981517791748 -0.23925018310546875 0.15527568757534027 0.03647305816411972 0.44624894857406616 0.17593169212341309 0.040319543331861496 -0.497842401266098 -0.3397234380245209 0.050659120082855225 -0.1155361458659172 0.3341977298259735 0.6509422063827515 -0.07407671213150024 0.19767585396766663 -0.016903609037399292 -0.5030548572540283 0.09968940913677216 0.13347996771335602 -0.14537650346755981 0.3859204649925232 0.31272876262664795 0.016491886228322983 -0.7534095048904419 -0.1546075940132141 -0.26412254571914673 0.08412700891494751 -0.1309577226638794 -0.26806241273880005 0.23563484847545624 -0.08499827235937119 0.1709887832403183 0.2708820700645447 0.08115552365779877 0.18418118357658386 -0.1187019944190979 -0.21270422637462616 -0.23478803038597107 0.033522747457027435 -0.15198272466659546 0.43120095133781433 0.19983582198619843 -0.35941141843795776 -0.07567416876554489 -0.044993262737989426 -0.115253746509552 0.16622936725616455 0.05615066736936569 0.16593874990940094 -0.132338285446167 0.405860036611557 0.22917836904525757 0.02570933848619461 0.17068853974342346 -1.1920578479766846 -0.6821247935295105 -0.37994498014450073 0.12756694853305817 -0.09701156616210938 0.09173694252967834 -0.4482353627681732 0.15931779146194458 0.06305336952209473 0.3961067199707031 -0.24521057307720184 -0.3050782084465027 -0.20835720002651215 0.3701436519622803 -0.3591890335083008 -0.6750831604003906 -0.617351233959198 0.02114006131887436 0.13935281336307526
node_10	0.0029296036809682846 0.2524987459182739 0.1422598659992218 -0.05356184393167496 0.5860317945480347 -0.4684699475765228 0.08778183162212372 0.2940768003463745 -0.11151252686977386 -0.3405042588710785 -0.12758463621139526 0.6858543157577515 0.26663458347320557 -0.14103251695632935 -0.08456829190254211 0.1432511806488037 0.735254168510437 0.21215461194515228 0.019672423601150513 -0.3615584373474121 -0.08685566484928131 -0.05031205341219902 0.06809669733047485 0.28118571639060974 -0.2099296748638153 0.1695849895477295 0.4192928969860077 -0.03933831304311752 0.2732558846473694 0.09991838783025742 -0.2563929259777069 0.3965113162994385 0.15164752304553986 0.14737892150878906 -0.28885185718536377 0.1419038474559784 -0.3953721523284912 0.17597243189811707 0.02594093605875969 0.21934925019741058 -0.6206979751586914 0.4949193596839905 0.21818971633911133 -0.14091423153877258 0.1925162374973297 0.03867708146572113 0.19623351097106934 -0.3347570598125458 0.17043021321296692 0.07574933767318726 0.25867483019828796 -0.2175862193107605 -0.14645029604434967 0.333083838224411 -0.17178916931152344 0.11707066744565964 -0.3086879551410675 0.22968147695064545 0.1997796893119812 0.022086238488554955 0.2163325995206833 0.9970998764038086 0.13666248321533203 0.3015390634536743 0.16023015975952148 0.30475208163261414 -0.030763637274503708 -0.03582930564880371 0.0920647531747818 -0.026540100574493408 -0.11882191896438599 -0.17364659905433655 0.1630595475435257 0.031412359327077866 0.022882213816046715 -0.005670016165822744 0.5297856330871582 -2.426320791244507 -0.16639344394207 0.7716375589370728 0.09340246766805649 -0.2808952033519745 0.8852848410606384 -0.1777605414390564 0.1101568192243576 -0.8059285879135132 0.27210772037506104 -0.21165689826011658 0.16755813360214233 0.3039848208427429 0.41832029819488525 0.21071982383728027 -0.041352033615112305 -0.20239931344985962 -0.14696621894836426 0.2637369930744171 -0.025276299566030502 -0.11825959384441376 -0.2984352707862854 -0.07047545909881592 -0.03301793336868286 -0.03686458617448807 0.2035192847251892 -0.25196385383605957 0.08019562810659409 0.483222097158432 -0.05094427615404129 -0.2975209951400757 0.28265509009361267 0.4137765169143677 0.04634623974561691 0.1968868374824524 -0.20840787887573242 -0.06823666393756866 -0.0034214365296065807 0.20258311927318573 0.15985363721847534 0.06195801496505737 0.05968700349330902 0.21402095258235931 0.2914763391017914 -0.36687248945236206 0.13576364517211914 -0.10475414991378784 0.07263029366731644 0.6695443391799927 0.48601698875427246 -0.13746801018714905 -0.09814931452274323 -0.2922321557998657 -0.16446459293365479 -0.9621195197105408 -0.2097620815038681 -0.3188363015651703 0.057050012052059174 0.2272302359342575 -0.1813672035932541 -0.013394823297858238 -0.05942443013191223 -0.006224788725376129 -0.24953071773052216 0.10630819201469421 0.12350039184093475 0.2905026376247406 0.34505611658096313 -0.34505054354667664 -0.02040727064013481 -0.07966578006744385 -0.4182548224925995 -0.03583953529596329 -0.20778045058250427 0.5119107961654663 0.037730876356363297 0.16433240473270416 -0.594282865524292 0.4899898171424866 -0.10541564226150513 -0.09939557313919067 -0.49792832136154175 0.8205127716064453 0.07167036831378937 -0.17823344469070435 0.4684356451034546 0.14410583674907684 0.008133837021887302 0.013410987332463264 -0.11819853633642197 -0.08412986248731613 0.11158448457717896 0.6282392740249634 0.02989361062645912 0.05586009845137596 -0.00818835198879242 -0.24310319125652313 0.08962379395961761 0.009117819368839264 -0.08131136745214462 -0.03841792792081833 0.26836368441581726 -0.16765949130058289 0.11900261044502258 0.11750685423612595 0.11278718709945679 -0.17028281092643738 0.02498900517821312 0.5295770168304443 0.2600456476211548 -0.23405900597572327 -0.18105509877204895 -0.2004157155752182 -0.47037380933761597 0.11014735698699951 0.3341021239757538 0.017413031309843063 -0.02480928972363472 -0.05350002273917198 0.18160896003246307 -0.09117132425308228 0.32373329997062683 -0.13128012418746948 -0.4899393916130066 -0.2993212938308716 0.26364070177078247 -0.15594951808452606 0.2958720922470093 0.12491308152675629 -0.19037899374961853 -0.2688671350479126 -0.26530027389526367 0.279429167509079 -0.12689150869846344 0.6302324533462524 0.0788072794675827 0.020527254790067673 0.2900558114051819 0.08181605488061905 -0.5182735919952393 0.2566041946411133 -0.14706529676914215 -1.0209321975708008 0.3342101573944092 0.1488138884305954 -0.049461208283901215 -0.8015924692153931 0.3610629737377167 0.572332501411438 0.09928034245967865 0.09361298382282257 0.35484927892684937 0.131622776389122 0.005689944606274366 -0.12332962453365326 -0.5128805637359619 -0.23101554811000824 0.3085964620113373 -0.42104479670524597 -0.09147089719772339 0.3460620641708374 0.09949405491352081 0.35494598746299744 -0.31078702211380005 0.23873107135295868 0.013655498623847961 0.18858665227890015 -0.09727911651134491 -0.09116454422473907 0.1675003468990326 -0.3855118155479431 -0.3722538948059082 -0.20680487155914307 -0.15702658891677856 0.19196513295173645 -0.1302981823682785 0.1966368854045868 0.3517034947872162 -0.19869546592235565 0.20755165815353394 -0.02651938423514366 -0.18548056483268738 -0.044252436608076096 -0.06263646483421326 0.09848569333553314 -0.16040149331092834 -0.1526414006948471 -0.23238250613212585 -0.33182454109191895 0.007097188383340836 -0.09598763287067413 -0.08510461449623108 0.0683337077498436 0.17943426966667175 0.02293352410197258 0.14059357345104218 0.2847871482372284 -0.029342060908675194 0.15903854370117188 -0.44313403964042664 0.10312541574239731 -0.4222821593284607 -0.3803189992904663 0.08896835893392563 -0.18045496940612793 -0.32581236958503723 -0.6284412741661072 0.05591535568237305 -0.582846999168396 0.09499375522136688 -0.3406621217727661 0.06149649620056152 0.07092157751321793 -0.19936540722846985 0.3392859399318695 -0.20649521052837372 0.44039973616600037 -0.21849773824214935 0.1941416710615158 0.1588808000087738 0.6667332649230957 0.17366230487823486 0.12194084376096725 -0.04494957625865936 -0.01284036599099636 -0.10463022440671921 -0.003880032105371356 -0.031890325248241425 -0.36849507689476013 0.3970613479614258 -0.15096044540405273 0.02845282107591629 0.1247078999876976 -0.0067835282534360886 0.24245914816856384 -0.10325215756893158 0.003986801952123642 0.008407244458794594 0.19804416596889496 0.11506903171539307 -0.22004494071006775 0.5321536064147949 0.015575004741549492 -0.03526115044951439 -0.02370261214673519 -0.5308730602264404 0.04804825410246849 -0.09829199314117432 0.3527218699455261 0.03422771021723747 -0.23949334025382996 0.32567542791366577 0.2878967821598053 1.6562440395355225 0.6560537219047546 -0.05375514179468155 0.8249338865280151 0.1293092668056488 0.16442131996154785 -0.06955742835998535 -0.029123153537511826 -0.3190244138240814 0.03536028787493706 -0.09624123573303223 -0.36122724413871765 0.2138209193944931 0.06488074362277985 0.25404465198516846 0.061392173171043396 0.46860331296920776 -0.15160512924194336 0.31133148074150085 -0.3074120581150055 0.047255050390958786 -0.21027928590774536 0.10128577053546906 -0.589803159236908 0.22860698401927948 0.2080797404050827 -0.12838757038116455 -0.24719712138175964 0.08879071474075317 -0.17302289605140686 -0.3844444751739502 0.6716744303703308 -0.04205509275197983 -0.5699605941772461 -0.06055087968707085 -0.3078903555870056 -0.9817366600036621 -0.11391258239746094 0.13507169485092163 -0.21053194999694824 0.025583487004041672 -0.018327957019209862 0.4332786500453949 0.017449140548706055 0.2730063199996948 0.10577608644962311 0.41496968269348145 0.1727222502231598 0.15662220120429993 -0.12412303686141968 -0.13445945084095 0.43610018491744995 0.07708751410245895 0.32405954599380493 0.055023983120918274 -0.3456684350967407 -0.29110223054885864 0.1996118426322937 0.1439087986946106 0.2226639986038208 0.19604627788066864 0.18381188809871674 0.32222431898117065 0.5088505148887634 -0.1888798326253891 0.2748313844203949 0.09025692939758301 0.7919297218322754 -0.17437182366847992 0.1363658607006073 0.21054401993751526 0.17535750567913055 -0.12052689492702484 -0.004849358461797237 0.38856834173202515 0.09349088370800018 0.013506325893104076 0.14954963326454163 -0.185001403093338 -0.48080822825431824 -0.1788511723279953 -0.10775726288557053 -0.35021066665649414 -0.41184982657432556 -0.16003578901290894 -0.13749895989894867 -0.017259707674384117 -0.5048496723175049 -0.6025722026824951 0.15180179476737976 0.3222894072532654 0.08459416031837463 0.36432021856307983 0.12656235694885254 -0.4356645941734314 0.2227948158979416 -0.29877743124961853 -0.12545360624790192 -0.8351178169250488 -0.007437149994075298 -0.07802212983369827 0.19324123859405518 0.49238115549087524 0.22896280884742737 0.2069639414548874 0.01855960302054882 0.16585248708724976 -0.1873301863670349 -0.0769263207912445 0.4064218997955322 -0.29881227016448975 -0.05529911443591118 -0.3371506333351135 0.4853824973106384 -0.08033427596092224 0.2484579086303711 -0.13093039393424988 -0.12760469317436218 -0.4027404487133026 -0.04150450602173805 -0.37995094060897827 0.26108676195144653 -0.49241361021995544 -2.0973944664001465 0.13327684998512268 0.1851203739643097 0.19117507338523865 0.31435585021972656 0.20364539325237274 0.20827046036720276 -0.11259463429450989 -0.01640954241156578 0.15815377235412598 0.2564363479614258 -0.02973579429090023 0.13277488946914673 0.0031210235320031643 -0.13937006890773773 0.1388985961675644 -0.05100275203585625 0.3896583020687103 0.3367479741573334 -0.005502231419086456 0.09784585237503052 -0.0828130915760994 0.24113091826438904 -0.047789063304662704 -0.31432580947875977 0.061857253313064575 0.15384727716445923 -0.11826056241989136 -0.01211884431540966 -0.12086455523967743 -0.18992671370506287 -0.06163744628429413 0.2216898649930954 -0.18522846698760986 -0.02081046812236309 0.4008972644805908 -0.2156311720609665 -0.284972608089447 0.09675925970077515 -0.3860609531402588 0.5046611428260803 0.09030105918645859 0.19893136620521545 -1.4426120519638062 0.01424125861376524 -0.6258440017700195 -0.25140100717544556 0.12998606264591217 0.12585711479187012 0.20903655886650085 0.18580631911754608 0.11087295413017273 -0.27757298946380615 -0.23453247547149658 0.18776635825634003 0.009168250486254692 -0.21450182795524597 0.1685948371887207 0.05533690005540848 -0.13731931149959564 0.22449235618114471 0.009578807279467583 -0.14961054921150208 0.07589196413755417 0.12746445834636688 0.33514404296875 -0.018951943144202232 -0.1936396360397339 0.17059418559074402 -0.1905687153339386 0.014522379264235497 0.20520496368408203 0.15881940722465515 0.15352493524551392 0.04502292722463608 -0.11833131313323975 -0.5915066599845886 0.5463908910751343 -0.13896307349205017 0.08485057950019836 0.04484996199607849 0.7645655870437622 0.022912977263331413 0.1045997366309166 0.05371713638305664 0.43315625190734863 -0.38136693835258484 -0.026083078235387802 0.1920030415058136 -0.05380547046661377 -0.20581844449043274 0.4518774151802063 -0.247604638338089 0.2905086576938629 0.029572993516921997 0.2164524644613266 -0.0316070020198822 -0.586648166179657 1.017213225364685 0.058412544429302216 -0.07667310535907745 -0.11935591697692871 0.06251460313796997 0.08711773157119751 -0.13192515075206757 -0.049449168145656586 0.17738047242164612 0.03135862573981285 -0.837361752986908 -0.0039554163813591 0.027681265026330948 -0.7117125391960144 0.32330071926116943 0.42844074964523315 -0.23151519894599915 0.3032037019729614 0.2302347868680954 -0.4559572637081146 0.18067798018455505 -0.06666299700737 0.5205979347229004 -0.3825876712799072 -0.2226611226797104 0.05936507135629654 0.10909341275691986 0.09274931997060776 0.05038309842348099 0.5179607272148132 0.17519709467887878 -0.21992227435112 -0.589871883392334 0.21501170098781586 -0.23585566878318787 0.5669679045677185 -0.09997376054525375 10.138787269592285 0.022931909188628197 0.13199980556964874 -0.12065903842449188 0.23518674075603485 -0.10841013491153717 -0.03527183458209038 0.045893341302871704 -0.022140493616461754 0.05378827080130577 -0.17379167675971985 -0.3463313579559326 0.2702558934688568 -0.4369173049926758 -0.14729629456996918 0.12851887941360474 0.9037880897521973 0.03473412245512009 0.25745469331741333 -0.1916235089302063 -0.08282545208930969 0.11986750364303589 0.020676279440522194 0.020119786262512207 0.0018199508776888251 0.2047884315252304 -0.5719689130783081 0.3359035849571228 0.04169558733701706 0.3263976573944092 0.2481822669506073 0.09131496399641037 0.23643279075622559 0.20245544612407684 0.07531014084815979 0.2598154544830322 -0.8076998591423035 -0.10855928063392639 0.2725447118282318 -0.09288492053747177 -0.26835906505584717 -0.36680805683135986 -0.0006519245798699558 0.07310495525598526 0.10004861652851105 0.20259305834770203 -0.5239546298980713 0.12297655642032623 0.19431579113006592 -0.04543452709913254 0.1906542032957077 0.2341822385787964 0.1079447790980339 -0.2722415626049042 -0.08249731361865997 -0.3883292078971863 0.32229679822921753 0.1634068489074707 -0.25779101252555847 -0.6377323865890503 0.07270260900259018 0.020283734425902367 -0.21539251506328583 -0.010479912161827087 0.7553018927574158 -0.06442737579345703 0.4669841229915619 0.2608012855052948 0.048793189227581024 0.19902805984020233 -0.09785806387662888 -0.26063334941864014 0.22809645533561707 0.09781362861394882 -0.3366723954677582 -0.3123485743999481 -0.2413921058177948 -0.35294777154922485 -0.22286725044250488 -0.07001984119415283 -0.025767257437109947 0.27095890045166016 0.24794802069664001 -0.01784524694085121 -0.6338498592376709 0.10928983986377716 -0.066712386906147 0.31665152311325073 -0.22781813144683838 -0.14954587817192078 -0.13093826174736023 -0.0368027463555336 -0.16157126426696777 -0.026654576882719994 0.3052603602409363 0.11732377856969833 -0.22124998271465302 -0.0413045659661293 0.13757380843162537 0.03998909890651703 -0.508399248123169 0.35639068484306335 -0.2728959321975708 0.06679630279541016 -0.05879287049174309 0.16516733169555664 0.4146234393119812 -0.3224988579750061 -0.1419667899608612 0.065306156873703 -0.02090505324304104 0.08910892903804779 -0.06879401952028275 0.11610612273216248 -0.21773478388786316 -0.21140310168266296 -0.08973419666290283 -0.054881803691387177 0.2330211102962494 0.8791747093200684 -0.0752112865447998 0.2728336453437805 0.032360490411520004 -0.5694159865379333 0.04163075238466263 -0.0234755277633667 -0.21432086825370789 0.39104634523391724 0.3022085130214691 0.048720479011535645 -0.482169508934021 -0.03163403272628784 0.5245563387870789 -0.024121727794408798 -0.09094928205013275 -0.14198832213878632 0.3726995587348938 0.028905285522341728 0.1616871953010559 0.26806923747062683 -0.2159552276134491 0.06382331252098083 -0.09016083925962448 -0.5848731994628906 -0.3272392451763153 0.3879067897796631 -0.45143064856529236 -0.2969103455543518 0.2214779108762741 -0.24035893380641937 -0.19887018203735352 -0.0789903998374939 -0.0669858381152153 0.05421362817287445 -0.029751060530543327 0.30125030875205994 -0.0053529394790530205 0.5641849637031555 0.1302727907896042 -0.04691294580698013 0.014134472236037254 -0.889199435710907 -0.43270719051361084 -0.077860027551651 0.3949885964393616 -0.0875830203294754 -0.0053128949366509914 -0.30798906087875366 0.3882906436920166 -0.0008092839270830154 0.2734386920928955 -0.1445557177066803 -0.23565272986888885 -0.23909322917461395 0.4053533971309662 -0.28452521562576294 -0.7566160559654236 -0.6791579127311707 -0.02042626030743122 0.18460655212402344
node_29	-0.07648618519306183 0.26200148463249207 0.037483785301446915 -0.2247048318386078 1.2372668981552124 -0.5841137766838074 0.23653724789619446 0.2426251769065857 -0.17292748391628265 -0.3791670799255371 0.37085962295532227 0.5336019992828369 0.2012157440185547 -0.6563560366630554 0.14474402368068695 -0.4222344160079956 0.5420420169830322 0.5084512233734131 0.011758173815906048 0.2251366376876831 -0.22127178311347961 0.2528470456600189 -0.10521503537893295 0.24137412011623383 0.01385150384157896 0.32398444414138794 0.5264159440994263 0.11150892078876495 0.2643589377403259 0.5401409864425659 0.17210936546325684 0.3319495916366577 0.02888370119035244 0.09792538732290268 -0.383908748626709 0.221090167760849 -0.49728497862815857 0.26574215292930603 0.08212268352508545 -0.030230488628149033 -0.6112204790115356 0.35970816016197205 0.3471498489379883 -0.18070745468139648 0.1872834414243698 0.062290869653224945 0.27677515149116516 0.020793065428733826 0.15666548907756805 -0.07486589252948761 0.35467466711997986 -0.27003464102745056 -0.28251171112060547 0.18072068691253662 -0.196894571185112 0.07958406209945679 -0.2380448281764984 0.4895986020565033 0.3660977780818939 0.038575783371925354 0.14620941877365112 0.025364071130752563 0.4337272644042969 0.22389349341392517 0.1692638099193573 0.31775790452957153 -0.08482295274734497 -0.5543606281280518 0.20656824111938477 0.07180899381637573 -0.12316697835922241 -0.057098425924777985 0.045434996485710144 -0.5447595119476318 0.16336536407470703 -0.16906285285949707 0.36253446340560913 -2.285369634628296 -0.22309164702892303 0.7909057140350342 0.02660258486866951 -0.6346520781517029 1.1830801963806152 -0.01705031841993332 -0.17551057040691376 -0.5531871914863586 0.1694156974554062 -0.33636724948883057 0.16415125131607056 0.5364537239074707 0.3542977273464203 -0.06028877943754196 -0.1963341236114502 -0.01009790226817131 -0.07622596621513367 0.15389148890972137 -0.2500424385070801 -0.9148173332214355 -0.31388354301452637 -0.06644837558269501 0.28492826223373413 -0.005035364534705877 0.07342492789030075 0.11053343117237091 0.15052403509616852 0.18540698289871216 0.005033940076828003 -0.29611003398895264 0.3249269723892212 0.4820045828819275 0.013675324618816376 -0.16552652418613434 -0.17789404094219208 -0.03640123829245567 -0.08152900636196136 0.15799109637737274 0.21375124156475067 0.18541061878204346 0.03908998519182205 0.46531713008880615 0.3831871747970581 -0.23154935240745544 0.1105150505900383 -0.20095619559288025 -0.055824123322963715 0.4985812306404114 0.6422514915466309 -0.298509418964386 -0.154148668050766 -0.32407575845718384 -0.019622838124632835 -0.8904503583908081 -0.11884567141532898 -0.17029443383216858 0.0036803833208978176 0.3227404057979584 -0.3467338979244232 -0.0017138670664280653 -0.11008036136627197 0.018461134284734726 -0.27435803413391113 0.14159458875656128 0.2210530936717987 0.32009315490722656 0.5015913248062134 -0.2972065806388855 -0.25317832827568054 -0.06116954982280731 -0.37059855461120605 0.0591108500957489 -0.15998050570487976 0.49095606803894043 0.10307803750038147 0.4409911632537842 -0.5991479754447937 0.21114712953567505 -0.2966669797897339 0.12747830152511597 -0.4479634165763855 0.5779735445976257 0.00013390835374593735 -0.48570436239242554 0.3828553557395935 0.21328847110271454 -0.2020421326160431 0.19111767411231995 -0.14210325479507446 0.03510639816522598 0.023590801283717155 1.1027196645736694 -0.02922164462506771 0.21137735247612 0.05233154818415642 -0.19520676136016846 -0.1479295939207077 0.036024726927280426 -0.03489365428686142 0.030525488778948784 0.26915010809898376 -0.204640194773674 0.03491337597370148 -0.0203486867249012 0.10225459933280945 -0.34393829107284546 -0.04310927912592888 0.4758610725402832 0.2803278863430023 -0.12937575578689575 -0.11933943629264832 -0.3114635646343231 -0.6945552229881287 0.04151739925146103 0.3224872350692749 -0.25882840156555176 0.06605613976716995 0.18825706839561462 0.22885525226593018 0.0013156402856111526 0.11749555915594101 -0.029174894094467163 -0.5331143736839294 -0.39707255363464355 0.5796302556991577 -0.2114366739988327 0.4108543395996094 0.04618145525455475 -0.2954372465610504 -0.3387630581855774 -0.11060178279876709 0.44950219988822937 -0.02459649369120598 -0.08298599720001221 -0.044083695858716965 -0.16379407048225403 0.1870364397764206 -0.016336878761649132 -0.35398373007774353 -0.6078236103057861 -0.25710126757621765 -1.1790876388549805 0.3571387529373169 0.33734965324401855 -0.1488821804523468 -0.7639290690422058 0.44256338477134705 0.3442390561103821 0.09984477609395981 0.28356125950813293 0.3741382360458374 0.10381665080785751 0.007044360041618347 -0.022747214883565903 -0.970211923122406 0.08403614163398743 0.27218350768089294 -0.7667683362960815 -0.011053917929530144 0.1871912181377411 -0.006647138856351376 0.23702895641326904 -0.5868130922317505 0.24701325595378876 0.09723269939422607 0.02965361624956131 -0.11278834193944931 0.19062548875808716 0.29181522130966187 -0.16647487878799438 -0.25741422176361084 0.15654541552066803 -0.08367373049259186 -0.5434476733207703 0.04845760017633438 0.07613067328929901 0.797274112701416 -0.027372222393751144 0.1448066234588623 -0.11018581688404083 -0.06732364743947983 -0.4070746600627899 -0.13812625408172607 0.0826077088713646 -0.08655288070440292 -0.26987236738204956 -0.16999471187591553 0.03884000703692436 0.0054454682394862175 -0.0826793760061264 0.07990904152393341 0.1272381842136383 0.19054046273231506 0.05056537315249443 0.01263427734375 0.15145014226436615 0.12782680988311768 0.07765722274780273 -0.5126522183418274 0.21164536476135254 -0.5579558610916138 -0.1655605137348175 0.18118497729301453 0.04267682880163193 -0.26679685711860657 -0.5245863795280457 0.015472233295440674 -0.6211486458778381 0.24346673488616943 -0.38143524527549744 0.06280993670225143 -0.030192390084266663 0.012726463377475739 0.13082771003246307 -0.1939466893672943 0.45037445425987244 -0.0784522145986557 0.289292573928833 0.09759257733821869 0.41057467460632324 0.1884104460477829 -0.016492221504449844 0.22330772876739502 -0.06736722588539124 -0.12439598143100739 0.03566259518265724 0.0747828260064125 -0.2612088620662689 0.1536899209022522 -0.17058861255645752 0.09705312550067902 0.19701144099235535 0.005514898803085089 0.14558425545692444 0.005203135311603546 -0.17551486194133759 -0.058786433190107346 0.1394561231136322 0.31376612186431885 -0.16515684127807617 0.6111809611320496 0.21954604983329773 0.012472699396312237 -0.23809492588043213 -0.5018397569656372 -0.02467050403356552 -0.055211812257766724 0.3766350746154785 -0.16629858314990997 -0.6477827429771423 0.2402007281780243 0.3068532943725586 0.8277138471603394 0.4327647387981415 0.09234336018562317 1.0226777791976929 0.13841883838176727 0.0638643354177475 -0.1418474018573761 -0.13905134797096252 -0.4768913686275482 -0.17748050391674042 0.1899573653936386 -0.4483421742916107 0.3632698059082031 0.09396956861019135 0.2630440890789032 0.2280484139919281 0.4468865990638733 -0.059324078261852264 0.06644566357135773 -0.4273480772972107 0.01844670996069908 -0.37221354246139526 -0.09986790269613266 -0.5334924459457397 0.20183736085891724 0.2715487480163574 -0.12581205368041992 0.05137291178107262 -0.02632039785385132 -0.42751049995422363 -0.5378504991531372 0.9480098485946655 -0.30908986926078796 -0.6284717321395874 -0.022699221968650818 -0.5810076594352722 -0.9239221811294556 -0.22352635860443115 0.19265338778495789 -0.015947293490171432 -0.0956462025642395 0.22250178456306458 0.42031359672546387 -0.5044445395469666 0.5942625403404236 0.13552960753440857 0.38255470991134644 0.18041132390499115 0.3362048864364624 0.05006390064954758 0.06253991276025772 0.4328545928001404 -0.11093240976333618 0.2939426302909851 0.10039488971233368 -0.46796107292175293 -0.16590790450572968 0.04019339010119438 0.11915009468793869 0.11046499013900757 0.09209069609642029 0.12078791856765747 0.4607212543487549 0.415869802236557 -0.2589566111564636 0.31312382221221924 0.17160740494728088 1.206826090812683 -0.06425368040800095 0.09776097536087036 0.15440046787261963 0.07521072775125504 -0.17417512834072113 -0.4309617280960083 0.17950797080993652 0.06411787867546082 0.21760639548301697 0.1507127434015274 0.12360246479511261 -0.25783655047416687 -0.2919681668281555 -0.16844820976257324 -0.1844111979007721 -0.5534760355949402 -0.11483554542064667 -0.23606058955192566 -0.04837152361869812 -0.02739397995173931 -0.7420231699943542 -0.02029232867062092 0.5283639430999756 0.13117103278636932 0.4335601329803467 -0.04887741804122925 -0.36831992864608765 0.23243390023708344 -0.3505851626396179 -0.11649486422538757 -0.6096490621566772 0.049135174602270126 -0.22177891433238983 0.19189971685409546 0.8717233538627625 0.3347914218902588 0.03006972000002861 -0.1379823535680771 0.08130866289138794 -0.20624104142189026 -0.3296252191066742 0.39575719833374023 -0.224703848361969 -0.04410430043935776 -0.19939777255058289 0.6139706969261169 -0.1308000683784485 0.22307917475700378 -0.6039097309112549 -0.009034570306539536 -0.2850147485733032 -0.010511061176657677 -0.25073859095573425 0.6257747411727905 -0.1280263513326645 -1.815223217010498 0.12540607154369354 0.3356122672557831 0.35324931144714355 0.09829160571098328 0.20035336911678314 0.32263585925102234 -0.23478536307811737 0.020358292385935783 0.1705503761768341 0.09127177298069 -0.05480904132127762 0.15909653902053833 -0.16459819674491882 -0.08057983964681625 -0.43461236357688904 0.004226274788379669 0.22930553555488586 0.20535048842430115 0.17208319902420044 0.12177281081676483 0.01610146090388298 0.3517955541610718 -0.4014720916748047 -0.18026864528656006 0.3706144690513611 -0.2176896035671234 -0.10223323106765747 0.06707700341939926 0.08726479113101959 -0.10242485255002975 0.1139298528432846 0.2996395528316498 -0.2649002969264984 0.03521282598376274 0.4446999728679657 -0.2795104384422302 -0.4777716100215912 -0.027074893936514854 -0.27783048152923584 0.5508086681365967 0.08711357414722443 0.3276204466819763 -1.0446467399597168 -0.13439595699310303 0.2047412395477295 -0.3815629482269287 0.023605769500136375 -0.022819917649030685 0.20715372264385223 0.0522175207734108 0.22929534316062927 -0.4890739917755127 -0.1670694351196289 0.11752986162900925 -0.057000331580638885 -0.10934167355298996 0.3008688688278198 -0.22016844153404236 0.08384096622467041 0.05058445781469345 -0.14830917119979858 -0.2295626699924469 0.12112799286842346 0.007893582805991173 -0.33750566840171814 -0.1493627429008484 -0.2437237948179245 0.31061774492263794 -0.22937235236167908 0.14949212968349457 0.16096454858779907 -0.0011605521431192756 0.04879273474216461 0.016731610521674156 -0.2506651282310486 -0.030523722991347313 0.6054677963256836 -0.07347707450389862 0.08817100524902344 0.038815561681985855 0.6538392901420593 0.16684862971305847 0.17709064483642578 -0.08897891640663147 0.8057035207748413 -0.08022477477788925 -0.25240030884742737 0.12627458572387695 0.08147551119327545 -0.21770983934402466 0.6424545049667358 -0.2867794930934906 0.3995150029659271 0.09386765956878662 0.17337915301322937 0.10856540501117706 -0.20369669795036316 1.185742974281311 0.1974562108516693 -0.17998085916042328 -0.057596854865550995 0.1386033147573471 0.219479501247406 -0.14364318549633026 -0.1671648472547531 0.08751395344734192 0.08345437049865723 -1.2657325267791748 0.12092326581478119 0.1387588083744049 -0.41002988815307617 0.1905657947063446 0.5494605302810669 -0.11697344481945038 0.2185940444469452 0.2205321192741394 0.41428491473197937 0.3296903669834137 0.05873090773820877 0.2615591883659363 -0.4488600194454193 -0.16644525527954102 0.1239483505487442 0.3433406352996826 0.2813400626182556 0.17726677656173706 0.3546951413154602 0.3616856336593628 -0.10112528502941132 -0.09068360179662704 0.29966819286346436 -0.22112169861793518 0.3802388906478882 0.017397839576005936 9.550898551940918 -0.07433093339204788 -0.04529591649770737 -0.18378648161888123 0.29650557041168213 0.10926876962184906 -0.1398380994796753 0.011642754077911377 -0.09102077782154083 0.05426942557096481 -0.06505497545003891 -0.31136250495910645 0.2463911771774292 -0.37714189291000366 -0.13091640174388885 -0.022847797721624374 0.5171048641204834 0.15550118684768677 -0.11398117244243622 -0.30083370208740234 -0.03956328332424164 -0.26066601276397705 0.09105011820793152 -0.09137997031211853 -0.05098367854952812 0.021250050514936447 -0.6341516971588135 0.32786282896995544 0.026568438857793808 0.3604066073894501 0.2169746607542038 0.18116991221904755 0.08062072843313217 0.2334609478712082 0.07087836414575577 0.2538124918937683 -0.8994295001029968 -0.16114971041679382 0.3428215980529785 0.05667673796415329 -0.125016987323761 -0.26538747549057007 0.1713438481092453 -0.07347595691680908 0.11066266894340515 0.2405150979757309 -0.5343554019927979 0.16485072672367096 0.27458930015563965 0.0748816430568695 0.27567294239997864 0.1314995437860489 0.05424013361334801 -0.580791711807251 -0.1668926328420639 -0.45049452781677246 0.533106803894043 0.06161263585090637 -0.13011005520820618 -0.4293704032897949 -0.0615440309047699 0.09193690866231918 0.023719971999526024 -0.14628730714321136 -0.180877685546875 -0.037394098937511444 0.38980603218078613 0.0029034018516540527 -0.05537334829568863 0.008409827947616577 0.04518863558769226 -0.0012540635652840137 0.06678260862827301 0.0799083486199379 -0.270199716091156 -0.144259512424469 -0.3098282217979431 -0.16758684813976288 -0.19620200991630554 -0.27573686838150024 -0.09723728895187378 0.23952674865722656 0.10465514659881592 0.08752423524856567 -0.12196794152259827 -0.04569483920931816 -0.30500519275665283 0.2608431577682495 -0.019205816090106964 -0.16352227330207825 -0.0766383558511734 0.019478362053632736 -0.06546016782522202 -0.0059142326936125755 0.5181288719177246 0.11240275204181671 -0.3210320472717285 0.1489848494529724 0.14981403946876526 0.18090568482875824 -0.642839789390564 0.043537236750125885 -0.22269770503044128 0.19897976517677307 0.002619651611894369 0.23260436952114105 0.5690814852714539 -0.32762646675109863 -0.22136661410331726 0.15600115060806274 -0.006984402891248465 0.32697412371635437 0.2070893496274948 0.0029821645002812147 -0.43989214301109314 -0.28360384702682495 -0.026798738166689873 -0.06525357067584991 0.3036728501319885 0.7605935335159302 -0.016999736428260803 0.33256566524505615 -0.055895306169986725 -0.569438099861145 -0.02933475375175476 0.040122777223587036 -0.16247901320457458 0.264132022857666 0.36042022705078125 -0.24034039676189423 -0.5998820066452026 0.014336802065372467 0.4185440242290497 -0.20654508471488953 -0.18087613582611084 -0.24844396114349365 0.3730052411556244 -0.0358906090259552 0.1801711618900299 0.32640403509140015 -0.08238460123538971 0.1212407574057579 -0.2237975299358368 0.23185694217681885 -0.32031962275505066 0.42384499311447144 -0.13772299885749817 -0.10859863460063934 0.28004977107048035 -0.27937954664230347 -0.19309894740581512 0.011760975234210491 0.030499886721372604 0.21275728940963745 0.13739687204360962 0.1639164686203003 -0.24332746863365173 0.3306487202644348 0.27066975831985474 -0.03753748908638954 -0.438170850276947 -0.8213924169540405 -0.12455074489116669 -0.19417384266853333 -0.35136017203330994 -0.007093628402799368 -0.24551275372505188 -0.2746981382369995 0.05112851783633232 0.072869673371315 0.2700881063938141 -0.13418331742286682 -0.13847176730632782 -0.06459952145814896 0.5768621563911438 -0.32392722368240356 -0.19308272004127502 -1.0461843013763428 0.07759314030408859 0.08768093585968018
node_44	0.022204939275979996 0.26217883825302124 0.09495305269956589 -0.2933608293533325 0.6581071019172668 -0.5541411638259888 0.18112926185131073 0.34384608268737793 -0.07847651094198227 -0.36721503734588623 0.2626427710056305 0.4203450679779053 0.33052703738212585 -0.1860676407814026 0.11330171674489975 -0.6108977794647217 0.8959958553314209 0.3704153001308441 -0.04731073975563049 0.003260284662246704 -0.11674275994300842 0.2909424901008606 0.1500243842601776 0.17630219459533691 -0.09566100686788559 0.27865564823150635 0.44630441069602966 -0.009505284950137138 0.26436877250671387 0.19026640057563782 -0.08597620576620102 0.3578755855560303 0.1501498520374298 0.10787637531757355 -0.5448346138000488 0.09133946150541306 -0.4648331105709076 0.19745062291622162 0.06673800945281982 0.19412311911582947 -0.74730384349823 0.23349210619926453 0.23618221282958984 -0.12250032275915146 0.14620542526245117 0.10648788511753082 0.4091818332672119 -0.3060772716999054 0.20242182910442352 0.10160939395427704 0.2669299244880676 -0.28506654500961304 -0.18897277116775513 0.323365181684494 -0.029716482385993004 -0.09491932392120361 -0.1860705316066742 0.5495554208755493 0.37429818511009216 0.04230628162622452 0.25092023611068726 0.6989094614982605 0.2657749652862549 -0.03316226229071617 0.26962363719940186 0.38862085342407227 -0.08767485618591309 -0.5195438861846924 0.05232545733451843 0.03668380528688431 -0.03356456011533737 0.03636472672224045 -0.02751164510846138 0.04795876145362854 0.050532784312963486 -0.17356276512145996 0.5048013925552368 -2.1031277179718018 -0.19796717166900635 0.8383943438529968 0.06251256912946701 -0.43968290090560913 0.713578462600708 -0.11075359582901001 0.11062540858983994 -0.5634675621986389 0.20420905947685242 -0.36138948798179626 0.3000926375389099 0.341949462890625 0.42940717935562134 0.039050303399562836 -0.19491955637931824 -0.06143657863140106 -0.21343445777893066 0.1463574767112732 -0.17304933071136475 -0.10294374078512192 -0.2756020426750183 0.02849503606557846 -0.14600150287151337 0.0665142685174942 -0.02312387339770794 -0.17284242808818817 0.08747207373380661 0.23734906315803528 -0.0063889301382005215 -0.2536744773387909 0.3839181661605835 0.3878316283226013 0.08562710881233215 0.11478333920240402 -0.2926916480064392 -0.09967634081840515 0.03282133489847183 0.11172416061162949 0.1532634198665619 0.05823381245136261 0.03046945109963417 0.14043554663658142 0.24214962124824524 -0.3701874017715454 0.2115761935710907 -0.23139867186546326 0.168596550822258 0.8634514212608337 0.39976152777671814 -0.22514961659908295 -0.07757548242807388 -0.2272120714187622 -0.1979111284017563 -1.0665531158447266 -0.19004464149475098 -0.1946561336517334 0.03198183327913284 0.27978238463401794 -0.24602341651916504 0.045723676681518555 -0.1562182903289795 0.021945221349596977 -0.2626544237136841 0.1560148000717163 -0.06290377676486969 0.2430056780576706 0.4490341544151306 -0.3863922953605652 -0.06016790121793747 -0.05754051357507706 -0.2956606149673462 0.04186948388814926 -0.29339247941970825 0.5561841726303101 0.2290714979171753 0.3164033889770508 -0.666126012802124 0.36898839473724365 -0.02038072608411312 -0.1074327826499939 -0.5277553796768188 0.3879334628582001 -0.05510459095239639 -0.22925612330436707 0.4295451045036316 0.22037699818611145 -0.09391716122627258 0.14094552397727966 -0.014707108959555626 0.051233526319265366 0.19823579490184784 0.8334786891937256 0.008874651044607162 -0.017986688762903214 0.13375850021839142 -0.09873192012310028 0.0726366713643074 0.07847175002098083 -0.016521623358130455 0.07492543756961823 0.22452875971794128 -0.1382891982793808 0.10684321820735931 0.05140049010515213 0.142770916223526 -0.31861191987991333 0.036922045052051544 0.36909204721450806 0.24798785150051117 -0.03712916374206543 -0.10961578786373138 -0.32798323035240173 -0.5239444971084595 -0.07477019727230072 0.34228354692459106 -0.20529410243034363 0.06152830645442009 0.19281470775604248 0.11260717362165451 -0.14175555109977722 0.2740761637687683 -0.055198006331920624 -0.5740371942520142 -0.4878091812133789 0.2721552550792694 -0.18004022538661957 0.38463491201400757 0.21045136451721191 0.17916977405548096 -0.17044328153133392 -0.13517943024635315 0.3853023052215576 -0.08259923756122589 0.487995982170105 0.06044503673911095 -0.04728240892291069 -0.03033909574151039 0.03953547403216362 -0.40655168890953064 -0.17599910497665405 -0.37350210547447205 -1.0817402601242065 0.2688092589378357 0.15833207964897156 -0.06219230219721794 -0.9827219843864441 0.638584315776825 0.6831581592559814 0.048653095960617065 0.18197421729564667 0.333270788192749 0.2811684310436249 0.08321893960237503 -0.11614023894071579 -0.7089569568634033 0.014165270142257214 0.36643439531326294 -0.6228362321853638 -0.09758330881595612 0.25615501403808594 0.1356372833251953 0.3968547582626343 -0.5466076731681824 0.2095436453819275 -0.024947162717580795 0.019598254933953285 0.007957245223224163 -0.08529512584209442 0.1674731820821762 -0.37839239835739136 -0.3316603899002075 0.037967484444379807 0.04621891304850578 0.009102849289774895 -0.012090599164366722 0.1968294233083725 0.5454460978507996 -0.11496707051992416 0.17764204740524292 -0.033455342054367065 -0.007982730865478516 -0.3942978084087372 -0.09636213630437851 0.06184987723827362 -0.050585221499204636 -0.1825333535671234 -0.14392927289009094 -0.017586540430784225 0.0430564358830452 -0.16527342796325684 -0.010449203662574291 0.08739497512578964 0.2969461977481842 0.04252014309167862 0.038958121091127396 0.21685056388378143 0.06888758391141891 0.22379282116889954 -0.44220417737960815 0.12474340200424194 -0.5573868155479431 -0.31313610076904297 0.20913481712341309 -0.1814125031232834 -0.3258427679538727 -0.37720704078674316 0.012525714933872223 -0.5233654975891113 0.13543954491615295 -0.3093104958534241 0.02889852039515972 0.08263139426708221 -0.1406792253255844 0.21346905827522278 -0.3706815242767334 0.45411473512649536 -0.021889012306928635 0.2594456672668457 0.20030377805233002 0.4877530038356781 0.14230278134346008 0.04880278930068016 -0.18175122141838074 -0.01113086473196745 -0.004045143723487854 -0.0521104596555233 0.06041523814201355 -0.2827816605567932 0.30891379714012146 -0.34208089113235474 -0.014534170739352703 0.30052462220191956 -0.013359460979700089 0.18086311221122742 0.002790689468383789 0.10490293800830841 0.0015321038663387299 -0.07426320761442184 0.15469177067279816 -0.21371673047542572 0.5438177585601807 0.10819771140813828 -0.09199193120002747 -0.06781312823295593 -0.5257697105407715 0.035948496311903 -0.12132947146892548 0.33194202184677124 0.22206561267375946 -0.5308214426040649 0.31491178274154663 0.22563138604164124 1.3963755369186401 0.610359787940979 0.07332350313663483 0.8995386958122253 0.18195635080337524 0.16735951602458954 -0.11670087277889252 -0.09884653985500336 -0.34708425402641296 -0.2135017365217209 -0.17459450662136078 -0.4404299259185791 0.5142409801483154 0.03204816207289696 0.21776330471038818 0.18013164401054382 0.43559324741363525 -0.07306956499814987 0.24229268729686737 -0.4908275604248047 0.018127944320440292 -0.32236382365226746 -0.01338240783661604 -0.6147810816764832 0.09279005974531174 0.39669331908226013 -0.17755940556526184 -0.17397186160087585 0.055972617119550705 -0.13702350854873657 -0.49807628989219666 0.6925473213195801 -0.06633283942937851 -0.7053502798080444 -0.06769420206546783 -0.5882675647735596 -1.3068675994873047 -0.15198668837547302 0.18621861934661865 -0.14127951860427856 -0.0877828523516655 -0.015492400154471397 0.38863393664360046 -0.2836950421333313 0.3935133218765259 0.12014877796173096 0.22150707244873047 0.4145899713039398 0.3319699168205261 -0.09986408799886703 -0.0046956962905824184 0.35660433769226074 -0.06303756684064865 0.3312103748321533 0.08895878493785858 -0.3440258502960205 -0.15080495178699493 0.30619168281555176 0.23710042238235474 0.07696545124053955 0.15982675552368164 0.10315883159637451 0.22181007266044617 0.4728146195411682 -0.18683144450187683 0.3028636574745178 0.006181647535413504 1.1873892545700073 -0.38640135526657104 0.07067038863897324 0.11004610359668732 0.05421314388513565 -0.2994467616081238 0.09906807541847229 0.21631497144699097 0.3653547465801239 -0.021513793617486954 0.08948148787021637 0.19729122519493103 -0.6072601079940796 -0.2317793369293213 0.01571029983460903 -0.3908868432044983 -0.6335625648498535 -0.2924192547798157 -0.207863450050354 0.27993351221084595 -0.24151365458965302 -0.6675872802734375 0.04963681101799011 0.41835254430770874 0.0908617302775383 0.3894178867340088 0.07937408238649368 -0.5803257822990417 0.1704925298690796 -0.44814619421958923 -0.20583677291870117 -0.667121410369873 0.02693714015185833 -0.07540494203567505 0.2614317536354065 0.6033414602279663 0.31943318247795105 0.10324667394161224 0.00899223517626524 0.2031293362379074 -0.1734553575515747 -0.3197427988052368 0.5807234048843384 -0.2836461067199707 -0.02101694419980049 -0.33573657274246216 0.5465648174285889 -0.06195700168609619 0.3512779474258423 -0.17379975318908691 -0.09021972864866257 -0.4713214337825775 0.1580655425786972 -0.381435364484787 0.6613584756851196 -0.42843693494796753 -2.1068594455718994 0.22456204891204834 0.2863265573978424 0.1577383279800415 0.14482687413692474 0.10329803824424744 0.12676148116588593 -0.28675591945648193 -0.02285909280180931 0.19465689361095428 0.18412600457668304 -0.014082208275794983 0.06764435768127441 -0.04911702871322632 -0.04951854795217514 -0.24476413428783417 -0.005406901240348816 0.25246357917785645 0.20222777128219604 0.05541134998202324 0.14880946278572083 -0.05431926250457764 0.30428171157836914 -0.10369934886693954 -0.2770676910877228 0.32279956340789795 0.030175119638442993 0.03768313676118851 -0.08508709073066711 -0.02148756943643093 -0.19166046380996704 0.035229481756687164 0.2774442136287689 -0.18346986174583435 -0.11523692309856415 0.29863643646240234 -0.30066096782684326 -0.3319825530052185 0.4409295916557312 -0.4825262427330017 0.48776453733444214 0.08275344222784042 0.22294792532920837 -1.4205907583236694 0.04994433373212814 -0.3736329972743988 -0.22084371745586395 0.15425829589366913 0.14762620627880096 0.11539722979068756 0.11286486685276031 0.11529331654310226 -0.4171599745750427 -0.18133825063705444 0.1780996322631836 -0.10845780372619629 -0.07753544300794601 0.21337488293647766 -0.05405434966087341 -0.15018408000469208 0.09233373403549194 -0.014423332177102566 -0.2544430196285248 0.07511691749095917 0.16334384679794312 -0.2461821287870407 -0.3089967668056488 -0.1426154375076294 0.2107924073934555 -0.13705840706825256 0.0687265396118164 0.1594865769147873 0.11760570853948593 0.14869779348373413 -0.0017902435502037406 -0.2222500890493393 -0.21272550523281097 0.4418342113494873 0.038617826998233795 0.10634635388851166 -0.020104093477129936 0.6187677979469299 -0.03685287758708 0.03255782276391983 -0.13419783115386963 0.3913215398788452 -0.313662588596344 -0.06594668328762054 0.08349832147359848 -0.25068268179893494 -0.2216382473707199 0.46042951941490173 -0.3233729302883148 0.1254737377166748 0.09859001636505127 0.20547938346862793 0.14822500944137573 -0.5419136881828308 1.822758674621582 0.23185357451438904 -0.13331381976604462 -0.3005007803440094 0.15753060579299927 0.1609085202217102 -0.17376911640167236 -0.08121304214000702 0.3698284327983856 -0.013157369568943977 -0.9404863119125366 0.07540453970432281 -0.05209829658269882 -0.2793983221054077 0.3307900130748749 0.5516310930252075 -0.13383632898330688 0.29517894983291626 0.18311691284179688 -0.4398302435874939 0.17636248469352722 0.05771004408597946 -0.1585196703672409 -0.4258154332637787 -0.2472141683101654 0.016742628067731857 0.2913948893547058 0.3078162372112274 0.12715697288513184 0.5577272772789001 0.1301233172416687 -0.07873094081878662 -0.29601022601127625 0.19090896844863892 -0.2777179479598999 0.636170506477356 0.05803680419921875 10.14604377746582 0.07168500870466232 0.07939589023590088 0.013597492128610611 0.07462725043296814 0.02983192354440689 -0.04120246320962906 0.07974450290203094 -0.11006363481283188 -0.009964141994714737 -0.044001977890729904 -0.25994977355003357 0.15877419710159302 -0.3523913323879242 -0.05452851951122284 0.04974358528852463 0.6875714659690857 0.25190162658691406 0.17099487781524658 -0.08420251309871674 0.06493198871612549 0.16022616624832153 0.12321987748146057 -0.06515306234359741 -0.02145523391664028 0.22353076934814453 -0.6267075538635254 0.41128528118133545 0.11171692609786987 0.24014882743358612 0.2221146523952484 0.11050194501876831 -0.029771894216537476 0.30721935629844666 0.06037618964910507 0.4022890031337738 -0.4828365445137024 -0.04359036684036255 0.22359995543956757 -0.19502471387386322 -0.27308887243270874 -0.3748215138912201 0.09360110759735107 0.00988511648029089 0.07699418067932129 0.23378178477287292 -0.5041998624801636 0.2593306303024292 0.15635457634925842 0.15626198053359985 0.28306305408477783 0.16337189078330994 0.01608024537563324 -0.5505352020263672 -0.08111119270324707 -0.4014838635921478 0.4751860499382019 0.09690733253955841 -0.18738430738449097 -0.7232057452201843 -0.08938803523778915 -0.035985834896564484 -0.26302653551101685 -0.11022226512432098 0.15245290100574493 0.0018441230058670044 0.43771228194236755 0.0503174290060997 0.3130020201206207 -0.008423462510108948 -0.05618219077587128 -0.24649611115455627 0.19396261870861053 -0.06738162040710449 -0.522549033164978 -0.5290243625640869 -0.2864410877227783 -0.24971351027488708 -0.1599912941455841 -0.22412210702896118 0.04999811202287674 0.19033774733543396 0.34845948219299316 -0.04365194961428642 -0.3899540305137634 -0.01593809388577938 -0.3484676480293274 0.31211405992507935 0.07637198269367218 -0.11126776784658432 -0.134505495429039 0.009576956741511822 -0.14652562141418457 -0.05846502631902695 0.4938913583755493 -0.00024476152611896396 -0.04245586320757866 0.09029339998960495 0.053893864154815674 0.23676101863384247 -0.7194160223007202 0.0803903117775917 -0.25056371092796326 0.29650020599365234 -0.033182233572006226 0.14559142291545868 0.5853264927864075 -0.2696331739425659 -0.19599729776382446 0.14500796794891357 0.06565993279218674 0.24773184955120087 -0.014477994292974472 0.03796722739934921 -0.5095898509025574 -0.2573525607585907 -0.08201533555984497 -0.012976783327758312 0.17852172255516052 0.7567364573478699 0.013669868931174278 0.28195229172706604 -0.0046022264286875725 -0.6195220947265625 0.19958458840847015 0.16067129373550415 -0.08048692345619202 0.1862984150648117 0.31482213735580444 -0.04311300441622734 -0.5230073928833008 -0.1922534704208374 0.4694809913635254 0.011687226593494415 -0.20658855140209198 -0.3108368515968323 0.1940966695547104 -0.04416391998529434 0.33022111654281616 0.3603717088699341 -0.006906556896865368 0.13061386346817017 -0.2402806282043457 -0.13739143311977386 -0.1527668535709381 0.03310292214155197 -0.2516138255596161 0.33895719051361084 0.2832951545715332 -0.3022952675819397 -0.23520176112651825 -0.11163153499364853 -0.29141706228256226 0.12780827283859253 -0.04029419273138046 0.2709302008152008 -0.12753714621067047 0.4476736783981323 0.2494608610868454 0.010739874094724655 0.009936491958796978 -0.7039698362350464 -0.8842124938964844 -0.035992443561553955 0.49947986006736755 -0.08491744101047516 0.03970593586564064 -0.33915162086486816 0.1969008445739746 0.004226028919219971 0.2105768918991089 -0.1077752560377121 -0.2626792788505554 -0.13825727999210358 0.5655674338340759 -0.2845730781555176 -0.48129117488861084 -0.9975334405899048 -0.037714675068855286 0.14728346467018127
node_28	-0.05838853865861893 0.1876688301563263 0.042053282260894775 -0.34429702162742615 0.8153330683708191 -0.6156004667282104 0.13159959018230438 0.14895719289779663 -0.2923787832260132 -0.4964183270931244 0.19474518299102783 0.23716166615486145 0.23412452638149261 -0.8366992473602295 0.09224061667919159 -0.22630596160888672 0.5538557767868042 0.267598420381546 0.03429841995239258 -0.26886773109436035 -0.17971670627593994 0.07944908738136292 0.2296954095363617 0.2309870421886444 -0.12757842242717743 0.311334490776062 0.4126740097999573 -0.004759821109473705 0.16339635848999023 0.1592535525560379 0.04317154735326767 0.3046264052391052 0.11599680036306381 0.16912385821342468 -0.3044482469558716 0.21842652559280396 -0.46407032012939453 0.20132558047771454 0.1302056610584259 0.05114911496639252 -0.4199816584587097 0.6183367371559143 0.3548160493373871 -0.015792500227689743 0.23859375715255737 -0.005440752021968365 0.2668423652648926 0.2989843785762787 0.2641768157482147 0.02041139081120491 0.29680633544921875 -0.2582239806652069 -0.23115162551403046 0.24496124684810638 -0.10343398153781891 -0.18113014101982117 -0.14370131492614746 0.3651585280895233 0.3087228536605835 0.014817966148257256 0.006905391812324524 0.7603804469108582 0.28370770812034607 0.01045435480773449 0.11246220767498016 0.1995352953672409 -0.15369912981987 -0.29463621973991394 0.1927998661994934 0.05788479372859001 -0.15612806379795074 0.20676356554031372 0.057923298329114914 -0.37655383348464966 0.16505983471870422 -0.13379210233688354 0.3609292507171631 -2.393155097961426 -0.19974808394908905 0.9084717035293579 0.0868905708193779 -0.39144596457481384 0.9732529520988464 0.006631895899772644 0.01087258942425251 -0.5743336081504822 0.20864927768707275 -0.38532477617263794 0.26477766036987305 0.5430542230606079 0.4508667588233948 -0.056475959718227386 -0.2030220329761505 0.19912022352218628 -0.1456369161605835 0.15404820442199707 -0.30635643005371094 -0.5282912254333496 -0.32120203971862793 0.13220708072185516 0.006914745084941387 0.01047054585069418 0.007958238944411278 -8.052898192545399e-05 0.24866823852062225 0.5739903450012207 -0.2031453549861908 -0.34754127264022827 0.2533082962036133 0.503971517086029 0.021023333072662354 0.1271222084760666 -0.25108790397644043 0.006002252455800772 -0.05707550048828125 -0.09782655537128448 0.1120547503232956 0.11112257093191147 0.09636037051677704 0.43309497833251953 0.4827759265899658 -0.3394286036491394 -0.04926138371229172 -0.05483275651931763 0.14113152027130127 0.5723869800567627 0.504745602607727 -0.20707768201828003 -0.11115092039108276 -0.40377146005630493 -0.11863221973180771 -0.6163545250892639 -0.07893736660480499 -0.2181980311870575 -0.07558005303144455 0.3033757209777832 -0.3469499945640564 0.016820698976516724 -0.13081854581832886 -0.031896062195301056 -0.18142342567443848 0.039688900113105774 0.25656363368034363 0.21302556991577148 0.6860489845275879 -0.11713910102844238 -0.08659490942955017 -0.09473403543233871 -0.35035595297813416 0.0418996661901474 -0.2302333414554596 0.5529462695121765 0.09179791808128357 0.37496131658554077 -0.4308569133281708 0.3213888108730316 -0.15655213594436646 -0.2496321052312851 -0.6331670880317688 0.6169072389602661 -0.01935426890850067 -0.3096713423728943 0.38276273012161255 0.2902470827102661 -0.11035965383052826 0.07860659062862396 -0.07367267459630966 -0.09385218471288681 0.07101176679134369 0.623908519744873 0.047259505838155746 0.06605251133441925 0.04939159378409386 -0.33692485094070435 -0.08961936086416245 -0.006054980214685202 -0.0656002014875412 -0.05244262143969536 0.235193133354187 -0.11630535125732422 0.10721024125814438 0.10858675092458725 0.24058179557323456 -0.1942746341228485 -0.08628549426794052 0.31341680884361267 0.40645503997802734 -0.006593130528926849 -0.13223397731781006 -0.24340376257896423 -0.5147058963775635 0.005500038154423237 0.30783331394195557 -0.08384796231985092 0.12880723178386688 0.12846611440181732 0.15607202053070068 -0.041726913303136826 0.3329603672027588 -0.17016369104385376 -0.4895722270011902 -0.30003058910369873 0.343293160200119 -0.17586027085781097 0.37628090381622314 -0.041095536202192307 -0.04322212189435959 -0.22881059348583221 -0.21155869960784912 0.3093118369579315 -0.09346179664134979 0.3225877583026886 -0.035357147455215454 -0.1548425406217575 0.23673753440380096 0.1142716035246849 -0.5025655031204224 -0.0889214426279068 -0.3724430501461029 -0.9078958034515381 0.3932894170284271 0.17594444751739502 0.0021170973777770996 -0.9321601390838623 0.43932849168777466 0.514133870601654 0.004601081367582083 0.18310467898845673 0.26892703771591187 -0.019410809502005577 -0.01783677749335766 -0.12123456597328186 -0.5275076627731323 0.14610172808170319 0.22553150355815887 -0.7859805822372437 -0.1321633756160736 0.2849016487598419 0.04864877089858055 0.19476918876171112 -0.5506073236465454 0.2213362157344818 0.06735555082559586 0.017504503950476646 -0.05927903577685356 0.24084047973155975 0.16530302166938782 -0.12642954289913177 -0.3315521478652954 -0.08595799654722214 -0.14453434944152832 -0.3800230920314789 -0.12620672583580017 0.1928180754184723 0.9925563335418701 -0.16796743869781494 -0.06741157919168472 0.03022162616252899 -0.10737192630767822 -0.4253905713558197 -0.16399428248405457 0.07421436905860901 0.02175719104707241 -0.18184325098991394 -0.22985641658306122 -0.18222294747829437 -0.03211675584316254 -0.13430196046829224 0.10982862114906311 0.2657720744609833 0.25417011976242065 0.007784128189086914 0.15409457683563232 0.3162771463394165 0.04195702075958252 0.057025179266929626 -0.5641326308250427 0.1888308823108673 0.02246144413948059 -0.34060919284820557 0.12369659543037415 -0.048400312662124634 -0.20662879943847656 -0.5922912359237671 -0.02146191895008087 -0.5076658725738525 0.14451247453689575 -0.28334763646125793 0.05238727852702141 -0.0685567706823349 -0.04923152178525925 0.18214856088161469 -0.266644150018692 0.5277944803237915 -0.23958739638328552 0.1925545334815979 0.12773331999778748 0.6872638463973999 0.2614399194717407 -0.03295551985502243 0.12672850489616394 0.2395840883255005 0.15418466925621033 -0.048573024570941925 -0.039218269288539886 -0.22254495322704315 0.09134502708911896 0.007728949189186096 0.09570690989494324 0.26619765162467957 0.05681925266981125 0.26651349663734436 -0.060088448226451874 -0.11206263303756714 -0.010783303529024124 0.14409175515174866 0.21970230340957642 -0.055449239909648895 0.5473477840423584 0.05289192125201225 0.002543993294239044 -0.04616272449493408 -0.43539413809776306 -0.018465926870703697 -0.3930949568748474 0.40556079149246216 -0.06094437465071678 -0.5196167826652527 0.2972427308559418 0.3325883150100708 1.2624938488006592 0.4444018304347992 0.10760657489299774 0.4027339816093445 0.1064586341381073 0.09242591261863708 -0.1806737631559372 -0.07588879764080048 -0.4393306374549866 -0.11848698556423187 0.19881495833396912 -0.22587963938713074 0.20756548643112183 0.05388212203979492 0.2140200436115265 0.23561358451843262 0.5501946210861206 -0.18324515223503113 0.12538465857505798 -0.3911917209625244 -0.1628016233444214 -0.16153165698051453 -0.0328853577375412 -0.7968186140060425 0.24816332757472992 0.29969078302383423 -0.06259916722774506 -0.19010713696479797 -0.09809034317731857 0.17297625541687012 -0.43438586592674255 0.658133864402771 -0.15499183535575867 -0.7265331149101257 -0.03442247584462166 -0.35116374492645264 -0.7948870062828064 -0.05886274203658104 -0.01912982389330864 -0.04644004628062248 -0.19895558059215546 0.22022229433059692 0.5262434482574463 -0.5648492574691772 0.5109542608261108 -0.006412766873836517 0.4545292854309082 0.20622579753398895 0.13916435837745667 -0.05815223976969719 0.06329856067895889 0.42895328998565674 -0.07169608771800995 0.30501267313957214 0.09645615518093109 -0.3867794871330261 -0.16862568259239197 0.28860586881637573 0.21187591552734375 0.23626431822776794 0.10321018099784851 0.2540163993835449 0.28248482942581177 0.5185500979423523 -0.1962885856628418 0.2999027967453003 0.2686055302619934 0.5477668642997742 -0.34751492738723755 0.1799810826778412 0.13489249348640442 0.2315526008605957 -0.26419344544410706 -0.13486498594284058 0.3107089698314667 0.19600212574005127 0.2310313582420349 0.17452697455883026 -0.05519305169582367 -0.847689151763916 -0.399086058139801 -0.28026658296585083 -0.33804959058761597 -0.3734881579875946 -0.32950931787490845 -0.16161802411079407 0.11831395328044891 -0.3247862160205841 -0.6662735939025879 0.058821942657232285 0.3976421356201172 0.1025073379278183 0.4497761130332947 0.054617177695035934 -0.6048327088356018 0.21497035026550293 -0.43858784437179565 -0.09318806976079941 -0.47201547026634216 0.02150873839855194 -0.08141183853149414 0.22356073558330536 0.6932126879692078 0.15404245257377625 0.14953750371932983 -0.07334031164646149 0.09906523674726486 -0.20676641166210175 -0.08213211596012115 0.3227432370185852 -0.20811769366264343 -0.055615346878767014 -0.24939072132110596 0.3373285233974457 -0.15424349904060364 0.3573237359523773 -0.4721495807170868 -0.025460388511419296 -0.3546263575553894 -0.0897853672504425 -0.3145782947540283 0.6188726425170898 -0.31159651279449463 -1.92844557762146 0.019916921854019165 0.2268022894859314 0.18252520263195038 0.1041477620601654 0.20464912056922913 0.26668012142181396 -0.20555293560028076 -0.18504667282104492 0.13450726866722107 0.14937633275985718 -0.013640372082591057 0.20864300429821014 -0.1336357444524765 -0.12982022762298584 -0.3040463924407959 -0.01561791729182005 0.3020327687263489 0.3649265766143799 0.07075096666812897 0.05816660448908806 0.03225959837436676 0.2705974280834198 -0.30031365156173706 -0.17300687730312347 0.24924546480178833 -0.03439880535006523 -0.04343351721763611 -0.10317395627498627 0.017863448709249496 -0.07396542280912399 -0.008272713981568813 0.2527032792568207 -0.1614421010017395 0.03260986506938934 0.39639565348625183 -0.27961063385009766 -0.4130156636238098 0.20147374272346497 -0.21686753630638123 0.4834527373313904 0.08943481743335724 0.2256629914045334 -1.198221206665039 -0.17401406168937683 -0.12458568066358566 -0.3465080261230469 0.035423554480075836 0.024472704157233238 0.09028610587120056 0.00914091058075428 0.15590611100196838 -0.4004382789134979 -0.13961856067180634 0.03120235726237297 0.12059523165225983 -0.16036371886730194 0.28485140204429626 0.03139843791723251 -0.05414034426212311 0.10923679172992706 -0.07234811782836914 -0.2291816920042038 0.1800432652235031 0.07482481747865677 -0.22643034160137177 -0.646719217300415 -0.27006709575653076 0.2107098549604416 -0.13566960394382477 0.00867756363004446 0.15732219815254211 0.13097968697547913 0.09936186671257019 0.045348286628723145 -0.09697018563747406 -0.2679409682750702 0.3756366968154907 -0.019570227712392807 0.16128379106521606 0.0018490776419639587 0.7110196352005005 0.16677215695381165 0.2179218828678131 -0.03283494710922241 0.9681569933891296 -0.07235728204250336 -0.653586745262146 0.045201968401670456 -0.05151057243347168 -0.10402091592550278 0.4450070858001709 -0.3075951933860779 0.19040262699127197 0.02980518899857998 0.202900692820549 0.04754863306879997 -0.25736215710639954 1.2997673749923706 0.1172618716955185 -0.09739468991756439 -0.02357732318341732 0.18504402041435242 0.17461034655570984 -0.14896085858345032 -0.09514894336462021 0.18891189992427826 0.09246482700109482 -0.2143680453300476 0.143275186419487 0.19703826308250427 -0.5840308666229248 0.2912924289703369 0.477705180644989 -0.22969624400138855 0.39862197637557983 0.1988297402858734 0.6910685300827026 0.32580259442329407 0.06232920289039612 0.663536548614502 -0.4547039866447449 -0.19973604381084442 0.07213467359542847 0.28553858399391174 0.01750345155596733 0.08777990192174911 0.35888051986694336 0.41009625792503357 -0.04196822643280029 -0.42138051986694336 0.31881389021873474 -0.18491356074810028 0.596480667591095 0.008627653121948242 9.845888137817383 -0.13732127845287323 0.03578311204910278 -0.09565018117427826 0.056503526866436005 0.008628848940134048 -0.14865434169769287 -0.034395284950733185 -0.1993761509656906 0.13333338499069214 -0.015293613076210022 -0.44015854597091675 0.22268271446228027 -0.3001958727836609 -0.19970080256462097 0.08765026181936264 0.4877331256866455 0.20637667179107666 -0.04942227527499199 -0.19175344705581665 -0.05036713927984238 -0.13980671763420105 0.0134372403845191 0.15724961459636688 -0.15067081153392792 0.19159376621246338 -0.5488474369049072 0.43257665634155273 0.1140373945236206 0.33448106050491333 0.28083857893943787 0.15922194719314575 -0.014262165874242783 0.11771645396947861 -0.09681221097707748 0.16878865659236908 -1.0029572248458862 -0.14204317331314087 0.3794233798980713 -0.17006973922252655 -0.11602485179901123 -0.40391525626182556 0.06930340826511383 0.0352797769010067 0.12859751284122467 0.325610488653183 -0.547654926776886 0.08985893428325653 0.12968826293945312 0.16378603875637054 0.22797906398773193 0.07807840406894684 0.07333382964134216 -0.3951091766357422 -0.08008982986211777 -0.3828159272670746 0.4593242108821869 0.014185848645865917 -0.12705543637275696 -0.17937694489955902 0.03266043961048126 -0.12502482533454895 -0.12711668014526367 -0.023479005321860313 0.3970046937465668 -0.03492928296327591 0.4384894371032715 -0.006959140300750732 0.5052405595779419 0.21688804030418396 -0.005896206945180893 -0.05378373712301254 0.08851289749145508 0.14529791474342346 -0.3972298502922058 -0.15650801360607147 -0.10249096155166626 -0.21487461030483246 -0.13270974159240723 -0.32332131266593933 -0.15556778013706207 0.259741872549057 0.20016257464885712 0.05043560266494751 -0.8108443021774292 0.03724527359008789 -0.32723119854927063 0.3066546618938446 0.2062489241361618 -0.06450203061103821 0.12977981567382812 -0.04641807824373245 -0.10525473952293396 -0.03796878457069397 0.5010758638381958 0.08814337104558945 -0.30381736159324646 0.08840005099773407 0.23167556524276733 0.16069404780864716 -0.7358981966972351 0.03524035960435867 -0.31308621168136597 0.05426965281367302 0.08668600022792816 0.287920743227005 0.5345234870910645 -0.389507532119751 -0.368324339389801 0.1875840425491333 0.024658113718032837 0.19656270742416382 0.2157987356185913 0.16880196332931519 -0.33309176564216614 -0.31864142417907715 -0.0019364407053217292 0.024439852684736252 0.28389447927474976 0.7424210906028748 -0.0751689076423645 0.2432328760623932 -0.043862875550985336 -0.573417067527771 -0.07016982138156891 -0.02375841699540615 -0.11048567295074463 0.3878456950187683 0.2697864770889282 -0.15636815130710602 -0.5475976467132568 -0.07463882863521576 -0.0239359550178051 -0.20495067536830902 -0.202984020113945 -0.10242103785276413 0.33351537585258484 -0.03681053966283798 0.3228450417518616 0.2579330801963806 -0.06431537866592407 0.19116365909576416 -0.1471787542104721 -0.07205598801374435 -0.3361639678478241 0.4266626238822937 -0.16281822323799133 0.28814566135406494 0.35725700855255127 -0.2656829059123993 -0.25318992137908936 -0.1193927749991417 0.06148123741149902 0.2876601219177246 -0.04639498516917229 0.2010573148727417 -0.1976543366909027 0.41368553042411804 0.12190961837768555 -0.1077713593840599 -0.33477783203125 -0.9870375394821167 -0.3384513854980469 -0.7370578050613403 0.4073954224586487 -0.12156399339437485 -0.26338285207748413 -0.2601989209651947 0.10420571267604828 0.10013224929571152 0.44988521933555603 -0.1613030731678009 -0.246114581823349 -0.20646974444389343 0.4117755889892578 -0.34244081377983093 -0.28991588950157166 -0.9011949300765991 0.014647039584815502 0.1574038714170456
