node_20	0.03552870452404022 0.17246997356414795 0.17479613423347473 -0.034775253385305405 0.30220016837120056 -0.2753497362136841 -0.01783694513142109 0.2551605999469757 -0.08336900919675827 -0.5578333735466003 0.31665509939193726 0.8605259656906128 0.28781411051750183 -0.29447081685066223 0.2523329257965088 -0.37771522998809814 0.5286593437194824 0.0421244353055954 -0.056489042937755585 0.15720820426940918 0.16565647721290588 0.12360185384750366 0.27626654505729675 0.1970057189464569 -0.39688640832901 0.11069347709417343 0.5013536810874939 -0.13044629991054535 0.017105013132095337 -0.21054917573928833 -0.07432862371206284 0.3674773871898651 0.0798642635345459 0.18616816401481628 -0.006317568477243185 0.0916300043463707 -0.3214871287345886 0.33267518877983093 0.5710787177085876 0.049291517585515976 -0.6525964140892029 0.3376801609992981 0.20147210359573364 -0.1443709135055542 0.026632633060216904 0.037852536886930466 -0.05482013151049614 0.19363492727279663 0.1465025097131729 0.011090723797678947 0.11386756598949432 -0.4064159393310547 -0.2436181604862213 0.22552704811096191 0.01135173998773098 0.14902837574481964 -0.2335112988948822 -0.0012160639744251966 0.09578748792409897 0.13092464208602905 0.30911391973495483 0.5963067412376404 0.1808362603187561 -0.1214401051402092 0.13937795162200928 0.22764182090759277 -0.18241190910339355 -0.3662850260734558 0.12656861543655396 0.11103963851928711 -0.07681043446063995 0.0037443700712174177 0.11086831986904144 0.09359291195869446 0.02278328314423561 -0.2260475605726242 0.43430620431900024 -3.2611396312713623 0.0007099708309397101 0.7668919563293457 0.06417741626501083 -0.350962370634079 1.3180726766586304 -0.06288541853427887 0.18362542986869812 -0.9808246493339539 0.42107027769088745 -0.40275153517723083 0.07526591420173645 0.5054612755775452 0.5662023425102234 0.17210763692855835 -0.21604089438915253 0.1584445685148239 -0.19083844125270844 0.21970275044441223 -0.1740114688873291 -0.5726649761199951 -0.39681515097618103 0.16843858361244202 0.09532289952039719 -0.04541690647602081 0.49335193634033203 -0.3315863013267517 0.31788235902786255 0.09584440290927887 -0.23674283921718597 -0.3498242497444153 0.1628025472164154 0.4004828631877899 0.05362585932016373 0.2421499341726303 -0.06831568479537964 -0.1365491896867752 -0.06311500817537308 0.2192443460226059 0.11364968866109848 0.12408237159252167 0.24326476454734802 0.461660236120224 0.0937574952840805 -0.3782336413860321 0.23239712417125702 -0.1560031622648239 -0.021236112341284752 0.6704006195068359 0.5599232912063599 -0.15223626792430878 -0.19611893594264984 -0.2906149625778198 -0.24220018088817596 -1.4267410039901733 -0.135038822889328 0.05153660103678703 -0.05010432004928589 0.3009340763092041 -0.224269837141037 0.04941670224070549 0.03771386668086052 0.2011452615261078 -0.07721084356307983 -0.06484577059745789 0.06688772886991501 0.22389057278633118 1.0322378873825073 -0.0014945020666345954 -0.02109527215361595 -0.29183363914489746 -0.03321869298815727 0.08479616045951843 -0.22656100988388062 0.6306542158126831 -0.045875392854213715 0.39189600944519043 -0.5110386610031128 0.5571697950363159 -0.14866536855697632 -0.36806780099868774 -0.32235872745513916 0.6938585638999939 0.05706140398979187 -0.2900678515434265 0.6369149088859558 0.14205408096313477 0.15216687321662903 -0.02656910941004753 -0.20592856407165527 -0.14307278394699097 0.033312492072582245 0.7140618562698364 -0.19035421311855316 0.009122326970100403 0.008773372508585453 -0.2015630006790161 -0.16289401054382324 0.09163468331098557 -0.1813260018825531 -0.0029724787455052137 0.21131698787212372 -0.04835359379649162 -0.006452677305787802 0.08366228640079498 0.20462536811828613 -0.37239503860473633 0.14846229553222656 0.5879033207893372 0.18910300731658936 -0.10706022381782532 -0.1543862521648407 -0.1363157331943512 -0.5154554843902588 0.011881865561008453 0.25973817706108093 -0.1345767378807068 0.21351879835128784 0.16452746093273163 -0.01872459426522255 -0.03460371121764183 0.35160964727401733 -0.06906169652938843 -0.48406291007995605 -0.3434426784515381 0.47826993465423584 -0.10207795351743698 0.452176034450531 0.08317519724369049 -0.4478323459625244 -0.37151822447776794 -0.4168853759765625 0.1955389678478241 -0.20468446612358093 0.9761612415313721 -0.2887903153896332 -0.1788558065891266 0.4536222815513611 0.20500537753105164 -0.25752806663513184 -0.37084412574768066 0.01567278429865837 -1.4390443563461304 0.23002979159355164 0.09523539990186691 -0.013398095965385437 -0.9031575918197632 0.5804569721221924 0.3116570711135864 0.08233983814716339 0.08486247062683105 0.3784087598323822 0.25519147515296936 0.1525823175907135 -0.3595680594444275 -0.704241156578064 -0.011091470718383789 0.12878093123435974 -0.045407216995954514 -0.2642492949962616 0.3915957808494568 0.06495989859104156 0.13092713057994843 -0.2956193685531616 0.2937719523906708 -0.12502208352088928 0.16097906231880188 -0.03787321224808693 -0.3088997006416321 -0.03168141096830368 -0.8096855878829956 -0.15456299483776093 -0.19291934370994568 -0.1801917999982834 -0.052374787628650665 -0.00011162956798216328 0.06837635487318039 0.4873269200325012 -0.14172594249248505 0.22543857991695404 -0.0033806036226451397 -0.20931467413902283 -0.12304188311100006 0.05030471086502075 0.03822886198759079 0.021654196083545685 -0.2511053681373596 -0.21386155486106873 -0.5050550103187561 0.1303860992193222 -0.2013983428478241 -0.14569425582885742 0.19354477524757385 0.29135948419570923 0.10514792799949646 0.30084145069122314 0.12402288615703583 -0.0818810686469078 0.09904997795820236 -0.4017833173274994 0.056413810700178146 -0.3139188885688782 -0.4822637438774109 0.1418423056602478 0.07103711366653442 -0.6647616028785706 -0.6967796683311462 -0.05342046543955803 -0.19709858298301697 0.0024130463134497404 -0.18704521656036377 -0.2101536989212036 0.003472867188975215 -0.08511277288198471 0.21968966722488403 -0.31172803044319153 0.4439905285835266 -0.43917959928512573 0.2448977530002594 0.008794844150543213 0.570594310760498 0.166976198554039 0.2346847653388977 -0.14806193113327026 0.408270001411438 -0.022922268137335777 -0.05146629735827446 0.12603752315044403 -0.33092936873435974 0.1619042307138443 0.04696511849761009 0.038302943110466 0.26980048418045044 0.00830837618559599 0.3017481863498688 0.10300253331661224 0.23037020862102509 0.07941751182079315 -0.013340357691049576 0.32071352005004883 -0.1655963957309723 0.4045219421386719 0.06333991885185242 -0.07671771943569183 -0.19535362720489502 -0.2589418590068817 -0.012260675430297852 -0.1738835573196411 0.3390554189682007 -0.04164277762174606 -0.4479448199272156 0.3672301769256592 0.20988446474075317 0.9854940176010132 0.6929188966751099 0.13181884586811066 0.8331789374351501 0.14279772341251373 0.07694758474826813 -0.13214616477489471 -0.135277658700943 -0.3342711329460144 -0.06917470693588257 -0.0785270556807518 -0.5729632377624512 0.13145959377288818 0.10819602012634277 0.08046489953994751 0.128576397895813 0.5354880094528198 -0.16261807084083557 0.25010251998901367 -0.3867884874343872 0.05188506469130516 -0.1910289227962494 0.13354545831680298 -0.5252625942230225 0.396409809589386 0.3690335154533386 -0.15082551538944244 -0.24531853199005127 -0.025727365165948868 -0.18413576483726501 -0.6177849173545837 0.8700258731842041 -0.15317486226558685 -0.541764497756958 -0.23080985248088837 -0.40688222646713257 -0.6929367780685425 -0.1330377757549286 -0.0028487741947174072 -0.03988906741142273 -0.09606906026601791 0.15393172204494476 0.4515252113342285 -0.16039301455020905 0.2797011733055115 0.11535768955945969 0.4613837003707886 0.2654940187931061 0.15593141317367554 -0.49008530378341675 -0.13488465547561646 0.3457591235637665 0.09878575801849365 0.4344136714935303 -0.03570878505706787 -0.32176920771598816 -0.2717256546020508 0.3367466926574707 0.5872008800506592 0.07973968982696533 0.1910417526960373 0.15995782613754272 0.07477083802223206 0.5321587324142456 -0.26508480310440063 0.25895655155181885 0.31548798084259033 0.502042829990387 -0.2303224503993988 0.19487270712852478 0.24241970479488373 0.13527309894561768 -0.01855206862092018 0.4565700888633728 0.3402620553970337 0.10382180660963058 0.07004455476999283 0.2612840533256531 -0.2515645921230316 -0.6950100660324097 -0.2082417905330658 -0.13962900638580322 -0.5848948955535889 -0.33969220519065857 -0.10831105709075928 -0.1425415277481079 0.38701558113098145 -0.6154227256774902 -0.670573353767395 0.1568211317062378 0.03857095539569855 -0.06798996031284332 0.4222393035888672 0.3562565743923187 0.30526095628738403 0.06652593612670898 -0.2747359871864319 -0.0589960478246212 -1.0098252296447754 0.02512865513563156 -0.211669921875 0.07419897615909576 0.4730105996131897 0.31324106454849243 0.2233337014913559 -0.07919549942016602 0.19356107711791992 -0.09857609122991562 -0.08459042012691498 0.3729696273803711 -0.39993852376937866 -0.08536165207624435 -0.3468422293663025 0.2105211466550827 0.12453949451446533 0.3385368585586548 -0.21645018458366394 -0.15256808698177338 -0.1003485769033432 0.3255741000175476 -0.16072764992713928 0.25492405891418457 -0.3400079905986786 -2.811643600463867 0.38555535674095154 0.06018759310245514 0.28136616945266724 0.26370227336883545 0.10785918682813644 0.2583020031452179 -0.2418329417705536 0.12357145547866821 0.48578333854675293 0.22145557403564453 -0.04959651455283165 0.38163742423057556 -0.017377033829689026 -0.20668882131576538 0.07373218238353729 0.1357390433549881 0.35813403129577637 0.4484087824821472 0.009140901267528534 0.29864320158958435 0.028918281197547913 0.15282556414604187 -0.10360020399093628 -0.280407577753067 0.03451938554644585 0.09884211421012878 0.10713377594947815 0.08396729081869125 -0.015494639985263348 -0.04632533714175224 0.05159316584467888 -0.045501984655857086 -0.3343289792537689 0.06053011864423752 0.3722914159297943 -0.2846883535385132 -0.37765854597091675 0.07799486815929413 -0.3720303475856781 0.5874614715576172 0.077583447098732 0.08845151960849762 -1.4072450399398804 -0.3525286316871643 -0.6499872207641602 -0.23285731673240662 0.05692366510629654 0.09930961579084396 0.5679371953010559 0.0009833276271820068 0.10611292719841003 -0.17439906299114227 -0.2458830177783966 0.11026578396558762 0.142319917678833 -0.1709299087524414 0.09925548732280731 0.21347877383232117 0.051084116101264954 0.06324486434459686 -0.02681932970881462 -0.17001652717590332 0.034120358526706696 0.22592203319072723 -0.07114781439304352 -0.48675844073295593 -0.21508020162582397 0.3097377419471741 -0.07807128876447678 -0.020497797057032585 0.2751489579677582 0.04781035706400871 0.21924516558647156 0.12367119640111923 -0.14415156841278076 -0.14215703308582306 0.3541257381439209 -0.11075305938720703 0.1797279566526413 0.07484425604343414 0.930572509765625 0.03832586854696274 -0.10166512429714203 -0.033088602125644684 0.3780544400215149 -0.3971575200557709 -0.17397934198379517 0.4522160291671753 -0.1924835741519928 -0.29741501808166504 0.2997630834579468 -0.04017581045627594 0.28716811537742615 -0.011503155343234539 0.17057356238365173 0.2211870402097702 -0.3153171241283417 1.3816660642623901 0.2480989694595337 0.08945852518081665 -0.25419408082962036 0.04026268422603607 0.08045406639575958 0.061538293957710266 -0.11398041248321533 -0.09161953628063202 -0.030526641756296158 0.05386468768119812 -0.09645997732877731 0.14708219468593597 -0.5166353583335876 0.3408298194408417 0.47341737151145935 -0.20532163977622986 0.2730250358581543 0.23242788016796112 0.037867408245801926 0.3485414981842041 0.009965755045413971 0.4952241778373718 -0.42553290724754333 -0.15492187440395355 -0.06911866366863251 -0.017298122867941856 0.4484807252883911 0.2409271001815796 0.5804706811904907 0.11477963626384735 -0.02849489450454712 -0.4670291841030121 0.2838115096092224 -0.03654100000858307 0.4653092324733734 0.07334396243095398 9.896896362304688 -0.12508951127529144 0.05951155349612236 -0.04160119593143463 0.19677452743053436 -0.014018869027495384 -0.06157165765762329 0.3381764888763428 -0.053961679339408875 0.12523487210273743 -0.07299564778804779 -0.1496874988079071 0.2894570827484131 -0.5349630117416382 -0.16914735734462738 0.06294897198677063 0.6813405752182007 0.1928969919681549 -0.006355238147079945 -0.13266867399215698 -0.17867454886436462 -0.0724409967660904 0.040244292467832565 0.21406345069408417 -0.12546895444393158 -0.1896378993988037 -0.7374420166015625 0.23326170444488525 0.022013284265995026 0.27791088819503784 0.3186286389827728 -0.0006053125252947211 0.03217035531997681 0.21618029475212097 0.013459723442792892 0.26458704471588135 -1.2119755744934082 -0.05083547160029411 0.2949373722076416 -0.24049130082130432 -0.20157937705516815 -0.2858205735683441 -0.08348803222179413 -0.04133380576968193 0.09589403867721558 0.08901715278625488 -0.29945266246795654 0.18825136125087738 0.3091807961463928 0.03225398063659668 0.0465780645608902 0.2650195062160492 -0.05551775544881821 -0.43945378065109253 -0.0905195102095604 -0.4022550582885742 0.4282519817352295 -0.043716929852962494 -0.004632741212844849 -0.5476789474487305 0.1943119764328003 -0.16871069371700287 -0.13500362634658813 0.3068796396255493 0.7715024948120117 -0.17854678630828857 0.4953742027282715 -0.09676333516836166 0.5082333087921143 0.06502415239810944 -0.11120697855949402 0.022801846265792847 0.013897593133151531 -0.09002262353897095 -0.4266476333141327 -0.21229034662246704 0.007089634891599417 -0.2002665400505066 -0.44834572076797485 -0.27202484011650085 -0.09501872956752777 0.24520835280418396 0.09003996104001999 0.04883769154548645 -0.6398043632507324 0.007665902376174927 0.015721935778856277 0.01832837425172329 0.13287876546382904 -0.01980612799525261 -0.13764628767967224 -0.044881172478199005 -0.19067738950252533 0.027287965640425682 0.2504756450653076 -0.0010078847408294678 0.047331906855106354 -0.016095003113150597 0.12317948788404465 -0.15582099556922913 -0.5096654891967773 0.2327725738286972 -0.3226949870586395 0.07731248438358307 0.02418128028512001 0.13580183684825897 0.5978114008903503 -0.3050057291984558 -0.2663092613220215 -0.03334542736411095 0.124783955514431 0.4809131324291229 0.08302922546863556 0.3103320002555847 -0.15213248133659363 -0.30075696110725403 0.002156981034204364 -0.07330617308616638 0.32859477400779724 0.6393120288848877 -0.05915552377700806 0.2830815613269806 0.23503129184246063 -0.5743809938430786 0.06618303805589676 -0.015846040099859238 -0.04670098423957825 0.4387965202331543 0.12750549614429474 -0.13488514721393585 -0.335044264793396 -0.14115959405899048 0.4328860938549042 0.14554157853126526 0.01132236234843731 -0.3413016200065613 0.40072131156921387 -0.0637248083949089 0.11762446165084839 0.2802177369594574 0.10803394019603729 0.24428898096084595 -0.13984981179237366 -0.20128266513347626 -0.25573840737342834 -0.1869208663702011 -0.33266595005989075 -0.183338925242424 0.24895799160003662 -0.14788714051246643 -0.1929900348186493 -0.27403032779693604 -0.17068412899971008 -0.1520998179912567 0.010279973968863487 0.18588456511497498 -0.0036467749159783125 0.5328128933906555 0.12911748886108398 0.014210863038897514 -0.1797471046447754 -1.3381990194320679 -0.5804499387741089 -0.7433385848999023 -0.14511841535568237 -0.10343506187200546 -0.11872267723083496 -0.12682650983333588 0.2296838015317917 -0.00909219216555357 0.3526194095611572 -0.22072258591651917 -0.22189562022686005 -0.22180530428886414 0.4850500524044037 -0.23378750681877136 -0.5285443067550659 -0.4577111601829529 0.2555887997150421 0.166300430893898
node_23	-0.05637850612401962 0.3084802031517029 0.17896559834480286 -0.12080158293247223 0.9060831069946289 -0.41075488924980164 0.05917414277791977 0.2126237154006958 0.12570016086101532 -0.4433234632015228 0.2287631332874298 0.2819099724292755 0.41482123732566833 0.005738268606364727 -0.016834866255521774 -0.8640424609184265 0.7447781562805176 0.33170586824417114 -0.003501337021589279 0.38565558195114136 0.08574068546295166 0.22630396485328674 0.20475277304649353 0.17040638625621796 -0.10301990807056427 0.1540193110704422 0.6206878423690796 -0.007979577407240868 0.03026065044105053 -0.015416815876960754 -0.027956616133451462 0.40618693828582764 0.056967686861753464 0.10148535668849945 -0.058401018381118774 0.06982263177633286 -0.4952622354030609 0.31056666374206543 0.5587623715400696 0.16076016426086426 -0.6713752150535583 0.4077991843223572 0.23980259895324707 -0.21401071548461914 0.008502108976244926 0.20621249079704285 -0.22360989451408386 -0.059512652456760406 0.16604839265346527 -0.02025231346487999 0.17638710141181946 -0.30912530422210693 -0.3377847671508789 0.2861456871032715 0.02976113371551037 0.33077800273895264 -0.21661365032196045 -0.2345716655254364 0.21304142475128174 -0.014644717797636986 0.2661386728286743 1.2981942892074585 0.2979046702384949 0.6507778763771057 0.035862550139427185 0.24189554154872894 -0.20122751593589783 -0.6572670340538025 0.1758928894996643 0.06372271478176117 -0.06313726305961609 -0.019736843183636665 0.24211160838603973 -0.15401104092597961 0.07616814970970154 0.17675375938415527 0.5288341641426086 -3.117434501647949 -0.1597718745470047 0.7505366206169128 0.04992326721549034 -0.4369727075099945 1.1805369853973389 -0.2911146879196167 0.014547770842909813 -0.8393707275390625 0.4264880120754242 -0.43181097507476807 0.2066272795200348 0.6120370030403137 0.29792094230651855 0.12857170403003693 -0.1666700541973114 0.49133142828941345 -0.09285154193639755 0.2237894982099533 -0.24734000861644745 -0.8476608991622925 -0.3304135501384735 0.2252451479434967 0.04061151295900345 0.07271131873130798 0.4583437442779541 -0.08767496049404144 0.2481066882610321 -0.1009281575679779 -0.13205397129058838 -0.19567643105983734 0.22549061477184296 0.6077536344528198 0.17393551766872406 0.23601937294006348 -0.0768636092543602 -0.06182084605097771 -0.10180337727069855 0.2630145251750946 -0.02042059600353241 0.057461462914943695 0.19751355051994324 0.4781563878059387 0.19162967801094055 -0.40793225169181824 0.4470287263393402 -0.07564200460910797 -0.22514143586158752 0.7694913744926453 0.5410168766975403 -0.17277555167675018 -0.16151484847068787 -0.3135796785354614 -0.19610032439231873 -1.298137903213501 -0.27945590019226074 0.2315688133239746 0.03956785425543785 0.2924620807170868 -0.28192079067230225 0.14861035346984863 -0.005641087889671326 0.04979085922241211 -0.2361815869808197 0.09312184900045395 0.2573300302028656 0.19287221133708954 0.7739870548248291 -0.029602210968732834 -0.05929930508136749 -0.17306719720363617 -0.09585481137037277 0.19865348935127258 -0.0706758201122284 0.5948363542556763 0.03868398070335388 0.42796438932418823 -0.7155598402023315 0.4025071859359741 -0.29386812448501587 -0.4016249179840088 -0.49247273802757263 0.73591148853302 0.02232707105576992 0.010140329599380493 0.5923323631286621 0.016564790159463882 0.00342434155754745 -0.015995722264051437 -0.2754160165786743 0.06199980527162552 0.11138059198856354 1.0118927955627441 -0.25081291794776917 0.032166674733161926 -0.04260304197669029 -0.10660657286643982 -0.1745268553495407 0.14513741433620453 -0.2925167679786682 -0.06459446251392365 0.20699863135814667 -0.06891151517629623 0.1263905167579651 0.11999403685331345 0.20125266909599304 -0.26943495869636536 0.0799994170665741 0.32639509439468384 0.1506786197423935 -0.0996098518371582 0.07441075891256332 -0.2804569900035858 -0.7662264108657837 -0.02285109832882881 0.1527511030435562 -0.28377673029899597 0.07536299526691437 0.3131944537162781 0.11039799451828003 -0.09334804862737656 0.28977668285369873 -0.04541603848338127 -0.5461422801017761 -0.4491350054740906 0.4584786295890808 -0.09211226552724838 0.2268836945295334 0.11254151910543442 -0.05318772792816162 -0.40834352374076843 -0.4291742742061615 0.13242220878601074 -0.04433504864573479 0.3559657335281372 -0.34195762872695923 -0.18302015960216522 0.2510535418987274 0.3383224904537201 -0.1767413467168808 -0.17087243497371674 -0.10702505707740784 -1.2778229713439941 0.2230960577726364 -0.02461313083767891 -0.2615997791290283 -1.0450390577316284 0.2004663646221161 0.30907580256462097 -0.0014161691069602966 0.09453515708446503 0.29331132769584656 0.37837547063827515 0.13000935316085815 -0.03852377459406853 -0.9824824333190918 0.14195074141025543 0.30828291177749634 -0.208899587392807 -0.3397364020347595 0.3839101195335388 0.08620339632034302 0.16136986017227173 0.026221614331007004 0.20336869359016418 -0.08071112632751465 0.2087227702140808 -0.079749695956707 -0.2694675922393799 0.008323664776980877 -0.2565101385116577 -0.06153924763202667 -0.1795755922794342 -0.13740739226341248 -0.10626517981290817 0.004140608012676239 0.10693928599357605 0.8853939771652222 0.04107704758644104 0.2797590494155884 -0.0007810973911546171 -0.07480722665786743 -0.1992918699979782 0.03394637629389763 0.08088698238134384 -0.04216998443007469 -0.3329724967479706 -0.15326927602291107 -0.10177233070135117 0.12237568199634552 -0.27248823642730713 -0.15495166182518005 0.19150981307029724 0.18434318900108337 0.048579927533864975 0.3136977553367615 0.0521739237010479 -0.05782268941402435 0.04137244448065758 -0.2953456938266754 0.1246168240904808 -0.2972552478313446 -0.49523621797561646 0.3806486129760742 -0.12490685284137726 -0.8345667719841003 -0.7005130052566528 -0.05304331332445145 -0.351283997297287 0.025086870416998863 -0.33838462829589844 -0.2128695249557495 0.08331140130758286 -0.06251321732997894 0.17587384581565857 -0.2506101429462433 0.4067228436470032 -0.31324002146720886 0.1781829297542572 -0.01875745877623558 0.4593464732170105 0.1636432260274887 0.00931952428072691 -0.15027646720409393 0.2584611177444458 0.1199462041258812 -0.04826654493808746 0.0034139156341552734 -0.4202801585197449 -0.04209664463996887 0.02573784813284874 0.05651789903640747 0.2313627451658249 -0.12895271182060242 0.2475246787071228 0.16470912098884583 0.17590856552124023 0.07688304781913757 0.13786903023719788 0.2537427842617035 -0.13156849145889282 0.5931137204170227 0.22039636969566345 -0.0545380562543869 -0.3084186017513275 -0.31383582949638367 -0.11903530359268188 -0.3484392762184143 0.35032469034194946 0.14168094098567963 -0.3913290500640869 0.3841492533683777 0.3087989389896393 0.7777091860771179 0.6752488017082214 0.12193938344717026 0.5206297636032104 0.09627525508403778 0.01068577729165554 -0.24700121581554413 -0.1809876412153244 -0.3794654607772827 -0.3799203634262085 0.1614764928817749 -0.5667524337768555 0.2113642692565918 0.06875011324882507 0.10502511262893677 0.10803671926259995 0.655950665473938 -0.24119833111763 0.09721909463405609 -0.607654333114624 -0.010424326173961163 -0.15406480431556702 0.03322713077068329 -0.5428602695465088 0.20703202486038208 0.5850709676742554 -0.08406960219144821 -0.19515058398246765 -0.13636142015457153 -0.0615425780415535 -0.5591148138046265 0.9678839445114136 -0.1744394600391388 -0.6492636799812317 -0.25554341077804565 -0.34488290548324585 -0.8277010321617126 0.016984760761260986 0.066714808344841 -0.10820764303207397 -0.07917895168066025 0.07891713082790375 0.5070581436157227 -0.5007256269454956 0.3962191939353943 0.12392798066139221 0.32051143050193787 0.1310853660106659 -0.10936438292264938 -0.5281893014907837 0.07791176438331604 0.3158036768436432 0.0915638729929924 0.4903189539909363 0.08253969997167587 -0.3455932140350342 -0.17421144247055054 0.38669848442077637 0.3542087972164154 0.08143653720617294 0.06471012532711029 0.17416784167289734 -0.0004738519783131778 0.48361000418663025 -0.264646977186203 0.226108118891716 0.4823743999004364 0.39498019218444824 -0.2038450539112091 0.06141231209039688 0.1666571944952011 0.02255193516612053 -0.11315052956342697 0.03424317389726639 0.23102939128875732 0.29530036449432373 0.1382170021533966 0.22547326982021332 -0.3837927579879761 -0.822606086730957 -0.2923397719860077 -0.26330292224884033 -0.467333048582077 -0.3955851197242737 -0.05777590721845627 -0.06719746440649033 0.49724137783050537 -0.2114473581314087 -0.5966359972953796 0.09842857718467712 0.11034594476222992 0.09392380714416504 0.5305951833724976 0.2925870418548584 0.041223447769880295 0.09633563458919525 -0.20845991373062134 -0.18256470561027527 -0.40573835372924805 0.08747371286153793 -0.24951425194740295 0.07141254842281342 0.5894772410392761 0.33702635765075684 0.2657201290130615 -0.18095079064369202 0.31752002239227295 -0.11099012941122055 -0.16419987380504608 0.4690065383911133 -0.287404865026474 -0.15916836261749268 -0.2854030728340149 0.34684258699417114 0.03347007930278778 0.3995177149772644 -0.45852527022361755 -0.05657991021871567 -0.07399041205644608 0.18889009952545166 -0.3869677186012268 0.3526977002620697 -0.2771557569503784 -2.7631804943084717 0.37319788336753845 -0.016541074961423874 0.1609482765197754 0.17549680173397064 0.09424982964992523 0.29490309953689575 -0.079437755048275 0.12116777896881104 0.5713457465171814 0.13230988383293152 -0.016345029696822166 0.46639978885650635 -0.007893632166087627 -0.05788477510213852 -0.16449952125549316 0.060940902680158615 0.13868030905723572 0.4487606883049011 -0.013496262952685356 0.27867239713668823 -0.10637231916189194 0.2691616117954254 -0.2551220655441284 -0.3816664218902588 0.07116159796714783 0.01185431145131588 0.01060505025088787 0.14044271409511566 0.025089247152209282 0.011404655873775482 0.07671629637479782 -0.012111498042941093 -0.19378021359443665 -0.03552564978599548 0.35934481024742126 -0.37653422355651855 -0.35213494300842285 0.11679314821958542 -0.49438273906707764 0.5740538835525513 0.06273414194583893 0.16789768636226654 -1.7703698873519897 -0.2533207833766937 -0.12408219277858734 -0.261135995388031 0.06999750435352325 0.028917357325553894 0.6573674082756042 0.2177477926015854 0.26491686701774597 -0.06289328634738922 -0.2667035162448883 0.07674598693847656 -0.0006626571412198246 -0.10271277278661728 0.30670997500419617 0.20746281743049622 0.058716900646686554 0.03643283247947693 -0.027252305299043655 -0.31785398721694946 0.0029621324501931667 0.3015987277030945 -0.27164751291275024 -0.6836913824081421 -0.2953214943408966 0.19944773614406586 -0.13584047555923462 -0.08233842253684998 0.14977522194385529 0.017972085624933243 0.228596493601799 -0.16578036546707153 -0.10923576354980469 -0.14015226066112518 0.2519221603870392 -0.20022213459014893 0.18046359717845917 0.08934065699577332 0.7038478255271912 0.0772520899772644 -0.07145646214485168 -0.26239338517189026 0.5103710889816284 -0.26573535799980164 -0.15528082847595215 0.3684995174407959 -0.24058914184570312 -0.2018464058637619 0.36856764554977417 -0.06502342969179153 0.6864756345748901 0.08331310003995895 0.195320725440979 0.1865559071302414 -0.15026775002479553 1.6812690496444702 0.22856467962265015 0.10590135306119919 -0.2837805449962616 0.07789210975170135 0.10134758800268173 0.18920323252677917 -0.08490414917469025 -0.17826130986213684 0.01625339686870575 -0.22011075913906097 0.04940014332532883 0.12521442770957947 -0.438480943441391 0.3548623025417328 0.6029808521270752 -0.19634291529655457 0.12427285313606262 0.31107640266418457 -0.45953500270843506 0.33511099219322205 -0.016044259071350098 -0.047808222472667694 -0.33065566420555115 -0.14165855944156647 -0.0705978274345398 0.5848345756530762 0.5826382637023926 0.25133681297302246 0.37703585624694824 0.17000579833984375 -0.058877598494291306 -0.3126981258392334 0.22949016094207764 0.0015140821924433112 0.6905386447906494 -0.03260956332087517 10.114395141601562 -0.12736289203166962 -0.011756792664527893 -0.17964023351669312 0.2642589211463928 -0.13037075102329254 -0.07037773728370667 0.40023431181907654 -0.1799136996269226 0.14149543642997742 0.007437817752361298 -0.20088176429271698 0.20540831983089447 -0.5109907984733582 -0.11950516700744629 -0.08151459693908691 0.502753734588623 0.2695505619049072 -0.05018368363380432 -0.12264373153448105 -0.06778989732265472 0.0978434681892395 0.2145610749721527 0.4406948983669281 -0.08393771946430206 -0.21204136312007904 -0.6702243089675903 0.1745205521583557 0.08490198850631714 0.1358175277709961 0.17351016402244568 -0.1263485550880432 0.050600674003362656 0.018480416387319565 0.014715813100337982 0.06257584691047668 -0.9915449023246765 -0.06495781987905502 0.26591062545776367 -0.14511556923389435 -0.19292668998241425 -0.3482222557067871 0.021973464637994766 0.03475570306181908 0.021917693316936493 0.12090321630239487 -0.41050076484680176 0.15590833127498627 0.2519204020500183 0.10494639724493027 0.17226728796958923 0.18209514021873474 -0.07785540819168091 -0.7718350291252136 -0.20746731758117676 -0.39292702078819275 0.42024096846580505 -0.024693675339221954 -0.07155333459377289 -0.5387130975723267 0.11394646018743515 0.042302098125219345 -0.07160893082618713 0.06192545220255852 0.6137064695358276 -0.0775221660733223 0.34158676862716675 0.22037851810455322 0.544022262096405 -0.016862450167536736 -0.0995640978217125 0.11103644222021103 0.06030641496181488 -0.16828560829162598 -0.4802347421646118 -0.16337719559669495 0.37381303310394287 -0.1954256296157837 -0.40793532133102417 -0.3366016745567322 -0.02972378395497799 0.36669081449508667 0.04864303395152092 0.11603077501058578 -0.5172715187072754 0.017647672444581985 -0.013975127600133419 -0.026842331513762474 -0.18921777606010437 -0.0795295387506485 -0.09256784617900848 -0.13878001272678375 -0.15823626518249512 0.08060562610626221 0.4230402112007141 -0.004800925962626934 -0.054365187883377075 0.037751153111457825 0.14334464073181152 -0.24669937789440155 -0.6379709839820862 0.2667808532714844 -0.26789650321006775 0.16187164187431335 0.08861599862575531 -0.04494091123342514 0.9475573301315308 -0.12953385710716248 -0.32366257905960083 0.05706530064344406 0.1107889860868454 0.5887587070465088 0.205974280834198 0.3274880647659302 -0.3466225862503052 -0.47137507796287537 0.05902629345655441 -0.1399020254611969 0.34223422408103943 0.6753742098808289 0.029992951080203056 0.21635136008262634 0.18096184730529785 -0.5714766383171082 0.15253613889217377 0.06272569298744202 -0.05493643879890442 0.49826109409332275 0.16777774691581726 -0.0008301610941998661 -0.6406442523002625 -0.22460536658763885 -0.3904319703578949 0.344096839427948 0.06463979184627533 -0.2430412769317627 0.3717918395996094 -0.10697764158248901 0.18064835667610168 0.1320272982120514 0.20064115524291992 0.3697603642940521 -0.17148074507713318 -0.5838571786880493 -0.22800955176353455 -0.4132525622844696 -0.17692947387695312 0.569689929485321 0.18380789458751678 -0.2937997877597809 -0.10890699923038483 -0.2618837356567383 -0.12738758325576782 -0.06320664286613464 0.02525991201400757 0.18833938241004944 -0.07085243612527847 0.43274641036987305 0.1696239560842514 0.03355839475989342 0.15329280495643616 -1.7708358764648438 -0.6883996725082397 -0.6795939207077026 0.02870815061032772 -0.12562550604343414 -0.13556617498397827 -0.3130646347999573 0.010452399961650372 0.04833130165934563 0.4860600233078003 -0.2873516082763672 -0.2721710801124573 -0.16364805400371552 0.5206584930419922 -0.33266833424568176 -0.43966054916381836 -0.6620051264762878 0.19817841053009033 0.1317618489265442
node_10	-0.0016260768752545118 0.19395343959331512 0.22923702001571655 0.024058576673269272 0.26573288440704346 -0.42356428503990173 -0.008599869906902313 0.28331300616264343 -0.09861358255147934 -0.44229716062545776 0.07894060760736465 0.7900664806365967 0.27381864190101624 -0.056942157447338104 -0.038211382925510406 -0.22071105241775513 0.6215593814849854 0.041798707097768784 0.0446183905005455 -0.1719503402709961 0.18639373779296875 0.06461874395608902 0.13507546484470367 0.33988210558891296 -0.3297675848007202 0.016997482627630234 0.5688542127609253 -0.08288222551345825 0.153251513838768 0.09814544767141342 -0.18478119373321533 0.38000619411468506 0.11983438581228256 0.1652844399213791 -0.024502038955688477 0.12095777690410614 -0.2841978073120117 0.3066181540489197 0.1060306578874588 0.1773364543914795 -0.6846760511398315 0.3527336120605469 0.18851488828659058 -0.2161826342344284 0.03659654036164284 0.056440241634845734 0.036716528236866 -0.244442880153656 0.15804600715637207 0.007257509510964155 0.04221680015325546 -0.327659010887146 -0.2707718312740326 0.30548301339149475 -0.0624849759042263 0.2692992091178894 -0.28812843561172485 -0.1441243588924408 0.10512866079807281 0.12066397070884705 0.3116443157196045 1.2035515308380127 0.1693156659603119 0.21823261678218842 0.08573740720748901 0.27349191904067993 -0.17458157241344452 -0.2202039659023285 0.10645729303359985 0.10492181032896042 -0.05714775621891022 -0.07306993007659912 0.22256802022457123 -0.009280651807785034 0.012517894618213177 -0.034321293234825134 0.5358465909957886 -2.8195273876190186 -0.04671387001872063 0.7658252120018005 0.049304962158203125 -0.29479682445526123 1.1085715293884277 -0.18432602286338806 0.2384328544139862 -1.1193733215332031 0.42065584659576416 -0.4236135184764862 0.16070523858070374 0.44337114691734314 0.5779144763946533 0.21887946128845215 -0.10556365549564362 -0.031838249415159225 -0.18104764819145203 0.2343299835920334 -0.10263216495513916 -0.2639100253582001 -0.3430686593055725 0.16031596064567566 -0.061481427401304245 -0.019861560314893723 0.43814677000045776 -0.3871738910675049 0.30398106575012207 0.22985908389091492 -0.2322877049446106 -0.324007511138916 0.17140966653823853 0.46078622341156006 0.12819279730319977 0.1254613697528839 -0.007473151199519634 -0.08265744149684906 -0.13768766820430756 0.21496188640594482 0.09825578331947327 0.09042498469352722 0.15718702971935272 0.12090881913900375 0.11348863691091537 -0.3285742700099945 0.07490452378988266 -0.0997515544295311 -0.059560686349868774 0.5832645297050476 0.5856242179870605 -0.23809143900871277 -0.1519758701324463 -0.26451411843299866 -0.2252444475889206 -1.3678396940231323 -0.21279191970825195 -0.3069501221179962 -0.02888159267604351 0.3068225383758545 -0.16026927530765533 0.023078322410583496 0.08811211585998535 0.17306366562843323 -0.1639130562543869 -0.050852030515670776 0.056913167238235474 0.2626487612724304 0.6396448612213135 -0.08453451097011566 -0.008051942102611065 -0.2446783035993576 -0.27158263325691223 -0.0063450816087424755 -0.2145678699016571 0.6036879420280457 -0.013087674975395203 0.2636006772518158 -0.5027930736541748 0.5656933784484863 -0.13363665342330933 -0.32952243089675903 -0.4563974142074585 0.978604793548584 0.034001272171735764 -0.05664939805865288 0.6801033020019531 0.13381285965442657 0.08912216126918793 -0.04096639156341553 -0.24828743934631348 -0.11138276755809784 0.11103604733943939 0.7339059710502625 -0.20084691047668457 0.0821390151977539 -0.08067868649959564 -0.09723055362701416 -0.12699584662914276 0.05468800663948059 -0.023806598037481308 -0.0815589502453804 0.18685899674892426 -0.11477448791265488 -0.03618831932544708 0.056772228330373764 0.10000886768102646 -0.32089585065841675 0.19622759521007538 0.5972888469696045 0.15684548020362854 -0.3679335117340088 -0.057150762528181076 -0.0816950798034668 -0.5993764400482178 0.09357639402151108 0.2757214307785034 -0.0849311575293541 0.1069149374961853 -0.12033450603485107 -0.017345985397696495 -0.08765547722578049 0.47685426473617554 -0.118228018283844 -0.44702404737472534 -0.33899861574172974 0.3144657611846924 -0.07903309166431427 0.15832677483558655 0.17460358142852783 -0.3777760863304138 -0.3238818943500519 -0.4593610465526581 0.3165571689605713 -0.20062725245952606 0.8836736679077148 -0.19695743918418884 -0.0938347801566124 0.4344317317008972 0.2238042950630188 -0.3310931622982025 -0.05756794661283493 0.0003603796358220279 -1.3519848585128784 0.22172889113426208 0.08343012630939484 -0.09386861324310303 -0.8473192453384399 0.4997456669807434 0.4767300486564636 0.09988872706890106 0.10727633535861969 0.2727286219596863 0.29040881991386414 0.10189887136220932 -0.32088005542755127 -0.6506669521331787 -0.10843367874622345 0.2251010239124298 -0.3331410884857178 -0.28558456897735596 0.3921852707862854 0.1256086528301239 0.1669340580701828 -0.259164035320282 0.22588835656642914 -0.14832094311714172 0.19820457696914673 -0.061369191855192184 -0.25804924964904785 -0.003823640523478389 -0.4284422993659973 -0.15596452355384827 -0.2582542300224304 -0.16093501448631287 0.10777465999126434 -0.033798690885305405 0.08526325225830078 0.290433406829834 -0.1380070447921753 0.29176464676856995 -0.0283589418977499 -0.048946283757686615 0.2630695700645447 0.07158185541629791 0.05779498070478439 -0.0820653885602951 -0.20746582746505737 -0.2565530240535736 -0.2611851394176483 0.10879424214363098 -0.25835320353507996 -0.1934082955121994 0.11733347177505493 0.18642660975456238 0.0792100578546524 0.253520131111145 0.08786384761333466 -0.15404823422431946 0.15307044982910156 -0.3187285363674164 0.06548464298248291 -0.4226536154747009 -0.5438846349716187 0.13844193518161774 -0.023046698421239853 -0.6489378213882446 -0.7459496855735779 -0.01672285795211792 -0.24735824763774872 -0.027000240981578827 -0.02771497517824173 -0.09976457804441452 0.12263183295726776 -0.15508690476417542 0.1869872510433197 -0.26049375534057617 0.41551971435546875 -0.3489169478416443 0.21571272611618042 0.08916458487510681 0.5248634219169617 0.15277324616909027 0.18675169348716736 -0.12292631715536118 0.2132023423910141 -0.15277037024497986 -0.004919976927340031 0.07793624699115753 -0.38335680961608887 0.16487321257591248 -0.0064412131905555725 0.029436981305480003 0.1686459481716156 -0.10745798051357269 0.26598942279815674 0.05800790339708328 0.12367510050535202 0.05772079527378082 0.00775980856269598 0.3295167088508606 -0.2039783000946045 0.4620084762573242 0.054243769496679306 -0.11708196252584457 -0.09191155433654785 -0.2748585641384125 0.040777020156383514 -0.08988972008228302 0.32976233959198 0.011068913154304028 -0.19139611721038818 0.3664538562297821 0.2282230108976364 1.321466088294983 0.5464127063751221 -0.01558887492865324 0.7064919471740723 0.0841284841299057 0.05704730376601219 -0.1953340470790863 -0.07744559645652771 -0.3333333432674408 -0.042486365884542465 -0.06309916079044342 -0.5547189712524414 0.1444282978773117 0.07552928477525711 0.16422191262245178 0.09145911782979965 0.5614417195320129 -0.12252642959356308 0.3693365752696991 -0.41666996479034424 0.08863531798124313 -0.13040514290332794 0.028863346204161644 -0.4464600682258606 0.370165079832077 0.27709659934043884 -0.1546260267496109 -0.2586117386817932 -0.01435927301645279 -0.21887128055095673 -0.6026514768600464 0.7373759746551514 -0.08515053987503052 -0.608771562576294 -0.1295102834701538 -0.3318431079387665 -0.7127015590667725 -0.08195613324642181 0.048051249235868454 -0.11233620345592499 -0.025224894285202026 -0.003678749082610011 0.4515933692455292 -0.01427747868001461 0.25471431016921997 0.15697920322418213 0.40153583884239197 0.19215011596679688 0.1439398229122162 -0.5203264951705933 -0.11072996258735657 0.3494875133037567 0.1580810844898224 0.40276461839675903 0.04067979380488396 -0.3379989266395569 -0.3151077330112457 0.40387994050979614 0.48115700483322144 0.11421029269695282 0.1785326451063156 0.12041576951742172 0.04256158322095871 0.526153028011322 -0.1997418850660324 0.2026708722114563 0.3334682881832123 0.600021481513977 -0.0630468875169754 0.11640336364507675 0.2573947608470917 0.14392803609371185 0.041071683168411255 0.1664699912071228 0.4068908095359802 0.1847132444381714 0.06668497622013092 0.23454152047634125 -0.446760892868042 -0.5665411949157715 -0.20964738726615906 -0.25660908222198486 -0.5232908129692078 -0.2970893979072571 -0.05065716803073883 -0.08820261061191559 0.2866551876068115 -0.33582815527915955 -0.6275061964988708 0.3002358078956604 0.0932239517569542 -0.07987998425960541 0.38907718658447266 0.3187391757965088 0.16131599247455597 0.11695557832717896 -0.18301701545715332 -0.08968035876750946 -0.8813765048980713 0.02872554585337639 -0.1990264654159546 0.13749271631240845 0.500934362411499 0.2792160212993622 0.3022838830947876 -0.010566896758973598 0.23685604333877563 -0.20872387290000916 -0.021351506933569908 0.38556966185569763 -0.31626957654953003 -0.0723046287894249 -0.3706723153591156 0.29018914699554443 0.0025264727883040905 0.2859416604042053 -0.13404038548469543 -0.1642477810382843 -0.22853611409664154 0.1845138669013977 -0.2443021982908249 0.047998636960983276 -0.4411928653717041 -2.767214298248291 0.3490438163280487 0.05762648582458496 0.17734497785568237 0.2523690462112427 0.1139410138130188 0.24894797801971436 -0.15318076312541962 0.14199098944664001 0.4605523943901062 0.23141944408416748 -0.020735708996653557 0.35020124912261963 0.009301061742007732 -0.18913054466247559 0.07515765726566315 0.12333089113235474 0.30046066641807556 0.466133713722229 0.004800689872354269 0.2796616554260254 -0.054209232330322266 0.1371573954820633 0.024945443496108055 -0.3564792275428772 -0.04481033608317375 0.1264611780643463 0.006998737808316946 0.07116085290908813 -0.12837384641170502 -0.06988349556922913 0.03554636612534523 -0.06766019016504288 -0.20526158809661865 0.025876468047499657 0.38714098930358887 -0.20956644415855408 -0.2177886664867401 0.1252361238002777 -0.333415687084198 0.5509285926818848 0.08370964229106903 0.1220490038394928 -1.6661953926086426 -0.07751833647489548 -0.593424379825592 -0.25392043590545654 0.07682229578495026 0.12769247591495514 0.5595208406448364 0.11300511658191681 0.14698317646980286 -0.04317328333854675 -0.28933826088905334 0.185577392578125 0.06472735852003098 -0.17082981765270233 0.12735721468925476 0.24840442836284637 0.07834552973508835 0.09515200555324554 0.018550202250480652 -0.118284210562706 0.11963140964508057 0.2361522912979126 0.3258250653743744 -0.1129678413271904 -0.22545306384563446 0.21299688518047333 -0.20528829097747803 -0.10579526424407959 0.20566610991954803 0.04767695814371109 0.18932747840881348 0.03410704433917999 -0.11676951497793198 -0.32655054330825806 0.4533228278160095 -0.18798094987869263 0.0894070491194725 0.13447000086307526 0.9024397730827332 -0.00828316155821085 -0.09854742139577866 -0.11911891400814056 0.2851036787033081 -0.43479931354522705 -0.0007076462497934699 0.41001757979393005 -0.11624003946781158 -0.23453406989574432 0.35869666934013367 -0.019146336242556572 0.3915906846523285 0.007553497329354286 0.18993782997131348 0.141426682472229 -0.3682880103588104 1.0135266780853271 0.21841499209403992 0.048190828412771225 -0.1263008713722229 -0.005330634769052267 0.0658310055732727 0.05989433452486992 -0.1093922108411789 -0.1529819667339325 -0.07931192964315414 -0.572772204875946 -0.10149907320737839 0.04473932087421417 -0.5069843530654907 0.33513230085372925 0.46116042137145996 -0.12398184835910797 0.21165594458580017 0.189875528216362 -0.8096632957458496 0.2205393761396408 -0.06706503033638 0.27082663774490356 -0.3814776837825775 -0.2230755090713501 -0.0009482130408287048 0.19300244748592377 0.34293484687805176 0.20931938290596008 0.6273767948150635 0.15400734543800354 -0.13089421391487122 -0.5263583660125732 0.246559739112854 -0.04646528512239456 0.5464743971824646 -0.0592326819896698 10.140653610229492 -0.04348726198077202 0.14299127459526062 -0.12195535749197006 0.3220636248588562 -0.09912732243537903 0.017046866938471794 0.30193135142326355 0.06357109546661377 0.0735667496919632 -0.07741798460483551 -0.12884844839572906 0.3026900589466095 -0.6120226383209229 -0.13003520667552948 0.045743152499198914 1.0029809474945068 0.13842740654945374 0.0878748744726181 -0.15552464127540588 -0.14242742955684662 -0.005811492912471294 0.1031930148601532 0.29817497730255127 -0.025448326021432877 -0.12580013275146484 -0.5969884395599365 0.2513069808483124 -0.011610055342316628 0.23639802634716034 0.21489092707633972 -0.0788947343826294 0.18247859179973602 0.14852821826934814 -0.008316810242831707 0.17758862674236298 -0.8638646006584167 -0.12496709078550339 0.2095179408788681 -0.16212832927703857 -0.21796274185180664 -0.23183409869670868 -0.013658465817570686 -0.050373658537864685 0.04925377666950226 0.16307440400123596 -0.4340227544307709 0.14091256260871887 0.36742138862609863 0.04365578293800354 0.007554198615252972 0.3149193525314331 -0.045190393924713135 -0.4620891511440277 -0.1013164222240448 -0.3159376382827759 0.38954484462738037 0.041041191667318344 -0.04155111312866211 -0.6013051867485046 0.18561577796936035 -0.07130113989114761 -0.0743909701704979 0.24545703828334808 1.0152697563171387 -0.156911239027977 0.42835527658462524 0.12420414388179779 0.24852073192596436 0.02862493321299553 -0.13227608799934387 -0.018847834318876266 -0.040289364755153656 0.033955976366996765 -0.47130951285362244 -0.24798797070980072 -0.08371898531913757 -0.3062281310558319 -0.4684699475765228 -0.160492941737175 -0.0344630591571331 0.2549446225166321 0.02604909986257553 0.006116123404353857 -0.7413420677185059 0.05858553573489189 -0.007678759749978781 0.05274511128664017 0.10179802775382996 -0.10888602584600449 -0.11002214252948761 -0.062377676367759705 -0.25729161500930786 0.13611546158790588 0.2153959572315216 -0.041209347546100616 0.05879795551300049 -0.031098544597625732 0.01738080568611622 -0.20088854432106018 -0.46743738651275635 0.322540819644928 -0.2643660604953766 0.10837282240390778 0.05763942748308182 0.045865949243307114 0.5423011183738708 -0.28998637199401855 -0.26538902521133423 -0.025706468150019646 0.10786740481853485 0.30732953548431396 0.01880864053964615 0.34551793336868286 -0.1175609678030014 -0.3059433698654175 0.023472286760807037 -0.11038589477539062 0.3060222864151001 0.859196662902832 -0.03128429502248764 0.30311307311058044 0.2294483631849289 -0.6231623888015747 0.10394730418920517 0.006463190075010061 -0.07123629748821259 0.44214579463005066 0.28566214442253113 -0.019707081839442253 -0.36887550354003906 -0.1246807798743248 0.3667003810405731 0.1321498155593872 0.019464358687400818 -0.2435172200202942 0.4372360110282898 -0.03194631636142731 0.07050888240337372 0.1942412257194519 0.05484739691019058 0.22461281716823578 -0.18039576709270477 -0.7549443244934082 -0.22935721278190613 -0.07002955675125122 -0.49119147658348083 -0.12493792176246643 0.2586943507194519 -0.20013484358787537 -0.18865296244621277 -0.25625288486480713 -0.0966489166021347 -0.1623874306678772 0.0089325662702322 0.3094082772731781 0.027992120012640953 0.5796850919723511 0.11227039992809296 0.02612193487584591 -0.02310628816485405 -1.338714599609375 -0.5049436092376709 -0.3195798993110657 0.2560853958129883 -0.014554518274962902 -0.16970139741897583 -0.1645684838294983 0.25960811972618103 -0.09376149624586105 0.3078651428222656 -0.179112046957016 -0.2279338538646698 -0.1975758969783783 0.5104858875274658 -0.20499956607818604 -0.565334141254425 -0.6464107036590576 0.21178065240383148 0.16679427027702332
node_29	0.008299194276332855 0.2714632749557495 0.18298713862895966 -0.05795815587043762 0.9153099060058594 -0.5480495691299438 0.16074000298976898 0.2669585049152374 -0.04164373129606247 -0.4119344651699066 0.49457067251205444 0.6919044852256775 0.20170512795448303 -0.3742263913154602 0.14417672157287598 -0.8035327792167664 0.4606177508831024 0.3021635413169861 -0.058520492166280746 0.22107021510601044 0.10847637057304382 0.2452886551618576 -0.010620683431625366 0.30619189143180847 -0.0766080766916275 0.13475871086120605 0.6539722681045532 0.053976159542798996 0.31410521268844604 0.41940295696258545 0.17645347118377686 0.3099415898323059 0.0658082589507103 0.05562175437808037 -0.1355798840522766 0.1605169177055359 -0.49359211325645447 0.4368816316127777 0.2508177161216736 -0.026302453130483627 -0.7567805647850037 0.25086119771003723 0.2898462116718292 -0.28708991408348083 -0.02692819945514202 -0.05960172414779663 0.1691363900899887 0.15675069391727448 0.17053519189357758 -0.1272713840007782 0.24710768461227417 -0.4627181887626648 -0.3854560852050781 0.1381129026412964 -0.13870103657245636 0.2573692500591278 -0.22502943873405457 0.06684254854917526 0.253577321767807 0.02793535403907299 0.2912439703941345 0.37645775079727173 0.36040425300598145 0.20785006880760193 0.01450460683554411 0.36835211515426636 -0.14496839046478271 -0.611079752445221 0.1801985502243042 0.09210458397865295 -0.13987407088279724 0.05223137140274048 0.2042926400899887 -0.5003073215484619 0.0040296465158462524 -0.09884427487850189 0.47914546728134155 -2.972283363342285 -0.2405783236026764 0.7352893352508545 0.0005768140545114875 -0.5761310458183289 1.5355943441390991 -0.14239412546157837 -0.02477232739329338 -0.9191219210624695 0.3883238732814789 -0.48767074942588806 0.15756282210350037 0.6134568452835083 0.5370964407920837 0.059330012649297714 -0.20598571002483368 0.06504233181476593 -0.09162461012601852 0.18957172334194183 -0.2584664821624756 -0.9714851379394531 -0.3724796772003174 0.06715212017297745 0.19197547435760498 0.0254982840269804 0.41527318954467773 -0.05475377291440964 0.2688456177711487 -0.027892088517546654 0.010236820206046104 -0.3485892713069916 0.18213069438934326 0.5346552729606628 0.11701413244009018 -0.2100401222705841 0.001304691075347364 -0.13163328170776367 -0.22174307703971863 0.2804049253463745 0.06498803943395615 0.20137283205986023 0.14635811746120453 0.43999648094177246 0.20305734872817993 -0.24472278356552124 0.06852369755506516 -0.1452983319759369 -0.09158822894096375 0.5778169631958008 0.665878415107727 -0.31357869505882263 -0.25553250312805176 -0.28015536069869995 -0.10384607315063477 -1.282060146331787 -0.18663999438285828 -0.16935518383979797 -0.027821458876132965 0.32705044746398926 -0.23316338658332825 -0.027094438672065735 0.14397382736206055 0.18384230136871338 -0.13399982452392578 0.16894686222076416 0.1908409297466278 0.33143898844718933 0.6404749155044556 -0.1858936846256256 -0.05675660818815231 -0.3194088935852051 -0.16625764966011047 0.15356360375881195 -0.29939067363739014 0.7292168140411377 0.04375731199979782 0.3548003137111664 -0.5397090911865234 0.3961036205291748 -0.350435346364975 -0.200797438621521 -0.46250849962234497 0.7991897463798523 0.0146018136292696 -0.2573474049568176 0.5030685067176819 0.0510675385594368 -0.07680267095565796 0.03098480962216854 -0.2638106346130371 0.0032088360749185085 0.03791142255067825 1.164683222770691 -0.32276803255081177 0.1720963567495346 -0.017305469140410423 -0.08836983889341354 -0.3301491141319275 0.06588714569807053 -0.052149295806884766 -0.12208005040884018 0.1964271068572998 -0.11120887100696564 -0.054947853088378906 -0.01510340254753828 0.05518382787704468 -0.4261651933193207 0.06871932744979858 0.4500560760498047 0.1492551565170288 -0.0991625115275383 0.0011068731546401978 -0.13583330810070038 -0.8296494483947754 0.04880024120211601 0.29109570384025574 -0.4640079438686371 0.06895675510168076 0.016340238973498344 0.11769300699234009 -0.0350596085190773 0.31379199028015137 -0.00010364782065153122 -0.5432738661766052 -0.37912338972091675 0.6106369495391846 -0.11505772918462753 0.2243710458278656 0.1413397490978241 -0.3921092450618744 -0.4006919860839844 -0.40932008624076843 0.4958839416503906 -0.06936730444431305 0.221396803855896 -0.3219159245491028 -0.2066013216972351 0.13999582827091217 0.05639421567320824 -0.12662409245967865 -0.8271517157554626 -0.0607730858027935 -1.5506556034088135 0.2768024206161499 0.15964633226394653 -0.05738620460033417 -0.8855351209640503 0.47225892543792725 0.2772480249404907 0.09924714267253876 0.20557916164398193 0.3857879638671875 0.2590406537055969 0.12857693433761597 -0.234442800283432 -1.105558156967163 0.18819093704223633 0.1818598508834839 -0.5790757536888123 -0.3390096426010132 0.37581250071525574 0.08940892666578293 0.16040369868278503 -0.5392284393310547 0.20335757732391357 -0.07833270728588104 0.08086171746253967 -0.14623868465423584 -0.14910250902175903 0.15962159633636475 -0.11013172566890717 -0.06192595884203911 0.13058239221572876 -0.1147255003452301 -0.4012551009654999 -0.00904710590839386 0.06757757812738419 0.6082987785339355 0.002093278570100665 0.38562315702438354 -0.07379996031522751 -0.13232824206352234 -0.07034908980131149 0.03759757801890373 -0.047227583825588226 -0.05120208486914635 -0.3511788249015808 -0.0551179014146328 -0.06807854026556015 0.1566484570503235 -0.16741174459457397 -0.04967951774597168 0.20344075560569763 0.14323560893535614 0.19712385535240173 0.17428843677043915 0.0001036698668031022 0.01530073769390583 0.0808449536561966 -0.4042322039604187 0.12058687210083008 -0.5104151964187622 -0.3615361154079437 0.2730468511581421 0.024996589869260788 -0.7233681678771973 -0.7087085247039795 -0.024128571152687073 -0.4121182858943939 0.10749828815460205 -0.12445545196533203 -0.14395686984062195 -0.032308489084243774 -0.021595295518636703 0.12192808091640472 -0.2735137641429901 0.513251543045044 -0.22695273160934448 0.3227567672729492 0.08152038604021072 0.3627586364746094 0.20380857586860657 0.09083051979541779 0.09236844629049301 0.16274508833885193 -0.215754434466362 0.05047357827425003 0.17241480946540833 -0.32973724603652954 0.05839352309703827 -0.0588257871568203 0.07767697423696518 0.1737670600414276 -0.11273374408483505 0.17237743735313416 0.19855916500091553 -0.04241715371608734 -0.05052410066127777 0.01192078273743391 0.44857120513916016 -0.23413966596126556 0.592406153678894 0.28719362616539 -0.051317475736141205 -0.3620006740093231 -0.3137597143650055 -0.0686352550983429 -0.08901190012693405 0.22659306228160858 -0.22387802600860596 -0.5201441049575806 0.3265853524208069 0.20532634854316711 0.6860451698303223 0.4739299714565277 0.09635176509618759 0.9026889801025391 0.20435647666454315 -0.0011647928040474653 -0.29370540380477905 -0.13510027527809143 -0.38486534357070923 -0.16334840655326843 0.21691685914993286 -0.5771093368530273 0.28237223625183105 0.15319649875164032 0.2020888775587082 0.20608681440353394 0.5407936573028564 -0.059367962181568146 0.12942440807819366 -0.5603377223014832 0.14692533016204834 -0.35011327266693115 -0.0835038423538208 -0.33750343322753906 0.24264715611934662 0.31646013259887695 -0.1081099733710289 -0.02708267979323864 -0.11755901575088501 -0.3860013484954834 -0.8806347846984863 1.0194343328475952 -0.2604115903377533 -0.6365918517112732 -0.21666955947875977 -0.48488062620162964 -0.8128641843795776 -0.19059395790100098 0.05361935496330261 0.02389197051525116 -0.14493414759635925 0.12080086767673492 0.4445483684539795 -0.5405138731002808 0.5923333168029785 0.10860751569271088 0.40495631098747253 0.22479605674743652 0.36667436361312866 -0.31013017892837524 0.012129525654017925 0.3183850944042206 0.020104769617319107 0.3829297721385956 0.081230029463768 -0.48612210154533386 -0.2631111443042755 0.289224237203598 0.391976922750473 0.05643211305141449 0.1449809968471527 0.07669307291507721 0.20323841273784637 0.4020840525627136 -0.30361104011535645 0.24259793758392334 0.48170608282089233 1.116377830505371 -0.009391735307872295 0.09188669919967651 0.196492999792099 0.08630764484405518 -0.011136173270642757 -0.175151526927948 0.20346617698669434 0.31720587611198425 0.11392178386449814 0.2980155348777771 -0.2458982765674591 -0.3635983467102051 -0.26466256380081177 -0.2447894811630249 -0.37328821420669556 -0.47639936208724976 0.09093873202800751 -0.05799144506454468 0.24039527773857117 -0.05068279802799225 -0.7162026762962341 0.10179989039897919 0.2614876627922058 -0.0022874909918755293 0.49820828437805176 0.16083766520023346 0.1098046526312828 0.016450311988592148 -0.25752174854278564 -0.1020059734582901 -0.6843247413635254 0.05260247737169266 -0.2951342761516571 0.024366289377212524 0.8389830589294434 0.4071790874004364 0.1257464736700058 -0.15966947376728058 0.21104538440704346 -0.19903779029846191 -0.18333324790000916 0.5790537595748901 -0.17542801797389984 -0.1334337443113327 -0.24658748507499695 0.44355636835098267 0.005324013531208038 0.34670495986938477 -0.5880019664764404 -0.08709031343460083 -0.11421360820531845 0.16728031635284424 -0.18441098928451538 0.3843778371810913 -0.10635195672512054 -2.8036789894104004 0.37812384963035583 0.08104991912841797 0.3286464214324951 0.1842094361782074 0.1297660917043686 0.4281404912471771 -0.2181067168712616 0.16234081983566284 0.4365859627723694 0.2417408674955368 -0.027752188965678215 0.4124135971069336 -0.12685605883598328 -0.07879748195409775 -0.40050625801086426 0.11403602361679077 0.11451833695173264 0.3369879424571991 0.08996133506298065 0.4212443232536316 0.004299766384065151 0.245134636759758 -0.34478825330734253 -0.2236073911190033 0.14666429162025452 -0.06114752218127251 -0.0732717216014862 0.14181563258171082 0.09017445892095566 0.0068541020154953 0.13979887962341309 -0.009125555865466595 -0.20637556910514832 -0.00555912870913744 0.4579300880432129 -0.363161563873291 -0.47422656416893005 0.03027762472629547 -0.17575906217098236 0.5951400399208069 0.07179703563451767 0.25036096572875977 -1.505332350730896 -0.15299779176712036 0.21036802232265472 -0.3083469569683075 0.029895972460508347 0.05248626321554184 0.5962442755699158 0.05922218784689903 0.3131006360054016 -0.12465177476406097 -0.26236793398857117 0.12817034125328064 -0.012036189436912537 -0.1117890477180481 0.3422151505947113 -0.053239546716213226 0.2598020136356354 0.0005760888452641666 -0.17794190347194672 -0.1592637300491333 0.07222765684127808 0.17302702367305756 -0.21417032182216644 -0.1311788409948349 -0.32110291719436646 0.2327502965927124 -0.23060479760169983 -0.025624025613069534 0.2148188352584839 -0.10539433360099792 0.20442478358745575 -0.028350239619612694 -0.14723512530326843 0.041657112538814545 0.3142988681793213 -0.10337668657302856 0.07048333436250687 0.1272907853126526 0.7530884742736816 0.1301194727420807 -0.0687849149107933 -0.27191072702407837 0.5403127670288086 -0.23075571656227112 -0.20399874448776245 0.23282508552074432 -0.022149715572595596 -0.1353212296962738 0.5309598445892334 -0.15275532007217407 0.5565147399902344 0.07491366565227509 0.19402015209197998 0.137992724776268 -0.05716003477573395 1.3269660472869873 0.2106393575668335 0.015284357592463493 -0.1415625512599945 0.05643896013498306 0.21020948886871338 0.12836027145385742 -0.16870445013046265 -0.32621845602989197 -0.070404052734375 -0.968181312084198 -0.0416690930724144 0.16900423169136047 -0.17980818450450897 0.2795357406139374 0.6316198706626892 -0.042693864554166794 0.14300711452960968 0.17612963914871216 0.01760462485253811 0.2779441475868225 0.07943137735128403 0.10546588897705078 -0.4066105782985687 -0.09502660483121872 0.007005535066127777 0.45033568143844604 0.5413375496864319 0.2497105598449707 0.5606335997581482 0.2216670960187912 0.002060527680441737 -0.12986639142036438 0.3056544065475464 -0.13029929995536804 0.48963305354118347 0.018154427409172058 9.848033905029297 -0.19303318858146667 0.051007162779569626 -0.19662682712078094 0.4090545177459717 0.055679239332675934 -0.10497772693634033 0.3413780629634857 -0.08755815029144287 0.15820465981960297 0.026573164388537407 -0.022831594571471214 0.2978813052177429 -0.6311472654342651 -0.07313250750303268 -0.15961617231369019 0.6254398822784424 0.2617183327674866 -0.2704959809780121 -0.12375198304653168 -0.11446478962898254 -0.13957029581069946 0.16388627886772156 0.13139094412326813 0.010049067437648773 -0.284757137298584 -0.6797431707382202 0.29630789160728455 0.032328009605407715 0.1744755357503891 0.21483266353607178 0.06681863963603973 0.04874814301729202 0.055612340569496155 0.057604484260082245 0.16461281478405 -0.9572752714157104 -0.1569611132144928 0.2716158628463745 -0.1458124816417694 -0.09174680709838867 -0.1983945071697235 0.010260525159537792 -0.1261381357908249 0.06869609653949738 0.12597398459911346 -0.5209851264953613 0.24185828864574432 0.45256948471069336 0.11317557096481323 0.14037548005580902 0.28856050968170166 -0.0983017235994339 -0.6847914457321167 -0.20136086642742157 -0.38398000597953796 0.48862791061401367 -0.07266442477703094 -0.046310484409332275 -0.6781424283981323 0.10016359388828278 -0.028145264834165573 0.06458701938390732 0.11505575478076935 0.24059590697288513 -0.09721599519252777 0.31974536180496216 -0.1882033795118332 0.2494426816701889 -0.09201690554618835 -0.09274137020111084 0.09129206836223602 -0.13490520417690277 -0.06798799335956573 -0.3310927152633667 -0.12231221795082092 -0.1437338888645172 -0.10182084888219833 -0.4973467290401459 -0.3263871669769287 -0.08153332769870758 0.25582441687583923 -0.02286139689385891 0.13333743810653687 -0.06755291670560837 0.002742242068052292 -0.08150233328342438 -0.026632990688085556 0.19770005345344543 -0.20317880809307098 -0.134072944521904 0.02271357737481594 -0.14127594232559204 0.08379930257797241 0.3659728467464447 0.03872000798583031 -0.11046671867370605 0.21174392104148865 0.1219758540391922 -0.09929893910884857 -0.5781450271606445 0.13228878378868103 -0.16010671854019165 0.18033519387245178 -0.022161126136779785 0.02226235345005989 0.5904309153556824 -0.38363000750541687 -0.3303578794002533 0.03606900945305824 0.10438677668571472 0.508455216884613 0.24751418828964233 0.155513733625412 -0.31456509232521057 -0.4624207019805908 0.0013879364123567939 -0.12122794985771179 0.3181734085083008 0.7374624013900757 0.011867493391036987 0.3589490056037903 0.12494240701198578 -0.6212890148162842 0.12590554356575012 0.002877645194530487 -0.1169189065694809 0.3516908884048462 0.24948829412460327 -0.18365761637687683 -0.3811420202255249 -0.15947197377681732 0.4373440146446228 0.17363372445106506 0.06854106485843658 -0.3268372416496277 0.5447143912315369 -0.04818153381347656 0.23069161176681519 0.2127806842327118 -0.024039557203650475 0.306973934173584 -0.254279226064682 -0.13518032431602478 -0.31463417410850525 0.05197051167488098 -0.21665214002132416 -0.08537980169057846 0.2492012083530426 -0.2527120113372803 -0.15173111855983734 -0.26822346448898315 0.06991829723119736 -0.05390800163149834 0.1054389700293541 0.22477713227272034 -0.1571560800075531 0.4200870990753174 0.28033632040023804 0.004737137816846371 -0.31709393858909607 -1.4904553890228271 -0.32172635197639465 -0.4476604461669922 -0.31462258100509644 0.0139381792396307 -0.3207050859928131 -0.1895543336868286 -0.04794055223464966 0.005468224640935659 0.32321566343307495 -0.08754274249076843 -0.1187736988067627 -0.06016743183135986 0.7069889903068542 -0.2890826165676117 -0.013985028490424156 -0.9060961604118347 0.2544330954551697 0.1517983078956604
node_43	-0.04688306152820587 0.2952896058559418 0.22166717052459717 -0.24180838465690613 0.6736406087875366 -0.3529115915298462 0.06689431518316269 0.2679862380027771 -0.07781225442886353 -0.458758682012558 0.28088152408599854 0.141377255320549 0.3812141418457031 0.12317388504743576 0.1360863596200943 -0.5376524329185486 0.6795452833175659 0.07112238556146622 -0.06362614035606384 0.21067187190055847 0.16467630863189697 0.2685363292694092 0.13903415203094482 0.24717973172664642 -0.14311707019805908 0.10620652139186859 0.5354611277580261 -0.1060618907213211 0.08640860766172409 0.1088186502456665 -0.008729550056159496 0.47649359703063965 0.1713627576828003 0.1696837991476059 -0.014604806900024414 -0.06556888669729233 -0.44241830706596375 0.23421022295951843 0.24254220724105835 0.25043267011642456 -0.5520687103271484 0.16609510779380798 0.3268148899078369 -0.18920311331748962 -0.02468838356435299 0.14680244028568268 0.05752932280302048 -0.2332077920436859 0.15587040781974792 -0.017990287393331528 0.03862854093313217 -0.3776940107345581 -0.28193381428718567 0.2979654371738434 0.008126456290483475 0.2501905560493469 -0.19040173292160034 -0.1283920556306839 0.1669166088104248 0.09973068535327911 0.10512499511241913 1.2646353244781494 0.2991734743118286 0.3502567410469055 0.1427508443593979 0.2808448076248169 -0.20551711320877075 -0.26382094621658325 0.10430379956960678 0.07278124988079071 -0.09404866397380829 0.06951846182346344 0.189303919672966 -0.4278873801231384 0.1105506643652916 -0.18920527398586273 0.47173118591308594 -2.714263439178467 -0.20857322216033936 0.8213767409324646 0.11410120129585266 -0.36575186252593994 0.901972770690918 -0.26693451404571533 0.26514941453933716 -0.9018980860710144 0.45100852847099304 -0.3080030679702759 0.3042040765285492 0.49425119161605835 0.453152596950531 0.13440530002117157 -0.13246117532253265 0.04210472106933594 -0.0971859022974968 0.07378093898296356 -0.1860363483428955 -0.20839884877204895 -0.26067060232162476 0.37131330370903015 0.14784210920333862 0.12507867813110352 0.34559810161590576 -0.2215718924999237 0.2717767357826233 -0.06336075067520142 -0.004845212213695049 -0.22509422898292542 0.24820606410503387 0.5415713787078857 0.1803147792816162 0.05926801264286041 -0.09572075307369232 -0.13260890543460846 -0.13773930072784424 0.18773415684700012 0.031076982617378235 0.05876058340072632 0.15400204062461853 0.2629045844078064 0.16641490161418915 -0.43131202459335327 0.22001110017299652 0.019181814044713974 -0.25829124450683594 0.6336863040924072 0.48685359954833984 -0.40000292658805847 -0.14572025835514069 -0.15950416028499603 -0.272040456533432 -1.3800076246261597 -0.16369277238845825 -0.0006424784660339355 -0.02352604828774929 0.2858738303184509 -0.1506880819797516 0.10417179763317108 -0.004121504724025726 0.12056490033864975 -0.2712324261665344 0.10192125290632248 0.1005038246512413 0.2357991337776184 0.7441601753234863 -0.010555252432823181 -0.03137412294745445 -0.25799524784088135 -0.20376460254192352 0.07898301631212234 -0.1336817890405655 0.698326587677002 0.010241168551146984 0.4041047692298889 -0.47868961095809937 0.37680304050445557 -0.24500803649425507 -0.3785580098628998 -0.5141512155532837 0.5093955397605896 0.007581699639558792 -0.18498077988624573 0.6824947595596313 0.06266634911298752 -0.02091333270072937 0.04347674176096916 -0.21835266053676605 0.009618623182177544 0.11797073483467102 0.9404468536376953 -0.20363478362560272 -0.005857770796865225 -0.09043677896261215 -0.12646928429603577 -0.3244072198867798 0.14661100506782532 -0.14494161307811737 -0.07305674999952316 0.07413040846586227 -0.08132734149694443 0.015737565234303474 0.13553957641124725 0.06441140919923782 -0.3666416108608246 0.09345163404941559 0.16579104959964752 0.20468425750732422 -0.19584017992019653 -0.01693127676844597 -0.17723780870437622 -0.7127492427825928 0.008251368999481201 0.18461047112941742 -0.33498871326446533 0.06087028980255127 0.3228813409805298 0.15847766399383545 -0.15065285563468933 0.4676736295223236 -0.03844442591071129 -0.49655163288116455 -0.34915846586227417 0.4934782385826111 -0.07012540102005005 0.26902467012405396 0.15090495347976685 -0.19466590881347656 -0.3101217746734619 -0.40110501646995544 0.1834520399570465 -0.2449832409620285 0.5115433931350708 -0.3198486566543579 -0.1160782128572464 0.12494140863418579 0.41524171829223633 -0.3715461492538452 -0.42492470145225525 -0.22275695204734802 -1.2842597961425781 0.20979952812194824 -0.1273496448993683 -0.127853661775589 -1.0640300512313843 0.24191980063915253 0.4434663951396942 0.005744636058807373 0.09749367088079453 0.2212989330291748 0.27844566106796265 0.08654753863811493 -0.07584299892187119 -0.8334550857543945 0.130596324801445 0.3847786784172058 -0.323277086019516 -0.4659138321876526 0.46056556701660156 0.047860320657491684 0.14882177114486694 -0.10706057399511337 0.22236871719360352 -0.1365680992603302 0.17024901509284973 -0.01345845591276884 -0.3913966417312622 -0.06115318089723587 0.37081992626190186 -0.06912923604249954 -0.059195540845394135 -0.1257706731557846 0.2440231889486313 -0.025475209578871727 0.09233250468969345 0.8875781893730164 0.09750956296920776 0.276801198720932 0.03507011756300926 -0.007279835641384125 -0.22346782684326172 -0.035218965262174606 -0.19928112626075745 -0.07113544642925262 -0.29517996311187744 -0.2260775864124298 -0.1999344527721405 0.10356372594833374 -0.23400263488292694 -0.17162129282951355 0.3019081950187683 0.1685248613357544 0.03848337382078171 0.3132639229297638 0.14334221184253693 -0.05427616834640503 0.2408350110054016 -0.20145176351070404 0.13493067026138306 -0.13298630714416504 -0.46905407309532166 0.36484789848327637 -0.009339690208435059 -0.691577672958374 -0.6021960973739624 0.07714179158210754 -0.2712959051132202 0.03508710861206055 -0.27390336990356445 -0.17331461608409882 0.06661726534366608 -0.021588025614619255 0.0604805052280426 -0.413124680519104 0.40054625272750854 -0.29194557666778564 0.19384074211120605 0.07845636457204819 0.6426632404327393 0.15143513679504395 0.0067178308963775635 0.06693515181541443 0.2010468691587448 -0.11674194782972336 -0.005603581666946411 0.011305327527225018 -0.43078702688217163 0.1993265151977539 0.03980601578950882 0.2115454375743866 0.3267361521720886 -0.14992983639240265 0.29946252703666687 0.12217298150062561 0.137892484664917 0.09819953143596649 -0.022616779431700706 0.30539557337760925 -0.15235386788845062 0.5654183030128479 0.2781921625137329 -0.025914056226611137 -0.10968376696109772 -0.22235743701457977 -0.055189575999975204 -0.270083487033844 0.3440698981285095 0.0834985002875328 -0.4550805985927582 0.3382267355918884 0.19750353693962097 0.9241384267807007 0.38867783546447754 0.22259847819805145 0.29494041204452515 0.14093944430351257 -0.0036388016305863857 -0.2600768506526947 -0.18171489238739014 -0.28725945949554443 -0.3440172076225281 0.02387314848601818 -0.6797367930412292 0.15874946117401123 0.08181571960449219 0.11291974037885666 0.09362131357192993 0.5182116627693176 -0.1426416039466858 0.14096415042877197 -0.4637112319469452 -0.02654813788831234 -0.21185308694839478 0.09939657896757126 -0.5423598885536194 0.28816109895706177 0.5354576110839844 -0.08889114856719971 -0.19489023089408875 -0.1176401674747467 0.03548615798354149 -0.49235814809799194 0.7619373202323914 0.004017204977571964 -0.7129230499267578 -0.20766215026378632 -0.23536726832389832 -1.070056438446045 0.0142813790589571 0.12055850028991699 -0.05531006306409836 -0.059957072138786316 0.030683046206831932 0.4302964210510254 -0.5716726183891296 0.33448752760887146 0.05930555984377861 0.09936787933111191 0.2600741386413574 0.07827349007129669 -0.5153082609176636 0.08404289186000824 0.2555047273635864 0.09607212245464325 0.45394620299339294 0.05124875158071518 -0.24066999554634094 -0.18167439103126526 0.469519704580307 0.3637259900569916 0.05863954871892929 0.13261277973651886 0.15671852231025696 -0.03926914557814598 0.5080642700195312 -0.25525227189064026 0.20288369059562683 0.3238425850868225 0.42204350233078003 -0.3382546901702881 0.09392355382442474 0.13075746595859528 -0.022131361067295074 -0.03918064385652542 0.10675999522209167 0.35140228271484375 0.32729843258857727 0.10495450347661972 0.14319002628326416 -0.5274483561515808 -0.8037356734275818 -0.18421559035778046 -0.4007776975631714 -0.5062034130096436 -0.4149332046508789 0.007175703998655081 -0.17512880265712738 0.516515851020813 -0.08211614191532135 -0.609515368938446 0.22838422656059265 0.26765167713165283 0.10000397264957428 0.5546388030052185 0.26702332496643066 -0.23491406440734863 0.0918503999710083 -0.2610733211040497 -0.22411701083183289 -0.3108271062374115 0.021986156702041626 -0.19603155553340912 0.015270667150616646 0.6288049221038818 0.3336227536201477 0.31074637174606323 -0.015134349465370178 0.35930508375167847 -0.14635774493217468 -0.07831525802612305 0.4454341530799866 -0.22739671170711517 -0.16009214520454407 -0.3207349181175232 0.24690034985542297 0.00177658349275589 0.477489173412323 -0.30592188239097595 -0.06213114783167839 -0.24394845962524414 0.2922390401363373 -0.38503003120422363 0.2558169960975647 -0.29818177223205566 -2.5219953060150146 0.3756091594696045 -0.05024917423725128 0.15932625532150269 0.1639615297317505 0.06665526330471039 0.2613237500190735 -0.20703165233135223 0.05544193834066391 0.4353630542755127 0.1482604593038559 0.02855723351240158 0.3379678726196289 -0.041051432490348816 -0.12522724270820618 -0.33906739950180054 0.18676641583442688 0.2484068125486374 0.5327500104904175 -0.026375195011496544 0.3741198480129242 -0.07668580859899521 0.2287530153989792 -0.08852122724056244 -0.3723684251308441 0.06770357489585876 0.05968993529677391 0.0672374814748764 0.08687447011470795 -0.045538630336523056 0.01507033221423626 0.07127226889133453 -0.02340279333293438 -0.12188871204853058 -0.0530925951898098 0.34504541754722595 -0.40180206298828125 -0.26230716705322266 0.11728867143392563 -0.42516493797302246 0.5594049692153931 0.07054169476032257 0.17407767474651337 -1.7958135604858398 -0.19522014260292053 -0.44022616744041443 -0.2096223086118698 0.12099876254796982 0.07870449125766754 0.6233858466148376 0.23278842866420746 0.18742600083351135 -0.06274133175611496 -0.3729977607727051 0.08527349680662155 -0.05556843802332878 -0.083930104970932 0.3381638526916504 0.3559083938598633 0.06637459993362427 0.06825608015060425 0.043438684195280075 -0.16437773406505585 -0.028068890795111656 0.30581390857696533 -0.0016936510801315308 -0.6753087043762207 -0.3472253084182739 0.2402406632900238 -0.21790193021297455 -0.11941766738891602 0.04180975258350372 -0.009280353784561157 0.4260774552822113 -0.1835385262966156 -0.2351856678724289 -0.11717959493398666 0.19738706946372986 -0.16827207803726196 0.1322154849767685 0.05168120190501213 0.6324471831321716 -0.03465733304619789 -0.1312817931175232 -0.2632351815700531 0.4524920880794525 -0.30530232191085815 -0.498349666595459 0.25075384974479675 -0.25097131729125977 -0.298387348651886 0.4552149176597595 -0.057328000664711 0.287762850522995 0.021891586482524872 0.1138470470905304 0.07045180350542068 -0.22701376676559448 1.708640456199646 0.25686317682266235 -0.031035099178552628 -0.13391806185245514 0.009710391983389854 0.12268689274787903 0.13206146657466888 -0.06764181703329086 -0.04498923569917679 -0.0779208093881607 -0.0029447476845234632 0.06252657622098923 0.03909885510802269 -0.5803619623184204 0.33961808681488037 0.6059882640838623 -0.14102742075920105 0.11848843097686768 0.23008954524993896 -0.9128231406211853 0.3174223303794861 -0.01381504163146019 -0.3225123882293701 -0.27227121591567993 -0.18398764729499817 -0.0490993857383728 0.5251269936561584 0.2985026240348816 0.2862691283226013 0.5984456539154053 0.22003459930419922 -0.022738350555300713 -0.4547823667526245 0.29418516159057617 0.011392041109502316 0.8672487139701843 -0.06306003034114838 10.362686157226562 -0.0543423593044281 0.08114152401685715 -0.12342706322669983 0.21153023838996887 0.04690013825893402 -0.005256650969386101 0.5447151064872742 -0.24278005957603455 0.1537172645330429 0.08682881295681 -0.12861230969429016 0.10678013414144516 -0.5811377763748169 -0.09192805737257004 0.04373890906572342 0.5516367554664612 0.20040415227413177 -0.02693491242825985 -0.13516345620155334 0.011520217172801495 0.09716358780860901 0.16480407118797302 0.2757096290588379 -0.029948987066745758 -0.089064821600914 -0.5614982843399048 0.3677605390548706 0.05154230445623398 0.18898871541023254 0.21655091643333435 0.008293168619275093 0.028500568121671677 0.13202425837516785 -0.03065263293683529 -0.15424399077892303 -0.4294143319129944 -0.055313773453235626 0.1968400478363037 -0.18223586678504944 -0.20420651137828827 -0.298659086227417 0.03980496525764465 0.02557641640305519 -0.017653968185186386 0.1268753707408905 -0.27396297454833984 0.10600286722183228 0.37196582555770874 0.1721969097852707 0.18238966166973114 0.14173172414302826 0.10801230370998383 -0.7266427874565125 -0.1825457662343979 -0.35293635725975037 0.30366194248199463 -0.08505122363567352 -0.05010576546192169 -0.49997299909591675 0.04856507480144501 -0.08848212659358978 -0.11026082932949066 0.20374464988708496 0.9639508128166199 -0.1544099748134613 0.391134113073349 0.17478904128074646 0.7189638018608093 -0.0559314489364624 -0.13811081647872925 0.14330697059631348 -0.014333131723105907 -0.09894727170467377 -0.5359328985214233 -0.2244623899459839 0.587922215461731 -0.18369516730308533 -0.3751400411128998 -0.4735906720161438 0.02325228974223137 0.299898624420166 -0.008579060435295105 0.048533275723457336 -0.4620608687400818 0.039120640605688095 -0.11080107092857361 -0.03575774282217026 0.13740497827529907 -0.08839529752731323 -0.05039869248867035 -0.062408022582530975 -0.2666066586971283 0.09999352693557739 0.42275476455688477 -0.051678236573934555 0.03688812255859375 0.12643326818943024 0.06059589982032776 -0.2294241040945053 -0.5397765636444092 0.10469560325145721 -0.22910194098949432 0.12347619980573654 0.1731807291507721 0.029117867350578308 0.8876730799674988 -0.2523532509803772 -0.45706766843795776 -0.0023478828370571136 0.04672694206237793 0.3895657956600189 0.25529944896698 0.31818777322769165 -0.27365079522132874 -0.39558491110801697 0.01171915978193283 -0.07614695280790329 0.3253064751625061 0.6700224876403809 -0.0069416118785738945 0.13535913825035095 0.2010737657546997 -0.5909761190414429 0.13488052785396576 0.09140515327453613 -0.04204177483916283 0.3817906081676483 0.2770884931087494 -0.0142171960324049 -0.5637350082397461 -0.23869340121746063 0.028660576790571213 0.309285968542099 0.008472293615341187 -0.3595082759857178 0.3358849883079529 -0.0893440768122673 0.15901485085487366 0.21786320209503174 0.3398643434047699 0.38470780849456787 -0.2532130479812622 -0.518841028213501 -0.1197635680437088 -0.5484873652458191 -0.29958030581474304 0.658676266670227 0.2067062109708786 -0.32426074147224426 -0.0816817656159401 -0.17927078902721405 -0.14627563953399658 -0.2005680501461029 -0.02950451895594597 0.25292640924453735 -0.08342818915843964 0.4085376262664795 0.136916384100914 0.07331492006778717 0.1985032558441162 -1.360658884048462 -0.7858917117118835 -0.8127281069755554 0.04519429802894592 -0.14434131979942322 -0.1096356064081192 -0.21421359479427338 0.2137201726436615 -0.05801145359873772 0.4235679507255554 -0.2845990061759949 -0.22639690339565277 -0.1231251060962677 0.6800782084465027 -0.3313051164150238 -0.31430667638778687 -0.8119297027587891 0.11735723912715912 0.18895602226257324
node_31	0.021306585520505905 0.20163270831108093 0.22453837096691132 -0.004637641366571188 0.8762697577476501 -0.45738905668258667 -0.017804104834794998 0.23229776322841644 -0.09912596642971039 -0.4596228301525116 0.2562912404537201 0.49684494733810425 0.2513734996318817 -0.3146665692329407 0.19977383315563202 -0.3964751660823822 0.5262181758880615 -0.01854619011282921 -0.0010395273566246033 0.13217958807945251 0.25295495986938477 0.09483867883682251 0.23721614480018616 0.34889036417007446 -0.26481467485427856 0.1753520965576172 0.5821220874786377 0.0033424347639083862 0.1255827248096466 0.0348641537129879 -0.08309026062488556 0.34676241874694824 0.0750022828578949 0.1596025675535202 -0.0196462981402874 0.10401810705661774 -0.412949800491333 0.316388338804245 0.5449305176734924 0.04639109596610069 -0.7141715288162231 -0.09339313954114914 0.3001590669155121 -0.26140445470809937 0.049257099628448486 0.07835574448108673 0.15348422527313232 0.3630024194717407 0.11456151306629181 0.02093428187072277 0.02363082766532898 -0.37847888469696045 -0.33704906702041626 0.17527934908866882 -0.17339926958084106 0.2586483955383301 -0.20243386924266815 -0.07590581476688385 0.08153969049453735 0.12408579885959625 0.20716553926467896 0.7433359026908875 0.3549001216888428 0.2517302632331848 0.12358387559652328 0.35849738121032715 -0.0784250944852829 -0.201642245054245 0.12594494223594666 0.1548430174589157 -0.07026941329240799 -0.03962339088320732 0.17178212106227875 -0.1990681141614914 0.06085006892681122 0.014212382957339287 0.3857060372829437 -2.839883804321289 -0.1976911425590515 0.5296755433082581 0.007848717272281647 -0.4386224150657654 1.7190111875534058 -0.07586559653282166 0.019645845517516136 -0.9329724311828613 0.49046486616134644 -0.36418473720550537 0.11315324902534485 0.586601734161377 0.5283468961715698 0.10029910504817963 -0.16265752911567688 0.10829132795333862 -0.12937059998512268 0.29425954818725586 -0.10762141644954681 -0.6301626563072205 -0.34218284487724304 0.24479500949382782 -0.11042779684066772 0.06154986470937729 0.33588236570358276 -0.21776601672172546 0.33823883533477783 0.018777504563331604 -0.09122663736343384 -0.20033752918243408 0.18196623027324677 0.577192485332489 0.09018363058567047 0.09325993061065674 -0.0565551295876503 -0.09684788435697556 -0.1608516275882721 0.11112159490585327 0.1123766154050827 0.04690594971179962 0.1579466164112091 0.13621070981025696 0.12062793225049973 -0.3189011216163635 0.11574552953243256 -0.0610024556517601 0.0715072751045227 0.48596400022506714 0.626285970211029 -0.2466547191143036 -0.23287507891654968 -0.25164663791656494 -0.23365896940231323 -0.9985755681991577 -0.26332366466522217 -0.4530791640281677 -0.10240703821182251 0.28980332612991333 -0.13058361411094666 0.06903528422117233 0.07250767946243286 0.17956054210662842 -0.1779254525899887 0.12251263111829758 0.16165569424629211 0.15655609965324402 0.8640448451042175 -0.0052730245515704155 0.10739826411008835 -0.29182881116867065 -0.23689424991607666 0.12363177537918091 -0.25491827726364136 0.6730093955993652 0.07202354073524475 0.41298723220825195 -0.6603847742080688 0.44877004623413086 -0.22888442873954773 -0.3378204107284546 -0.4862249791622162 0.622780978679657 0.039015039801597595 -0.16937392950057983 0.6052106618881226 0.07345598936080933 0.030258432030677795 -0.022433489561080933 -0.24301385879516602 -0.11059319227933884 0.09169082343578339 0.8975890874862671 -0.3838918209075928 0.036764442920684814 0.028348347172141075 -0.06699758768081665 -0.25522589683532715 0.16966001689434052 -0.14845328032970428 -0.16444915533065796 0.21692025661468506 -0.08547087013721466 -0.21342037618160248 0.11864806711673737 -0.026672910898923874 -0.41179192066192627 -0.0074705928564071655 0.5678163766860962 0.188984215259552 -0.36643099784851074 -0.008768483996391296 -0.14409609138965607 -0.7354645729064941 0.08586909621953964 0.17940402030944824 -0.161533385515213 0.10571175813674927 0.10185758769512177 0.06021206080913544 -0.06862877309322357 0.30397218465805054 -0.045220326632261276 -0.5000108480453491 -0.3766469955444336 0.4253692626953125 -0.11031676828861237 0.17278650403022766 0.1015116423368454 -0.25533151626586914 -0.38309574127197266 -0.45862168073654175 0.2144605815410614 -0.2149496078491211 0.6628607511520386 -0.2294120490550995 0.009545932523906231 -0.010002454742789268 0.17601177096366882 -0.17647293210029602 -0.19753465056419373 -0.057220906019210815 -1.1995733976364136 0.21089057624340057 0.04595121368765831 -0.18115592002868652 -1.0307635068893433 0.35851722955703735 0.4357220530509949 0.12927085161209106 0.1241014301776886 0.24784116446971893 0.26204046607017517 0.14492611587047577 -0.13800573348999023 -0.9718932509422302 0.16459478437900543 0.14580634236335754 -0.265865683555603 -0.3017157018184662 0.2892296314239502 -0.009055821225047112 0.2765243947505951 -0.829187273979187 0.19691424071788788 -0.14649423956871033 0.12088049948215485 -0.11325665563344955 -0.4323657155036926 0.08886536210775375 -0.16018426418304443 -0.032153062522411346 -0.12674710154533386 -0.14534714818000793 -0.15289412438869476 -0.118399977684021 0.16478414833545685 0.4626290798187256 -0.07852768898010254 0.3372654914855957 -0.04016997665166855 -0.040738195180892944 -0.24869045615196228 0.0057127452455461025 -0.002643988933414221 -0.0794106125831604 -0.24699914455413818 -0.09411729872226715 -0.2561948895454407 0.16902844607830048 -0.20479151606559753 -0.08805684745311737 0.15956707298755646 0.21179941296577454 0.11346672475337982 0.31118208169937134 0.03752809762954712 -0.11679843068122864 0.19399785995483398 -0.37246057391166687 -0.047991733998060226 -0.37714284658432007 -0.4913322329521179 0.252964049577713 0.007380157709121704 -0.7185492515563965 -0.7970995903015137 -0.03377270698547363 -0.26568201184272766 0.036723583936691284 -0.24701368808746338 -0.23166021704673767 0.05732129141688347 -0.10033951699733734 0.13135845959186554 -0.3667263984680176 0.44298145174980164 -0.16662710905075073 0.2695266604423523 0.049144111573696136 0.2688901424407959 0.14468511939048767 0.257057249546051 0.09559988975524902 0.2730506658554077 -0.3039010763168335 0.04478922486305237 0.04150767624378204 -0.3257385194301605 -0.08042894303798676 -0.07248293608427048 0.030301686376333237 0.22304102778434753 -0.15544414520263672 0.2871478796005249 0.16907551884651184 -0.03196780011057854 -0.0536496564745903 -0.027692634612321854 0.4431852102279663 -0.24212507903575897 0.5770862102508545 0.23782280087471008 -0.09454023838043213 -0.23628506064414978 -0.28526368737220764 -0.059425752609968185 -0.20040857791900635 0.2266717404127121 -0.1665327548980713 -0.365786075592041 0.4234342575073242 0.2312314808368683 1.7614845037460327 0.36338794231414795 0.013071770779788494 0.6896848678588867 0.06656588613986969 -0.012220172211527824 -0.25116682052612305 -0.06466137617826462 -0.4370966851711273 -0.1288677453994751 0.03131294250488281 -0.5534160137176514 0.2292255461215973 0.17688366770744324 0.12666922807693481 0.18839578330516815 0.542534589767456 -0.15192760527133942 0.17220976948738098 -0.4091961979866028 0.10348105430603027 -0.39031919836997986 -0.04179567098617554 -0.5159283876419067 0.27260005474090576 0.6479814052581787 -0.1798960268497467 -0.07740247249603271 -0.12345483154058456 -0.22129927575588226 -0.7130411863327026 1.071471929550171 -0.14279580116271973 -0.7419966459274292 -0.13479694724082947 -0.2649027109146118 -0.8666102886199951 -0.12732592225074768 0.023873932659626007 -0.0289676021784544 -0.18490616977214813 0.07670341432094574 0.40134724974632263 -0.5591344833374023 0.41631680727005005 0.1456330567598343 0.2529672086238861 0.16379395127296448 0.24198554456233978 -0.45034176111221313 0.037981800734996796 0.2986280620098114 0.06247914955019951 0.4395996332168579 0.10527126491069794 -0.3005940616130829 -0.3049785792827606 0.6130691766738892 0.4770069718360901 -0.01952155865728855 0.0882592499256134 0.11634143441915512 -0.005357518792152405 0.5833122134208679 -0.22704796493053436 0.13782508671283722 0.2422008365392685 1.152640700340271 -0.25737595558166504 0.04631758853793144 0.25392112135887146 0.20009522140026093 -0.14411821961402893 0.17850086092948914 0.37977656722068787 0.06026407331228256 0.2610635757446289 0.24102336168289185 -0.2869475781917572 -0.3402508497238159 -0.24730566143989563 -0.2748689353466034 -0.5751515626907349 -0.5453107357025146 0.027058422565460205 -0.02582089602947235 0.5904849767684937 0.10930317640304565 -0.5948467254638672 0.22660788893699646 0.17604658007621765 -0.019404593855142593 0.409679114818573 0.3276718258857727 -0.06956668198108673 0.05819077044725418 -0.25183504819869995 -0.09610182046890259 -0.5226513147354126 0.0729755237698555 -0.18099796772003174 0.02211059257388115 0.6950807571411133 0.341256320476532 0.2177809327840805 -0.08575230091810226 0.19980011880397797 -0.24612806737422943 -0.06340828537940979 0.542238175868988 -0.29489031434059143 -0.04822208732366562 -0.318408340215683 0.27223730087280273 -0.07268542051315308 0.25037285685539246 -0.2530667781829834 -0.0591021403670311 -0.17331930994987488 0.1284656971693039 -0.29061102867126465 0.3621247708797455 -0.3948655128479004 -3.1729331016540527 0.4220399856567383 0.017099697142839432 0.31406518816947937 0.16512078046798706 0.10748225450515747 0.3062160611152649 -0.2450740933418274 0.20575153827667236 0.4649307131767273 0.2849636375904083 -0.10005595535039902 0.34545525908470154 0.004519229289144278 -0.09934280812740326 -0.22704307734966278 0.1624963879585266 0.23747357726097107 0.40847939252853394 0.06180086359381676 0.2502491772174835 0.0636577159166336 0.2477380484342575 -0.1653170883655548 -0.30668726563453674 0.030496422201395035 0.027959493920207024 0.040251344442367554 0.14617764949798584 -0.02878240868449211 -0.013926615938544273 0.10135632008314133 -0.1520812064409256 -0.2805529832839966 -0.057626497000455856 0.49910998344421387 -0.2052396833896637 -0.4146486222743988 0.07862375676631927 -0.42145150899887085 0.5932929515838623 0.07047116756439209 0.22136633098125458 -1.8473072052001953 -0.21645569801330566 0.40087223052978516 -0.2011013925075531 0.10526758432388306 0.07757100462913513 0.6252574920654297 0.10718052089214325 0.2863372564315796 -0.03628617525100708 -0.3237268924713135 0.16492509841918945 -0.043259408324956894 -0.099923275411129 0.1868770718574524 0.10559588670730591 0.09284117072820663 -0.006149529479444027 -0.039285946637392044 -0.18931806087493896 -0.019726645201444626 0.1771746575832367 0.05971440300345421 -0.29345759749412537 -0.3360857367515564 0.2927470803260803 -0.21957246959209442 -0.10837139934301376 0.13191115856170654 -0.060906730592250824 0.2587180733680725 -0.010631706565618515 -0.11149577796459198 0.2197202891111374 0.2625617980957031 -0.09107717126607895 0.22897711396217346 0.17282907664775848 0.8708307147026062 0.06210203468799591 -0.0701577216386795 -0.3056092858314514 0.5844230055809021 -0.3072224259376526 -0.04814463108778 0.19309453666210175 -0.08854886889457703 -0.2054440677165985 0.4410177171230316 -0.07547727227210999 0.5813381671905518 -0.06120865046977997 0.2025626003742218 0.1644476354122162 -0.33422452211380005 1.4370521306991577 0.31230971217155457 -0.14727428555488586 -0.022508999332785606 0.003929051570594311 0.027780896052718163 0.0555126816034317 -0.10907042026519775 -0.48147135972976685 -0.08751597255468369 -0.14562860131263733 -0.12426280975341797 0.10692866891622543 -0.3090008795261383 0.3160959780216217 0.6566628217697144 -0.11901986598968506 0.09757982939481735 0.12410550564527512 -0.6128164529800415 0.2917144298553467 -0.05595025420188904 0.15911154448986053 -0.3124905824661255 -0.20631301403045654 -0.12987586855888367 0.3128805160522461 0.4513089060783386 0.3934471607208252 0.7217013835906982 0.19620543718338013 -0.10583539307117462 -0.40115711092948914 0.3456072211265564 -0.01092630997300148 0.5666491985321045 0.09822410345077515 10.025391578674316 -0.03538828343153 0.12271329760551453 -0.1589989960193634 0.2515864968299866 -0.041328247636556625 0.04595541954040527 0.49798426032066345 -0.055075645446777344 0.1401841938495636 -0.023249909281730652 -0.06573519110679626 0.22963473200798035 -0.5158257484436035 -0.10945578664541245 -0.17539891600608826 0.702211320400238 0.11670753359794617 -0.15672150254249573 -0.13647224009037018 -0.03987022489309311 -0.24664996564388275 0.13130751252174377 0.2668841481208801 -0.0029825817327946424 -0.2289261519908905 -0.7054456472396851 0.26007506251335144 0.05683281272649765 0.21952036023139954 0.2630242705345154 0.06258948147296906 0.1382620930671692 0.21367429196834564 0.008110934868454933 -0.07665033638477325 -0.8373264074325562 -0.0669434666633606 0.17350928485393524 -0.12235593795776367 -0.18488726019859314 -0.24811062216758728 -0.042893968522548676 -0.059533387422561646 0.02055644616484642 0.21473687887191772 -0.36274975538253784 0.20831894874572754 0.31872278451919556 0.19606904685497284 0.08762799203395844 0.19822770357131958 -0.0857844352722168 -0.5334498286247253 -0.17999057471752167 -0.4481970965862274 0.44742780923843384 -0.04531985521316528 -0.032317809760570526 -0.5498294830322266 0.08533047884702682 -0.08413265645503998 -0.016175325959920883 0.17288559675216675 0.8794220685958862 -0.30376291275024414 0.33679550886154175 0.10492216050624847 0.5520593523979187 -0.1278475522994995 -0.07111622393131256 0.009685065597295761 -0.039439838379621506 -0.1561621129512787 -0.52543705701828 -0.027709176763892174 0.057330235838890076 -0.2569902837276459 -0.45825648307800293 -0.39766108989715576 -0.0762089341878891 0.3363742232322693 -0.006185715552419424 0.04084095358848572 -0.43817138671875 0.01059479545801878 -0.09466968476772308 0.01670820824801922 0.1918991655111313 -0.10261252522468567 -0.14950165152549744 -0.036168985068798065 -0.21929726004600525 0.059915393590927124 0.3914564251899719 -0.057592254132032394 0.13626185059547424 0.23181425034999847 0.08737945556640625 -0.06750506907701492 -0.5907696485519409 0.1501055359840393 -0.15542283654212952 0.16309785842895508 -0.0251935925334692 -0.1642002910375595 0.5329429507255554 -0.23316222429275513 -0.2820713222026825 0.05223720893263817 0.1293199062347412 0.7190291881561279 0.17320725321769714 0.30536097288131714 -0.1943047046661377 -0.42095744609832764 0.00019724543381016701 -0.12457931041717529 0.22172598540782928 0.933402419090271 0.008343962021172047 0.2073419988155365 0.2755298614501953 -0.5543440580368042 0.22347289323806763 0.05842609703540802 -0.10692685842514038 0.361738383769989 0.14877909421920776 -0.12522798776626587 -0.5349714756011963 -0.19349734485149384 0.48205432295799255 0.08898535370826721 0.051083534955978394 -0.382241427898407 0.5806466341018677 -0.019265376031398773 0.22366046905517578 0.24396131932735443 -0.12488661706447601 0.31947964429855347 -0.36047691106796265 -0.3975437581539154 -0.19665896892547607 -0.18350186944007874 -0.23988483846187592 0.2451823353767395 0.1056099534034729 -0.22087439894676208 -0.19019290804862976 -0.2866857051849365 -0.053647443652153015 -0.03855827450752258 -0.12380349636077881 0.4110908508300781 -0.09337499737739563 0.7907607555389404 0.077681764960289 -0.0349852629005909 -0.26667559146881104 -1.1083868741989136 -0.4106544852256775 -0.19175812602043152 -0.03298488259315491 -0.028946712613105774 -0.32696014642715454 -0.20030871033668518 -0.0072936913929879665 -0.07604233920574188 0.42759817838668823 -0.15988071262836456 -0.4197322726249695 -0.05800795182585716 0.6121727824211121 -0.2490772306919098 -0.15717002749443054 -0.7730976343154907 0.3073618412017822 0.19302156567573547
