node_20	0.04773218184709549 0.24447163939476013 0.15724703669548035 -0.014512872323393822 1.0591840744018555 -0.23106782138347626 0.09190671145915985 0.2678868770599365 0.05051794275641441 -0.46043866872787476 0.2137601673603058 0.6088520884513855 0.36142489314079285 -0.08889743685722351 0.2911755442619324 -0.34722059965133667 0.28273695707321167 0.15074148774147034 0.014743596315383911 0.05037643760442734 -0.007490848656743765 -0.07269081473350525 -0.035430908203125 0.15769065916538239 -0.18828055262565613 0.04968435689806938 0.23975037038326263 0.06668395549058914 0.0787346363067627 0.08783107250928879 -0.13525699079036713 0.17339357733726501 0.07883106172084808 0.32498830556869507 -0.19534939527511597 0.13508611917495728 -0.3198162913322449 0.1447432041168213 0.1268329620361328 0.12205751240253448 -0.621113657951355 0.38468870520591736 0.07644195854663849 -0.19629725813865662 0.02921403758227825 0.14615008234977722 -0.050743889063596725 0.08402393758296967 0.17074760794639587 -0.013470618054270744 0.0674181804060936 -0.32267606258392334 -0.07771733403205872 0.2239653468132019 -0.06857039779424667 0.1110091432929039 -0.27522969245910645 0.034680210053920746 0.4164646565914154 -0.028631091117858887 0.5372965335845947 0.12356603145599365 -0.1746966540813446 -0.09222902357578278 0.0751803070306778 0.1145951896905899 -0.06801553070545197 -0.17019614577293396 0.20156149566173553 0.0474139079451561 0.01179303228855133 -0.18091312050819397 0.10157319158315659 0.2954083979129791 0.04484708607196808 -0.05604315921664238 0.19767269492149353 -2.7990493774414062 0.1109311431646347 0.7200514674186707 0.30107611417770386 -0.5806564688682556 1.2940809726715088 -0.00921264011412859 0.10356029868125916 -0.7335576415061951 0.2654725909233093 -0.1650480031967163 0.029958173632621765 0.4205188751220703 0.44356846809387207 0.08758066594600677 -0.25999879837036133 0.05560239776968956 -0.013857792131602764 0.40724462270736694 -0.11432953923940659 0.3991489112377167 -0.4573638439178467 -0.011153168976306915 0.04284386336803436 -0.009471411816775799 0.4847096800804138 -0.28994220495224 0.08026205748319626 -0.02407955192029476 -0.25031381845474243 -0.2669674754142761 0.18509501218795776 0.1675822138786316 0.07516306638717651 0.09389951080083847 -0.06954613327980042 -0.02678166888654232 -0.11728103458881378 -0.030668094754219055 0.12922483682632446 0.12608209252357483 0.2445783019065857 0.4938246011734009 0.16655029356479645 -0.1901339739561081 -0.02916620299220085 -0.11422425508499146 0.12974998354911804 0.8082733154296875 0.22314122319221497 0.16725760698318481 -0.0787612721323967 -0.1960926502943039 -0.22686025500297546 -1.142857313156128 -0.0003575235605239868 0.27959519624710083 0.17024891078472137 0.23007413744926453 0.030016964301466942 0.10866054147481918 0.09363048523664474 0.028571993112564087 -0.28974688053131104 0.05444914847612381 -0.019856899976730347 0.2111779898405075 0.8223170042037964 -0.0873916894197464 -0.055317528545856476 -0.2987681031227112 0.05553044378757477 0.40804630517959595 -0.17618581652641296 0.5281338691711426 -0.07170252501964569 0.2639245390892029 -0.41205501556396484 0.7293204069137573 0.07087675482034683 -0.20143139362335205 -0.31671077013015747 0.5776230692863464 0.11575676500797272 -0.2088715136051178 0.5262013077735901 -0.028408117592334747 -0.1008744090795517 0.02624964714050293 -0.021150339394807816 0.006661382969468832 -0.1287582963705063 0.6848656535148621 -0.1603669822216034 0.012713252566754818 -0.06708257645368576 0.06165274232625961 0.0460410937666893 0.052128247916698456 -0.17817118763923645 -0.06434139609336853 0.166889950633049 -0.13841812312602997 0.27500444650650024 -0.025187617167830467 0.2184056043624878 -0.19814227521419525 -0.09267842024564743 0.6557121276855469 0.05265625938773155 -0.041829682886600494 -0.19911056756973267 -0.04903263971209526 -0.26551517844200134 -0.14193660020828247 0.31498008966445923 -0.26100820302963257 0.159125417470932 0.3576659560203552 -0.17267434298992157 -0.038963206112384796 0.3190980553627014 0.045263804495334625 -0.24688182771205902 -0.2259010672569275 0.5098178386688232 -0.11409495770931244 0.5104925036430359 0.31846070289611816 -0.382462739944458 -0.27190959453582764 -0.2184741348028183 -0.03999581187963486 -0.025868970900774002 0.8605684041976929 -0.24992868304252625 -0.03252695873379707 0.3932616412639618 0.07194238156080246 -0.23084616661071777 -0.21024075150489807 -0.10720463842153549 -1.243651270866394 0.2822742462158203 -0.003134220838546753 0.0041257175616919994 -0.43015003204345703 0.1603843718767166 0.31144556403160095 0.2633212208747864 0.15372562408447266 0.4454427659511566 -0.059598714113235474 0.1884125918149948 -0.1946278214454651 -0.410092294216156 -0.03176514431834221 0.21447348594665527 0.2459506243467331 -0.23943555355072021 0.419625461101532 0.1979037970304489 0.06921353191137314 -0.09239517897367477 0.26788586378097534 -0.2766512334346771 0.2021298110485077 0.006926971487700939 -0.37129124999046326 0.1025635227560997 -0.7286801338195801 -0.32112768292427063 -0.2681278884410858 0.010403601452708244 -0.2743881046772003 -0.06576035916805267 0.21540018916130066 0.23244474828243256 -0.28645750880241394 0.1815578192472458 -0.14899477362632751 -0.3657829463481903 -0.5512451529502869 -0.021968718618154526 0.041652970016002655 0.2614421248435974 -0.3143788278102875 -0.023841027170419693 -0.30034491419792175 0.11828383058309555 -0.08424659073352814 -0.09358593076467514 0.13343486189842224 0.1701163500547409 0.11892931163311005 0.3113529086112976 0.07960586249828339 0.07783673703670502 0.005677984561771154 -0.11175843328237534 0.2609547972679138 -0.056558117270469666 -0.17939570546150208 0.173678919672966 -0.1773890107870102 -0.39355671405792236 -0.162911057472229 -0.007143591996282339 -0.05684564262628555 0.27685612440109253 -0.2645110487937927 0.0873594880104065 -0.05212589353322983 -0.10784129798412323 0.2180602252483368 -0.1164000853896141 0.2340252846479416 -0.25955232977867126 0.20979133248329163 0.20123998820781708 0.4777764081954956 0.12144462764263153 0.2609109580516815 -0.013724526390433311 0.2824084758758545 0.24580097198486328 0.053084325045347214 0.12315335869789124 -0.3568357825279236 0.15638455748558044 -0.20203647017478943 0.12069281190633774 0.39525875449180603 -0.11501362174749374 0.24268411099910736 -0.21406447887420654 0.1731608361005783 0.06772205233573914 0.03535889461636543 0.07706009596586227 -0.25500819087028503 0.25730517506599426 0.02179112657904625 -0.03230588883161545 -0.1778281182050705 -0.2736327052116394 0.02447228692471981 -0.2004002034664154 0.26278698444366455 -0.13840141892433167 -0.16920506954193115 0.27673017978668213 0.2032397836446762 1.2193313837051392 0.8373393416404724 0.29818785190582275 0.7581517100334167 0.2656145989894867 0.11116379499435425 -0.11727476119995117 -0.17294874787330627 -0.07193228602409363 -0.05985108017921448 -0.06727620959281921 -0.4803757071495056 0.1471116542816162 -0.10379017889499664 0.10442526638507843 0.0331396609544754 0.3743511140346527 -0.15630289912223816 0.14123499393463135 -0.43613800406455994 -0.055578261613845825 -0.31438320875167847 0.15446308255195618 -0.37675032019615173 0.20641671121120453 0.22049647569656372 -0.07211294770240784 -0.25237759947776794 0.006186532787978649 0.20595566928386688 -0.35282453894615173 0.7830976843833923 0.003757249563932419 -0.178029865026474 -0.4672274589538574 -0.3879205584526062 -0.6941958665847778 -0.09193842113018036 0.09767782688140869 -0.022670194506645203 0.11245210468769073 0.02842983603477478 0.22549188137054443 -0.03993307799100876 -0.05347180366516113 0.02784060500562191 0.3849811255931854 0.36308997869491577 0.2574172914028168 -0.1376475691795349 -0.27256104350090027 0.390532910823822 0.08911798894405365 0.08433641493320465 0.14559859037399292 -0.20439228415489197 -0.0065023889765143394 0.15378808975219727 0.22421477735042572 0.006519688293337822 0.2180529087781906 0.13263332843780518 0.22422270476818085 0.20112118124961853 -0.25729236006736755 0.1650494933128357 -0.08557429909706116 0.43986281752586365 -0.07906578481197357 0.14721469581127167 0.2717384696006775 0.14262717962265015 -0.14072662591934204 0.21771016716957092 0.22554105520248413 -0.14225265383720398 -0.07050212472677231 0.03828117996454239 -0.13335520029067993 -0.6077933311462402 -0.2552644610404968 0.027353525161743164 -0.30496305227279663 -0.35903722047805786 -0.14250975847244263 -0.20570790767669678 0.3353130519390106 -0.689374566078186 -0.35944288969039917 0.027279336005449295 0.19396184384822845 0.010176701471209526 0.48041099309921265 0.11620217561721802 0.14842228591442108 -0.013556918129324913 -0.3252217173576355 -0.047808315604925156 -0.7407538294792175 -0.014165898784995079 -0.058637361973524094 0.08826880902051926 0.3982102572917938 0.08043129742145538 0.15215182304382324 -0.09552460163831711 0.037051960825920105 -0.04582223296165466 -0.13419070839881897 0.18393385410308838 -0.20438861846923828 0.0936715230345726 -0.19209763407707214 0.1619383692741394 0.1512962281703949 0.2658512592315674 -0.3564227521419525 -0.3291393518447876 -0.24435363709926605 0.2413332462310791 -0.23013173043727875 0.49214085936546326 -0.441464364528656 -2.471604347229004 0.3877941966056824 0.1793784350156784 0.2794502079486847 0.16543042659759521 -0.026348305866122246 0.225373312830925 -0.14533019065856934 0.22603324055671692 0.19711092114448547 0.24487054347991943 0.20335662364959717 0.22324830293655396 -0.1297539323568344 -0.07685111463069916 -0.002130294917151332 0.09734319895505905 0.22834885120391846 0.16674509644508362 0.0032734177075326443 0.0652829259634018 0.04732069373130798 0.05974247306585312 0.040254514664411545 -0.20945656299591064 -0.020243598148226738 0.06956636905670166 -0.03227462247014046 -0.011977369897067547 -0.09963451325893402 -0.2342395782470703 0.03540066257119179 0.0385865792632103 -0.2664308547973633 -0.04494895040988922 0.3285447061061859 -0.24030530452728271 -0.3202761709690094 -0.03268912434577942 -0.22908064723014832 0.4925215244293213 0.09155386686325073 0.05926594138145447 -1.612501621246338 -0.5520123839378357 -0.5160326957702637 -0.10688398778438568 0.026753541082143784 -0.00883171521127224 0.0012766271829605103 -0.014747167937457561 0.19362029433250427 -0.08123965561389923 -0.22329246997833252 -0.07822953164577484 0.01307048462331295 -0.08061378449201584 0.0930158942937851 0.19834791123867035 -0.12052774429321289 0.0258457250893116 0.10117612779140472 -0.2763247489929199 -0.03485526144504547 0.2188149392604828 -0.0787264034152031 -0.7677404284477234 -0.13591967523097992 0.2444276660680771 -0.22229336202144623 0.05622156709432602 0.1503855586051941 0.12451422214508057 0.2711767554283142 0.1359230875968933 0.06122591346502304 -0.33530962467193604 0.391421377658844 -0.14723943173885345 0.260324090719223 0.025137528777122498 0.5127169489860535 0.0033430755138397217 -0.04949179291725159 -0.1517433226108551 0.19334855675697327 -0.21638604998588562 -0.12013088166713715 0.4653443694114685 -0.10757031291723251 -0.20669302344322205 0.41760551929473877 0.09252187609672546 0.0023566982708871365 0.03502678498625755 0.13757450878620148 0.33764922618865967 -0.2122672200202942 1.6172749996185303 0.07627565413713455 -0.1846175193786621 -0.06311993300914764 0.20459899306297302 0.2038332223892212 0.06312306225299835 -0.24481448531150818 0.17806854844093323 0.007258298806846142 0.15723764896392822 -0.0061483681201934814 0.15292063355445862 -0.5552541613578796 0.25521761178970337 0.45580554008483887 -0.2571089267730713 0.14146965742111206 0.20049941539764404 -0.15503519773483276 0.23653718829154968 -0.03344785422086716 0.4171243906021118 -0.2629246711730957 -0.1675928682088852 -0.03325524181127548 -0.12187962234020233 0.1529155969619751 -0.001638980582356453 0.5197855234146118 -0.12605677545070648 0.17356561124324799 -0.08776338398456573 0.2590232789516449 -0.032895803451538086 0.40295276045799255 -0.31498363614082336 9.638169288635254 -0.19031599164009094 0.03878188133239746 0.14242762327194214 0.06479884684085846 0.0995519608259201 0.31468939781188965 0.25760942697525024 -0.08497825264930725 -0.013476459309458733 -0.21801337599754333 -0.040615539997816086 0.08335988968610764 -0.48152682185173035 -0.15299692749977112 0.19098547101020813 0.2646693289279938 0.2946147918701172 0.007856213487684727 -0.09969648718833923 -0.24991671741008759 -0.06748339533805847 -0.03327213227748871 0.4780139625072479 -0.2868517339229584 0.011313727125525475 -0.5333988070487976 0.18420839309692383 -0.05697351694107056 0.15511231124401093 0.08652031421661377 0.23887018859386444 -0.07297959923744202 -0.02987394854426384 0.16885563731193542 0.4808080196380615 -1.0916469097137451 -0.08723647892475128 0.1699504852294922 -0.13045310974121094 -0.034268058836460114 -0.30199098587036133 0.004535406827926636 0.0027503371238708496 0.24181583523750305 -0.02133776806294918 -0.5425969362258911 0.12489678710699081 0.32416996359825134 0.17996656894683838 0.11602917313575745 0.053981684148311615 0.07719795405864716 -0.3225947618484497 0.03249276056885719 -0.4724080264568329 0.32058781385421753 0.12309130281209946 -0.12515732645988464 -0.5307630896568298 0.2798820436000824 0.11816610395908356 -0.23452827334403992 0.044620268046855927 0.2164803445339203 -0.008693556301295757 0.2779240906238556 0.14161834120750427 -0.03733456879854202 0.0019345954060554504 -0.19562706351280212 -0.07869675010442734 0.11985268443822861 -0.10994984209537506 -0.3940964639186859 -0.34524449706077576 -0.4148842990398407 -0.19753853976726532 -0.07746312022209167 -0.107513427734375 0.08812680840492249 0.2816561460494995 -0.013689061626791954 0.10670019686222076 -0.4748319387435913 0.06442815810441971 -0.08629107475280762 0.0733732208609581 -0.08668877929449081 -0.20651838183403015 -0.2468966841697693 -0.05179876089096069 -0.048339612782001495 -0.20670261979103088 0.23479104042053223 0.11947409808635712 -0.12003262341022491 -0.20147499442100525 0.05400538071990013 -0.33235859870910645 -0.4732475280761719 0.30498412251472473 -0.22150389850139618 0.014945770613849163 -0.11061760783195496 0.12757307291030884 0.41712629795074463 -0.5880736112594604 -0.058876629918813705 0.030478183180093765 0.017664004117250443 0.1727021336555481 0.14280611276626587 0.08242535591125488 0.0541205108165741 -0.30031484365463257 0.012669621966779232 0.05629140883684158 0.07777445018291473 0.500330924987793 -0.2787007689476013 0.20362047851085663 0.2068825215101242 -0.28501978516578674 -0.05039956420660019 -0.061945050954818726 -0.05526920408010483 0.36032065749168396 0.059371739625930786 0.012016534805297852 -0.5001707673072815 -0.04636920616030693 0.033011555671691895 0.24684081971645355 0.00102866324596107 -0.19856944680213928 0.2865641713142395 -0.07847004383802414 0.17691302299499512 0.08805203437805176 0.21380655467510223 0.013959003612399101 0.015674179419875145 0.04324626177549362 -0.06331118941307068 0.02983049675822258 -0.16097617149353027 -0.4325581192970276 0.37390732765197754 -0.12474578619003296 -0.11226432025432587 0.037640225142240524 -0.022389762103557587 0.09486813843250275 0.11342853307723999 0.11545310914516449 0.05727947875857353 0.5907676815986633 0.2968875765800476 0.030123651027679443 -0.12254633009433746 -0.6574015021324158 -0.385051429271698 -0.588102400302887 0.061320625245571136 -0.14274166524410248 0.04843643307685852 -0.03265535086393356 0.2404097616672516 0.06177195906639099 0.15039487183094025 -0.42376717925071716 -0.13124403357505798 -0.13191092014312744 0.471322625875473 -0.025425707921385765 -0.2711651027202606 -0.25076261162757874 0.1151418536901474 -0.03808959573507309
node_23	-0.03472154587507248 0.36046287417411804 0.13875287771224976 -0.2165023386478424 1.6958837509155273 -0.40066275000572205 0.17494845390319824 0.23935334384441376 0.16538959741592407 -0.3425253629684448 0.12898902595043182 0.03147885203361511 0.5042108297348022 0.14141783118247986 0.08462709188461304 -0.8471605181694031 0.49085116386413574 0.3675018548965454 0.014601177535951138 0.33423274755477905 -0.056388817727565765 0.0017288470407947898 -0.08799358457326889 0.22358542680740356 -0.04255996271967888 0.08140154182910919 0.3256864547729492 0.08823015540838242 0.02922913059592247 0.10580165684223175 -0.17992912232875824 0.207564577460289 0.0845411866903305 0.3011138439178467 -0.21067595481872559 0.06186453998088837 -0.5010223388671875 0.10611110925674438 0.15202996134757996 0.24031268060207367 -0.6072036623954773 0.45484447479248047 0.020865200087428093 -0.26060646772384644 0.08044468611478806 0.23752014338970184 -0.19731847941875458 -0.16112545132637024 0.17835864424705505 0.010923909954726696 0.07425841689109802 -0.1679515540599823 -0.06682335585355759 0.27625665068626404 -0.0238052811473608 0.24801194667816162 -0.23895138502120972 -0.12056556344032288 0.49928712844848633 -0.08904407918453217 0.4271565079689026 0.8864728212356567 -0.09856089949607849 0.5206138491630554 -0.006473432295024395 0.09578709304332733 -0.085358165204525 -0.31622058153152466 0.20803210139274597 -0.010134739801287651 -0.02101007103919983 -0.20529310405254364 0.1676880568265915 0.1571531891822815 -0.02041793428361416 0.2812732756137848 0.26205021142959595 -3.0530223846435547 -0.16002759337425232 0.734501838684082 0.22770419716835022 -0.6128482222557068 1.261200189590454 -0.21850654482841492 -0.027472278103232384 -0.6396132707595825 0.22900979220867157 -0.16473998129367828 0.14095687866210938 0.45233678817749023 0.22167348861694336 0.04189258813858032 -0.22113367915153503 0.44210249185562134 0.015420166775584221 0.37157952785491943 -0.08793263137340546 0.3074376583099365 -0.4605023264884949 0.02909153699874878 0.04394445940852165 0.07113383710384369 0.2968057096004486 -0.05031689256429672 0.002425479469820857 -0.16043156385421753 -0.20131203532218933 -0.16242055594921112 0.3038957715034485 0.30748045444488525 0.199894517660141 0.2205839455127716 -0.062251873314380646 -0.02239507995545864 -0.13075551390647888 0.06290897727012634 0.09391885250806808 0.029458582401275635 0.1764003038406372 0.4804292321205139 0.33337709307670593 -0.2690236270427704 0.14893347024917603 -0.008625532500445843 -0.08236044645309448 0.8214518427848816 0.22773635387420654 0.13484656810760498 -0.04539455100893974 -0.2343532145023346 -0.22904416918754578 -0.8581516146659851 -0.07631739974021912 0.46089550852775574 0.19632065296173096 0.2582351863384247 -0.016193121671676636 0.1617163121700287 -0.09432321786880493 -0.02871496044099331 -0.2640896737575531 0.06689630448818207 0.03204735368490219 0.13484731316566467 0.6532028913497925 -0.01831178367137909 -0.13629288971424103 -0.22501634061336517 -0.04020174592733383 0.5067160129547119 -0.04445542395114899 0.4345625340938568 0.013914558105170727 0.3089797794818878 -0.582472562789917 0.6658346652984619 -0.06599365174770355 -0.2115418165922165 -0.4995144307613373 0.6397530436515808 0.12210355699062347 -0.009787599556148052 0.5091602802276611 -0.1517152637243271 -0.1196388304233551 0.06713744252920151 -0.08282127976417542 0.17938902974128723 -0.018309524282813072 0.8499748110771179 -0.1713941991329193 -0.048094891011714935 -0.1273365169763565 0.10352801531553268 0.09704503417015076 0.14808067679405212 -0.2632366120815277 -0.09564860910177231 0.11806750297546387 -0.10365217179059982 0.3909221589565277 -0.015681862831115723 0.20544444024562836 -0.16365978121757507 -0.09860038012266159 0.4447847008705139 0.01886584609746933 -0.05098564922809601 0.0012266536941751838 -0.14584067463874817 -0.3439936637878418 -0.1426384299993515 0.274962842464447 -0.39076125621795654 0.05891985818743706 0.45614326000213623 -0.16777074337005615 -0.13715338706970215 0.21095609664916992 0.01899723708629608 -0.26169437170028687 -0.3332902789115906 0.39274176955223083 -0.08164257556200027 0.335548996925354 0.3411834239959717 0.033842138946056366 -0.3251175582408905 -0.23701593279838562 -0.18440255522727966 0.015636440366506577 0.40112096071243286 -0.23909148573875427 0.01817891001701355 0.190754234790802 0.29455500841140747 -0.2265360802412033 -0.07124330848455429 -0.3287978768348694 -1.0948293209075928 0.17448154091835022 -0.13490211963653564 -0.16806387901306152 -0.5838940143585205 -0.1680874526500702 0.2891945242881775 0.20251916348934174 0.2100904881954193 0.3438428044319153 0.06609480828046799 0.2602616548538208 -0.03208736330270767 -0.6637241840362549 0.05468106269836426 0.35310015082359314 0.011700570583343506 -0.3247030973434448 0.3724624514579773 0.23640404641628265 0.05964186042547226 0.14132151007652283 0.22213682532310486 -0.27875882387161255 0.2668326497077942 -0.007920712232589722 -0.32023072242736816 0.027011346071958542 -0.36636435985565186 -0.2940215468406677 -0.3075411021709442 0.03811077028512955 -0.3181512951850891 0.00851031206548214 0.24023523926734924 0.4727078378200531 -0.20621970295906067 0.230488583445549 -0.1341293901205063 -0.17013007402420044 -0.5401831865310669 -0.07220858335494995 0.044269077479839325 0.24487297236919403 -0.4102254807949066 0.01857754774391651 0.005830465815961361 0.054629817605018616 -0.08074875175952911 -0.025703731924295425 0.1336677074432373 0.13953247666358948 0.058798082172870636 0.31362736225128174 0.018478240817785263 0.0697767361998558 0.002173145767301321 0.003707433817908168 0.3070809841156006 -0.06608514487743378 -0.1414741724729538 0.33097827434539795 -0.2944401502609253 -0.4610215127468109 -0.21358196437358856 0.020116686820983887 -0.10588300228118896 0.30094635486602783 -0.3989565968513489 0.09469003975391388 0.03237491101026535 -0.127272367477417 0.1956934630870819 -0.1625463366508484 0.1540760099887848 -0.09031888097524643 0.13789689540863037 0.1372697651386261 0.3984501361846924 0.04380384832620621 0.0534965917468071 -0.005759000778198242 0.21887382864952087 0.31983786821365356 0.029664410278201103 0.08076607435941696 -0.3742648959159851 0.10896648466587067 -0.24790850281715393 0.1361282765865326 0.33532044291496277 -0.27546536922454834 0.1688779890537262 -0.15838032960891724 0.19469064474105835 0.02499859593808651 0.02987801842391491 -0.068947933614254 -0.23576222360134125 0.405315101146698 0.14649459719657898 -0.033214788883924484 -0.24470877647399902 -0.27207982540130615 -0.029614519327878952 -0.32165107131004333 0.21952956914901733 0.08561074733734131 -0.09586193412542343 0.2689075171947479 0.27342963218688965 1.2104871273040771 0.9974172115325928 0.1522117257118225 0.49885737895965576 0.2494858205318451 0.09589328616857529 -0.22673150897026062 -0.1904529184103012 -0.06650828570127487 -0.2974364459514618 0.03300042450428009 -0.4513145685195923 0.21927118301391602 -0.16146740317344666 0.11858843266963959 0.04443003982305527 0.5294021964073181 -0.19881781935691833 0.005257557146251202 -0.5123919248580933 -0.06588760018348694 -0.2892972230911255 0.08041751384735107 -0.38659700751304626 0.15803056955337524 0.42847591638565063 -0.0056060366332530975 -0.1859559714794159 -0.008326905779540539 0.41081902384757996 -0.3107743263244629 0.716293215751648 0.018016822636127472 -0.3469078242778778 -0.5322674512863159 -0.2627784311771393 -0.8241991996765137 -0.014689264819025993 0.09365340322256088 -0.09215107560157776 0.16348466277122498 -0.05379420146346092 0.3110577464103699 -0.2984709143638611 0.048687659204006195 0.01135799940675497 0.3586040139198303 0.2589080035686493 0.0912957489490509 -0.21733373403549194 -0.08541500568389893 0.358012318611145 0.09023535251617432 0.1844925880432129 0.2585899829864502 -0.1061931699514389 -0.006603251211345196 0.30216532945632935 0.09179037809371948 -0.057723648846149445 0.06632329523563385 0.18597839772701263 0.12905572354793549 0.22726468741893768 -0.2235805243253708 0.12015864253044128 -0.020575691014528275 0.17005310952663422 -0.08665913343429565 0.0931069552898407 0.22569946944713593 0.12495751678943634 -0.14433543384075165 -0.10465626418590546 0.18857447803020477 -0.008335660211741924 0.043284036219120026 -0.01618148945271969 -0.2194841355085373 -0.8121053576469421 -0.3266432583332062 -0.11924383044242859 -0.25754186511039734 -0.38224348425865173 -0.11053703725337982 -0.21602144837379456 0.3699530065059662 -0.3789352774620056 -0.298573762178421 -0.03141617029905319 0.3419373035430908 0.09482630342245102 0.5031441450119019 0.07854317873716354 -0.12565557658672333 0.01767689548432827 -0.3319610357284546 -0.15354207158088684 -0.14957939088344574 0.0424535870552063 -0.06238286942243576 0.10474305599927902 0.4391295611858368 0.009006309323012829 0.20224115252494812 -0.20380085706710815 0.11443330347537994 -0.09519948810338974 -0.10712464153766632 0.23542086780071259 -0.11283484101295471 0.0506473109126091 -0.19022032618522644 0.2520725727081299 0.18173277378082275 0.20655348896980286 -0.5243896245956421 -0.21695983409881592 -0.2994402050971985 0.1114894449710846 -0.39741992950439453 0.5115392208099365 -0.367938756942749 -2.597862720489502 0.366835355758667 0.14673930406570435 0.11468996107578278 0.08802799880504608 -0.03303159773349762 0.21646150946617126 0.01981310173869133 0.19480684399604797 0.2540588974952698 0.1366000473499298 0.22352349758148193 0.1718038022518158 -0.06631448119878769 0.11133991926908493 -0.16112449765205383 0.03273562714457512 0.03286975622177124 0.20618169009685516 0.07888847589492798 0.049765609204769135 -0.11032652854919434 0.09362711757421494 0.0041400594636797905 -0.2990652322769165 0.038647666573524475 -0.022771280258893967 -0.06614995002746582 -0.007095569744706154 -0.17379234731197357 -0.12071454524993896 0.0579879991710186 0.006966948509216309 -0.12090529501438141 -0.1275659054517746 0.28539538383483887 -0.2922881543636322 -0.35270148515701294 -0.06288421154022217 -0.31459105014801025 0.46415457129478455 0.07540667057037354 0.1184334009885788 -1.759293556213379 -0.4453296661376953 -0.04070290923118591 -0.13032649457454681 0.00028186477720737457 -0.07125768810510635 0.07647685706615448 0.2113056778907776 0.2801409363746643 0.10171665996313095 -0.29966428875923157 -0.05665598437190056 -0.06230456382036209 -0.09032972157001495 0.26526281237602234 0.19629859924316406 -0.23836520314216614 0.017555398866534233 0.12097599357366562 -0.3674551248550415 -0.10277210175991058 0.2616964280605316 -0.21146807074546814 -0.9239193201065063 -0.18877354264259338 0.10950305312871933 -0.22314268350601196 0.030232023447752 0.04718706011772156 0.12489902973175049 0.22451475262641907 -0.14206461608409882 0.06858770549297333 -0.32230260968208313 0.378639280796051 -0.22721920907497406 0.29579275846481323 -0.012829113751649857 0.3672523498535156 0.043852224946022034 -0.038823939859867096 -0.2720833420753479 0.41153237223625183 -0.10144627094268799 -0.18971243500709534 0.39521223306655884 -0.11477461457252502 -0.231851726770401 0.427111953496933 0.023166639730334282 0.4094693660736084 0.027870280668139458 0.19250273704528809 0.20080208778381348 -0.05932678282260895 1.6689822673797607 0.1345861405134201 -0.16040568053722382 -0.07553043216466904 0.22434864938259125 0.26701539754867554 0.07294808328151703 -0.20276908576488495 0.10802869498729706 0.01513650082051754 0.1476639211177826 0.0647832453250885 0.19545221328735352 -0.5112694501876831 0.3203293979167938 0.5636693239212036 -0.2520705461502075 0.05512441322207451 0.2871309518814087 -0.7102980613708496 0.2437332719564438 -0.10461338609457016 -0.014929771423339844 -0.10389681905508041 -0.21040824055671692 -0.05429574474692345 0.3476814031600952 0.31312450766563416 0.05412987992167473 0.36277246475219727 -0.05844646692276001 0.16235730051994324 0.07222941517829895 0.21919965744018555 -0.013257993385195732 0.5422518253326416 -0.4188230633735657 9.973577499389648 -0.10216795653104782 0.007253319025039673 0.07199726998806 0.09102112054824829 -0.04987308382987976 0.3251620829105377 0.330104798078537 -0.13964104652404785 0.03650970011949539 -0.10273277759552002 -0.14849919080734253 0.028772175312042236 -0.3761085271835327 -0.17727598547935486 0.10346285998821259 0.12839458882808685 0.32337555289268494 -0.0011256486177444458 -0.07165898382663727 -0.1864256113767624 0.08438442647457123 0.0666254311800003 0.7725948691368103 -0.2141483724117279 -0.012776261195540428 -0.378755658864975 0.15390965342521667 0.031413983553647995 -0.027223985642194748 -0.08732843399047852 0.07311800122261047 -0.11080166697502136 -0.17437496781349182 0.09714650362730026 0.3015974760055542 -0.7712518572807312 -0.07602106779813766 0.17063796520233154 -0.09398680925369263 -0.03511722385883331 -0.38179582357406616 0.06487289071083069 -0.007156818173825741 0.1700747013092041 0.08217696100473404 -0.5268726348876953 0.11090441048145294 0.2428624927997589 0.13859644532203674 0.2253938913345337 -0.03812103718519211 0.08084603399038315 -0.47642332315444946 -0.04936521500349045 -0.5628494024276733 0.3503795564174652 0.0872952863574028 -0.14462320506572723 -0.5628445148468018 0.22782407701015472 0.25887545943260193 -0.2484457939863205 -0.17375311255455017 0.05160395801067352 0.015931081026792526 0.24956928193569183 0.41376107931137085 0.004276285879313946 -0.05558016896247864 -0.14847464859485626 -0.07176815718412399 0.2399868667125702 -0.14432141184806824 -0.38864800333976746 -0.21750955283641815 0.10466494411230087 -0.24499499797821045 0.008804972283542156 -0.07482997328042984 0.08632181584835052 0.3293803036212921 0.030450183898210526 0.230238676071167 -0.283982515335083 0.1040022075176239 -0.0522574745118618 0.12735846638679504 -0.37112516164779663 -0.26446840167045593 -0.19217346608638763 -0.12817847728729248 -0.02456222102046013 -0.1564028412103653 0.3846399188041687 0.05662393569946289 -0.18964040279388428 -0.1491832286119461 0.14526665210723877 -0.426633358001709 -0.49872541427612305 0.3457675874233246 -0.30530667304992676 0.13081392645835876 -0.0011292597046121955 -0.13728216290473938 0.7197498679161072 -0.4695231318473816 -0.14957398176193237 0.12832774221897125 0.058138906955718994 0.29500842094421387 0.24895617365837097 0.08564828336238861 -0.07212208211421967 -0.4113540053367615 0.08576171845197678 -0.05680346488952637 0.09544851630926132 0.512488067150116 -0.22562721371650696 0.13762865960597992 0.09124266356229782 -0.21525639295578003 0.03566531091928482 0.0031365081667900085 -0.1269756257534027 0.4229266047477722 0.19303426146507263 0.15502578020095825 -0.6902931928634644 -0.0638289824128151 -0.7748630046844482 0.3684280812740326 0.018378060311079025 -0.19567474722862244 0.24436569213867188 -0.1354343146085739 0.13968321681022644 0.034414540976285934 0.14446859061717987 0.11052751541137695 -0.009851356036961079 -0.314049631357193 -0.06040104478597641 -0.1435578465461731 -0.02449379488825798 0.2584426999092102 0.3167750835418701 -0.2478639781475067 0.030634691938757896 0.08716842532157898 0.003812174079939723 0.16396880149841309 0.2537307143211365 0.09984855353832245 0.0019133985042572021 0.5114307403564453 0.36049526929855347 0.133463054895401 0.1508917212486267 -1.169749140739441 -0.4945186376571655 -0.5308861136436462 0.38681572675704956 -0.10366633534431458 0.043367933481931686 -0.0803527683019638 0.11778616160154343 0.10419054329395294 0.18535690009593964 -0.44276857376098633 -0.1638706624507904 -0.03610624000430107 0.5412030220031738 -0.03881346434354782 -0.16843818128108978 -0.4424503743648529 0.06252951174974442 -0.020968660712242126
node_10	-0.008682090789079666 0.3237953186035156 0.16603714227676392 -0.04466528445482254 1.0507550239562988 -0.36956092715263367 0.13217340409755707 0.2813527286052704 0.05400538444519043 -0.3973633050918579 0.042372822761535645 0.515455961227417 0.37548142671585083 0.13230609893798828 0.008114805445075035 -0.2074994295835495 0.4558250308036804 0.14923636615276337 0.09624149650335312 -0.3739577531814575 -0.0012620340567082167 -0.1323080062866211 -0.19557341933250427 0.2869030237197876 -0.07305045425891876 -0.05379971116781235 0.30738115310668945 0.04885412007570267 0.1929459273815155 0.3840416371822357 -0.2837716341018677 0.27036452293395996 0.11825521290302277 0.3000454604625702 -0.21864104270935059 0.10258181393146515 -0.3901263177394867 0.10153793543577194 -0.2761622369289398 0.2709141969680786 -0.6235384345054626 0.3585258424282074 0.013018548488616943 -0.2774444818496704 0.07663203775882721 0.09526121616363525 0.12014526128768921 -0.24614274501800537 0.18442454934120178 -0.017114531248807907 0.06786985695362091 -0.2894303500652313 -0.10905987024307251 0.27364030480384827 -0.13224047422409058 0.1850358098745346 -0.331149697303772 -0.07389284670352936 0.45912933349609375 -0.0443461649119854 0.5511643886566162 0.7153167724609375 -0.1864306777715683 0.2547687590122223 -0.03015254996716976 0.1688840687274933 -0.054053083062171936 0.043573420494794846 0.16342510282993317 0.007710365112870932 -0.01812862604856491 -0.2698243260383606 0.2734392583370209 0.15712693333625793 -0.0027802586555480957 0.07545144855976105 0.25501227378845215 -2.5943336486816406 -0.15965861082077026 0.754250168800354 0.23557507991790771 -0.46859654784202576 1.1936321258544922 -0.19363021850585938 0.2149076908826828 -0.9895498156547546 0.3317389190196991 -0.1649150550365448 0.12851129472255707 0.4264915883541107 0.4747353494167328 0.16227665543556213 -0.1845649927854538 -0.14314299821853638 -0.011985458433628082 0.4207771420478821 -0.006940140388906002 0.5092060565948486 -0.45619213581085205 0.04093505069613457 -0.06229742616415024 0.06319648027420044 0.4213756024837494 -0.31160497665405273 0.06079862266778946 0.11733241379261017 -0.1878678798675537 -0.2520379424095154 0.18419378995895386 0.22684955596923828 0.1732725352048874 -0.04499807953834534 0.007694661617279053 -0.023156506940722466 -0.19204065203666687 0.04829646274447441 0.0953739732503891 0.11430379003286362 0.12851351499557495 0.2020205557346344 0.22405116260051727 -0.22038476169109344 -0.08697396516799927 -0.012797346338629723 0.13855235278606415 0.7050037384033203 0.27943217754364014 0.09477453678846359 -0.0848865732550621 -0.17328719794750214 -0.2659550905227661 -0.9738079905509949 -0.0419602245092392 -0.12081338465213776 0.16064107418060303 0.2730134129524231 0.13922151923179626 0.06202855706214905 0.1443886011838913 0.04139777272939682 -0.3258351981639862 0.13283771276474 0.051237791776657104 0.21876084804534912 0.4732089042663574 -0.12829351425170898 -0.01817944273352623 -0.3012602627277374 -0.2195216417312622 0.38836920261383057 -0.15187564492225647 0.5003419518470764 -0.023083455860614777 0.12422802299261093 -0.45752406120300293 0.6904382109642029 0.07419303059577942 -0.2671520709991455 -0.5159820318222046 0.8486525416374207 0.11965680122375488 -0.0325327143073082 0.5580829381942749 -0.05375772714614868 -0.06901423633098602 0.03348306939005852 -0.027664989233016968 0.0556715726852417 -0.07047919929027557 0.5439934134483337 -0.20859025418758392 0.04073791578412056 -0.172071635723114 0.10249386727809906 0.09140080213546753 -0.02007231116294861 -0.08724959194660187 -0.16162537038326263 0.18830299377441406 -0.17872989177703857 0.29889488220214844 0.04547777399420738 0.10088443011045456 -0.1558322310447693 -0.1840755194425583 0.7177367210388184 0.07441110908985138 -0.18580538034439087 -0.1295768916606903 0.07148167490959167 -0.3289327919483185 -0.05806100368499756 0.34005388617515564 -0.27758699655532837 -0.05178476497530937 -9.45429055718705e-05 -0.18980365991592407 -0.11558300256729126 0.4490959346294403 -0.03249945491552353 -0.1914610117673874 -0.2021474838256836 0.30361995100975037 -0.07899543642997742 0.17186754941940308 0.3762630820274353 -0.20207259058952332 -0.24133138358592987 -0.3134353756904602 0.016219696030020714 -0.10889973491430283 0.7985543012619019 -0.1712864488363266 0.15590594708919525 0.2932980954647064 0.1781565248966217 -0.3280165195465088 0.14518362283706665 -0.1925242841243744 -1.1557649374008179 0.2581915855407715 -0.06282704323530197 -0.052840083837509155 -0.5133606791496277 0.010136207565665245 0.46385616064071655 0.26507097482681274 0.17153768241405487 0.42987823486328125 -0.057190485298633575 0.10713281482458115 -0.08580288290977478 -0.301038920879364 -0.057657599449157715 0.28067514300346375 -0.08325060456991196 -0.37115034461021423 0.4999692440032959 0.2502540946006775 0.14253655076026917 -0.1983337253332138 0.2550506889820099 -0.3392157554626465 0.2620513439178467 -0.00016674771904945374 -0.2962456941604614 0.08655622601509094 -0.2163018435239792 -0.3707844018936157 -0.25579583644866943 -0.010159105062484741 -0.06873193383216858 -0.12877964973449707 0.23876330256462097 0.0568511039018631 -0.23708254098892212 0.2689627707004547 -0.13807480037212372 -0.36141765117645264 -0.16940371692180634 -0.024888647720217705 -0.06462545692920685 0.13851109147071838 -0.38967132568359375 -0.006281244568526745 -0.09026163071393967 0.06664343923330307 -0.06929907202720642 -0.09225164353847504 0.09900696575641632 0.10383214801549911 0.11362006515264511 0.3889773488044739 0.09848352521657944 0.013976464979350567 0.008648465387523174 -0.01668977364897728 0.2317148894071579 -0.10074493288993835 -0.25339046120643616 0.1445755660533905 -0.2877539098262787 -0.45351728796958923 -0.28178471326828003 0.0698864758014679 -0.16515833139419556 0.24573668837547302 -0.19030503928661346 0.09715833514928818 0.021133339032530785 -0.12986919283866882 0.180620476603508 -0.18112081289291382 0.19389912486076355 -0.17715665698051453 0.18332628905773163 0.2724168002605438 0.4755169153213501 0.07923491299152374 0.25570034980773926 0.09930604696273804 0.1418445110321045 0.058630626648664474 0.13907834887504578 0.12487930059432983 -0.43683892488479614 0.2379259318113327 -0.1831928938627243 0.11580061912536621 0.21548239886760712 -0.14671403169631958 0.30067676305770874 -0.2725689113140106 0.06408955901861191 0.03119385801255703 0.14522771537303925 0.15182656049728394 -0.3264757990837097 0.2784291207790375 0.08344165980815887 0.02750370465219021 -0.07290339469909668 -0.35912251472473145 -0.015989582985639572 -0.10450371354818344 0.23326218128204346 -0.1252734214067459 0.02465881034731865 0.2758539915084839 0.21157625317573547 1.6886546611785889 0.6200734376907349 0.18184897303581238 0.6966160535812378 0.24057458341121674 0.07613103091716766 -0.18892931938171387 -0.05698370561003685 -0.045913368463516235 -0.013535132631659508 -0.0234136413782835 -0.4994989037513733 0.14994117617607117 -0.12389161437749863 0.20419548451900482 0.02739625982940197 0.37803494930267334 -0.162785142660141 0.23330092430114746 -0.4354155957698822 0.016766441985964775 -0.31712791323661804 0.12214507162570953 -0.2800254225730896 0.24554751813411713 0.10282834619283676 -0.016362398862838745 -0.2762589156627655 -0.0507504865527153 0.14114810526371002 -0.33416709303855896 0.6278220415115356 0.03628726676106453 -0.292851060628891 -0.3879234194755554 -0.22336000204086304 -0.8307018280029297 0.041047558188438416 0.13228349387645721 -0.12475832551717758 0.19084003567695618 -0.08937095105648041 0.3471672534942627 -0.003238896606490016 -0.02598283253610134 -0.01512296311557293 0.3540537357330322 0.2562329173088074 0.22881874442100525 -0.1243288516998291 -0.27113163471221924 0.35273000597953796 0.09804493188858032 0.07999524474143982 0.2841781973838806 -0.201059028506279 -0.08022811263799667 0.2911299467086792 0.12835997343063354 0.009101198986172676 0.18879710137844086 0.15472187101840973 0.10868298262357712 0.28862589597702026 -0.18259349465370178 0.04483313113451004 -0.060155950486660004 0.4477466940879822 0.09599288552999496 0.0857572853565216 0.35826370120048523 0.19020935893058777 -0.019548702985048294 -0.011474860832095146 0.3324517011642456 0.011261165142059326 -0.16961556673049927 0.04926987737417221 -0.4365706145763397 -0.5302722454071045 -0.22367796301841736 -0.13793456554412842 -0.2890026271343231 -0.30327415466308594 0.03444363921880722 -0.15416757762432098 0.20329639315605164 -0.6228602528572083 -0.3359633684158325 0.23383741080760956 0.30663245916366577 0.07928831875324249 0.4086669385433197 0.1133396178483963 -0.10928487777709961 0.009755395352840424 -0.2815796732902527 -0.09391625225543976 -0.6287715435028076 -0.02309424988925457 -0.03548875078558922 0.1262393295764923 0.46739086508750916 0.028698395937681198 0.26708751916885376 0.01333082839846611 0.05541267991065979 -0.16771219670772552 -0.06488852202892303 0.2893844544887543 -0.13410013914108276 0.13152717053890228 -0.12366557121276855 0.17624518275260925 -0.018615147098898888 0.21864692866802216 -0.32890623807907104 -0.3614044189453125 -0.3949131369590759 0.1525447964668274 -0.24611376225948334 0.25392410159111023 -0.4562006890773773 -2.6580166816711426 0.34970688819885254 0.01915152370929718 0.2184554785490036 0.18975000083446503 0.08602920174598694 0.23247188329696655 -0.0750991627573967 0.2554222345352173 0.14349691569805145 0.33300068974494934 0.2056822031736374 0.18180415034294128 -0.06832735240459442 -0.01830100640654564 -0.02025289461016655 0.04281292483210564 0.18844008445739746 0.23642265796661377 -0.0009095160057768226 0.05796092003583908 -0.020878713577985764 0.025798892602324486 0.21733634173870087 -0.30784159898757935 -0.06401066482067108 0.08737795799970627 -0.16183193027973175 0.04075675830245018 -0.21919745206832886 -0.28744062781333923 0.026463553309440613 -0.06484578549861908 -0.1066785678267479 -0.03176245093345642 0.3801301419734955 -0.19166146218776703 -0.2571883201599121 0.03735027834773064 -0.13380137085914612 0.47282665967941284 0.08547356724739075 0.10185711830854416 -1.8775861263275146 -0.31552934646606445 -0.3985386788845062 -0.09783381223678589 0.030605614185333252 0.008361767046153545 0.03045251965522766 0.12110286951065063 0.20049762725830078 0.011478300206363201 -0.2668384611606598 0.0022980752401053905 0.005657076835632324 -0.13165035843849182 0.17800483107566833 0.29654383659362793 -0.061985742300748825 0.048003844916820526 0.09021878242492676 -0.22168007493019104 -0.095137819647789 0.2012811303138733 0.2156396508216858 -0.4366759955883026 -0.2126666009426117 0.1490897536277771 -0.3372221887111664 -0.044363632798194885 0.07054704427719116 0.1386803537607193 0.20593087375164032 0.05709818750619888 0.1456330120563507 -0.556776762008667 0.5335337519645691 -0.2038734406232834 0.15108437836170197 0.09598811715841293 0.527378261089325 -0.06839796900749207 -0.025609208270907402 -0.21431684494018555 0.17346066236495972 -0.2657543122768402 0.028783490881323814 0.3657187223434448 0.00994398258626461 -0.14927224814891815 0.5622537732124329 0.04153033718466759 0.059798143804073334 -0.04404832050204277 0.21134428679943085 0.11691901087760925 -0.2795071601867676 1.2508435249328613 0.0471508651971817 -0.31620848178863525 0.05285346508026123 0.14893841743469238 0.2346040904521942 0.0409676767885685 -0.19297002255916595 0.1254929006099701 -0.06176427751779556 -0.3476791977882385 -0.02215580642223358 0.1533323973417282 -0.6150479316711426 0.25966548919677734 0.49685537815093994 -0.15651874244213104 0.08792388439178467 0.24065420031547546 -0.9614442586898804 0.12967362999916077 -0.081806980073452 0.23289957642555237 -0.157528817653656 -0.16969376802444458 0.05641680955886841 0.061478257179260254 0.060703814029693604 -0.14082783460617065 0.5897852182388306 -0.10176949948072433 0.0506519079208374 -0.12559774518013 0.2544257640838623 -0.02585727535188198 0.5230367183685303 -0.5318746566772461 10.174176216125488 -0.11940163373947144 0.10050025582313538 0.06533476710319519 0.1981373280286789 -0.012354560196399689 0.37691187858581543 0.1435956358909607 -0.06609237194061279 -0.014379940927028656 -0.14240582287311554 0.006941205821931362 -0.01453745923936367 -0.5112210512161255 -0.12437143176794052 0.2067733258008957 0.5567141771316528 0.1917574256658554 0.09594839811325073 -0.09425464272499084 -0.2504206597805023 -0.007321059703826904 0.011246072128415108 0.605842113494873 -0.2171441614627838 0.07367196679115295 -0.41503438353538513 0.3087979257106781 -0.017414188012480736 0.12636542320251465 -0.0772571787238121 0.15753155946731567 0.047110214829444885 -0.09541359543800354 0.1543940007686615 0.4462141692638397 -0.6278029680252075 -0.12762582302093506 0.09059639275074005 -0.06697721779346466 -0.0935709998011589 -0.26226934790611267 -0.037384551018476486 -0.002173719462007284 0.16955268383026123 0.0352691225707531 -0.5527287721633911 0.09535282850265503 0.4565013349056244 0.12966293096542358 0.1332509070634842 0.10115471482276917 0.05786963552236557 -0.23531155288219452 0.010411238297820091 -0.4092749059200287 0.29179465770721436 0.1511506289243698 -0.2632810175418854 -0.6587719321250916 0.2507132291793823 0.15795522928237915 -0.21291309595108032 0.019670501351356506 0.40580594539642334 -0.0384744368493557 0.2365417331457138 0.28071609139442444 -0.30088454484939575 0.033221520483493805 -0.211615189909935 -0.16940543055534363 0.11314254999160767 0.053805284202098846 -0.41435155272483826 -0.22273652255535126 -0.4252701699733734 -0.3353238105773926 -0.10824497044086456 -0.028654232621192932 0.11226096004247665 0.2600994408130646 -0.09491926431655884 0.04146575182676315 -0.4792400598526001 0.24792420864105225 -0.028763024136424065 0.1337030827999115 -0.012244783341884613 -0.33453401923179626 -0.3047100901603699 0.022850146517157555 -0.09070692956447601 -0.13770493865013123 0.19286704063415527 0.062412820756435394 -0.15849041938781738 -0.16643047332763672 0.03793565556406975 -0.4115957021713257 -0.3531579375267029 0.41814661026000977 -0.2201489508152008 0.005740359425544739 -0.11462368816137314 -0.024127710610628128 0.44986864924430847 -0.6453515291213989 -0.09176026284694672 0.12299176305532455 0.005452404730021954 0.03648291155695915 0.09091715514659882 0.05657967925071716 0.1804904192686081 -0.29130175709724426 0.08121779561042786 0.02398166060447693 0.051862239837646484 0.7525806427001953 -0.3135449290275574 0.27997061610221863 0.15864479541778564 -0.31775397062301636 -0.038706474006175995 -0.05109230428934097 -0.1332581341266632 0.3916543424129486 0.14929702877998352 0.12111445516347885 -0.48800575733184814 0.014408877119421959 -0.005880236625671387 0.2851809859275818 0.0060493722558021545 -0.13093888759613037 0.28864195942878723 -0.037034399807453156 0.18640302121639252 -0.009292262606322765 -0.0025819987058639526 0.01923997700214386 -0.03263639658689499 -0.6273268461227417 -0.16433674097061157 0.20672890543937683 -0.2737557888031006 -0.20723943412303925 0.4132467210292816 -0.18668346107006073 -0.08088918775320053 -0.008312931284308434 0.14628833532333374 0.10200117528438568 0.18415680527687073 0.24585938453674316 0.09653584659099579 0.7298210859298706 0.28085857629776 0.06628569215536118 0.02334613725543022 -0.8418676257133484 -0.35664090514183044 -0.1543833613395691 0.5343088507652283 -0.04046749323606491 -0.0409076064825058 -0.05349649488925934 0.34366998076438904 0.002411969006061554 0.19628500938415527 -0.3833974003791809 -0.08957543224096298 -0.19628117978572845 0.5548226237297058 -0.06562232971191406 -0.35923704504966736 -0.5582849383354187 -0.0041094934567809105 -0.0754704549908638
node_29	0.012248469516634941 0.3257109820842743 0.1321999430656433 -0.17033326625823975 1.6416840553283691 -0.5761491060256958 0.1529708355665207 0.22423480451107025 0.04924328625202179 -0.3485441207885742 0.3484911620616913 0.3899630010128021 0.29742786288261414 -0.1604001224040985 0.25239893794059753 -0.6734979152679443 0.19018769264221191 0.36019760370254517 0.03170129656791687 0.12583374977111816 -0.02032807283103466 0.06707073748111725 -0.17065881192684174 0.2880479097366333 -0.03370010852813721 0.08102636784315109 0.389561265707016 0.1451067328453064 0.21959428489208221 0.4990611672401428 0.006357213016599417 0.08846219629049301 0.06357984989881516 0.26212072372436523 -0.32745954394340515 0.14123886823654175 -0.4343758523464203 0.1459958404302597 -0.15341322124004364 0.07784276455640793 -0.6909923553466797 0.3598061501979828 0.08276328444480896 -0.32827478647232056 0.04778951406478882 0.02475130558013916 0.0652986690402031 -0.013749457895755768 0.15326334536075592 -0.05949198454618454 0.1088080033659935 -0.19979804754257202 -0.13046613335609436 0.19589070975780487 -0.11579462140798569 0.19270752370357513 -0.2786698341369629 0.07788850367069244 0.4860864579677582 -0.011723905801773071 0.5102132558822632 -0.005246574990451336 -0.0027768712025135756 0.1906648874282837 -0.032167673110961914 0.16394799947738647 -0.15226785838603973 -0.27384382486343384 0.2868597209453583 0.012503236532211304 -0.06967729330062866 -0.14247210323810577 0.14513778686523438 -0.24646183848381042 -0.0928349494934082 0.08205412328243256 0.21787023544311523 -3.039015531539917 -0.08230724185705185 0.6946816444396973 0.20415857434272766 -0.7305001616477966 1.555147647857666 -0.04243547469377518 -0.013199682347476482 -0.8241885900497437 0.22970232367515564 -0.18074075877666473 0.11552414298057556 0.5025441646575928 0.45306000113487244 0.04416801780462265 -0.26830577850341797 0.03353441134095192 0.019901461899280548 0.32135769724845886 -0.10375829041004181 0.2575615346431732 -0.46950727701187134 -0.08305270224809647 0.039032068103551865 0.07092942297458649 0.3566957712173462 -0.12658122181892395 0.0950135886669159 -0.05523396655917168 -0.05283600091934204 -0.24006371200084686 0.3052225708961487 0.3884868025779724 0.18017593026161194 -0.16817252337932587 -0.00707448273897171 -0.04362095892429352 -0.27581116557121277 0.07539767026901245 0.16791227459907532 0.17678865790367126 0.15516474843025208 0.4236602187156677 0.2547403573989868 -0.1704864799976349 -0.0540456585586071 -0.052971359342336655 -0.03833511471748352 0.5581570863723755 0.37194666266441345 -0.05355505272746086 -0.06720568984746933 -0.2628084719181061 -0.20457623898983002 -0.9798309206962585 -0.005807161331176758 0.1662958264350891 0.07287193834781647 0.25492674112319946 0.02601606212556362 0.011917626485228539 0.012029685080051422 0.049786895513534546 -0.20184078812599182 0.07259489595890045 -0.0021743327379226685 0.17938607931137085 0.6401869058609009 -0.07691048830747604 -0.14273560047149658 -0.3022611141204834 -0.09503428637981415 0.568606972694397 -0.18882183730602264 0.48685818910598755 0.023581653833389282 0.22883784770965576 -0.47138938307762146 0.5677409768104553 -0.12829166650772095 -0.05467451736330986 -0.42705389857292175 0.5751950740814209 0.16706174612045288 -0.2690093517303467 0.4769466519355774 -0.10644412040710449 -0.19152937829494476 0.0673997700214386 -0.03177369385957718 0.15781639516353607 -0.11027904599905014 0.904094934463501 -0.2237345427274704 0.08817611634731293 -0.10906936973333359 0.05765257403254509 0.037219058722257614 0.10769471526145935 -0.03659456595778465 -0.12328304350376129 0.10254999250173569 -0.18288587033748627 0.1405450403690338 -0.09054531157016754 0.08003567159175873 -0.30474579334259033 -0.10366164892911911 0.5085505843162537 0.06418585777282715 -0.1011686772108078 -0.0570676289498806 -0.03304152563214302 -0.3081572949886322 -0.11280851811170578 0.38221606612205505 -0.5563248991966248 0.12458361685276031 0.2002526968717575 -0.12782086431980133 -0.0812235176563263 0.26314577460289 0.03289263695478439 -0.3027159869670868 -0.24070744216442108 0.4130966365337372 -0.14291247725486755 0.19721579551696777 0.3514940142631531 -0.2511557638645172 -0.3819141089916229 -0.2309950888156891 0.11926981806755066 -0.05323409289121628 0.37166866660118103 -0.15413010120391846 -0.026614069938659668 0.10051628202199936 0.05700981616973877 -0.1777602881193161 -0.5546926259994507 -0.25249552726745605 -1.3677196502685547 0.2496204823255539 0.049243099987506866 0.07598525285720825 -0.4744889736175537 0.1240449994802475 0.32058799266815186 0.23970083892345428 0.3218042850494385 0.41985535621643066 -0.03695265203714371 0.21318988502025604 -0.14119873940944672 -0.7508738040924072 0.14588674902915955 0.2884633541107178 -0.27686309814453125 -0.26503366231918335 0.375404417514801 0.19412881135940552 0.07890016585588455 -0.20831140875816345 0.2632085680961609 -0.3101066052913666 0.13348793983459473 -0.06515960395336151 -0.1917998194694519 0.14095619320869446 -0.17997567355632782 -0.28711390495300293 -0.060971640050411224 0.10321925580501556 -0.49627822637557983 0.04993235319852829 0.19010651111602783 0.22354280948638916 -0.18378876149654388 0.2690916061401367 -0.17145198583602905 -0.15021300315856934 -0.42286914587020874 -0.09053542464971542 -0.04742534086108208 0.27787765860557556 -0.4698868691921234 0.03513894975185394 0.17637810111045837 0.09127756208181381 -0.025034232065081596 -0.01497424952685833 0.13350071012973785 0.1057952344417572 0.18874004483222961 0.20705702900886536 -0.03544548898935318 0.0815158411860466 0.018734626471996307 -0.15163445472717285 0.262992799282074 -0.19642214477062225 -0.18084977567195892 0.3105856776237488 -0.21362298727035522 -0.39659202098846436 -0.20881539583206177 0.08408081531524658 -0.0862598568201065 0.4098172187805176 -0.2257002294063568 0.10397462546825409 -0.020933635532855988 -0.06799564510583878 0.07711031287908554 -0.12662267684936523 0.19850730895996094 -0.06252475827932358 0.2508787214756012 0.17962472140789032 0.2619916796684265 0.10676617920398712 0.08335505425930023 0.04943642020225525 0.14599618315696716 0.06147297844290733 0.16554704308509827 0.1812133491039276 -0.33016514778137207 0.2651481628417969 -0.34171244502067566 0.12144558131694794 0.24623005092144012 -0.24562101066112518 0.1505834460258484 -0.07615724205970764 0.012927199713885784 -0.05418689176440239 0.029107868671417236 0.04039031267166138 -0.25888049602508545 0.4090906083583832 0.12648481130599976 -0.04514613375067711 -0.2593521773815155 -0.20418214797973633 0.03498024493455887 -0.12742188572883606 0.13829097151756287 -0.13390488922595978 -0.21699300408363342 0.28579020500183105 0.2074560970067978 1.217355728149414 0.7299813628196716 0.15928730368614197 0.9190466403961182 0.3015792965888977 0.03167985379695892 -0.2080080509185791 -0.18687061965465546 -0.07697580754756927 -0.11371608823537827 0.08103600144386292 -0.43986377120018005 0.28623273968696594 -0.09052389860153198 0.2097502201795578 0.05766863748431206 0.4484144449234009 -0.12894390523433685 0.07403938472270966 -0.518966555595398 0.037247054278850555 -0.3920576572418213 -0.073549784719944 -0.16148759424686432 0.19222068786621094 0.20252101123332977 -0.10885560512542725 -0.13071966171264648 -0.05086150020360947 0.042799413204193115 -0.5136392116546631 0.7346291542053223 -0.02714439481496811 -0.34181326627731323 -0.4201052188873291 -0.38906168937683105 -0.7839372158050537 -0.13485275208950043 0.13014918565750122 0.016183864325284958 0.11103931069374084 -0.026384061202406883 0.3138543963432312 -0.36742663383483887 0.17797772586345673 0.052275221794843674 0.3988415598869324 0.2869645059108734 0.486100435256958 -0.10087649524211884 -0.13499712944030762 0.39206135272979736 -0.006104227155447006 0.12527479231357574 0.19902662932872772 -0.2503485381603241 -0.06139160320162773 0.30734920501708984 0.20111799240112305 -0.05306653305888176 0.1810004711151123 0.06833327561616898 0.28320062160491943 0.20721301436424255 -0.2792890965938568 0.13878440856933594 0.03572935238480568 0.6163768768310547 0.0648592859506607 0.14295396208763123 0.3073906898498535 0.14529813826084137 -0.08187314867973328 -0.3362048864364624 0.18627393245697021 -0.04887671768665314 0.024656368419528008 0.011635257862508297 -0.15495388209819794 -0.2958790063858032 -0.310441792011261 -0.09597490727901459 -0.2460194081068039 -0.39330577850341797 0.002676266012713313 -0.14682072401046753 0.22206413745880127 -0.2190902680158615 -0.43186408281326294 -0.05390657112002373 0.41603559255599976 -0.022389613091945648 0.5069646835327148 -0.050079237669706345 -0.002231260295957327 0.0027750309091061354 -0.3230588436126709 -0.0772973895072937 -0.3999137282371521 -0.022858312353491783 -0.05117005109786987 0.07583989202976227 0.634394645690918 0.0338447168469429 0.15581360459327698 -0.13197383284568787 0.05038372427225113 -0.19947437942028046 -0.11292533576488495 0.3627987802028656 -0.0640060305595398 0.07204534113407135 -0.13927152752876282 0.34810900688171387 0.07208557426929474 0.16444049775600433 -0.657275915145874 -0.16738878190517426 -0.2844868302345276 0.11583634465932846 -0.22179388999938965 0.47822070121765137 -0.2117614448070526 -2.5749402046203613 0.3188422620296478 0.24842505156993866 0.27778705954551697 0.04445481300354004 0.002052783966064453 0.2887267470359802 -0.1285116970539093 0.23739996552467346 0.18042334914207458 0.18546698987483978 0.21498870849609375 0.1377682387828827 -0.13363958895206451 0.09703576564788818 -0.38688886165618896 0.10544627904891968 -0.01386839710175991 0.08253239840269089 0.1092781350016594 0.11268101632595062 0.03504746034741402 0.02772010676562786 -0.06713386625051498 -0.11565707623958588 0.13165950775146484 -0.07350901514291763 -0.10584142804145813 0.01964077726006508 -0.04565880820155144 -0.13062630593776703 0.11717411875724792 0.035085901618003845 -0.16120246052742004 -0.10544940829277039 0.3313082158565521 -0.22825884819030762 -0.446608304977417 -0.04654174670577049 -0.03159502148628235 0.48097655177116394 0.08537416905164719 0.17807546257972717 -1.6188476085662842 -0.3484697937965393 0.3090552091598511 -0.17628467082977295 -0.0018471095245331526 -0.00524564366787672 0.06066592037677765 0.03786275535821915 0.3278840482234955 0.005137832369655371 -0.2505391240119934 -0.014996720477938652 -0.07424786686897278 -0.0777389407157898 0.24595527350902557 -0.024428417906165123 -0.032018810510635376 0.026958733797073364 -0.010244747623801231 -0.2892298698425293 0.005109946243464947 0.19441144168376923 -0.15352313220500946 -0.5147725343704224 -0.22910217940807343 0.1500016748905182 -0.2360202521085739 0.0002700239419937134 0.13813118636608124 0.0850655660033226 0.2478247880935669 0.009593067690730095 0.01908537745475769 -0.19325849413871765 0.3850773274898529 -0.2378944605588913 0.16711728274822235 0.02192559652030468 0.37621498107910156 0.06072147935628891 0.018528489395976067 -0.2514697313308716 0.37672626972198486 -0.08483178913593292 -0.12529022991657257 0.2962760329246521 -0.01976585015654564 -0.1226808950304985 0.5374707579612732 -0.03142285346984863 0.2635630965232849 0.01439649611711502 0.154827281832695 0.20832251012325287 -0.03803221881389618 1.2175734043121338 0.11674487590789795 -0.31868255138397217 0.059519678354263306 0.21121720969676971 0.33777615427970886 0.014029048383235931 -0.22287783026695251 0.04091867059469223 -0.0009494039113633335 -0.6560342311859131 -0.04116455465555191 0.224365696310997 -0.31031137704849243 0.21925988793373108 0.5592695474624634 -0.08564253896474838 0.06380991637706757 0.23152980208396912 -0.34196898341178894 0.18296925723552704 -0.018477492034435272 0.124264657497406 -0.2583704888820648 -0.18286097049713135 0.0030234679579734802 0.21222138404846191 0.30719876289367676 0.0031943288631737232 0.5244789123535156 -0.02861952781677246 0.15761658549308777 0.2314985990524292 0.29645901918411255 -0.09763951599597931 0.3557022213935852 -0.4623126983642578 9.915651321411133 -0.20686864852905273 -0.004134605638682842 0.019287534058094025 0.20858260989189148 0.039618074893951416 0.3512832522392273 0.20228645205497742 -0.1179768443107605 0.02763284556567669 -0.13179993629455566 0.0833168551325798 0.08677498996257782 -0.4328579604625702 -0.10485603660345078 0.10617672652006149 0.2369539439678192 0.31435638666152954 -0.15095524489879608 -0.12655872106552124 -0.19601523876190186 -0.07327622175216675 0.09056888520717621 0.5061993598937988 -0.1895614117383957 -0.06087693199515343 -0.4912899434566498 0.30229490995407104 -0.03486150503158569 0.09627942740917206 0.013592660427093506 0.16514693200588226 -0.1103648841381073 -0.17639505863189697 0.12458577752113342 0.42047104239463806 -0.739448070526123 -0.11782407760620117 0.1604301631450653 -0.06860470771789551 0.023301497101783752 -0.3410714566707611 0.093468576669693 -0.10290353000164032 0.15012040734291077 0.005127847194671631 -0.6455405950546265 0.19844016432762146 0.3713286519050598 0.13180243968963623 0.19574323296546936 0.030644860118627548 -0.009532316587865353 -0.35151344537734985 -0.042291417717933655 -0.5247107744216919 0.511881411075592 0.07196889817714691 -0.12147372961044312 -0.6638000011444092 0.19521097838878632 0.2344951331615448 -0.10411833971738815 -0.07292141020298004 -0.3469122052192688 0.01646866463124752 0.21260640025138855 0.06614389270544052 -0.21142616868019104 -0.06561040133237839 -0.10342733561992645 -0.04821944236755371 0.05252145975828171 0.004124167375266552 -0.36859893798828125 -0.1337960660457611 -0.4073009490966797 -0.1380213499069214 -0.07074504345655441 -0.004129116889089346 0.0419607013463974 0.3068399429321289 -0.0491204671561718 0.22720909118652344 0.02381928823888302 0.07785764336585999 -0.09130378812551498 0.11451581120491028 0.016744306311011314 -0.3887830674648285 -0.19885246455669403 0.028866183012723923 -0.04485727474093437 -0.12523600459098816 0.38445398211479187 0.07314938306808472 -0.2639243006706238 0.03251543641090393 0.0858275517821312 -0.28468239307403564 -0.49355244636535645 0.21836698055267334 -0.20467272400856018 0.11969899386167526 -0.09451388567686081 0.0077600181102752686 0.4722007215023041 -0.617093026638031 -0.12157296389341354 0.0768459290266037 0.10542609542608261 0.1992933452129364 0.30894774198532104 -0.013971006497740746 -0.028282344341278076 -0.378711998462677 0.010773129761219025 0.03461267054080963 0.019366372376680374 0.606391191482544 -0.23029565811157227 0.25975286960601807 0.02903192862868309 -0.3023695647716522 0.01081032119691372 -0.02018032781779766 -0.1616683006286621 0.30407392978668213 0.2701784372329712 0.056018441915512085 -0.4942222535610199 -0.05314071476459503 -0.1111905425786972 0.17643824219703674 0.0038997929077595472 -0.20207653939723969 0.2670239210128784 -0.046928953379392624 0.20060861110687256 0.10815821588039398 -0.04689096659421921 0.038453832268714905 -0.11834727227687836 0.0950552448630333 -0.0968712791800499 0.2727817893028259 -0.09726248681545258 -0.29555845260620117 0.323444128036499 -0.15998658537864685 -0.052052758634090424 0.10251369327306747 0.12143805623054504 0.16632798314094543 0.28127092123031616 0.12060746550559998 -0.04627184569835663 0.531223714351654 0.4305287301540375 0.015620440244674683 -0.24818716943264008 -0.9170219302177429 -0.19579516351222992 -0.2797553837299347 0.01983243227005005 -0.0828993171453476 -0.08861093968153 -0.09878900647163391 -0.00772122573107481 0.03332618623971939 0.14199140667915344 -0.3227227032184601 0.07970158755779266 -0.029125019907951355 0.6929476261138916 -0.007922505959868431 0.1923912763595581 -0.6185795664787292 0.10700299590826035 0.021042391657829285
node_43	-0.06795839965343475 0.3574705719947815 0.15310274064540863 -0.24548125267028809 1.386155366897583 -0.34460198879241943 0.1617424339056015 0.2875704765319824 -0.010506069287657738 -0.3233211934566498 0.18555042147636414 0.0096562709659338 0.45830821990966797 0.33383023738861084 0.1463959813117981 -0.5527278780937195 0.5383173227310181 0.0875537246465683 0.041030846536159515 0.2693352699279785 0.052992235869169235 0.03125186264514923 -0.0612233430147171 0.28026244044303894 -0.05512600764632225 0.07545121014118195 0.2734939455986023 0.1057874783873558 0.10442276298999786 0.2489098757505417 -0.1318717896938324 0.1892908811569214 0.16878728568553925 0.32115375995635986 -0.1895909309387207 0.056051354855298996 -0.40495413541793823 0.059923455119132996 -0.11336245387792587 0.2572634220123291 -0.5329471826553345 0.24138259887695312 0.12287618964910507 -0.14829584956169128 0.10853343456983566 0.21826884150505066 -0.03468067944049835 -0.29014843702316284 0.14953741431236267 -0.015063270926475525 -0.002283141016960144 -0.2119194120168686 -0.05862560123205185 0.2812746465206146 -0.08315914869308472 0.15107028186321259 -0.2604404389858246 -0.0422632209956646 0.4852532148361206 0.04160105437040329 0.28868913650512695 0.7701283693313599 -0.1211487278342247 0.24861660599708557 0.08316487818956375 0.1380477249622345 -0.15469220280647278 0.03761572390794754 0.08060713112354279 0.012833203189074993 -0.03777160495519638 -0.14034387469291687 0.18502187728881836 -0.06872586905956268 -0.01333099976181984 -0.024916619062423706 0.22045397758483887 -2.5111443996429443 -0.2036454677581787 0.7596491575241089 0.2585100531578064 -0.5828054547309875 0.9486526250839233 -0.1535019874572754 0.21383392810821533 -0.6992247104644775 0.2741275429725647 -0.13947048783302307 0.18490111827850342 0.3429064154624939 0.34271201491355896 0.05572805926203728 -0.21642832458019257 0.027950391173362732 0.07550301402807236 0.18061420321464539 -0.052531417459249496 0.7302634119987488 -0.421577513217926 0.007592253386974335 0.04914598912000656 0.0830012857913971 0.20053517818450928 -0.1613810956478119 0.09630128741264343 -0.15131789445877075 -0.11882556974887848 -0.17227494716644287 0.32801398634910583 0.25865381956100464 0.19031451642513275 0.025510963052511215 -0.03090212494134903 -0.08115702867507935 -0.16674832999706268 -0.007147816475480795 0.13200347125530243 0.0906403511762619 0.08475361764431 0.2709003686904907 0.2724531292915344 -0.22241172194480896 -0.04019670933485031 0.04549376294016838 -0.09787344932556152 0.6381756067276001 0.17515984177589417 -0.002854506252333522 -0.06469225138425827 -0.13835225999355316 -0.3039115369319916 -0.9444478750228882 -0.024631058797240257 0.2460440844297409 0.13663452863693237 0.22435835003852844 0.07220413535833359 0.03437074273824692 -0.06218807026743889 0.02648070827126503 -0.266892671585083 0.133936807513237 -0.04978063702583313 0.1772056221961975 0.5663872361183167 -0.00048169493675231934 -0.08617576956748962 -0.2374892234802246 -0.18914318084716797 0.3901605010032654 -0.07707011699676514 0.49471232295036316 0.05624000355601311 0.2943694591522217 -0.3692740797996521 0.7031328082084656 0.0012691369047388434 -0.12337921559810638 -0.5090523958206177 0.47203630208969116 0.0653473436832428 -0.1262820065021515 0.5540198087692261 -0.060931246727705 -0.06939004361629486 0.09457843750715256 -0.04554625600576401 0.18451231718063354 -0.036255866289138794 0.760495126247406 -0.13043035566806793 -0.0451682023704052 -0.13858231902122498 0.11731275171041489 -0.04410162568092346 0.20802943408489227 -0.1062643826007843 -0.05174196884036064 0.03141694515943527 -0.10649654269218445 0.2896169424057007 0.02334759384393692 0.10923560708761215 -0.2572613060474396 -0.09147362411022186 0.2877240478992462 0.08757688850164413 -0.13984493911266327 0.011610756628215313 -0.03695736825466156 -0.32219064235687256 -0.07959876954555511 0.26467952132225037 -0.4645429849624634 0.0814826712012291 0.3953263759613037 -0.1548439860343933 -0.15077972412109375 0.3252701163291931 0.0003762381966225803 -0.26382899284362793 -0.36487826704978943 0.44566333293914795 -0.039185553789138794 0.3919466435909271 0.34372419118881226 -0.13349613547325134 -0.21230308711528778 -0.21235978603363037 -0.14506761729717255 -0.16638289391994476 0.42226356267929077 -0.16249579191207886 0.09003423154354095 0.046619825065135956 0.2944636046886444 -0.36578112840652466 -0.30429989099502563 -0.40033358335494995 -1.0069522857666016 0.17196205258369446 -0.1650143265724182 -0.1021684855222702 -0.6670619249343872 -0.06717561185359955 0.46157583594322205 0.1455385684967041 0.23991656303405762 0.3045159578323364 0.02495528757572174 0.17466460168361664 -0.01920272968709469 -0.5953962802886963 0.08074857294559479 0.3822973668575287 -0.09867005795240402 -0.36230725049972534 0.4413566589355469 0.16624385118484497 0.08093792200088501 0.09457790851593018 0.20147250592708588 -0.2867318391799927 0.19607506692409515 0.0334472730755806 -0.379562109708786 0.007265751715749502 0.2707809805870056 -0.2806805670261383 -0.2398337572813034 0.06731321662664413 -0.09417188167572021 -0.03179648518562317 0.193210169672966 0.428977906703949 -0.10699231922626495 0.2814505100250244 -0.15093408524990082 -0.13632416725158691 -0.5207372307777405 -0.12697841227054596 -0.12364526838064194 0.2352309226989746 -0.3809434175491333 -0.001978363608941436 -0.10661004483699799 0.039898909628391266 -0.06979166716337204 -0.037304386496543884 0.1804182231426239 0.09399010986089706 0.0777624174952507 0.29767778515815735 0.07867874205112457 0.0724731832742691 0.11356993764638901 -0.0072675845585763454 0.2737940549850464 -0.00013012191629968584 -0.1316750943660736 0.30006811022758484 -0.20102426409721375 -0.38041597604751587 -0.20799648761749268 0.16676753759384155 -0.06883412599563599 0.26358288526535034 -0.3355449140071869 0.10269384831190109 -0.04331633448600769 -0.07874585688114166 0.10085281729698181 -0.231470987200737 0.1289519965648651 -0.09127330034971237 0.21672523021697998 0.17078322172164917 0.4812297523021698 0.015585482120513916 0.06406110525131226 0.15670865774154663 0.13672608137130737 0.08738335222005844 0.04333125054836273 0.03890000283718109 -0.3191509246826172 0.25671321153640747 -0.28888022899627686 0.20117203891277313 0.3066145181655884 -0.28983116149902344 0.2069736123085022 -0.07983434200286865 0.16592106223106384 0.051257647573947906 -0.013234734535217285 0.035712793469429016 -0.269974946975708 0.3515186309814453 0.15464413166046143 0.04129868373274803 -0.13442768156528473 -0.2821403741836548 0.0365971140563488 -0.2217463254928589 0.2707429826259613 -0.010591080412268639 -0.09748537838459015 0.2827085554599762 0.2664113938808441 1.2392265796661377 0.638360857963562 0.19077670574188232 0.36531156301498413 0.21833501756191254 0.0726836547255516 -0.24399368464946747 -0.15235862135887146 -0.04689168557524681 -0.2800949811935425 -0.03305696323513985 -0.5432744026184082 0.1906735897064209 -0.11832799762487411 0.11617138236761093 -0.020782116800546646 0.385345458984375 -0.1096024140715599 0.1158204898238182 -0.3721584975719452 0.007763922214508057 -0.32999172806739807 0.17006605863571167 -0.3538723587989807 0.16783571243286133 0.3439761996269226 -0.010261612944304943 -0.18570250272750854 -0.057297639548778534 0.4322887063026428 -0.21670737862586975 0.6075441837310791 0.05464063584804535 -0.35605835914611816 -0.3901945948600769 -0.2709537446498871 -0.9345793128013611 0.07319485396146774 0.14741244912147522 -0.071991465985775 0.09462859481573105 -0.08059544861316681 0.2845122218132019 -0.3335927128791809 0.07641386985778809 -0.007699023000895977 0.23774704337120056 0.31250786781311035 0.2818518877029419 -0.20207974314689636 -0.10433270782232285 0.31292062997817993 0.015930525958538055 0.1174260675907135 0.16799703240394592 -0.0895787701010704 -0.05102449283003807 0.5084114074707031 0.17651674151420593 -0.0733025074005127 0.16496223211288452 0.1705952137708664 0.05302989110350609 0.23842112720012665 -0.2190014123916626 0.0890154242515564 -0.04066738486289978 0.08693277835845947 -0.10698768496513367 0.08955276012420654 0.2105780690908432 0.04018635302782059 -0.1615392118692398 -0.11250917613506317 0.21784698963165283 0.02672431990504265 0.0020138821564614773 -0.03853492811322212 -0.4138963222503662 -0.7755558490753174 -0.27010080218315125 -0.258655309677124 -0.25215619802474976 -0.3358858823776245 -0.01081755943596363 -0.24166369438171387 0.4151751399040222 -0.31261858344078064 -0.30837923288345337 0.06428444385528564 0.45572909712791443 0.0843767449259758 0.46905678510665894 0.05607333779335022 -0.32837340235710144 -0.0326361358165741 -0.34523266553878784 -0.17550647258758545 -0.16017962992191315 -0.025204574689269066 0.016986489295959473 0.005403275601565838 0.4565925598144531 0.04215988516807556 0.26896214485168457 -0.11773290485143661 0.1442795693874359 -0.1280326098203659 -0.028475334867835045 0.2900959849357605 -0.04229961335659027 0.02657036855816841 -0.18414418399333954 0.21533963084220886 0.10564013570547104 0.2533794939517975 -0.41521745920181274 -0.20970425009727478 -0.39342841506004333 0.11845389008522034 -0.21481958031654358 0.4068467617034912 -0.42070096731185913 -2.5129716396331787 0.35747382044792175 0.11312931030988693 0.11727353930473328 0.08649471402168274 -0.07707303762435913 0.198217511177063 -0.09138701856136322 0.10738939046859741 0.16206389665603638 0.1284843236207962 0.2486177533864975 0.054863091558218 -0.08346733450889587 0.010258751921355724 -0.3653737008571625 0.141193225979805 0.06588730216026306 0.19981399178504944 0.011867593042552471 0.1340951919555664 -0.0640166699886322 0.04170187562704086 0.08717861026525497 -0.2776835560798645 0.05461178719997406 0.03372803330421448 -0.04025277495384216 -0.010564258322119713 -0.17009657621383667 -0.15131385624408722 0.046840302646160126 -0.006350729614496231 -0.13058024644851685 -0.11180579662322998 0.26987290382385254 -0.2634986937046051 -0.3037843108177185 -0.0754760354757309 -0.2214173972606659 0.5245918035507202 0.09478481858968735 0.16983817517757416 -1.8077809810638428 -0.31479406356811523 -0.23354534804821014 -0.05451132357120514 0.017112119123339653 0.0032333433628082275 0.06388058513402939 0.19325268268585205 0.23984858393669128 0.009868133813142776 -0.3434463441371918 -0.055009566247463226 -0.14499400556087494 -0.04937580227851868 0.2146931141614914 0.2825886011123657 -0.05144783854484558 0.07983367890119553 0.13763652741909027 -0.2656254470348358 -0.15689176321029663 0.2530977725982666 0.036731619387865067 -0.9129832983016968 -0.25914105772972107 0.1894923746585846 -0.24077361822128296 0.018310269340872765 -0.0424407497048378 0.10387781262397766 0.3380144536495209 -0.08970285952091217 -0.0011230831732973456 -0.2504803538322449 0.3016395568847656 -0.24077008664608002 0.21949049830436707 0.011267292313277721 0.2996569573879242 -0.10192862153053284 -0.11212034523487091 -0.2713945508003235 0.24048535525798798 -0.09358035773038864 -0.36802443861961365 0.4097171723842621 -0.19552183151245117 -0.27413177490234375 0.4226365089416504 0.04620157927274704 0.12382721900939941 -0.048347994685173035 0.13903017342090607 0.11998488008975983 -0.1731099933385849 1.9454600811004639 0.1187608540058136 -0.2897253632545471 0.14737892150878906 0.15083923935890198 0.23396502435207367 0.013155659660696983 -0.22267842292785645 0.14239364862442017 -0.01191822811961174 0.40683817863464355 0.06000658869743347 0.18301698565483093 -0.5405979156494141 0.29308247566223145 0.5120506882667542 -0.15804360806941986 0.04746481776237488 0.21990768611431122 -0.9405069351196289 0.10924743115901947 -0.09957563877105713 -0.20055651664733887 -0.08723203837871552 -0.28042858839035034 0.020171834155917168 0.23344609141349792 0.16977708041667938 0.02083301544189453 0.5064418315887451 0.09431545436382294 0.097557932138443 -0.03487492725253105 0.18791233003139496 -0.04045846313238144 0.5418166518211365 -0.40689072012901306 9.743125915527344 -0.0882498174905777 0.017107492312788963 0.13223305344581604 0.07935705780982971 0.07694149017333984 0.33095794916152954 0.3921787142753601 -0.09263232350349426 0.053228847682476044 -0.0182507187128067 -0.07137222588062286 0.045275427401065826 -0.35907191038131714 -0.12815561890602112 0.24563583731651306 0.265602707862854 0.2638654112815857 0.01725192181766033 -0.054724663496017456 -0.1898629516363144 0.1348891705274582 0.08952431380748749 0.5636366605758667 -0.1992703676223755 0.11391782760620117 -0.272064745426178 0.27292269468307495 -0.031576335430145264 0.10949797928333282 -0.08265385031700134 0.12935131788253784 -0.08968237042427063 -0.06998587399721146 0.08925364911556244 0.08581507205963135 -0.27615806460380554 -0.020559683442115784 0.18426033854484558 -0.07977300137281418 -0.07723277062177658 -0.2961921691894531 0.07118085771799088 0.03433838486671448 0.1509253829717636 0.013642340898513794 -0.3286055326461792 0.05547831580042839 0.24490998685359955 0.17142212390899658 0.18821033835411072 -0.12029530853033066 0.10304571688175201 -0.4506192207336426 -0.007512173615396023 -0.4411444664001465 0.2195984423160553 0.03992757573723793 -0.09369717538356781 -0.4940001666545868 0.23189833760261536 0.15980753302574158 -0.25845199823379517 -0.06014418601989746 0.31335771083831787 0.0014392088633030653 0.2763007879257202 0.325800359249115 0.15807120501995087 -0.03386650234460831 -0.0831078365445137 -0.021914217621088028 0.13551035523414612 -0.045494548976421356 -0.36408695578575134 -0.2956714630126953 0.30378302931785583 -0.27799275517463684 -0.02862982451915741 -0.2519439458847046 0.11248652637004852 0.3305170238018036 -0.052095454186201096 0.15406791865825653 -0.23249322175979614 0.15796500444412231 -0.13441672921180725 0.07988256216049194 -0.0855533704161644 -0.2443009614944458 -0.16508454084396362 -0.0837859958410263 -0.09586285054683685 -0.09917324036359787 0.41535863280296326 0.004295592661947012 -0.14110875129699707 -0.0371740385890007 0.11102142184972763 -0.3063288629055023 -0.46581339836120605 0.1667676866054535 -0.2166833132505417 0.09426199644804001 0.033871978521347046 -0.013323571532964706 0.6765591502189636 -0.5420498251914978 -0.19831442832946777 0.0786491334438324 0.02525979094207287 0.11517675220966339 0.18743596971035004 0.13319319486618042 -0.023132693022489548 -0.38563692569732666 0.061044301837682724 -0.02579657733440399 0.02790703997015953 0.5325324535369873 -0.20759521424770355 0.11038406938314438 0.14295154809951782 -0.3327006995677948 0.00174572819378227 0.03594432771205902 -0.16254407167434692 0.35226649045944214 0.21762332320213318 0.17346367239952087 -0.5571290850639343 -0.07953669130802155 -0.35057908296585083 0.32346582412719727 -0.04728198051452637 -0.1804991215467453 0.2361881136894226 -0.08481249213218689 0.10526895523071289 0.03558634966611862 0.17663758993148804 0.10997879505157471 -0.11109032481908798 -0.4016258418560028 0.016091054305434227 -0.2131231278181076 -0.1402980089187622 0.34787696599960327 0.39986810088157654 -0.25295889377593994 -0.016282491385936737 0.12673647701740265 0.03196161985397339 0.07563555985689163 0.15795336663722992 0.18253758549690247 0.0620664581656456 0.54352205991745 0.2457313984632492 0.0863427147269249 0.205305278301239 -0.837791383266449 -0.508143424987793 -0.480541467666626 0.28536295890808105 -0.10760732740163803 -0.06259863078594208 0.01806083880364895 0.31612563133239746 0.0519474558532238 0.1988227665424347 -0.4664442539215088 -0.10193222016096115 -0.021654769778251648 0.5764926075935364 -0.06952424347400665 -0.021236395463347435 -0.6346385478973389 0.0344911590218544 -0.04969746991991997
node_31	-0.03921810910105705 0.34231433272361755 0.21326260268688202 -0.07006490230560303 1.5823495388031006 -0.4235731363296509 0.09157778322696686 0.18058715760707855 0.014140188694000244 -0.3526031970977783 0.14267884194850922 0.2572547197341919 0.3353618383407593 -0.0644495040178299 0.27360963821411133 -0.23674678802490234 0.19097492098808289 0.1079273670911789 0.18020233511924744 0.09046380966901779 0.08301325887441635 -0.04438094422221184 0.011687371879816055 0.3375509977340698 -0.20571967959403992 0.0672072023153305 0.26496607065200806 0.11832502484321594 0.1469929963350296 0.11310818046331406 -0.19919370114803314 0.09800849854946136 0.08359640836715698 0.2883029580116272 -0.22638444602489471 0.14340636134147644 -0.39125460386276245 0.09866394847631454 0.16653229296207428 0.17294541001319885 -0.5517342686653137 -0.011956488713622093 0.14165394008159637 -0.23034584522247314 0.14658978581428528 0.1530490219593048 -0.042073678225278854 0.17054006457328796 0.1593303680419922 0.042145609855651855 -0.12872353196144104 -0.13727521896362305 -0.13338060677051544 0.22561822831630707 -0.17207734286785126 0.11355068534612656 -0.24745780229568481 -0.02481800876557827 0.3888727128505707 0.05420275777578354 0.4543794095516205 0.19910751283168793 -0.06680397689342499 0.21630387008190155 -0.03230706602334976 0.12347640842199326 -0.05505288764834404 0.06968709826469421 0.1458669900894165 0.10804490745067596 -0.03340348228812218 -0.24004697799682617 0.17044630646705627 0.07587625086307526 -0.005366712808609009 0.2282722443342209 0.16774943470954895 -2.5936689376831055 -0.04821310192346573 0.46123337745666504 0.22840569913387299 -0.5648861527442932 1.6536223888397217 -0.04000081121921539 0.05365673825144768 -0.6765491962432861 0.30574116110801697 -0.02393302321434021 0.0447516068816185 0.3799733817577362 0.39742326736450195 0.06076487898826599 -0.3245701491832733 -0.001560171484015882 0.03749638795852661 0.3969859778881073 -0.018773233518004417 0.3963211476802826 -0.4471319615840912 0.02949254959821701 -0.14150620996952057 0.06611281633377075 0.2088109254837036 -0.22772890329360962 0.16069594025611877 0.010032027959823608 -0.17402075231075287 -0.09430377930402756 0.251966655254364 0.3278281092643738 0.16196277737617493 0.04334132373332977 0.025122404098510742 -0.04937782883644104 -0.21294763684272766 -0.06060609221458435 0.20243996381759644 0.07916611433029175 0.08013254404067993 0.18578290939331055 0.15052449703216553 -0.15465429425239563 -0.1161135882139206 0.042451437562704086 0.15797266364097595 0.4718179702758789 0.24518613517284393 0.07821457833051682 -0.08461876958608627 -0.2592681050300598 -0.2561718821525574 -0.5279555320739746 -0.0654384195804596 -0.06808894127607346 0.08466623723506927 0.25388213992118835 0.02138051763176918 0.07568234205245972 -0.005406285636126995 -0.007803092710673809 -0.2540314793586731 0.1532248556613922 -0.004697548225522041 0.09573410451412201 0.7766586542129517 -0.06028100103139877 0.03539163991808891 -0.27576321363449097 -0.1598677933216095 0.5308258533477783 -0.12928079068660736 0.42903560400009155 0.050666045397520065 0.255352646112442 -0.5836057662963867 0.6019755601882935 -0.06413928419351578 -0.16495013236999512 -0.4518734812736511 0.4617449939250946 0.2259078025817871 -0.13713793456554413 0.5643582344055176 -0.0846816897392273 -0.02863888069987297 0.037304915487766266 -0.06968773156404495 0.0256296806037426 -0.07712378352880478 0.6337875723838806 -0.21507200598716736 -0.03231486678123474 -0.04161161929368973 0.0763942301273346 -0.022219929844141006 0.21828465163707733 -0.14425970613956451 -0.14764687418937683 0.10779087245464325 -0.17174997925758362 0.058639299124479294 0.055634595453739166 0.07094916701316833 -0.271872878074646 -0.06378339976072311 0.5687857866287231 0.06550108641386032 -0.2990639805793762 -0.03706630319356918 -0.07477124035358429 -0.335146427154541 -0.10461601614952087 0.3057648837566376 -0.29238423705101013 0.09254443645477295 0.2509821653366089 -0.16066086292266846 -0.10948866605758667 0.2730448544025421 -0.03369215130805969 -0.2789003849029541 -0.26197147369384766 0.2589036822319031 -0.02371087297797203 0.31069624423980713 0.34531426429748535 -0.2805325984954834 -0.31079646944999695 -0.25449442863464355 -0.08102425187826157 -0.08997222036123276 0.6590353846549988 -0.18385052680969238 0.21302664279937744 -0.08674302697181702 0.061692506074905396 -0.19727735221385956 0.04113313555717468 -0.2805522680282593 -0.8490875959396362 0.1435440629720688 -0.03483365476131439 -0.21942727267742157 -0.6357907652854919 -0.04756322503089905 0.4261152744293213 0.23425869643688202 0.19209113717079163 0.3615674674510956 -0.043580468744039536 0.19665853679180145 -0.07816170901060104 -0.5962191820144653 0.060836225748062134 0.23461811244487762 -0.01968093030154705 -0.2469874620437622 0.34722065925598145 0.12906554341316223 0.1482544243335724 -0.5832374095916748 0.19711296260356903 -0.33198246359825134 0.13265268504619598 -0.04671218991279602 -0.4388980269432068 0.10466046631336212 -0.005232115741819143 -0.3140379786491394 -0.20376256108283997 0.02384067140519619 -0.30748945474624634 0.004672907292842865 0.25542742013931274 0.09571275115013123 -0.22881047427654266 0.2810746133327484 -0.12648522853851318 -0.16903111338615417 -0.5580165386199951 -0.23631295561790466 -0.04370889812707901 0.2020956128835678 -0.41263043880462646 0.0961340069770813 -0.05971406027674675 0.047359734773635864 -0.005555787589401007 0.03713396564126015 0.06205102801322937 0.146476149559021 0.0644005537033081 0.34556668996810913 -0.04135569930076599 0.04895905777812004 0.05380759760737419 -0.09109431505203247 0.10324262827634811 -0.13810157775878906 -0.19436556100845337 0.2225918024778366 -0.2780882716178894 -0.46555203199386597 -0.2724587321281433 0.037043843418359756 -0.026078611612319946 0.3131934404373169 -0.39344656467437744 0.12024138867855072 -0.0017603735905140638 -0.16088925302028656 0.17193064093589783 -0.1793845295906067 0.1488107144832611 0.003183926222845912 0.16708123683929443 0.18163752555847168 0.2697717845439911 0.03854948282241821 0.23644278943538666 0.1717522144317627 0.263104110956192 0.009608300402760506 0.1270904839038849 0.12843745946884155 -0.23926782608032227 0.043102554976940155 -0.34115689992904663 0.05243775248527527 0.30765169858932495 -0.26284143328666687 0.24298815429210663 -0.10416215658187866 0.06467235088348389 -0.0780356302857399 0.05173443257808685 0.09489642083644867 -0.28052839636802673 0.3697699308395386 0.11159353703260422 -0.057985514402389526 -0.23842903971672058 -0.286393404006958 0.10424040257930756 -0.24823006987571716 0.10637157410383224 -0.24730455875396729 -0.05787235125899315 0.31285640597343445 0.2644326686859131 2.019934892654419 0.4659918248653412 0.15664629638195038 0.68536776304245 0.19243469834327698 -0.015385493636131287 -0.2144513577222824 -0.04514765366911888 -0.08707542717456818 -0.06448918581008911 -0.028837338089942932 -0.4795334041118622 0.1886286735534668 0.005690563470125198 0.13514727354049683 0.05023135989904404 0.3827316164970398 -0.1661856323480606 0.11719845980405807 -0.30507898330688477 -0.012467618100345135 -0.39684611558914185 -0.0015098651638254523 -0.2432582676410675 0.17711083590984344 0.4433527886867523 -0.1655041128396988 -0.06130531430244446 -0.006733005400747061 0.11383017152547836 -0.3155979812145233 0.8208279609680176 -0.011845551431179047 -0.3840305805206299 -0.283212274312973 -0.1894533932209015 -0.7666409015655518 -0.007949111983180046 0.088202565908432 -0.026035815477371216 0.07128500193357468 -0.039230313152074814 0.21411333978176117 -0.32053810358047485 0.10022206604480743 0.03392966464161873 0.2501488924026489 0.22371956706047058 0.3712701201438904 -0.17960312962532043 -0.12531447410583496 0.37248748540878296 0.025792470201849937 0.07990317046642303 0.11611911654472351 -0.16364145278930664 -0.13111275434494019 0.5216232538223267 0.26447826623916626 -0.06358328461647034 0.1096152663230896 0.1151915192604065 0.032468073070049286 0.3377304971218109 -0.12601859867572784 0.09949745237827301 -0.12394720315933228 0.595169723033905 -0.09973140060901642 0.01667080819606781 0.28288114070892334 0.1808699369430542 -0.21943408250808716 -0.10669369995594025 0.2677154541015625 -0.1992204785346985 0.13409289717674255 -0.013222637586295605 -0.16529732942581177 -0.2850983738899231 -0.27558276057243347 -0.15880344808101654 -0.2819056212902069 -0.44317826628685 -0.05181401968002319 -0.12907275557518005 0.46274781227111816 -0.03318910300731659 -0.2709924876689911 0.03599482774734497 0.43317627906799316 0.0017970434855669737 0.406772255897522 0.056746166199445724 -0.2767106294631958 -0.04016631841659546 -0.23597940802574158 -0.09933257102966309 -0.2630988359451294 -0.04950934648513794 0.028311289846897125 0.05702335759997368 0.5196481943130493 0.01601599156856537 0.1731463521718979 -0.06668096780776978 0.0689450055360794 -0.1989840865135193 -0.015509942546486855 0.31201982498168945 -0.13413269817829132 0.11572423577308655 -0.19263550639152527 0.1539308726787567 -0.014008755795657635 0.10043993592262268 -0.3008294403553009 -0.20130956172943115 -0.34318816661834717 -0.012519454583525658 -0.2176588475704193 0.40643519163131714 -0.5554428696632385 -2.796351909637451 0.37059468030929565 0.2188713252544403 0.1962529867887497 0.09134922921657562 -0.03483349084854126 0.2096613645553589 -0.14375659823417664 0.18551921844482422 0.14177820086479187 0.22274601459503174 0.21624159812927246 0.11060887575149536 -0.06743331253528595 0.060001641511917114 -0.24256810545921326 0.09810225665569305 0.10956840217113495 0.12613576650619507 0.040902405977249146 -0.06444372236728668 0.01850312203168869 0.0529257133603096 0.0949348732829094 -0.23462435603141785 -0.03320834040641785 0.015645157545804977 -0.08821593225002289 -0.01938588172197342 -0.1748521327972412 -0.14647674560546875 0.09320434182882309 -0.06177491694688797 -0.20874623954296112 -0.057443708181381226 0.30934807658195496 -0.11708861589431763 -0.3484668731689453 -0.09957485646009445 -0.17684370279312134 0.5097017288208008 0.09965915977954865 0.16046325862407684 -1.8611786365509033 -0.35306572914123535 0.44070965051651 -0.0751020684838295 0.09575414657592773 -0.0109452735632658 0.1633477807044983 0.1327582746744156 0.28664350509643555 0.060469500720500946 -0.30873629450798035 -0.025500714778900146 -0.08509171009063721 -0.0476931557059288 0.17420074343681335 0.07129034399986267 -0.005638688802719116 0.028557023033499718 0.12115569412708282 -0.2792779207229614 -0.07615470886230469 0.23080997169017792 0.07064443826675415 -0.4645189642906189 -0.20431992411613464 0.1676453948020935 -0.18538729846477509 -0.06453321874141693 0.025801246985793114 0.09916256368160248 0.24641764163970947 0.06069835647940636 0.07339753955602646 -0.027477066963911057 0.3685952425003052 -0.22693201899528503 0.16519996523857117 -0.02163085713982582 0.48030203580856323 -0.05400468036532402 -0.14119534194469452 -0.27991342544555664 0.36864304542541504 -0.18417498469352722 -0.004174232482910156 0.2625150680541992 -0.12100756168365479 -0.18857011198997498 0.47565025091171265 0.012612387537956238 0.35040855407714844 -0.09239530563354492 0.1977970451116562 0.1741020679473877 -0.26258307695388794 1.4640620946884155 0.2433169186115265 -0.4250143766403198 0.23591655492782593 0.1730879545211792 0.18091325461864471 -0.08925740420818329 -0.18161416053771973 -0.1959822177886963 -0.011065533384680748 0.20311114192008972 -0.024238502606749535 0.21594619750976562 -0.40056800842285156 0.2721642255783081 0.5358225107192993 -0.10157661885023117 0.0139322429895401 0.09835223853588104 -0.7879066467285156 0.18575839698314667 -0.13880419731140137 0.14651386439800262 -0.15250883996486664 -0.24424855411052704 -0.023918282240629196 0.08398526161909103 0.14633962512016296 0.06018207222223282 0.5637267231941223 0.008164569735527039 0.08530990779399872 -0.010359717532992363 0.24295787513256073 0.018170036375522614 0.3799881637096405 -0.26801347732543945 9.519156455993652 -0.030112018808722496 0.07626200467348099 0.1318972259759903 0.08503912389278412 0.024300023913383484 0.4438682496547699 0.20889703929424286 -0.05756518244743347 0.12275826930999756 -0.11999063938856125 0.09696196019649506 0.06399088352918625 -0.33060893416404724 -0.17626194655895233 0.07505437731742859 0.317665696144104 0.28165513277053833 0.007252775132656097 -0.09322141855955124 -0.16806207597255707 -0.1920202225446701 0.05182734131813049 0.6348580121994019 -0.18884113430976868 0.023610368371009827 -0.34795936942100525 0.3057934641838074 -0.02622511051595211 0.1383059322834015 -0.05425308644771576 0.1757633090019226 -0.0433957502245903 -0.021286945790052414 0.13472755253314972 0.15228340029716492 -0.6142309904098511 -0.036967650055885315 0.12162479013204575 -0.04958058521151543 -0.051585085690021515 -0.3116872012615204 0.06279180943965912 -0.07884961366653442 0.1615382879972458 0.06714238971471786 -0.44205808639526367 0.16967737674713135 0.1871415227651596 0.17551591992378235 0.08911186456680298 -0.03529589995741844 -0.008116969838738441 -0.279447078704834 -0.06243292987346649 -0.5322995185852051 0.24932768940925598 0.14738403260707855 -0.13523626327514648 -0.4705173969268799 0.20908376574516296 0.07206276059150696 -0.2393510639667511 -0.04990699142217636 0.15654343366622925 -0.1462041586637497 0.2840988039970398 0.3652563989162445 0.026151269674301147 -0.06995633989572525 -0.031570278108119965 -0.10102476924657822 0.09947660565376282 -0.013350358232855797 -0.47237181663513184 -0.030389875173568726 -0.1884804219007492 -0.25730830430984497 -0.04653038829565048 -0.1478133350610733 0.028075169771909714 0.315650075674057 -0.06894227862358093 0.1002761721611023 -0.28694480657577515 0.10878895223140717 -0.09457871317863464 0.1505841463804245 -0.021883752197027206 -0.27994072437286377 -0.17960862815380096 -0.024051424115896225 -0.12217199802398682 -0.15945206582546234 0.39444226026535034 -0.008929915726184845 -0.11051540076732635 0.09354989230632782 0.12622657418251038 -0.2867558002471924 -0.4510464668273926 0.2834573984146118 -0.1612120121717453 0.15832772850990295 -0.09955030679702759 -0.10511927306652069 0.3910679221153259 -0.47382959723472595 -0.11164501309394836 0.13180728256702423 0.04372292011976242 0.3780207633972168 0.21995577216148376 0.10689601302146912 0.025377869606018066 -0.3766917586326599 0.018014617264270782 0.004630809184163809 -0.09518671035766602 0.6455097198486328 -0.2514997124671936 0.2331540584564209 0.16145393252372742 -0.2187621295452118 -0.002175159752368927 0.006715171039104462 -0.12565051019191742 0.3051818907260895 0.17219623923301697 0.05331479758024216 -0.5940989255905151 -0.034776292741298676 0.011154847219586372 0.1344732940196991 -0.044110991060733795 -0.14857280254364014 0.3355552554130554 -0.05761685222387314 0.24650219082832336 0.07683804631233215 -0.103114053606987 0.08303653448820114 -0.18359653651714325 -0.26328203082084656 0.12846490740776062 0.13843542337417603 -0.0774724930524826 -0.12080516666173935 0.2751472592353821 -0.10507060587406158 -0.05358275771141052 0.14411628246307373 0.10097981989383698 0.1808907389640808 -0.01717873476445675 0.2704515755176544 0.026521189138293266 0.7790398597717285 0.2303755283355713 -0.03313559293746948 -0.22802607715129852 -0.6103952527046204 -0.23841188848018646 -0.06777319312095642 0.2168070673942566 -0.0484716072678566 -0.13124918937683105 -0.04186110943555832 0.13197185099124908 -0.029522737488150597 0.20829731225967407 -0.40135324001312256 -0.16178472340106964 -0.03067370504140854 0.5242835879325867 -0.02996160089969635 0.10360203683376312 -0.5775667428970337 0.14464212954044342 0.0038556717336177826
