node_20	0.0250150915235281 0.1016400083899498 0.10035442560911179 0.056666865944862366 0.6464694738388062 -0.2610918879508972 -0.06725970655679703 0.3547470271587372 0.06870441138744354 -0.6457014083862305 0.2376139611005783 0.788985013961792 0.242283433675766 -0.5478721857070923 0.36179813742637634 -0.005367686506360769 0.3480464220046997 0.2573886513710022 -0.2052658200263977 -0.054092563688755035 -0.0907379612326622 0.017062410712242126 0.3030814528465271 0.1558748483657837 -0.6300065517425537 0.12680411338806152 0.20602838695049286 0.05649229884147644 0.08557047694921494 -0.15394042432308197 -0.31569522619247437 0.15745185315608978 0.08547741174697876 0.0589250773191452 -0.35283583402633667 -0.029506085440516472 -0.325748085975647 0.16905418038368225 0.523173987865448 0.04193184897303581 -0.36670050024986267 0.434045672416687 0.22065584361553192 0.004612664692103863 0.1106266975402832 -0.013227121904492378 -0.20589196681976318 0.519710898399353 0.23437301814556122 -0.12216620147228241 0.03026614338159561 -0.331398069858551 0.08415810763835907 0.08476577699184418 -0.09656703472137451 0.15137752890586853 -0.3143939673900604 0.13518553972244263 0.4368569254875183 -0.013387082144618034 0.31061720848083496 -0.23779529333114624 0.012160180136561394 -0.08523064851760864 0.04848233982920647 0.16726134717464447 -0.12340645492076874 -0.4789450168609619 0.23645249009132385 -0.022532805800437927 -0.02886776253581047 0.1270425021648407 -0.08291608095169067 0.28450268507003784 -0.07597130537033081 -0.21272288262844086 0.2151017189025879 -1.5702190399169922 0.31663206219673157 0.6445901989936829 0.11982816457748413 -0.08088338375091553 1.3957231044769287 0.13077090680599213 0.05337262153625488 -0.7657889127731323 0.16737088561058044 -0.12041779607534409 0.04811856150627136 0.3537881374359131 0.462113618850708 0.1101960763335228 -0.2647479176521301 0.23997977375984192 -0.12044064700603485 0.15694697201251984 -0.22843629121780396 -0.18198256194591522 -0.450509637594223 0.039836153388023376 0.3906435966491699 -0.15796320140361786 0.3632974326610565 -0.11442641913890839 0.18439434468746185 0.1585058569908142 -0.16894778609275818 -0.42221736907958984 -0.02107459306716919 0.1227046549320221 0.14268693327903748 0.07713264226913452 -0.1493828296661377 -0.05851612612605095 -0.1400776505470276 0.31858476996421814 -0.03296897932887077 0.11892178654670715 -0.06633901596069336 0.2828553020954132 0.34187138080596924 -0.1714247167110443 0.04758692905306816 -0.1842242181301117 -0.164281964302063 0.4043367803096771 0.197787806391716 0.08985833823680878 -0.06187499314546585 -0.2167275846004486 -0.2379816621541977 -0.8922495245933533 -0.03099559247493744 0.26352474093437195 0.047877997159957886 0.1903083771467209 -0.11707544326782227 0.06142482906579971 -0.0017187409102916718 0.07398061454296112 -0.21387982368469238 -0.03475502133369446 0.10056643187999725 0.03351341560482979 0.8752684593200684 -0.2218005657196045 -0.11522847414016724 -0.30085769295692444 -0.07281278073787689 0.23159341514110565 -0.0482429638504982 0.39477378129959106 -0.1757970154285431 0.10677829384803772 -0.38210058212280273 0.4955163896083832 -0.11283901333808899 0.07961876690387726 -0.20249587297439575 0.6666885614395142 0.1875358521938324 -0.2922455072402954 0.295930951833725 0.09448815882205963 0.01137088518589735 0.12552344799041748 -0.23363547027111053 -0.15126824378967285 -0.04460706561803818 0.7444237470626831 -0.10492543876171112 -0.04866121709346771 -0.010405708104372025 -0.3432430624961853 -0.05373876541852951 -0.03866809234023094 -0.22394177317619324 0.034091249108314514 -0.02702721208333969 0.04867103695869446 -0.008255480788648129 0.026743218302726746 0.3219448924064636 -0.41021355986595154 0.09865789115428925 0.5065760612487793 0.1737261414527893 -0.09989827871322632 -0.45402151346206665 -0.059267785400152206 -0.12175232172012329 -0.12342548370361328 0.20374339818954468 -0.21407239139080048 0.3001115024089813 0.4117128252983093 -0.016009539365768433 -0.03376886621117592 0.08538484573364258 -0.022670086473226547 -0.33619457483291626 -0.022572636604309082 0.5634047985076904 -0.12908963859081268 0.37743645906448364 0.18057051301002502 -0.412773460149765 -0.17586517333984375 -0.29612594842910767 0.06276699900627136 -0.20613157749176025 1.297389030456543 -0.16293643414974213 -0.05385158210992813 0.5240082740783691 -0.19696426391601562 -0.3168962895870209 -0.0914774164557457 -0.08353470265865326 -1.045569896697998 0.13341060280799866 0.010709358379244804 -0.23531553149223328 -0.7012461423873901 0.33619746565818787 0.0711110532283783 0.22455494105815887 0.08619373291730881 0.42437148094177246 -0.04853469133377075 0.12355411052703857 -0.25652122497558594 -0.30062830448150635 -0.2476232498884201 0.17797106504440308 0.038017868995666504 -0.24552683532238007 0.28841957449913025 -0.0001492301671532914 0.09419363737106323 -0.34717079997062683 0.23396989703178406 -0.0037013492546975613 0.2725902795791626 0.024768522009253502 -0.21541020274162292 0.03589551895856857 -0.9671096205711365 -0.20284782350063324 -0.1622125506401062 -0.09191196411848068 -0.1179090291261673 0.047501564025878906 0.04477129504084587 0.3559313714504242 -0.3184526860713959 0.15120118856430054 0.007043452933430672 -0.16882047057151794 -0.3199450373649597 0.11776655912399292 -0.04816295951604843 0.29341697692871094 -0.37137073278427124 -0.23357443511486053 -0.4911998510360718 -0.07508081197738647 0.052848055958747864 -0.18873606622219086 0.08255720138549805 0.3310384750366211 0.03697088360786438 0.11919521540403366 0.35571902990341187 0.0013903547078371048 0.06096659600734711 -0.07640936970710754 -0.09759916365146637 -0.24281756579875946 -0.03645720332860947 -0.10643648356199265 -0.0849686861038208 -0.3554423749446869 -0.4111010432243347 -0.15853379666805267 -0.3047161102294922 0.13927391171455383 -0.5155929327011108 0.08136393874883652 0.001259761629626155 -0.2527201175689697 0.5042562484741211 -0.33768796920776367 0.37717103958129883 -0.4276377558708191 0.27703437209129333 0.08123667538166046 0.4608480930328369 0.22745844721794128 0.26007190346717834 -0.027429064735770226 0.25535330176353455 0.21841394901275635 -0.13852450251579285 0.2965638339519501 -0.32639825344085693 0.39243096113204956 -0.06907644867897034 -0.01349477469921112 0.29902908205986023 0.013423195108771324 0.09769564867019653 -0.08954314887523651 0.3626771867275238 0.052992112934589386 0.09232687205076218 0.01451080571860075 -0.39597535133361816 0.28929534554481506 -0.048306435346603394 -0.11208932101726532 -0.23882846534252167 -0.29632818698883057 0.037252895534038544 0.06188231334090233 0.10547876358032227 0.08567450940608978 -0.14357104897499084 0.2531452775001526 0.39741942286491394 0.8893073797225952 0.93837571144104 0.3493402600288391 0.8124629855155945 0.13364289700984955 0.2053811252117157 -0.07087914645671844 -0.12398140877485275 -0.013582351617515087 0.07501772046089172 0.09236695617437363 -0.2654118537902832 0.08709456771612167 0.108003169298172 0.25538894534111023 -0.029664579778909683 0.6919898986816406 0.06342785060405731 0.1280466467142105 -0.10059341788291931 -0.046031758189201355 -0.23482470214366913 0.08679132908582687 -0.4907405376434326 0.4661872386932373 0.30740612745285034 -0.08701647818088531 -0.11506490409374237 0.0348990261554718 -0.43468648195266724 -0.27680790424346924 0.8705450892448425 -0.04426933452486992 -0.08087518811225891 -0.31834471225738525 -0.2881741523742676 -0.7940284609794617 -0.15133795142173767 0.006795561872422695 0.10407869517803192 -0.09412515163421631 0.279490202665329 0.22328588366508484 0.18301910161972046 0.09389466047286987 0.025209229439496994 0.6936747431755066 0.4389127194881439 0.19456630945205688 -0.1702539622783661 -0.23959235846996307 0.3794395327568054 0.11894148588180542 0.2780759036540985 -0.061139266937971115 -0.1695900559425354 -0.1226009950041771 0.0722714364528656 0.3175264000892639 0.12804469466209412 0.2929854989051819 0.10169407725334167 0.40992897748947144 0.2644602358341217 -0.2089388370513916 0.14311107993125916 0.09816467761993408 0.2261425107717514 -0.07972636818885803 0.1854432076215744 0.14299868047237396 0.07212521135807037 -0.1196751594543457 0.25242316722869873 0.2823438048362732 0.07829835265874863 -0.013048122636973858 0.11921533942222595 -0.22125481069087982 -0.5759958624839783 -0.32905247807502747 -0.07064113765954971 -0.43879029154777527 -0.27206510305404663 -0.31132420897483826 -0.15198618173599243 0.010408292524516582 -0.6574951410293579 -0.45763856172561646 0.0475727878510952 0.314223051071167 -0.0659390240907669 0.47580045461654663 -0.038054052740335464 -0.004417399875819683 0.14862927794456482 -0.6377855539321899 -0.07325125485658646 -0.9884257316589355 -0.24327193200588226 -0.060943152755498886 -0.047096267342567444 -0.05214922875165939 -0.02653712034225464 -0.07097278535366058 -0.07809028029441833 -0.006355151534080505 -0.02247028611600399 -0.20005851984024048 0.08514785766601562 -0.6781967878341675 -0.03469622880220413 -0.22440031170845032 0.35743725299835205 -0.07937277853488922 0.37667346000671387 -0.1284855604171753 -0.1864055097103119 -0.12845304608345032 0.18573693931102753 -0.11430328339338303 0.34691208600997925 -0.7092503905296326 -1.9209175109863281 0.33942341804504395 0.2483069747686386 0.23059111833572388 0.22354921698570251 0.17630904912948608 0.16422522068023682 -0.19311021268367767 0.009230251424014568 0.234853595495224 0.3629077076911926 -0.020702842622995377 0.22322499752044678 0.04916658252477646 0.039730966091156006 -0.052121471613645554 -0.03388276696205139 0.26611125469207764 0.4650019109249115 0.07931673526763916 0.1845465749502182 0.12146785855293274 0.23008134961128235 -0.12981712818145752 -0.06585387885570526 0.19709226489067078 0.1549077033996582 0.13994881510734558 0.08352288603782654 -0.05580343306064606 -0.08759492635726929 -0.006163736339658499 0.041120320558547974 -0.4370144307613373 0.0886618122458458 0.22858195006847382 -0.3513771891593933 -0.35178613662719727 0.12218320369720459 -0.1834806203842163 0.46256551146507263 0.07291017472743988 -0.020502537488937378 -0.7992346286773682 -0.299305260181427 -0.7133032083511353 -0.17121851444244385 0.03253130614757538 0.21134352684020996 0.21055059134960175 -0.10424613952636719 0.17614680528640747 -0.06997930258512497 -0.12232840061187744 -0.15990284085273743 0.18830983340740204 -0.2393593043088913 0.11538182199001312 0.17342504858970642 -0.062458910048007965 0.1186058521270752 -0.17208336293697357 -0.1698179692029953 0.007880009710788727 0.11689101159572601 0.05645299702882767 -0.5474824905395508 -0.06286592781543732 0.3854679465293884 -0.11079935729503632 -0.0812218189239502 0.25608882308006287 0.06780223548412323 0.2591228485107422 0.07602152228355408 -0.032713212072849274 -0.24837879836559296 0.33907192945480347 0.041682735085487366 0.22184517979621887 0.08615332096815109 0.5997292399406433 0.1982133388519287 -0.1944625973701477 0.21204349398612976 0.23127266764640808 -0.3873075842857361 0.20889531075954437 0.4625691771507263 -0.11265825480222702 -0.13534410297870636 0.2762511670589447 -0.1260523796081543 -0.03036542236804962 0.07515595108270645 0.07559789717197418 0.1990429162979126 -0.008272267878055573 2.7433319091796875 0.3127882480621338 0.07547374069690704 -0.4819757342338562 0.18838582932949066 0.27871930599212646 0.019014794379472733 -0.040356025099754333 -0.0986904501914978 0.022640381008386612 0.41644740104675293 0.07758044451475143 0.03131786733865738 -0.7439208030700684 0.3436129689216614 0.31137973070144653 -0.20168742537498474 0.2503744661808014 0.1868882179260254 0.6442756056785583 0.37279003858566284 0.14003710448741913 0.7549209594726562 -0.31211453676223755 0.024451162666082382 0.04352807253599167 -0.3417704999446869 0.31665465235710144 0.2633887529373169 0.22257177531719208 -0.1708541214466095 0.1466972678899765 -0.329784631729126 0.3128374516963959 0.0610833577811718 -0.10625791549682617 -0.16240572929382324 10.723174095153809 -0.15811887383460999 0.07680896669626236 0.0277070552110672 0.12989509105682373 -0.007957594469189644 0.1051800400018692 0.14683839678764343 -0.06730207800865173 0.051222771406173706 -0.25085005164146423 -0.06346546858549118 0.05260905250906944 -0.4787673354148865 -0.04743340611457825 0.15257523953914642 0.24489204585552216 0.36484062671661377 0.024629801511764526 -0.21370473504066467 -0.163011372089386 -0.18119236826896667 -0.09420889616012573 0.501753568649292 -0.28225448727607727 0.01597798988223076 -0.5493263602256775 0.2981503903865814 0.05085136741399765 -0.06027443706989288 0.4141523838043213 -0.13529127836227417 -0.09835277497768402 -0.06920929998159409 0.20273563265800476 0.55579674243927 -1.157416582107544 -0.09811046719551086 0.15189504623413086 -0.2526096701622009 -0.08761225640773773 -0.21767446398735046 0.0456625334918499 0.0009482614696025848 0.2960151135921478 0.15770669281482697 -0.4032476842403412 0.3120739161968231 0.17732450366020203 -0.08082696050405502 0.06983441859483719 0.17867349088191986 0.10264801234006882 -0.3536728322505951 -0.05868826434016228 -0.06593882292509079 0.4596887230873108 0.10249939560890198 -0.0016651898622512817 -0.6643754243850708 0.02305016480386257 -0.022672712802886963 -0.08025993406772614 0.2812809348106384 0.06409572064876556 -0.3249821364879608 0.5389902591705322 0.2210048884153366 0.29675206542015076 0.25670796632766724 0.007754919584840536 -0.1550695300102234 -0.009353689849376678 0.003466611262410879 -0.19493547081947327 -0.4329874515533447 -0.22353792190551758 -0.1632828265428543 -0.20886123180389404 -0.11966946721076965 0.015240518376231194 0.379214882850647 0.0775822103023529 0.07310144603252411 -0.5356088876724243 0.07637761533260345 0.2294078767299652 -0.10112699866294861 0.028698047623038292 -0.09717033803462982 -0.27603161334991455 -0.0588594451546669 0.06586048752069473 -0.3240872621536255 0.13182348012924194 0.20907190442085266 -0.1155739277601242 0.07773714512586594 0.32542431354522705 0.11159458011388779 -0.46850019693374634 0.14026392996311188 -0.4301033914089203 0.059969156980514526 0.06361579149961472 0.2288476675748825 0.02570519968867302 -0.5418149828910828 0.05956057831645012 0.1286100447177887 -0.08153416216373444 0.1677345484495163 0.12973521649837494 0.17857566475868225 -0.16211694478988647 -0.3068256378173828 0.07737232744693756 -0.02688693068921566 0.19950082898139954 0.4241963028907776 -0.2619033455848694 0.07492467761039734 0.04513223096728325 -0.34019705653190613 -0.09631334245204926 -0.11108836531639099 -0.10890548676252365 0.26082274317741394 0.10322843492031097 -0.008082643151283264 0.00014597985136788338 -0.017822595313191414 0.21415376663208008 0.17313164472579956 -0.021931692957878113 -0.2699878215789795 0.18437109887599945 -0.16856418550014496 0.28118929266929626 0.06747375428676605 0.0482734739780426 0.08407925069332123 0.05386098846793175 -0.0362682044506073 -0.18725858628749847 0.1129438504576683 -0.23980775475502014 -0.471536248922348 0.40360260009765625 -0.00709272176027298 -0.21364931762218475 -0.22326251864433289 -0.09846284985542297 0.030667319893836975 -0.02934015914797783 -0.05285473167896271 0.044339053332805634 0.44467753171920776 0.22840921580791473 0.1200864315032959 -0.26574599742889404 -0.6661806106567383 -0.4116652011871338 -0.7685317993164062 -0.3892960548400879 -0.004997576586902142 0.05495556816458702 -0.09649007022380829 0.2584958076477051 -0.055369626730680466 0.22911885380744934 -0.28484275937080383 -0.10329383611679077 -0.13053175806999207 0.44805264472961426 -0.18278658390045166 -0.44112151861190796 -0.45871633291244507 0.2696807086467743 0.06025809049606323
node_23	-0.1557939350605011 0.30105531215667725 0.053634315729141235 -0.01905667781829834 1.4146331548690796 -0.43012604117393494 -0.024186179041862488 0.41486161947250366 0.34811529517173767 -0.5228819251060486 0.027158915996551514 0.038483113050460815 0.4586319923400879 -0.2822672724723816 0.11413305252790451 -0.7463984489440918 0.6762837767601013 0.6505300402641296 -0.086665078997612 0.2814132273197174 -0.1881295144557953 0.16205169260501862 0.07852697372436523 0.16864800453186035 -0.23153230547904968 0.13718467950820923 0.44366663694381714 0.24691157042980194 0.16809473931789398 0.12270182371139526 -0.3109784722328186 0.18353013694286346 0.04448140785098076 -0.03594835847616196 -0.38114839792251587 -0.1308405101299286 -0.5936723947525024 0.12320497632026672 0.6816293001174927 0.18117853999137878 -0.4705903232097626 0.599250316619873 0.2776595950126648 -0.1417199969291687 0.09498465061187744 0.07709503173828125 -0.39545875787734985 0.17527985572814941 0.21259072422981262 -0.16687676310539246 0.010993517935276031 -0.18635797500610352 -0.13543550670146942 0.09440360963344574 -0.021252881735563278 0.40116947889328003 -0.3574404716491699 -0.22455476224422455 0.5690447092056274 -0.17278294265270233 0.3025514781475067 0.7254509925842285 0.18784192204475403 1.0436811447143555 0.01578020118176937 0.22024397552013397 -0.08845239877700806 -0.7646902799606323 0.24356380105018616 -0.10613580793142319 -0.003916330635547638 0.07325387001037598 0.14273399114608765 -0.10203894227743149 -0.01211352925747633 0.2643503248691559 0.2260311245918274 -1.748035192489624 -0.034069254994392395 0.527188241481781 0.1125294417142868 -0.1747668832540512 1.3981155157089233 -0.21209454536437988 -0.257144570350647 -0.6791712641716003 0.17699329555034637 -0.026323482394218445 0.18695160746574402 0.5539692640304565 0.11198108643293381 0.08027271926403046 -0.14068293571472168 0.6919933557510376 -0.04178246483206749 0.2511497735977173 -0.225178524851799 -0.5755087733268738 -0.3574538230895996 0.147736594080925 0.4074487090110779 -0.000964707403909415 0.28852397203445435 0.2704852819442749 0.004197341855615377 -0.29922738671302795 0.03508075326681137 -0.1325816959142685 0.09280243515968323 0.4117056727409363 0.20641706883907318 0.07415341585874557 -0.19026553630828857 0.018694162368774414 -0.26371461153030396 0.34212300181388855 -0.2588701844215393 0.0629974752664566 0.011505067348480225 0.2329012155532837 0.46464771032333374 -0.06635411083698273 0.3007342219352722 -0.17037788033485413 -0.4173445403575897 0.5172385573387146 0.2339920699596405 0.07383057475090027 -0.09092345088720322 -0.27726027369499207 -0.21790221333503723 -0.5227309465408325 -0.302981972694397 0.42848655581474304 0.18203148245811462 0.19616100192070007 -0.0650816485285759 0.19469527900218964 -0.1161707267165184 -0.09044065326452255 -0.41110944747924805 0.13971523940563202 0.43347859382629395 0.10087184607982635 0.6286982297897339 -0.19261936843395233 -0.15941697359085083 -0.17451387643814087 -0.18364185094833374 0.36981862783432007 0.08022460341453552 0.3244328200817108 -0.013537517748773098 0.16081295907497406 -0.5783728957176208 0.30274489521980286 -0.44290584325790405 0.16135874390602112 -0.4239821434020996 0.637692928314209 0.1632765233516693 0.12959794700145721 0.26648759841918945 -0.04999331757426262 -0.19858595728874207 0.20483136177062988 -0.31998786330223083 0.1339840590953827 0.07284398376941681 1.1572134494781494 -0.27686187624931335 -0.012506045401096344 -0.1040041595697403 -0.13023312389850616 -0.08234062790870667 0.0022971853613853455 -0.3362271189689636 -0.06436874717473984 -0.048478007316589355 0.06331121176481247 0.07198529690504074 0.10340438783168793 0.3021748661994934 -0.2948651611804962 0.06809938699007034 0.2555882930755615 0.11459551751613617 -0.0988231748342514 -0.1999252736568451 -0.22861632704734802 -0.4237786531448364 -0.15088021755218506 0.025379961356520653 -0.443651407957077 0.1151607558131218 0.6257083415985107 0.11368810385465622 -0.07102525234222412 -0.0727759376168251 -0.03677893429994583 -0.3353549838066101 -0.15265309810638428 0.6524851322174072 -0.12701156735420227 0.01786717399954796 0.3032773733139038 0.12427444756031036 -0.3484378457069397 -0.3309755325317383 -0.06405279040336609 -0.027562759816646576 0.509699821472168 -0.18663200736045837 -0.13629387319087982 0.2653920650482178 -0.06809833645820618 -0.23689234256744385 0.18260475993156433 -0.30600857734680176 -0.9705879092216492 -0.012842300347983837 -0.1255750060081482 -0.5179086923599243 -0.8129445314407349 -0.24571645259857178 0.14608488976955414 0.012870684266090393 0.06320847570896149 0.3385540843009949 0.07733406126499176 0.07307833433151245 0.14859874546527863 -0.7381730079650879 -0.04598245769739151 0.4480230510234833 -0.16971564292907715 -0.3142410218715668 0.18003325164318085 0.04613726958632469 0.08911164849996567 -0.07823898643255234 0.10628225654363632 -0.0009768009185791016 0.4335666596889496 -0.027771614491939545 -0.2165164202451706 0.11363007128238678 -0.16509614884853363 -0.009401182644069195 -0.06885072588920593 -0.060826025903224945 -0.23002175986766815 0.06536438316106796 0.014572642743587494 0.7618869543075562 -0.11135154217481613 0.31884318590164185 0.031037800014019012 0.049195945262908936 -0.34198471903800964 0.11912381649017334 0.0010768945794552565 0.212144672870636 -0.3841133713722229 -0.14683538675308228 -0.09919457137584686 -0.048439737409353256 0.025516092777252197 -0.24237486720085144 0.07739709317684174 0.1624336540699005 -0.020390033721923828 0.0951925665140152 0.34768256545066833 -0.010827571153640747 0.006855460815131664 0.1448429524898529 -0.035861603915691376 -0.24039816856384277 -0.03040432557463646 0.17360518872737885 -0.22465744614601135 -0.5428096652030945 -0.35500115156173706 -0.10616435110569 -0.47340866923332214 0.24224868416786194 -0.72013920545578 0.12925688922405243 0.13767606019973755 -0.16017645597457886 0.4737839698791504 -0.35761362314224243 0.28036364912986755 -0.21766993403434753 0.18349650502204895 0.13707378506660461 0.29311642050743103 0.19961881637573242 0.08022889494895935 -0.04082268476486206 0.09022527188062668 0.2133111208677292 -0.11877454817295074 0.2410358190536499 -0.4645557403564453 0.14488178491592407 -0.11717861890792847 -0.08485767245292664 0.2181837409734726 -0.1992725431919098 -0.045849502086639404 -0.14737582206726074 0.2980407178401947 0.0763741135597229 0.25466299057006836 -0.000627239583991468 -0.42403191328048706 0.6067509651184082 0.13660928606987 -0.13711871206760406 -0.408962607383728 -0.3709426820278168 -0.1091105043888092 -0.0798090249300003 0.12470634281635284 0.3112853467464447 -0.03969714418053627 0.24880558252334595 0.4809756278991699 0.6842159032821655 0.9131114482879639 0.34054169058799744 0.4344840943813324 0.13448528945446014 0.2348424196243286 -0.2753978371620178 -0.17640817165374756 -0.0094540324062109 -0.3518678545951843 0.4331035614013672 -0.24536184966564178 0.18133525550365448 0.1359376460313797 0.2330518364906311 -0.014940368011593819 0.8166941404342651 0.002807451179251075 -0.14239895343780518 -0.40367192029953003 -0.19236788153648376 -0.23569278419017792 -0.08650624752044678 -0.4938734471797943 0.3289719820022583 0.5822480916976929 0.035577937960624695 -0.027581196278333664 -0.1326330602169037 -0.28728243708610535 -0.13700419664382935 0.9348306655883789 -0.034497376531362534 -0.19269073009490967 -0.40451130270957947 -0.2132091224193573 -0.9156254529953003 -0.05164208263158798 0.13611485064029694 -0.014230999164283276 -0.07336138933897018 0.15183888375759125 0.2484673708677292 -0.28192517161369324 0.24462032318115234 -0.014252468943595886 0.5390202403068542 0.22397254407405853 -0.18089458346366882 -0.24340038001537323 0.08113130182027817 0.2565055787563324 0.18011729419231415 0.3798985481262207 0.10935041308403015 -0.19635939598083496 0.009406200610101223 0.18924163281917572 -0.0975310206413269 0.094487264752388 0.06652158498764038 0.10461213439702988 0.3814006745815277 0.2281031608581543 -0.2223186194896698 0.008713040500879288 0.4035906195640564 -0.030256470665335655 -0.2165096402168274 -0.015067249536514282 0.01704408973455429 0.005159860011190176 -0.16389432549476624 -0.24908296763896942 0.21549616754055023 0.32114264369010925 0.046418964862823486 0.04431920871138573 -0.4166600704193115 -0.7409191131591797 -0.38113412261009216 -0.2708469331264496 -0.26146528124809265 -0.35690081119537354 -0.20224158465862274 -0.08703749626874924 0.09269694983959198 -0.13251809775829315 -0.36962851881980896 0.03547203168272972 0.3903507590293884 0.14343157410621643 0.6302189826965332 -0.16895751655101776 -0.31586700677871704 0.16235433518886566 -0.6724047660827637 -0.23871265351772308 -0.11128376424312592 -0.11011749505996704 -0.10616835206747055 -0.07521820813417435 0.09472175687551498 -0.008437040261924267 -0.1435525268316269 -0.19578903913497925 0.13339929282665253 -0.06665971130132675 -0.32045698165893555 0.323194682598114 -0.4439719319343567 -0.1141156479716301 -0.17955946922302246 0.4570576548576355 -0.20736932754516602 0.3278721272945404 -0.42800435423851013 -0.10804801434278488 -0.12859982252120972 0.01235957257449627 -0.3983098864555359 0.4721808135509491 -0.613614559173584 -2.3406217098236084 0.421625554561615 0.16385266184806824 0.08448466658592224 0.043618094176054 0.18559598922729492 0.1798679232597351 -0.10283325612545013 0.15324851870536804 0.41790732741355896 0.22516071796417236 -0.06188071519136429 0.3773893117904663 0.13933995366096497 0.2647988200187683 -0.366211861371994 -0.05023881420493126 -0.0358457937836647 0.45617812871932983 0.0891118273139 0.16992881894111633 -0.05971474573016167 0.3949149250984192 -0.3255423605442047 -0.11083748191595078 0.25382113456726074 0.04677937924861908 -0.0008875330677255988 0.2605978846549988 -0.012708201073110104 -0.05207853764295578 0.08787308633327484 0.05053055286407471 -0.22588519752025604 -0.007193903438746929 0.2593975067138672 -0.49814295768737793 -0.43156346678733826 0.10173933207988739 -0.36040550470352173 0.4700276553630829 0.04508129879832268 0.05702730268239975 -1.2417134046554565 -0.2021579146385193 0.048670511692762375 -0.20669648051261902 0.07114583998918533 0.1602446287870407 0.3917253911495209 0.19696524739265442 0.42435547709465027 0.017175745218992233 -0.14446401596069336 -0.32835352420806885 -0.059628453105688095 -0.15053999423980713 0.4553925693035126 0.09398113936185837 -0.0059969378635287285 0.07624181360006332 -0.17206931114196777 -0.31698864698410034 -0.04589621722698212 0.25851961970329285 -0.1374792903661728 -0.8547164797782898 -0.1770617812871933 0.16346953809261322 -0.19750091433525085 -0.12768006324768066 0.11422204971313477 -0.003529764711856842 0.2325097769498825 -0.2536165118217468 0.03162265568971634 -0.2589583694934845 0.2832057476043701 -0.015151474624872208 0.25236064195632935 0.0697861984372139 0.30679768323898315 0.3154382109642029 -0.1354554295539856 -0.03528781235218048 0.504116415977478 -0.24898770451545715 0.2110106647014618 0.37866342067718506 -0.12117671966552734 0.015676697716116905 0.5324288606643677 -0.07244546711444855 0.47133946418762207 0.2154344916343689 0.048232801258563995 0.06642158329486847 0.15589037537574768 3.223473310470581 0.34604978561401367 0.07971766591072083 -0.4457293450832367 0.23264485597610474 0.2736281156539917 0.21212467551231384 0.06682519614696503 -0.16833697259426117 0.12492857873439789 0.08619764447212219 0.27829551696777344 0.024898415431380272 -0.6449217200279236 0.3773112893104553 0.536170244216919 -0.24298112094402313 -0.017551403492689133 0.27321895956993103 -0.36212247610092163 0.363180011510849 0.05711814761161804 0.06750336289405823 -0.20492133498191833 0.03583787381649017 0.019044367596507072 0.39218538999557495 0.3788829445838928 0.3288138508796692 0.05810500308871269 -0.06429006159305573 0.09547623246908188 -0.13454574346542358 0.2642139196395874 0.03506966680288315 0.2934165298938751 -0.4076889455318451 10.771400451660156 -0.12282787263393402 -0.018775582313537598 -0.15527038276195526 0.2130872905254364 -0.22560906410217285 0.0818408653140068 0.2782096862792969 -0.2262670248746872 0.054156675934791565 -0.10678573697805405 -0.12297892570495605 -0.16715745627880096 -0.521140456199646 -0.13815802335739136 0.00855187140405178 0.029431482776999474 0.5500345230102539 0.0317000150680542 -0.2425346076488495 0.012080065906047821 0.09259772300720215 0.12287767231464386 0.8516936302185059 -0.22546789050102234 0.02970142289996147 -0.4544088542461395 0.2596721351146698 0.17058086395263672 -0.3145374059677124 0.17476579546928406 -0.3300071358680725 -0.04664022848010063 -0.2183915078639984 0.20290648937225342 0.2900787591934204 -0.8722790479660034 -0.08794926106929779 0.07075345516204834 -0.08714425563812256 -0.006506741046905518 -0.2740233838558197 0.16518200933933258 0.10018329322338104 0.21324317157268524 0.28865134716033936 -0.4840819835662842 0.15941494703292847 0.16503971815109253 0.09476695954799652 0.2272990345954895 0.07910483330488205 0.07954902946949005 -0.6880108714103699 -0.18069317936897278 -0.08855889737606049 0.5017992854118347 0.07151895761489868 -0.10668870061635971 -0.8198081851005554 -0.06518656015396118 0.24708864092826843 0.042881038039922714 -0.043490659445524216 -0.09384369850158691 -0.2399490773677826 0.31794100999832153 0.6313169002532959 0.21856069564819336 0.1110566258430481 0.03209705650806427 0.007151125930249691 0.039765097200870514 -0.05002596974372864 -0.3064647316932678 -0.2771780490875244 0.20586024224758148 -0.22555434703826904 -0.22559496760368347 -0.19751766324043274 0.09115621447563171 0.5596112012863159 0.10344177484512329 0.1691771000623703 -0.199441060423851 0.07169698178768158 0.25136733055114746 -0.09615415334701538 -0.31813088059425354 -0.20863577723503113 -0.29903680086135864 -0.1795535534620285 0.14316041767597198 -0.35850095748901367 0.24456331133842468 0.16099566221237183 -0.1883832812309265 0.14930304884910583 0.33667096495628357 -0.1076328456401825 -0.4860990047454834 0.25895652174949646 -0.38847655057907104 0.14224475622177124 0.17106696963310242 0.06009749323129654 0.5256142020225525 -0.3842977285385132 0.003316198941320181 0.27089405059814453 -0.19056713581085205 0.3714190423488617 0.27873802185058594 0.30472174286842346 -0.37419018149375916 -0.47644948959350586 0.19103853404521942 -0.1694115847349167 0.2068045437335968 0.545194149017334 -0.28644657135009766 -0.11102944612503052 0.039268575608730316 -0.31698495149612427 0.006678757257759571 0.013227547518908978 -0.10827799886465073 0.36425507068634033 0.1869025081396103 0.18394669890403748 -0.3263236880302429 -0.07980990409851074 -0.7187895774841309 0.47046345472335815 0.12141238152980804 -0.3652321696281433 0.10375812649726868 -0.21961519122123718 0.3915291726589203 -0.08804279565811157 0.11502759158611298 0.22333669662475586 -0.0037668885197490454 -0.516207218170166 -0.10927646607160568 -0.1634196639060974 0.0632302463054657 0.4249458312988281 0.2361016571521759 -0.26372164487838745 -0.060067933052778244 -0.2263486683368683 -0.06491006165742874 0.2776702642440796 -0.06966760754585266 0.05778985843062401 -0.08247622102499008 0.34836655855178833 0.24794761836528778 0.13414788246154785 0.19718804955482483 -1.3630902767181396 -0.5384488105773926 -0.6403505206108093 -0.174122616648674 -0.03619369864463806 0.17008376121520996 -0.28886520862579346 0.01999824307858944 0.05287633463740349 0.3913651406764984 -0.3669443130493164 -0.1943923681974411 -0.08416464179754257 0.4815831184387207 -0.30487489700317383 -0.23575328290462494 -0.7692897319793701 0.2326771318912506 0.034495964646339417
node_10	-0.037218496203422546 0.16521088778972626 0.14329826831817627 0.08716064691543579 0.5740518569946289 -0.4067160487174988 -0.06999795138835907 0.39789879322052 0.09736402332782745 -0.5379320979118347 -0.16299515962600708 0.7612637281417847 0.24976393580436707 -0.4315204620361328 0.05743592604994774 0.12562087178230286 0.5244725942611694 0.28579914569854736 -0.13431215286254883 -0.5000394582748413 -0.045162759721279144 -0.07180684059858322 0.1340673267841339 0.4467557668685913 -0.47080564498901367 -0.04746859893202782 0.30623161792755127 0.08431931585073471 0.3953879773616791 0.16339702904224396 -0.5609464645385742 0.17131966352462769 0.15687166154384613 0.017806336283683777 -0.35250627994537354 -0.04449276626110077 -0.34591203927993774 0.12168308347463608 0.10188110917806625 0.2082251012325287 -0.437910258769989 0.46603673696517944 0.2314845770597458 -0.13147833943367004 0.12588191032409668 -0.05863694101572037 -0.07717962563037872 0.01334243081510067 0.2709062695503235 -0.14308327436447144 -0.0738597884774208 -0.21472780406475067 0.04634531959891319 0.10029800981283188 -0.15643903613090515 0.32164138555526733 -0.39090484380722046 -0.04329277202486992 0.381746381521225 -0.03528168797492981 0.2860129773616791 0.5736193060874939 -0.027577701956033707 0.31850847601890564 0.024927806109189987 0.2623591423034668 -0.08029434084892273 -0.27595171332359314 0.22397911548614502 -0.0743129551410675 -0.04337267577648163 0.11202388256788254 0.09250979870557785 0.17968279123306274 -0.18630465865135193 0.06661216914653778 0.3227781653404236 -1.312174677848816 0.17720267176628113 0.6291394233703613 0.05870410427451134 -0.007932375185191631 1.3412059545516968 -0.03810920938849449 0.09683015197515488 -1.041078805923462 0.2153920829296112 -0.06335966289043427 0.11545892804861069 0.2570856809616089 0.5455717444419861 0.2641616761684418 -0.0846201479434967 0.04442984610795975 -0.14160817861557007 0.1581597924232483 -0.11442264169454575 0.23724810779094696 -0.37496113777160645 0.10053246468305588 0.17930465936660767 -0.09100300073623657 0.3328321874141693 -0.2779257297515869 0.17927628755569458 0.3453209400177002 -0.11125923693180084 -0.39283329248428345 -0.0010179132223129272 0.2041991651058197 0.24702945351600647 0.0060583180747926235 -0.011475712060928345 -0.01432498823851347 -0.2258504331111908 0.36896759271621704 -0.10500355064868927 0.04771515354514122 -0.08456133306026459 -0.18203210830688477 0.319522500038147 -0.1267167180776596 -0.088075190782547 -0.095173180103302 -0.18264970183372498 0.4087529182434082 0.27084803581237793 -0.08359362930059433 -0.006943253334611654 -0.26289719343185425 -0.2882053852081299 -0.8137364387512207 -0.14223399758338928 -0.1775144338607788 0.03345588967204094 0.17187365889549255 0.06894692033529282 0.046816449612379074 -0.022413579747080803 0.010550295934081078 -0.29170727729797363 0.020311689004302025 0.17136800289154053 0.13355745375156403 0.4079475402832031 -0.3371811807155609 -0.0119741540402174 -0.28281617164611816 -0.32755494117736816 0.10715872049331665 -0.057992156594991684 0.41462835669517517 -0.1383589804172516 -0.03931101784110069 -0.43807777762413025 0.44352802634239197 -0.15993806719779968 0.08241680264472961 -0.42244046926498413 0.8883518576622009 0.19385384023189545 0.057704150676727295 0.4194888472557068 0.052759017795324326 -0.04763851314783096 0.10380591452121735 -0.23318827152252197 -0.1440010815858841 0.084510438144207 0.7023160457611084 -0.17211264371871948 0.03275524079799652 -0.14811396598815918 -0.2810156047344208 0.008471352979540825 -0.1024605855345726 -0.037471428513526917 -0.12208294868469238 -0.14177829027175903 0.017792312428355217 -0.07232057303190231 0.022971076890826225 0.20683687925338745 -0.40178367495536804 0.14942163228988647 0.48890194296836853 0.09081848710775375 -0.3774723410606384 -0.30768054723739624 0.014583026990294456 -0.2562311887741089 -0.008173545822501183 0.27453097701072693 -0.09814165532588959 0.17335236072540283 0.08038337528705597 -0.0432053878903389 -0.10868501663208008 0.17448416352272034 -0.09870558977127075 -0.3066863417625427 0.021849211305379868 0.4368053078651428 -0.05429492145776749 0.03563991189002991 0.3101034164428711 -0.3444417417049408 -0.1697743982076645 -0.4558376669883728 0.14651817083358765 -0.2587270140647888 1.1822140216827393 -0.028324952349066734 0.02131134271621704 0.4732685089111328 -0.10505755990743637 -0.41543400287628174 0.35556477308273315 -0.06626105308532715 -0.9325542449951172 0.0800350233912468 -0.06666357815265656 -0.20239081978797913 -0.6919506788253784 0.24551546573638916 0.36656785011291504 0.17886702716350555 0.08260460942983627 0.2856830060482025 -0.08176672458648682 0.06598388403654099 -0.2976594567298889 -0.30661675333976746 -0.2847993075847626 0.3197110593318939 -0.3679938018321991 -0.3086181581020355 0.2567540109157562 0.1013934463262558 0.13188673555850983 -0.38620829582214355 0.18060939013957977 -0.06798156350851059 0.39628612995147705 0.027689754962921143 -0.19253084063529968 -0.0018522217869758606 -0.2028161883354187 -0.13205820322036743 -0.18596038222312927 -0.04444877803325653 0.17424844205379486 -0.03563864901661873 0.05986712872982025 0.029227998107671738 -0.27453941106796265 0.23055027425289154 -0.009062126278877258 -0.01823577843606472 0.07825710624456406 0.1379249542951584 -0.011251121759414673 0.022406622767448425 -0.32356297969818115 -0.26814067363739014 -0.30537497997283936 -0.12791135907173157 0.06542770564556122 -0.26626184582710266 -0.08513914793729782 0.18175911903381348 0.00035796183510683477 0.06340727210044861 0.3143731951713562 -0.10868231952190399 0.16086828708648682 0.007154201623052359 -0.05351535975933075 -0.31722110509872437 -0.12022089958190918 -0.09525102376937866 -0.2333642691373825 -0.3059486150741577 -0.4374699592590332 -0.08932655304670334 -0.37467774748802185 0.08212392777204514 -0.4040474593639374 0.09980177134275436 0.10472744703292847 -0.33746466040611267 0.4590068459510803 -0.4221682548522949 0.367135614156723 -0.30596932768821716 0.2435726523399353 0.17069941759109497 0.373360812664032 0.22449706494808197 0.25762617588043213 -0.02864380180835724 0.05800139904022217 -0.006550212856382132 -0.08592990040779114 0.21507859230041504 -0.34797000885009766 0.4624207019805908 -0.13664138317108154 -0.05676555261015892 0.12472876906394958 -0.1020214855670929 0.04683190584182739 -0.18163703382015228 0.29459530115127563 -0.012575971893966198 0.19504396617412567 0.059513092041015625 -0.446629136800766 0.4509471654891968 0.00490947999060154 -0.18840709328651428 -0.15494345128536224 -0.3264380097389221 0.13527826964855194 0.10844745486974716 0.08003933727741241 0.15559470653533936 0.06883420050144196 0.29599618911743164 0.43165123462677 1.3866403102874756 0.7448357939720154 0.20629869401454926 0.6674247980117798 0.07862987369298935 0.20712852478027344 -0.1467706710100174 -0.04896026849746704 -0.06623704731464386 -0.01578310690820217 0.09629254043102264 -0.20497748255729675 0.12725971639156342 0.1455909013748169 0.33734309673309326 -0.10823087394237518 0.8037500381469727 0.09810101985931396 0.25722578167915344 -0.10560232400894165 0.002733055502176285 -0.23093228042125702 0.011852547526359558 -0.40614891052246094 0.4619729518890381 0.1344994306564331 -0.07522320002317429 -0.18287718296051025 0.07901405543088913 -0.36156731843948364 -0.19260112941265106 0.7291851043701172 0.06170761212706566 -0.20289215445518494 -0.1589657962322235 -0.157107412815094 -0.8568496704101562 -0.11784197390079498 0.049954287707805634 0.039439182728528976 0.03520398214459419 0.028286000713706017 0.22616711258888245 0.3758525252342224 0.037872154265642166 0.04632172733545303 0.725044846534729 0.4197116792201996 0.23470310866832733 -0.1953074187040329 -0.20669326186180115 0.3252657949924469 0.23577654361724854 0.29247236251831055 0.04284801334142685 -0.18803606927394867 -0.21064329147338867 0.22772984206676483 0.1816904991865158 0.18415045738220215 0.2892957329750061 0.136613130569458 0.3527732789516449 0.29486438632011414 -0.14794179797172546 0.08616004884243011 0.22896841168403625 0.09910096228122711 -0.0003134409780614078 0.03452020511031151 0.19174709916114807 0.18692615628242493 -0.041736673563718796 -0.10082685202360153 0.35075563192367554 0.1883518546819687 -0.029912985861301422 0.10757188498973846 -0.47868287563323975 -0.5257440805435181 -0.26497703790664673 -0.22971966862678528 -0.4004165530204773 -0.30387425422668457 -0.2544163167476654 -0.07193755358457565 0.0015669912099838257 -0.41034695506095886 -0.4314885139465332 0.24326658248901367 0.38872668147087097 -0.04542500525712967 0.3963136672973633 -0.07022054493427277 -0.21085125207901 0.2687138319015503 -0.5908941626548767 -0.12894123792648315 -0.9002763032913208 -0.19114211201667786 -0.032575320452451706 -0.043091632425785065 0.013673162087798119 -0.06637133657932281 0.0006063183536753058 0.01700533926486969 0.06112312525510788 -0.15290868282318115 -0.042362283915281296 0.20466572046279907 -0.5458446741104126 -0.10470788925886154 -0.23392686247825623 0.4257931113243103 -0.2908896207809448 0.2747705280780792 0.07508309930562973 -0.1718980073928833 -0.2843480110168457 0.10986413806676865 -0.2523590326309204 0.08954690396785736 -0.8468834757804871 -2.312284469604492 0.3942418098449707 0.20145229995250702 0.13376110792160034 0.2195570319890976 0.1300312876701355 0.1727178990840912 -0.11680182069540024 0.040294915437698364 0.2278439700603485 0.4343051314353943 -0.06354912370443344 0.06032819673418999 0.11549871414899826 0.06510356068611145 -0.10805279016494751 -0.021788116544485092 0.16304156184196472 0.5204133987426758 0.01085070800036192 0.15871959924697876 -0.013684285804629326 0.2741628885269165 0.02957278862595558 -0.16672490537166595 0.12393566966056824 0.2441835105419159 0.025725863873958588 0.12659339606761932 -0.207534521818161 -0.1067909225821495 -0.03331279754638672 0.014774903655052185 -0.26482897996902466 0.0382755771279335 0.2984812259674072 -0.2565087378025055 -0.17513827979564667 0.20898306369781494 -0.11881613731384277 0.4067624509334564 0.07081057131290436 0.010041358880698681 -1.2232520580291748 0.0763813704252243 -0.6164730191230774 -0.18522879481315613 0.09394272416830063 0.20893524587154388 0.21260809898376465 0.061570264399051666 0.24949602782726288 -0.0076094153337180614 -0.1800619661808014 -0.08924447745084763 0.09431053698062897 -0.23973259329795837 0.17025548219680786 0.16029804944992065 -0.06216040253639221 0.17392036318778992 -0.16496513783931732 -0.08861863613128662 0.055800940841436386 0.17519766092300415 0.5791705846786499 -0.1472255438566208 -0.11173348128795624 0.21525824069976807 -0.2178257703781128 -0.24168190360069275 0.16490089893341064 0.08877673000097275 0.2708718180656433 -0.026925092563033104 0.00027296942425891757 -0.5665183067321777 0.4356057345867157 -0.011760897003114223 0.135530024766922 0.18227629363536835 0.5971350073814392 0.1049230545759201 -0.2512072026729584 0.15597164630889893 0.1657903492450714 -0.4722382724285126 0.40157628059387207 0.38265857100486755 -0.027175363153219223 -0.03792760148644447 0.3770497739315033 -0.07567355036735535 0.13099361956119537 0.14657118916511536 0.1056763082742691 0.1355518102645874 -0.19340281188488007 2.568906784057617 0.3485187888145447 0.013241574168205261 -0.26398414373397827 0.11741851270198822 0.19871561229228973 0.021760007366538048 0.07265456020832062 -0.13601624965667725 -0.0377538800239563 -0.3400228023529053 0.0901963859796524 -0.1074090301990509 -0.7985522150993347 0.34918734431266785 0.35875630378723145 -0.08785746991634369 0.1358877420425415 0.19403193891048431 -0.48553764820098877 0.22641043365001678 0.04712454602122307 0.4498067796230316 -0.16951480507850647 -0.09038884937763214 0.11440183222293854 -0.12568718194961548 0.19207808375358582 0.17190992832183838 0.26915740966796875 -0.11917369067668915 0.0014397999038919806 -0.49275338649749756 0.2944149374961853 0.11759328097105026 -0.012041270732879639 -0.30669426918029785 11.157188415527344 -0.04790700599551201 0.18783341348171234 -0.06713414192199707 0.29277122020721436 -0.22332820296287537 0.1864829957485199 0.08809127658605576 0.0036601077299565077 0.04370059818029404 -0.2654529809951782 0.008506156504154205 0.021380241960287094 -0.6324493288993835 -0.0593579038977623 0.1212935596704483 0.6844736933708191 0.2515212297439575 0.22214928269386292 -0.2509002387523651 -0.13304343819618225 -0.01033589243888855 -0.06580135226249695 0.6516664028167725 -0.140252023935318 -0.0019981018267571926 -0.4384232461452484 0.36723601818084717 0.06281878054141998 -0.10974602401256561 0.30827826261520386 -0.1995144933462143 0.09466241300106049 -0.16890814900398254 0.14792796969413757 0.4373350143432617 -0.6927967071533203 -0.18866412341594696 0.10182462632656097 -0.23992806673049927 -0.1032748818397522 -0.22870266437530518 0.04862850904464722 -0.04883037507534027 0.23216162621974945 0.29271218180656433 -0.5002306699752808 0.25984081625938416 0.30045825242996216 -0.01698204129934311 0.09522467106580734 0.298895001411438 0.15731625258922577 -0.355512797832489 -0.07556557655334473 0.07207882404327393 0.42617255449295044 0.13071681559085846 -0.10848327726125717 -0.7688658237457275 0.037596456706523895 0.08145256340503693 -0.012539563700556755 0.17632123827934265 0.42538779973983765 -0.34844040870666504 0.5042940974235535 0.3950289189815521 0.021552879363298416 0.23470339179039001 -0.03338126838207245 -0.21725863218307495 -0.017791880294680595 0.12061402201652527 -0.306831955909729 -0.4348267912864685 -0.3412020802497864 -0.3356190621852875 -0.19640609622001648 0.026791661977767944 0.04494675621390343 0.4164375066757202 -0.016297031193971634 0.005879330448806286 -0.604127824306488 0.10041459649801254 0.2389061152935028 -0.057222962379455566 0.012790581211447716 -0.16674451529979706 -0.28747105598449707 -0.09074467420578003 0.012327179312705994 -0.24357765913009644 0.050245966762304306 0.10022567212581635 -0.06175560876727104 0.046252861618995667 0.25453823804855347 0.002468317747116089 -0.3055887818336487 0.35445088148117065 -0.37522393465042114 0.07316411286592484 0.1395290344953537 0.1273391842842102 0.060803454369306564 -0.5879644155502319 0.05136977136135101 0.15889209508895874 -0.1315443217754364 0.014592697843909264 0.04181794822216034 0.23905813694000244 -0.11429530382156372 -0.3623088002204895 0.08860673010349274 -0.03214433789253235 0.09179916232824326 0.7000699043273926 -0.19848166406154633 0.08449108898639679 0.03479703515768051 -0.3740338981151581 -0.03572959825396538 -0.077094167470932 -0.08336371183395386 0.2624583840370178 0.22033719718456268 0.11070185154676437 -0.033616457134485245 0.07062751054763794 0.25147926807403564 0.1944044828414917 0.003371353028342128 -0.189121812582016 0.20865574479103088 -0.0821327269077301 0.23948967456817627 0.03456394374370575 -0.08726897090673447 0.14936593174934387 -0.017414234578609467 -0.7576529383659363 -0.18975231051445007 0.29512643814086914 -0.4494397044181824 -0.27070122957229614 0.41099199652671814 -0.03350836783647537 -0.19451066851615906 -0.22383973002433777 0.019650131464004517 0.02614935301244259 -0.131089985370636 0.13585983216762543 0.13188672065734863 0.5528907179832458 0.20319661498069763 0.06336943805217743 -0.00828495156019926 -0.7057108879089355 -0.45532673597335815 -0.3414604663848877 0.2544702887535095 0.04578755050897598 -0.00462274020537734 -0.14374594390392303 0.3564668893814087 -0.1378374993801117 0.20399585366249084 -0.21113738417625427 -0.05769167095422745 -0.11104036867618561 0.5298577547073364 -0.16911852359771729 -0.49063369631767273 -0.7185673713684082 0.18102890253067017 0.031884968280792236
node_29	-0.05162810906767845 0.23886477947235107 0.09561751782894135 -0.017009489238262177 1.3358173370361328 -0.6363461017608643 0.12487664073705673 0.3789467215538025 0.15308892726898193 -0.5159943103790283 0.3943178653717041 0.5046263933181763 0.21711884438991547 -0.7986406683921814 0.2505601644515991 -0.5697602033615112 0.40043875575065613 0.6365816593170166 -0.11381061375141144 0.03174795210361481 -0.18158595263957977 0.2459551990032196 -0.2090589702129364 0.37974923849105835 -0.18041196465492249 0.09422218054533005 0.4963568150997162 0.2811184227466583 0.42712587118148804 0.7013570070266724 -0.075963094830513 0.12696073949337006 0.02113320305943489 -0.05574692785739899 -0.5367600917816162 0.016368379816412926 -0.5838279724121094 0.24984048306941986 0.24844521284103394 -0.08848021924495697 -0.5572872161865234 0.27044856548309326 0.39052078127861023 -0.18770155310630798 0.0881202444434166 -0.11293137073516846 0.03718393296003342 0.3703082501888275 0.25389060378074646 -0.276256799697876 0.1940450519323349 -0.36496075987815857 -0.23438537120819092 -0.030583787709474564 -0.21974840760231018 0.2631925940513611 -0.34990429878234863 0.1388700306415558 0.6025261282920837 -0.1984223574399948 0.3253327012062073 -0.31763553619384766 0.2745284140110016 0.3830828070640564 -0.014152100309729576 0.36618614196777344 -0.031842321157455444 -0.7918478846549988 0.3858972191810608 -0.06449388712644577 -0.11029111593961716 0.18648092448711395 0.02505709044635296 -0.4791387915611267 -0.08998288959264755 -0.15960660576820374 0.22059063613414764 -1.5000171661376953 -0.118130624294281 0.5766944885253906 0.04477308690547943 -0.37130364775657654 1.5445833206176758 0.04232379421591759 -0.28284236788749695 -0.8722418546676636 0.16258639097213745 -0.18266402184963226 0.13820725679397583 0.5578903555870056 0.31861597299575806 0.046383053064346313 -0.21159391105175018 0.273799866437912 -0.027823060750961304 0.1083112359046936 -0.36302313208580017 -0.5806010961532593 -0.37568777799606323 -0.02824336290359497 0.49454864859580994 -0.08408274501562119 0.2861897945404053 0.2286708801984787 0.0864606499671936 -0.17707568407058716 0.1678583323955536 -0.34620150923728943 0.05539767071604729 0.2976304292678833 0.1766108274459839 -0.4402939975261688 -0.0553409717977047 -0.06747956573963165 -0.40511053800582886 0.38369831442832947 -0.11682894080877304 0.27973711490631104 -0.10428744554519653 0.24776439368724823 0.4301183819770813 0.07529293745756149 0.012461720034480095 -0.2308853715658188 -0.20755985379219055 0.3206871449947357 0.39730721712112427 -0.1514856219291687 -0.15961173176765442 -0.3183877468109131 -0.092217355966568 -0.733910322189331 -0.13288626074790955 -0.07453655451536179 0.030860362574458122 0.2524850368499756 0.0038752430118620396 0.0024514547549188137 -0.0083369305357337 -0.0019473370630294085 -0.3022191822528839 0.1739272177219391 0.4190203547477722 0.1854913830757141 0.48394283652305603 -0.32389748096466064 -0.16165868937969208 -0.29796117544174194 -0.28167271614074707 0.3076072335243225 -0.1602647751569748 0.5052728652954102 -0.03509857878088951 0.10788218677043915 -0.42940276861190796 0.28758060932159424 -0.47259610891342163 0.31434378027915955 -0.44041872024536133 0.6539530754089355 0.1780465841293335 -0.16102927923202515 0.18761494755744934 0.018380096182227135 -0.3096843361854553 0.16079571843147278 -0.27177107334136963 0.07189595699310303 0.017372537404298782 1.2932021617889404 -0.32015344500541687 0.2089434564113617 -0.06334483623504639 -0.19396869838237762 -0.2978721857070923 -0.09692393243312836 -0.112190842628479 -0.04191897064447403 -0.09509019553661346 -0.038056880235672 -0.11012721061706543 -0.04076838493347168 0.15226975083351135 -0.4635314345359802 -0.025577157735824585 0.37597402930259705 0.024382170289754868 -0.05351346731185913 -0.21238848567008972 0.02146945893764496 -0.5262581706047058 -0.052940063178539276 0.2122909426689148 -0.6053778529167175 0.11263206601142883 0.17066429555416107 0.09827558696269989 -0.03626513108611107 -0.06592124700546265 0.04215807840228081 -0.3578455448150635 -0.04753991961479187 0.7584764361381531 -0.12255281209945679 -0.038941800594329834 0.2800787091255188 -0.24605876207351685 -0.32786470651626587 -0.2740175724029541 0.3650601804256439 -0.05122339352965355 0.3376995921134949 -0.21427103877067566 -0.16327838599681854 0.2341170310974121 -0.29028719663619995 -0.29445886611938477 -0.5368263125419617 -0.2447059005498886 -1.2077547311782837 0.16164621710777283 0.10828682035207748 -0.21133840084075928 -0.749920129776001 0.13758736848831177 0.20823495090007782 0.14811119437217712 0.1705249398946762 0.4383689761161804 -0.06718582659959793 0.07813654839992523 -0.04407666623592377 -0.9196662902832031 0.047238003462553024 0.2858101725578308 -0.6145157217979431 -0.3398038148880005 0.21764439344406128 0.0557941198348999 0.08916862308979034 -0.6774687170982361 0.17027565836906433 -0.036229249089956284 0.28226375579833984 -0.09758296608924866 0.027034318074584007 0.22326026856899261 0.01782311126589775 -0.05339261144399643 0.2689279019832611 0.005332167260348797 -0.5143903493881226 0.08660440146923065 0.0024248238187283278 0.4885551929473877 -0.12469232082366943 0.3405555188655853 -0.11092394590377808 -0.0791388750076294 -0.2586689889431 0.10687281936407089 -0.10584454983472824 0.1806803047657013 -0.4316442906856537 -0.07404117286205292 0.09661658853292465 -0.04189169034361839 0.06585508584976196 -0.14793241024017334 0.043779175728559494 0.11341073364019394 0.12856212258338928 -0.054736025631427765 0.14498117566108704 0.15860682725906372 0.04491916298866272 -0.041262853890657425 0.037205033004283905 -0.4405152499675751 0.0676204189658165 0.048894986510276794 -0.10187037289142609 -0.40614819526672363 -0.3680301904678345 0.01149819791316986 -0.4737013578414917 0.34786075353622437 -0.49129408597946167 0.17895399034023285 0.012970994226634502 -0.10607032477855682 0.28855985403060913 -0.32777753472328186 0.3932367265224457 -0.10212229937314987 0.34810155630111694 0.17635950446128845 0.13748550415039062 0.2581877112388611 0.18723581731319427 0.17366991937160492 -0.029718056321144104 -0.19905142486095428 0.02792052924633026 0.4543064534664154 -0.3295678496360779 0.2983747720718384 -0.1624143123626709 -0.05729290097951889 0.10176335275173187 -0.16393256187438965 -0.07786931097507477 -0.07496081292629242 0.026626255363225937 -0.04292907938361168 0.18039792776107788 0.28069716691970825 -0.5091785192489624 0.6278774738311768 0.20996153354644775 -0.08079005777835846 -0.42517727613449097 -0.3886178135871887 -0.04699894040822983 0.1595296412706375 0.010299492627382278 0.010714909061789513 -0.28520941734313965 0.16781167685985565 0.3577168881893158 0.5847277641296387 0.683186411857605 0.2961154580116272 0.9161666631698608 0.20572230219841003 0.08964281529188156 -0.2447325438261032 -0.06356113404035568 -0.11261968314647675 -0.23238953948020935 0.4692639708518982 -0.2647733688354492 0.2362959086894989 0.16589750349521637 0.36858659982681274 0.11968231201171875 0.7585367560386658 0.17469964921474457 -0.09711426496505737 -0.3287484645843506 0.11062304675579071 -0.5169828534126282 -0.22827526926994324 -0.2934219241142273 0.36626574397087097 0.14833593368530273 0.02479669079184532 0.09445541352033615 -0.11693283915519714 -0.653160035610199 -0.4440891742706299 0.9884895086288452 -0.1495991051197052 -0.2007945477962494 -0.28304561972618103 -0.46782511472702026 -0.8936630487442017 -0.2210187315940857 0.08467977494001389 0.17235372960567474 -0.12677894532680511 0.22660642862319946 0.1866440623998642 -0.37950393557548523 0.519113302230835 0.01598368212580681 0.7227479219436646 0.30791962146759033 0.4495888650417328 -0.02411644719541073 -0.034123726189136505 0.2462616264820099 0.03881438076496124 0.26801759004592896 0.1338616907596588 -0.3043022155761719 -0.07215328514575958 0.06632444262504578 -0.041620612144470215 0.07178089022636414 0.1871248185634613 -0.035610467195510864 0.6163437366485596 0.1441313773393631 -0.2518922984600067 0.04016993194818497 0.4547140598297119 0.7091066837310791 0.08384227007627487 0.014648869633674622 0.09293340891599655 0.04928077757358551 -0.06168147921562195 -0.44910740852355957 0.12492852658033371 0.239464670419693 0.0014527937164530158 0.20689153671264648 -0.22792474925518036 -0.35576340556144714 -0.4181140661239624 -0.25149309635162354 -0.18584589660167694 -0.4775182604789734 -0.07812774181365967 -0.06788989156484604 -0.13206025958061218 -0.058938127011060715 -0.5475956201553345 0.05743558704853058 0.6155455708503723 0.0465090274810791 0.5903271436691284 -0.3353538513183594 -0.29705724120140076 0.10889327526092529 -0.6147122383117676 -0.08483388274908066 -0.5526125431060791 -0.18760065734386444 -0.14164847135543823 -0.08893005549907684 0.43094342947006226 0.04757693037390709 -0.2787124514579773 -0.18375977873802185 0.009683087468147278 -0.17211705446243286 -0.3311395049095154 0.4225940406322479 -0.4088744521141052 -0.047961484640836716 -0.1541011780500412 0.6237348318099976 -0.29237404465675354 0.25142180919647217 -0.5163353681564331 -0.10884782671928406 -0.1295943558216095 -0.009451137855648994 -0.13557443022727966 0.4897190034389496 -0.359534353017807 -2.1919655799865723 0.3829987049102783 0.2559313178062439 0.267395943403244 0.05029919743537903 0.19823841750621796 0.36661601066589355 -0.22439539432525635 0.1455237716436386 0.2831241488456726 0.3081774115562439 -0.04885123297572136 0.2638748288154602 -0.028597958385944366 0.28426530957221985 -0.5853133201599121 0.05852639675140381 -0.015405101701617241 0.369690477848053 0.16442710161209106 0.26303404569625854 0.08690039813518524 0.36191269755363464 -0.4257919192314148 0.03698468953371048 0.3387664258480072 -0.09552814811468124 -0.08224181830883026 0.19400230050086975 0.08142607659101486 -0.06193115934729576 0.16324061155319214 0.03183551877737045 -0.23060612380504608 0.08634113520383835 0.40768522024154663 -0.43805378675460815 -0.5137588381767273 0.08890029788017273 0.03334137424826622 0.4730151891708374 0.05793222412467003 0.18716961145401 -0.97120201587677 -0.014409517869353294 0.3427123427391052 -0.2830289602279663 0.019880233332514763 0.1401781439781189 0.2662348747253418 -0.04736722633242607 0.43763038516044617 -0.11066766828298569 -0.0931117981672287 -0.2244909405708313 -0.051466044038534164 -0.1315237134695053 0.41554662585258484 -0.16961154341697693 0.27061185240745544 0.03177015855908394 -0.30048567056655884 -0.15511302649974823 0.06316031515598297 0.1407248079776764 -0.08870774507522583 -0.294783353805542 -0.2651391625404358 0.22181031107902527 -0.2843378782272339 -0.0002089962363243103 0.1837615668773651 -0.14359793066978455 0.21894264221191406 -0.08164049685001373 -0.055486470460891724 -0.026648078113794327 0.3491353392601013 0.012378279119729996 0.12076357007026672 0.14921988546848297 0.35783886909484863 0.3621196746826172 -0.1387110948562622 0.0095041049644351 0.5410552024841309 -0.17550227046012878 0.3378417491912842 0.16345933079719543 0.10554321855306625 0.0976359099149704 0.7636346817016602 -0.16988562047481537 0.28691038489341736 0.1652987152338028 0.10712675750255585 0.056019388139247894 0.18038532137870789 2.5344059467315674 0.3480064272880554 -0.07236412167549133 -0.34622693061828613 0.1789991855621338 0.3855770528316498 0.19370125234127045 -0.05015195161104202 -0.3308302164077759 0.036742087453603745 -0.8477236032485962 0.23957791924476624 0.054357197135686874 -0.3643515706062317 0.28362399339675903 0.5418964624404907 0.011136616580188274 0.04881025478243828 0.15580403804779053 0.09460826963186264 0.30001914501190186 0.11552673578262329 0.26683077216148376 -0.27678221464157104 0.07239507138729095 0.18069994449615479 0.1911625862121582 0.3157351016998291 0.2463516891002655 0.2581033706665039 -0.00256270170211792 0.16955795884132385 0.14717279374599457 0.37763142585754395 -0.05460379645228386 -0.009568095207214355 -0.33710598945617676 10.584474563598633 -0.19707909226417542 -0.049401335418224335 -0.12187783420085907 0.4155982434749603 0.03090028464794159 0.05467227101325989 0.14078035950660706 -0.17380881309509277 0.06399562209844589 -0.11314892768859863 0.12677720189094543 -0.05114748701453209 -0.5862030982971191 -0.025907492265105247 -0.05437134951353073 0.20768152177333832 0.47681868076324463 -0.29518258571624756 -0.24964408576488495 -0.07711514085531235 -0.18180927634239197 0.09548061341047287 0.503507137298584 -0.1303562968969345 -0.20687156915664673 -0.558276355266571 0.40814638137817383 0.03189430013298988 -0.24074256420135498 0.2682834565639496 -0.049197398126125336 -0.014224693179130554 -0.22411781549453735 0.19822323322296143 0.4387178122997284 -0.8254591822624207 -0.1933356523513794 0.07107363641262054 -0.08510224521160126 0.0739632397890091 -0.09644629806280136 0.1745443195104599 -0.11680270731449127 0.289861798286438 0.2906166911125183 -0.6358314752578735 0.38665732741355896 0.4231414794921875 0.10211154818534851 0.19455133378505707 0.1547049880027771 0.03005683422088623 -0.5370392203330994 -0.12227994203567505 -0.04367787763476372 0.5869351625442505 0.027290087193250656 -0.0914393961429596 -0.9264935255050659 -0.06643947958946228 0.17662012577056885 0.18368355929851532 0.013212764635682106 -0.5743075609207153 -0.2223566770553589 0.3601129949092865 0.0831775888800621 -0.1363426148891449 0.044487785547971725 0.050836361944675446 -0.02448899671435356 -0.09578666090965271 0.021412646397948265 -0.13441666960716248 -0.24325989186763763 -0.41789254546165466 -0.11889799684286118 -0.3244471549987793 -0.11484002321958542 0.020544102415442467 0.4154115617275238 0.010692773386836052 0.10049434751272202 0.16035526990890503 0.03568016737699509 0.1680169701576233 -0.021358773112297058 0.12904122471809387 -0.3295040726661682 -0.33110111951828003 0.09039808809757233 0.16436949372291565 -0.27607905864715576 0.21607020497322083 0.218276709318161 -0.2923266887664795 0.2964646518230438 0.3080700635910034 0.06816758960485458 -0.48276934027671814 0.16042456030845642 -0.2469753921031952 0.18753764033317566 0.04799053072929382 0.13932815194129944 0.16495496034622192 -0.629396915435791 -0.015384053811430931 0.24425894021987915 -0.12669987976551056 0.33191823959350586 0.2765170931816101 0.06050214171409607 -0.255251407623291 -0.4622085690498352 0.08629556000232697 -0.12774445116519928 0.11136992275714874 0.574567437171936 -0.26134106516838074 0.1156727522611618 0.019884144887328148 -0.406400203704834 -0.07197548449039459 0.025616448372602463 -0.12443141639232635 0.21214699745178223 0.3154159188270569 -0.030147138983011246 0.05023878067731857 0.06945839524269104 0.20352724194526672 0.2576288878917694 0.11209157109260559 -0.34689587354660034 0.3154178857803345 -0.14035698771476746 0.4255351424217224 -0.006886894814670086 -0.148531973361969 0.21107739210128784 -0.14680032432079315 -0.10566040128469467 -0.29459407925605774 0.3662535846233368 -0.016981448978185654 -0.1892707198858261 0.33910995721817017 -0.15857796370983124 -0.11314030736684799 -0.22864262759685516 0.22285442054271698 0.13403868675231934 0.02688927948474884 0.11380377411842346 -0.1829719841480255 0.3390023410320282 0.32116538286209106 0.027985401451587677 -0.3389682173728943 -0.8940194845199585 -0.2264687418937683 -0.4026661813259125 -0.4728073477745056 0.09034954011440277 -0.23282206058502197 -0.148838073015213 -0.012967864982783794 -0.03139050677418709 0.17024372518062592 -0.16200068593025208 0.08227220177650452 0.056541889905929565 0.7195846438407898 -0.23094695806503296 0.1731616109609604 -1.061244249343872 0.3558719754219055 -0.002918057143688202
node_44	-0.02286413684487343 0.2497120350599289 0.10483988374471664 -0.07792297005653381 0.733272910118103 -0.5985515117645264 0.09667995572090149 0.5060297250747681 0.22108718752861023 -0.536084771156311 0.20456747710704803 0.4975771903991699 0.3197200298309326 -0.45553159713745117 0.18782326579093933 -0.7830957174301147 0.5553882718086243 0.3914794325828552 -0.23599094152450562 -0.3696790337562561 -0.12352412939071655 0.21965639293193817 0.085884690284729 0.4518101215362549 -0.2756114602088928 0.006980841513723135 0.31685659289360046 0.13192695379257202 0.3630867898464203 0.3236115872859955 -0.34851592779159546 0.1389179527759552 0.16268128156661987 -0.07321427762508392 -0.580748975276947 -0.07992783188819885 -0.5081324577331543 0.14694103598594666 0.15926963090896606 0.1636565625667572 -0.6213769912719727 0.12281286716461182 0.3099146783351898 -0.1492617428302765 0.06768956780433655 -0.09443962574005127 0.235283762216568 0.08855866640806198 0.2573256194591522 -0.15392623841762543 0.09297621250152588 -0.390904039144516 -0.1138407438993454 0.04974954575300217 -0.08412200212478638 0.17168544232845306 -0.3656467795372009 0.25658783316612244 0.6152746677398682 -0.10187815129756927 0.3826407194137573 0.16573181748390198 0.21578574180603027 0.034548282623291016 0.14083555340766907 0.50416100025177 -0.08673517405986786 -0.8309611082077026 0.21257618069648743 -0.11457406729459763 -0.0008138343691825867 0.31114256381988525 -0.031738199293613434 0.16190968453884125 -0.22625820338726044 -0.17585745453834534 0.3143988251686096 -1.4610003232955933 -0.03392259031534195 0.7136120200157166 0.006263889372348785 -0.1604306995868683 1.2473584413528442 -0.02602415345609188 0.10145404189825058 -0.9482650756835938 0.1375333070755005 -0.1798737496137619 0.22275996208190918 0.3340032994747162 0.49026089906692505 0.04053189605474472 -0.2052714228630066 0.2507114112377167 -0.10868442058563232 0.10776709765195847 -0.25244954228401184 0.04965174198150635 -0.32579100131988525 0.1874077022075653 0.16587255895137787 -0.018172569572925568 0.1287713646888733 -0.1410224735736847 0.009798897430300713 0.02644961141049862 0.08243701606988907 -0.3391515910625458 0.04483840987086296 0.188033327460289 0.26861703395843506 -0.21663492918014526 -0.20302048325538635 -0.08693524450063705 -0.24461615085601807 0.3369975984096527 -0.21395306289196014 0.06649554520845413 -0.1155463457107544 -0.20169353485107422 0.2777087092399597 -0.0765751451253891 0.14451181888580322 -0.3145035207271576 0.02825886756181717 0.5690770149230957 0.13887761533260345 -0.07337799668312073 -0.06992721557617188 -0.26108109951019287 -0.25990718603134155 -0.9465789794921875 -0.15996897220611572 -0.09071189165115356 -0.04813485965132713 0.23871073126792908 0.016865743324160576 0.10892057418823242 -0.04349210113286972 0.014012637548148632 -0.2699172794818878 0.09974376857280731 0.1284092515707016 0.20341959595680237 0.45051226019859314 -0.3227698504924774 -0.00021771341562271118 -0.27136003971099854 -0.3188678026199341 0.1708534210920334 -0.21289782226085663 0.4600381553173065 0.0033874735236167908 0.10336755961179733 -0.34784096479415894 0.41760462522506714 -0.14955757558345795 0.042816128581762314 -0.526336133480072 0.4551180303096771 0.13598299026489258 0.011993220075964928 0.30446895956993103 0.008200302720069885 -0.22013597190380096 0.23764055967330933 -0.2253347635269165 0.0015453349333256483 0.1711789071559906 0.9730502367019653 -0.31926611065864563 -0.003969530574977398 -0.029388001188635826 -0.17488601803779602 -0.04172324389219284 -0.07920197397470474 -0.01735631749033928 -0.048124127089977264 -0.08735530823469162 0.03790372982621193 -0.09803184121847153 0.041146621108055115 0.13095180690288544 -0.4880823493003845 0.050815414637327194 0.3413392901420593 0.004011782817542553 0.048948146402835846 -0.23078417778015137 0.004452752880752087 -0.2908628582954407 -0.2545773983001709 0.29860734939575195 -0.5664346218109131 0.07097511738538742 0.3282890021800995 -0.02138127200305462 -0.1569482535123825 0.11442773044109344 0.005801161285489798 -0.30087026953697205 -0.032707758247852325 0.3999999165534973 -0.15764255821704865 0.014539634808897972 0.4827946424484253 0.13336560130119324 -0.18320415914058685 -0.37245798110961914 0.3800768554210663 -0.11718478053808212 1.0227563381195068 -0.1418464034795761 -0.1612764149904251 0.17873212695121765 -0.34359943866729736 -0.33837518095970154 -0.14869722723960876 -0.32168182730674744 -1.102879285812378 0.032521385699510574 -0.050566550344228745 -0.12986509501934052 -0.9184659719467163 0.4115182161331177 0.5567272305488586 0.10938151925802231 0.16113363206386566 0.4298715591430664 0.011359930038452148 0.08976476639509201 -0.19805960357189178 -0.6255743503570557 0.010955339297652245 0.33719760179519653 -0.5380421280860901 -0.4280034899711609 0.3087025284767151 0.12618699669837952 0.2131866216659546 -0.5498300790786743 0.1480802744626999 -0.1273580938577652 0.2048865556716919 -0.00675621535629034 -0.18992875516414642 -0.004801690578460693 -0.1258150190114975 -0.12491299957036972 0.12845484912395477 0.13708534836769104 -0.16686098277568817 0.11985039710998535 0.04376542568206787 0.3878287672996521 -0.21715223789215088 0.303414911031723 -0.06701390445232391 -0.055568717420101166 -0.10578694194555283 0.14019131660461426 -0.20535027980804443 0.2166610211133957 -0.3208247721195221 -0.10186514258384705 0.11265643686056137 -0.057988014072179794 0.027747932821512222 -0.20166735351085663 -0.00792557280510664 0.1546981930732727 0.059093400835990906 -0.0007387474179267883 0.18463635444641113 0.03400562331080437 0.2137753963470459 0.0359293594956398 -0.036511700600385666 -0.4733138084411621 0.008576249703764915 0.03399745747447014 -0.19843369722366333 -0.3582892417907715 -0.28207167983055115 -0.038079798221588135 -0.40493255853652954 0.18323668837547302 -0.3889188766479492 0.09358160197734833 0.0543954074382782 -0.1732475757598877 0.3526015281677246 -0.5325241088867188 0.4483659267425537 -0.13948117196559906 0.31659120321273804 0.21884307265281677 0.22433796525001526 0.24829113483428955 0.2766740322113037 -0.14242637157440186 -0.0006534358253702521 -0.08270084112882614 -0.07151943445205688 0.31648799777030945 -0.35668426752090454 0.3384307324886322 -0.2992110252380371 -0.05981387943029404 0.2703056037425995 -0.09281819313764572 -0.05083204433321953 -0.17769518494606018 0.3063673675060272 -0.024411140009760857 0.02883068099617958 0.12641140818595886 -0.535713791847229 0.5409579277038574 0.0620260015130043 -0.1679019033908844 -0.1912117600440979 -0.3249070346355438 -0.015973344445228577 0.27865710854530334 -0.1366855949163437 0.28624090552330017 -0.24174556136131287 0.2530536949634552 0.277156263589859 1.1887329816818237 0.7295181155204773 0.33077242970466614 0.7810348868370056 0.24558767676353455 0.20646867156028748 -0.2978426516056061 -0.055652569979429245 -0.006585327442735434 -0.2159249186515808 0.17875979840755463 -0.3520272672176361 0.4127531945705414 0.09460483491420746 0.3759274482727051 0.05229669064283371 0.7622827887535095 0.2052288055419922 0.06668493151664734 -0.3684732913970947 0.029614407569169998 -0.355567067861557 -0.10553491115570068 -0.2974313497543335 0.3338627517223358 0.3359774351119995 -0.028220048174262047 -0.04851342365145683 -0.026595836505293846 -0.4349665641784668 -0.36324000358581543 0.7450953722000122 -0.010648287832736969 -0.3245854079723358 -0.28432697057724 -0.36815959215164185 -1.2594505548477173 -0.1334524303674698 0.12653841078281403 0.10878926515579224 -0.04368866980075836 0.02585822343826294 0.12853440642356873 -0.06625210493803024 0.1886461228132248 -0.06925071775913239 0.5150902271270752 0.5998861789703369 0.5083808898925781 -0.11495068669319153 -0.13524889945983887 0.23368534445762634 0.12078696489334106 0.24852816760540009 0.1635122001171112 -0.23972606658935547 -0.051163118332624435 0.23836581408977509 0.18148136138916016 0.002068447647616267 0.2783295810222626 0.02273312769830227 0.2190171778202057 0.25406184792518616 -0.11702027171850204 0.03561725839972496 0.22327348589897156 0.6764904856681824 -0.23594939708709717 0.05452040955424309 0.16617989540100098 0.02485429309308529 -0.10440757125616074 0.11496317386627197 0.24614642560482025 0.5304754972457886 -0.1130329966545105 0.09287955611944199 -0.12435449659824371 -0.446697473526001 -0.21375441551208496 -0.23606912791728973 -0.3530133366584778 -0.5460087060928345 -0.171281099319458 -0.08077944815158844 0.09533905237913132 -0.16894689202308655 -0.47621092200279236 0.26722049713134766 0.586498498916626 0.0016657996457070112 0.4822404384613037 -0.20709776878356934 -0.43167632818222046 0.12746059894561768 -0.6398142576217651 -0.1443886011838913 -0.658296525478363 -0.19541382789611816 -0.00623058807104826 0.02485746704041958 0.27095431089401245 0.05987083911895752 -0.21952155232429504 0.004712515510618687 0.09366030991077423 -0.13599926233291626 -0.2092665433883667 0.4969627261161804 -0.4027225375175476 -0.18240231275558472 -0.2687074542045593 0.5164908766746521 -0.25128883123397827 0.30120331048965454 0.007458130829036236 -0.1969221532344818 -0.3524330258369446 0.15726594626903534 -0.12907636165618896 0.45623117685317993 -0.8231325149536133 -2.573084831237793 0.5166985392570496 0.2786720097064972 0.10056599974632263 0.07163901627063751 0.14536142349243164 0.13822978734970093 -0.24299320578575134 0.057731494307518005 0.18593725562095642 0.49726438522338867 -0.005817781202495098 0.05934737250208855 0.10141130536794662 0.24397236108779907 -0.41578227281570435 -0.009176529012620449 -0.013909168541431427 0.41914987564086914 0.10389669984579086 0.2104504108428955 0.05574914440512657 0.41057705879211426 -0.08052458614110947 -0.029673755168914795 0.4197566509246826 0.11436483263969421 0.004903145134449005 0.13536715507507324 -0.07638856768608093 -0.16987505555152893 0.027858614921569824 -0.050269030034542084 -0.124455027282238 -0.07874909788370132 0.3686995208263397 -0.41683468222618103 -0.2597542107105255 0.5246223211288452 -0.09814136475324631 0.40907618403434753 0.05921247601509094 0.006239854730665684 -1.085911750793457 0.10993587970733643 -0.3639224171638489 -0.21545343101024628 0.1199260950088501 0.20465239882469177 0.18049269914627075 0.05821050703525543 0.28954601287841797 -0.14098992943763733 -0.15868359804153442 -0.1784745156764984 -0.050321727991104126 -0.09157904237508774 0.3391164243221283 0.02624649927020073 -0.007929524406790733 0.09793269634246826 -0.24852709472179413 -0.13089647889137268 0.07990767806768417 0.2865658700466156 -0.06144179403781891 -0.3831292390823364 -0.17337796092033386 0.18165552616119385 -0.21534964442253113 -0.2132703959941864 0.14407670497894287 -0.007333476096391678 0.3378608226776123 -0.108295738697052 -0.05297199636697769 -0.23138980567455292 0.16777479648590088 0.17498904466629028 0.1837439239025116 0.22442618012428284 0.32745811343193054 0.13463683426380157 -0.28704148530960083 -0.04634855315089226 0.15596753358840942 -0.4776579737663269 0.4003846049308777 0.21672585606575012 -0.18525546789169312 0.06778579950332642 0.5151796936988831 -0.1523241102695465 -0.002663552761077881 0.16001492738723755 0.08258286863565445 0.06536825746297836 -0.1014733612537384 2.8615756034851074 0.46085119247436523 -0.07060917466878891 -0.48989245295524597 0.14596599340438843 0.316025972366333 0.12652894854545593 0.04658360406756401 -0.060273945331573486 -0.0663958340883255 -0.37955135107040405 0.28512197732925415 -0.13226985931396484 -0.2984490990638733 0.41808128356933594 0.5401272773742676 -0.02295517921447754 0.09910500049591064 0.0805729478597641 -0.5920262336730957 0.22357329726219177 0.08954211324453354 -0.20253893733024597 -0.27873510122299194 -0.027313124388456345 0.09996172040700912 0.11502814292907715 0.32904645800590515 0.2616126537322998 0.36904972791671753 -0.18431374430656433 0.14363333582878113 -0.12323015928268433 0.28111696243286133 -9.66365187196061e-05 0.17299917340278625 -0.29833146929740906 10.918638229370117 -0.03866587206721306 0.11893726885318756 0.03504404053092003 0.18606552481651306 -0.057153888046741486 0.14587488770484924 0.16040238738059998 -0.19766061007976532 0.008940170519053936 -0.0838964506983757 0.1442875862121582 -0.1834571808576584 -0.5129527449607849 0.07634767144918442 0.0497640036046505 0.3184419274330139 0.4560781717300415 0.07715066522359848 -0.18803411722183228 0.11535520851612091 0.1532624065876007 0.06438747048377991 0.5593483448028564 -0.10136386752128601 0.010795767419040203 -0.6168357133865356 0.39168816804885864 0.10478056967258453 -0.28877854347229004 0.31520676612854004 -0.13571375608444214 -0.10478538274765015 -0.17464624345302582 0.12591859698295593 0.608140230178833 -0.4386807084083557 -0.23819884657859802 0.050784237682819366 -0.3508458137512207 -0.059904735535383224 -0.2645222544670105 0.06297385692596436 -0.06464023888111115 0.18567922711372375 0.30925342440605164 -0.4716060757637024 0.36088499426841736 0.4279085397720337 0.18562732636928558 0.24553780257701874 0.1890079826116562 0.13234813511371613 -0.4633806645870209 -0.10662135481834412 0.0183706171810627 0.6283031702041626 -0.008950388059020042 -0.14968836307525635 -0.9434525966644287 -0.11086410284042358 0.0881972536444664 -0.0415700227022171 0.06671382486820221 -0.3348260819911957 -0.3436032235622406 0.4464587867259979 0.18603351712226868 0.12156219780445099 0.07300592958927155 -0.04514863342046738 -0.3006296157836914 -0.07709307968616486 0.043420951813459396 -0.34546276926994324 -0.5975704193115234 -0.33974629640579224 -0.1516619771718979 -0.1646445393562317 -0.20223502814769745 0.15241850912570953 0.4291101098060608 0.1628124713897705 -0.05221916735172272 -0.2391616553068161 0.004142442252486944 0.13831625878810883 -0.054478369653224945 0.3313220143318176 -0.30310067534446716 -0.24201904237270355 0.07169042527675629 0.09583821147680283 -0.34573861956596375 0.196771502494812 0.11090801656246185 -0.04058416187763214 0.2516147494316101 0.10048377513885498 0.1714600771665573 -0.3937767446041107 0.15454654395580292 -0.25257208943367004 0.25624263286590576 0.15921561419963837 0.07958537340164185 0.15483593940734863 -0.575636625289917 0.009990273043513298 0.29564958810806274 -0.10138118267059326 0.18247735500335693 0.06651749461889267 0.028485625982284546 -0.24809813499450684 -0.40492093563079834 0.062451139092445374 -0.027869664132595062 0.14887186884880066 0.6567097902297974 -0.23320436477661133 0.04741707444190979 -0.048299700021743774 -0.37275227904319763 0.08389616012573242 0.0465339832007885 -0.03933638334274292 0.14800021052360535 0.2747105062007904 0.023854192346334457 0.02032572589814663 -0.038826968520879745 0.30819427967071533 0.2512351870536804 0.04092038795351982 -0.385367751121521 0.12521810829639435 -0.12256145477294922 0.5425096154212952 0.0020597875118255615 0.09168299287557602 0.14640754461288452 -0.2137795090675354 -0.3489810824394226 -0.1063145250082016 0.062183357775211334 -0.09720196574926376 0.32000261545181274 0.4704439640045166 -0.1817512959241867 -0.18641993403434753 -0.3281738758087158 -0.1163972020149231 0.16148285567760468 -0.1359500288963318 0.1642257422208786 -0.0256650410592556 0.43106895685195923 0.35019350051879883 0.11513956636190414 -0.12300333380699158 -0.7661022543907166 -0.7162396907806396 -0.23375192284584045 0.4305286407470703 0.13220959901809692 0.05894588679075241 -0.16920702159404755 0.21080724895000458 -0.08473420143127441 0.09501315653324127 -0.1222333237528801 -0.13248664140701294 -0.04793155938386917 0.7517102956771851 -0.17805461585521698 -0.19054898619651794 -0.9490734934806824 0.15528279542922974 0.07182539999485016
node_28	-0.13036148250102997 0.12104690074920654 0.06700960546731949 -0.07053451985120773 0.9394681453704834 -0.6000016927719116 0.03762777894735336 0.32811781764030457 -0.015266669914126396 -0.6612127423286438 0.19761154055595398 0.23546287417411804 0.2915419936180115 -1.0185850858688354 0.2194918841123581 -0.44889602065086365 0.31996941566467285 0.33292925357818604 -0.11213372647762299 -0.5192083120346069 -0.15329238772392273 0.11143426597118378 0.23547017574310303 0.37739133834838867 -0.4839894473552704 0.11677786707878113 0.37263309955596924 0.24079649150371552 0.25156712532043457 0.24486598372459412 -0.2735489010810852 0.08365126699209213 0.14669352769851685 0.0546410009264946 -0.4134182929992676 0.05673658102750778 -0.5666553974151611 0.21877294778823853 0.29421648383140564 0.05571691691875458 -0.2908623516559601 0.7003417015075684 0.3657383322715759 -0.03803495317697525 0.14548411965370178 -0.16775956749916077 0.035525739192962646 0.7096869349479675 0.2860587239265442 -0.1933312714099884 0.021749556064605713 -0.3448142409324646 -0.12537969648838043 -0.020565390586853027 -0.08988847583532333 -0.022808104753494263 -0.33959847688674927 0.1338702142238617 0.6024259328842163 -0.18046258389949799 0.31745225191116333 0.4770939350128174 0.1353904902935028 0.15765643119812012 0.014321446418762207 0.2658557891845703 -0.21113669872283936 -0.46277517080307007 0.22158724069595337 0.0253516286611557 -0.1290244609117508 0.3345954418182373 -0.048800449818372726 -0.22494249045848846 -0.13057729601860046 0.02338527701795101 0.1464424431324005 -1.6640347242355347 0.07051205635070801 0.7515730857849121 0.09070485830307007 -0.09194503724575043 1.7291115522384644 0.0889209657907486 -0.07172668725252151 -0.8498424291610718 0.15936905145645142 -0.30532991886138916 0.22548365592956543 0.4784126877784729 0.5400590300559998 -0.005717610474675894 -0.15157991647720337 0.5647425651550293 -0.07089950144290924 0.17482052743434906 -0.32762694358825684 -0.1221352219581604 -0.3566344976425171 0.14335845410823822 0.31488287448883057 0.0164150670170784 0.16881272196769714 0.11539924144744873 0.23365449905395508 0.34245598316192627 -0.06266152858734131 -0.3657386898994446 -0.040486954152584076 0.23145632445812225 0.1668749749660492 -0.18297046422958374 -0.1390402615070343 0.03739963099360466 -0.3221082091331482 0.03343551978468895 -0.21950075030326843 0.09961064159870148 -0.029514040797948837 0.021387463435530663 0.48555463552474976 -0.09224480390548706 -0.19415676593780518 -0.11645981669425964 -0.01992061547935009 0.3423059582710266 0.14981025457382202 -0.0568123385310173 -0.12320493161678314 -0.35844382643699646 -0.23261108994483948 -0.37011584639549255 -0.11624014377593994 -0.09041926264762878 -0.023226400837302208 0.2671678364276886 -0.07461174577474594 0.0908772274851799 -0.03776557743549347 0.035966452211141586 -0.2808073163032532 0.027596235275268555 0.2496514618396759 0.03281473368406296 0.6088565587997437 -0.12434719502925873 -0.06951853632926941 -0.3849582076072693 -0.22100549936294556 0.22955428063869476 -0.10693216323852539 0.4051147401332855 -0.06169191747903824 0.12219279259443283 -0.2538551986217499 0.34612077474594116 -0.26885077357292175 -0.011522236280143261 -0.5605466961860657 0.7681541442871094 0.11999619007110596 -0.015124778263270855 0.2119135558605194 0.11307975649833679 -0.2546975612640381 0.1392723172903061 -0.2523729205131531 -0.04488994926214218 0.030617862939834595 0.7619414329528809 -0.17950734496116638 0.020379118621349335 -0.0969843789935112 -0.35099536180496216 -0.10271023958921432 -0.05040627345442772 -0.13543757796287537 -0.11284326016902924 -0.09797390550374985 0.12577180564403534 -0.048396073281764984 0.0870622843503952 0.2998519539833069 -0.3897230327129364 -0.02445024624466896 0.28637611865997314 0.1953013837337494 0.03215768560767174 -0.25982338190078735 -0.009966393932700157 -0.37012991309165955 -0.12625104188919067 0.17001426219940186 -0.2907516360282898 0.237390398979187 0.21527934074401855 -0.009788529016077518 -0.039831727743148804 0.13126012682914734 -0.10157275199890137 -0.20219139754772186 0.058056049048900604 0.5672903060913086 -0.12746953964233398 0.030770599842071533 0.1822771281003952 0.051504455506801605 -0.1397809088230133 -0.4340254068374634 0.16247627139091492 -0.16178123652935028 0.9118776321411133 -0.16171292960643768 -0.2656264901161194 0.23294219374656677 -0.2992677092552185 -0.4251711368560791 0.08151137083768845 -0.3866628408432007 -0.8564245700836182 0.09998726844787598 0.009189914911985397 -0.09134592115879059 -0.8109437227249146 0.2621458172798157 0.3762553334236145 0.15279343724250793 0.13313531875610352 0.23327845335006714 -0.13369444012641907 0.004786578472703695 -0.28108689188957214 -0.4040038585662842 0.0993598997592926 0.33025631308555603 -0.5556179285049438 -0.39217519760131836 0.22531740367412567 0.024950634688138962 0.11928295344114304 -0.6254891157150269 0.23413054645061493 -0.04665042459964752 0.23107121884822845 -0.026019757613539696 0.03714703768491745 0.04994013532996178 0.23742668330669403 -0.10945083200931549 0.03899567574262619 -0.08405105769634247 -0.48086223006248474 -0.008230030536651611 0.016180630773305893 0.8099519610404968 -0.21048486232757568 0.07851448655128479 -0.01229797676205635 -0.10700537264347076 -0.27490320801734924 0.04016438126564026 -0.06246088445186615 0.20408591628074646 -0.3020065426826477 -0.21678850054740906 -0.09255322068929672 -0.08420636504888535 0.03903698921203613 -0.1256493628025055 0.12715408205986023 0.2304748296737671 0.03737127035856247 0.13139277696609497 0.36760589480400085 0.008180472068488598 0.04855514317750931 -0.03582550585269928 -0.05424615740776062 0.08263103663921356 -0.042939215898513794 -0.04209914058446884 -0.15015149116516113 -0.17238663136959076 -0.4207576513290405 -0.14844879508018494 -0.37575918436050415 0.23265370726585388 -0.40816593170166016 0.17337755858898163 0.0829894095659256 -0.11914986371994019 0.3470671772956848 -0.4910390079021454 0.4509415030479431 -0.3344918191432953 0.30333369970321655 0.2244749516248703 0.393160343170166 0.29280441999435425 0.049081332981586456 0.1765778362751007 0.2739492654800415 -0.005286361090838909 -0.0907711386680603 0.23210883140563965 -0.30910617113113403 0.3018326759338379 -0.002048423048108816 -0.003269406734034419 0.28984349966049194 -0.08264147490262985 0.04494009539484978 -0.1723579466342926 0.1384163200855255 -0.001977337058633566 0.1898670643568039 0.15714126825332642 -0.3217792510986328 0.5321620106697083 0.11404986679553986 -0.1200266033411026 -0.15192332863807678 -0.3181111216545105 -0.017269959673285484 -0.16423465311527252 0.0400971919298172 0.08315218985080719 -0.21983709931373596 0.2524539828300476 0.4007672965526581 1.1458653211593628 0.7444555163383484 0.3142218291759491 0.27494555711746216 0.24783548712730408 0.10881263017654419 -0.3101816177368164 -0.03146236762404442 -0.03033854067325592 -0.16438338160514832 0.34157276153564453 -0.10210325568914413 0.027262777090072632 0.1468939334154129 0.3353716731071472 0.07212391495704651 0.8275267481803894 0.06797575205564499 0.0046137599274516106 -0.3084350526332855 -0.1938002109527588 -0.2135046422481537 -0.15176784992218018 -0.5411701202392578 0.40260276198387146 0.24984773993492126 0.06487156450748444 -0.07895054668188095 -0.19315624237060547 -0.00040890774107538164 -0.336223304271698 0.8353961706161499 -0.03155165910720825 -0.28136783838272095 -0.24993035197257996 -0.228597030043602 -0.7214096784591675 -0.06151410937309265 -0.0009583309292793274 0.1576109528541565 -0.23660385608673096 0.26195627450942993 0.2831016778945923 -0.2928457260131836 0.3334774672985077 -0.12350615859031677 0.6871142387390137 0.4335176348686218 0.2425040453672409 -0.046411167830228806 -0.061479490250349045 0.2604787349700928 0.0740518569946289 0.23507735133171082 0.07720738649368286 -0.13296471536159515 -0.10171230882406235 0.2870599925518036 0.1670234650373459 0.14903584122657776 0.1731148213148117 0.30836546421051025 0.3845866620540619 0.3158712387084961 -0.15672072768211365 0.0413704439997673 0.3789103627204895 0.12056948989629745 -0.19708696007728577 0.13940174877643585 0.1353870928287506 0.20053164660930634 -0.05524720251560211 -0.12440638244152069 0.25621768832206726 0.28737199306488037 0.0400242917239666 0.21066002547740936 -0.3954246938228607 -0.8243169784545898 -0.48291897773742676 -0.4367288053035736 -0.3368620276451111 -0.2696964144706726 -0.24619579315185547 -0.0654078796505928 -0.03819103538990021 -0.28723740577697754 -0.5429394245147705 0.2768441140651703 0.5067400932312012 0.07338683307170868 0.5784095525741577 -0.1677989959716797 -0.3391876220703125 0.1869889348745346 -0.7152146100997925 -0.16192716360092163 -0.4419113099575043 -0.15327593684196472 -0.037627533078193665 -0.10770295560359955 0.35993704199790955 -0.09350335597991943 -0.17677545547485352 -0.08215388655662537 0.034948430955410004 -0.16529127955436707 -0.09421214461326599 0.28934812545776367 -0.3718678653240204 -0.15428435802459717 -0.19583797454833984 0.2860735058784485 -0.32592135667800903 0.4207049310207367 -0.4149291217327118 -0.16091161966323853 -0.15798673033714294 -0.00593744358047843 -0.13782992959022522 0.5272958278656006 -0.6064614057540894 -2.324957847595215 0.3264627158641815 0.18362757563591003 0.11465822160243988 0.09243156760931015 0.224313423037529 0.23890118300914764 -0.29000622034072876 -0.020338719710707664 0.19347122311592102 0.35627758502960205 -0.0938236340880394 0.2626578211784363 -0.023588787764310837 0.1252937614917755 -0.5170084238052368 0.00816306471824646 0.07228615880012512 0.4420585334300995 0.12365823984146118 0.18010613322257996 0.07396146655082703 0.29482728242874146 -0.22528260946273804 0.09121932834386826 0.33154138922691345 0.03058495745062828 -0.001738299964927137 0.1507011353969574 -0.06363657861948013 -0.02266014739871025 0.029196342453360558 3.827115142485127e-05 -0.13673800230026245 0.007866310887038708 0.3380246162414551 -0.4628520905971527 -0.3958670496940613 0.226095050573349 -0.00831768661737442 0.47852468490600586 0.056679561734199524 0.08252158015966415 -1.1728050708770752 -0.1780407726764679 -0.12140538543462753 -0.32465001940727234 0.013049585744738579 0.17711091041564941 0.17456373572349548 -0.08650416135787964 0.36240631341934204 0.002313206670805812 -0.08900034427642822 -0.30244117975234985 0.09928271174430847 -0.20993435382843018 0.30833667516708374 0.08275116980075836 0.003498874604701996 0.08936472982168198 -0.290327787399292 -0.08389773219823837 0.18523691594600677 0.1596062183380127 0.09885907173156738 -0.8155525922775269 -0.19498273730278015 0.1401045173406601 -0.1523279994726181 -0.1835590898990631 0.12100934237241745 0.006686853244900703 0.25396105647087097 0.01614115573465824 0.028673749417066574 -0.29122674465179443 0.21767741441726685 0.12036347389221191 0.18230408430099487 0.11040906608104706 0.5386605262756348 0.32287833094596863 -0.0998026579618454 0.06409420818090439 0.6374236941337585 -0.21335852146148682 -0.29452428221702576 0.1531393826007843 0.008786658756434917 0.14713464677333832 0.48015984892845154 -0.19715404510498047 0.04839606210589409 0.03671926632523537 0.1093803346157074 0.061452608555555344 0.10619955509901047 2.999373435974121 0.3659815788269043 0.04429496452212334 -0.20425140857696533 0.13945016264915466 0.38325509428977966 0.11110346019268036 0.036894913762807846 -0.1689079999923706 0.048184193670749664 0.16225320100784302 0.19485223293304443 0.07626785337924957 -0.7023916244506836 0.30702102184295654 0.46758589148521423 -0.10650692880153656 0.18552617728710175 0.17094019055366516 0.6575090885162354 0.2531338930130005 0.11802217364311218 0.5979422330856323 -0.22141949832439423 0.020449355244636536 0.1107732504606247 0.133009672164917 0.13068771362304688 0.22259709239006042 0.33307021856307983 -0.029411081224679947 0.16462436318397522 -0.20670828223228455 0.4257166385650635 0.08621007204055786 0.26934635639190674 -0.31979671120643616 10.740413665771484 -0.25056856870651245 0.022301536053419113 -0.087685227394104 0.1128208339214325 -0.0174285676330328 0.04228746518492699 0.044709425419569016 -0.145461305975914 0.15336556732654572 -0.04955176264047623 -0.05765382945537567 -0.1164049357175827 -0.5028951168060303 -0.11918962001800537 0.01920146867632866 0.1764717549085617 0.44604775309562683 -0.08971913903951645 -0.23937687277793884 -0.13045963644981384 -0.08108024299144745 0.04455294832587242 0.8668067455291748 -0.3120465874671936 -0.029135271906852722 -0.5399360060691833 0.4425611197948456 0.17387503385543823 -0.16370889544487 0.3378746509552002 -0.025452744215726852 -0.12175058573484421 -0.23582522571086884 0.06502573192119598 0.2640674114227295 -1.0078299045562744 -0.24525848031044006 0.12261359393596649 -0.22269219160079956 0.06579506397247314 -0.29512467980384827 0.04866751283407211 0.08577048778533936 0.32432568073272705 0.3825516700744629 -0.574966549873352 0.26929062604904175 0.2127486765384674 0.0894591435790062 0.17776530981063843 0.1137647032737732 0.09694804251194 -0.3522278666496277 -0.09467792510986328 -0.07053306698799133 0.524031400680542 0.01045968197286129 -0.09997125715017319 -0.45405030250549316 -0.05361573025584221 0.03809636831283569 0.03864968195557594 0.11860877275466919 0.08509612083435059 -0.30570468306541443 0.4418134391307831 0.27283430099487305 0.5060632824897766 0.25350067019462585 -0.012070054188370705 -0.043069154024124146 -0.1131616160273552 0.19259995222091675 -0.21821019053459167 -0.28127527236938477 -0.14098891615867615 -0.26830148696899414 -0.23713967204093933 -0.11841006577014923 -0.03352881595492363 0.4355061650276184 0.13379132747650146 0.07817704975605011 -0.6206883788108826 0.018048465251922607 0.024005930870771408 0.042096540331840515 0.39215701818466187 -0.2308727502822876 -0.08879397809505463 0.0056054494343698025 0.13577944040298462 -0.31357312202453613 0.17755818367004395 0.044446080923080444 -0.1878393143415451 0.2048247754573822 0.2602927088737488 0.050542108714580536 -0.4565556049346924 0.15578442811965942 -0.3335743844509125 0.025977378711104393 0.21488749980926514 0.13445284962654114 0.0909862220287323 -0.7418869733810425 -0.15755043923854828 0.2707676291465759 -0.1770445555448532 0.11565281450748444 0.29745155572891235 0.33467990159988403 -0.21914410591125488 -0.4051351547241211 0.07192139327526093 -0.07108842581510544 0.10309815406799316 0.5823893547058105 -0.3130740523338318 -0.014270596206188202 -0.012361913919448853 -0.4279825687408447 -0.1275782734155655 -0.10673694312572479 -0.12191091477870941 0.3061382472515106 0.1489020138978958 -0.04747617244720459 -0.07244376093149185 -0.11276750266551971 -0.5607165694236755 0.16325965523719788 0.03829503804445267 -0.22459861636161804 0.1276523917913437 -0.09464304894208908 0.5603282451629639 -0.05968745797872543 0.006262050475925207 0.16649791598320007 -0.12219315767288208 -0.3021995723247528 -0.23299187421798706 0.29524320363998413 -0.04274747520685196 0.24644610285758972 0.47416505217552185 -0.13062776625156403 -0.1516536921262741 -0.305439293384552 0.11779209226369858 0.33075422048568726 -0.14796914160251617 0.10398437082767487 -0.07503465563058853 0.5210868120193481 0.20057706534862518 0.06513436883687973 -0.3184996247291565 -1.012305498123169 -0.42321786284446716 -1.0500296354293823 0.40305227041244507 5.7794153690338135e-05 -0.17964491248130798 -0.11420455574989319 0.029394149780273438 0.04746444523334503 0.43525204062461853 -0.30663812160491943 -0.12624138593673706 -0.06698673963546753 0.6025574207305908 -0.22099444270133972 0.06762459129095078 -1.022237777709961 0.17171290516853333 -0.02037597820162773
